{"runId":18,"createdAt":"2026-07-18T19:25:40.857Z","modelFamily":"mlp_v1","hiddenLayers":[256,128],"inputSize":300,"outputSize":59,"outputNumbers":[1,2,3,4,5,6,7,8,9,10,11,12,13,14,15,16,17,18,19,20,21,22,23,24,25,26,27,28,29,30,31,32,33,34,35,36,37,38,39,40,41,42,43,44,45,46,47,48,49,50,51,52,53,54,55,56,57,58,59],"weights":[{"name":"dense_Dense7519/kernel","shape":[300,256],"values":[-0.0981002226471901,0.034383922815322876,0.04244604706764221,-0.02112225629389286,-0.003310964908450842,-0.022719107568264008,-0.007925448007881641,0.0731554925441742,0.0676221176981926,-0.05870853364467621,-0.04991476610302925,-0.04669332876801491,-0.04028806835412979,-0.07508932799100876,-0.009482084773480892,0.029497643932700157,0.017225580289959908,-0.11106584966182709,0.09015574306249619,-0.04596016928553581,0.011372914537787437,0.009831267409026623,-0.03804997727274895,0.012867207638919353,-0.027833320200443268,0.05697724595665932,-0.01380531582981348,-0.0060503920540213585,-0.22028778493404388,-0.07213948667049408,0.050755128264427185,0.021121922880411148,-0.04404563084244728,-0.08840565383434296,-0.004973395261913538,0.024120597168803215,-0.033575061708688736,-0.07058436423540115,0.09231630712747574,-0.043328940868377686,-0.03366097807884216,0.04101957008242607,0.03699398785829544,-0.028535010293126106,0.010029674507677555,0.007572263479232788,-0.11049474030733109,0.10161859542131424,-0.0005804062238894403,0.06615112721920013,-0.060519374907016754,0.06727879494428635,0.010978677310049534,0.04306153208017349,0.02618398144841194,0.042202018201351166,0.09949936717748642,0.032419804483652115,0.040655266493558884,-0.02663637138903141,0.09440231323242188,-0.019474279135465622,0.0305325984954834,0.08066065609455109,-0.029125714674592018,0.035825811326503754,-0.044310878962278366,0.07160766422748566,0.04128680005669594,0.10915719717741013,-0.01372419111430645,-0.08456465601921082,0.004834209568798542,0.05427638441324234,-0.06652383506298065,-0.09422014653682709,-0.07545959949493408,-0.0007419207249768078,0.08371391147375107,-0.0073338644579052925,0.0019527169642969966,-0.04297485947608948,-0.05426674336194992,0.09007728844881058,-0.018053457140922546,0.0502169094979763,-0.04709742218255997,-0.07296474277973175,0.03639217093586922,-0.0958806574344635,0.030254552140831947,0.10622650384902954,-0.017020853236317635,0.028104163706302643,-0.22036141157150269,-0.00831794273108244,0.04424741491675377,0.07461123913526535,-0.08207928389310837,-0.040966328233480453,-0.0437341183423996,-0.0015974080888554454,-0.09725531935691833,-0.07071791589260101,0.03624429181218147,0.03064632974565029,-0.061745982617139816,0.1020122617483139,0.18293577432632446,-0.07942868024110794,0.07177373766899109,-0.05976201966404915,-0.010944763198494911,-0.07520470768213272,0.021421879529953003,0.06747148185968399,-0.047911230474710464,0.020335985347628593,0.046409137547016144,-0.010676940903067589,0.07179836183786392,0.07930337637662888,-0.02754988893866539,0.006570689380168915,-0.014942153356969357,-0.046112652868032455,0.02427099645137787,-0.028447415679693222,-0.1170719712972641,0.060529593378305435,-0.003477745922282338,-0.013154745101928711,-0.043456923216581345,0.011855671182274818,0.005875042639672756,-0.06290153414011002,0.05881659686565399,0.09608502686023712,-0.010652264580130577,0.06081236153841019,0.11177986860275269,-0.11804044246673584,-0.03363629803061485,0.07225216180086136,0.03991657495498657,-0.04384452849626541,0.005955071188509464,0.03807837516069412,0.02415810339152813,0.0184404905885458,-0.046371378004550934,0.0830506756901741,-0.0017994705121964216,0.014976929873228073,0.09017565101385117,0.08924459666013718,-0.10411442071199417,-0.09752099215984344,-0.04316529259085655,-0.13873469829559326,0.0065074157901108265,-0.20105695724487305,-0.002789434976875782,0.0036769642028957605,-0.030960362404584885,-0.05565337464213371,-0.006776868365705013,-0.017992084845900536,0.06561364233493805,-0.10628405958414078,0.08753305673599243,-0.10210070013999939,-0.10303854942321777,-0.0201055109500885,-0.01975334621965885,-0.07040183991193771,0.09557903558015823,-0.12446753680706024,-0.05623333156108856,-0.06318093091249466,-0.019679071381688118,-0.0013193528866395354,-0.05313465744256973,0.001108253956772387,-0.09163278341293335,0.03659232333302498,-0.05668315663933754,-0.02682875283062458,0.13220876455307007,0.05555238574743271,-0.0007942082011140883,0.0471501387655735,-0.140393927693367,-0.059158846735954285,0.011737032793462276,-0.10672881454229355,0.012265870347619057,0.0384400375187397,-0.08785509318113327,-0.10331391543149948,-0.0009763863636180758,0.043075986206531525,-0.018423274159431458,-0.01306504849344492,-0.04311016574501991,0.046674203127622604,0.0034215387422591448,-0.10312449187040329,0.023002922534942627,-0.008419142104685307,-0.0479879267513752,0.10213875770568848,-0.013427614234387875,0.013545632362365723,-0.03910624980926514,0.020475156605243683,0.04027806967496872,-0.03654307499527931,-0.07596264779567719,-0.0618152841925621,-0.04603574424982071,-0.06328274309635162,0.029495099559426308,-0.051194798201322556,0.10512018948793411,-0.08558951318264008,0.06001173332333565,-0.013178979977965355,-0.037172410637140274,-0.0353664830327034,0.02686690166592598,-0.06920917332172394,0.045154884457588196,0.07204148918390274,-0.09218905866146088,-0.03279316797852516,-0.07433537393808365,0.0064155892468988895,0.06604762375354767,-0.035674937069416046,-0.04772910475730896,-0.07736712694168091,-0.009021327830851078,0.033641885966062546,0.003733652178198099,0.05841908976435661,0.08838477730751038,-0.05023708567023277,-0.05604175105690956,-0.09293840825557709,-0.134230837225914,0.005158725660294294,-0.053939517587423325,0.05810955539345741,-0.016115834936499596,0.08722742646932602,0.013757429085671902,0.03296860679984093,0.04119063541293144,0.028617480769753456,-0.05717796832323074,0.01954651065170765,0.0024144151248037815,-0.004670799244195223,0.04248235374689102,0.061072513461112976,0.07442329078912735,-0.016358301043510437,0.0646766945719719,-0.02231873944401741,-0.032526563853025436,-0.047590434551239014,0.008626100607216358,-0.04242559149861336,-0.003412935882806778,-0.0013723570154979825,-0.013457272201776505,-0.012401092797517776,-0.016337905079126358,-0.008988827466964722,0.052911464124917984,0.044217027723789215,-0.08556018024682999,-0.08668586611747742,-0.1834239661693573,-0.0008068553870543838,0.016812456771731377,0.00017289991956204176,-0.08164600282907486,-0.05369240418076515,-0.0872376337647438,-0.008590225130319595,-0.018267305567860603,0.05081035569310188,-0.010627968236804008,0.09169309586286545,0.07049193978309631,0.096290722489357,-0.010323434136807919,-0.005171104799956083,0.020564846694469452,-0.08064398169517517,-0.035064924508333206,0.04002898186445236,-0.034352123737335205,0.059166498482227325,0.010212691500782967,-0.08524464070796967,-0.08900997042655945,0.0020447399001568556,-0.014024713076651096,-0.020729603245854378,0.029649578034877777,0.09566216915845871,0.0032256387639790773,-0.0415024608373642,-0.02154901809990406,-0.060366190969944,-0.10106213390827179,0.030789850279688835,0.02407287247478962,-0.025472469627857208,0.028364665806293488,0.033844489604234695,-0.044138941913843155,-0.0062291864305734634,0.017435941845178604,-0.13824544847011566,-0.008914317935705185,-0.04253459721803665,0.10684863477945328,-0.19423067569732666,0.05209347605705261,-0.00930273998528719,0.038737427443265915,0.0621216706931591,-0.0964917242527008,-0.08575691282749176,-0.006313488818705082,-0.02191423811018467,0.04572628065943718,0.023276716470718384,-0.05798497796058655,0.018538476899266243,0.08367019146680832,0.0681021586060524,0.014036109670996666,-0.005932962987571955,-0.05973166972398758,-0.06669516861438751,-0.09393242001533508,0.09889954328536987,0.11068970710039139,-0.023763911798596382,0.08506651222705841,0.018451359122991562,0.08030545711517334,-0.057021621614694595,-0.16149061918258667,0.14612725377082825,-0.05668456479907036,-0.01173714641481638,-0.06981707364320755,0.13839493691921234,0.08966287970542908,0.022823994979262352,0.10247433930635452,-0.03083771839737892,0.06620810180902481,-0.1265997290611267,-0.00787269789725542,-0.012599297799170017,-0.035658098757267,0.10194095969200134,-0.07332712411880493,-0.028389768674969673,-0.06987245380878448,-0.01587577536702156,0.05405975505709648,-0.027874140068888664,-0.06445053964853287,-0.1044173538684845,-0.031932950019836426,0.07610084116458893,-0.11133424192667007,-0.10134750604629517,0.047009095549583435,-0.004503326024860144,0.04922182857990265,-0.009467600844800472,-0.015548495575785637,-0.09254053235054016,0.05988556891679764,-0.02788175456225872,-0.038744065910577774,0.08661787211894989,-0.010569879785180092,-0.09370069205760956,-0.015101252123713493,-0.009320824407041073,-0.025310877710580826,-0.01283351331949234,-0.009141767397522926,0.10769422352313995,-0.0017593097873032093,0.10263656824827194,0.011789321899414062,0.04447103291749954,0.04433591291308403,-0.024345694109797478,-0.08569448441267014,0.1061561331152916,0.011901662684977055,0.0327332466840744,-0.035845935344696045,-0.061213091015815735,0.03230253979563713,-0.07861223816871643,-0.040052324533462524,-0.06355586647987366,0.03641742467880249,-0.0910114273428917,0.07422853261232376,-0.022454306483268738,0.017463525757193565,-0.060214344412088394,0.17920592427253723,-0.07993754744529724,0.004709654487669468,-0.0008414707845076919,-0.013196553103625774,-0.020285816863179207,-0.020527323707938194,0.007117752451449633,-0.00893759448081255,-0.027504468336701393,0.026915984228253365,0.049454718828201294,-0.02816837467253208,0.057224519550800323,0.012284016236662865,0.000574532663449645,-0.04359258711338043,-0.03789135068655014,0.1495664417743683,0.009365477599203587,-0.012062396854162216,-0.0764869973063469,-0.16138741374015808,-0.05951869487762451,0.027231160551309586,0.03809172660112381,-0.0191287063062191,0.08872183412313461,0.10035001486539841,-0.05159766227006912,-0.058808278292417526,-0.022655097767710686,0.020517194643616676,0.002956329844892025,-0.012342908419668674,0.0044103688560426235,-0.00446618627756834,-0.03232258930802345,0.05578600987792015,-0.06621132045984268,0.013113581575453281,0.09240789711475372,-0.09046726673841476,-0.020094864070415497,0.010831895284354687,0.08397994190454483,-0.10667648166418076,-0.0726642906665802,0.004550443962216377,0.005433779209852219,0.0535033643245697,0.021141985431313515,-0.07587648928165436,-0.06570345908403397,0.02484842576086521,-0.06490319222211838,-0.002615097677335143,0.007583220023661852,-0.02849731408059597,0.04248734191060066,0.08186163753271103,-0.08151598274707794,-0.03136274218559265,0.01786293089389801,0.04420039430260658,0.01368051115423441,0.02013147622346878,-0.014037255197763443,-0.03103712573647499,-0.0005679263267666101,-0.10071559995412827,0.07740837335586548,0.10112147033214569,-0.04942482337355614,0.028246937319636345,-0.1019606962800026,-0.0019283912843093276,0.053355008363723755,0.04444742202758789,-0.04651237651705742,-0.15380123257637024,0.024541642516851425,0.029868267476558685,-0.009703070856630802,-0.013767896220088005,0.0681694820523262,0.02699003741145134,-0.03529271483421326,-0.07048913091421127,0.03838679566979408,0.022977767512202263,-0.05747436359524727,0.055660128593444824,0.03422955051064491,-0.02988595888018608,0.07696408778429031,0.05216103792190552,-0.07581639289855957,-0.013980735093355179,-0.14684142172336578,0.052144940942525864,-0.049631714820861816,0.03126067668199539,0.04154825955629349,-0.016422899439930916,-0.007039948366582394,-0.05077798292040825,0.06497164815664291,0.027425507083535194,0.0033295731991529465,0.0930328518152237,0.07125263661146164,-0.006659200415015221,-0.011338808573782444,-0.1632353514432907,-0.02811996079981327,-0.01812431402504444,0.07288774102926254,0.013529999181628227,-0.032605499029159546,0.006979396566748619,-0.02623680606484413,-0.05599953606724739,-0.0032426558900624514,0.038238681852817535,-0.015660565346479416,-0.08593283593654633,0.004770795814692974,0.054134976118803024,0.08523590117692947,-0.07562334090471268,0.04085691273212433,0.007522845175117254,0.06198808178305626,0.0490308552980423,-0.022529788315296173,0.010394697077572346,0.08280787616968155,-0.03406253829598427,-0.04449216648936272,-0.026539336889982224,-0.05119771882891655,-0.05373848229646683,0.06783291697502136,0.015498141758143902,-0.03802020102739334,0.11740858107805252,-0.030861420556902885,0.023104995489120483,-0.03746781870722771,-0.006150268949568272,-0.06604208052158356,-0.03664551302790642,0.003440381260588765,-0.01859712228178978,0.09334395825862885,-0.050946108996868134,-0.07230488210916519,-0.012229311279952526,-0.0017320687184110284,-0.061266057193279266,0.03275081887841225,0.11444960534572601,-0.08035337924957275,-0.09232567250728607,0.09504197537899017,0.006602097302675247,0.05937860906124115,0.0004632682539522648,0.031070156022906303,-0.07076100260019302,-0.05977180227637291,-0.055370181798934937,0.07561133056879044,0.016442233696579933,0.07614804804325104,-0.11918535083532333,0.015071005560457706,-0.04097224399447441,-0.020322902128100395,-0.07995256781578064,0.06081444397568703,-0.0023308524396270514,-0.06376607716083527,0.08282264322042465,-0.028793377801775932,-0.010027904063463211,0.01364666223526001,-0.0714392438530922,0.02440677583217621,0.077260322868824,-0.05010303109884262,0.0056008328683674335,0.015041249804198742,0.04036165773868561,-0.055388014763593674,-0.010485993698239326,0.10669263452291489,0.00808005966246128,0.03292018175125122,0.0681767538189888,-0.04480469226837158,-0.10169191658496857,-0.10889876633882523,0.0015230138087645173,0.03597182780504227,-0.049541231244802475,-0.06501689553260803,-0.04904431849718094,-0.054512541741132736,0.0633808821439743,-0.03954070433974266,-0.04905232787132263,-0.03287758678197861,-0.009464457631111145,0.025357212871313095,-0.011425711214542389,0.0009253309108316898,-0.010850938968360424,-0.04341898858547211,-0.006393981631845236,-0.03560918942093849,0.0839821845293045,-0.04043298959732056,0.001206747954711318,-0.0447746142745018,0.011007115244865417,-0.03666962683200836,-0.01725488342344761,-0.04154421016573906,-0.07535242289304733,0.08318591862916946,-0.049438007175922394,-0.07268626987934113,0.012178506702184677,-0.034416038542985916,0.023511696606874466,0.014678286388516426,0.03281141445040703,-0.10149786621332169,-0.012476598843932152,-0.07817092537879944,-0.03891201317310333,-0.05721824988722801,-0.05774437636137009,0.045672398060560226,0.08353500813245773,0.03621356189250946,0.048916131258010864,0.10263209789991379,0.022535843774676323,0.01763305813074112,0.031380973756313324,-0.1020093783736229,0.04366957023739815,0.05359905958175659,0.042584970593452454,0.027483535930514336,-0.011269962415099144,-0.08516085892915726,0.0901108905673027,0.017961520701646805,-0.02272755838930607,-0.013270326890051365,-0.026745332404971123,0.026856811717152596,-0.10733234882354736,0.05174867436289787,0.0713782012462616,-0.020189668983221054,-0.06150441989302635,0.06969044357538223,0.029672391712665558,0.0896846204996109,-0.075294628739357,0.0838100016117096,-0.002125750295817852,0.014642652124166489,-0.05076165124773979,-0.017039073631167412,-0.00966711901128292,-0.028443416580557823,-0.058871958404779434,-0.12449432164430618,0.04276343435049057,-0.04044735059142113,0.03411749750375748,-0.011071803979575634,-0.12425410002470016,0.022867785766720772,0.18409889936447144,0.04801631346344948,-0.0418938510119915,-0.07288409769535065,0.09257923811674118,-0.08898153156042099,0.022339437156915665,0.049865640699863434,0.07638546079397202,0.08637575060129166,-0.048008404672145844,0.026873182505369186,-0.05777549371123314,-0.01648571528494358,-0.05629301816225052,-0.04251352697610855,0.08620738983154297,0.09512339532375336,0.0062992931343615055,0.07461395859718323,0.00510298041626811,0.04069570451974869,-0.05638323724269867,-0.060567885637283325,0.06069114804267883,-0.03132791444659233,-0.020274043083190918,-0.03478504717350006,-0.06251164525747299,-0.08227022737264633,-0.007053380832076073,0.012079017236828804,0.08342485129833221,-0.10429273545742035,-0.056765057146549225,0.05567330867052078,-0.05922471359372139,0.05531536787748337,-0.04585302248597145,-0.04393526539206505,-0.0746053010225296,-0.08023269474506378,-0.010865958407521248,-0.016780555248260498,0.0012200819328427315,0.04360883682966232,-0.17446492612361908,0.008965374901890755,-0.07477713376283646,-0.04429275542497635,-0.03265179321169853,0.049663178622722626,0.08918220549821854,0.009126964956521988,-0.06964889913797379,0.06202628090977669,-0.009382760152220726,0.050077687948942184,0.009485427290201187,0.03326237201690674,0.05311916396021843,0.025531282648444176,0.017048228532075882,0.02829700894653797,-0.05816735699772835,-0.03493514657020569,0.05548793822526932,-0.06796253472566605,0.05519268661737442,0.1020531877875328,-0.07704589515924454,-0.006363453809171915,0.02294919267296791,-0.04545236751437187,-0.05010012164711952,0.07159953564405441,0.0033804692793637514,-0.055637214332818985,-0.08428580313920975,-0.09870360046625137,-0.0738876685500145,-0.07628720998764038,-0.028839126229286194,-0.07828780263662338,-0.09904013574123383,-0.01604474149644375,-0.057842131704092026,-0.029407937079668045,0.01018255390226841,0.052886541932821274,-0.01287348847836256,0.009616552852094173,-0.08966221660375595,-0.07100150734186172,-0.02260780893266201,0.01258688885718584,-0.018753990530967712,0.0006363023421727121,-0.087578684091568,-0.00036407262086868286,-0.041590649634599686,-0.026076514273881912,-0.05304515361785889,0.01931537128984928,-0.07381848245859146,0.022164201363921165,-0.04655594006180763,-0.11650527268648148,-0.033073630183935165,-0.018560247495770454,0.053486667573451996,0.07484326511621475,-0.06317229568958282,-0.11128365993499756,0.009165942668914795,-0.05522184446454048,-0.0002702225756365806,0.08807793259620667,-0.01576855219900608,0.03570060059428215,-0.027424268424510956,-0.0952296033501625,-0.025966959074139595,-0.05929688736796379,0.0710846409201622,0.04605885222554207,0.06207704916596413,-0.045605290681123734,0.003860016353428364,0.042166829109191895,-0.10023991763591766,-0.011227446608245373,-0.03781846910715103,-0.0551355741918087,-0.009615411050617695,-0.12417721748352051,0.01056960504502058,-0.011668580584228039,0.09519307315349579,-0.07341977953910828,-0.05550491064786911,-0.0001918426132760942,0.0035999843385070562,-0.056263502687215805,-0.006972453556954861,0.0021960469894111156,-0.035310082137584686,-0.06498533487319946,0.023513859137892723,-0.031160926446318626,0.058909572660923004,-0.010985469445586205,0.021628811955451965,-0.02424468658864498,-0.1018657386302948,0.07875864207744598,-0.11052508652210236,-0.014448750764131546,0.00643830606713891,0.06972773373126984,0.05701897293329239,-0.08191028237342834,-0.14708350598812103,-0.03590088337659836,0.061471350491046906,0.16600188612937927,0.028128162026405334,-0.056904569268226624,-0.017289170995354652,-0.03670796751976013,0.004374605603516102,0.004134852904826403,-0.08964458107948303,0.03548707813024521,-0.04928422346711159,0.023915238678455353,-0.009634124115109444,-0.10345641523599625,-0.10375840961933136,0.04373539984226227,-0.08390972018241882,0.0926031693816185,0.08581805974245071,0.014128787443041801,0.0025364039465785027,-0.023471934720873833,-0.017999542877078056,-0.04377208650112152,0.034631405025720596,0.11010797321796417,-0.04492439702153206,-0.06417141854763031,-0.045753393322229385,0.09424664825201035,0.06801926344633102,-0.10907536000013351,0.05421150475740433,-0.0008892321493476629,0.0010727914050221443,0.03596026077866554,0.04402517154812813,-0.037517283111810684,0.008496765978634357,-0.07361127436161041,-0.07807261496782303,-0.08304889500141144,-0.10004901885986328,0.04932515323162079,0.03683769702911377,-0.01614309288561344,-0.007148043718189001,0.09391036629676819,-0.04811342433094978,-0.00751615921035409,-0.008104659616947174,0.0866411104798317,-0.027385897934436798,-0.04656652733683586,0.06281139701604843,-0.022960593923926353,0.09765756130218506,0.029778743162751198,0.034728847444057465,-0.08962547034025192,0.024924421682953835,0.04594455286860466,0.0716717541217804,-0.07874844968318939,-0.014966527000069618,-0.12597396969795227,-0.011205785907804966,-0.11875177919864655,0.04327778145670891,0.018208755180239677,-0.07288502901792526,-0.08572372794151306,-0.04096303507685661,-0.002242778893560171,-0.0782233402132988,-0.0648878738284111,0.07077907770872116,0.0008474242058582604,0.025672608986496925,-0.06960483640432358,-0.08445291966199875,-0.019870156422257423,0.012675607576966286,0.017051255330443382,0.06918589770793915,0.0030682634096592665,0.05311419442296028,0.0781434178352356,0.00486168684437871,-0.05142339691519737,-0.11570031195878983,0.030877240002155304,0.05512286350131035,-0.010048768483102322,-0.041569456458091736,0.06189572066068649,-0.062285374850034714,-0.058852553367614746,-0.018837232142686844,-0.037066441029310226,0.017676446586847305,0.05595734715461731,-0.08644883334636688,-0.04832301661372185,0.10102132707834244,0.12686088681221008,-0.03083612024784088,-0.022362111136317253,-0.006654898636043072,0.07564583420753479,0.031170209869742393,-0.034913524985313416,0.035698145627975464,-0.012026948854327202,0.05562540516257286,-0.09488044679164886,-0.02986617013812065,0.011557122692465782,-0.11470267176628113,-0.05019830912351608,0.0041632275097072124,-0.0064381808042526245,0.020181823521852493,-0.12638206779956818,0.059745583683252335,0.027791842818260193,0.05487149953842163,-0.007492499426007271,0.011084350757300854,-0.006842128001153469,-0.016655830666422844,0.00032891452428884804,-0.015882985666394234,0.09279218316078186,-0.12430571019649506,0.012678376398980618,-0.08784428238868713,-0.016777150332927704,-0.09590320289134979,0.010060627944767475,0.012888130731880665,-0.12004929035902023,-0.038152504712343216,-0.08540655672550201,0.055660516023635864,-0.02692830003798008,-0.07685944437980652,-0.05658239498734474,-0.07423181086778641,-0.02727852202951908,0.03523814678192139,-0.032904792577028275,0.0007921230280771852,-0.021642817184329033,-0.09471523016691208,0.057748351246118546,0.03970418870449066,-0.009623846039175987,0.01694103516638279,0.03639783710241318,-0.06867098063230515,-0.08409906923770905,-0.03507952019572258,0.0885372906923294,0.004378373268991709,-0.11491254717111588,-0.03977770358324051,-0.07390899956226349,0.04458790645003319,0.045516230165958405,0.08175604790449142,-0.024271005764603615,0.07067365944385529,0.012254945002496243,-0.07415100932121277,0.03994842246174812,0.04143821448087692,-0.02958967536687851,0.0041488767601549625,-0.002622677246108651,0.08975063264369965,0.06025007739663124,-0.0236419178545475,-0.09874146431684494,-0.009753026068210602,-0.047209907323122025,0.051257140934467316,0.03596619516611099,-0.00826603639870882,0.045346952974796295,0.07697723805904388,0.09646549075841904,-0.028708847239613533,-0.03219197317957878,-0.03425244241952896,0.03304610028862953,-0.030854521319270134,0.15075412392616272,0.045495692640542984,0.004838732071220875,-0.01683114282786846,-0.054215557873249054,0.002302788430824876,0.04339679330587387,-0.08786265552043915,-0.04945496842265129,0.018841009587049484,0.05169207230210304,-0.055636927485466,0.014254143461585045,-0.09754805266857147,0.048073917627334595,-0.010536788031458855,-0.09501618146896362,-0.019693680107593536,0.07146625220775604,0.05808211863040924,-0.0552634559571743,-0.01737448200583458,0.03644590824842453,-0.01699100062251091,-0.10837078839540482,-0.05026678740978241,-0.05511053651571274,-0.07590989768505096,0.014405959285795689,0.0018926151096820831,-0.057688526809215546,0.012217373587191105,0.004510874394327402,0.04584380239248276,-0.021981418132781982,-0.009581360965967178,0.08440741151571274,-0.06427530944347382,-0.04970940575003624,0.006626597605645657,-0.07533679902553558,-0.06594076007604599,-0.00748480437323451,-0.09252943098545074,-0.051819004118442535,-0.0804404616355896,-0.0719059556722641,-0.10239704698324203,0.06814722716808319,-0.014038504101336002,0.0667196661233902,0.008140360936522484,0.10412827134132385,0.008709259331226349,0.05259789153933525,-0.06187542900443077,-0.002821700181812048,-0.028432540595531464,-0.09024251997470856,0.06250558793544769,0.06816097348928452,0.05229272320866585,-0.0014347682008519769,-0.009078245609998703,0.009632718749344349,-0.007865363731980324,-0.07721558958292007,0.061154503375291824,-0.05438978970050812,0.031294096261262894,0.07117808610200882,0.007431890815496445,-0.029762737452983856,-0.03579151630401611,-0.047323986887931824,0.0028829737566411495,-0.00519088190048933,-0.029300855472683907,0.04766242951154709,0.022406065836548805,-0.002257346408441663,-0.01964271441102028,-0.013048731721937656,0.007689217571169138,0.1283397674560547,-0.02600754052400589,-0.05829303711652756,-0.018681108951568604,-0.021770048886537552,-0.08991555869579315,-0.015601136721670628,-0.0436493456363678,-0.10254296660423279,0.021213723346590996,-0.0017912936164066195,0.07336550205945969,-0.050506219267845154,0.021358145400881767,-0.021064652130007744,0.003211625386029482,0.029294395819306374,-0.05351542681455612,0.004934085067361593,0.07984820753335953,-0.06271768361330032,0.001831744913943112,0.01926332339644432,0.034723687916994095,0.002378166886046529,-0.08537380397319794,-0.012047925032675266,0.07871890068054199,-0.0026524297427386045,0.013826287351548672,0.02915804460644722,-0.0846540555357933,-0.01892968825995922,0.01358754187822342,0.040939658880233765,-0.001659969100728631,0.023530887439846992,-0.10004308819770813,0.0257168747484684,-0.019914411008358,-0.0719250962138176,-0.04248829931020737,-0.02332015335559845,0.023882383480668068,-0.10715337097644806,0.05782155692577362,0.05218757316470146,0.0898972749710083,-0.1023397147655487,-0.012112811207771301,-0.05587358400225639,-0.007037180010229349,0.023355914279818535,-0.07223527133464813,0.09410130977630615,-0.05795631930232048,0.034457575529813766,-0.057126808911561966,0.010192252695560455,-0.00365487951785326,-0.06295951455831528,-0.02377895452082157,0.09468164294958115,-0.009187383577227592,0.027925170958042145,0.009748238138854504,0.034936871379613876,0.056979820132255554,0.008746425621211529,0.03605049476027489,0.048736151307821274,-0.12049982696771622,-0.03635179251432419,-0.02869221195578575,-0.0008889205637387931,-0.06063086539506912,-0.08721675723791122,-0.02090389095246792,-0.01369206327944994,-0.024059491232037544,-0.06037607789039612,0.007836057804524899,0.028068294748663902,0.028249727562069893,0.0558101125061512,0.029142502695322037,0.022066539153456688,0.10106096416711807,0.11814722418785095,0.018876342102885246,-0.042770273983478546,0.04611251875758171,0.009582165628671646,0.007179765496402979,0.028576331213116646,-0.07524330914020538,0.06913775205612183,0.07236558198928833,-0.029991917312145233,0.027583086863160133,0.10182029008865356,-0.09577875584363937,0.07356448471546173,-0.013341711834073067,-0.08877456188201904,0.03912185877561569,0.04869309067726135,-0.03476044163107872,-0.032095927745103836,-0.09318828582763672,-0.02367476001381874,0.03979238122701645,-0.03089059330523014,-0.04598527401685715,-0.026983115822076797,-0.0903317853808403,-0.033603735268116,0.04091823473572731,-0.049149010330438614,0.0842762440443039,-0.07575569301843643,-0.09742820262908936,0.005587076302617788,0.005108098033815622,-0.11251372843980789,-0.060434740036726,0.006506830453872681,-0.027778878808021545,-0.06253054738044739,-0.00861781369894743,-0.02612973377108574,0.07188167423009872,-0.05024135112762451,-0.059626128524541855,0.027820197865366936,-0.013897961936891079,-0.05202319845557213,0.028968166559934616,-0.004544154740869999,0.006591418292373419,-0.00423560943454504,-0.022635024040937424,-0.06225474923849106,0.01890862174332142,-0.01763986237347126,0.10490152984857559,0.09199411422014236,-0.007107615005224943,-0.01094803772866726,-0.043234046548604965,-0.01884515769779682,0.0030490991193801165,0.06453157961368561,-0.06361982226371765,-0.07752577215433121,-0.0026274865958839655,-0.07850345224142075,0.010355929844081402,-0.031093252822756767,0.0034220064990222454,-0.02144227921962738,0.10527568310499191,0.0026521978434175253,0.03975782170891762,-0.04147566109895706,-0.013060658238828182,0.009897218085825443,0.08225809782743454,0.013612148351967335,-0.08738739043474197,-0.03145153447985649,0.045430026948451996,0.057374630123376846,-0.05460067465901375,-0.002892039716243744,-0.0531107559800148,-0.09290195256471634,-0.07609470933675766,-0.043836675584316254,0.026452990248799324,-0.03297848254442215,0.09032772481441498,-0.042051050812006,-0.05376538261771202,-0.006304201669991016,0.031183943152427673,0.0764140784740448,-0.06856376677751541,0.042516276240348816,0.046771321445703506,-0.06820866465568542,-0.09659712016582489,-0.018749570474028587,0.06027060002088547,-0.049758944660425186,-0.008258881978690624,-0.09245022386312485,-0.030661776661872864,-0.07279081642627716,0.03399914130568504,-0.08615928143262863,-0.0485391803085804,-0.013632352463901043,0.04948873072862625,-0.08031000196933746,0.0010933584999293089,-0.013749070465564728,0.04695787653326988,0.009015753865242004,-0.028727121651172638,-0.015649551525712013,-0.021166391670703888,-0.06402838230133057,0.029630513861775398,-0.021366043016314507,-0.1134541928768158,-0.06370082497596741,-0.04802849143743515,-0.007446161936968565,0.015969637781381607,0.09389206767082214,-0.13251842558383942,0.09206756204366684,0.07429135590791702,-0.00959790963679552,0.037391141057014465,-0.021624701097607613,0.0841711238026619,-0.0441875122487545,0.03819001838564873,0.07386200875043869,0.06833287328481674,0.05025520175695419,-0.03421695530414581,0.0266294963657856,-0.0357518270611763,0.002545445691794157,-0.04104740917682648,0.028732692822813988,-0.036348145455121994,-0.019931700080633163,0.018816553056240082,0.008587852120399475,0.019897334277629852,-0.03252324461936951,-0.11565510183572769,0.048690006136894226,0.006879192776978016,-0.1252921223640442,-0.022205688059329987,-0.07142048329114914,-0.008843471296131611,-0.09445440024137497,0.03104379028081894,0.04527963325381279,0.08750429004430771,0.029661519452929497,-0.038887158036231995,0.10130821913480759,0.05534472316503525,-0.07518862187862396,0.06136452779173851,-0.09516387432813644,-0.05921829119324684,0.0018203587969765067,0.037077631801366806,0.048095542937517166,0.032155707478523254,-0.10262423008680344,-0.11203082650899887,0.031341325491666794,0.039091430604457855,-0.01001040730625391,0.030879292637109756,0.0739310011267662,0.0020574061200022697,0.062880739569664,-0.03467429801821709,-0.06730354577302933,0.042685262858867645,-0.04927581176161766,0.05708415433764458,-0.0601164735853672,-0.01611200161278248,0.04588882625102997,-0.010367834009230137,0.094320148229599,0.045200198888778687,0.018062369897961617,0.04186766967177391,-0.11438878625631332,-0.013882908038794994,-0.012684238143265247,-0.06437700241804123,0.05659455060958862,0.0060921357944607735,-0.044097650796175,-0.039608824998140335,-0.07038746774196625,0.023230135440826416,0.06098298355937004,-0.07036057859659195,-0.029301492497324944,0.05155402421951294,0.008476588875055313,-0.07688590884208679,-0.10015485435724258,0.029439745470881462,0.04945645481348038,0.021522438153624535,-0.06591947376728058,0.052659012377262115,-0.08469956368207932,-0.06701822578907013,0.010869992896914482,0.008650208823382854,0.005323850549757481,0.017795277759432793,0.004858493804931641,0.049537189304828644,0.029002999886870384,0.019492747262120247,-0.009123696945607662,-0.004114196170121431,-0.013925124891102314,0.04976958781480789,-0.08919508010149002,0.06640397757291794,-0.010865704156458378,0.03068484552204609,-0.05174820497632027,0.028369149193167686,0.022668445482850075,-0.0408991314470768,-0.09386273473501205,0.007256377954035997,-0.0025590392760932446,0.010415148921310902,0.026389986276626587,-0.03871339187026024,0.11870177835226059,0.04748563840985298,0.018216099590063095,-0.02733164280653,-0.06409669667482376,0.07611998915672302,-0.032528262585401535,0.004574008751660585,0.04912782087922096,-0.04561517387628555,-0.00103382405359298,-0.06357074528932571,-0.012998952530324459,-0.06436241418123245,-0.006260576192289591,-0.03681022301316261,-0.07198835909366608,-0.029341254383325577,0.07244531065225601,-0.018709365278482437,0.007095512468367815,0.030001498758792877,0.02534337341785431,-0.04316636919975281,-0.02912582829594612,-0.021495558321475983,0.09857770055532455,-0.009143116883933544,0.020965425297617912,-0.051256708800792694,-0.05039200931787491,0.07274098694324493,-0.027283890172839165,-0.05727550387382507,0.005859842989593744,-0.04798620194196701,-0.037355028092861176,-0.05829159915447235,0.05952621251344681,-0.048806484788656235,-0.05906594544649124,-0.017343537881970406,-0.055572930723428726,-0.036652471870183945,-0.017913641408085823,-0.04723541811108589,0.05047948658466339,-0.0038453370798379183,-0.07956720143556595,-0.06831773370504379,-0.0640268623828888,-0.07076076418161392,-0.04804346710443497,-0.09785440564155579,-0.04508596658706665,-0.035305455327034,0.09815209358930588,-0.010220764204859734,0.031754814088344574,0.04802010953426361,0.03226331248879433,0.010507610626518726,0.007329792715609074,-0.15494763851165771,-0.040729790925979614,-0.08615895360708237,0.2883901000022888,0.00493256701156497,-0.03527392819523811,0.04033508151769638,0.028396787121891975,-0.07281012833118439,0.053298112004995346,-0.14182113111019135,0.04726435989141464,-0.002210424980148673,-0.004520482383668423,0.04033776745200157,0.08378715813159943,-0.03625577688217163,-0.03591914474964142,0.00885237380862236,-0.1971091777086258,-0.024967776611447334,0.029005980119109154,0.023618657141923904,-0.05088675022125244,-0.0037719944957643747,-0.14536751806735992,0.06594409048557281,-0.05777611583471298,-0.05317816510796547,-0.015166315250098705,0.09123774617910385,0.013882691040635109,0.036199867725372314,0.029357703402638435,0.06613896042108536,-0.05002922564744949,-0.07828504592180252,0.06446026265621185,-0.00830348115414381,0.01098502054810524,0.0032553733326494694,0.18670682609081268,0.019932808354496956,0.0637461468577385,0.028025681152939796,0.03551254794001579,0.015367909334599972,-0.05620017647743225,0.06241654232144356,0.06783551722764969,-0.10622934252023697,-0.07486474514007568,0.11887351423501968,-0.054128699004650116,-0.01498284749686718,-0.08641822636127472,-0.03886942192912102,0.11014077812433243,-0.13532665371894836,-0.056513309478759766,-0.018532797694206238,-0.07170738279819489,0.024104608222842216,-0.13274215161800385,-0.004788565449416637,-0.11731522530317307,-0.03521837294101715,0.0887102335691452,-0.05189860984683037,0.07499781250953674,-0.08392688632011414,0.02044096030294895,0.006617982406169176,0.04703119769692421,-0.0021540645975619555,0.0037446890491992235,-0.1173161193728447,-0.0027281621005386114,0.04408642277121544,-0.031947288662195206,0.15143229067325592,-0.06468351930379868,-0.1698567271232605,-0.021305393427610397,0.04231584817171097,-0.09542211145162582,0.02008465677499771,0.051218654960393906,0.06335054337978363,0.10092741250991821,-0.05696695297956467,-0.006138246040791273,-0.06401848047971725,0.031026870012283325,0.0547562837600708,0.016786402091383934,-0.12378492951393127,-0.018288999795913696,-0.006103971041738987,0.01416308805346489,-0.13907738029956818,-0.03952990099787712,-0.05510988086462021,0.07654615491628647,0.06387808173894882,-0.010155393742024899,0.014272129163146019,-0.007141956593841314,-0.057283300906419754,-0.12031815946102142,0.016604578122496605,-0.12370897829532623,-0.0704161748290062,0.04311789944767952,-0.0899091511964798,0.02045631594955921,0.06383965164422989,-0.037459343671798706,-0.012161844410002232,-0.014116357080638409,-0.03446480631828308,-0.031137535348534584,-0.09419555217027664,0.09671849757432938,-0.009078250266611576,-0.04127466306090355,0.009416699409484863,-0.08417917042970657,0.09861872345209122,0.051736004650592804,-0.04294009134173393,-0.0038928487338125706,0.012204520404338837,0.019252412021160126,0.06205226108431816,0.04569248855113983,-0.04693128541111946,0.07241611927747726,-0.09235987812280655,-0.006625578738749027,0.09145740419626236,0.029878195375204086,0.21558363735675812,-0.06046724691987038,0.035725146532058716,-0.06668407469987869,-0.05446774512529373,0.07528788596391678,-0.018516454845666885,-0.04097661375999451,0.10194454342126846,0.03232044726610184,0.054311010986566544,-0.0181126706302166,0.065977543592453,-0.02880760282278061,-0.09256347268819809,-0.0831296369433403,-0.015336988493800163,0.025733092799782753,-0.16346393525600433,-0.06934592127799988,0.039806243032217026,-0.10667435824871063,-0.133840411901474,0.045753996819257736,0.006257582455873489,-0.07969825714826584,0.03598863631486893,-0.07939331233501434,-0.03737805411219597,-0.01096261665225029,-0.055437564849853516,0.0031395305413752794,-0.09600889682769775,-0.08152688294649124,-0.08736319094896317,-0.062485482543706894,-0.048611681908369064,-0.07334888726472855,0.05903789401054382,-0.0805669054389,-0.020862337201833725,0.007249107584357262,-0.05528348684310913,0.05837539583444595,-0.00884928461164236,0.02458307147026062,0.031447045505046844,0.04430614411830902,-0.01953749917447567,-0.0038719787262380123,-0.035330574959516525,0.032795269042253494,0.012086870148777962,-0.11426439881324768,-0.0221299659460783,0.013585435226559639,-0.013382024131715298,-0.026718992739915848,-0.10515394061803818,-0.01589990220963955,0.028318321332335472,0.11115572601556778,0.09241408854722977,-0.026152241975069046,-0.005020580254495144,0.00725542614236474,-0.03738464042544365,-0.025174645707011223,0.05862487480044365,0.06331458687782288,0.14613795280456543,-0.06679538637399673,-0.02522841840982437,-0.02973770909011364,0.02405618503689766,0.026930298656225204,0.006609367672353983,-0.05046172812581062,-0.01867803931236267,-0.06094739958643913,-0.03876557946205139,0.06428183615207672,0.08243958652019501,0.04489687830209732,-0.09263037145137787,-0.016048327088356018,0.07938168942928314,0.09159155189990997,-0.06997866183519363,-0.014696971513330936,0.03515854477882385,-0.008406191132962704,0.0013059962075203657,-0.044152483344078064,0.06422575563192368,0.06269492208957672,0.021783536300063133,-0.018771084025502205,-0.034736622124910355,0.02900656685233116,-0.0025187237188220024,-0.00395610835403204,0.029105989262461662,-0.024910857900977135,-0.060124173760414124,-0.034881871193647385,-0.011675026267766953,0.05287381634116173,-0.0885709598660469,-0.09872891753911972,-0.05217001587152481,0.021889841184020042,-0.03398248925805092,-0.0764540359377861,-0.07586850225925446,0.021020641550421715,0.06990566104650497,0.12953969836235046,0.001541919307783246,-0.13687194883823395,-0.06994304060935974,-0.06724847853183746,-0.06239263340830803,-0.0882580429315567,0.027355587109923363,0.015369781292974949,-0.08104382455348969,0.0015563206980004907,-0.05628397315740585,-0.11664124578237534,0.03946634754538536,-0.05829070881009102,-0.02724556438624859,0.002817012369632721,-0.03542984649538994,-0.0632958933711052,-0.09947670251131058,-0.04490398243069649,0.020833846181631088,-0.03651583567261696,-0.025006979703903198,0.04159706458449364,-0.09159103035926819,-0.04556939750909805,0.011593424715101719,0.0842137560248375,-0.07763433456420898,-0.006425291299819946,-0.0817461758852005,-0.08287365734577179,0.08793389797210693,-0.027208833023905754,0.06815672665834427,-0.0472581572830677,-0.06256970018148422,0.0626523420214653,-0.08018821477890015,-0.1118505448102951,0.05707969143986702,0.09077975153923035,-0.10374076664447784,-0.02433885633945465,0.002625830937176943,0.014562561176717281,-0.007447737269103527,0.06421370059251785,0.07295789569616318,-0.04524789750576019,-0.0056906589306890965,0.004901594016700983,-0.05944688245654106,0.006846664007753134,0.012171676382422447,0.054515350610017776,-0.0697542056441307,0.02528260461986065,-0.058144714683294296,-0.1153695359826088,0.002062434097751975,-0.022967839613556862,-0.10535600781440735,-0.04358126223087311,-0.05317114666104317,0.08008933812379837,0.012153330259025097,-0.05419784411787987,0.001249103806912899,0.06053878739476204,-0.07298697531223297,0.03722112253308296,0.02351580187678337,-0.015343423932790756,-0.00423509581014514,-0.018065571784973145,0.21486157178878784,-0.01917239837348461,-0.22077496349811554,-0.005620651412755251,-0.029793959110975266,0.07713446021080017,-0.09794291853904724,0.050927020609378815,0.09989559650421143,0.0449766144156456,-0.024234285578131676,-0.07753276079893112,0.10511507093906403,-0.03616020455956459,0.022143326699733734,-0.021426305174827576,0.030720168724656105,-0.028232207521796227,-0.1119675412774086,0.04788564518094063,-0.016594432294368744,0.025597097352147102,-0.03681885078549385,-0.03994632512331009,-0.05238337814807892,-0.07876916229724884,-0.01816670410335064,-0.011392425745725632,0.11359191685914993,-0.024080155417323112,0.051331132650375366,-0.14190608263015747,-0.04434054344892502,-0.028117787092924118,0.004033043049275875,-0.040445826947689056,-0.1113116666674614,-0.018041497096419334,-0.09520497173070908,-0.022026604041457176,0.04571143910288811,0.006190380081534386,-0.0458352230489254,-0.030543215572834015,-0.056161653250455856,0.018875356763601303,0.002953319111838937,0.050620030611753464,-0.08372210711240768,0.02545170672237873,0.018441790714859962,0.002507805824279785,-0.011663634330034256,-0.1005953848361969,0.028427066281437874,-0.050637274980545044,-0.11333117634057999,-0.039083126932382584,0.02505863830447197,-0.01921769604086876,-0.04535672813653946,0.09937413036823273,-0.0178990438580513,0.003454224206507206,-0.03336396813392639,-0.024446312338113785,-0.003437924198806286,-0.028315603733062744,0.0023744222708046436,0.014211516827344894,-0.017260609194636345,0.00998177845031023,0.05492200329899788,0.016198676079511642,-0.06830497831106186,-0.1155158132314682,0.025435958057641983,-0.018049895763397217,-0.0782182365655899,0.01825077459216118,0.04100479558110237,-0.003751931944862008,-0.045051269233226776,-0.06960300356149673,-0.01797623373568058,0.025910397991538048,-0.028009489178657532,-0.08387092500925064,-0.03761039301753044,-0.024204500019550323,0.05563760921359062,-0.007331956643611193,-0.04290950670838356,0.0072185262106359005,-0.05471380054950714,-0.05937675014138222,-0.004869265016168356,0.06823907792568207,0.028988173231482506,-0.02868526615202427,-0.0022515824530273676,-0.017343448475003242,0.009599616751074791,-0.0434398390352726,-0.05118017643690109,-0.021405279636383057,0.008737252093851566,0.004227339755743742,0.025670533999800682,0.16311731934547424,-0.037604428827762604,-0.060954026877880096,-0.03761069476604462,-0.03493116423487663,-0.04327821731567383,0.013256978243589401,0.03915633633732796,0.09401145577430725,0.0973503515124321,-0.04275943338871002,-0.14044418931007385,-0.07675639539957047,-0.04553220793604851,0.008092327043414116,0.023216860368847847,-0.04057126119732857,-0.02400157041847706,-0.03745202720165253,0.04658278450369835,-0.043571390211582184,0.030001087114214897,0.09752441942691803,0.047515977174043655,-0.10638145357370377,-0.06352078914642334,0.013438468798995018,-0.03013576567173004,-0.011636469513177872,0.03369668498635292,0.010888184420764446,0.024083444848656654,-0.006964168511331081,-0.05612692981958389,-0.000976341892965138,-0.05928291752934456,-0.0022116682957857847,-0.008428585715591908,-0.017610818147659302,0.01304076611995697,-0.0437181182205677,-0.10576888173818588,0.01882270723581314,-0.006375227123498917,0.0035401463974267244,0.017122982069849968,-0.04354773461818695,-0.0018009803025051951,0.07470904290676117,0.04185238480567932,-0.051233045756816864,-0.014012234285473824,-0.04581241309642792,0.0842779278755188,-0.015935396775603294,0.09783227741718292,0.014853776432573795,0.031014949083328247,0.04235191270709038,-0.05295379459857941,0.010287584736943245,0.06387168914079666,-0.0198803897947073,-0.016021180897951126,-0.032817207276821136,0.001093650353141129,0.0670711025595665,0.05966591462492943,0.016464468091726303,-0.002551514655351639,0.1173858642578125,0.007686828728765249,0.03355017676949501,0.04495273157954216,0.019687501713633537,-0.06683412939310074,-0.04825247824192047,-0.014238419942557812,-0.09233934432268143,-0.08132845163345337,0.06488554179668427,-0.013674353249371052,-0.07525001466274261,-0.026615580543875694,0.02017037197947502,-0.1005290225148201,0.01462562195956707,-0.010175188072025776,-0.009975540451705456,-0.008275561966001987,-0.06446393579244614,0.1108928844332695,-0.048949215561151505,0.021738599985837936,0.03234215825796127,0.011842970736324787,0.036749716848134995,-0.00046834241948090494,0.03158266469836235,-0.0019497405737638474,0.04709187522530556,0.05328185483813286,0.003938710782676935,-0.014115220867097378,0.0529634915292263,0.10480541735887527,-0.0902421697974205,0.008689282462000847,0.13096269965171814,-0.06576050817966461,-0.07621106505393982,-0.011017470620572567,-0.051472511142492294,-0.023355800658464432,-0.07433795183897018,0.04517259821295738,-0.005811643321067095,0.09580536186695099,-0.02191619761288166,-0.04094195365905762,0.06920857727527618,-0.04791140556335449,-0.011020218022167683,-0.009968516416847706,0.04151669144630432,0.11969956755638123,0.04939593747258186,0.08758646249771118,0.051923345774412155,-0.03924446925520897,0.034305695444345474,-0.022583212703466415,0.005312593653798103,0.08596275746822357,-0.033493757247924805,-0.042749643325805664,0.0038648401387035847,0.05778166651725769,-0.00847844872623682,0.07224714756011963,0.03950897976756096,-0.01103763934224844,0.06102670356631279,-0.09122972935438156,-0.10204103589057922,0.03130986541509628,0.008206704631447792,0.09474316239356995,-0.054564837366342545,0.041015949100255966,-0.05497536063194275,-0.005118506029248238,0.03178519010543823,0.03900210186839104,-0.03488384187221527,0.051872752606868744,0.0005290834815241396,-0.0811363235116005,-0.027293598279356956,0.007258283905684948,0.08473782241344452,-0.024179713800549507,-0.08428473770618439,0.020310165360569954,-0.07634595036506653,-0.060147497802972794,0.04847065359354019,0.0025602271780371666,-0.08935195207595825,0.08104770630598068,0.04245942458510399,0.017499398440122604,-0.04940124228596687,-0.048317812383174896,-0.01181934867054224,0.10096178203821182,-0.10009098052978516,-0.022050702944397926,0.02624284103512764,-0.07967416942119598,0.036247529089450836,-0.07845553755760193,0.019649771973490715,-0.040606025606393814,-0.023444216698408127,0.07424061745405197,0.07274121791124344,0.07056428492069244,0.00785003136843443,0.049852561205625534,-0.06417074799537659,-0.1298000067472458,-0.08486434072256088,0.00311507866717875,0.001653921790421009,0.0024494563695043325,-0.01038344856351614,-0.09266672283411026,-0.07423456013202667,-0.013248800300061703,0.09403132647275925,-0.05013208091259003,-0.062386758625507355,-0.056146714836359024,0.010137179866433144,-0.029285985976457596,0.0600275918841362,0.03609633818268776,-0.03340625390410423,-0.048322759568691254,-0.01189382467418909,0.07217651605606079,0.010244503617286682,0.05112652853131294,-0.026125160977244377,-0.06320030242204666,0.013496155850589275,-0.007668594364076853,0.005720430985093117,0.0305694080889225,-0.09856857359409332,0.10542904585599899,0.01197175681591034,0.004571044351905584,-0.015281543135643005,0.045504044741392136,-0.05112084001302719,0.06421109288930893,-0.017288129776716232,-0.04426175355911255,-0.01585029810667038,0.07363258302211761,-0.07969863712787628,-0.12753324210643768,0.04029039293527603,0.062032636255025864,-0.061166927218437195,0.0841062143445015,0.02017020992934704,0.007051512133330107,-0.002944243373349309,0.01058010570704937,0.10873718559741974,0.059659432619810104,-0.06516866385936737,0.01042835135012865,-0.03790312632918358,0.10093580186367035,-0.025830809026956558,0.05005912482738495,-0.00006602844223380089,0.02120555192232132,-0.004187100101262331,-0.02299334481358528,-0.06338313221931458,-0.0555281862616539,0.12367910146713257,-0.0559980571269989,-0.004899411462247372,-0.17620930075645447,0.011878926306962967,-0.024105161428451538,-0.09206759184598923,0.0642770379781723,-0.03097509779036045,-0.10231691598892212,0.036292292177677155,-0.008304936811327934,0.04087287560105324,-0.059173937886953354,-0.010754025541245937,-0.057864170521497726,0.048161543905735016,-0.0824274867773056,-0.012537453323602676,-0.03293570503592491,0.029512086883187294,0.0316106453537941,-0.027798131108283997,0.08848746120929718,-0.06193825602531433,-0.10587901622056961,-0.026231180876493454,0.07167664915323257,-0.056089404970407486,0.07334969937801361,-0.036838382482528687,-0.05962849408388138,0.03967393934726715,-0.049696821719408035,0.07767452299594879,-0.00884874165058136,0.022546669468283653,-0.06375902146100998,-0.03696773946285248,0.008067446760833263,-0.059797536581754684,0.015158571302890778,0.018933331593871117,-0.10681940615177155,-0.002451642882078886,0.01682060770690441,-0.020146211609244347,0.08108699321746826,-0.04487825185060501,-0.08175529539585114,0.010134892538189888,0.07101573050022125,0.04800563305616379,0.09925375878810883,-0.08964772522449493,0.014757218770682812,-0.014987220987677574,0.036763474345207214,0.05473964661359787,0.05167655274271965,0.047274548560380936,-0.10079346597194672,0.0006743649137206376,0.05492378771305084,0.030495602637529373,-0.04386046156287193,-0.011086869053542614,0.08465549349784851,-0.05066970735788345,-0.005773279815912247,-0.020462989807128906,0.007173522841185331,0.004757099784910679,0.04113786667585373,0.04147343337535858,0.027553565800189972,0.09013871848583221,0.02056615799665451,-0.006698114797472954,0.025834018364548683,-0.014258391223847866,-0.08772484958171844,-0.011424938216805458,-0.0726601853966713,0.000878469436429441,0.025897620245814323,-0.03313695266842842,-0.09289680421352386,0.0015773751074448228,-0.04031453654170036,-0.008292003534734249,-0.029422862455248833,-0.0938960462808609,-0.04740358144044876,0.03284364566206932,-0.08388160169124603,-0.09786650538444519,-0.020355606451630592,-0.11387167125940323,-0.057147588580846786,-0.02992420457303524,0.06750109046697617,0.019996782764792442,-0.060653187334537506,-0.003760043764486909,0.047288138419389725,0.03299369290471077,-0.039412058889865875,-0.028402097523212433,0.03607876971364021,0.08456514030694962,-0.07068738341331482,-0.03165837377309799,-0.06842127442359924,0.017066005617380142,0.0215066559612751,-0.10832502692937851,-0.010101912543177605,0.05192374810576439,0.08980321139097214,0.09085291624069214,0.011301514692604542,-0.06263750791549683,0.015861472114920616,-0.022270990535616875,0.052945323288440704,0.035898029804229736,-0.04890677332878113,0.05032802373170853,-0.08936738967895508,-0.05829919874668121,0.032267943024635315,-0.08855491876602173,-0.06085626780986786,0.04878091439604759,0.0022783183958381414,0.05460283160209656,0.08850090205669403,0.00944187119603157,0.010274909436702728,0.08517729490995407,0.09950628131628036,0.023769550025463104,0.05415046960115433,0.0247871782630682,-0.02809867449104786,-0.04048915207386017,-0.06734328716993332,-0.008152486756443977,-0.021596673876047134,-0.039437975734472275,-0.01618208922445774,0.07499147206544876,0.021143805235624313,-0.0031685710418969393,-0.09871429204940796,-0.026360847055912018,0.025067465379834175,-0.10031989961862564,0.06092305853962898,-0.020946335047483444,-0.014846869744360447,-0.035778433084487915,-0.004719205666333437,-0.054525814950466156,0.08635014295578003,-0.04510050266981125,-0.018004238605499268,0.025421051308512688,0.006595477927476168,0.00733568798750639,0.02629583142697811,0.07729078829288483,0.04440035670995712,0.05011347308754921,0.07645310461521149,0.015080943703651428,-0.033966533839702606,-0.11086612939834595,0.01651456207036972,-0.05010607838630676,-0.03341829031705856,-0.07130109518766403,-0.06792043149471283,-0.07765410095453262,-0.06544236838817596,-0.05490093678236008,0.06534717231988907,-0.053930170834064484,0.05553104728460312,0.08237755298614502,0.022852137684822083,-0.065287746489048,0.0045952508226037025,-0.030373472720384598,-0.047541361302137375,0.02664775401353836,-0.07030032575130463,0.026152493432164192,0.03510122746229172,0.007297099567949772,0.07094554603099823,-0.09446573257446289,-0.06560710817575455,-0.10905557870864868,0.06979822367429733,-0.003782995045185089,0.03771064430475235,-0.03490472584962845,0.04453843832015991,-0.02510044537484646,-0.10856200009584427,-0.048849333077669144,0.004002984147518873,0.0372086837887764,-0.008917763829231262,-0.1050507053732872,0.11039416491985321,0.10327126830816269,-0.026829639449715614,0.09057330340147018,0.001834726775996387,0.029331902042031288,-0.029202817007899284,-0.04522022232413292,0.02701278030872345,0.007786377798765898,-0.055095966905355453,0.039419420063495636,-0.015950700268149376,-0.028313621878623962,0.08319920301437378,0.017402634024620056,0.02953745797276497,-0.009027795866131783,-0.004175308160483837,-0.02344234474003315,-0.05077643319964409,-0.11929549276828766,-0.06860215961933136,0.08970924466848373,-0.000633284158539027,-0.0017382488586008549,0.021869828924536705,0.054982881993055344,-0.037620484828948975,0.03907516971230507,-0.018551066517829895,-0.009683866985142231,0.07224845141172409,-0.005060284398496151,0.012922900728881359,-0.03535114601254463,0.04050525277853012,0.05433465912938118,-0.03649279847741127,0.06122236326336861,-0.03128790482878685,-0.040653880685567856,-0.08172400295734406,-0.04792266711592674,-0.013531152158975601,0.02053854614496231,-0.03970719873905182,-0.02376060001552105,-0.06447305530309677,0.04686437547206879,-0.009225642308592796,-0.010388026013970375,-0.09976166486740112,0.06382118165493011,-0.047520313411951065,0.08613328635692596,-0.07780911773443222,-0.055294789373874664,0.02831248752772808,-0.0009262948879040778,-0.06108642742037773,0.011277075856924057,0.0392889566719532,-0.005940351169556379,-0.04393872991204262,-0.03289264068007469,-0.021689817309379578,-0.030812643468379974,0.03517303243279457,-0.027569588273763657,-0.04876766726374626,0.0018342355033382773,-0.036131639033555984,0.05664564296603203,0.018514931201934814,-0.03328632935881615,0.015942679718136787,-0.013167374767363071,0.014817047864198685,0.0035706597846001387,-0.03874560818076134,-0.03500283882021904,0.07930471748113632,-0.014900592155754566,0.04578344523906708,-0.07619087398052216,0.03472617641091347,0.051397960633039474,-0.09133303165435791,0.09933830052614212,-0.010616091080009937,-0.0016981004737317562,-0.015323031693696976,-0.023824460804462433,0.03205763176083565,-0.023016707971692085,-0.1040429174900055,-0.03455956652760506,-0.075686015188694,0.046442534774541855,0.0840756893157959,0.020979050546884537,-0.031186003237962723,0.017251597717404366,0.002403863240033388,0.05135384574532509,-0.02538192830979824,-0.06798923760652542,-0.03642907366156578,0.047736991196870804,-0.009846789762377739,0.08383547514677048,0.04625619202852249,0.08309309929609299,0.025936156511306763,-0.013564074411988258,0.02484438754618168,-0.06861038506031036,-0.008731713518500328,0.10293924808502197,-0.03700726479291916,-0.016978373751044273,0.008508400060236454,0.025104155763983727,0.00566676864400506,-0.030934633687138557,0.013924377970397472,0.024436181411147118,0.06112099811434746,0.08420500159263611,-0.007173815742135048,-0.03673722594976425,-0.024877488613128662,0.045129597187042236,-0.052422989159822464,0.021124789491295815,0.00040130902198143303,-0.0027009882032871246,0.06765986233949661,0.03868063911795616,0.09748036414384842,0.041755836457014084,0.08253296464681625,-0.030956078320741653,-0.004594975616782904,0.10098495334386826,-0.027102699503302574,0.04670751467347145,0.08023367077112198,0.06114986166357994,-0.06797494739294052,-0.07499271631240845,-0.030677903443574905,-0.03981040418148041,-0.04858866706490517,-0.04944378882646561,0.07171954959630966,0.023566965013742447,-0.00819576159119606,-0.10721844434738159,-0.07975732535123825,0.004286821465939283,-0.09530750662088394,-0.05246543511748314,0.03735952451825142,0.031723544001579285,-0.03592189401388168,0.009710821323096752,-0.036299388855695724,0.036649152636528015,-0.09503734111785889,0.06315439939498901,-0.057866133749485016,-0.025452785193920135,0.02675028331577778,0.02601977437734604,0.029765231534838676,0.027364201843738556,0.0075370375998318195,0.01667485199868679,-0.03717918321490288,0.08686134219169617,0.023317275568842888,0.045624714344739914,-0.022464508190751076,0.010784808546304703,0.03383760526776314,0.0007087819976732135,-0.03453987091779709,-0.04573603346943855,0.05117182806134224,-0.01651194877922535,0.035528309643268585,0.040157973766326904,0.06331025063991547,0.04130156338214874,-0.011410926468670368,0.10026344656944275,0.015259814448654652,-0.0885695368051529,0.04537506401538849,-0.07413961738348007,0.03048623353242874,-0.09281916171312332,0.038171976804733276,-0.02075166255235672,0.09448914229869843,-0.009116621688008308,-0.01709611713886261,-0.05197904631495476,-0.04629788547754288,-0.11122604459524155,0.01297479122877121,0.05496305972337723,-0.010195868089795113,-0.005918777547776699,-0.10247577726840973,0.06985623389482498,-0.017960214987397194,-0.060798678547143936,0.002469101222231984,-0.062240537256002426,0.08579955250024796,-0.006499983370304108,-0.11567439883947372,-0.02177201770246029,-0.04546285793185234,0.0563746802508831,-0.025385422632098198,0.003512719878926873,-0.08951728790998459,-0.03998355194926262,0.0376039482653141,0.036350443959236145,-0.0552363246679306,-0.06503649801015854,-0.037942495197057724,-0.07351964712142944,0.00578552158549428,0.026773015037178993,-0.007966674864292145,-0.09471113234758377,-0.0014695563586428761,-0.019173147156834602,-0.0471629723906517,0.02739417925477028,-0.09833963215351105,-0.09211330860853195,0.061352334916591644,0.04973236471414566,0.07277701795101166,-0.008674035780131817,-0.09430210292339325,-0.006064467132091522,-0.01702481135725975,-0.006840647663921118,-0.005489019677042961,0.010124487802386284,0.003987712785601616,0.06364616006612778,0.056357208639383316,0.05612554773688316,-0.027462629601359367,0.014193744398653507,0.038119297474622726,-0.013252743519842625,0.0033490099012851715,0.009622558020055294,-0.005839511752128601,-0.06768034398555756,0.001682253205217421,0.02591531164944172,-0.026632949709892273,-0.03981701657176018,-0.06335440278053284,-0.0766807496547699,-0.044128600507974625,0.011568435467779636,-0.05945451930165291,-0.006484468933194876,-0.11119289696216583,-0.028162812814116478,0.014395265839993954,-0.024709006771445274,-0.012545024044811726,0.009452150203287601,-0.009077898226678371,-0.044679589569568634,-0.03767102584242821,0.08993171155452728,0.05048992484807968,-0.017682157456874847,-0.04050465300679207,-0.09058233350515366,-0.044958509504795074,-0.03338206931948662,-0.03797134384512901,-0.031727686524391174,-0.06401896476745605,-0.027447832748293877,-0.03636385500431061,-0.0563369020819664,0.045502591878175735,0.06136759743094444,0.05638698861002922,-0.043645698577165604,-0.08301105350255966,-0.010012107901275158,0.0818013846874237,0.03877857327461243,0.01878451555967331,-0.06676453351974487,-0.09044579416513443,0.03475828841328621,-0.021641729399561882,-0.018646765500307083,0.07101953029632568,-0.001997818937525153,-0.03714006766676903,0.06361360847949982,0.08123564720153809,-0.10333240032196045,-0.04911992698907852,0.0037033052649348974,0.04810298606753349,0.06477468460798264,0.02932753972709179,-0.05271347239613533,-0.08634603023529053,0.05645633488893509,-0.01251942291855812,0.04592045769095421,0.0691840723156929,0.03812926635146141,-0.045947037637233734,-0.03874575346708298,-0.10399148613214493,0.08705995231866837,-0.10661468654870987,-0.02342820167541504,-0.029757272452116013,0.02842746302485466,-0.05475679785013199,0.04073215276002884,-0.007039268035441637,-0.028531545773148537,0.07809732109308243,0.10895714908838272,-0.03145502135157585,-0.04421577230095863,-0.09732287377119064,-0.003681444562971592,0.0036835200153291225,-0.0702897161245346,0.01454954594373703,-0.08882156759500504,-0.039667826145887375,0.02023581601679325,-0.07390445470809937,-0.00917711853981018,-0.05233152210712433,0.03548656404018402,-0.010339181870222092,-0.048142172396183014,0.08584707230329514,0.0377083383500576,0.036777134984731674,-0.07190651446580887,0.025026561692357063,-0.07080470025539398,0.019574396312236786,-0.0793086513876915,0.039115458726882935,0.044773396104574203,0.05360567942261696,-0.07641032338142395,0.017604276537895203,-0.04250206798315048,-0.039949432015419006,0.05243558809161186,-0.10267934203147888,-0.11081314086914062,0.004224450793117285,0.024533214047551155,0.025237571448087692,0.024179555475711823,0.0018116929568350315,0.011356722563505173,-0.03807452693581581,-0.11262668669223785,0.017326852306723595,-0.02755403332412243,-0.012462769635021687,-0.06844181567430496,-0.010115459561347961,0.057684678584337234,0.03472428768873215,0.06923193484544754,-0.05455244705080986,-0.06257186830043793,-0.00492531294003129,0.04085418954491615,0.028689535334706306,0.0783691331744194,-0.01797378435730934,-0.01924741640686989,-0.02252272516489029,0.03595343604683876,-0.04737246781587601,0.032324377447366714,-0.06533430516719818,-0.01620381325483322,-0.035536326467990875,-0.02838544361293316,-0.009109516628086567,0.011898024939000607,-0.06510239839553833,-0.017006607726216316,0.013775542378425598,-0.010058518499135971,0.050666678696870804,-0.002373697003349662,0.06809928268194199,0.053000375628471375,0.027753224596381187,-0.07201232761144638,0.02442195639014244,-0.06900510936975479,0.006938695441931486,0.020921221002936363,-0.014660412445664406,0.10013284534215927,0.07799213379621506,-0.002118079923093319,0.06593747437000275,0.05787789821624756,0.01602877862751484,0.03486175090074539,-0.0327194482088089,-0.03834610804915428,0.04764438420534134,-0.11375048011541367,-0.07553773373365402,-0.07611054182052612,0.061728786677122116,-0.0817839652299881,-0.0456608347594738,-0.09534447640180588,0.022459330037236214,-0.019546369090676308,0.02262544073164463,0.12086956948041916,0.02241269312798977,-0.052903950214385986,-0.0013311797520145774,-0.07113739103078842,0.07224709540605545,-0.03814547136425972,0.08646944165229797,-0.03347797691822052,-0.03190656751394272,-0.03972893953323364,-0.02685779333114624,-0.0722111314535141,0.013188941404223442,0.06348737329244614,-0.06918109953403473,-0.014680503867566586,0.040644705295562744,0.010739131830632687,-0.05817360430955887,0.023863594979047775,-0.08827430754899979,0.09108135849237442,0.05224623903632164,-0.005832672584801912,-0.036838237196207047,0.05278635397553444,-0.08144640922546387,-0.05615672096610069,-0.1150163933634758,0.0425734706223011,-0.03376691788434982,0.03320841118693352,-0.12195535004138947,-0.06280596554279327,0.09102671593427658,-0.028369583189487457,-0.05666361004114151,0.04799150675535202,-0.026599137112498283,-0.07633762061595917,0.043706078082323074,-0.031166160479187965,-0.030749322846531868,0.03503313288092613,-0.004734051879495382,0.04025841876864433,-0.04104983061552048,0.05947938933968544,0.023260191082954407,-0.038456596434116364,-0.0664377361536026,-0.008619853295385838,-0.030538437888026237,0.004344003275036812,-0.06242566555738449,-0.02396993339061737,-0.03310656175017357,-0.0963505432009697,0.04576955363154411,0.09840540587902069,-0.04992781579494476,-0.008658412843942642,-0.01821622997522354,-0.0627572163939476,0.04783989116549492,0.05418417602777481,0.0867718905210495,0.0267647672444582,-0.010320351459085941,-0.07295279949903488,0.055332981050014496,0.08777029067277908,0.08809670060873032,-0.0023325742222368717,0.013614403083920479,-0.10270173847675323,-0.1013767272233963,0.0187237448990345,0.020853297784924507,0.04451225697994232,-0.060371946543455124,0.03646719828248024,0.010685301385819912,0.009045194834470749,-0.06121855601668358,0.045956503599882126,-0.03285546973347664,0.022287804633378983,-0.028804032132029533,-0.03534240275621414,-0.01946362666785717,-0.03919634968042374,-0.055173177272081375,-0.008676061406731606,-0.07840260118246078,0.07643216848373413,0.0779096707701683,-0.008441504091024399,-0.03915543481707573,0.011902694590389729,-0.01330996211618185,0.006862628739327192,-0.05181654542684555,-0.044687241315841675,-0.0714990422129631,-0.08686742931604385,-0.05490381643176079,0.08018185198307037,-0.058480825275182724,-0.06852742284536362,-0.06337562948465347,-0.03243016451597214,0.023976178839802742,-0.0070177786983549595,-0.030718566849827766,-0.026873480528593063,0.007195528596639633,0.10518570989370346,-0.06695243716239929,-0.04057266563177109,0.007794816046953201,-0.006461231503635645,0.017086099833250046,0.06879398971796036,-0.022437479346990585,0.04536917805671692,-0.062394291162490845,0.021165089681744576,0.04982346296310425,-0.018093083053827286,-0.014704275876283646,0.058168794959783554,-0.031926486641168594,-0.04983869194984436,0.022504182532429695,0.05977839231491089,0.06753135472536087,0.06372374296188354,-0.08742903918027878,-0.02455422468483448,-0.024575212970376015,0.03886055201292038,-0.004691942594945431,0.0271656084805727,0.0823870450258255,-0.008758524432778358,0.0755586102604866,0.02254609577357769,-0.009531035088002682,-0.032595135271549225,-0.021916592493653297,-0.07066549360752106,-0.05649026110768318,0.0607428140938282,-0.029130851849913597,0.026687173172831535,0.03885248675942421,0.002545401453971863,-0.06325419247150421,0.05722556263208389,-0.06457860767841339,-0.00141854805406183,-0.06365872919559479,-0.019291792064905167,0.02753390371799469,-0.06726361066102982,0.09326506406068802,0.05437865108251572,-0.036911558359861374,-0.03849117457866669,-0.07308807969093323,-0.012720230966806412,0.049715813249349594,-0.005785161629319191,-0.05596407875418663,-0.031104108318686485,-0.010395697318017483,0.03546879068017006,-0.028298616409301758,0.05047129839658737,-0.09570953249931335,0.013332524336874485,0.04346965253353119,0.06436049193143845,-0.09557463973760605,-0.04654351994395256,0.08407411724328995,-0.07860372960567474,-0.0040123253129422665,-0.08813434839248657,-0.16512881219387054,-0.03946465626358986,0.0529906302690506,-0.04573158174753189,0.07181055843830109,0.2594320774078369,-0.08893326669931412,-0.05142084136605263,0.06176533177495003,-0.023726778104901314,0.05251492187380791,-0.06495351344347,0.03119618073105812,0.02251480147242546,-0.0443994365632534,0.021598611027002335,-0.06872061640024185,0.00479504931718111,0.005709166172891855,0.03430521860718727,-0.06458031386137009,-0.06048966571688652,-0.07070599496364594,0.03487668186426163,-0.11650968343019485,0.03787010908126831,-0.06476359814405441,0.04579021409153938,-0.1738833338022232,0.012869601137936115,-0.03478454798460007,-0.06122427061200142,0.0459635853767395,0.09054285287857056,-0.06517945230007172,-0.03338558226823807,-0.04998209699988365,-0.03426680341362953,-0.09475085884332657,-0.0075967805460095406,0.06739233434200287,0.04288115352392197,-0.05642398074269295,0.04537500813603401,0.018749576061964035,-0.03397712484002113,0.07801928371191025,-0.08407945930957794,-0.06628800183534622,0.006212231237441301,-0.03264317661523819,-0.07285439223051071,-0.01897917315363884,-0.06941697746515274,0.05030517652630806,-0.10901030898094177,0.1267545223236084,-0.025665361434221268,0.06165018305182457,-0.08856544643640518,-0.009766940958797932,-0.14220595359802246,-0.09431762248277664,0.08212654292583466,-0.051847491413354874,-0.04253605753183365,-0.0768541544675827,0.04678136110305786,0.033020779490470886,-0.017277870327234268,-0.04465066269040108,0.001614491338841617,0.08763996511697769,0.09318264573812485,-0.029053760692477226,0.09027404338121414,-0.0439322255551815,-0.002012211363762617,-0.10257893055677414,-0.05138387903571129,-0.07478845119476318,-0.08705531805753708,0.04617498815059662,0.029338853433728218,0.008873475715517998,-0.0014360608765855432,0.06084311008453369,-0.2227725237607956,-0.01297207921743393,0.056207623332738876,-0.04731199890375137,-0.0403234139084816,0.05868411436676979,-0.04239742457866669,-0.024148128926753998,-0.03544046729803085,0.07311183959245682,-0.05395529419183731,-0.0422704704105854,-0.04579370096325874,0.09776130318641663,0.06615737825632095,-0.03260371834039688,-0.11414137482643127,-0.053115781396627426,-0.09231092035770416,0.042248453944921494,-0.06772005558013916,-0.0624564103782177,-0.029539668932557106,0.16686484217643738,0.008789578452706337,-0.009618123061954975,0.05416332930326462,-0.06583093851804733,-0.032326314598321915,-0.017983779311180115,-0.08843676745891571,0.2026546746492386,0.061142656952142715,-0.10748908668756485,-0.0511760376393795,0.010026689618825912,-0.04703209921717644,0.060032058507204056,0.03406734764575958,0.07318367809057236,0.05615494027733803,-0.03299351781606674,0.00042568956268951297,0.0916503444314003,0.043337203562259674,-0.09680769592523575,0.10329823940992355,-0.06575703620910645,-0.012573806568980217,-0.11574520170688629,0.07714208960533142,0.007778196129947901,-0.11522438377141953,-0.09903732687234879,-0.05080549791455269,-0.10189606994390488,-0.08081851154565811,0.040570471435785294,-0.04385460913181305,0.1139262393116951,-0.11511646211147308,-0.02140623703598976,0.05582256242632866,0.025029310956597328,-0.06356114894151688,0.014857068657875061,0.013386841863393784,-0.031168252229690552,-0.051937974989414215,0.02840832993388176,-0.005459364037960768,0.02043803595006466,-0.021802013739943504,-0.05095498263835907,-0.05077981576323509,-0.03358347341418266,-0.0015475787222385406,0.028349360451102257,0.05372307449579239,0.0015149180544540286,-0.04269097372889519,0.019982479512691498,-0.06310863792896271,0.026103055104613304,0.02337842620909214,0.0384272001683712,-0.05751128867268562,-0.012013710103929043,-0.021521521732211113,0.03990832716226578,0.07053254544734955,-0.032310452312231064,0.00003200358696631156,-0.003401047084480524,-0.057902440428733826,-0.03917746990919113,-0.10832035541534424,0.026482190936803818,0.0007169076125137508,-0.07574232667684555,-0.008963145315647125,-0.08207929879426956,0.04012531414628029,0.0034376175608485937,0.06847728788852692,0.028663882985711098,0.0034095188602805138,0.045510247349739075,-0.08820317685604095,0.05649922043085098,-0.01970316655933857,0.04607212170958519,0.02679184079170227,0.159480482339859,-0.04363887757062912,0.018157420679926872,-0.02836819924414158,-0.07898611575365067,-0.033002786338329315,0.10030590742826462,-0.02897191047668457,0.04719717055559158,-0.032916951924562454,-0.07993142306804657,-0.0477185882627964,0.0346706248819828,0.05177028104662895,-0.07861108332872391,0.04615920037031174,-0.030473491176962852,-0.10997094959020615,-0.0824759230017662,-0.08165247738361359,0.0474938340485096,0.005073973443359137,-0.002474896376952529,0.034847285598516464,0.024746939539909363,-0.03446114435791969,-0.048409659415483475,0.06702667474746704,-0.052733730524778366,0.08088743686676025,-0.07103783637285233,-0.08923228830099106,-0.02825157158076763,-0.06543227285146713,-0.030410515144467354,-0.06059964746236801,-0.020709030330181122,0.01476974319666624,-0.06249019131064415,-0.09282264858484268,-0.017209351062774658,-0.06640242785215378,0.0463542565703392,-0.022431587800383568,0.018137967213988304,-0.027616621926426888,-0.041630297899246216,-0.08067731559276581,-0.011649449355900288,-0.017047720029950142,-0.10219252854585648,0.03297627717256546,0.027330175042152405,0.0383589006960392,0.011925534345209599,-0.09225564450025558,0.0735858902335167,-0.06804459542036057,-0.08830931782722473,-0.058773111552000046,-0.0671493336558342,0.06490448862314224,0.03902937099337578,0.06691568344831467,0.03829611837863922,0.021352000534534454,0.015804896131157875,-0.032705631107091904,0.03577268496155739,-0.024595649912953377,-0.053732823580503464,0.02426355518400669,0.013274069875478745,0.011934357695281506,0.08356776088476181,0.021691281348466873,0.013733400031924248,0.041988346725702286,0.025744307786226273,0.06148676201701164,-0.12161865830421448,-0.00475711515173316,0.024403207004070282,-0.040069330483675,-0.14809328317642212,0.1016126200556755,-0.03530002385377884,-0.04690828546881676,-0.04270986467599869,0.002936840057373047,-0.0021252776496112347,-0.08495029807090759,-0.08041305094957352,-0.10171861946582794,0.010812347754836082,-0.02984507940709591,-0.08245289325714111,-0.031662873923778534,0.020613428205251694,-0.04697905853390694,0.04920118302106857,0.12439466267824173,-0.01791556552052498,0.03862422704696655,-0.041914649307727814,0.0413527674973011,-0.0375274233520031,0.04927803575992584,-0.04456545040011406,0.09402140974998474,-0.030480170622467995,0.07356834411621094,0.016813034191727638,-0.00008515987428836524,0.014371829107403755,0.048166513442993164,0.037811387330293655,-0.08487581461668015,0.01912374049425125,-0.05546853691339493,0.016848960891366005,-0.09666617959737778,0.06193340942263603,0.05901794508099556,-0.02881147898733616,-0.007831930182874203,-0.07927073538303375,0.10417113453149796,-0.04729966074228287,-0.040919918566942215,-0.07006610929965973,0.0006893117097206414,-0.03807307407259941,-0.020222220569849014,-0.048589449375867844,-0.04727191478013992,0.05531217157840729,-0.022752994671463966,0.10786005109548569,-0.04830951616168022,0.1264156550168991,-0.05606933310627937,-0.030032383278012276,-0.011133873835206032,-0.05737224966287613,0.08565319329500198,-0.000997964758425951,-0.026531081646680832,-0.06742317229509354,-0.0708744004368782,0.04967551305890083,-0.09614597260951996,0.03951386362314224,-0.07046914845705032,0.06951038539409637,-0.03367278352379799,0.10588493198156357,-0.07598511129617691,0.008169248700141907,-0.007766294293105602,-0.08146943897008896,-0.016069471836090088,0.08183253556489944,0.17125482857227325,-0.011901851743459702,-0.021705642342567444,0.11912822723388672,0.013289222493767738,-0.11934879422187805,-0.06853563338518143,0.011244731955230236,-0.07135866582393646,-0.07332159578800201,0.0709315836429596,-0.048935942351818085,-0.08641597628593445,0.013253160752356052,-0.02891215682029724,0.08274878561496735,-0.1098388060927391,-0.034462347626686096,-0.030084233731031418,0.012993867509067059,-0.08645787835121155,0.03870995342731476,0.004179644864052534,-0.010845063254237175,0.06211114302277565,0.05193326622247696,0.013471711426973343,-0.0051788026466965675,-0.04664986580610275,-0.08066040277481079,-0.0015671163564547896,0.009068235754966736,0.0008177029667422175,-0.11953920125961304,-0.014841794967651367,0.010050310753285885,-0.009080376476049423,0.02004418335855007,-0.016485508531332016,0.00745571032166481,-0.031550332903862,0.00210207118652761,0.005531187169253826,0.04031764343380928,0.09537973254919052,0.026111580431461334,0.04049227386713028,-0.00195082719437778,-0.026475664228200912,-0.04743008688092232,-0.0524853952229023,0.03609273210167885,-0.027548469603061676,0.08811202645301819,-0.015265354886651039,0.010867222212255001,0.01842353492975235,0.03249922767281532,0.029642971232533455,0.01230322103947401,0.06384269148111343,-0.03943481668829918,-0.07091783732175827,-0.02371795102953911,0.08380137383937836,-0.0872863307595253,0.06308014690876007,-0.10525407642126083,0.06814280152320862,0.1527778059244156,-0.01780947856605053,-0.1196492537856102,0.09758780896663666,0.0018742622341960669,-0.0074211545288562775,0.010246137157082558,-0.08964076638221741,0.033481135964393616,0.09946083277463913,-0.1004219502210617,0.028877314180135727,0.05325287953019142,-0.009765535593032837,-0.0242341049015522,0.06410638988018036,0.08171500265598297,-0.03863324224948883,-0.0695410966873169,0.04456569254398346,-0.021231720224022865,0.09991630911827087,-0.025081617757678032,0.016417009755969048,0.040015000849962234,-0.013489202596247196,0.05728001147508621,-0.059678804129362106,0.08480697870254517,-0.08091829717159271,0.008256723172962666,-0.019213182851672173,-0.10111977159976959,-0.020651156082749367,0.007612620480358601,0.07682522386312485,-0.07222587615251541,-0.05013514682650566,-0.02081175334751606,0.11094971746206284,-0.08523231744766235,-0.08559823036193848,-0.05777915194630623,-0.0784020721912384,-0.037504080682992935,0.031858764588832855,0.03481331095099449,-0.009310468100011349,-0.05441203713417053,-0.0704088807106018,0.007656330708414316,-0.025806866586208344,0.06052662059664726,0.096049964427948,0.0802510604262352,-0.004524260759353638,0.025676654651761055,0.0015042554587125778,-0.021089937537908554,-0.0851365253329277,-0.07885757833719254,-0.03574018180370331,0.03842781111598015,-0.039281122386455536,0.02680852636694908,-0.08180151134729385,0.08774727582931519,0.003720974549651146,0.00220107682980597,0.0005235610879026353,-0.028266487643122673,0.015628911554813385,0.056534379720687866,0.016026876866817474,-0.002224166877567768,0.09664977341890335,-0.007749001961201429,-0.06364384293556213,-0.014996415004134178,-0.047869205474853516,-0.10273488610982895,-0.002764679491519928,0.014609071426093578,0.01792796514928341,0.045881547033786774,-0.03960444778203964,0.02408660389482975,0.0026324463542550802,0.04933261498808861,-0.04048996791243553,-0.03072093240916729,0.0670732706785202,0.04646391421556473,0.01729077473282814,0.06157037243247032,-0.05197107419371605,0.027707140892744064,0.08450204133987427,-0.019558751955628395,-0.1153116375207901,-0.1199011504650116,-0.0832342877984047,-0.05788203328847885,-0.0318254791200161,0.05948333814740181,-0.1079389750957489,-0.11410509794950485,0.04025454446673393,-0.11732979118824005,0.008502128534018993,-0.029545363038778305,-0.0487704761326313,0.003271436085924506,-0.1083204597234726,0.10734916478395462,-0.005280655343085527,0.05708768963813782,0.014653932303190231,-0.0015385516453534365,0.07175884395837784,-0.041896648705005646,-0.045513350516557693,0.09494718909263611,0.011306701228022575,-0.10303256660699844,0.010025580413639545,-0.04135565087199211,0.043473295867443085,-0.12730710208415985,0.0817304253578186,-0.0024016532115638256,-0.15894906222820282,-0.053309470415115356,0.03861278295516968,-0.01000826247036457,0.030605554580688477,0.10370228439569473,-0.08422691375017166,-0.03153114765882492,0.03906683251261711,-0.0033172445837408304,0.039306722581386566,-0.0553559809923172,-0.04197694733738899,0.0005476511432789266,-0.06402701139450073,0.015858298167586327,0.0031423375476151705,-0.04384902864694595,-0.11236371099948883,0.06291954964399338,-0.034382984042167664,-0.042291101068258286,-0.05219530314207077,0.05249048396945,-0.08086062967777252,-0.07869036495685577,0.015234428457915783,-0.00306644756346941,-0.033131930977106094,-0.010161032900214195,0.009180091321468353,0.03245250880718231,-0.08910296857357025,0.020215287804603577,0.02871771529316902,0.057191237807273865,-0.03550642728805542,-0.07595137506723404,-0.08930352330207825,-0.06873299181461334,0.03251956030726433,-0.09714523702859879,0.11712735146284103,-0.09239579737186432,-0.04082944244146347,0.015314226970076561,0.09904159605503082,0.05375104025006294,0.0030632547568529844,-0.029195724055171013,0.07187891006469727,0.012790100648999214,-0.029771948233246803,0.030969815328717232,-0.0255935937166214,-0.026508452370762825,0.037161603569984436,-0.008165731094777584,0.019605563953518867,0.10765132308006287,-0.053155798465013504,0.08957557380199432,-0.08223746716976166,0.08747946470975876,0.06807194650173187,0.008972848765552044,0.007366480305790901,-0.05709915608167648,0.004513496998697519,-0.025718435645103455,0.018815074115991592,-0.05271432176232338,0.08521341532468796,-0.06115088611841202,0.047498323023319244,-0.06342364847660065,-0.05114014074206352,-0.04460502043366432,-0.02294875867664814,0.040673453360795975,0.08817730844020844,-0.00004351049574324861,0.003689166158437729,-0.08125974982976913,-0.05919639766216278,-0.055654965341091156,-0.014953586272895336,0.08136328309774399,0.0029666211921721697,-0.12483428418636322,-0.02657581865787506,0.021349411457777023,0.09856142103672028,-0.040281716734170914,-0.039952002465724945,-0.01655438169836998,-0.0717480480670929,-0.03623421490192413,0.0026679388247430325,0.045103173702955246,-0.0021694994065910578,0.0682009607553482,0.041214942932128906,-0.04065249115228653,0.010535216890275478,-0.06958045810461044,0.008709188550710678,0.05423510819673538,-0.04193718731403351,-0.1100405603647232,-0.048638660460710526,0.07333941012620926,-0.02384004183113575,0.03210389241576195,0.03193071857094765,-0.1072034016251564,-0.044434577226638794,0.007337357383221388,-0.05335729569196701,0.05223657190799713,-0.01302980724722147,-0.0021819230169057846,0.02539890445768833,0.02992873266339302,0.03510202467441559,0.059626102447509766,0.02012619748711586,-0.059624116867780685,-0.08025652915239334,0.07820995897054672,0.011950116604566574,0.024085383862257004,0.01662835106253624,0.01915130391716957,0.05725579336285591,-0.09593084454536438,-0.016757886856794357,0.08194956928491592,-0.03460859879851341,-0.033162519335746765,-0.06365002691745758,-0.07594925910234451,-0.07271593809127808,-0.04119386151432991,-0.01401288341730833,-0.07636455446481705,-0.038629911839962006,-0.04778964817523956,-0.03373759239912033,0.047087661921978,-0.022939184680581093,0.09046754986047745,0.00579190393909812,0.006370925810188055,0.0805942639708519,0.059990353882312775,0.009478826075792313,-0.09397318959236145,0.07527914643287659,0.09470237046480179,-0.08801102638244629,0.010604065842926502,0.054911766201257706,-0.10148197412490845,0.014982395805418491,-0.0015806365991011262,-0.0891583263874054,0.03893604502081871,-0.0064260950312018394,-0.0880901962518692,0.026146698743104935,-0.08307787030935287,0.043583355844020844,0.04351472854614258,0.046826232224702835,0.0630120262503624,0.02144160121679306,0.004172502085566521,0.05807914584875107,-0.02693174220621586,-0.023103555664420128,-0.07984296977519989,0.06474804133176804,0.046816762536764145,0.05773315951228142,-0.06131795048713684,-0.010410367511212826,-0.03749055415391922,0.0000429267056460958,0.05183032527565956,-0.0017895858036354184,-0.012456083670258522,0.06567639857530594,-0.015937378630042076,-0.046936508268117905,-0.08550915122032166,-0.07432534545660019,-0.12875361740589142,0.050935667008161545,-0.04256010428071022,0.027430729940533638,0.03930111974477768,0.027085112407803535,0.030366405844688416,-0.10421634465456009,-0.09081525355577469,0.09478116780519485,-0.028757106512784958,-0.10888511687517166,-0.018895797431468964,0.046756111085414886,-0.009192923083901405,0.04570451378822327,-0.06930720061063766,0.016973242163658142,0.05525456741452217,0.005926160141825676,0.001037576119415462,-0.04434584453701973,-0.004509470425546169,-0.0022264302242547274,-0.048567745834589005,0.07756087183952332,-0.08886697888374329,-0.02426213212311268,0.0442642979323864,-0.022531598806381226,0.018443765118718147,-0.02402755804359913,-0.014571445062756538,-0.11332868784666061,-0.015132676810026169,0.01259702630341053,-0.1265476495027542,0.02370068058371544,-0.022289516404271126,0.005651629064232111,-0.006685028783977032,-0.10062791407108307,0.05012361332774162,-0.05568944662809372,0.018440579995512962,-0.03763297200202942,0.024709215387701988,0.016299331560730934,0.016770269721746445,-0.0306575745344162,-0.05015018582344055,-0.06119293347001076,-0.004593576304614544,0.06741016358137131,0.038521792739629745,-0.04314431548118591,-0.01534686516970396,0.004579863976687193,0.03885343298316002,-0.01580473966896534,-0.06869199872016907,-0.07149249315261841,0.04959652200341225,-0.015506177209317684,0.022192995995283127,0.029654869809746742,-0.035936273634433746,-0.05369601771235466,-0.03979816287755966,-0.06431843340396881,-0.0997111052274704,0.07966979593038559,0.07534265518188477,-0.055973704904317856,-0.009850703179836273,0.004463650286197662,0.013185792602598667,0.035981446504592896,0.002696628449484706,0.05786505714058876,0.06164251267910004,0.06935332715511322,-0.04626912251114845,-0.06317062675952911,-0.13018789887428284,-0.01484678778797388,0.001899281982332468,0.030657939612865448,-0.07174216210842133,0.04990636929869652,0.04131370037794113,-0.05830315127968788,0.06723446398973465,0.04471207037568092,-0.011746810749173164,0.05390646681189537,-0.00952704157680273,-0.07989109307527542,-0.01865098439157009,-0.014966613613069057,0.093885138630867,0.03424821421504021,0.007554046344012022,-0.020132550969719887,-0.0959860309958458,-0.05352385342121124,-0.07998940348625183,-0.0947149395942688,0.03452296555042267,-0.05527046322822571,-0.03402208164334297,0.06383951753377914,-0.0744553655385971,0.010780664160847664,0.01155856903642416,0.13853509724140167,0.00845000334084034,0.04044682905077934,-0.0012818974209949374,-0.11281761527061462,-0.019883984699845314,0.008142048493027687,-0.03785964101552963,0.0699937716126442,-0.00700061209499836,-0.038515605032444,-0.05306673422455788,-0.026270171627402306,-0.003173921490088105,0.08278751373291016,0.02607848308980465,0.007005837745964527,-0.035108357667922974,0.05279432609677315,-0.026146456599235535,0.05946275219321251,0.05518120154738426,0.009823428466916084,0.08407354354858398,0.051186349242925644,-0.04435914382338524,-0.022271547466516495,0.038604188710451126,-0.08391298353672028,-0.019603649154305458,0.10601215064525604,-0.07834359258413315,0.025736358016729355,-0.09631295502185822,-0.039620887488126755,-0.059158436954021454,-0.0761997327208519,0.05574464425444603,-0.10530120134353638,0.08873922377824783,-0.05607122182846069,-0.10091132670640945,0.0473635271191597,0.06140424683690071,-0.11249915510416031,0.04241481423377991,0.019980650395154953,0.07689472287893295,0.07251353561878204,-0.032503169029951096,-0.0401063933968544,-0.02489119954407215,-0.054016031324863434,-0.013419952243566513,-0.026517190039157867,0.04011387377977371,-0.06559229642152786,-0.01875375583767891,-0.0015096851857379079,0.0723235085606575,-0.10423220694065094,-0.023934077471494675,0.09063959866762161,0.11049619317054749,-0.03855707868933678,-0.009731273166835308,0.07038528472185135,0.014870324172079563,-0.09831078350543976,0.06779929250478745,-0.032796695828437805,-0.020944004878401756,-0.0482516773045063,-0.010896160267293453,-0.007746585179120302,0.02066192403435707,0.07750194519758224,-0.046394042670726776,0.03473665937781334,-0.09773663431406021,-0.10127449780702591,0.14951995015144348,0.09533406794071198,-0.047309935092926025,-0.052777547389268875,0.002960320794954896,0.0500759594142437,-0.03531423583626747,-0.0440986230969429,0.04430953785777092,0.11672217398881912,-0.04805871844291687,-0.02538788691163063,-0.0007697897381149232,-0.11166255921125412,-0.05051447078585625,0.0433722548186779,-0.015613239258527756,-0.10109369456768036,-0.05566084012389183,-0.03995807468891144,-0.09013639390468597,0.02255517989397049,-0.04090962931513786,-0.05840436741709709,-0.02527720481157303,0.05120587348937988,0.014769033528864384,0.0372970886528492,-0.09521166980266571,-0.011783369816839695,0.018956314772367477,0.018384087830781937,0.04996580630540848,0.05846027284860611,0.08101021498441696,0.08036517351865768,0.09654780477285385,-0.08876173198223114,0.08548653870820999,-0.01112252939492464,-0.02523459866642952,-0.02510022558271885,0.02138986997306347,-0.05173462629318237,0.05000772327184677,-0.05237878859043121,-0.13377521932125092,-0.015535896643996239,-0.07674059271812439,-0.06331183761358261,0.02597479335963726,0.06184323504567146,-0.05460644140839577,0.04215949773788452,0.014352403581142426,0.08512048423290253,-0.045712679624557495,-0.01278240978717804,0.06239907443523407,-0.0029853018932044506,0.09928590059280396,0.03967547416687012,0.03431309759616852,0.01142638735473156,0.047642286866903305,-0.09690748155117035,-0.03463926538825035,-0.06711642444133759,-0.14915145933628082,0.051496248692274094,0.029302358627319336,-0.030671264976263046,0.026494717225432396,-0.011724003590643406,-0.07702077925205231,0.017168398946523666,0.06540946662425995,-0.02935347892343998,-0.04663112759590149,0.08629097044467926,0.015790289267897606,-0.03728867322206497,-0.11033974587917328,-0.027583055198192596,-0.09363620728254318,-0.09969872981309891,0.04586072266101837,-0.0015252868179231882,-0.005687056574970484,-0.02690759114921093,0.0892055556178093,-0.0641171783208847,-0.0364828035235405,0.005404175724834204,-0.1098896786570549,0.09958454221487045,-0.008338144980370998,-0.06617667526006699,0.10483377426862717,-0.03094520792365074,-0.1026969850063324,-0.02856501005589962,0.0939459353685379,0.027272820472717285,-0.0889253318309784,0.010136827826499939,0.05409225448966026,0.00027822970878332853,-0.003763886634260416,-0.0621173270046711,0.02812059037387371,0.016827261075377464,-0.10306639969348907,0.0047276923432946205,0.07030873745679855,0.03429368883371353,-0.01567685790359974,0.01807396300137043,-0.022116325795650482,0.0703902542591095,-0.08319143205881119,0.011555139906704426,0.0705265998840332,0.03837931156158447,0.10979072004556656,0.028318636119365692,-0.047339845448732376,0.0696413591504097,0.07136392593383789,-0.0848083347082138,-0.054991498589515686,0.08325783163309097,0.06029229983687401,-0.0741567611694336,0.016429496929049492,0.04776805266737938,0.043314505368471146,-0.0278835017234087,0.06031463295221329,0.11710493266582489,-0.08351219445466995,-0.08355166763067245,-0.0883103534579277,-0.02971336804330349,-0.09731300175189972,0.02342604100704193,0.020751655101776123,0.011362387798726559,-0.009092307649552822,-0.06095808371901512,0.02322978526353836,-0.06886959075927734,0.022414980456233025,-0.04461651295423508,-0.036790668964385986,0.04738388583064079,0.0862540751695633,-0.02384950779378414,0.09768395870923996,0.06542077660560608,-0.07068704068660736,0.041048113256692886,-0.06654496490955353,-0.07639791816473007,-0.004922257270663977,0.07255111634731293,0.0551581010222435,-0.007778872735798359,0.001685876864939928,-0.030452938750386238,-0.07092951983213425,-0.003834226168692112,-0.1140521839261055,0.028657052665948868,0.06476850807666779,0.08350500464439392,-0.01760522648692131,-0.015736257657408714,0.009677504189312458,-0.09252103418111801,-0.015444680117070675,0.07564284652471542,0.04528741165995598,-0.047056954354047775,-0.008863159455358982,-0.06156212091445923,0.07849796861410141,0.09124713391065598,0.01036115176975727,-0.014673827216029167,-0.0497121624648571,-0.11309967935085297,0.008130969479680061,-0.03551716357469559,-0.025869209319353104,0.08693862706422806,0.017397016286849976,0.04166038706898689,-0.09836030006408691,-0.04623379185795784,0.039927806705236435,0.05481177568435669,0.007363736629486084,-0.00291736819781363,0.05149150639772415,-0.04156802222132683,0.009342842735350132,0.0017877729842439294,-0.03429846093058586,-0.10486235469579697,-0.017849324271082878,-0.11866806447505951,-0.08342526853084564,-0.05610598996281624,0.01872522383928299,0.026784691959619522,0.04696733132004738,-0.06780338287353516,0.028571557253599167,0.006266774144023657,0.01041207555681467,-0.0015153890708461404,-0.05020573362708092,0.02827346883714199,-0.058017704635858536,-0.06900835037231445,-0.016057876870036125,-0.09706835448741913,0.0471656508743763,0.027728740125894547,0.05256441608071327,-0.0002734578447416425,-0.10448049008846283,-0.047664329409599304,-0.07064203917980194,-0.04928391054272652,-0.15467879176139832,-0.1259600967168808,0.030948979780077934,-0.037123143672943115,-0.09685786068439484,-0.1034245565533638,-0.032544735819101334,0.0926036536693573,-0.058956924825906754,-0.08465961366891861,0.037116751074790955,-0.005353267304599285,-0.10193010419607162,0.01723639667034149,0.014961114153265953,0.019269226118922234,0.019230585545301437,0.004768105689436197,0.019042735919356346,-0.04943005368113518,0.0661379024386406,0.06040267273783684,0.01165617723017931,-0.1002572551369667,-0.09589869529008865,-0.05620801821351051,-0.11306193470954895,-0.022879455238580704,0.0541437603533268,-0.016394900158047676,-0.015932545065879822,0.04450913146138191,0.018359148874878883,0.03816881403326988,-0.1045810803771019,0.11190968751907349,0.01434286218136549,0.056049540638923645,-0.01755349338054657,0.02087271958589554,0.009839716367423534,-0.1064940020442009,-0.03706028684973717,0.013211463578045368,-0.03392104059457779,-0.05417748913168907,-0.08249538391828537,0.11962645500898361,-0.041566647589206696,-0.13106198608875275,-0.045643601566553116,-0.008610480464994907,-0.06630995124578476,-0.031978342682123184,-0.011424203403294086,0.01997222565114498,0.07598807662725449,-0.029642395675182343,-0.06575779616832733,0.06208736076951027,0.06327524781227112,0.06415160745382309,0.02810538560152054,-0.0564604289829731,0.08053034543991089,0.07237917184829712,-0.027413543313741684,0.09023501724004745,-0.0373445488512516,0.09376975893974304,-0.049784742295742035,0.019961323589086533,-0.04633135721087456,0.05339827388525009,-0.006135242059826851,0.0897330492734909,0.04574902355670929,0.0658465325832367,0.010170983150601387,-0.11494068056344986,-0.03454846143722534,0.017590979114174843,-0.10059250146150589,-0.03042422980070114,-0.08472719043493271,-0.09289588779211044,-0.010439741425216198,0.0035173455253243446,0.036217719316482544,0.017242899164557457,0.0006670604343526065,-0.07790842652320862,-0.02220061793923378,0.027415871620178223,0.00784681923687458,0.005948374047875404,-0.030229151248931885,-0.04045407846570015,0.024488050490617752,-0.027526400983333588,0.0021432130597531796,-0.045419443398714066,0.01281650085002184,-0.04368899017572403,0.06618571281433105,0.04350607469677925,-0.02216995507478714,-0.11151139438152313,-0.05134318023920059,-0.12508437037467957,-0.11406488716602325,-0.020944474264979362,0.035423122346401215,-0.00016704428708180785,0.030977578833699226,-0.05689787119626999,-0.09284642338752747,-0.039429277181625366,0.011517859064042568,0.04543336480855942,-0.07870989292860031,-0.022654833272099495,-0.044024981558322906,-0.06772729009389877,0.019357554614543915,0.04912947863340378,-0.045727383345365524,0.07734355330467224,0.011865474283695221,0.02973027713596821,-0.09482362121343613,0.01003668550401926,0.018121324479579926,0.0804755836725235,-0.04124542325735092,-0.01866362802684307,0.004728769883513451,0.10989923030138016,0.006604552268981934,-0.04036656767129898,-0.0016497435281053185,-0.11353476345539093,-0.005837590433657169,0.0550614669919014,-0.0028017819859087467,-0.10527913272380829,-0.0206187441945076,-0.02948378399014473,-0.015736978501081467,-0.055583421140909195,0.019165163859725,-0.0244708601385355,0.02303304336965084,0.002065923996269703,0.04771457612514496,-0.09584177285432816,0.026487765833735466,-0.017024382948875427,-0.030579660087823868,0.0684613287448883,-0.02659212239086628,0.007893608883023262,0.06984106451272964,-0.07694500684738159,0.007619950920343399,-0.07089781016111374,-0.05115150660276413,0.015339226461946964,0.057817842811346054,-0.028902994468808174,-0.003679912304505706,-0.08152113854885101,0.11208359897136688,0.004513259045779705,0.017307480797171593,0.01291544921696186,0.0344194620847702,-0.038045335561037064,-0.036484770476818085,-0.015390937216579914,0.0047510587610304356,0.014920818619430065,-0.02310783416032791,-0.02046915888786316,-0.04331117495894432,0.03219576179981232,0.03375748544931412,0.05555218830704689,-0.03934997692704201,-0.032035697251558304,-0.014174824580550194,0.0007209278992377222,-0.08043946325778961,-0.09558816999197006,0.025323428213596344,0.13319779932498932,-0.03443235903978348,0.06546571105718613,0.01487202662974596,-0.022277502343058586,-0.06476995348930359,0.007177713327109814,0.07450753450393677,0.013819720596075058,0.06193313002586365,-0.02569901943206787,0.032926294952631,-0.10303683578968048,0.035543620586395264,-0.07629668712615967,-0.03351134434342384,-0.039850544184446335,0.018756834790110588,-0.014096781611442566,-0.04794169217348099,-0.0477854423224926,-0.038824353367090225,0.06740702688694,-0.02042783610522747,-0.09053648263216019,-0.11849737167358398,-0.08718100935220718,0.04897163435816765,-0.0001852227869676426,0.0057906536385416985,0.009621941484510899,-0.016147341579198837,-0.0978277400135994,-0.051965467631816864,0.006895986385643482,-0.04738073796033859,0.07598688453435898,-0.025331296026706696,-0.021286828443408012,-0.0001765246706781909,-0.03263681009411812,-0.11720383167266846,-0.07616828382015228,0.01127812173217535,0.0267544686794281,-0.00948331505060196,-0.02143513411283493,0.017511198297142982,-0.055205851793289185,0.01596091315150261,-0.085167795419693,0.02666899748146534,0.08039279282093048,0.03133787587285042,0.0033113055396825075,0.0035856228787451982,0.011468402110040188,-0.03214733675122261,0.03066359832882881,-0.0480177104473114,-0.014695758931338787,-0.027880359441041946,-0.11783789843320847,-0.04253385215997696,-0.10782866925001144,0.021304039284586906,-0.00577202532440424,0.06240684166550636,-0.12055153399705887,0.057416707277297974,0.04606550559401512,0.050289805978536606,0.0430925078690052,-0.025321556255221367,-0.04418883100152016,-0.054133567959070206,-0.09267763048410416,-0.12522336840629578,-0.0466802716255188,-0.017424805089831352,0.06814399361610413,0.07351919263601303,-0.037290893495082855,-0.03032827377319336,0.03532329574227333,-0.013146983459591866,-0.0011213209945708513,0.025858581066131592,-0.07567216455936432,0.08327285200357437,0.009055857546627522,0.025371115654706955,-0.01645064167678356,0.048366013914346695,-0.05443533882498741,0.048988062888383865,-0.05748787149786949,-0.025578130036592484,0.09016165882349014,-0.009379063732922077,-0.027325639501214027,-0.038826003670692444,0.02935701794922352,0.04171071574091911,0.004165867809206247,0.005049671046435833,-0.09678898751735687,0.06978612393140793,-0.030356954783201218,0.010768071748316288,-0.1426943987607956,-0.09071575105190277,-0.05708635598421097,0.05666419863700867,-0.04726320505142212,0.013681765645742416,-0.00007939893839647993,-0.06769091635942459,0.015945157036185265,0.06043792515993118,0.01213185116648674,0.06344955414533615,-0.017924893647432327,-0.045105770230293274,0.0885247141122818,-0.010015037842094898,0.0453081838786602,-0.09020867198705673,-0.052036531269550323,-0.0464634895324707,0.017741132527589798,-0.04032594710588455,0.02912737801671028,0.08653068542480469,-0.0010015466250479221,-0.10358312726020813,-0.04434209316968918,0.0448639839887619,-0.05863066390156746,-0.057309042662382126,0.031074345111846924,0.04030921310186386,-0.06301631778478622,0.009050562977790833,-0.0360400415956974,-0.08874712139368057,-0.07142172753810883,-0.04995518550276756,0.05984947457909584,-0.10729043930768967,0.04331868514418602,-0.00930215697735548,0.050986453890800476,-0.03548932075500488,-0.05805071070790291,-0.09151647239923477,-0.0727696642279625,0.10483688861131668,-0.0949195846915245,0.06624205410480499,0.07984814792871475,0.009168754331767559,-0.03796854615211487,0.06754331290721893,-0.05738626420497894,-0.01810045726597309,-0.08030201494693756,-0.025955650955438614,-0.18771234154701233,-0.027575818821787834,0.0366104431450367,-0.00023722903279121965,0.001394515624269843,-0.0505787618458271,0.09921885281801224,0.023934131488204002,-0.05380036681890488,-0.020542209967970848,-0.017950618639588356,-0.004726142156869173,0.014002886600792408,-0.023128099739551544,-0.058134276419878006,-0.04213704541325569,0.07900625467300415,0.04532574489712715,0.02496523968875408,0.04441964626312256,0.06290566176176071,0.10791905969381332,0.05271269753575325,0.009986614808440208,-0.016825279220938683,0.09491512179374695,-0.2348766028881073,-0.005920914933085442,-0.0438477098941803,-0.018427671864628792,0.029993461444973946,-0.07352618873119354,-0.09540603309869766,0.06959324330091476,0.00660555437207222,0.15328842401504517,-0.12081894278526306,-0.10069330036640167,0.0010019124019891024,-0.025949208065867424,0.006118642166256905,0.03870708867907524,0.025736773386597633,-0.055810753256082535,-0.0787782222032547,0.011470201425254345,-0.17808406054973602,-0.00871251430362463,0.03035283461213112,-0.0054995534010231495,-0.00004698633711086586,0.021903499960899353,0.04362068697810173,0.007030516862869263,-0.03465802222490311,0.08793095499277115,0.010905486531555653,0.11981863528490067,-0.01059102825820446,-0.09072461724281311,-0.06872756779193878,-0.061920974403619766,-0.009996101260185242,0.024735422804951668,0.005554347764700651,0.03195520490407944,0.0306829996407032,-0.02067147009074688,0.1613762229681015,0.03485064208507538,-0.0610373429954052,0.07864303886890411,0.08732878416776657,0.06301786750555038,-0.07184913754463196,0.07533565163612366,-0.13451920449733734,-0.030450457707047462,-0.02183951623737812,0.030934572219848633,-0.02107296511530876,0.06820503622293472,0.08239734917879105,0.015028000809252262,0.054045669734478,0.030262181535363197,