{"runId":4,"createdAt":"2026-07-15T20:19:19.018Z","modelFamily":"mlp_v1","hiddenLayers":[128,64],"inputSize":60,"outputSize":59,"outputNumbers":[1,2,3,4,5,6,7,8,9,10,11,12,13,14,15,16,17,18,19,20,21,22,23,24,25,26,27,28,29,30,31,32,33,34,35,36,37,38,39,40,41,42,43,44,45,46,47,48,49,50,51,52,53,54,55,56,57,58,59],"weights":[{"name":"dense_Dense16/kernel","shape":[60,128],"values":[0.07429476827383041,-0.15994685888290405,-0.10829854756593704,0.04157367721199989,-0.14509733021259308,-0.01454706396907568,0.08015989512205124,-0.06322526931762695,0.05310000851750374,0.04544605314731598,-0.08101692795753479,-0.08280613273382187,0.2152816504240036,-0.04012681171298027,0.026640748605132103,0.029974468052387238,-0.05952978879213333,-0.19493936002254486,0.0798172652721405,-0.22371646761894226,0.09593500196933746,0.06126099452376366,-0.2529272437095642,0.026257812976837158,0.23451241850852966,-0.2319127321243286,-0.20642375946044922,-0.16257180273532867,0.02991810254752636,-0.43889176845550537,0.05787857994437218,0.04022303968667984,-0.12263845652341843,-0.15667173266410828,0.1118929460644722,-0.2090434730052948,-0.13404665887355804,0.04001646488904953,0.04562707990407944,-0.1875874251127243,-0.16801920533180237,-0.27238962054252625,0.03454868867993355,-0.1723552644252777,0.06128518283367157,0.02053580805659294,-0.07457051426172256,-0.05775966867804527,-0.000997625757008791,-0.039514679461717606,0.019508151337504387,0.005297913681715727,-0.1331329494714737,-0.13185055553913116,-0.15576708316802979,-0.259804904460907,-0.3137359023094177,-0.02403637208044529,-0.011135837994515896,0.16616380214691162,0.13303031027317047,0.11930369585752487,0.07240507006645203,-0.06469668447971344,-0.22695566713809967,-0.018516497686505318,-0.03250628337264061,0.19484473764896393,0.07753808051347733,0.11949162185192108,-0.0697992593050003,0.33184465765953064,-0.10995055735111237,0.24561741948127747,0.07143408805131912,0.1876688301563263,-0.15087445080280304,0.10883750766515732,-0.12219449132680893,0.02173020876944065,0.1789601743221283,-0.11874377727508545,0.08905868977308273,0.20811788737773895,0.14116479456424713,0.16065801680088043,0.1819818615913391,-0.011547164060175419,-0.25419116020202637,-0.19271837174892426,0.10176504403352737,0.0231936015188694,-0.0639822781085968,0.1383858323097229,0.24341699481010437,-0.14495007693767548,-0.09799011051654816,0.0403422974050045,0.006469369865953922,0.03927032649517059,-0.060201603919267654,-0.03410019353032112,-0.02478637360036373,0.24596232175827026,-0.03241681680083275,-0.03219493478536606,0.17077191174030304,0.018349608406424522,0.11832016706466675,-0.35368117690086365,0.19114165008068085,-0.0607856921851635,0.09526775777339935,0.04877627640962601,-0.15078552067279816,0.08994926512241364,0.1233685165643692,0.1350352168083191,-0.15331527590751648,0.19289065897464752,0.05638258159160614,0.1408802568912506,-0.009254556149244308,0.09562245011329651,0.06354530155658722,0.023200109601020813,-0.07158784568309784,0.04646982625126839,0.1364251673221588,-0.19552454352378845,0.01185857504606247,0.2029707133769989,0.018558938056230545,-0.05784226581454277,0.094523586332798,0.09335587173700333,0.0581170879304409,0.11640795320272446,-0.02287662774324417,-0.15034134685993195,-0.01763059012591839,-0.07687237858772278,-0.07128766924142838,-0.22183629870414734,0.0160230603069067,0.1334468126296997,-0.2526114583015442,0.03728695958852768,-0.058672185987234116,-0.16150175034999847,-0.1416131854057312,0.05211668461561203,-0.02795802801847458,0.06370022892951965,-0.08481882512569427,0.25972703099250793,0.31327569484710693,-0.23697501420974731,-0.020448582246899605,-0.04904474318027496,0.03732509911060333,-0.0035527371801435947,-0.27556875348091125,0.1953524351119995,0.15014244616031647,-0.04248430207371712,-0.11815552413463593,-0.18692508339881897,0.0760989710688591,0.0696130022406578,0.08245781064033508,0.13499033451080322,-0.1583435982465744,-0.00415643397718668,0.1367999017238617,0.15847431123256683,-0.04205743223428726,-0.03325798362493515,0.08994917571544647,-0.12002620846033096,-0.13116364181041718,-0.08994507789611816,0.07740753144025803,0.2303379625082016,-0.2127886414527893,-0.06538735330104828,0.1558670550584793,0.058304592967033386,-0.010709070600569248,-0.25714102387428284,-0.11411240696907043,-0.10654662549495697,0.1480468362569809,0.06430748850107193,-0.02930499240756035,-0.18990732729434967,-0.08681053668260574,-0.07378212362527847,-0.038590483367443085,-0.007131529971957207,-0.12293445318937302,-0.19084374606609344,0.13562357425689697,-0.011138985864818096,-0.023978322744369507,-0.10878736525774002,-0.05354776233434677,-0.23180703818798065,0.09713093191385269,0.09238940477371216,-0.006432991474866867,0.08400806039571762,-0.03193242847919464,-0.1019989401102066,0.13551443815231323,0.0011717427987605333,-0.24403497576713562,-0.23133213818073273,0.08844349533319473,0.03803554177284241,0.10290379077196121,0.3156360983848572,0.1143105998635292,-0.008696573786437511,0.038272108882665634,-0.033907920122146606,-0.13549426198005676,0.19328387081623077,-0.08576150238513947,-0.030463071539998055,-0.0016647240845486522,0.0043365564197301865,0.17421193420886993,0.1654207855463028,-0.07401580363512039,-0.06905510276556015,-0.07534340769052505,-0.0691719725728035,-0.07547229528427124,-0.07674568146467209,-0.09851529449224472,0.015928611159324646,0.038955237716436386,-0.10171055793762207,0.008296703919768333,0.03361347317695618,-0.09087295830249786,-0.11082160472869873,0.17931312322616577,0.02900014817714691,-0.026975030079483986,0.06599630415439606,0.08167851716279984,0.15263450145721436,0.016169684007763863,-0.11802065372467041,0.10098149627447128,-0.03385334461927414,-0.06561785936355591,-0.012817771174013615,-0.036330629140138626,-0.07906030118465424,-0.04180404171347618,-0.051027946174144745,-0.016648169606924057,-0.25416576862335205,0.09053076803684235,-0.24496813118457794,-0.21453310549259186,-0.061556119471788406,-0.022337734699249268,-0.029271356761455536,0.0018762476975098252,0.047926343977451324,0.07278836518526077,-0.28454896807670593,-0.10566072911024094,0.03294854238629341,-0.19722484052181244,0.0027047551702708006,-0.013994085602462292,0.13300839066505432,-0.13684219121932983,-0.07620614022016525,-0.0802847370505333,0.04759832099080086,0.09924649447202682,-0.1836727112531662,-0.05403143912553787,0.02677810750901699,0.01877487823367119,-0.18918932974338531,0.17458008229732513,-0.11036883294582367,-0.0782562866806984,0.0016377209685742855,-0.006132545415312052,-0.07801016420125961,-0.09090665727853775,-0.07419342547655106,-0.01543708611279726,-0.0050460463389754295,-0.0049765813164412975,0.07962501794099808,-0.07249999046325684,-0.13656574487686157,-0.019779551774263382,-0.1406809538602829,-0.1813654750585556,0.2645682394504547,-0.10875146090984344,0.02719576098024845,-0.16270706057548523,-0.13304485380649567,0.025455210357904434,0.08497708290815353,-0.03736712411046028,-0.06547778844833374,-0.12461820989847183,0.09181978553533554,0.13312244415283203,-0.2771598994731903,0.12363793700933456,-0.18820299208164215,0.291217565536499,-0.0008858520304784179,-0.08239144086837769,-0.18396370112895966,0.0811539739370346,-0.11022043228149414,-0.2435469925403595,0.0037577033508569,0.2481493502855301,-0.11549495905637741,-0.14288605749607086,-0.06237398087978363,0.023569196462631226,-0.005685396492481232,0.02606268972158432,-0.044832561165094376,0.02067773975431919,-0.21223285794258118,0.022295206785202026,0.04707503318786621,-0.3280850946903229,-0.09528833627700806,-0.21679116785526276,0.12982392311096191,0.17915378510951996,-0.2000545710325241,0.16806961596012115,-0.019239451736211777,0.07531124353408813,-0.018063174560666084,-0.17474786937236786,0.13195711374282837,-0.035942442715168,0.17568111419677734,0.13764554262161255,0.2542303502559662,0.031356777995824814,0.07769989967346191,-0.022902483120560646,0.017752768471837044,-0.0890488475561142,0.08539631217718124,-0.0830632746219635,-0.13252195715904236,-0.23856866359710693,0.21557831764221191,0.16689272224903107,0.0326106883585453,-0.23375950753688812,-0.033192507922649384,-0.13209983706474304,0.10841678082942963,-0.32066255807876587,0.10142205655574799,-0.2131781131029129,-0.018955959007143974,-0.06204590946435928,-0.1704956293106079,0.2380799651145935,-0.03074791468679905,0.12282677739858627,-0.10139516741037369,0.05216486006975174,-0.20200294256210327,-0.1127445176243782,0.076621875166893,0.00924794003367424,-0.14684298634529114,-0.09274233877658844,-0.06859224289655685,-0.09848511219024658,0.02957898937165737,0.051540423184633255,0.00935249961912632,-0.021977154538035393,-0.0508781261742115,-0.07792039215564728,-0.14588366448879242,0.012961030006408691,-0.17518262565135956,-0.0961725264787674,-0.1220710352063179,0.08775851130485535,-0.06728586554527283,0.035349685698747635,0.04742942005395889,0.18394196033477783,-0.277025431394577,-0.028810396790504456,0.1295423060655594,0.025203701108694077,-0.09186652302742004,-0.07633248716592789,-0.048404570668935776,0.036885570734739304,0.05118250846862793,0.00047658622497692704,0.003616682253777981,0.18918469548225403,0.25858137011528015,-0.12622959911823273,0.012395627796649933,0.21731199324131012,0.0577385313808918,0.1401226967573166,0.018656916916370392,-0.14854663610458374,0.012217891402542591,-0.12946990132331848,-0.1903676986694336,-0.12431368976831436,-0.03769669309258461,0.04335381090641022,-0.03446783125400543,-0.09185931086540222,-0.0647878348827362,-0.26197102665901184,-0.12285283952951431,0.10335566103458405,-0.11949966102838516,-0.013671799562871456,0.0025132799055427313,0.08369714766740799,-0.08208951354026794,-0.1911502480506897,0.25065961480140686,-0.038883026689291,-0.005695680622011423,0.028703557327389717,-0.1644539088010788,0.12832674384117126,-0.14510487020015717,-0.013236792758107185,-0.034566815942525864,0.02756897360086441,0.11763381958007812,-0.116762675344944,0.15282036364078522,-0.0555177703499794,-0.21341194212436676,0.19168582558631897,-0.043894849717617035,0.040468979626894,-0.09837552160024643,-0.16045576333999634,-0.06488768756389618,-0.10047222673892975,-0.02965666353702545,-0.019374728202819824,-0.028030063956975937,0.08221825212240219,-0.05567757785320282,0.13976258039474487,-0.02377181127667427,-0.018036868423223495,0.11373662948608398,0.02478218823671341,0.0992591604590416,0.023021524772047997,0.09564425051212311,0.026618413627147675,0.005692123901098967,0.023700620979070663,0.19052308797836304,-0.14265485107898712,0.10520990192890167,0.11156435310840607,-0.032086338847875595,0.03460918366909027,-0.36475735902786255,-0.10593139380216599,-0.15765121579170227,-0.019771382212638855,0.06141461804509163,0.09212257713079453,-0.14010678231716156,0.26263779401779175,-0.04817876219749451,0.05402772128582001,0.23684310913085938,0.18017084896564484,0.10668879747390747,-0.15973956882953644,0.3699221611022949,0.04020995274186134,-0.047928810119628906,-0.0655553936958313,-0.10351468622684479,-0.13488586246967316,-0.11732059717178345,-0.05743977800011635,0.08709459751844406,-0.02275131642818451,-0.17455196380615234,0.217269629240036,-0.05125587061047554,-0.1578480452299118,0.20805059373378754,-0.08102799952030182,-0.1258430778980255,-0.054449211806058884,-0.1853499412536621,0.05675113573670387,0.01966146193444729,0.12050990760326385,0.037424877285957336,0.14310653507709503,-0.029633494094014168,-0.03978273272514343,0.08576391637325287,-0.13054423034191132,0.11938730627298355,-0.0340106263756752,0.0758686438202858,0.13554523885250092,0.27007707953453064,0.0680665373802185,-0.08992668986320496,0.12503141164779663,-0.13366234302520752,0.02576378919184208,0.23584270477294922,0.1646610051393509,0.22022412717342377,-0.29718005657196045,-0.1345861852169037,0.03525763377547264,-0.05745928734540939,0.0013361712917685509,-0.2627657353878021,0.1234264001250267,0.002272938610985875,0.15486831963062286,0.026464462280273438,0.03259814903140068,-0.1493995189666748,0.03910480812191963,0.01851745694875717,-0.0845501646399498,-0.15799646079540253,-0.27764183282852173,-0.3228755593299866,-0.05530548468232155,0.07774036377668381,0.09835071116685867,0.014379777014255524,-0.20066380500793457,0.1278812289237976,-0.1620146930217743,0.09759272634983063,0.013231100514531136,-0.0197171438485384,0.12142571806907654,0.07441313564777374,-0.08268610388040543,0.06404118239879608,-0.10799606144428253,0.1689196676015854,-0.12380683422088623,-0.16737686097621918,0.12389129400253296,-0.02846830151975155,0.026626180857419968,-0.04100072383880615,-0.2791598439216614,0.1251673847436905,0.11610820144414902,0.19426198303699493,-0.038011081516742706,0.07500859349966049,0.020332295447587967,-0.23945340514183044,0.08468279987573624,0.0403057299554348,-0.001513012801297009,-0.16574038565158844,-0.09909679740667343,0.06669116765260696,0.22581464052200317,-0.2602204382419586,0.08651543408632278,0.18391519784927368,-0.3205524981021881,-0.033415786921978,-0.007500505540519953,-0.06027019023895264,-0.1839560866355896,-0.10805352032184601,-0.13362349569797516,-0.0064178346656262875,0.03205129876732826,-0.27946534752845764,-0.050203632563352585,0.14170973002910614,0.09245961159467697,-0.18969105184078217,-0.03524306043982506,0.02173757180571556,-0.036628417670726776,-0.10864964127540588,0.010309015400707722,0.1128232330083847,-0.18251144886016846,-0.060815904289484024,-0.11838090419769287,0.06510847806930542,-0.09273388236761093,0.2714765965938568,-0.0839838981628418,-0.21233828365802765,-0.07758470624685287,0.14204546809196472,-0.08398202061653137,0.025507641956210136,0.027285592630505562,-0.0016551150474697351,0.03722287714481354,-0.08284174650907516,0.09226681292057037,-0.11218596249818802,0.011582841165363789,-0.06792633980512619,-0.0007700487039983273,0.007492155767977238,0.05028530955314636,0.032565537840127945,-0.035273872315883636,0.052984412759542465,0.09887971729040146,-0.1333037167787552,-0.09827783703804016,0.005286846775561571,-0.2139832228422165,-0.05202093720436096,-0.03354908898472786,-0.10816624015569687,0.020559687167406082,0.2540767788887024,0.026596445590257645,-0.13676515221595764,0.09240877628326416,0.11403795331716537,-0.12159413844347,0.1022157296538353,0.062480274587869644,0.1605888158082962,0.13705307245254517,-0.12286358326673508,-0.136308491230011,-0.03948625549674034,0.13720707595348358,-0.31084734201431274,-0.14394745230674744,0.054461363703012466,0.0734211727976799,-0.14205801486968994,0.012447466142475605,0.09633292257785797,0.03304172307252884,-0.043336063623428345,-0.09911278635263443,0.04749733954668045,-0.11943754553794861,-0.042220260947942734,-0.2026006132364273,0.09139884263277054,0.1848803162574768,-0.10040177404880524,0.03585358336567879,0.1506635993719101,-0.35415852069854736,0.24404804408550262,0.23316821455955505,-0.061315640807151794,0.06184643134474754,-0.13289614021778107,-0.10934721678495407,0.021454744040966034,-0.24472670257091522,0.019788680598139763,0.10575813055038452,0.09624163806438446,-0.09976659715175629,-0.20211906731128693,-0.15850719809532166,0.03779067099094391,0.0007183684501796961,0.05828217417001724,-0.14820294082164764,-0.006362364161759615,0.04981076717376709,0.212140753865242,0.09185250103473663,-0.25099173188209534,-0.04748238995671272,0.09127553552389145,-0.015095950104296207,-0.16212159395217896,-0.3113109767436981,-0.09916439652442932,-0.13518375158309937,0.014670648612082005,-0.1409616470336914,-0.03594904765486717,-0.1708054393529892,0.057340770959854126,-0.21529729664325714,-0.1280645877122879,0.12898613512516022,-0.03085990622639656,-0.17160335183143616,-0.07679424434900284,-0.001441196771338582,0.0079326331615448,0.04418715089559555,-0.20163944363594055,-0.04958495497703552,0.05420912429690361,-0.025542721152305603,0.18496473133563995,0.1773252785205841,0.04489957541227341,-0.1438959240913391,0.07454872876405716,0.033200088888406754,-0.17907457053661346,0.018635284155607224,0.04128996282815933,0.014164811000227928,0.04532092437148094,-0.2675314247608185,0.28417283296585083,-0.14429914951324463,0.15381835401058197,0.06224711611866951,-0.1496250480413437,-0.1663876175880432,-0.29349786043167114,-0.07281976193189621,-0.1006891280412674,-0.01843433827161789,0.2507275938987732,0.06246304139494896,0.03384694084525108,0.03730487450957298,-0.09839991480112076,-0.21101583540439606,-0.05054846405982971,-0.0869174376130104,-0.016908736899495125,-0.15999235212802887,0.09621159732341766,0.17286284267902374,-0.14611242711544037,-0.11475998163223267,0.2061978578567505,0.13848160207271576,-0.11675627529621124,0.05313768610358238,0.06778772920370102,-0.04146956279873848,0.24114474654197693,0.135835662484169,0.07583809643983841,-0.03552442789077759,0.11825621128082275,-0.037769727408885956,-0.1888965666294098,-0.0699000135064125,0.15500758588314056,0.20504848659038544,0.21780914068222046,0.07431062310934067,-0.05904502421617508,0.04127288982272148,0.11593686789274216,-0.2032993733882904,0.35240641236305237,-0.05640789866447449,0.010090198367834091,0.016953861340880394,-0.20067375898361206,-0.014064307324588299,-0.039859119802713394,-0.09386672079563141,0.09714844822883606,0.05790559947490692,-0.12335111945867538,-0.16722288727760315,0.3336389660835266,0.031063200905919075,-0.021291963756084442,-0.0818168967962265,-0.15467214584350586,-0.07881146669387817,-0.19176162779331207,0.16246400773525238,0.13058874011039734,0.15383173525333405,0.05957143381237984,-0.3192909061908722,-0.20636659860610962,0.09242196381092072,-0.16938887536525726,-0.1532077193260193,-0.0450076162815094,0.12775185704231262,-0.19996143877506256,-0.0824727937579155,0.036737702786922455,-0.11092987656593323,0.2145584672689438,-0.13397331535816193,0.04609569162130356,0.04666861519217491,-0.3171767592430115,0.030609752982854843,-0.05679527297616005,-0.08513179421424866,-0.004370406270027161,0.10910189896821976,-0.14396066963672638,0.020347746089100838,0.047821056097745895,0.08390287309885025,-0.13718281686306,0.13693398237228394,-0.2589713931083679,-0.1293715536594391,-0.012196755968034267,-0.11337091773748398,0.011279776692390442,-0.17744165658950806,0.0317373163998127,0.01937852054834366,-0.009674688801169395,0.01196865364909172,-0.18288199603557587,0.09632747620344162,-0.1689666211605072,-0.09138981252908707,-0.22466564178466797,-0.0034923371858894825,-0.28969645500183105,-0.009556819684803486,-0.006953197997063398,0.05942448601126671,0.03545057773590088,0.03202172368764877,-0.09221853315830231,-0.033850181847810745,-0.09815660864114761,0.16932155191898346,-0.17113706469535828,0.1816737949848175,-0.013374646194279194,-0.004209523089230061,-0.008691705763339996,0.01646057702600956,-0.17031103372573853,0.10264066606760025,-0.06281255930662155,0.043120142072439194,0.0918135941028595,0.014115285128355026,0.0901571661233902,-0.058140575885772705,0.05812080577015877,0.01364112924784422,0.12390685826539993,0.06263889372348785,0.10889962315559387,0.17957693338394165,0.014970481395721436,0.14831960201263428,-0.013845313340425491,0.052237290889024734,0.032442063093185425,0.0008393978932872415,0.13297438621520996,-0.11522562801837921,0.10584984719753265,0.053802937269210815,-0.241180881857872,-0.06623754650354385,0.09503164142370224,-0.14956417679786682,0.09158078581094742,0.06432157009840012,-0.23534896969795227,-0.23794099688529968,0.10268046706914902,0.2180955559015274,0.0949336513876915,0.1941891759634018,0.040449365973472595,-0.19173620641231537,-0.2538120448589325,0.17385128140449524,-0.031793881207704544,0.12234862893819809,-0.2766243815422058,-0.10252630710601807,-0.20183302462100983,-0.03787082061171532,0.11270992457866669,-0.12773922085762024,0.0958918035030365,0.15662391483783722,-0.08511658012866974,-0.1454823613166809,0.33516108989715576,-0.11454460769891739,0.13354583084583282,0.012704811990261078,-0.25656214356422424,0.39131730794906616,-0.002651351736858487,-0.06138822063803673,0.005928151309490204,-0.03211299329996109,-0.04292542114853859,0.11447614431381226,-0.006539703346788883,0.0985381230711937,-0.1340177059173584,-0.055517327040433884,-0.11882981657981873,-0.14428237080574036,0.06204864755272865,0.02090354450047016,0.0002634523843880743,-0.013592659495770931,0.3314773440361023,-0.24897216260433197,-0.22399398684501648,-0.1560160219669342,-0.1266551911830902,0.01919531635940075,-0.067778080701828,-0.042224347591400146,-0.03815022110939026,0.03442275524139404,0.20296385884284973,0.16592660546302795,-0.11000457406044006,-0.11814641952514648,0.08388928323984146,-0.03203562647104263,-0.0830003023147583,-0.14074157178401947,0.005804573185741901,-0.06804696470499039,0.012400292791426182,-0.06638690084218979,-0.01321847178041935,-0.043718982487916946,-0.04192228615283966,0.06375343352556229,0.13842713832855225,-0.14384879171848297,0.1572447568178177,0.16373397409915924,-0.08525673300027847,0.06252774596214294,0.014747080393135548,0.019617781043052673,-0.031272467225790024,-0.006507975980639458,0.08006958663463593,-0.2444247603416443,0.18493221700191498,-0.12651115655899048,-0.05018869414925575,-0.23807349801063538,-0.16732342541217804,0.13600100576877594,-0.13641200959682465,0.03505033627152443,-0.14345836639404297,0.13083110749721527,-0.18916653096675873,-0.11940188705921173,0.21526981890201569,-0.12695066630840302,-0.05850716680288315,0.20499370992183685,-0.10180697590112686,-0.11453967541456223,0.04883396625518799,-0.024397432804107666,-0.14773404598236084,-0.1727551966905594,-0.1487797051668167,0.16485178470611572,-0.05021694302558899,0.12885388731956482,-0.029596250504255295,0.013812444172799587,0.07960528135299683,-0.07813165336847305,-0.1411462426185608,-0.18842773139476776,0.20927157998085022,-0.10961979627609253,0.16102592647075653,0.2677054703235626,0.05958980321884155,0.08035056293010712,0.1008414700627327,-0.01388756837695837,-0.1293947547674179,-0.24131737649440765,-0.05323328822851181,-0.04110178351402283,0.06812667846679688,0.25995948910713196,-0.1633862555027008,-0.14135485887527466,-0.07143989950418472,0.18768209218978882,-0.047438912093639374,-0.25164347887039185,0.17430272698402405,-0.013354095630347729,0.06468652188777924,0.1178019791841507,0.08817975968122482,-0.2182881087064743,-0.04740740731358528,0.03419729694724083,0.07635179162025452,-0.04342763125896454,-0.07403741031885147,0.033453285694122314,0.21355445683002472,0.047917842864990234,0.09580834954977036,-0.03966351971030235,0.31079304218292236,-0.1501568704843521,0.0355956107378006,0.10786682367324829,-0.04779912158846855,0.0769161805510521,-0.008871841244399548,-0.12116512656211853,-0.19161872565746307,0.06645089387893677,-0.03293303772807121,-0.007101799827069044,0.010443143546581268,0.12112825363874435,-0.050626132637262344,0.1961105614900589,0.16338862478733063,-0.21200305223464966,-0.1065225899219513,-0.08829230815172195,-0.08157096803188324,0.1573534905910492,-0.23525145649909973,-0.0025116645265370607,0.017451250925660133,0.2724209427833557,0.16981841623783112,-0.11332739889621735,0.22314339876174927,-0.11593116074800491,0.13655206561088562,-0.17938831448554993,0.007288762833923101,-0.22463040053844452,-0.036220576614141464,-0.10285846143960953,-0.06435567885637283,-0.20994782447814941,-0.05442408472299576,0.0005405868869274855,0.025748489424586296,-0.08318650722503662,-0.033358752727508545,0.16651110351085663,0.12006434053182602,0.1234070435166359,-0.21664677560329437,0.006137553136795759,0.09929950535297394,0.03971423953771591,0.06066680699586868,0.04282568767666817,-0.04381253197789192,0.1076001226902008,0.0881127193570137,0.1907268464565277,0.07760384678840637,-0.020840460434556007,-0.21580931544303894,0.20122866332530975,-0.05426383018493652,0.1713724583387375,-0.07906591147184372,-0.09200845658779144,-0.04250434413552284,-0.03492867574095726,-0.033197298645973206,-0.011950686573982239,0.12825442850589752,-0.001657751970924437,0.03237645700573921,0.06886284798383713,-0.28339865803718567,-0.36874768137931824,0.25615301728248596,-0.06593460589647293,0.016339851543307304,-0.07884807884693146,0.13459353148937225,0.02700250782072544,0.12155862897634506,-0.054054100066423416,-0.13348466157913208,0.18084387481212616,-0.14311344921588898,0.1875455677509308,-0.08253363519906998,-0.04224810749292374,-0.08488089591264725,-0.21953049302101135,0.04998175427317619,-0.08352767676115036,-0.036847326904535294,0.0941568985581398,-0.12388291209936142,0.0800795704126358,0.2093040645122528,0.35185807943344116,0.15234370529651642,-0.0529276579618454,-0.1834055483341217,0.18806704878807068,-0.1719750314950943,0.0011481333058327436,-0.048231322318315506,0.030060138553380966,0.00025829573860391974,-0.16970029473304749,-0.32429489493370056,0.07036763429641724,-0.05889162793755531,-0.04516126960515976,-0.14011789858341217,0.0951199010014534,-0.16620422899723053,0.22585855424404144,-0.3800540864467621,-0.04106593504548073,0.03809940442442894,-0.05022292956709862,-0.010298104956746101,-0.06252007186412811,-0.04169989377260208,-0.23804858326911926,0.3516191244125366,-0.18913984298706055,-0.04396212846040726,0.019405212253332138,-0.04821998253464699,-0.08682631701231003,-0.14658738672733307,-0.0057336678728461266,-0.07816220074892044,0.008242396637797356,0.17401030659675598,0.03489966690540314,0.01241807546466589,-0.1348126381635666,-0.011082491837441921,-0.1355726420879364,-0.33814114332199097,-0.2651946544647217,0.09026463329792023,-0.051942065358161926,-0.30848929286003113,-0.3802897334098816,-0.09991749376058578,-0.10281891375780106,-0.03015579655766487,0.3676207661628723,-0.020876355469226837,-0.08169467747211456,0.10514017939567566,0.0733046680688858,-0.15287698805332184,0.12155915796756744,-0.013841025531291962,-0.08698529750108719,-0.009383301250636578,0.1566951870918274,-0.0013866840163245797,-0.04870085418224335,-0.24356068670749664,0.1838068813085556,-0.16314060986042023,-0.05107427388429642,0.041142720729112625,0.08434457331895828,0.2646131217479706,0.028982559219002724,-0.04747456684708595,-0.032890308648347855,0.1849709153175354,-0.019520163536071777,0.15146340429782867,-0.0220639631152153,-0.09695301949977875,0.12208272516727448,-0.13862720131874084,0.05447400361299515,0.30592748522758484,-0.07314085960388184,0.06071764975786209,0.0658266693353653,-0.09918518364429474,-0.004176205489784479,0.08025208860635757,-0.11965817213058472,0.0717799961566925,-0.09676095098257065,0.03371306508779526,0.07533503323793411,0.0794544443488121,0.040948983281850815,0.0003298390656709671,-0.15812720358371735,-0.21149525046348572,0.1302478015422821,0.030248623341321945,0.1493205726146698,0.16725720465183258,-0.017764603719115257,-0.07130998373031616,0.06183286011219025,0.012170602567493916,0.08314160257577896,0.14435601234436035,-0.01856180839240551,-0.1989147961139679,0.029337065294384956,-0.027902837842702866,0.10306117683649063,-0.21667495369911194,0.14697304368019104,0.020661139860749245,0.06768479943275452,-0.03158940002322197,0.27257898449897766,0.12880170345306396,0.04952916130423546,0.1032867580652237,-0.14193087816238403,-0.01760171726346016,-0.008415019139647484,-0.1558888852596283,-0.049777496606111526,-0.16069850325584412,0.06768286973237991,0.003870978020131588,0.07397821545600891,-0.1951650232076645,0.23732195794582367,-0.031943608075380325,-0.03016183339059353,-0.19570210576057434,-0.26904764771461487,0.24636168777942657,-0.08819881826639175,0.061505962163209915,-0.13594591617584229,-0.0013073571026325226,-0.1780884861946106,0.07320814579725266,-0.007368939463049173,0.011475186794996262,0.06538528949022293,-0.1346307247877121,0.09637203067541122,-0.026983140036463737,-0.046341314911842346,-0.18663199245929718,0.19817686080932617,0.011372842825949192,-0.1922328621149063,0.022727128118276596,0.05126979202032089,0.10505454242229462,0.056952252984046936,0.0908055528998375,-0.07863255590200424,-0.18918414413928986,0.14392200112342834,0.046718865633010864,0.06373856961727142,-0.16621118783950806,-0.10487733781337738,-0.003607775317505002,-0.016536904498934746,-0.01890731416642666,0.08000190556049347,-0.10113610327243805,0.2504611313343048,-0.19566024839878082,0.12648941576480865,0.10250233113765717,-0.10085883736610413,-0.06566304713487625,0.09852537512779236,-0.04962899535894394,0.10950139164924622,0.12217022478580475,-0.07333581149578094,0.15965472161769867,-0.05747915431857109,-0.19271084666252136,0.4225691556930542,-0.00600403593853116,-0.007233215495944023,0.07904741168022156,-0.05432581901550293,-0.03558582440018654,0.10414181649684906,0.09494145214557648,-0.03879465162754059,0.17239835858345032,0.09707029908895493,0.015232650563120842,-0.16540805995464325,0.10044925659894943,-0.0014484574785456061,0.08944619446992874,0.15920868515968323,-0.18942919373512268,-0.061450473964214325,0.038831375539302826,0.08531085401773453,0.3007926344871521,-0.13996990025043488,0.16373157501220703,-0.167276069521904,0.09901674091815948,-0.07751309871673584,0.007760228123515844,-0.016578616574406624,-0.0026403090450912714,0.10968928039073944,-0.042568594217300415,-0.034670423716306686,-0.11343111842870712,-0.13721947371959686,-0.354506254196167,-0.0019958035554736853,-0.015877187252044678,0.08643097430467606,-0.22480086982250214,-0.15377697348594666,-0.3114386200904846,0.05154427886009216,0.026079509407281876,-0.1259494572877884,0.01480718795210123,0.08481903374195099,-0.007510591764003038,0.10627555847167969,-0.18171438574790955,0.05862460657954216,-0.08541760593652725,0.15267612040042877,0.20504972338676453,0.336048424243927,0.14311333000659943,0.2624344825744629,0.1096244752407074,-0.13534893095493317,0.012218113988637924,-0.3456708490848541,-0.23404109477996826,-0.05226403847336769,0.005451338365674019,0.04669293388724327,0.15330374240875244,-0.21880574524402618,-0.13496562838554382,-0.16089759767055511,-0.12289570271968842,-0.08561296761035919,-0.09385186433792114,-0.12790176272392273,-0.04450435936450958,-0.21274082362651825,0.09033558517694473,0.2022910863161087,0.0005833113100379705,0.12740035355091095,-0.19473223388195038,-0.1674995720386505,0.053112685680389404,-0.16146495938301086,0.15130527317523956,0.08154357224702835,0.04677638038992882,-0.14080126583576202,0.11955868452787399,-0.07545033097267151,0.09800208359956741,0.039263736456632614,0.1301068812608719,-0.11680755764245987,-0.19349263608455658,0.08173620700836182,0.3019600212574005,0.05898015573620796,0.13845457136631012,0.011893367394804955,-0.024655437096953392,-0.10227401554584503,0.22208894789218903,0.1660623401403427,-0.22850750386714935,0.19051378965377808,0.17707502841949463,0.07583082467317581,0.09426097571849823,-0.04449237510561943,-0.0351431742310524,0.029763713479042053,0.18506066501140594,0.027583729475736618,-0.14399901032447815,0.2472878098487854,0.057760730385780334,-0.12268141657114029,0.13558390736579895,0.14274553954601288,-0.1041712835431099,0.06681475043296814,-0.02852737531065941,-0.003301118267700076,0.11458082497119904,-0.0010296674445271492,0.13214166462421417,-0.09197226911783218,-0.09901642054319382,-0.17802056670188904,-0.11031553894281387,-0.031337421387434006,0.14986950159072876,-0.10212468355894089,0.07536343485116959,0.03340981528162956,-0.21075643599033356,-0.0488029420375824,-0.20037007331848145,-0.14244496822357178,0.07437866926193237,0.05648765340447426,0.0300455205142498,0.20351016521453857,-0.05982479080557823,-0.07672504335641861,0.03594253584742546,-0.06076108664274216,-0.037067960947752,-0.2565922439098358,-0.15821823477745056,0.12389136105775833,-0.0794246569275856,0.03981325775384903,-0.09958621114492416,0.020937366411089897,0.02068796567618847,-0.07742076367139816,0.04540373757481575,-0.12014542520046234,-0.08616162836551666,-0.11651501059532166,-0.08356688171625137,-0.09065904468297958,-0.3578672707080841,0.017585579305887222,0.10512098670005798,0.03200392425060272,-0.16977150738239288,-0.2905053198337555,0.0885235071182251,-0.04810856655240059,0.13916268944740295,0.210462287068367,-0.2561298608779907,0.07528756558895111,-0.07477642595767975,0.05316981300711632,-0.17752406001091003,-0.06759626418352127,-0.08790242671966553,0.04572935029864311,-0.07857152074575424,-0.1281672865152359,-0.16972123086452484,0.09739185869693756,-0.1372009962797165,-0.20105797052383423,-0.033442139625549316,0.30076679587364197,-0.0741911455988884,-0.1430722177028656,-0.00186012196354568,-0.18468952178955078,-0.13499271869659424,-0.06776514649391174,-0.041076380759477615,0.14414536952972412,-0.07968100160360336,0.017429424449801445,-0.06915168464183807,-0.006594493519514799,-0.15373532474040985,-0.06622873991727829,0.01100543886423111,-0.0156077416613698,0.20846539735794067,-0.06248950958251953,-0.06375613063573837,0.10661068558692932,-0.008164898492395878,0.09735045582056046,-0.1034616082906723,0.1193494126200676,0.07551299780607224,-0.005011567380279303,0.12134901434183121,-0.14215853810310364,0.13795839250087738,-0.19626545906066895,-0.046429604291915894,0.042358070611953735,0.0755508616566658,-0.0999637246131897,0.005005883052945137,0.16252228617668152,-0.03759869560599327,-0.25329700112342834,-0.16214093565940857,0.07823289930820465,0.06787696480751038,-0.11648935079574585,0.11800254881381989,-0.20432110130786896,-0.1596471667289734,0.08486952632665634,-0.06737853586673737,0.037140242755413055,-0.10464279353618622,-0.04648929461836815,-0.16752755641937256,-0.12882637977600098,-0.30680224299430847,-0.22554126381874084,-0.01112128235399723,0.023102400824427605,0.08440946042537689,-0.2960994839668274,0.1324319690465927,0.21799953281879425,0.09076081961393356,-0.02820473350584507,0.025119347497820854,0.14744143187999725,0.04725000262260437,0.1820869743824005,-0.17337234318256378,0.0006459748256020248,-0.03392207249999046,-0.09128230810165405,-0.06830637156963348,-0.059364594519138336,-0.008594678714871407,-0.10678891837596893,-0.06104092672467232,-0.16968999803066254,0.06071949750185013,0.042237501591444016,-0.02860236167907715,0.007783352397382259,-0.056738194078207016,-0.24425677955150604,-0.12430239468812943,0.20062266290187836,-0.04182654246687889,0.04193923994898796,-0.010673649609088898,-0.14467810094356537,0.15251001715660095,-0.05704675614833832,0.15972968935966492,0.06366759538650513,-0.10750994086265564,0.25032323598861694,0.09518969058990479,-0.08933794498443604,0.049086906015872955,0.04162212833762169,-0.009164828807115555,-0.10403382033109665,0.0547848679125309,0.060388609766960144,0.036145832389593124,-0.22351394593715668,-0.041055500507354736,-0.07521504163742065,0.08338477462530136,-0.04406207427382469,-0.005966286640614271,0.07731588184833527,0.026200709864497185,-0.1311492770910263,-0.1506657898426056,0.17532148957252502,-0.07511690258979797,0.013458285480737686,0.18671807646751404,0.017876382917165756,-0.08277074247598648,-0.11717639118432999,-0.21266961097717285,-0.23672416806221008,-0.061544597148895264,-0.23957067728042603,0.17677877843379974,-0.01953153684735298,0.006977865006774664,-0.1527896225452423,0.03242649883031845,0.1051192507147789,0.4631512463092804,0.1034775972366333,-0.06553514301776886,-0.04764511063694954,0.1489749699831009,0.011628714390099049,0.1381901651620865,0.11121130734682083,-0.018805623054504395,0.06001927703619003,-0.12270443886518478,-0.3215338885784149,-0.029979083687067032,0.14813357591629028,-0.013399121351540089,-0.08570045232772827,-0.04349996894598007,-0.048941776156425476,-0.02262604609131813,-0.11126936972141266,-0.09429756551980972,-0.1541871577501297,0.009713680483400822,-0.07386233657598495,0.0900527834892273,-0.10000865906476974,0.043367475271224976,-0.28703418374061584,0.007329265121370554,0.18424925208091736,-0.10555623471736908,0.13573144376277924,0.3215189576148987,0.09088023751974106,-0.10126183182001114,0.16712895035743713,0.074424147605896,0.0008603153983131051,-0.07868176698684692,-0.33252596855163574,0.056988876312971115,0.29165366291999817,-0.1048705130815506,-0.06393063813447952,0.18275398015975952,-0.12708830833435059,0.059616148471832275,-0.06370119005441666,-0.03541353717446327,-0.28786057233810425,0.12892240285873413,-0.08282069116830826,-0.3264049291610718,0.08303202688694,-0.025136345997452736,0.20366781949996948,-0.1763077676296234,0.00950254313647747,-0.13337750732898712,0.16413621604442596,-0.036845613270998,-0.18927784264087677,-0.25064465403556824,0.03951131924986839,-0.2255476713180542,0.12117710709571838,0.008067718707025051,0.1094505786895752,-0.05378617346286774,0.0634123757481575,0.06455062329769135,0.1249355673789978,-0.04245566949248314,0.08789630979299545,-0.18141047656536102,0.09082275629043579,0.10773863643407822,-0.048385489732027054,-0.1090354472398758,-0.10952036082744598,0.034590110182762146,0.016779866069555283,0.03791526332497597,0.09376136213541031,-0.018660947680473328,0.2547828257083893,0.06530575454235077,-0.1447584331035614,0.0030277110636234283,0.1671171337366104,-0.10974448174238205,-0.17361091077327728,0.08580776304006577,0.19013358652591705,-0.03353571519255638,0.053482718765735626,0.010652399621903896,0.035941168665885925,-0.06418441981077194,0.132889524102211,0.12582851946353912,0.11767914891242981,-0.06162896752357483,-0.1474534273147583,-0.09766556322574615,-0.08455438166856766,-0.19777028262615204,-0.16233298182487488,-0.20516127347946167,-0.018604634329676628,0.11860363185405731,0.108148954808712,-0.05954686179757118,-0.0703088715672493,-0.12671689689159393,0.09113338589668274,-0.1985887736082077,0.129959374666214,0.017222309485077858,-0.23169927299022675,-0.09475459158420563,0.07619021832942963,-0.15009503066539764,-0.030204374343156815,0.0015463830204680562,-0.21083955466747284,0.10511596500873566,0.19528445601463318,0.169232577085495,-0.00528560858219862,-0.0578160360455513,-0.12733390927314758,-0.2175300121307373,-0.013599803671240807,-0.043325114995241165,0.04991989582777023,-0.04543227329850197,0.019598742946982384,0.09595990180969238,0.02116544172167778,-0.17752201855182648,0.014004860073328018,-0.011702558025717735,0.19259637594223022,0.028123188763856888,0.10118206590414047,-0.21596184372901917,0.07245340943336487,-0.02688070386648178,-0.18541356921195984,-0.10698065906763077,-0.11036970466375351,0.08361943811178207,-0.09451025724411011,0.0221359021961689,0.12855294346809387,-0.14908187091350555,-0.17967969179153442,-0.01746000163257122,0.056548818945884705,0.1164734736084938,-0.07850879430770874,-0.1864957958459854,-0.0021922264713793993,-0.22906921803951263,-0.061127372086048126,0.024868732318282127,0.13611385226249695,-0.17643271386623383,0.0031365377362817526,-0.24232123792171478,-0.04659179598093033,0.18937988579273224,0.0257320087403059,0.0283920057117939,0.2131350189447403,0.006282401736825705,0.2326734960079193,0.07093852013349533,-0.10339987277984619,-0.006350196897983551,0.07305330038070679,0.006668272893875837,0.07311908155679703,0.14295782148838043,0.21193502843379974,0.1685900241136551,0.041559264063835144,-0.005062437150627375,0.04289712756872177,0.06294605135917664,-0.006376141216605902,0.1484171450138092,-0.11621959507465363,-0.03706728667020798,0.016973426565527916,0.0962735190987587,-0.014308255165815353,0.0006270584999583662,0.24453802406787872,0.2829374670982361,0.19613061845302582,0.047063637524843216,0.04111439362168312,-0.1309879720211029,0.03285533934831619,-0.06759573519229889,-0.12911859154701233,-0.03493105620145798,-0.023607198148965836,0.1496848464012146,0.10938244313001633,-0.0177818164229393,-0.2453598827123642,-0.12381765246391296,-0.2624141275882721,-0.0010876631131395698,0.05552361160516739,0.08622904866933823,0.12345979362726212,0.11837939918041229,-0.024755652993917465,0.053397469222545624,0.0594094917178154,-0.0620075985789299,-0.10723599791526794,-0.003346510697156191,0.014997425489127636,-0.05254228040575981,0.19534240663051605,0.10828462243080139,0.01998298615217209,-0.12033042311668396,-0.10534817725419998,-0.19126246869564056,-0.1023973673582077,-0.25343573093414307,-0.10160835832357407,-0.1362096518278122,-0.23634272813796997,0.006582458969205618,0.09983987361192703,-0.3167174160480499,-0.0784861370921135,0.0016517284093424678,-0.06330543011426926,-0.09507495909929276,-0.03189065307378769,0.07714288681745529,0.07730516791343689,0.26446256041526794,0.08322472870349884,-0.09275706857442856,-0.19746917486190796,0.03858032450079918,-0.2372179478406906,-0.022583497688174248,-0.03565683588385582,-0.13633812963962555,0.07759485393762589,-0.12866224348545074,0.04571394622325897,-0.01947006955742836,0.014955338090658188,0.07979483157396317,0.15097439289093018,-0.00775993661954999,-0.2108379304409027,-0.27305182814598083,-0.2339915633201599,0.037917610257864,-0.13200643658638,-0.025553947314620018,0.13136664032936096,-0.008884357288479805,0.10863757878541946,0.007717677392065525,0.07488152384757996,-0.03465861827135086,-0.25228938460350037,0.018504956737160683,0.03380477800965309,-0.049926064908504486,-0.29296356439590454,-0.13290779292583466,-0.03252801671624184,-0.044682230800390244,0.0038186581805348396,0.16274873912334442,0.177764430642128,-0.012630860321223736,-0.005607015918940306,-0.22516155242919922,-0.0014521466800943017,0.0843173936009407,-0.43935948610305786,-0.056622061878442764,0.2645990252494812,0.04479289427399635,-0.014645150862634182,0.02455746941268444,-0.009230426512658596,-0.0390775203704834,0.16687552630901337,-0.05478110536932945,-0.09508153051137924,0.22549334168434143,0.01855946145951748,0.15605546534061432,-0.014195822179317474,-0.04359145835042,-0.011285382322967052,-0.08929775655269623,0.02970193140208721,0.21778959035873413,-0.00973367691040039,0.1939985454082489,0.06798195093870163,-0.08444816619157791,-0.03369295597076416,-0.1736498326063156,0.093340665102005,0.1654011756181717,-0.09218894690275192,0.2674506604671478,-0.037663377821445465,0.10333755612373352,0.02411242388188839,-0.17994675040245056,-0.1470087468624115,0.0382000133395195,-0.08912190794944763,0.03013233095407486,0.25829628109931946,0.06606072932481766,0.043240826576948166,0.009608796797692776,0.2331256866455078,-0.15692317485809326,-0.0857117772102356,0.05314831808209419,0.045101191848516464,0.323139488697052,-0.16832424700260162,0.012838955968618393,0.07024810463190079,-0.19819384813308716,-0.3224566578865051,-0.14099042117595673,-0.1372033804655075,-0.42138558626174927,0.22045505046844482,-0.23914049565792084,-0.1092299148440361,-0.07025221735239029,-0.13094910979270935,0.04277908056974411,0.07300901412963867,-0.10289927572011948,-0.014605759643018246,-0.018018951639533043,0.13782998919487,0.24001659452915192,-0.20499229431152344,0.13476911187171936,0.0841369703412056,-0.019320037215948105,-0.02684013359248638,0.09955000132322311,-0.05217176675796509,-0.1382494419813156,-0.1878170520067215,-0.19647477567195892,-0.19319668412208557,-0.226792573928833,-0.09843229502439499,0.20507919788360596,-0.07476714998483658,-0.0037824425380676985,0.21619537472724915,0.06580182164907455,0.16150054335594177,-0.13104969263076782,0.3890201449394226,-0.007817253470420837,-0.02105630189180374,0.13555990159511566,0.11030853539705276,0.08068212121725082,-0.2422177493572235,-0.07003067433834076,0.1980815827846527,0.10971393436193466,-0.1135394275188446,-0.05014625936746597,0.012242055498063564,0.08145643770694733,0.006923946551978588,0.12593086063861847,-0.01986299268901348,-0.2004670351743698,-0.22343775629997253,-0.04445991665124893,0.030179617926478386,-0.01329102460294962,-0.19225087761878967,-0.07090908288955688,-0.02769918367266655,0.061976175755262375,-0.046409185975790024,-0.21336062252521515,-0.06391099840402603,-0.05267636105418205,0.23892858624458313,-0.25923851132392883,-0.038557566702365875,-0.31498318910598755,0.15032394230365753,-0.13539397716522217,0.34159156680107117,0.03181428089737892,0.030270425602793694,0.09128296375274658,-0.010392574593424797,-0.04051022604107857,-0.014100676402449608,-0.050407346338033676,0.14463089406490326,-0.0587741956114769,0.05178232863545418,0.1709887981414795,-0.09618853032588959,0.053739577531814575,0.10036187618970871,-0.07834210246801376,0.14144961535930634,0.06582020223140717,0.3292044401168823,0.1049584373831749,-0.0518280453979969,-0.039697762578725815,0.021620415151119232,-0.07831715047359467,-0.04130180925130844,0.04410644248127937,-0.10583048313856125,0.0848005935549736,-0.009851321578025818,-0.12089483439922333,0.08425593376159668,-0.14326085150241852,-0.07097353786230087,-0.13454894721508026,0.04037334397435188,0.045094870030879974,0.055772773921489716,0.2799408733844757,-0.09167667478322983,0.13554979860782623,0.07650589942932129,0.0729493796825409,0.024482132866978645,0.05493062734603882,0.06196531653404236,0.15700501203536987,-0.05149183049798012,-0.05054319277405739,-0.16672766208648682,0.015313477255403996,-0.0663795918226242,0.0087686562910676,-0.17960697412490845,0.021431289613246918,0.08321809768676758,-0.14728650450706482,0.056987158954143524,0.058109212666749954,-0.00512352492660284,0.14970076084136963,-0.13276460766792297,-0.08491475880146027,0.02821672335267067,-0.06294310837984085,0.20140568912029266,0.15124815702438354,-0.12976226210594177,-0.03710738196969032,-0.2701074182987213,-0.2704508900642395,-0.09720595180988312,-0.24191880226135254,-0.20854219794273376,0.02799297124147415,-0.004760757088661194,0.042245738208293915,0.040831439197063446,0.17901436984539032,-0.04211011528968811,-0.005413051228970289,0.05394909530878067,0.22320297360420227,0.30410096049308777,-0.01936202310025692,-0.2595396637916565,0.13385315239429474,0.0892534852027893,0.07121628522872925,-0.22548624873161316,-0.13831187784671783,-0.15831832587718964,0.03814982995390892,-0.0036042581778019667,-0.06035720184445381,0.027581267058849335,-0.009287314489483833,0.27551978826522827,-0.06332868337631226,-0.09419096261262894,0.15744583308696747,-0.05526997148990631,0.008287334814667702,-0.09046097099781036,0.17066165804862976,0.07922513782978058,0.1502000242471695,0.1980680674314499,0.06480053812265396,0.15453262627124786,0.0465032123029232,0.052247531712055206,-0.1356116235256195,0.05443737655878067,0.11960058659315109,-0.20185795426368713,0.1475764364004135,0.1667405366897583,-0.08320077508687973,-0.06378863751888275,0.16418448090553284,0.17320384085178375,-0.060215841978788376,0.041478246450424194,0.00023706025967840105,-0.08934129774570465,0.1029421016573906,0.06001201272010803,0.0928531140089035,-0.01052150223404169,-0.00515727000311017,-0.0690050795674324,-0.13671398162841797,-0.08999966084957123,-0.185832217335701,-0.060645896941423416,-0.1429310142993927,0.02976246178150177,0.04325183480978012,0.15822942554950714,-0.05649241805076599,0.14017850160598755,-0.11687617748975754,0.24435099959373474,-0.07557231932878494,0.06669588387012482,0.3132539689540863,-0.1646835207939148,0.01600377820432186,-0.3229478895664215,-0.10225939005613327,0.05133681371808052,-0.14502497017383575,-0.22532998025417328,-0.18954914808273315,-0.0972619503736496,0.15362364053726196,-0.1980488896369934,-0.06453029811382294,0.018957464024424553,-0.006382780149579048,0.08032436668872833,0.3161788582801819,0.08204106986522675,-0.005743579473346472,0.016382208094000816,-0.49252232909202576,0.03609342500567436,0.1887706071138382,0.11904909461736679,-0.19210737943649292,-0.07140855491161346,-0.009242192842066288,-0.27462732791900635,0.18401311337947845,-0.097251296043396,-0.04232294112443924,0.03862493857741356,-0.0921233668923378,-0.3135789632797241,0.291121244430542,-0.08546403795480728,-0.1588299572467804,-0.011709751561284065,-0.1647859364748001,-0.13659261167049408,-0.06020483747124672,-0.14926643669605255,0.003965356387197971,-0.25035035610198975,0.12346053868532181,-0.006845005322247744,-0.030558180063962936,0.17648059129714966,-0.16897134482860565,-0.02414027228951454,-0.05474814027547836,-0.06797819584608078,0.178547203540802,-0.0032315838616341352,0.09174639731645584,0.04694897308945656,-0.012824712321162224,0.19562727212905884,-0.06727251410484314,-0.15755894780158997,-0.3234589397907257,-0.10942835360765457,-0.34490031003952026,-0.18579156696796417,0.30880990624427795,0.14477656781673431,0.06824338436126709,0.46050652861595154,0.04052437096834183,-0.36783796548843384,-0.14581827819347382,0.13064119219779968,-0.158519446849823,0.2045144885778427,0.10296421498060226,-0.22425007820129395,0.01720660924911499,0.18386413156986237,-0.08382243663072586,-0.15589314699172974,-0.07679065316915512,-0.19780667126178741,0.08854024857282639,0.07368579506874084,-0.053367991000413895,-0.09897175431251526,-0.020265892148017883,0.21217823028564453,-0.052882932126522064,-0.22939647734165192,-0.48252052068710327,-0.23437312245368958,0.1722695529460907,0.18728835880756378,-0.16019266843795776,0.15679529309272766,0.06741659343242645,0.08557401597499847,0.010915725491940975,-0.047409091144800186,0.09255428612232208,-0.28188103437423706,0.20482872426509857,0.1316138356924057,0.026369551196694374,-0.167280912399292,-0.16786640882492065,0.13614702224731445,-0.1781734824180603,-0.07437948137521744,-0.08834439516067505,-0.058659877628088,0.19501923024654388,-0.022190425544977188,-0.09147633612155914,-0.052382536232471466,0.01545921340584755,0.2918073534965515,0.14776495099067688,-0.015261650085449219,0.05781327933073044,-0.010702638886868954,-0.024518052116036415,-0.026886681094765663,-0.039777301251888275,-0.029555778950452805,0.09543196111917496,-0.0835147500038147,0.19214288890361786,0.004773783963173628,-0.0047100502997636795,-0.00277680903673172,-0.12112702429294586,0.12967918813228607,0.20791937410831451,-0.0853453278541565,0.004678505472838879,-0.05914910137653351,-0.025215553119778633,0.02416994795203209,0.2471758872270584,-0.09167614579200745,-0.1249515488743782,-0.10220111161470413,-0.07688828557729721,-0.07429679483175278,-0.15024006366729736,0.17871862649917603,-0.06961534172296524,0.0989985391497612,-0.19087491929531097,0.1096474900841713,-0.01799568347632885,0.21129824221134186,-0.03723970055580139,0.10928380489349365,0.13628575205802917,0.2030184119939804,-0.12163829803466797,0.11659466475248337,0.022447939962148666,0.1468922644853592,0.1554485708475113,-0.025018826127052307,-0.09865733981132507,0.0083880964666605,-0.024914223700761795,0.31878724694252014,-0.06564469635486603,-0.10539152473211288,0.09382254630327225,0.15736006200313568,0.20391592383384705,-0.10954195261001587,-0.11360235512256622,-0.017051490023732185,0.1757281869649887,-0.1041586697101593,0.028197508305311203,0.019339600577950478,0.09672990441322327,-0.003647098084911704,-0.024603059515357018,-0.15554484724998474,0.1041058897972107,0.039991430938243866,-0.21761144697666168,0.16942715644836426,-0.16122664511203766,0.12223689258098602,0.01518502738326788,-0.11845431476831436,0.2205503284931183,0.05132020264863968,0.050827015191316605,0.03404228016734123,-0.24574968218803406,-0.28757795691490173,-0.2487630695104599,0.05472012609243393,-0.11638929694890976,0.04915819689631462,-0.1711757332086563,0.04936743155121803,0.0641574114561081,0.08771584928035736,-0.05588464066386223,0.24244146049022675,-0.11723938584327698,-0.02794524095952511,0.1850918084383011,-0.0015017956029623747,0.012394968420267105,-0.1504056304693222,0.0969403088092804,0.3078119456768036,-0.21479782462120056,-0.011211441829800606,0.049694038927555084,-0.11584024131298065,0.03602037578821182,0.2078539878129959,-0.057645365595817566,0.06575305014848709,0.17376133799552917,-0.1297992765903473,0.03451116755604744,-0.07250187546014786,-0.06559736281633377,0.0010830406099557877,0.15033063292503357,-0.4763808250427246,-0.08630739152431488,0.1528458595275879,0.058924127370119095,0.04957329109311104,-0.1701093167066574,-0.32579243183135986,0.003947868011891842,-0.05266755446791649,0.01578550972044468,-0.06325413286685944,0.0995485708117485,-0.0944976732134819,-0.10687918215990067,-0.21031388640403748,0.04632006585597992,-0.039119184017181396,0.052579812705516815,0.10198694467544556,0.10877521336078644,0.23074392974376678,0.023115795105695724,0.15043777227401733,-0.23935049772262573,0.1076870933175087,0.16359972953796387,-0.016183041036128998,-0.05395395681262016,0.25777116417884827,0.02234714664518833,-0.24279120564460754,-0.09429212659597397,0.19035646319389343,0.03040195070207119,0.10003634542226791,-0.08761122077703476,0.07837162166833878,-0.10785239189863205,0.008076490834355354,-0.17774412035942078,-0.09422004222869873,-0.0575457364320755,0.178488627076149,0.11350978165864944,0.03999088332056999,-0.2843954861164093,-0.19177229702472687,0.05290079489350319,-0.002204058924689889,-0.1488049477338791,0.1754738986492157,-0.030648984014987946,-0.04331827163696289,0.10797873139381409,0.10409638285636902,0.11977370828390121,0.12182974070310593,-0.1364186704158783,0.03540082648396492,-0.11933106929063797,0.015371599234640598,0.37357476353645325,-0.168670192360878,0.25332385301589966,-0.20483744144439697,0.004206910263746977,-0.03733009845018387,-0.29889705777168274,0.11442691087722778,-0.057873327285051346,0.15385383367538452,-0.001176505465991795,0.013260955922305584,-0.15509332716464996,-0.05780068784952164,0.1271330714225769,0.1141873374581337,-0.1485779732465744,0.029779309406876564,0.0938422754406929,-0.08213479071855545,0.04603949189186096,-0.12652741372585297,0.09287092834711075,-0.12188683450222015,-0.05504264682531357,0.08180481940507889,-0.3831043243408203,-0.06100969389081001,-0.027210211381316185,0.07480506598949432,0.061088379472494125,0.20169661939144135,-0.05588891729712486,-0.25309455394744873,-0.24942976236343384,-0.055316925048828125,-0.17335471510887146,0.029654445126652718,-0.019514767453074455,0.021104613319039345,-0.2433544397354126,0.09953334182500839,0.07883292436599731,-0.021342473104596138,0.18327246606349945,-0.09124480187892914,-0.12274892628192902,0.1198900043964386,-0.02171679213643074,0.058448079973459244,-0.020971499383449554,0.2083749920129776,0.05581964924931526,-0.15975011885166168,0.029582340270280838,0.09530673176050186,0.11328590661287308,0.1336906999349594,-0.1901555359363556,-0.25179681181907654,-0.08429348468780518,0.06527304649353027,-0.2408965528011322,-0.006149971392005682,-0.03451598435640335,-0.19936628639698029,-0.07668066024780273,0.3950429856777191,0.07067014276981354,0.11450093984603882,0.06039123237133026,-0.10335385054349899,-0.030876604840159416,-0.2049904614686966,-0.20107945799827576,0.09414158761501312,-0.25377947092056274,-0.028362620621919632,0.09624961763620377,-0.08281141519546509,0.039106789976358414,0.029983531683683395,-0.1942380666732788,0.11517328768968582,0.08740604668855667,0.014795685186982155,-0.21323536336421967,0.06140490621328354,-0.09747785329818726,0.14191465079784393,0.1687999814748764,-0.024978047236800194,-0.07363342493772507,-0.10666590183973312,-0.10942958295345306,0.1356470286846161,0.1777510941028595,-0.17643199861049652,-0.0032591873314231634,0.1311911791563034,-0.18060721457004547,0.21815919876098633,-0.2251695841550827,0.12677639722824097,-0.03815114498138428,-0.1398482471704483,0.07953591644763947,-0.05790625885128975,-0.03529515862464905,-0.22736366093158722,0.013321840204298496,0.289474755525589,-0.26968634128570557,0.15164010226726532,0.30448684096336365,0.03562808409333229,-0.11659824103116989,-0.12307708710432053,0.0010699741542339325,0.06725692003965378,0.29047682881355286,0.1623285561800003,-0.05458168685436249,-0.09643328934907913,-0.16024012863636017,-0.001791995600797236,0.3221088945865631,-0.1902521252632141,-0.03565860539674759,-0.025522135198116302,0.17118532955646515,-0.3400397002696991,-0.12076284736394882,-0.07553435862064362,0.18885362148284912,-0.009191007353365421,0.2523907423019409,-0.05496842414140701,-0.09675867110490799,-0.08472856879234314,-0.032179586589336395,0.057639215141534805,0.1407759189605713,-0.07198769599199295,0.12639786303043365,-0.22846619784832,-0.1853007823228836,-0.09852385520935059,0.06007545068860054,-0.44160720705986023,-0.08758129179477692,-0.14818339049816132,0.12062118947505951,0.027842869982123375,-0.1231115460395813,0.14606837928295135,0.028288856148719788,-0.08285785466432571,0.014438774436712265,-0.0005139963468536735,-0.16823096573352814,0.02524530701339245,0.18853147327899933,-0.016855387017130852,-0.17670729756355286,-0.1261955201625824,0.08869485557079315,0.007209858391433954,0.01914645917713642,0.016406524926424026,0.11786764115095139,-0.05786319449543953,-0.02446851320564747,-0.09741279482841492,-0.06133470684289932,-0.07123273611068726,0.10484527051448822,0.0787792056798935,-0.064116470515728,0.27425792813301086,-0.013224771246314049,-0.08005529642105103,-0.008055060170590878,0.07565957307815552,-0.06703321635723114,0.08726491779088974,-0.04230160266160965,0.13796555995941162,0.03856795281171799,-0.04181817173957825,-0.06753652542829514,-0.09057899564504623,-0.09192165732383728,0.14796312153339386,0.055511318147182465,0.12595559656620026,0.08575941622257233,-0.08677206933498383,-0.25056517124176025,0.047148626297712326,0.1873357594013214,0.0033905399031937122,-0.01797480881214142,0.08471644669771194,-0.10200409591197968,0.039306577295064926,0.058599334210157394,0.13775740563869476,-0.01656733639538288,-0.17930245399475098,-0.21429041028022766,0.018048344179987907,0.05472830682992935,-0.0932629406452179,-0.13343356549739838,0.0021985825151205063,0.04803703725337982,0.14374703168869019,-0.07055871933698654,0.20118658244609833,0.21372532844543457,-0.09303583204746246,-0.07884901762008667,-0.03711478412151337,-0.06819429248571396,-0.07069865614175797,0.03749832138419151,-0.019681628793478012,-0.13198456168174744,-0.11227448284626007,0.06000637263059616,0.10579676926136017,0.18147726356983185,-0.05927448719739914,-0.06308109313249588,-0.1438719630241394,0.03724539279937744,-0.13182014226913452,0.09262201189994812,-0.1651245802640915,-0.0558805838227272,0.08118920773267746,-0.1028774082660675,-0.11815723031759262,0.18944834172725677,-0.05861879140138626,-0.02781606651842594,0.12057365477085114,0.2647869884967804,-0.07648234814405441,-0.11208397150039673,0.07566877454519272,0.09437212347984314,0.14626583456993103,0.03319939970970154,-0.044247161597013474,-0.008588535711169243,0.03881030157208443,0.1477731466293335,0.09315300732851028,-0.18414366245269775,0.027987170964479446,0.14578275382518768,-0.1303154081106186,-0.0842648297548294,-0.1397998034954071,0.13371002674102783,0.06907881051301956,-0.212059885263443,-0.2196173220872879,-0.15732787549495697,-0.01639285311102867,-0.15870392322540283,0.039916664361953735,0.008291813544929028,-0.18700408935546875,0.06718450039625168,0.3462586998939514,0.1742597371339798,0.08885205537080765,-0.17751505970954895,-0.3366270363330841,-0.026941653341054916,-0.004604828078299761,0.027656540274620056,-0.037088096141815186,-0.15918248891830444,0.02442234568297863,-0.34603315591812134,-0.14681465923786163,-0.11619102209806442,-0.2426210343837738,0.151921808719635,-0.19082991778850555,0.06991228461265564,0.022161271423101425,0.12159132212400436,-0.06387674808502197,0.04422128573060036,0.11073067784309387,0.0628550797700882,0.25206005573272705,-0.18494325876235962,-0.08409800380468369,0.10001254081726074,-0.18214696645736694,-0.009265828877687454,-0.3275834321975708,-0.0030742420349270105,-0.04006746783852577,-0.251943439245224,-0.11141423135995865,-0.18902702629566193,-0.25311657786369324,0.12892106175422668,0.15424403548240662,-0.059436533600091934,0.034715525805950165,-0.09517840296030045,-0.21806804835796356,-0.209807351231575,-0.1150435209274292,0.002158115152269602,-0.11513272672891617,0.09578505158424377,0.07436034828424454,0.01153334230184555,-0.03255300968885422,-0.08789528161287308,0.2098393589258194,-0.02455962263047695,-0.08316000550985336,-0.01681159995496273,0.10896887630224228,0.1615760177373886,-0.12612439692020416,0.24912633001804352,-0.06403965502977371,-0.17474575340747833,-0.12379026412963867,0.10508479923009872,0.037706706672906876,0.09409348666667938,0.13351917266845703,-0.06168244779109955,0.05021827667951584,-0.03175066038966179,0.2977350950241089,0.07904393970966339,0.11894449591636658,0.07193838059902191,0.07692364603281021,0.00743603752925992,0.11491061747074127,-0.17635351419448853,-0.07952411472797394,-0.30559423565864563,0.3172425925731659,-0.32507678866386414,0.12255976349115372,0.008861028589308262,-0.3507058024406433,-0.03867879509925842,-0.014349736273288727,-0.20431001484394073,-0.2418290227651596,-0.07709982246160507,0.16334424912929535,-0.20688496530056,0.19463130831718445,-0.0818597748875618,0.09708695113658905,-0.1666172742843628,0.12863241136074066,-0.029090752825140953,0.13367265462875366,-0.14047253131866455,0.03076322376728058,0.12604187428951263,0.08791949599981308,-0.029341254383325577,-0.29633527994155884,-0.1854625940322876,-0.1104992926120758,-0.1657237559556961,0.15046417713165283,0.15045277774333954,0.0700158029794693,-0.12795594334602356,0.17731286585330963,-0.0018070999067276716,-0.13056503236293793,-0.1291835606098175,0.1065324991941452,0.02471432089805603,-0.05251552164554596,-0.12419945746660233,-0.10231304913759232,-0.01123454887419939,-0.162583127617836,0.1319582462310791,-0.23611588776111603,0.2127992957830429,0.07883955538272858,0.10927486419677734,0.21780100464820862,0.05541915446519852,0.0671379491686821,-0.1222003921866417,0.16181731224060059,0.03091174177825451,-0.01798718050122261,0.013346480205655098,-0.1083514615893364,0.11376968026161194,-0.013486956246197224,0.2950369119644165,0.2116146832704544,-0.004550406709313393,-0.05746596306562424,0.005651350133121014,-0.1389518678188324,0.03952239081263542,0.12643712759017944,-0.08233165740966797,-0.06622689217329025,-0.046155259013175964,-0.17209142446517944,0.012171928770840168,0.1317606270313263,0.10032252967357635,0.001191745395772159,-0.2094806581735611,0.2831304371356964,0.010317490436136723,-0.23808646202087402,0.18612626194953918,-0.012004204094409943,-0.07202237844467163,-0.03457440435886383,0.19216328859329224,-0.15517784655094147,0.013437206856906414,-0.05227740481495857,-0.09405731409788132,0.06415323913097382,-0.02947421558201313,-0.029467644169926643,0.05419563502073288,-0.16288912296295166,-0.19336886703968048,0.022525031119585037,-0.11177751421928406,-0.013713546097278595,-0.10566284507513046,-0.0039968108758330345,-0.04604768753051758,0.13781452178955078,0.05070124566555023,-0.004775742534548044,0.2526184320449829,0.12151709198951721,-0.03259049728512764,-0.06280007213354111,-0.03790450841188431,-0.00246025831438601,0.021196655929088593,-0.005210046656429768,0.02738998830318451,0.021337011829018593,-0.047312457114458084,-0.2563653588294983,0.15823394060134888,0.09883570671081543,0.14128871262073517,0.028745967894792557,0.049295321106910706,0.1223369687795639,0.10270452499389648,0.06819256395101547,0.03861032426357269,0.13565701246261597,0.2775075137615204,0.15118291974067688,0.28661271929740906,-0.013983754441142082,-0.04454489424824715,-0.14951853454113007,-0.19694168865680695,0.15581762790679932,-0.014392705634236336,-0.22069069743156433,-0.03854814171791077,-0.10128451138734818,-0.016135457903146744,0.006796056404709816,-0.05263796076178551,-0.22204317152500153,-0.13849109411239624,-0.15537689626216888,-0.3747968077659607,-0.10272297263145447,-0.007783850654959679,-0.15861938893795013,0.11371771991252899,-0.028445657342672348,0.026344723999500275,0.040507201105356216,-0.048490915447473526,0.17424213886260986,-0.15824337303638458,-0.0350535623729229,-0.26835620403289795,0.07987361401319504,0.20773175358772278,-0.11958136409521103,0.07185638695955276,0.0886119157075882,0.06215692684054375,0.08366402983665466,0.09967883676290512,0.09702491760253906,0.04771333560347557,0.06395263969898224,0.05578780174255371,0.0264007356017828,-0.2857612371444702,-0.23501281440258026,-0.007864768616855145,-0.3467181324958801,0.21660766005516052,-0.30506137013435364,0.5053766369819641,-0.045583147555589676,0.13610254228115082,0.0948461964726448,0.10661154985427856,0.1889849305152893,0.05342348664999008,0.024263836443424225,-0.02776177227497101,0.08268766105175018,-0.10344350337982178,0.06406526267528534,-0.20080728828907013,0.028813567012548447,-0.015580282546579838,0.07989352196455002,0.027536317706108093,-0.05247458443045616,0.003839639015495777,0.11878081411123276,-0.0947951227426529,-0.07631907612085342,0.03904307261109352,0.1194663867354393,0.1366720050573349,-0.05867990851402283,-0.19625739753246307,-0.09989095479249954,-0.08553250133991241,-0.01801195554435253,0.06069904565811157,-0.21266096830368042,0.01665034145116806,0.17472264170646667,-0.13027290999889374,-0.256255179643631,0.09211771190166473,0.24404242634773254,0.14026737213134766,0.22606031596660614,-0.09272611886262894,0.33942171931266785,0.005036612041294575,-0.049411676824092865,-0.021405482664704323,-0.05659307911992073,-0.010258812457323074,-0.07226169854402542,0.027521463111042976,0.06730499863624573,0.14733706414699554,0.09003009647130966,-0.10204442590475082,-0.1468503177165985,-0.029824968427419662,-0.0557444803416729,-0.07182518392801285,-0.20168963074684143,-0.19488702714443207,0.3598560392856598,-0.05907421559095383,0.0955101028084755,0.33597052097320557,-0.08437646925449371,0.07169805467128754,0.03241546079516411,-0.10911022126674652,-0.06606823205947876,0.15445205569267273,-0.06805486977100372,0.04297631233930588,0.0744219720363617,0.14735813438892365,-0.3555268943309784,-0.19089165329933167,0.017742780968546867,0.02159922569990158,0.12108491361141205,0.14417453110218048,0.07746358215808868,0.3275565803050995,-0.061305999755859375,-0.19521260261535645,0.11354488879442215,-0.10972201824188232,0.008475948125123978,0.06395165622234344,-0.10443605482578278,-0.15095368027687073,-0.2864462733268738,0.022623296827077866,-0.016654008999466896,0.1275971382856369,-0.2853181064128876,0.26560479402542114,0.03516330197453499,0.14826036989688873,0.16576704382896423,-0.07684195041656494,-0.029328348115086555,-0.23546428978443146,-0.002626725472509861,0.18011456727981567,-0.2629901170730591,-0.12914341688156128,-0.014648803509771824,-0.14084069430828094,0.09380681812763214,0.06321775913238525,0.11774540692567825,-0.18680091202259064,0.1721697449684143,-0.04739042744040489,-0.015235173515975475,0.07043284922838211,-0.10821868479251862,-0.08983306586742401,0.006023159716278315,0.09869206696748734,0.07338017225265503,-0.08707564324140549,-0.05534280464053154,-0.06345009058713913,-0.006194007117301226,-0.1356961876153946,0.05947435274720192,-0.07763661444187164,-0.004384569823741913,-0.19117072224617004,0.21050865948200226,-0.21708941459655762,-0.2579176127910614,0.017034944146871567,-0.306551069021225,0.0963430181145668,-0.0921526625752449,-0.057172395288944244,-0.06944335997104645,0.1192181408405304,0.009177991189062595,0.11649404466152191,0.08598988503217697,-0.25020918250083923,0.27235281467437744,-0.07184866815805435,-0.11231450736522675,0.08391530811786652,0.1047847718000412,-0.16324561834335327,-0.09329540282487869,0.02004854567348957,0.005378569941967726,0.029576126486063004,0.047281958162784576,0.0351460725069046,0.006988691631704569,-0.00962728913873434,-0.022973714396357536,-0.004550445359200239,-0.1017313003540039,-0.05906803905963898,-0.03925750404596329,-0.15070466697216034,0.04140447452664375,-0.13350413739681244,0.2186240553855896,-0.007781041786074638,-0.23045890033245087,-0.03920329362154007,0.080283522605896,-0.044874660670757294,-0.006678754463791847,-0.29373136162757874,0.23527441918849945,-0.28762707114219666,-0.11913347989320755,-0.02304435707628727,0.08665476739406586,0.12044627219438553,-0.2105189859867096,0.1773151010274887,-0.14383083581924438,0.007667247671633959,-0.0037124797236174345,0.027063556015491486,0.04520357400178909,0.27139347791671753,0.02356754243373871,-0.061727505177259445,-0.10024961829185486,-0.19047676026821136,-0.18392108380794525,0.1117999255657196,0.042286742478609085,0.1426420658826828,-0.16504661738872528,0.04297388345003128,-0.07256536185741425,-0.05551274120807648,0.04036698117852211,0.019847052171826363,0.22003093361854553,0.11116380244493484,-0.14160694181919098,-0.035468995571136475,0.1346512883901596,0.04060109704732895,0.03944654390215874,-0.074869304895401,0.1262979656457901,-0.19465768337249756,0.05920586735010147,-0.021177444607019424,-0.13659831881523132,-0.036556266248226166,-0.05963017791509628,-0.0569298081099987,0.2612170875072479,0.22482319176197052,-0.05870119109749794,0.0864381343126297,0.022608382627367973,0.14315372705459595,-0.1561555564403534,-0.15107361972332,0.20597928762435913,-0.07250070571899414,-0.20236362516880035,-0.1424790620803833,0.029070591554045677,0.19388791918754578,0.07007306069135666,-0.1277730017900467,-0.08985356986522675,-0.11324465274810791,-0.1463111937046051,0.15748751163482666,0.03335343301296234,-0.11867743730545044,0.04707880690693855,0.008373303338885307,-0.09223863482475281,0.2031601369380951,0.03557145223021507,-0.09304022789001465,-0.09917557239532471,0.012818491086363792,-0.12352178990840912,-0.06311661005020142,-0.19138768315315247,-0.18811646103858948,0.10425626486539841,-0.006541249807924032,0.23183061182498932,0.05105629190802574,-0.15518678724765778,-0.07279954850673676,-0.16635634005069733,-0.3696111738681793,0.0831993967294693,-0.21511225402355194,0.35569486021995544,-0.09183219075202942,0.05004241690039635,0.01720413938164711,-0.23666228353977203,0.11438679695129395,-0.13353057205677032,0.11201130598783493,-0.09244722127914429,-0.13609462976455688,-0.03947046399116516,-0.1340443640947342,-0.16470612585544586,-0.010845137760043144,-0.051253776997327805,-0.11170660704374313,0.054960064589977264,0.11711528152227402,0.0033421250991523266,-0.0926256999373436,0.12513889372348785,-0.02084456756711006,-0.09673333913087845,0.018300434574484825,-0.08970582485198975,0.030794493854045868,0.2919125556945801,0.10818680375814438,-0.03411863371729851,-0.00642765685915947,-0.0952475294470787,0.03765704855322838,-0.15860126912593842,0.11617861688137054,0.026603875681757927,0.004266412928700447,-0.1195787787437439,0.02668537013232708,-0.04925180599093437,0.01765213906764984,0.10533450543880463,0.018747957423329353,0.39333659410476685,0.025120409205555916,-0.05983500927686691,-0.22610749304294586,-0.042728930711746216,0.15223738551139832,-0.07251870632171631,0.04521432891488075,0.08844148367643356,-0.07362179458141327,-0.002567860297858715,-0.00883681233972311,0.2075733244419098,-0.22325217723846436,-0.08440671861171722,0.16010825335979462,0.18294750154018402,-0.07724547386169434,0.008752577006816864,-0.0984823927283287,0.10172366350889206,-0.020055461674928665,-0.17016638815402985,0.16063711047172546,0.005848189350217581,-0.08056943118572235,0.34285134077072144,-0.025644054636359215,0.03258770331740379,-0.1197541356086731,0.08999915421009064,0.008142029866576195,0.17047664523124695,-0.23642565310001373,-0.01650480180978775,0.08208183944225311,0.06925153732299805,0.12706466019153595,-0.2664571702480316,-0.12821923196315765,0.04344360902905464,-0.30087706446647644,0.11092729866504669,-0.28691598773002625,-0.24080902338027954,-0.039407506585121155,-0.15302476286888123,-0.3550088107585907,-0.003260192461311817,-0.11109671741724014,0.07922777533531189,-0.06612332165241241,-0.11870845407247543,0.04219752550125122,0.059143032878637314,-0.2089403122663498,0.06510026007890701,-0.03117223270237446,0.116859570145607,-0.15537486970424652,0.1080453097820282,-0.04169895499944687,0.034584734588861465,-0.31351613998413086,-0.22432641685009003,0.049489423632621765,0.03700995072722435,-0.03906378149986267,-0.010957172140479088,0.18639355897903442,-0.006074878852814436,-0.11273008584976196,0.016186321154236794,0.1412585824728012,-0.014092983677983284,0.23768694698810577,0.11611498892307281,0.12751135230064392,0.20320405066013336,-0.06432665884494781,0.06309108436107635,0.10645222663879395,-0.08541851490736008,0.11255991458892822,0.18205131590366364,-0.22848449647426605,0.017485493794083595,0.056712016463279724,-0.11273418366909027,-0.07592436671257019,0.2869921028614044,-0.05916163697838783,0.1472567915916443,0.07216820120811462,-0.11553560197353363,0.10475683212280273,0.08851063996553421,-0.0653085857629776,-0.03082573600113392,0.04301365837454796,0.12329915910959244,0.2772131562232971,-0.07426077127456665,0.029574399814009666,0.01577846333384514,0.02452683076262474,0.017939405515789986,-0.05420609936118126,0.10868309438228607,-0.13293705880641937,0.0760926827788353,0.013989061117172241,0.04419770464301109,0.21140505373477936,0.04295194149017334,0.22978748381137848,0.05807175859808922,0.0073081632144749165,-0.1410880982875824,0.1946350783109665,0.04497963935136795,-0.0428219810128212,0.01935604400932789,0.04134421795606613,-0.025355596095323563,-0.0377400666475296,-0.22313952445983887,-0.16430597007274628,0.0121864452958107,-0.06384211778640747,0.04465501755475998,0.08595864474773407,0.18408511579036713,0.12354981154203415,-0.098845936357975,0.06563275307416916,0.20493577420711517,0.0205587949603796,-0.008758964017033577,0.02822003699839115,-0.1864384412765503,0.07521408051252365,-0.4550820291042328,0.23471394181251526,0.014157976023852825,0.005340179428458214,-0.11023493111133575,-0.16561353206634521,0.03443610295653343,-0.12229037284851074,-0.0886237621307373,-0.17148664593696594,-0.012264516204595566,-0.012644494883716106,0.05317656323313713,-0.11082964390516281,-0.059304241091012955,-0.014518894255161285,-0.04513873904943466,-0.2610635459423065,-0.12607769668102264,0.08368508517742157,0.11687548458576202,-0.19803820550441742,-0.07107679545879364,-0.02103976532816887,0.05729910731315613,0.27550724148750305,-0.07549452781677246,0.043065521866083145,-0.06018933653831482,-0.06506336480379105,-0.04881259426474571,-0.11733145266771317,-0.00683569023385644,0.01474893931299448,0.12130990624427795,0.10071850568056107,-0.16784067451953888,-0.12492337822914124,0.0020001281518489122,-0.13290278613567352,0.18394148349761963,-0.143940269947052,-0.06591890007257462,-0.010758874006569386,-0.28203219175338745,0.11950807273387909,-0.12463899701833725,-0.0284358449280262,0.0657033771276474,-0.15163932740688324,0.08182785660028458,0.023564085364341736,0.1838255673646927,0.08404277265071869,-0.044422052800655365,-0.053325749933719635,0.03990235924720764,-0.10840421169996262,0.02658771350979805,-0.2381461262702942,0.16056908667087555,0.28918394446372986,-0.09133224934339523,-0.12068934738636017,-0.042242951691150665,-0.011843725107610226,0.06967353075742722,0.13398025929927826,0.2519737184047699,-0.07266970723867416,0.15559007227420807,-0.016035396605730057,-0.07262827455997467,-0.10429000109434128,0.06685853004455566,-0.11661356687545776,0.030772002413868904,-0.03376399353146553,-0.3615891635417938,0.0634850487112999,-0.1760246455669403,-0.22936174273490906,-0.032299429178237915,0.10536456853151321,-0.0490824356675148,-0.06029592081904411,-0.0507822148501873,0.16354568302631378,-0.06773529946804047,-0.0692024901509285,0.07447807490825653,0.07216863334178925,0.04957836493849754,0.1338268220424652,-0.14610005915164948,0.026583177968859673,-0.09759017825126648,0.02568301372230053,0.26849332451820374,-0.08230799436569214,0.15832479298114777,0.07204356044530869,-0.10106813907623291,0.05451487749814987,-0.00034733430948108435,0.0409836620092392,-0.16987261176109314,0.2141353338956833,0.04871800169348717,0.04071776568889618,0.13097986578941345,-0.05846001207828522,0.008197451941668987,-0.20931144058704376,0.04757557809352875,0.004305961076170206,0.0022581007797271013,0.00008417651406489313,-0.09448126703500748,-0.07184016704559326,-0.025023426860570908,-0.1327633261680603,-0.20947201550006866,0.042294733226299286,0.06537890434265137,0.14827460050582886,-0.05503330007195473,-0.028465623036026955,-0.1642225831747055,-0.051985226571559906,-0.019292142242193222,0.04404132440686226,-0.12530572712421417,-0.05414128303527832,-0.055904570966959,0.07881632447242737,-0.21482254564762115,-0.15564604103565216,-0.22388200461864471,-0.4164578318595886,0.23122994601726532,0.005782033782452345,-0.039530061185359955,0.002834373153746128,0.16859111189842224,-0.2536535859107971,-0.045111753046512604,0.1854413002729416,-0.2935965657234192,0.04069751873612404,-0.3125706613063812,-0.07520788162946701,-0.08784744143486023,0.13429132103919983,-0.08705320209264755,-0.08384291082620621,0.078915536403656,-0.023357076570391655,0.13100233674049377,0.26643574237823486,0.21012219786643982,-0.35356277227401733,-0.004344185348600149,-0.11449205130338669,-0.11134187877178192,0.08868572115898132,-0.018191112205386162,0.21635966002941132,-0.09790316224098206,0.18107382953166962,0.14015482366085052,0.07761654257774353,0.10116489231586456,0.039093878120183945,-0.02484983205795288,0.2514972686767578,-0.1347825825214386,-0.05891741067171097,0.2232821136713028,0.0016092705773189664,-0.0424329899251461,-0.028990192338824272,0.13740645349025726,-0.18180815875530243,-0.17322418093681335,-0.09180332720279694,0.06869985163211823,0.035092175006866455,-0.09297959506511688,0.14798496663570404,0.06390368193387985,0.09780421108007431,-0.26257142424583435,0.28995588421821594,-0.15836280584335327,-0.3687944710254669,0.15812598168849945,0.13200464844703674,-0.14123094081878662,-0.19703464210033417,0.04556553438305855,-0.07390765845775604,0.08077149093151093,-0.09919450432062149,-0.12411627173423767,-0.0022800914011895657,-0.16582386195659637,0.12808619439601898,0.25951921939849854,0.04596734046936035,-0.11136063188314438,-0.08122501522302628,-0.3283769488334656,0.10030113905668259,-0.3341121971607208,0.09976541250944138,0.022931799292564392,0.04697345942258835,0.10321946442127228,-0.06195482984185219,0.2109527587890625,-0.056434597820043564,-0.026931049302220345,-0.007752133067697287,-0.13659250736236572,0.07405521720647812,-0.10121060907840729,0.15749463438987732,-0.16666702926158905,0.04446515440940857,0.12070001661777496,0.057825881987810135,0.05584656819701195,0.197133406996727,-0.04129939153790474,0.13945919275283813,0.09638064354658127,0.08951058983802795,-0.05204952880740166,-0.15025366842746735,0.0639328807592392,0.11079671233892441,-0.19848312437534332,-0.038183264434337616,0.027127664536237717,0.17047755420207977,0.18505577743053436,0.20469306409358978,-0.06441603600978851,0.0292293019592762,-0.060571104288101196,0.012409471906721592,0.11689841747283936,-0.39058196544647217,0.03374646604061127,-0.0567198172211647,0.08778280764818192,-0.20498043298721313,0.04788709059357643,-0.2091195434331894,0.10237115621566772,0.21735967695713043,-0.1468675285577774,0.1900034248828888,-0.0474943071603775,0.23543120920658112,-0.15048550069332123,0.02109707146883011,-0.29530876874923706,0.011117098852992058,-0.2003602236509323,-0.0459495447576046,-0.023749368265271187,0.1911330372095108,-0.012769379653036594,0.16521762311458588,0.0031305886805057526,-0.11369004100561142,-0.14655610918998718,0.1288524717092514,0.28406012058258057,-0.08003153651952744,0.09095785766839981,0.008959326893091202,0.23972022533416748,-0.2504924237728119,-0.08525590598583221,0.04317218065261841,0.08031313121318817,0.19810302555561066,-0.16656868159770966,0.14015507698059082,0.10364021360874176,-0.07944422960281372,0.12663938105106354,-0.0542990043759346,-0.06435389816761017,-0.022560248151421547,-0.15312518179416656,-0.15050116181373596,0.1301695704460144,0.10462094843387604,0.01664123684167862,-0.019049914553761482,0.2965947687625885,-0.32070228457450867,-0.13536740839481354,-0.10867492854595184,-0.017756830900907516,0.09723062813282013,-0.05589215084910393,-0.021836381405591965,-0.028160281479358673,-0.060559265315532684,-0.10597831755876541,0.08514371514320374,0.0036344765685498714,0.15178263187408447,-0.04758305102586746,-0.11603357642889023,-0.24249503016471863,-0.11891493201255798,0.04752541333436966,0.29597780108451843,0.06480878591537476,0.11169750243425369,-0.07673844695091248,-0.00775415962561965,0.16790978610515594,0.1899748146533966,0.05829045549035072,-0.13377614319324493,-0.2490103393793106,0.05447953939437866,-0.040114521980285645,-0.20513375103473663,0.08267850428819656,-0.2001413106918335,-0.09175887703895569,0.10764320939779282,-0.12363406270742416,-0.07936355471611023,0.0056699649430811405,-0.03946496173739433,-0.10858375579118729,0.002502026502043009,0.07886242866516113,-0.1031835526227951,0.15603050589561462,0.20043233036994934,-0.11317075788974762,-0.11750804632902145,-0.007083148695528507,0.038465142250061035,0.19756263494491577,0.17958344519138336,0.1306639462709427,-0.09856518357992172,-0.0779188871383667,-0.005672514904290438,0.08807370811700821,0.07066240906715393,0.2482689619064331,0.06208539381623268,-0.09433016180992126,-0.20084424316883087,0.08236104249954224,0.12858958542346954,-0.09992076456546783,0.17313626408576965,-0.002435659058392048,-0.04323820397257805,-0.11717051267623901,0.20736470818519592,0.04188109561800957,-0.14860542118549347,-0.0798044204711914,-0.12514549493789673,0.12854035198688507,-0.2591556906700134,-0.15249015390872955,0.14832302927970886,0.15127448737621307,0.22325487434864044,-0.07977768033742905,0.09140820056200027,0.09814798831939697,0.10848822444677353,0.018965501338243484,0.0009587628301233053,-0.12169055640697479,-0.096923828125,0.01162059884518385,0.012401444837450981,0.18189042806625366,0.02832159772515297,-0.09876707941293716,-0.09261012822389603,-0.12194546312093735,-0.08185432106256485,-0.16052764654159546,-0.20460732281208038,0.027688229456543922,-0.19933627545833588,-0.16126824915409088,-0.0007867064559832215,-0.1325925588607788,0.05363697186112404,-0.16756480932235718,-0.1974172443151474,0.10827260464429855,0.11699208617210388,-0.15938666462898254,0.011436864733695984,0.03501470386981964,-0.08468662202358246,0.013677876442670822,-0.026674693450331688,0.02730461396276951,-0.09675855934619904,-0.18545357882976532,-0.07355821877717972,-0.038456909358501434,0.16651348769664764,-0.18348637223243713,0.05414436757564545,-0.13764764368534088,-0.02458306960761547,-0.13695672154426575,-0.13212645053863525,-0.13092386722564697,-0.2704162001609802,0.02109561674296856,0.17310433089733124,-0.1955343782901764,0.03714520111680031,-0.21798568964004517,0.09716738760471344,-0.23140627145767212,-0.06881046295166016,-0.04159277305006981,0.06730089336633682,-0.015340081416070461,-0.2711509168148041,0.021760158240795135,0.07788726687431335,-0.09194678068161011,-0.11945120990276337,0.19701585173606873,-0.18119022250175476,-0.21255584061145782,0.04394124820828438,-0.2859073281288147,0.1921462118625641,-0.055912066251039505,0.2829916775226593,-0.1828652024269104,-0.10910889506340027,0.11293034255504608,-0.0216878242790699,0.08916535973548889,0.1701708436012268,-0.1685606688261032,-0.1436404585838318,0.008166534826159477,-0.04604703560471535,0.2838793098926544,-0.019428255036473274,-0.014184186235070229,-0.2140238881111145,-0.04353264346718788,0.14164958894252777,-0.09575708210468292,-0.015352079644799232,-0.16771072149276733,0.09276709705591202,0.10725811868906021,0.09257776290178299,-0.05168544501066208,-0.06088773533701897,-0.008270771242678165,0.03262511268258095,0.36524462699890137,0.1559065580368042,0.15218062698841095,0.07566779851913452,-0.12457632273435593,-0.26097750663757324,0.08758259564638138,0.131891131401062,-0.061096131801605225,-0.292743980884552,0.044875286519527435,-0.021708158776164055,0.09990905970335007,0.01266053318977356,-0.21727235615253448,0.04361598566174507,0.12112674862146378,-0.06205206364393234,0.05668241158127785,-0.14944127202033997,-0.3076857328414917,-0.2771124243736267,0.02216220833361149,0.10938505083322525,-0.001792832976207137,0.4537709057331085,-0.0251021608710289,0.0036482904106378555,0.1287182718515396,-0.02806811034679413,0.19181734323501587,-0.06423957645893097,-0.008980441838502884,-0.012147704139351845,-0.13860981166362762,0.04119492322206497,-0.044655535370111465,0.10191235691308975,-0.04797055572271347,-0.1816001832485199,-0.03669003024697304,-0.034403130412101746,-0.17280584573745728,-0.14635147154331207,-0.4727564752101898,0.0008474130881950259,-0.07898487150669098,-0.04572790861129761,0.3183634877204895,0.06207243353128433,-0.022603118792176247,0.12440069019794464,0.085261270403862,-0.11828338354825974,-0.021030044183135033,-0.06527248024940491,-0.004656414967030287,0.040826790034770966,-0.3027380108833313,-0.15644708275794983,-0.07874861359596252,-0.11531111598014832,0.18944711983203888,-0.14898335933685303,0.03891059756278992,0.21029576659202576,-0.0174017995595932,-0.06937149167060852,-0.057390980422496796,-0.05610235035419464,0.10221023857593536,-0.11177574843168259,-0.10535051673650742,-0.20016701519489288,0.01572384312748909,0.04665357246994972,0.033907048404216766,0.20089079439640045,0.06158216670155525,-0.04056729003787041,0.20286709070205688,0.025218792259693146,0.11397694051265717,0.012687932699918747,0.3120537996292114,-0.12372387200593948,-0.18897594511508942,-0.027651164680719376,-0.11868331581354141,0.13328960537910461,0.11657561361789703,-0.18861916661262512,0.13359495997428894,0.08364641666412354,-0.09569072723388672,0.03709512948989868,-0.08057381957769394,0.20289787650108337,0.1370464414358139,0.038751304149627686,0.009922726079821587,0.11366408318281174,-0.03746865689754486,-0.08733800053596497,-0.06254278123378754,0.04749955236911774,0.11986002326011658,0.025732465088367462,-0.03262653201818466,-0.10901260375976562,0.021407796069979668,-0.31830862164497375,0.14918023347854614,0.005890600383281708,-0.1714417040348053,0.015437732450664043,0.03942025825381279,0.021030206233263016,0.08683984726667404,0.04039653763175011,-0.11190375685691833,-0.0606437623500824,0.33186981081962585,-0.04945800080895424,0.058073490858078,0.21734894812107086,0.02106303535401821,-0.012676003389060497,0.06026338413357735,0.08899519592523575,-0.170114204287529,-0.14978881180286407,-0.038731809705495834,0.2694406807422638,-0.24397824704647064,-0.05315506085753441,-0.17518799006938934,-0.14992281794548035,-0.05732007324695587,-0.06345683336257935,-0.023846345022320747,0.11828941106796265,-0.10089942067861557,0.34025856852531433,-0.20958371460437775,-0.02234189212322235,-0.08166415989398956,0.2558950185775757,-0.22092491388320923,-0.07571510225534439,-0.15920394659042358,-0.10070911049842834,0.10584405064582825,-0.08637506514787674,-0.0017785897944122553,-0.21618017554283142,0.047058623284101486,-0.13621710240840912,-0.20514580607414246,-0.127607062458992,-0.005507438909262419,-0.13371247053146362,-0.18620483577251434,-0.14554095268249512,0.06635919213294983,0.07970656454563141,0.06333335489034653,0.12183606624603271,0.07267038524150848,0.11548817902803421,-0.024033306166529655,0.1414671391248703,-0.0023378985933959484,-0.025025999173521996,0.00876427348703146,-0.09410770237445831,0.007128390483558178,0.01828891970217228,-0.24449971318244934,-0.07633230835199356,-0.17638805508613586,0.3044787347316742,0.05977290868759155,0.00441731745377183,0.042542871087789536,0.04190056398510933,0.4097190499305725,-0.024623814970254898,0.14370891451835632,-0.021562380716204643,0.04037736356258392,0.06643134355545044,0.13845381140708923,0.1310219168663025,0.04970010742545128,0.07299067825078964,-0.020639466121792793,-0.1226186528801918,0.16351090371608734,-0.07376369833946228,-0.08066195994615555,-0.054339468479156494,0.2922227084636688,-0.18265262246131897,-0.24024401605129242,-0.036070816218853,-0.020828718319535255,0.003899794537574053,0.011463334783911705,0.016464848071336746,-0.02767173759639263,0.01630452834069729,-0.02866045944392681,0.12789642810821533,0.1305786520242691,-0.01976805552840233,-0.20516325533390045,0.17332349717617035,0.15145359933376312,0.09919587522745132,-0.16567391157150269,-0.029118172824382782,-0.00208193133585155,-0.017312608659267426,-0.07389038056135178,0.029788050800561905,0.09906031936407089,-0.12279295176267624,-0.07581568509340286,0.0637647807598114,0.21323472261428833,0.017986878752708435,0.16774578392505646,0.02306464873254299,-0.24002623558044434,-0.06675567477941513,-0.0429438091814518,0.20323960483074188,-0.014883936382830143,-0.08368060737848282,0.0452045202255249,-0.1140260398387909,0.16471640765666962,0.1246459037065506,0.2172766923904419,0.24488775432109833,-0.1398286372423172,-0.09684807807207108,-0.1336626559495926,0.17165620625019073,-0.29333868622779846,-0.20487774908542633,-0.018219726160168648,-0.08533395826816559,-0.06884723901748657,-0.04430002346634865,0.1292332112789154,-0.03352481871843338,0.22865402698516846,0.02106119878590107,0.06420440226793289,0.052472177892923355,-0.009072390384972095,0.1372615247964859,0.2119259536266327,0.12835833430290222,-0.10844458639621735,-0.15237213671207428,-0.1537782847881317,-0.07100306451320648,0.2530544102191925,-0.06047286093235016,-0.20243285596370697,-0.10421298444271088,-0.05287391319870949,-0.2029465287923813,0.05437573045492172,-0.024454597383737564,-0.005220895167440176,-0.06427127867937088,-0.22890037298202515,-0.28720250725746155,0.15382730960845947,-0.16870734095573425,0.14791332185268402,0.25103870034217834,0.060876134783029556,0.003573048859834671,0.02005622163414955,0.018014997243881226,0.1112070307135582,0.10016568005084991,0.10063053667545319,-0.18794821202754974,0.24363335967063904,-0.0758776068687439,0.21765761077404022,-0.13881288468837738,-0.03188677132129669,0.07442576438188553,0.17349408566951752,-0.11583074927330017,-0.23993660509586334,0.231476292014122,-0.21103288233280182,-0.11234021931886673,-0.06011490151286125,0.12942056357860565,0.1737818568944931,0.3018220365047455,-0.293766587972641,-0.03462512046098709,-0.021952319890260696,-0.06345557421445847,-0.01824047602713108,-0.030531393364071846,-0.2253856658935547,0.1282922625541687,-0.007775564678013325,-0.22791928052902222,0.047715045511722565,0.03701617568731308,0.1060531735420227,-0.0049874382093548775,-0.1590738296508789,-0.024576546624302864,0.30033349990844727,-0.1114269271492958,-0.15681934356689453,0.17223143577575684,0.03864101320505142,0.12276538461446762,-0.002302563050761819,0.07399368286132812,-0.15975727140903473,0.21267347037792206,0.03899102285504341,0.0370618961751461,-0.13589374721050262,-0.09654329717159271,0.01634223572909832,0.13276460766792297,-0.025901611894369125,-0.07437042891979218,-0.08656492084264755,-0.10704504698514938,-0.04838468134403229,0.16876769065856934,-0.13817837834358215,0.16693060100078583,-0.07911187410354614,-0.0892815887928009,-0.1976049244403839,0.28801029920578003,-0.020768148824572563,-0.03712506964802742,-0.14202673733234406,-0.13297659158706665,-0.13295204937458038,0.035803716629743576,-0.11786564439535141,-0.12472449988126755,-0.20349213480949402,0.019137876108288765,-0.11008448898792267,0.1693434864282608,-0.18357014656066895,0.16900713741779327,0.14418578147888184,0.013447441160678864,-0.10384335368871689,0.016109703108668327,-0.057968877255916595,0.10816040635108948,0.03985990956425667,-0.04483843222260475,-0.013268074952065945,-0.1123853325843811,0.007921203039586544,-0.17948801815509796,-0.016389401629567146,-0.33845117688179016,0.03767243027687073,0.09753409773111343,0.2602764368057251,-0.07863904535770416,-0.3121911287307739,0.1510269045829773,0.01272914931178093,0.0736091136932373,0.011567311361432076,0.05492457374930382,-0.11563503742218018,-0.03751605376601219,0.13507308065891266,0.29378852248191833,0.07873542606830597,-0.030557291582226753,0.12130175530910492,0.1562713384628296,0.14723238348960876,-0.046008914709091187,-0.02526816725730896,-0.13099123537540436,-0.3535948097705841,-0.4552750885486603,0.002747995313256979,-0.06915044784545898,-0.19227513670921326,-0.03036373108625412,0.0764714702963829,-0.18942448496818542,-0.0075714136473834515,0.21816833317279816,-0.19191519916057587,-0.22449912130832672,0.060570161789655685,0.08782900124788284,0.028015250340104103,-0.14931868016719818,-0.1725957840681076,-0.18433666229248047,-0.08917112648487091,-0.0676003098487854,-0.14243952929973602,-0.11522843688726425,0.008491946384310722,0.04166673123836517,0.21270598471164703,-0.20013390481472015,0.012952222488820553,0.1481894850730896,-0.1716928780078888,-0.09786756336688995,-0.2744028866291046,0.14071710407733917,-0.05865863710641861,-0.10703853517770767,0.07221370190382004,-0.06174362450838089,-0.006095909979194403,-0.2785674035549164,0.007879297249019146,0.028812842443585396,0.10127522051334381,-0.20974101126194,-0.06399831175804138,0.03588974103331566,0.05102459341287613,0.03244682773947716,0.060266681015491486,0.18657952547073364,0.2453397512435913,-0.21687239408493042,-0.23334720730781555,0.11554484069347382,0.05320008099079132,-0.009802143089473248,-0.09611627459526062,0.3110344707965851,-0.15295344591140747,0.19348329305648804,-0.11063241958618164,0.2478332370519638,-0.30002307891845703,0.013045642524957657,-0.1610802263021469,-0.14750562608242035,0.10580647736787796,0.034276142716407776,0.13526524603366852,0.21639618277549744,-0.08776727318763733,0.11596350371837616,0.11413560062646866,-0.17203883826732635,0.08236841857433319,0.1676492542028427,0.22625738382339478,0.2637747526168823,-0.015971345826983452,-0.2565860152244568,-0.3026011288166046,0.07590983808040619,0.03956480696797371,0.04885252192616463,0.03165026009082794,-0.10208483785390854,0.04325851425528526,-0.03841390088200569,0.24767616391181946,0.07966133207082748,0.06675197929143906,-0.039336469024419785,0.06716656684875488,-0.05529285967350006,0.029676640406250954,0.008933109231293201,0.0915507897734642,0.03549148142337799,0.14348843693733215,0.13459379971027374,-0.019814109429717064,0.0233538169413805,-0.2316802442073822,-0.02822411246597767,-0.09213238954544067,-0.009520836174488068,-0.11350172758102417,-0.04461057111620903,0.10043498873710632,-0.11949428915977478,-0.0835050567984581,-0.035843536257743835,0.014142903499305248,-0.014382265508174896,0.10615084320306778,0.06894015520811081,-0.01983150653541088,0.21554453670978546,-0.14796435832977295,0.154863640666008,-0.18565058708190918,0.09835781902074814,-0.05312695726752281,-0.01032534521073103,-0.15403203666210175,0.05911017954349518,0.057337988168001175,0.013797865249216557,0.1537422090768814,-0.23818041384220123,0.04564755782485008,-0.2805735170841217,0.2930196523666382,0.1166425347328186,-0.008716246113181114,-0.06711673736572266,-0.05595126748085022,-0.18507888913154602,-0.09350660443305969,0.1694060117006302,-0.17370852828025818,0.1242571696639061,-0.017643729224801064,-0.07759784907102585,0.039764583110809326,-0.07355213910341263,-0.028674069792032242,-0.13537952303886414,0.08574061840772629,0.28694212436676025,0.20076531171798706,0.1680600941181183,-0.2129477858543396,-0.016776828095316887,-0.11478032916784286,0.025293178856372833,-0.057133372873067856,0.12714743614196777,0.14296145737171173,-0.06556592881679535,-0.07156972587108612,-0.14170604944229126,-0.09650980681180954,0.11738255620002747,0.2154565006494522,0.007684285752475262,-0.07269264757633209,-0.20515373349189758,-0.1962592750787735,0.02267356403172016,0.08833246678113937,-0.21592579782009125,-0.11611008644104004,-0.35723739862442017,0.05702386051416397,-0.05946049839258194,-0.1021859347820282,-0.13783003389835358,-0.08071495592594147,-0.08161912858486176,0.15584036707878113,-0.0876270979642868,-0.06550932675600052,0.02052242122590542,-0.07887673377990723,-0.26876863837242126,0.20427103340625763,-0.04846426099538803,-0.014098359271883965,0.11850851029157639,-0.08975228667259216,-0.1033848449587822,-0.1325412541627884,0.1189795732498169,-0.0782695859670639,-0.016945701092481613,-0.014598463661968708,0.016833078116178513,0.16393721103668213,-0.190448597073555,-0.04104650393128395,-0.12899620831012726,-0.0006265799747779965,-0.05047603324055672,0.16179126501083374,0.06118535250425339,-0.06800809502601624,-0.11059079319238663,0.28220412135124207,-0.19579051434993744,-0.06660296767950058,0.30147185921669006,0.23212695121765137,-0.32835569977760315,-0.09951762109994888,0.1722741574048996,0.06642947345972061,0.02079496905207634,0.2879393994808197,-0.080004021525383,0.28817451000213623,-0.012098729610443115,-0.1190912276506424,-0.19570985436439514,-0.029478713870048523,0.04848189279437065,-0.06302063167095184,-0.42664822936058044,-0.02010640874505043,-0.042340606451034546,0.07935692369937897,0.09022647887468338,0.07892226427793503,-0.09587210416793823,0.14292606711387634,-0.08162589371204376,0.24408689141273499,-0.03869940713047981,0.031007561832666397,-0.04892429709434509,0.1833951473236084,-0.02300453744828701,-0.032348569482564926,0.06376497447490692,-0.06440086662769318,-0.35638970136642456,-0.3109287917613983,-0.05624910816550255,0.14566227793693542,0.18281474709510803,0.05094976723194122,-0.03592896834015846,0.07392363250255585,0.2495405226945877,0.2759888172149658,-0.03812851011753082,-0.05302421748638153,0.10191772878170013,-0.3428689241409302,-0.012606804259121418,-0.14538611471652985,-0.19092455506324768,0.24069540202617645,0.11978722363710403,-0.056219857186079025,0.08926332741975784,0.021071936935186386,0.03111364133656025,-0.0007929629064165056,0.1828758716583252,0.08096783608198166,0.07485497742891312,0.07025697082281113,0.09987647831439972,-0.0547134093940258,-0.0610029511153698,0.08027629554271698,0.0106682563200593,-0.1672135442495346,-0.17683693766593933,0.2508900761604309,-0.17070278525352478,0.09531190991401672,0.10955926775932312,0.06577681005001068,0.08816655725240707,0.08305683732032776,-0.48662298917770386,-0.2675466537475586,-0.16637679934501648,-0.012524748221039772,-0.24538102746009827,0.028510911390185356,-0.10740617662668228,0.0236353799700737,-0.12435346841812134,0.07801298797130585,0.19219742715358734,-0.16293965280056,-0.17875075340270996,0.10355012118816376,0.2509249448776245,-0.05825077369809151,0.20468977093696594,-0.10835536569356918,-0.007988916710019112,-0.1763097494840622,-0.12441613525152206,-0.11024858802556992,0.02448047325015068,-0.016399582847952843,-0.1602524220943451,0.21061962842941284,-0.4517827033996582,-0.008292486891150475,0.0000732883345335722,0.12744586169719696,0.13787075877189636,0.15376301109790802,0.07211536914110184,0.021905792877078056,-0.2161814123392105,0.0003362413845025003,0.07130873203277588,-0.08915441483259201,-0.16405156254768372,-0.3664427399635315,-0.05031900107860565,-0.09295995533466339,-0.21833299100399017,-0.21340124309062958,-0.024899952113628387,-0.0326295904815197,-0.11551322042942047,0.07099862396717072,-0.22822166979312897,0.007665238808840513,0.13385148346424103,-0.0933692529797554,0.03648793324828148,-0.07859406620264053,0.19913674890995026,0.09119915962219238,0.06673004478216171,0.10064826160669327,0.027385856956243515,-0.18315620720386505,-0.03388009965419769,-0.047114297747612,-0.010075547732412815,-0.026645878329873085,0.11335163563489914,0.01948934979736805,0.07154286652803421,0.04046214744448662,-0.043402299284935,-0.1130976602435112,0.07538416981697083,-0.021397415548563004,0.08649308234453201,-0.22417986392974854,-0.06198400631546974,0.025015028193593025,0.05251893028616905,-0.14646898210048676,-0.027822451665997505,0.06439409404993057,0.22524066269397736,0.03772854059934616,-0.09157022088766098,-0.07398540526628494,-0.07989268004894257,-0.10208963602781296,0.08471253514289856,-0.014026086777448654,-0.014425504021346569,0.09659696370363235,-0.046256761997938156,-0.1781219094991684,0.2775975465774536,-0.0023051926400512457,0.08707387000322342,-0.22374999523162842,0.053542088717222214,-0.08740003407001495,0.10909589380025864,0.2097364366054535,0.1642303168773651,0.0843704491853714,-0.03711985424160957,-0.057668425142765045,-0.11808133125305176,-0.03480597957968712,-0.09762504696846008,0.05386606603860855,-0.09976058453321457,-0.17022795975208282,-0.1394486278295517,-0.06982184201478958,-0.09219878166913986,0.0013960989890620112,-0.019203484058380127,0.14875096082687378,0.025069616734981537,0.053646426647901535,-0.3906678855419159,-0.05457523837685585,-0.17884105443954468,-0.11191397905349731,0.10175023227930069,-0.05211257562041283,0.054283734411001205,0.2901184558868408,0.028632061555981636,-0.1902133822441101,-0.12577614188194275,0.15365678071975708,0.056587476283311844,0.044341638684272766,-0.2117447704076767,-0.03535156697034836,-0.2584835886955261,-0.0701543465256691,-0.08324317634105682,0.019143223762512207,0.2042844295501709,-0.08671708405017853,-0.09115029871463776,0.3413834869861603,-0.06048104539513588,-0.2225772887468338,0.16266308724880219,-0.021304961293935776,-0.006241124588996172,-0.07690934091806412,-0.04273015633225441,-0.022539939731359482,-0.09475129097700119,0.010994132608175278,-0.03437494486570358,0.12226810306310654,-0.34301358461380005,-0.06989575177431107,-0.1536089926958084,0.024557169526815414,-0.18634195625782013,-0.026188524439930916,-0.0616321861743927,-0.08197331428527832,-0.013651490211486816,-0.08404500037431717,0.18986186385154724,-0.1912459135055542,0.005295105278491974,0.08230890333652496,-0.04067744314670563,0.1862381547689438,0.03964320570230484,0.18670055270195007,0.33878377079963684,-0.44771242141723633,-0.013604298233985901,0.2521606683731079,-0.12572763860225677,0.018403705209493637,