{"runId":59,"createdAt":"2026-07-19T18:57:40.638Z","modelFamily":"mlp_v2","hiddenLayers":[32,128],"inputSize":826,"outputSize":59,"outputNumbers":[1,2,3,4,5,6,7,8,9,10,11,12,13,14,15,16,17,18,19,20,21,22,23,24,25,26,27,28,29,30,31,32,33,34,35,36,37,38,39,40,41,42,43,44,45,46,47,48,49,50,51,52,53,54,55,56,57,58,59],"weights":[{"name":"dense_Dense9701/kernel","shape":[826,32],"values":[0.026255089789628983,0.009076319634914398,0.05505846068263054,-0.054339390248060226,0.01296315062791109,0.07565572112798691,-0.08056941628456116,0.0170341394841671,0.04662651568651199,-0.03393550217151642,-0.01627633161842823,-0.021983282640576363,-0.04342912137508392,-0.02582508511841297,0.05277590826153755,-0.07420609891414642,-0.041993048042058945,0.05282142385840416,0.019359979778528214,0.012167362496256828,-0.023888470605015755,-0.06936538219451904,-0.0024085368495434523,0.017692819237709045,-0.005576533265411854,0.030478982254862785,0.02966124564409256,0.06832947582006454,0.06552726030349731,0.030952109023928642,-0.017131276428699493,-0.052060358226299286,0.04117428883910179,-0.02855544537305832,0.07123138755559921,0.032142363488674164,0.0361909344792366,-0.060429807752370834,0.016991158947348595,-0.021176336333155632,0.07740265130996704,0.03321259096264839,0.05701214447617531,-0.05107990652322769,0.05957306921482086,0.07095550000667572,-0.008480533957481384,0.029342668130993843,0.06279677152633667,-0.03398028016090393,0.06292735785245895,-0.04087528586387634,0.05688004195690155,-0.043455082923173904,0.011930344626307487,-0.05238728225231171,-0.015592840500175953,0.0015437643742188811,0.06406311690807343,0.0639476627111435,0.044108644127845764,0.08315858989953995,-0.03401702642440796,0.010895506478846073,-0.06978920847177505,-0.07045523822307587,0.04373016208410263,0.057299401611089706,-0.04402116686105728,0.03154541552066803,0.015397817827761173,0.03175176680088043,-0.052890386432409286,0.008336503989994526,-0.012045085430145264,-0.078048475086689,-0.03550538420677185,0.017232391983270645,-0.01734205335378647,0.05734334886074066,0.06522585451602936,-0.07085266709327698,-0.025279872119426727,0.07274837046861649,-0.042610086500644684,0.023184888064861298,-0.06794781982898712,0.009451265446841717,-0.018936971202492714,-0.061496514827013016,0.006969600450247526,-0.06427930295467377,-0.012905985116958618,-0.03486187383532524,0.03640935570001602,-0.022819891571998596,-0.06944011896848679,0.029028085991740227,0.01831505447626114,0.07495668530464172,-0.0356910414993763,-0.00481391791254282,0.011737174354493618,-0.06277599185705185,-0.047503549605607986,0.017830880358815193,0.02419920638203621,-0.04465535655617714,-0.05774884298443794,-0.040220487862825394,-0.054488781839609146,0.03135572746396065,0.0181692186743021,-0.06514659523963928,0.06553421914577484,-0.0827249139547348,-0.019330423325300217,-0.028954466804862022,-0.02799767255783081,0.010266583412885666,-0.053041860461235046,0.028919894248247147,0.05773921310901642,-0.0857727900147438,0.04087314009666443,-0.05920775607228279,-0.04160577803850174,-0.03909748047590256,-0.08756426721811295,0.035951338708400726,0.04686346650123596,-0.03158601373434067,-0.013657202012836933,-0.07729850709438324,0.06150764599442482,0.007826530374586582,-0.02848830819129944,0.024106960743665695,0.05546508729457855,0.07725977897644043,-0.024869665503501892,0.04759069159626961,0.07847218215465546,0.03527478873729706,-0.0426342748105526,0.016827065497636795,-0.031185923144221306,0.020914524793624878,-0.059713512659072876,-0.016875773668289185,0.044555649161338806,0.0463668592274189,0.043139904737472534,0.04004909098148346,0.032628901302814484,-0.016660235822200775,0.06556706130504608,-0.02720651775598526,-0.030076097697019577,0.029807763174176216,0.058344654738903046,-0.02685481868684292,-0.06479854136705399,0.04610011354088783,0.07906871289014816,0.021680660545825958,0.03973234444856644,0.015139526687562466,-0.05428008735179901,0.07043866813182831,0.058298833668231964,-0.02009391039609909,0.001213636714965105,-0.0330648235976696,0.048043396323919296,-0.02706850692629814,-0.0638778805732727,-0.03311927616596222,-0.07072184234857559,-0.007981913164258003,-0.07902111113071442,-0.046752188354730606,-0.08615090698003769,0.03007565811276436,-0.0598563589155674,0.06928529590368271,-0.08134555071592331,-0.07748272269964218,-0.038837600499391556,-0.05694453418254852,0.019371749833226204,-0.06587888300418854,0.07615135610103607,0.04067531228065491,-0.024699173867702484,0.0721128061413765,-0.07388830929994583,-0.011963202618062496,-0.00517653301358223,-0.047175634652376175,-0.06265303492546082,0.01293596439063549,-0.005952699575573206,0.07571900635957718,0.02429230511188507,0.0017716499278321862,0.03431002423167229,0.06449563801288605,-0.01890840381383896,-0.04489801451563835,-0.04582444205880165,0.005635148845613003,0.0037531598936766386,0.05900127440690994,-0.035682786256074905,-0.03303059935569763,0.05901016294956207,0.035660240799188614,-0.07579852640628815,-0.048599157482385635,-0.0014502978883683681,0.06652069836854935,-0.021696463227272034,0.02580728568136692,-0.07408299297094345,0.05522925406694412,-0.030861349776387215,0.03807957470417023,0.04331205040216446,0.06088704615831375,-0.05797052010893822,-0.019777808338403702,0.0035247181076556444,0.04732358455657959,-0.04019864276051521,0.06852342188358307,0.07151162624359131,-0.031918153166770935,-0.024307701736688614,0.004851462785154581,-0.03230706602334976,-0.006690237671136856,0.052897654473781586,0.009349768981337547,-0.059608280658721924,0.0509984977543354,-0.036904122680425644,0.0328003391623497,0.06649783998727798,0.022295845672488213,0.07772837579250336,0.02639062888920307,-0.012762710452079773,0.006835039705038071,0.004492464009672403,0.05958765372633934,0.014810453169047832,0.0333254300057888,-0.06084632873535156,0.05985899642109871,0.07476293295621872,-0.005600512493401766,0.03011552058160305,0.06972118467092514,0.029240962117910385,-0.044193804264068604,-0.05638568475842476,-0.03409095108509064,0.056568361818790436,-0.07732977718114853,-0.0519893504679203,0.04543150216341019,-0.026985203847289085,-0.0051806047558784485,-0.0018371448386460543,-0.03932539001107216,0.0663984939455986,-0.07955000549554825,0.08265385776758194,-0.02876991778612137,-0.07159904390573502,-0.02776116132736206,-0.03172877058386803,-0.02864057384431362,0.012934468686580658,-0.027661440894007683,-0.02025332674384117,-0.052911024540662766,-0.019399162381887436,0.043953027576208115,0.05559347942471504,0.06268398463726044,0.039332564920186996,0.052702318876981735,-0.01899118162691593,-0.05015788972377777,-0.05985410511493683,-0.02363399788737297,0.024607129395008087,-0.05487894266843796,0.07002299278974533,-0.07618077844381332,-0.07877502590417862,0.00538000650703907,0.06980012357234955,0.07239113003015518,0.019440611824393272,0.02056308463215828,-0.007635593414306641,0.005288377869874239,0.03577630966901779,0.04441506043076515,0.026619305834174156,0.02706548385322094,-0.039404336363077164,-0.04829922690987587,-0.0873916819691658,-0.006760814227163792,0.0134990019723773,-0.02719084732234478,-0.017758894711732864,0.021979209035634995,-0.07907624542713165,-0.007059809286147356,-0.035028234124183655,-0.06049221009016037,0.005688549019396305,-0.0026523424312472343,-0.03399229422211647,0.036537181586027145,-0.024432184174656868,0.08318565785884857,-0.06955055147409439,0.01614968292415142,-0.05897294357419014,-0.05494048073887825,0.014969316311180592,0.0071412245742976665,-0.0581720806658268,-0.0635254979133606,0.031294289976358414,-0.02067999541759491,-0.06206292659044266,-0.07551343739032745,0.032578565180301666,-0.02456921711564064,-0.05140684172511101,0.08116314560174942,0.02827802486717701,-0.02822212502360344,-0.03631008416414261,-0.0629238709807396,-0.037679076194763184,-0.06973110884428024,-0.0009024958126246929,-0.005041124764829874,-0.050928208976984024,-0.06435594707727432,-0.015079338103532791,-0.025013096630573273,-0.0532468818128109,0.06596621870994568,-0.023145411163568497,0.05462399870157242,0.016398271545767784,-0.04391743615269661,0.010829530656337738,0.005158569663763046,0.043872732669115067,-0.01809389889240265,0.03902987390756607,0.04782426357269287,0.07620158791542053,-0.014314226806163788,0.011294187046587467,0.03278234228491783,-0.07432424277067184,-0.014449297450482845,-0.005080672912299633,-0.0664273202419281,-0.07458993792533875,0.06468410044908524,-0.030611764639616013,-0.019787432625889778,0.002401934238150716,-0.08037471026182175,0.06038429215550423,-0.06918033212423325,-0.06738954037427902,0.06176779419183731,-0.06161631643772125,0.06240405887365341,0.044067688286304474,0.02382764406502247,0.015124483034014702,-0.0698627158999443,0.0340765006840229,0.08029405772686005,0.04163670539855957,-0.05749983713030815,0.07409404218196869,-0.02078482136130333,0.0011685164645314217,-0.01744859665632248,0.006658067926764488,-0.058281753212213516,-0.07281370460987091,-0.032352935522794724,0.03538181260228157,0.017635969445109367,-0.05816001072525978,-0.04404880478978157,0.03415678068995476,0.01254065241664648,0.0441894456744194,0.018127769231796265,0.039594393223524094,0.07688826322555542,-0.011973762884736061,-0.0679963007569313,0.06253893673419952,0.06679607927799225,-0.07229302078485489,-0.08279397338628769,-0.008613213896751404,0.013582059182226658,-0.05767793580889702,0.017934434115886688,-0.0620867982506752,-0.030188024044036865,-0.025482114404439926,0.06311005353927612,-0.019142843782901764,-0.0032855274621397257,0.06379904597997665,-0.0237527284771204,0.08291535824537277,0.06528086960315704,0.017168160527944565,0.04991750419139862,0.02066979743540287,-0.03355087712407112,0.0601884089410305,0.08485320210456848,-0.031998079270124435,0.0078111751936376095,0.046081919223070145,-0.06288892030715942,-0.057873230427503586,0.015486200340092182,0.03339974582195282,-0.05575625225901604,-0.08726415038108826,0.03730495274066925,-0.07351129502058029,-0.030015747994184494,0.03226075693964958,0.04383202642202377,-0.009665003046393394,0.008465374819934368,-0.07807307690382004,0.027054937556385994,0.03961343318223953,-0.0024735871702432632,0.04106375202536583,-0.01070242840796709,0.07740214467048645,-0.05467403307557106,0.05222402140498161,-0.009837419725954533,-0.00021258466586004943,0.028337860479950905,-0.008145004510879517,-0.01407551672309637,0.06395810842514038,0.047915901988744736,-0.014593455009162426,0.06415931135416031,0.05751076713204384,-0.049700651317834854,0.02601693756878376,-0.027045246213674545,0.025402642786502838,0.06098463013768196,-0.05538700520992279,-0.05374331772327423,0.04900610074400902,0.06382250040769577,-0.06148379296064377,0.06970865279436111,-0.06462429463863373,0.02284766547381878,-0.056237414479255676,-0.07162830233573914,0.06106552109122276,-0.02256341278553009,-0.01990445889532566,0.043200816959142685,-0.05475446954369545,-0.08544468879699707,-0.05563471093773842,-0.06748025864362717,0.07972609251737595,0.053294915705919266,-0.01714518293738365,0.0727907046675682,0.00668826699256897,0.06030820310115814,-0.0643787607550621,-0.08004574477672577,0.0575774684548378,0.019660664722323418,0.064292311668396,0.07248400151729584,-0.07211923599243164,0.05116569623351097,0.005606691353023052,-0.03830752894282341,-0.016785064712166786,0.019695905968546867,0.051467057317495346,0.04465446621179581,0.06450910866260529,-0.03946481645107269,0.06406370550394058,0.0021485155448317528,-0.03876366838812828,0.0502900704741478,-0.08788754791021347,0.04435208439826965,-0.0688784122467041,-0.02340843342244625,0.023012081161141396,-0.0036408507730811834,0.014785533770918846,0.022394269704818726,0.01990339159965515,-0.047696515917778015,0.032600101083517075,0.06962898373603821,-0.06220752373337746,-0.04420354217290878,0.033803023397922516,0.006436788477003574,0.03124202974140644,-0.026057666167616844,0.010162778198719025,-0.0395955890417099,-0.022818539291620255,-0.018766317516565323,0.04916083812713623,0.027628367766737938,-0.07636337727308273,0.042751867324113846,-0.0483548678457737,0.021362053230404854,0.021337276324629784,-0.06542257219552994,-0.058387529104948044,-0.009383824653923512,0.05818220227956772,-0.0699324831366539,-0.018675947561860085,-0.03467770665884018,-0.07154006510972977,-0.04624883830547333,-0.07734845578670502,-0.008257558569312096,0.005273038987070322,0.04377422854304314,0.02430746890604496,-0.003926031291484833,-0.05700521543622017,0.0347154438495636,0.04785063862800598,0.05366675928235054,-0.0740751400589943,-0.015409582294523716,0.0530635342001915,0.05467978119850159,-0.03601635619997978,0.04030757024884224,0.011045168153941631,-0.05521335080265999,0.00915446411818266,-0.028871286660432816,0.06999649852514267,0.06683214008808136,-0.043797846883535385,-0.010438025929033756,-0.054577719420194626,0.06031347066164017,-0.034665968269109726,-0.030674729496240616,-0.04195592552423477,-0.036938391625881195,0.042057525366544724,-0.08418475091457367,-0.04065164923667908,0.040608033537864685,0.003743520937860012,-0.08085579425096512,0.0691547691822052,0.007877145893871784,-0.0027279125060886145,0.003954019863158464,-0.056162815541028976,0.03462694585323334,0.02256035804748535,-0.06076989322900772,-0.03999705985188484,-0.034197863191366196,0.019627053290605545,-0.0740886926651001,0.04517843946814537,0.07116600126028061,-0.04124235361814499,-0.05740273743867874,-0.022970829159021378,0.07220534235239029,-0.07496331632137299,0.03521996736526489,0.045844078063964844,0.06366849690675735,0.026089172810316086,-0.04959147050976753,0.011187308467924595,0.05175356939435005,0.0007669432088732719,0.034839533269405365,-0.07413423806428909,-0.04671335220336914,0.005287447944283485,-0.026674015447497368,-0.048219241201877594,0.01774005778133869,-0.04253187030553818,0.03816738724708557,-0.02250337414443493,0.07483822107315063,0.001054053078405559,-0.004129915032535791,-0.030839184299111366,-0.030039113014936447,0.06594334542751312,0.01614222675561905,0.004346539732068777,0.06245339661836624,-0.047344617545604706,0.03811033070087433,-0.06278389692306519,-0.04813053086400032,-0.05881320312619209,0.034526288509368896,0.025243407115340233,0.021657923236489296,0.02220338024199009,-0.040271129459142685,0.026430875062942505,-0.0593036524951458,-0.017759470269083977,-0.037277109920978546,-0.015240650624036789,-0.0714838057756424,0.041133321821689606,-0.07816942036151886,-0.056543391197919846,0.0459681935608387,-0.006543160881847143,-0.036008574068546295,-0.019671227782964706,-0.011114955879747868,0.0060614896938204765,0.03670274466276169,0.03715185075998306,-0.049660924822092056,0.012322735041379929,0.002817323198541999,-0.05443321913480759,-0.07353003323078156,0.0645667240023613,0.013119389303028584,0.0745302215218544,-0.06984210759401321,-0.07333134859800339,0.02875852957367897,0.035157036036252975,0.05356492102146149,0.03782155364751816,0.058676548302173615,0.029818780720233917,0.07212162762880325,-0.037227507680654526,-0.07554144412279129,0.05941024050116539,0.03240106999874115,0.06470579653978348,0.07154393196105957,0.025863610208034515,0.028771210461854935,-0.06699787825345993,-0.039048779755830765,-0.004727619234472513,-0.011130481027066708,-0.057873647660017014,-0.07023176550865173,0.014505460858345032,0.06754342466592789,-0.0693870335817337,0.033166948705911636,0.06376234441995621,-0.0590224526822567,0.03431250527501106,-0.0697079673409462,0.012050230987370014,0.06774342060089111,-0.04096389189362526,-0.07185022532939911,0.019046353176236153,0.022518230602145195,0.07020199298858643,0.014707996509969234,0.0030329106375575066,-0.00789613462984562,0.03780756890773773,0.016902923583984375,-0.07022500783205032,0.01943456195294857,0.04153372347354889,0.04019103944301605,-0.019334228709340096,0.004122594837099314,-0.06294213235378265,-0.02620594948530197,-0.06668434292078018,0.011588538996875286,0.0019377438584342599,-0.006635077763348818,-0.0002613053366076201,-0.03927244246006012,-0.027348749339580536,-0.0657980889081955,0.04701903462409973,-0.0673024132847786,-0.03746786341071129,-0.008595254272222519,-0.07748197764158249,0.03045082464814186,0.020235059782862663,-0.05060724914073944,0.01825954206287861,-0.06701139360666275,-0.018582485616207123,-0.08229568600654602,0.011629191227257252,0.03135573863983154,-0.07442421466112137,-0.04106052964925766,0.03504424914717674,0.029966458678245544,-0.05548413097858429,-0.07250485569238663,0.04627903923392296,-0.004887420684099197,0.013839694671332836,-0.0864085853099823,0.05661151558160782,-0.019993240013718605,0.0008263664785772562,0.06840898096561432,0.05139921233057976,-0.03759011626243591,0.0719408169388771,0.06628978252410889,-0.05780788138508797,0.05871764197945595,0.02697909064590931,0.038079578429460526,-0.017849160358309746,-0.015621338970959187,-0.024563614279031754,-0.0012580424081534147,-0.009644064120948315,-0.049230873584747314,-0.06933099031448364,-0.0805005431175232,0.06280037015676498,-0.009822090156376362,-0.056576043367385864,0.02164744772017002,-0.006771895568817854,-0.04979223757982254,0.0022171030286699533,-0.04418057203292847,0.07384434342384338,0.051292695105075836,-0.02481912449002266,0.04802246764302254,0.04618174582719803,-0.005469406954944134,0.005752088502049446,0.029150769114494324,-0.074676014482975,0.05243171006441116,0.03346443176269531,0.05578296259045601,-0.009355937130749226,0.06367948651313782,-0.009394770488142967,0.0758410096168518,-0.013163400813937187,-0.0035311474930495024,0.05550241842865944,0.07944118976593018,-0.08379418402910233,0.026514830067753792,0.017809102311730385,0.01935303956270218,0.022723186761140823,-0.08063814043998718,-0.0687495693564415,-0.07329875230789185,0.008169193752110004,0.06697484105825424,-0.06478197127580643,-0.04539432376623154,-0.07972818613052368,-0.013472078368067741,0.050736572593450546,0.056521203368902206,0.0010239381808787584,-0.06839879602193832,0.014341399073600769,-0.06023337319493294,0.013907650485634804,0.004896208643913269,-0.0023259741719812155,-0.04400857910513878,-0.02383594587445259,-0.001040426199324429,0.015140990726649761,0.031330861151218414,0.006830228958278894,-0.009987810626626015,-0.006291313096880913,0.04120061546564102,-0.026480823755264282,-0.0778595358133316,0.07784229516983032,0.019278928637504578,0.04863317310810089,-0.056370023638010025,0.02200021781027317,-0.04555057734251022,0.037710998207330704,-0.07843805849552155,-0.044047728180885315,0.052401699125766754,-0.04502697288990021,0.014774746261537075,-0.05410368740558624,0.03935842216014862,0.04804905876517296,0.032046493142843246,0.007046903483569622,0.06383290141820908,0.03133023902773857,-0.023335127159953117,0.04844626784324646,0.055286865681409836,-0.0015161357587203383,-0.03889647498726845,-0.06849056482315063,0.01675966940820217,-0.007102379575371742,0.08142754435539246,-0.0064138504676520824,-0.03661631420254707,-0.006385138723999262,0.020551109686493874,0.06993947923183441,0.07706926017999649,0.05118444189429283,-0.030367068946361542,0.05772484466433525,-0.0729065090417862,-0.08015857636928558,0.026133190840482712,0.058903589844703674,-0.0005065846489742398,-0.0739637166261673,0.02634686790406704,0.05822758376598358,-0.02352478913962841,0.006016225088387728,0.01712365821003914,0.021419707685709,0.043945495039224625,-0.04936932772397995,0.07715117931365967,0.03939584642648697,0.061759449541568756,-0.009250803850591183,0.08454855531454086,0.039963528513908386,0.006760088261216879,-0.01852566935122013,0.025582198053598404,0.06472451239824295,-0.0323125384747982,-0.038429129868745804,0.06952355802059174,-0.0709160715341568,0.07819952815771103,0.05193809047341347,0.008158578537404537,-0.05973583832383156,0.08084658533334732,-0.04284505546092987,0.0768999233841896,0.0022885906510055065,-0.07207834720611572,0.060805123299360275,-0.07059232145547867,-0.07438141107559204,-0.01770913228392601,0.08132920414209366,-0.00007908791303634644,-0.03617139905691147,-0.04864110052585602,-0.07744228839874268,-0.006152443587779999,-0.03013533726334572,0.05381420999765396,0.040318023413419724,-0.013238406740128994,-0.04207267984747887,0.0478583388030529,-0.027451537549495697,0.04238869994878769,-0.010769113898277283,0.07466625422239304,-0.00020759030303452164,0.06210838258266449,0.07560884952545166,-0.035004790872335434,-0.018255243077874184,0.05716462433338165,-0.05421482399106026,0.0076331947930157185,0.06917136907577515,0.022036882117390633,0.06506159156560898,0.01494743674993515,-0.08365026116371155,-0.024920549243688583,-0.00792264100164175,-0.01009579747915268,0.04410581290721893,0.04571959376335144,-0.07882408797740936,0.05831737816333771,0.013301162049174309,0.011508366093039513,0.0651155412197113,0.007750091142952442,-0.09057140350341797,-0.0383070632815361,-0.03681908920407295,-0.08555309474468231,-0.05958549678325653,0.06411667913198471,0.07104715704917908,-0.057356636971235275,-0.03523321449756622,0.06974782049655914,-0.007423770613968372,-0.049803588539361954,-0.05455227196216583,0.015576167963445187,0.022757209837436676,-0.06817668676376343,-0.06816419959068298,0.08469191938638687,0.023842567577958107,-0.025897517800331116,-0.06164196878671646,0.052621856331825256,0.0016814422560855746,0.07171878218650818,0.04802779108285904,-0.051837801933288574,0.04548025131225586,0.06874462962150574,-0.06880258023738861,-0.031000381335616112,0.039134979248046875,0.01102988701313734,-0.024043569341301918,-0.08616352826356888,-0.004092081915587187,0.010666709393262863,-0.02364807017147541,-0.009130663238465786,0.030175767838954926,-0.07403154671192169,-0.04012215510010719,-0.05804603919386864,-0.04204442724585533,0.009001173079013824,0.03476164862513542,-0.017071451991796494,-0.00791035033762455,0.0023471687454730272,0.07619957625865936,-0.019913673400878906,-0.08277387917041779,-0.017737925052642822,0.04877625033259392,-0.06130719557404518,-0.004148234613239765,0.04354923218488693,0.029898805543780327,0.05713403597474098,-0.07406511157751083,-0.07045652717351913,-0.07578061521053314,0.06118444725871086,0.015162822790443897,-0.034186460077762604,-0.06799961626529694,-0.06264960020780563,0.019183695316314697,0.04124389588832855,-0.04574401304125786,0.0253125187009573,0.031545788049697876,-0.015373106114566326,0.05756600573658943,0.029607100412249565,-0.001956632826477289,0.08066282421350479,-0.07046476006507874,-0.0026573685463517904,0.06584645807743073,-0.039325665682554245,0.08302132040262222,-0.07682454586029053,-0.07927057892084122,-0.04299401864409447,-0.05878142639994621,0.0696466937661171,0.05394246429204941,-0.00020211510127410293,0.00998633448034525,-0.0720401257276535,-0.03978819400072098,-0.043329328298568726,0.04912414401769638,0.07306794822216034,-0.06683968007564545,-0.03343583270907402,-0.07051420211791992,0.03699541091918945,0.019151687622070312,0.014381848275661469,-0.04471103847026825,0.06532899290323257,-0.0417587049305439,-0.025133807212114334,0.07881703227758408,-0.016648979857563972,0.04954784736037254,-0.013159028254449368,-0.0340348556637764,-0.06863822042942047,-0.05255291238427162,-0.063950315117836,0.07000657916069031,-0.02481369487941265,-0.0332353375852108,0.0061665684916079044,-0.07185755670070648,-0.07747272402048111,-0.014677848666906357,-0.012230094522237778,0.045896247029304504,-0.009683213196694851,-0.02606772631406784,-0.05805759131908417,-0.028404533863067627,0.0638362467288971,-0.0798834040760994,-0.05562569946050644,-0.03641059249639511,-0.014392388053238392,-0.06886846572160721,0.03948888182640076,-0.02628539875149727,-0.029642514884471893,-0.06368245929479599,-0.06861324608325958,-0.06857806444168091,0.05841357260942459,0.05750621482729912,-0.06477545946836472,-0.014223060570657253,0.0019974166061729193,0.044243331998586655,0.04390893876552582,-0.02518150769174099,-0.01852666400372982,-0.015700019896030426,0.07077747583389282,0.07466749846935272,0.039491552859544754,-0.0701579600572586,0.041005417704582214,-0.05193178355693817,0.02110668644309044,-0.06854882091283798,0.07944275438785553,-0.04839449003338814,-0.03257206454873085,-0.06945906579494476,-0.057725049555301666,0.020117565989494324,0.04866233840584755,-0.046108588576316833,-0.04173086956143379,0.02402477152645588,0.048254236578941345,0.03269030153751373,-0.03503895550966263,-0.01057722233235836,-0.08369775116443634,-0.01788467727601528,-0.08802337944507599,-0.016449861228466034,-0.07248382270336151,0.057580575346946716,-0.04742496833205223,-0.05454929172992706,-0.03318105638027191,0.0833926796913147,-0.04960011690855026,-0.06367628276348114,-0.034301843494176865,0.06279035657644272,-0.07427430152893066,-0.08654287457466125,-0.08238325268030167,-0.04047402739524841,0.058028314262628555,-0.04641065001487732,-0.025723295286297798,0.013053102418780327,-0.003025640733540058,-0.06383228302001953,0.04809265956282616,-0.04725339636206627,-0.08130647242069244,0.06989247351884842,0.07313932478427887,0.027162151411175728,0.07838259637355804,-0.07522386312484741,0.02916061133146286,0.052572522312402725,0.05591316148638725,0.040932971984148026,0.018712501972913742,-0.04538257420063019,0.05157145857810974,0.036239128559827805,-0.08187014609575272,0.03070725128054619,0.06222137063741684,0.05830748379230499,-0.03758677467703819,0.002362820552662015,-0.030250033363699913,-0.054494909942150116,-0.0010529921855777502,-0.06269955635070801,-0.06277480721473694,0.07844583690166473,0.04409266635775566,-0.06550762802362442,-0.054578181356191635,-0.08062814921140671,-0.07493852823972702,0.044142574071884155,-0.053861841559410095,-0.07223743945360184,-0.035884790122509,0.055359847843647,0.005703680217266083,-0.0643959492444992,-0.01068204827606678,0.01294965110719204,-0.05204800143837929,-0.080289825797081,0.011293039657175541,0.060567378997802734,0.034889642149209976,-0.024342887103557587,0.07771380990743637,0.025335727259516716,0.06323719024658203,0.061269018799066544,0.06008119136095047,0.07976293563842773,0.061536189168691635,0.052192095667123795,0.04534552991390228,-0.08176961541175842,0.05299695208668709,0.029396837577223778,-0.07591741532087326,0.05884263291954994,0.04611809924244881,-0.010553920641541481,0.0021259053610265255,0.054640043526887894,-0.003532882547006011,0.06801506131887436,-0.016728149726986885,0.050906702876091,-0.023056037724018097,-0.06623188406229019,0.029551060870289803,-0.03741207718849182,0.07872108370065689,0.07652504742145538,-0.00205600424669683,-0.06276597827672958,-0.005831810645759106,0.020688746124505997,-0.07016422599554062,0.016034021973609924,-0.008760360069572926,-0.04925839975476265,-0.07846114039421082,0.053540341556072235,0.04871685057878494,-0.02255088835954666,-0.07141414284706116,-0.014027316123247147,0.07758121192455292,0.03918755427002907,-0.0349084697663784,0.08021043986082077,0.03275862708687782,-0.0021604266948997974,-0.03421221300959587,-0.04727959260344505,-0.06737000495195389,0.05616286024451256,0.03247838467359543,0.04866012558341026,-0.006037610583007336,0.010238314978778362,-0.05395739525556564,0.04824735224246979,-0.06555753201246262,-0.05571639910340309,-0.062152549624443054,-0.04104641079902649,0.058985911309719086,-0.022582344710826874,-0.022847075015306473,0.03634167090058327,-0.0572546012699604,-0.03206522390246391,0.02174798958003521,-0.03655492141842842,0.038115911185741425,-0.04585208371281624,0.0050592804327607155,0.04791019484400749,-0.07784978300333023,-0.07807061821222305,0.04742676392197609,-0.058729443699121475,0.003170561511069536,-0.06582646816968918,-0.04419657215476036,-0.054534126073122025,-0.031543582677841187,-0.02882964536547661,0.009912586770951748,0.02610320784151554,-0.06113065406680107,-0.012551380321383476,-0.053158488124608994,0.06477872282266617,-0.034117963165044785,-0.028449786826968193,-0.04354177415370941,0.05928897112607956,-0.003126914147287607,0.048427000641822815,0.04099109023809433,0.06098268926143646,-0.07983455061912537,0.01866135373711586,-0.000882418011315167,0.02045929618179798,0.07888408750295639,0.0031005481723695993,0.043950971215963364,-0.015942931175231934,0.04890533164143562,0.05679097771644592,-0.07274411618709564,-0.04624982178211212,0.05089084059000015,0.016954883933067322,0.06736912578344345,-0.02075326442718506,-0.05429491400718689,0.07143140584230423,0.06445694714784622,0.06601925194263458,0.042341917753219604,-0.05471675843000412,0.041926417499780655,-0.03959202021360397,-0.055199578404426575,-0.007564413361251354,0.01769823022186756,0.08208512514829636,0.07680412381887436,-0.02891617827117443,0.007496206555515528,-0.015286381356418133,-0.023415498435497284,0.04380938783288002,0.043791498988866806,-0.010512810200452805,-0.008046244271099567,-0.07067625969648361,-0.015464678406715393,0.03634437173604965,0.04230756685137749,-0.02774009481072426,-0.018828585743904114,0.06332219392061234,0.024870123714208603,-0.02943495288491249,0.07722274959087372,0.019082793965935707,0.07855389267206192,0.07598203420639038,0.0060344296507537365,0.04864075779914856,-0.023774830624461174,-0.028689265251159668,0.0743291899561882,0.07133550941944122,-0.027727335691452026,-0.016361387446522713,0.016642708331346512,0.039397791028022766,-0.0467013418674469,-0.011835220269858837,-0.05024810880422592,-0.07426048815250397,-0.08773917704820633,-0.0017727945232763886,-0.05638354644179344,0.010418828576803207,-0.032776981592178345,0.07592727988958359,-0.056641586124897,-0.0041503519751131535,-0.07689008116722107,-0.06619378179311752,-0.047922223806381226,0.06981789320707321,-0.0018068085191771388,0.03283322975039482,-0.061274439096450806,-0.07793284207582474,-0.01818244718015194,-0.07665190100669861,-0.03225940465927124,0.024237975478172302,-0.057188089936971664,0.010117601603269577,0.021439354866743088,-0.01346933376044035,-0.01218008529394865,-0.03584174066781998,0.07104989886283875,0.04920775070786476,0.0046113939024508,-0.01741856150329113,-0.08033538609743118,0.07841815054416656,0.029465125873684883,0.01087688747793436,-0.014194175601005554,-0.0224404688924551,0.07825674116611481,0.07570593804121017,0.015362199395895004,0.020089449360966682,-0.006754793226718903,0.005962226074188948,-0.05620431900024414,0.045305754989385605,-0.026922687888145447,-0.0023336601443588734,0.04626373201608658,0.038647789508104324,-0.0314786434173584,0.07733304053544998,-0.038457732647657394,0.033286597579717636,-0.025618961080908775,0.03189464285969734,0.04341338947415352,-0.0357026532292366,-0.043293144553899765,-0.05257585644721985,-0.060608092695474625,0.005770613439381123,0.02233615145087242,-0.07332976907491684,-0.061705831438302994,-0.06502692401409149,-0.027150394394993782,0.03796211630105972,0.06505560874938965,-0.0640568733215332,0.006853409577161074,0.07377029955387115,0.0567057728767395,0.055577535182237625,0.012982485815882683,0.012771460227668285,-0.05828284099698067,-0.061073027551174164,0.07037939131259918,-0.0534440353512764,-0.026364754885435104,-0.058464135974645615,-0.04568849503993988,-0.004673126619309187,0.03528384119272232,-0.054926395416259766,0.0358007587492466,0.07566805183887482,0.02461027167737484,0.028546325862407684,-0.04115678369998932,-0.08077388256788254,0.043082308024168015,-0.02725323848426342,-0.05449294298887253,-0.06022501736879349,0.02266662009060383,-0.07124193012714386,0.0579431876540184,-0.0018402118002995849,0.04059828445315361,0.06055544316768646,-0.05764596536755562,0.05492028966546059,-0.05628098547458649,-0.031996000558137894,-0.0010454511502757668,-0.0168005358427763,0.04903240501880646,0.03781982883810997,-0.003464150708168745,-0.009516938589513302,-0.014825543388724327,0.07619985193014145,0.014792123809456825,-0.029059993103146553,-0.06659133732318878,0.022100791335105896,-0.024484708905220032,-0.07224059849977493,0.06876332312822342,-0.008567321114242077,-0.05183733254671097,-0.05276348814368248,0.005703950300812721,-0.07692918181419373,-0.02157847210764885,-0.06470346450805664,0.011187514290213585,-0.07803940773010254,0.03558105602860451,0.0770871564745903,-0.0649506002664566,0.057008009403944016,-0.03715666010975838,-0.04769906774163246,-0.06750499457120895,-0.04378362372517586,0.056957874447107315,0.07992788404226303,-0.016288409009575844,0.0662868395447731,0.061815906316041946,-0.06163451075553894,0.008714315481483936,-0.06260515004396439,0.013685356825590134,0.06315221637487411,0.014096299186348915,-0.04289926216006279,-0.01923379860818386,-0.03377993404865265,0.010547957383096218,0.009290934540331364,0.01774783618748188,-0.07856887578964233,-0.0004811921971850097,-0.05754034221172333,0.06024942174553871,-0.07558716833591461,-0.07010531425476074,-0.01644204370677471,0.0573396235704422,-0.045820336788892746,-0.06574373692274094,-0.053374338895082474,0.05825448036193848,-0.05205297842621803,0.024049315601587296,0.049303192645311356,-0.03775811195373535,-0.07171444594860077,-0.07484030723571777,0.027249014005064964,-0.07673557847738266,0.013143472373485565,-0.03987148776650429,0.06193133816123009,-0.07063888013362885,0.05125703290104866,0.040512848645448685,0.03965695947408676,0.05127982795238495,0.003517000237479806,0.05260052904486656,-0.07320138067007065,-0.044140301644802094,-0.08057280629873276,0.06616166234016418,0.08076449483633041,-0.00699266092851758,-0.06583554297685623,-0.012295624241232872,-0.041310299187898636,-0.03529420495033264,-0.07684693485498428,0.052779339253902435,-0.05204825475811958,0.08136308193206787,0.004574517719447613,0.005678190849721432,-0.0758141279220581,0.028002819046378136,-0.016652259975671768,-0.08500944077968597,0.06353770941495895,0.015539928339421749,-0.04269205406308174,0.016306841745972633,-0.06612678617238998,0.05307941883802414,0.03998887166380882,-0.02018454484641552,0.004681983031332493,0.01042243279516697,-0.060507770627737045,0.058659039437770844,-0.07841689884662628,-0.024275124073028564,0.038645558059215546,-0.02930482290685177,-0.06445562094449997,-0.027175603434443474,0.05354458838701248,0.007466199807822704,-0.0008421564707532525,-0.02341892383992672,-0.06369458138942719,0.033889707177877426,-0.07297689467668533,0.07049501687288284,0.05842290446162224,0.06388285011053085,-0.021661031991243362,-0.0007327385828830302,0.02036362886428833,0.057913605123758316,-0.053723420947790146,-0.028368216007947922,-0.038058798760175705,0.06237151101231575,-0.037459634244441986,-0.011487724259495735,-0.01922426000237465,0.04805435985326767,-0.024891922250390053,-0.05345919728279114,0.017880534753203392,0.06220011040568352,-0.04684431850910187,0.06885602325201035,0.03439053148031235,0.027367716655135155,0.04554098844528198,-0.013829326257109642,0.00004743423778563738,0.03539396449923515,-0.02457544393837452,0.030677469447255135,-0.021810824051499367,-0.02651158906519413,-0.03421299159526825,-0.05513136461377144,-0.009444531984627247,0.049418557435274124,-0.001936840359121561,0.03563328832387924,0.07482412457466125,0.04402049630880356,-0.033044371753931046,-0.05670831352472305,-0.06952263414859772,0.06998877972364426,0.045312561094760895,0.04651098698377609,0.07650769501924515,0.07340678572654724,-0.07806014269590378,-0.06160186603665352,-0.07555371522903442,-0.030338099226355553,0.04428577795624733,0.012924447655677795,0.04773123934864998,-0.0607827827334404,0.06212969869375229,-0.026051312685012817,-0.0017380834324285388,-0.013345547020435333,-0.03520996868610382,0.028378745540976524,0.029571013525128365,-0.07548047602176666,-0.04234218969941139,-0.051817551255226135,-0.04496584087610245,0.03653823211789131,-0.0059647513553500175,-0.04993576556444168,0.015239354223012924,0.029030397534370422,-0.027751512825489044,0.016490232199430466,0.028792135417461395,-0.0001582882832735777,-0.03901395574212074,0.039539627730846405,-0.029374707490205765,0.07225383818149567,-0.07997418940067291,0.004789292346686125,-0.018598506227135658,0.003817070974037051,-0.029767008498311043,-0.049579113721847534,0.0748208686709404,0.06488610804080963,-0.04981575161218643,-0.075955331325531,0.03375969082117081,0.05048741027712822,0.037051763385534286,-0.026295213028788567,0.058744803071022034,0.07459932565689087,0.06663554161787033,0.04104536771774292,-0.0038030825089663267,-0.08137187361717224,0.027684584259986877,-0.019915400072932243,0.036152761429548264,0.04844861105084419,-0.07538134604692459,0.03139042109251022,-0.06220473721623421,-0.06970831751823425,0.032882075756788254,-0.03567104414105415,-0.05998663604259491,0.06215672940015793,0.06184695288538933,-0.03267989307641983,-0.04422450065612793,0.07243888080120087,-0.03670354560017586,-0.028294820338487625,0.034447964280843735,0.005401700735092163,-0.052969079464673996,0.056397974491119385,0.03576171398162842,-0.034605350345373154,0.04669506847858429,-0.035807132720947266,0.029208090156316757,0.060812659561634064,0.035011135041713715,-0.06270282715559006,-0.054124459624290466,-0.016480881720781326,0.013079562224447727,-0.002671973779797554,-0.03899887949228287,0.060536403208971024,0.025271398946642876,0.023386014625430107,0.02539859339594841,0.07563019543886185,-0.07601232081651688,0.06299100071191788,0.07199239730834961,0.07113920152187347,0.0005018137162551284,0.06060890108346939,0.015082490630447865,0.01283345278352499,0.029532069340348244,-0.030116833746433258,0.059592366218566895,0.05403265357017517,-0.046012893319129944,0.008652197197079659,0.028546718880534172,-0.051324717700481415,0.0813111886382103,0.008433382026851177,0.06261752545833588,0.004670172929763794,0.040090203285217285,-0.005823681131005287,-0.00885062012821436,0.05214371904730797,-0.04776883125305176,-0.024658411741256714,-0.016468990594148636,0.04459182918071747,-0.006562241353094578,-0.01285538449883461,-0.0007477541221305728,0.021240293979644775,-0.03345705196261406,0.011999556794762611,0.06801444292068481,0.06480421125888824,0.0013693724758923054,0.07811477780342102,-0.03334695100784302,-0.03951781615614891,0.05381933972239494,-0.041812095791101456,0.020049627870321274,-0.07739187031984329,0.017597800120711327,-0.056802667677402496,0.006892855279147625,0.07265739142894745,0.06971419602632523,-0.007703915238380432,-0.06153044104576111,0.05829448997974396,0.06022559851408005,0.03529888018965721,0.07640840858221054,-0.06582111865282059,0.048372767865657806,0.010189754888415337,0.036931075155735016,-0.054173532873392105,0.060667734593153,-0.00756804971024394,-0.06328123807907104,0.043259136378765106,0.06415354460477829,0.07526873052120209,-0.013741055503487587,0.07237264513969421,0.01671609841287136,-0.035956427454948425,-0.0009210635325871408,0.009289716370403767,-0.02772722765803337,-0.006307986564934254,0.05530190095305443,-0.07910078763961792,0.06554671376943588,0.009448261931538582,-0.002398839220404625,0.038429003208875656,-0.06574998795986176,-0.0674511194229126,0.04921681433916092,-0.014108534902334213,-0.005316521506756544,-0.02580871246755123,-0.010661095380783081,0.03967645764350891,0.06913941353559494,0.05283934250473976,0.029037144035100937,-0.07939857244491577,-0.04408350586891174,-0.07678944617509842,0.05402194336056709,-0.010733326897025108,-0.025124624371528625,-0.06094406172633171,-0.03543069213628769,0.047143466770648956,-0.06303085386753082,0.009683102369308472,-0.009807274676859379,-0.017079859972000122,-0.004088941030204296,0.08437325060367584,-0.075013168156147,0.019916528835892677,-0.017287667840719223,0.027350308373570442,0.027106551453471184,0.0688583254814148,0.01557969767600298,0.03515278175473213,-0.05981535091996193,-0.010719522833824158,0.0060117305256426334,0.01944994181394577,0.029912279918789864,0.07199686765670776,-0.01177869364619255,0.04241621494293213,-0.06617417931556702,-0.018818417564034462,-0.012766028754413128,-0.020173851400613785,0.07466426491737366,0.06973221898078918,-0.024091560393571854,0.05378951504826546,-0.06663234531879425,0.026780866086483,-0.07412265986204147,-0.016406210139393806,-0.05147890746593475,0.07102090120315552,0.03539750352501869,-0.005963676143437624,0.062051381915807724,0.059897806495428085,0.015832213684916496,-0.07063757628202438,0.02502373792231083,0.054748084396123886,-0.06967364251613617,-0.0031111196149140596,0.004003780893981457,0.06933587044477463,-0.08712894469499588,0.04352317750453949,-0.0793793797492981,0.05083586275577545,-0.010590391233563423,-0.042432334274053574,-0.05441994592547417,-0.06456977874040604,0.027606818825006485,-0.030359679833054543,0.053151603788137436,-0.06291365623474121,0.03826429322361946,-0.05925527215003967,0.012929551303386688,-0.07832799106836319,-0.05166543275117874,0.006795600522309542,-0.013952897861599922,0.03178034722805023,0.08589547127485275,-0.07797177881002426,-0.06518889218568802,0.08081986010074615,0.07662207633256912,0.011786912567913532,-0.04715133458375931,-0.051326651126146317,0.05215121805667877,-0.0071435053832829,-0.03422471508383751,-0.05101680010557175,0.030572153627872467,0.03705922141671181,-0.03250806778669357,-0.07048235088586807,0.041872456669807434,-0.014695598743855953,0.016536029055714607,0.0704912319779396,0.04276072233915329,-0.06259775906801224,0.07177790999412537,0.08006379753351212,0.013930809684097767,-0.04710272327065468,-0.04947174713015556,0.016693513840436935,-0.06932152807712555,0.06570082902908325,-0.06500336527824402,0.038466326892375946,-0.029810847714543343,0.006524825002998114,0.03344108536839485,0.0234006866812706,0.07030721008777618,0.0027048224583268166,0.0702262669801712,0.008453763090074062,-0.06804542243480682,-0.07033377885818481,0.027670618146657944,0.005915223155170679,-0.06982536613941193,0.03652966022491455,0.07521658390760422,0.016887832432985306,-0.007513606455177069,-0.00598183274269104,-0.04970114678144455,0.007638025563210249,0.004868058487772942,-0.05062209069728851,-0.03444574400782585,0.04368643835186958,-0.008874707855284214,-0.05291461572051048,0.04390434920787811,0.06170576438307762,0.0008040033280849457,-0.057972993701696396,-0.019485123455524445,-0.022391371428966522,0.041173502802848816,-0.0647987499833107,0.004186323378235102,-0.08317267149686813,0.07620663195848465,-0.06634022295475006,0.0059078894555568695,-0.040522053837776184,-0.06756477802991867,-0.028484342619776726,-0.06773900240659714,-0.05308697372674942,-0.03741595521569252,-0.025779282674193382,-0.05322650820016861,-0.08313075453042984,0.009931112639605999,0.056708112359046936,-0.0639672502875328,0.057771243155002594,-0.06898777186870575,-0.035509493201971054,-0.07211584597826004,0.023228341713547707,-0.08244963735342026,0.05058237165212631,-0.04784274846315384,-0.07463385164737701,0.05031793937087059,-0.04277072846889496,0.05921798571944237,-0.06092572584748268,0.007554646581411362,-0.011961922980844975,-0.07334192097187042,0.028781147673726082,-0.024490924552083015,0.007583214435726404,0.06694117188453674,0.01870610937476158,-0.05647369474172592,-0.012131568044424057,0.035617049783468246,-0.03629523515701294,0.04228421300649643,-0.07711489498615265,-0.020148614421486855,0.022162429988384247,0.030214259400963783,-0.0369252972304821,0.05430943891406059,-0.07071945816278458,-0.046847857534885406,-0.05375004559755325,0.04470264911651611,0.02713312767446041,-0.03389470651745796,-0.06210049241781235,0.013279121369123459,0.0051968577317893505,-0.059991516172885895,-0.01136197429150343,0.042608268558979034,-0.026573311537504196,-0.06718439608812332,-0.08159647136926651,-0.07998215407133102,-0.023506851866841316,0.05867534503340721,0.03059476800262928,-0.06784696131944656,0.02002624422311783,-0.026545723900198936,0.03282478451728821,-0.008328443393111229,0.06730367988348007,-0.018139319494366646,-0.006261205300688744,0.01857057400047779,-0.057789020240306854,0.012049498967826366,0.0036267132963985205,-0.04468647390604019,-0.022860808297991753,0.015488388948142529,0.05852419137954712,0.023218192160129547,0.06162630394101143,-0.02599267102777958,-0.0791577473282814,-0.02460925467312336,0.03745054081082344,0.07495460659265518,-0.05845150351524353,0.01979236863553524,0.031568292528390884,-0.0840727686882019,-0.011590984649956226,0.022970985621213913,0.05373924598097801,0.02198934555053711,0.04514573514461517,-0.058218635618686676,-0.05304308980703354,0.00043307815212756395,-0.08223044127225876,0.020986219868063927,-0.07336802035570145,0.03560987114906311,-0.08143237233161926,-0.03765483200550079,0.028795981779694557,0.05589720979332924,0.04410844296216965,0.05144043266773224,-0.020019879564642906,0.06612737476825714,-0.00935682374984026,0.043743740767240524,-0.04819510877132416,0.05282430723309517,-0.03657316789031029,-0.014380079694092274,-0.0038484104443341494,-0.08578021824359894,0.06942777335643768,-0.055029477924108505,0.05650152266025543,-0.06312068551778793,0.08048268407583237,0.08043193072080612,0.021563556045293808,0.009048616513609886,0.06863454729318619,-0.07160276174545288,0.050977446138858795,0.06383074074983597,-0.0716865062713623,-0.05850140005350113,-0.06831753998994827,0.03332657739520073,0.05362012982368469,-0.04641949385404587,0.04990942031145096,-0.07364418357610703,0.01769670844078064,-0.04855523630976677,0.05046800523996353,-0.028929149731993675,0.009700694121420383,-0.021698858588933945,0.08654417097568512,-0.039566751569509506,-0.03496059402823448,0.02875121869146824,0.07478495687246323,0.07831381261348724,0.04606729373335838,-0.021737702190876007,-0.07235196977853775,0.009928991086781025,-0.0023131573107093573,0.012710233218967915,0.06440236419439316,0.027287380769848824,-0.024878406897187233,-0.04346904903650284,0.035796329379081726,0.046127237379550934,0.039551492780447006,0.0494324192404747,-0.017265386879444122,0.0332670621573925,-0.01091770175844431,0.03746892139315605,-0.06658609211444855,-0.05381118133664131,0.0740920901298523,0.07431279122829437,-0.0848245844244957,-0.07818090170621872,0.04179379343986511,0.023174701258540154,0.010860322043299675,-0.05464010313153267,0.021361371502280235,0.010005395859479904,0.027473829686641693,-0.009493764489889145,0.08057735115289688,-0.020437635481357574,-0.01546303741633892,0.05379695072770119,-0.07734933495521545,0.06955363601446152,0.05425193905830383,0.038855716586112976,0.011687966994941235,0.03485824167728424,0.023922454565763474,-0.06708965450525284,-0.013726082630455494,0.08086274564266205,0.01704091578722,-0.05904227867722511,0.07565058022737503,-0.03321447595953941,0.021454397588968277,0.06916239112615585,0.009443774819374084,-0.0792817622423172,-0.06154312193393707,0.01200918760150671,0.03259702026844025,-0.004394094925373793,-0.015496584586799145,0.07327259331941605,0.03696611896157265,-0.07375752180814743,-0.05635622888803482,0.026967167854309082,-0.015181767754256725,-0.055301159620285034,-0.06980063021183014,-0.03675328195095062,-0.0170072503387928,-0.06912586838006973,-0.08154566586017609,0.08024190366268158,0.02499651536345482,0.019026922062039375,-0.0037831540685147047,0.015401710756123066,0.013151566497981548,0.005205937195569277,0.01647220365703106,-0.031030351296067238,-0.037213340401649475,-0.03377322480082512,-0.07939822971820831,-0.010592772625386715,0.004078027792274952,0.06515315175056458,-0.022221410647034645,-0.061537571251392365,0.0010594814084470272,0.0011319593759253621,-0.016336705535650253,-0.07634251564741135,-0.06480623781681061,-0.044763244688510895,-0.04986744746565819,0.057604461908340454,0.04486922547221184,-0.020845647901296616,-0.08065425604581833,-0.06091376394033432,-0.03108212724328041,-0.019197920337319374,0.008867091499269009,0.03633417934179306,-0.03905997797846794,0.03190752491354942,0.07020453363656998,-0.06298904120922089,-0.07044683396816254,-0.03870666027069092,-0.04833317920565605,-0.049808017909526825,0.0629904568195343,-0.03867403045296669,0.05109711363911629,0.052611157298088074,0.003862518584355712,-0.05590159073472023,0.027174530550837517,0.02952398918569088,-0.043824948370456696,-0.060147177428007126,0.08548089116811752,-0.05201012268662453,-0.05368693545460701,-0.011123355478048325,-0.07052447646856308,0.06027296930551529,0.035109784454107285,0.08132060617208481,0.07531706243753433,0.03662945330142975,0.04281938821077347,-0.03597349300980568,0.003145626513287425,-0.07385508716106415,-0.01812010072171688,0.007179212756454945,-0.03332332894206047,0.04889807477593422,0.05327580124139786,0.0163804329931736,-0.03387666866183281,-0.006861409638077021,-0.06627414375543594,-0.04761157184839249,-0.07955686002969742,0.027236733585596085,-0.02558482438325882,-0.03269021958112717,0.07646828889846802,-0.07921819388866425,-0.08245691657066345,-0.043922923505306244,-0.03694722428917885,0.01599227823317051,0.01284360233694315,-0.041278090327978134,-0.030512547120451927,0.032183632254600525,0.016562065109610558,0.051725711673498154,0.08354176580905914,-0.03265704959630966,-0.03464071825146675,-0.06828312575817108,-0.0023775266017764807,-0.05585759878158569,-0.04859091341495514,-0.059774115681648254,-0.04520111903548241,0.05446131154894829,0.011454171501100063,0.059947431087493896,0.08061571419239044,-0.07453243434429169,0.031984567642211914,0.02377983368933201,0.054365936666727066,-0.027845781296491623,-0.01079241931438446,0.08154446631669998,-0.03701303154230118,0.06962450593709946,-0.06969685107469559,0.04560774192214012,-0.034497033804655075,-0.055957891047000885,-0.06349152326583862,0.005353197455406189,0.060143936425447464,0.05284286290407181,0.04161641374230385,-0.07426729053258896,0.04106977581977844,0.027812164276838303,-0.054342787712812424,-0.005849801003932953,-0.028577204793691635,-0.00029733875999227166,0.062031906098127365,0.055412936955690384,-0.041125956922769547,-0.02638089470565319,0.07403770834207535,0.0757988765835762,-0.06213000416755676,-0.07298244535923004,0.06960142403841019,0.04237914830446243,-0.02827661857008934,-0.06164960563182831,0.04706300422549248,-0.03684460371732712,0.048698969185352325,0.028464674949645996,-0.015332799404859543,0.0635802373290062,0.03024078533053398,-0.06549131125211716,-0.021511869505047798,0.036635808646678925,0.08119777590036392,0.017123688012361526,-0.032491009682416916,-0.020782185718417168,-0.04419035464525223,0.07205358892679214,-0.074136883020401,-0.04565996304154396,-0.04049570858478546,-0.058734312653541565,0.03681747987866402,0.05861464515328407,0.07086871564388275,-0.05291532352566719,0.0394812636077404,-0.03039039671421051,0.0861039087176323,0.08249634504318237,-0.056221626698970795,0.07529933005571365,0.06343764066696167,0.06130944564938545,0.02205616980791092,0.07579948008060455,-0.08266059309244156,0.06928631663322449,-0.07174757122993469,0.08499811589717865,0.0328470803797245,0.00038896125624887645,-0.03166941553354263,-0.016906093806028366,-0.006880188826471567,-0.024365084245800972,-0.0762133002281189,-0.026324598118662834,-0.016083883121609688,-0.08003544062376022,0.014880345202982426,-0.03916608542203903,0.05534610524773598,0.04804493859410286,-0.0034796379040926695,0.04984428733587265,0.05213005468249321,-0.06845661252737045,-0.0005897595547139645,-0.045704711228609085,-0.04854352027177811,0.05801011621952057,-0.026223737746477127,-0.035821832716464996,0.059370849281549454,-0.05001498758792877,-0.02277502603828907,-0.00917690247297287,-0.03189215064048767,0.06659068167209625,-0.06347858160734177,-0.03257473185658455,-0.0675225779414177,0.03701960667967796,0.03243625536561012,0.008394871838390827,0.04799358546733856,0.03489679470658302,-0.005872898735105991,0.04323406517505646,-0.0013424470089375973,0.0378451906144619,-0.05041513219475746,0.02409035712480545,0.03504721820354462,0.0018012607470154762,-0.05659252405166626,0.009922657161951065,-0.022197727113962173,0.08175303041934967,-0.002369360299780965,-0.04147317260503769,0.028597693890333176,-0.07246455550193787,0.05669772997498512,-0.0776219516992569,0.07111146301031113,0.015988314524292946,-0.0773215964436531,0.08849237114191055,0.03125264123082161,-0.04371540993452072,-0.06498967111110687,0.0513460673391819,0.012082330882549286,-0.044173091650009155,0.05339710786938667,-0.04112604260444641,0.019184958189725876,-0.050577811896800995,-0.07859702408313751,-0.014410147443413734,0.0069013312458992004,-0.03979302942752838,-0.0018093159887939692,-0.0019314605742692947,-0.04939202591776848,-0.04311734065413475,0.04529079422354698,-0.023425273597240448,-0.07712149620056152,-0.07220188528299332,-0.03522583842277527,-0.014866098761558533,0.042618002742528915,0.000380163750378415,-0.021472159773111343,-0.0695662721991539,-0.035981446504592896,0.06330925226211548,0.040341686457395554,0.06440791487693787,0.03535889461636543,0.028559552505612373,-0.05023396760225296,0.009740741923451424,-0.07131558656692505,-0.03184802085161209,-0.07441402226686478,-0.05195504426956177,0.0639873594045639,0.026152104139328003,-0.0372769869863987,-0.04193772003054619,0.028759382665157318,-0.06289449334144592,0.06176280975341797,0.03810933977365494,-0.07498609274625778,0.0658402368426323,-0.03627606853842735,-0.045400168746709824,0.07472986727952957,0.0030500052962452173,0.061844225972890854,0.011980079114437103,-0.053216226398944855,-0.05646301433444023,0.022827910259366035,-0.03125305101275444,0.02536366507411003,0.03840140253305435,0.030403194949030876,-0.03484990820288658,0.03965851664543152,-0.027601704001426697,-0.03187686204910278,-0.010711551643908024,0.03105335868895054,-0.029083460569381714,-0.0047882599756121635,0.07966430485248566,0.005725156515836716,0.06725019216537476,-0.06942057609558105,0.020117541775107384,-0.08488808572292328,0.01686425693333149,-0.03402300924062729,-0.04573531448841095,0.0017394140595570207,0.03662936016917229,0.023340988904237747,0.07644295692443848,-0.058125145733356476,-0.025491388514637947,-0.024339403957128525,-0.07485514879226685,0.01921127736568451,0.029666345566511154,-0.06378048658370972,0.05592888221144676,0.024442629888653755,0.07676344364881516,0.05247865989804268,-0.036400239914655685,-0.016550472006201744,0.0215620044618845,0.02622969076037407,-0.06092986464500427,-0.08838652819395065,-0.06638951599597931,0.005939505994319916,0.07879078388214111,0.05070144310593605,0.018739042803645134,-0.022066408768296242,0.06822387129068375,-0.058047398924827576,-0.07294740527868271,-0.0018462100997567177,0.08462152630090714,0.03742877021431923,-0.07424873858690262,0.05983918532729149,-0.051316261291503906,-0.05166035518050194,0.05482585355639458,-0.05972442775964737,-0.05852949991822243,-0.05851372331380844,-0.031557049602270126,0.08428996056318283,-0.05259629338979721,0.06239164620637894,0.0061753978952765465,0.04975501820445061,0.06793142110109329,-0.06848034262657166,-0.05704667046666145,-0.019719963893294334,0.053371597081422806,-0.029147297143936157,-0.08450212329626083,0.07011910527944565,0.011217459104955196,0.014614039100706577,0.002452285960316658,-0.032855693250894547,-0.0771259292960167,-0.04071228951215744,-0.01939493604004383,0.006417424883693457,0.057658933103084564,-0.004203573800623417,-0.04669240489602089,-0.02334591932594776,-0.025878695771098137,0.033275388181209564,-0.0717998519539833,0.052900075912475586,-0.02479618787765503,0.042042605578899384,-0.06124144047498703,0.041093502193689346,-0.05439374968409538,0.03030230849981308,-0.009366217069327831,0.08011849969625473,-0.011354653164744377,-0.06824052333831787,0.07483359426259995,-0.008572736755013466,-0.009533513337373734,0.025507092475891113,0.03244531527161598,0.05550292879343033,0.04381265118718147,0.030056096613407135,-0.0730384886264801,-0.050218481570482254,0.05405929684638977,0.07060668617486954,-0.027108976617455482,0.012335379607975483,-0.0054425643756985664,0.04257604852318764,0.03933819383382797,-0.026848092675209045,-0.0009248544811271131,-0.034796152263879776,0.04306384548544884,-0.00966640841215849,0.06924089044332504,-0.05910520255565643,-0.033557113260030746,0.019355347380042076,-0.04764050617814064,0.06477992981672287,0.06061627343297005,-0.06089486554265022,-0.05945715680718422,0.06768576800823212,0.02446482889354229,-0.04212959483265877,-0.06639473885297775,0.05694631487131119,-0.03435983508825302,0.07086297869682312,-0.0062313200905919075,-0.006819096859544516,0.0031929402612149715,0.06345860660076141,-0.002883238485082984,0.05944042652845383,0.04931650310754776,-0.049912527203559875,0.07720299065113068,-0.025715123862028122,0.04737753048539162,-0.012336199171841145,0.0012391218915581703,-0.0066828373819589615,-0.06315301358699799,0.0372127890586853,0.08156219124794006,0.010543197393417358,-0.07586675137281418,-0.05569954961538315,0.04914331063628197,0.04759741574525833,0.03972955793142319,-0.016958072781562805,-0.024343248456716537,-0.0614340640604496,0.04588301107287407,-0.07441028207540512,-0.06790575385093689,-0.06631806492805481,-0.052790045738220215,0.06975709646940231,0.03010695055127144,0.048112381249666214,-0.0210262481123209,0.08169103413820267,0.013019329868257046,-0.08439911156892776,0.06465314328670502,0.07557393610477448,0.026657603681087494,-0.015838511288166046,-0.047278545796871185,0.057037897408008575,-0.042401187121868134,0.05160094425082207,0.0010916541796177626,-0.03682759031653404,-0.005740228574723005,0.05392136052250862,0.05227743461728096,0.02265690080821514,-0.01681498996913433,0.014755474403500557,0.03593384474515915,-0.07324475049972534,-0.07789088785648346,-0.07455416023731232,0.02106664516031742,0.0735643282532692,0.07586294412612915,0.05244467779994011,-0.019253384321928024,0.05593651905655861,-0.07462380826473236,-0.08240538090467453,0.0009452115627937019,0.07096835970878601,0.003287645522505045,-0.02522020787000656,0.01194986142218113,-0.03987912833690643,-0.0524274967610836,-0.008712636306881905,-0.015030181966722012,-0.03445586934685707,-0.015953488647937775,-0.07479941099882126,0.04979429394006729,0.048438359051942825,0.04640793055295944,0.0262837465852499,0.06665999442338943,-0.0010468882974237204,-0.06972559541463852,0.01749552972614765,-0.02105262130498886,0.011249000206589699,-0.05572640523314476,-0.02322019450366497,-0.0044970824383199215,-0.046565018594264984,-0.04945201799273491,-0.07934527844190598,0.07605856657028198,-0.022466862574219704,-0.01226605661213398,0.06268863379955292,-0.037233736366033554,0.06281007081270218,-0.043621160089969635,-0.0737757533788681,0.01023321133106947,-0.00168191222473979,-0.059229232370853424,0.030818883329629898,0.007689173333346844,0.00724826380610466,0.05352536961436272,0.07043267786502838,-0.08483749628067017,0.004483806900680065,-0.019636573269963264,-0.07051298767328262,0.02095678076148033,-0.02889065258204937,0.007358481641858816,-0.03282008320093155,0.03693895414471626,-0.04280555248260498,0.007755002938210964,0.05561293661594391,-0.0049177976325154305,-0.0001329362712567672,0.06582894176244736,-0.013879453763365746,-0.003912501502782106,0.04254334047436714,-0.030428072437644005,0.02674083039164543,-0.03592140972614288,0.07659883052110672,-0.059154752641916275,0.007081164047122002,-0.028271829709410667,-0.08373770862817764,-0.0821954756975174,-0.0772080048918724,-0.07862868160009384,-0.013679406605660915,0.04378325119614601,0.02202432043850422,-0.059012919664382935,0.02996465377509594,0.04151393845677376,-0.08657785505056381,-0.013840573839843273,-0.07150476425886154,0.06376513093709946,0.06027088314294815,-0.028548454865813255,0.07768154889345169,0.006637888960540295,-0.08641619235277176,0.03608120605349541,0.005917171016335487,-0.0854734480381012,-0.07871785759925842,-0.07783456891775131,0.05424681305885315,0.026039568707346916,0.07751139253377914,-0.039601635187864304,-0.010484477505087852,0.06320814788341522,-0.008167157880961895,0.00024282179947476834,0.05160079523921013,0.08010370284318924,-0.053546611219644547,-0.07617613673210144,-0.02867731638252735,0.049916625022888184,0.009762628003954887,-0.0810738354921341,-0.020451102405786514,0.055638108402490616,-0.05760214850306511,0.07440431416034698,0.004435527138411999,0.033350713551044464,0.07459156960248947,0.04431586340069771,-0.018970709294080734,0.0005403660470619798,-0.019153138622641563,0.061192017048597336,-0.07813515514135361,-0.03766533359885216,-0.004093570169061422,-0.014193331822752953,0.05541623383760452,0.061247650533914566,0.009664755314588547,-0.07030709832906723,-0.04845988750457764,-0.0029178489930927753,-0.016818908974528313,-0.07666006684303284,0.03709569200873375,-0.006967226974666119,-0.015792250633239746,-0.018913496285676956,0.05559626594185829,-0.0759473666548729,0.046823155134916306,-0.08164625614881516,-0.0784691870212555,-0.008541190065443516,-0.08083406835794449,0.06479307264089584,0.05239206552505493,-0.008520441129803658,-0.06600930541753769,0.06560162454843521,-0.08493030071258545,0.02274615690112114,0.0015106515493243933,-0.06448060274124146,-0.08603108674287796,0.01453507412225008,0.014861092902719975,0.04307940602302551,-0.016519838944077492,-0.030430341139435768,0.0740126222372055,0.006368645932525396,0.020670372992753983,0.018961479887366295,0.012598885223269463,0.0605773888528347,0.07397839426994324,-0.03302125632762909,-0.053440701216459274,0.028526438400149345,-0.05476401373744011,0.03883891925215721,0.08117315173149109,-0.061663880944252014,0.06760793179273605,0.045384421944618225,-0.012199681252241135,-0.048250019550323486,0.044686973094940186,0.07792790234088898,0.05209977924823761,-0.043038759380578995,-0.031894829124212265,-0.07188935577869415,-0.01320930477231741,-0.035361167043447495,0.0029583144932985306,-0.06205868721008301,-0.06965254992246628,0.028430916368961334,0.04664110019803047,-0.0574372299015522,0.07615120708942413,-0.004904501605778933,-0.012499293312430382,0.048187658190727234,0.060453034937381744,-0.004284015391021967,0.04874931648373604,0.011577900499105453,0.013279634527862072,-0.03089064545929432,0.04113767668604851,0.011793245561420918,0.06853076815605164,-0.005209437105804682,0.020749764516949654,0.01683526113629341,-0.02825801447033882,-0.024054763838648796,-0.044843222945928574,0.0405951663851738,0.045477718114852905,-0.030385654419660568,0.02790490724146366,0.04376942291855812,0.030785199254751205,-0.0752241313457489,0.02941860817372799,0.02972359023988247,0.05047051981091499,-0.049602773040533066,-0.018408391624689102,0.07888662070035934,-0.04247022047638893,-0.06597883254289627,-0.015190747566521168,0.04602358117699623,0.06022206321358681,-0.033969078212976456,0.03660279139876366,0.017677728086709976,-0.07938909530639648,0.020853789523243904,-0.03064826689660549,0.05490988492965698,0.07922491431236267,-0.055305227637290955,-0.03766889125108719,0.0749150812625885,-0.059490837156772614,-0.05049958825111389,-0.026971226558089256,-0.01677568629384041,-0.060078661888837814,0.07410229742527008,-0.034235261380672455,-0.05818130820989609,0.03896951675415039,0.05831962823867798,-0.08045685291290283,0.058863043785095215,0.03129973262548447,0.03722858428955078,-0.06814508885145187,0.06483527272939682,-0.0066196671687066555,0.06144712492823601,-0.07697763293981552,0.06392806768417358,-0.006663259584456682,0.05650869011878967,0.009389394894242287,-0.05241505056619644,-0.069898322224617,-0.02434002421796322,0.025843843817710876,0.041057098656892776,-0.044269997626543045,-0.04787812381982803,-0.002073091920465231,0.08133792877197266,-0.07677038013935089,0.06003791093826294,-0.049950990825891495,0.07908124476671219,0.0746331512928009,-0.05812133103609085,-0.03842320665717125,0.02399418316781521,-0.02181636355817318,0.055243175476789474,-0.028411099687218666,-0.03819499537348747,0.04784882068634033,-0.034362319856882095,0.05325159803032875,0.02383311092853546,0.00364957214333117,0.07784992456436157,0.08575552701950073,-0.02670363336801529,0.07519707828760147,0.08206869661808014,0.06507174670696259,0.018080951645970345,-0.040297240018844604,-0.06914744526147842,-0.031187953427433968,-0.07364829629659653,-0.0787038654088974,-0.06886816769838333,-0.06364145129919052,-0.022244513034820557,0.06288287788629532,0.016212938353419304,-0.01452630665153265,-0.011242461390793324,-0.055223096162080765,-0.052024394273757935,0.00721635390073061,-0.02108101360499859,0.06322997063398361,0.07820197194814682,-0.0362853929400444,0.05941571295261383,-0.053003694862127304,0.050012387335300446,-0.052109528332948685,-0.010008305311203003,-0.044267985969781876,0.08345825970172882,0.07724281400442123,0.04988842085003853,0.04823829233646393,-0.08266551047563553,-0.008902487345039845,-0.07639071345329285,0.022965621203184128,0.019675573334097862,0.0826459601521492,0.06936915963888168,0.006311907432973385,-0.021673079580068588,-0.05778440833091736,0.041131000965833664,-0.06001465767621994,-0.08230719715356827,-0.06689311563968658,0.005422164220362902,-0.03897903114557266,-0.08143715560436249,-0.017448648810386658,0.08111608773469925,-0.028802886605262756,0.016221804544329643,-0.05842021852731705,-0.002057089237496257,-0.046576227992773056,-0.02364025078713894,-0.019584896042943,0.01649598591029644,-0.026564227417111397,0.0051937708631157875,0.06334055215120316,-0.033421751111745834,-0.04630802571773529,0.02203519642353058,0.06898702681064606,-0.08013623207807541,-0.02583182603120804,-0.001106120878830552,0.002242297399789095,0.039609141647815704,-0.03637893125414848,-0.06173165142536163,-0.0012240071082487702,-0.03268735483288765,-0.053618647158145905,-0.06968235224485397,-0.039459630846977234,0.06299448013305664,0.06628032773733139,-0.07403122633695602,-0.07694379985332489,-0.027795912697911263,-0.027851823717355728,0.0330774188041687,-0.024179138243198395,0.048646993935108185,-0.016288569197058678,-0.04925534501671791,0.05699729546904564,0.04795350506901741,-0.058219246566295624,0.043588437139987946,-0.03256076201796532,-0.07430554926395416,0.02234436385333538,-0.019385863095521927,-0.08522000908851624,0.008302699774503708,-0.004715819843113422,-0.08384396135807037,-0.08034393936395645,0.044226955622434616,-0.04128362610936165,-0.04141415283083916,-0.043300118297338486,0.010423255153000355,-0.07940973341464996,-0.045242276042699814,-0.019117532297968864,0.045439913868904114,0.007599633187055588,-0.027359092608094215,0.05327412486076355,-0.012431890703737736,-0.02779269963502884,0.07638105005025864,-0.024040481075644493,0.018083730712532997,0.01830998994410038,0.00413249246776104,-0.07274580001831055,-0.032896291464567184,0.011853580363094807,-0.040766727179288864,-0.05375497043132782,-0.04425271227955818,-0.008037363179028034,-0.026125706732273102,0.058872245252132416,0.03573742136359215,0.007349284365773201,-0.026550577953457832,0.02624361403286457,0.0660489946603775,0.0072905514389276505,0.029531972482800484,-0.036225613206624985,-0.045631106942892075,0.05835551396012306,-0.021529141813516617,-0.08537312597036362,-0.0382031574845314,0.005125506315380335,-0.028461845591664314,-0.07715823501348495,0.018564332276582718,0.06953707337379456,-0.05535349249839783,0.039685361087322235,-0.06860040128231049,-0.018351681530475616,0.013305176980793476,-0.00043222258682362735,-0.0398198664188385,-0.07492326200008392,0.05471887066960335,0.056059785187244415,-0.06689058989286423,0.05298016220331192,-0.05020447075366974,0.07593686878681183,0.06537342816591263,-0.05611525848507881,0.05408124998211861,0.06447471678256989,0.05324708670377731,0.06182399392127991,0.08120136708021164,0.07908599823713303,0.08970445394515991,0.026575738564133644,0.01918128691613674,-0.06641823798418045,-0.07224537432193756,0.05542246252298355,0.0005160263390280306,-0.01470575574785471,0.01301633846014738,0.048699021339416504,0.018775857985019684,0.04796401783823967,-0.05126039683818817,-0.03166026249527931,0.015223247930407524,0.06959162652492523,-0.017077583819627762,-0.06738554686307907,0.03974965959787369,0.05532504618167877,-0.08602099120616913,-0.04628926143050194,-0.06862666457891464,-0.058064281940460205,0.05706334114074707,0.029850315302610397,0.03348600119352341,0.021359559148550034,-0.05579185485839844,0.0178548414260149,0.017719799652695656,-0.0569133423268795,0.040711309760808945,0.01067788153886795,0.0197592843323946,0.05053403601050377,0.017216209322214127,0.02583429217338562,-0.0006790889310650527,-0.015346601605415344,0.0829286277294159,-0.05618787556886673,-0.03396820276975632,-0.060611266642808914,0.04072389006614685,0.005158528685569763,-0.056115470826625824,0.006424274295568466,0.03981292247772217,-0.07510700821876526,-0.023355063050985336,0.05096365511417389,-0.046797432005405426,0.008414608426392078,0.05148736760020256,-0.014626042917370796,0.027945002540946007,-0.006480070296674967,-0.05541359260678291,0.029880341142416,0.04547358304262161,0.07446805387735367,0.07711604982614517,0.031674761325120926,-0.0867728590965271,0.06529784202575684,-0.02535405382514,-0.019459547474980354,0.0010831293184310198,-0.0467706136405468,-0.07008673250675201,-0.08295240998268127,0.07815560698509216,0.05326711758971214,-0.0025325024034827948,0.02285410650074482,0.05200939252972603,0.0014442227547988296,-0.06934651732444763,0.04557865858078003,-0.06601158529520035,0.03984681889414787,0.05249125510454178,0.061213765293359756,-0.04793666675686836,0.04730704054236412,-0.06099383533000946,-0.030970130115747452,0.0443338118493557,-0.07021579146385193,-0.01163571048527956,-0.08009953796863556,-0.010641878470778465,-0.023597920313477516,-0.04398239031434059,-0.02029484696686268,0.010575329884886742,-0.08151232451200485,-0.04813212528824806,0.009394509717822075,-0.0326097346842289,-0.05020299181342125,-0.06950737535953522,0.038309868425130844,0.018496721982955933,0.02541893534362316,-0.011613368056714535,-0.07449802756309509,0.04567239433526993,0.02436593733727932,0.06597088277339935,0.002149463165551424,-0.05898120999336243,-0.00519392779096961,0.05630001425743103,-0.06932637095451355,0.033482227474451065,0.04244402423501015,-0.0598662868142128,0.004755831323564053,-0.040881335735321045,-0.04920586198568344,0.06725170463323593,0.05924537405371666,0.06217789277434349,0.06799055635929108,0.027825424447655678,0.050676338374614716,0.008131951093673706,0.056194428354501724,0.04500983655452728,-0.0750640258193016,0.0644102394580841,-0.007880054414272308,-0.01040702499449253,-0.07110515981912613,0.06558459997177124,0.031118832528591156,0.028369396924972534,0.017140120267868042,-0.009056339971721172,-0.008819526061415672,0.023284301161766052,0.05953643471002579,0.052213650196790695,-0.0412636399269104,-0.06102779507637024,-0.06600642949342728,-0.023145193234086037,0.006751717533916235,-0.0075030941516160965,0.043844740837812424,-0.062372997403144836,0.014637649990618229,-0.02538878470659256,-0.06724923104047775,0.06962759047746658,0.046685896813869476,0.05404958128929138,0.03281044214963913,0.029774697497487068,-0.06863280385732651,0.061796899884939194,-0.00885150395333767,-0.038366660475730896,-0.07718577235937119,-0.05116003006696701,-0.08245446532964706,0.07894916832447052,0.0581805594265461,-0.013112413696944714,-0.03830185532569885,-0.06965802609920502,0.061772946268320084,0.0124564403668046,-0.0077486177906394005,0.037129200994968414,0.07591709494590759,-0.0757121592760086,-0.023570066317915916,0.018492888659238815,-0.047094617038965225,-0.06528794020414352,-0.06505975872278214,-0.009135966189205647,0.04227056726813316,-0.0719718411564827,-0.014594938606023788,0.06396710127592087,-0.06174934282898903,-0.0319925993680954,-0.07721634209156036,0.0811830386519432,-0.0047323694452643394,0.00552393589168787,-0.012044238857924938,0.052936848253011703,-0.02374885603785515,0.04455014690756798,-0.016985556110739708,0.024672703817486763,0.07362625747919083,-0.035776834934949875,-0.03699145466089249,-0.07099530100822449,0.019136633723974228,-0.02121044509112835,-0.047465283423662186,0.04253964498639107,0.04614489898085594,0.0297000203281641,-0.054210782051086426,-0.01445064414292574,-0.01171803753823042,-0.031894609332084656,0.019625019282102585,-0.0024845334701240063,-0.038943417370319366,0.06896237283945084,-0.03748215362429619,0.0434870719909668,0.07627949863672256,-0.06907712668180466,-0.04557832330465317,-0.03423062339425087,0.057767078280448914,-0.07476713508367538,0.037768829613924026,0.02919657528400421,0.014149458147585392,0.043751105666160583,-0.08899793028831482,-0.01697474904358387,0.017147056758403778,-0.06354571878910065,0.03795614466071129,-0.045070942491292953,-0.00350516801699996,0.025360917672514915,-0.08055871725082397,-0.07238926738500595,-0.042376916855573654,0.015387690626084805,-0.005170406308025122,0.03637814149260521,0.06830791383981705,0.05096402019262314,-0.006770118605345488,0.08461416512727737,0.03765574470162392,-0.08182422071695328,0.018153557553887367,-0.04689735174179077,0.05559351667761803,0.01070347148925066,-0.010290351696312428,-0.018624519929289818,0.08338755369186401,-0.013877838850021362,-0.06636980175971985,-0.013926194980740547,-0.030348127707839012,-0.08212003856897354,-0.06938664615154266,0.06291070580482483,-0.039425116032361984,0.05106605216860771,-0.05587882548570633,0.04736452177166939,-0.06699129194021225,-0.04055679962038994,-0.06945262849330902,-0.012617834843695164,-0.01289740577340126,0.03539776802062988,-0.06406570225954056,0.018786601722240448,-0.0571872815489769,-0.0719238743185997,0.05298672989010811,-0.03589942306280136,0.011657639406621456,0.05454864725470543,0.017097337171435356,0.018431860953569412,-0.076799675822258,-0.08040233701467514,-0.023132411763072014,-0.07338064908981323,-0.016796255484223366,-0.004875329323112965,0.0801486223936081,-0.03784915432333946,-0.04455140605568886,0.0616532564163208,0.019686484709382057,-0.023977095261216164,0.03160388022661209,-0.06123868748545647,-0.012702170759439468,0.014207268133759499,-0.07420285046100616,-0.03421862795948982,0.04521804675459862,-0.05099818482995033,-0.05605059862136841,0.03832584246993065,-0.008787311613559723,-0.0643848106265068,-0.08347524702548981,-0.03830549493432045,0.05977265164256096,0.05415632203221321,0.06364473700523376,-0.0689070001244545,0.03584139794111252,-0.0179744902998209,-0.016647862270474434,0.06859608739614487,0.02123318612575531,-0.08294506371021271,-0.017308590933680534,0.05438908189535141,-0.05079743638634682,-0.025081193074584007,-0.035392723977565765,-0.06604749709367752,-0.08530362695455551,0.020890219137072563,-0.039597827941179276,0.07025787234306335,0.031577564775943756,0.047020576894283295,-0.047524720430374146,0.0434337854385376,-0.07753511518239975,-0.02294814959168434,0.03689456731081009,-0.03917057812213898,-0.05921602249145508,0.024129759520292282,0.005127627402544022,-0.07079000025987625,-0.01204444095492363,-0.04057173430919647,0.04723087698221207,-0.011295485310256481,0.025011718273162842,0.021067501977086067,0.0702616274356842,-0.0076607586815953255,-0.08193397521972656,0.03327002003788948,-0.06417186558246613,0.034140270203351974,0.04460297152400017,-0.056773290038108826,0.0261278934776783,-0.038244668394327164,-0.05308902636170387,0.06165951117873192,0.07702325284481049,-0.017766715958714485,-0.08265013992786407,0.05478528141975403,0.07392428815364838,-0.009723716415464878,0.02179117500782013,-0.07469215989112854,0.02578122355043888,0.07233089208602905,0.05315311253070831,-0.06139944866299629,0.02999023348093033,0.0641508623957634,-0.027475615963339806,0.07262807339429855,0.06464456021785736,-0.015525569207966328,-0.07389822602272034,-0.02559569664299488,-0.060486290603876114,-0.026948558166623116,-0.01768263801932335,0.03359510004520416,0.016566116362810135,-0.025996346026659012,0.017875997349619865,0.07694747298955917,-0.04117035120725632,0.004521808121353388,-0.05225968733429909,0.037355776876211166,-0.012874715961515903,0.06628762930631638,-0.08047694712877274,0.00873563438653946,-0.014152956195175648,0.0004962522652931511,0.027363749220967293,0.037780869752168655,0.03852386772632599,0.007882178761065006,0.00538238137960434,-0.0655207708477974,0.05568299815058708,0.002257890999317169,-0.07786599546670914,0.013249218463897705,-0.058432500809431076,-0.052968889474868774,0.04699674993753433,0.027887757867574692,-0.03756846487522125,-0.018006324768066406,-0.0688457190990448,-0.02451200596988201,-0.004472864326089621,-0.0029044693801552057,0.004923009779304266,-0.061031654477119446,-0.06545177847146988,0.06960538029670715,0.08728001266717911,0.06734443455934525,-0.004949367605149746,0.0020076057408005,0.02666938304901123,-0.01651286520063877,0.023209989070892334,-0.07623610645532608,-0.067711241543293,-0.021211441606283188,0.029294466599822044,-0.012040768750011921,0.033081866800785065,0.05347132682800293,0.07361782342195511,0.031544435769319534,-0.015795614570379257,0.06920473277568817,0.06017838791012764,0.021388476714491844,0.0006694382173009217,-0.055221136659383774,0.020515944808721542,-0.08496183156967163,-0.051574986428022385,0.003954062703996897,-0.061586491763591766,0.07489462941884995,0.07209105789661407,0.035090118646621704,-0.044450581073760986,0.03383978083729744,-0.012235760688781738,-0.05147144943475723,0.04011338949203491,0.06668103486299515,-0.058178991079330444,0.013709960505366325,-0.08324557542800903,-0.05943438038229942,-0.020071495324373245,-0.010536428540945053,-0.011525212787091732,-0.06721770018339157,0.07491447031497955,0.04934408888220787,-0.07828379422426224,-0.048379067331552505,0.014345531351864338,0.049306295812129974,-0.028930898755788803,-0.01422160305082798,-0.0771300420165062,0.08550580590963364,-0.06250057369470596,0.05398434400558472,-0.03211323916912079,0.05616379901766777,-0.026762783527374268,-0.03045133873820305,-0.020574217662215233,0.07887894660234451,0.04359566420316696,-0.050306010991334915,0.035954952239990234,0.05562568083405495,0.07512662559747696,-0.059606924653053284,0.05527007579803467,0.04048320651054382,0.07931240648031235,0.0824512168765068,-0.018031170591711998,0.007321198936551809,-0.01982390694320202,-0.06856320798397064,-0.026235206052660942,-0.05587906017899513,0.036475520581007004,-0.030580272898077965,-0.03630862012505531,0.053027018904685974,0.06287796795368195,-0.07752980291843414,-0.03446469455957413,-0.08129661530256271,-0.06632794439792633,0.047492146492004395,-0.037225525826215744,0.05211189389228821,-0.04485110938549042,0.03091978281736374,-0.04546196386218071,-0.06601088494062424,-0.022424399852752686,0.027690036222338676,-0.02727796509861946,0.07708610594272614,0.07790207862854004,-0.08204039931297302,0.013284618966281414,0.005682534538209438,0.0035508768633008003,-0.011019650846719742,0.02827221155166626,-0.055094122886657715,-0.07513891905546188,0.04571126773953438,-0.05144086852669716,-0.02605293318629265,-0.013787728734314442,-0.025843756273388863,0.0757884606719017,0.06868147104978561,0.06117401644587517,0.059162311255931854,0.019979018718004227,-0.059263892471790314,0.0570967011153698,-0.011097494512796402,0.030117632821202278,-0.08205033838748932,0.015524041838943958,0.010964589193463326,-0.027286294847726822,0.011605605483055115,0.03757824748754501,-0.019618365913629532,-0.0055267116986215115,0.010072126984596252,-0.016277236863970757,-0.0488751195371151,-0.06018701568245888,0.05397577956318855,-0.03512781113386154,-0.04015588015317917,-0.008577659726142883,-0.031183483079075813,-0.02779889665544033,0.04335572570562363,-0.08410374820232391,0.05683652311563492,-0.0580487884581089,0.0419522263109684,-0.04116150364279747,-0.07497046142816544,0.06752428412437439,-0.0014340224443003535,0.06862685829401016,0.006079259794205427,-0.0138844083994627,0.04054247587919235,0.007319401949644089,-0.021102387458086014,0.03981299325823784,-0.05756884813308716,0.031245732679963112,-0.014317014254629612,0.056741658598184586,0.020730862393975258,-0.07970330119132996,0.03570926934480667,-0.07910186052322388,0.07009320706129074,0.0359572134912014,-0.0597216822206974,0.0635908916592598,-0.07962349057197571,0.06256401538848877,0.060394011437892914,-0.06861601024866104,0.03380200266838074,0.03216450661420822,-0.0030394489876925945,0.006191774271428585,0.07462174445390701,-0.04923974722623825,-0.04432878643274307,-0.04593374580144882,0.0637989491224289,0.04887714236974716,-0.003958128392696381,-0.0069131869822740555,-0.008513466455042362,0.04286879673600197,-0.03133731335401535,-0.02814212627708912,-0.07707596570253372,-0.019439993426203728,-0.08148293942213058,0.023304300382733345,0.060140036046504974,0.027986498549580574,-0.06702785938978195,-0.06824329495429993,0.07819020748138428,0.06331954896450043,0.0637759119272232,0.02077651396393776,0.01004951074719429,0.00010717861005105078,-0.04307425767183304,-0.07799277454614639,-0.03555018827319145,0.0020376848988234997,0.021106809377670288,0.04481782019138336,0.007050610147416592,-0.0630229115486145,-0.05284236744046211,-0.07939887791872025,0.043013039976358414,0.017798488959670067,0.06820455193519592,-0.06590339541435242,-0.05531146377325058,0.07860299944877625,0.052940525114536285,0.015116636641323566,-0.029526453465223312,0.05206108093261719,0.0010918251937255263,-0.03128333389759064,-0.06018581986427307,0.04675313085317612,0.06039898097515106,0.06299301236867905,-0.025016311556100845,-0.004449926316738129,0.07830150425434113,-0.034751467406749725,0.03683317452669144,0.008970042690634727,-0.038666725158691406,0.014134814962744713,0.03291122987866402,0.07046166807413101,0.05599986016750336,-0.05530397221446037,0.04212668538093567,-0.028921162709593773,-0.073863685131073,0.07796908169984818,0.07727912068367004,-0.06007932871580124,-0.018436972051858902,0.03630070760846138,0.018306169658899307,0.03927095979452133,-0.06390049308538437,0.06645575165748596,-0.0021520061418414116,-0.07603587210178375,0.0007812038529664278,0.023750778287649155,-0.027947798371315002,-0.03370058164000511,0.028494257479906082,0.030864333733916283,0.07186204195022583,0.070925273001194,-0.08332406729459763,-0.0584198497235775,-0.02559754066169262,-0.0018842621939256787,0.03151550516486168,-0.02791283093392849,-0.017642484977841377,0.004998527932912111,0.024820426478981972,-0.033172979950904846,-0.017822446301579475,0.01277538575232029,0.0005064029828645289,-0.02309245802462101,0.013236857019364834,-0.08550387620925903,0.017182866111397743,-0.08154532313346863,0.06821378320455551,0.005831378046423197,0.0602559968829155,0.0387737937271595,0.01327747106552124,-0.02936030738055706,-0.050407491624355316,-0.020149772986769676,0.0273881908506155,0.043121352791786194,0.03179433196783066,-0.03630242496728897,-0.02046363428235054,-0.02020612731575966,-0.0752653032541275,0.07060407847166061,-0.027844704687595367,0.07578173279762268,-0.007801942527294159,-0.02543656714260578,0.01767415553331375,-0.03693253919482231,0.04932110756635666,-0.07674706727266312,0.021274719387292862,-0.015436403453350067,0.022078698500990868,0.040782827883958817,0.006892529781907797,0.012048890814185143,-0.03101569414138794,-0.0013787462376058102,0.037177979946136475,0.047395963221788406,-0.06643449515104294,0.04996531829237938,-0.07571354508399963,0.002506502903997898,-0.02680286578834057,-0.07400306314229965,-0.0762232095003128,-0.014476214535534382,0.05633893981575966,0.03162090852856636,0.07496200501918793,-0.04982550069689751,0.03702359274029732,-0.08141562342643738,0.04339691624045372,-0.04825598746538162,-0.06985149532556534,-0.06428420543670654,0.039726775139570236,0.04736057296395302,0.07750879228115082,0.02537076361477375,0.01928977482020855,0.001878358656540513,-0.03795280307531357,-0.03745729476213455,0.041356731206178665,0.002293297089636326,0.0420013926923275,0.05886770039796829,-0.010711992159485817,0.007264188025146723,0.020113937556743622,-0.07249332964420319,-0.013799719512462616,0.015514840371906757,0.008001039735972881,-0.0322154238820076,0.04002118110656738,-0.08093942701816559,-0.04473448917269707,0.029873555526137352,-0.004628716967999935,-0.01645263470709324,0.05437061935663223,-0.05879581719636917,0.05480513349175453,-0.011923367157578468,-0.08854029327630997,-0.0558563657104969,-0.03847813978791237,-0.06001528725028038,0.0073020788840949535,0.04793418571352959,0.0377156138420105,0.0019483186770230532,0.02462931163609028,0.042907774448394775,-0.05692825838923454,0.035529159009456635,0.0386199988424778,0.015055329538881779,0.02886134572327137,-0.06392350792884827,-0.012420480139553547,-0.0220046304166317,0.013940702192485332,-0.047069236636161804,0.06444267183542252,0.037671733647584915,0.013189051300287247,0.061308376491069794,-0.042881764471530914,0.060868848115205765,-0.04068843275308609,0.07439490407705307,-0.03689894452691078,-0.02365955151617527,-0.053493138402700424,0.06992921978235245,-0.009266693145036697,0.027841530740261078,0.07318434864282608,-0.08025737851858139,-0.07248037308454514,0.048954419791698456,0.030994923785328865,-0.05369063466787338,-0.027782900258898735,0.05761875957250595,0.08133401721715927,0.06191003695130348,-0.005511609371751547,-0.04842452332377434,-0.044386256486177444,0.045168906450271606,-0.039910852909088135,-0.0760924369096756,0.051448144018650055,-0.014770339243113995,-0.02216593734920025,0.008110081776976585,-0.05472757667303085,-0.030444463714957237,-0.012987901456654072,-0.017196249216794968,0.0465148463845253,-0.05605938285589218,-0.02286299504339695,-0.02426423504948616,-0.008461453020572662,0.06892095506191254,-0.058119919151067734,0.048347391188144684,0.020074689760804176,0.044890549033880234,0.07071012258529663,-0.052147027105093,0.06862621754407883,-0.03462117537856102,0.0780615359544754,0.043820880353450775,-0.06349995732307434,-0.02994094416499138,0.08334728330373764,-0.0015128629747778177,-0.05808306857943535,0.06547006219625473,-0.026150839403271675,-0.02459774725139141,0.06871195882558823,-0.027260934934020042,0.048137638717889786,0.05121571570634842,-0.05906941369175911,-0.05669094994664192,0.0029766978695988655,0.027756167575716972,0.00319699477404356,-0.05264038220047951,0.03948260098695755,-0.01636682264506817,0.007066000252962112,-0.019761189818382263,-0.055325333029031754,0.0013097021728754044,0.003798759076744318,-0.028827223926782608,0.046887703239917755,0.0719534233212471,-0.018251515924930573,0.016415705904364586,0.061517588794231415,0.02884676307439804,-0.0382082425057888,0.05730802193284035,0.006666116416454315,0.029073644429445267,-0.0325489267706871,-0.031549714505672455,-0.02495521865785122,0.04784591868519783,-0.0026850891299545765,-0.046491846442222595,-0.016838163137435913,0.04947175085544586,0.0022455183789134026,0.04871733486652374,-0.04470601677894592,0.026123560965061188,-0.03360801935195923,0.07704579830169678,0.032131485641002655,-0.04163055494427681,-0.05900576338171959,0.03807581961154938,0.05819501727819443,0.051091477274894714,0.07997965812683105,0.085526242852211,0.018752558156847954,-0.0637277290225029,-0.08443810045719147,-0.06199922040104866,-0.050645068287849426,-0.036320168524980545,0.010603311471641064,-0.07132703065872192,-0.02552998624742031,-0.058596182614564896,-0.0003055316919926554,-0.036663562059402466,0.07453108578920364,-0.012063086964190006,0.01975272223353386,-0.008103542029857635,-0.039617590606212616,0.010660912841558456,-0.04333401098847389,-0.06967607140541077,0.07986307889223099,0.024502726271748543,-0.042655568569898605,0.07643921673297882,0.07024028897285461,-0.04015878587961197,-0.08914975076913834,-0.005115276202559471,0.019151756539940834,0.03670870140194893,-0.0588986910879612,-0.02877054363489151,0.040109604597091675,-0.0737195834517479,0.0593813955783844,0.04587511345744133,-0.011983687989413738,-0.06532106548547745,0.08642890304327011,-0.0174674391746521,0.040485259145498276,0.03529611602425575,0.018987879157066345,-0.03446854650974274,0.07519550621509552,-0.02860904484987259,0.041126396507024765,-0.07646813243627548,0.05950603634119034,0.04700092971324921,-0.00824673380702734,-0.025708334520459175,0.0635160580277443,0.034688811749219894,-0.03679957613348961,0.07353068143129349,0.05829435959458351,0.08089256286621094,-0.05356654152274132,0.05000545084476471,0.06759072095155716,0.06027376279234886,-0.07921428978443146,-0.02427322044968605,0.05042729154229164,-0.053332533687353134,-0.0029718608129769564,-0.04589882120490074,-0.05298303812742233,0.03456687182188034,0.06242721527814865,0.010843193158507347,0.0530749149620533,-0.0607522614300251,0.07257036119699478,0.04258638992905617,0.05632229521870613,-0.07247505336999893,-0.025233255699276924,0.035096339881420135,0.014092833735048771,0.025135410949587822,0.021319696679711342,0.03145771473646164,0.027654964476823807,0.06680241227149963,0.011020408943295479,0.06799323856830597,0.05836460366845131,0.013387166894972324,-0.06861774623394012,0.024378066882491112,-0.039263512939214706,-0.001696087303571403,-0.03794149309396744,0.061176497489213943,0.07524492591619492,0.047994308173656464,-0.025463704019784927,-0.038392867892980576,0.010275570675730705,0.05295693129301071,-0.03938717022538185,-0.06551287323236465,-0.05177726969122887,0.035390906035900116,-0.048917628824710846,0.032181426882743835,-0.05363263562321663,-0.06389439105987549,-0.01608726941049099,0.06930796056985855,-0.014923501759767532,0.03801397606730461,0.07402366399765015,-0.08034002035856247,0.01530400849878788,-0.08706511557102203,0.0448584221303463,-0.07274142652750015,-0.06104930117726326,-0.012216838076710701,0.0864056944847107,-0.013886447064578533,0.04397983103990555,0.0018183053471148014,-0.03504158928990364,-0.07351099699735641,0.0740584060549736,-0.03443455323576927,-0.007789325900375843,-0.07815777510404587,0.010852575302124023,0.02921605296432972,-0.031914155930280685,0.06580202281475067,-0.08034371584653854,0.012389816343784332,0.034113481640815735,-0.03579316288232803,0.03443154692649841,-0.07734009623527527,-0.08495268225669861,-0.057587213814258575,0.07255639880895615,-0.05682123824954033,0.048031121492385864,0.061942849308252335,-0.07871682196855545,0.04795703664422035,-0.03161238506436348,-0.05820097029209137,-0.014283929951488972,-0.032206419855356216,0.03119826130568981,0.025995226576924324,0.03169599175453186,-0.04210890829563141,-0.0032379901967942715,-0.04043072462081909,0.07062001526355743,0.03971925750374794,-0.016826163977384567,0.07948768138885498,-0.0337921604514122,-0.07377638667821884,-0.025079555809497833,-0.06776192784309387,-0.02241414040327072,-0.029921656474471092,-0.046563249081373215,0.013375991024076939,-0.05926015228033066,0.015230120159685612,-0.0008909779717214406,0.035918328911066055,0.06411954015493393,0.01591378264129162,-0.05984858423471451,-0.05017600581049919,-0.01332388911396265,-0.05006035417318344,0.05056731402873993,0.05773480236530304,-0.06396748870611191,0.004415147937834263,-0.05766835808753967,0.043965645134449005,-0.06621584296226501,-0.0790090411901474,0.051998842507600784,0.05854120850563049,-0.013185108080506325,0.05341591686010361,-0.026130085811018944,-0.043887365609407425,0.0847512036561966,0.05271444469690323,0.010478643700480461,0.04691227525472641,-0.0029329031240195036,-0.06972934305667877,0.05080440640449524,0.0035724628251045942,-0.06283324956893921,0.06430986523628235,-0.02056644670665264,0.03720291703939438,0.03705284371972084,-0.05266726016998291,0.04685196280479431,0.03107091411948204,-0.03147793933749199,-0.010339334607124329,-0.07038935273885727,0.04248881712555885,0.026484161615371704,0.017070572823286057,-0.010562581941485405,-0.0640537217259407,0.08259006589651108,0.061331607401371,0.07175309956073761,0.025247719138860703,0.029963133856654167,-0.06119591370224953,0.06125516816973686,-0.02211805433034897,0.05011451244354248,-0.013022426515817642,-0.0052040801383554935,-0.03945256769657135,0.07502512633800507,0.05953231453895569,0.046972014009952545,-0.006191232241690159,0.05544605106115341,-0.011762739159166813,0.026433581486344337,0.009601338766515255,-0.0009736196370795369,-0.06420454382896423,0.028470760211348534,0.07739074528217316,0.018760746344923973,0.06370338052511215,-0.05696583539247513,0.07830004394054413,-0.07015890628099442,0.0829622745513916,0.03262680023908615,0.005976592656224966,0.06326336413621902,-0.053128939121961594,0.06423278152942657,-0.05512978509068489,0.030056675896048546,0.01643231511116028,-0.05657491460442543,-0.07591824233531952,-0.007843919098377228,0.05873391032218933,-0.01878497749567032,-0.08656875789165497,0.045998986810445786,0.05649689584970474,-0.07413557916879654,0.04655392840504646,0.030774516984820366,-0.06477413326501846,-0.06757122278213501,-0.030920136719942093,0.0005109545309096575,0.06720057874917984,-0.07843619585037231,0.027174271643161774,-0.05187973752617836,0.07219478487968445,-0.016006331890821457,-0.08412338048219681,0.009702036157250404,-0.06455773115158081,0.05499587208032608,0.05361148715019226,-0.01854126900434494,-0.007982498966157436,-0.05702947452664375,0.026437703520059586,-0.07981515675783157,-0.05956574156880379,-0.06624966114759445,0.07415852695703506,-0.010586876422166824,0.07461898773908615,0.03298849239945412,0.02584497071802616,-0.00920295249670744,0.08179086446762085,0.057205792516469955,0.051218271255493164,0.015524448826909065,-0.07141692191362381,0.07739277929067612,0.023419015109539032,-0.006659506354480982,-0.013130176812410355,-0.03667519986629486,-0.04046741873025894,-0.06415865570306778,-0.057212069630622864,-0.021177124232053757,-0.027904948219656944,0.0033704929519444704,-0.003271528286859393,-0.01638909801840782,0.057923249900341034,0.06008519232273102,-0.05279702693223953,-0.02285049483180046,-0.07805955410003662,0.03740749508142471,-0.06204703822731972,-0.07701698690652847,-0.0451846607029438,-0.033876433968544006,0.03859323263168335,-0.03970038890838623,0.012379058636724949,0.011401074007153511,0.0730895921587944,0.008748718537390232,0.057477790862321854,-0.06423996388912201,-0.0003377883695065975,0.04420890659093857,-0.02863265573978424,0.037090055644512177,-0.06425182521343231,-0.07227221876382828,-0.0020034133922308683,0.06150585040450096,-0.05202919989824295,-0.0038808523677289486,-0.032817039638757706,-0.03150307387113571,-0.02058914117515087,-0.05308821052312851,0.05527418106794357,0.041157566010951996,0.013870677910745144,-0.05036148801445961,0.003592057153582573,0.029218606650829315,0.05057353526353836,0.07429184764623642,-0.03788129612803459,0.04740765690803528,-0.06350065767765045,-0.004032991826534271,-0.07821626961231232,-0.020821815356612206,0.018992368131875992,-0.03702192381024361,-0.016267845407128334,-0.048837289214134216,-0.003891267813742161,-0.029707737267017365,-0.059169672429561615,0.025311924517154694,-0.007155098486691713,-0.02750125527381897,-0.07345099002122879,-0.07825601100921631,-0.06229053810238838,0.056089092046022415,0.01973244920372963,0.011556344106793404,-0.047353338450193405,-0.0071854982525110245,0.0354602225124836,0.003705884562805295,0.027869489043951035,-0.024783410131931305,-0.018719231709837914,0.05746914818882942,-0.05886119231581688,0.041123468428850174,-0.07287705689668655,0.001594972563907504,-0.07653290033340454,0.043975040316581726,-0.039952948689460754,0.037243057042360306,-0.015593653544783592,-0.025814509019255638,0.026299675926566124,0.04285731911659241,0.06461042165756226,-0.02073928713798523,-0.009321791119873524,0.025531956925988197,-0.031115904450416565,0.07864318788051605,-0.02742191217839718,-0.05988825112581253,-0.05784725770354271,-0.06323643773794174,0.07139453291893005,-0.07386154681444168,0.06896822899580002,-0.006084439344704151,-0.010638102889060974,0.00821723509579897,-0.0821983590722084,-0.045596975833177567,0.017521237954497337,0.037367019802331924,0.03290298208594322,0.06156754493713379,0.0373416468501091,0.05154591053724289,0.01151847094297409,0.008173556998372078,-0.08234099298715591,-0.08213642239570618,0.04956212267279625,-0.07051990181207657,-0.0604856014251709,-0.031978607177734375,-0.047211289405822754,-0.03154308721423149,-0.0599450059235096,-0.04348546266555786,-0.05013571307063103,-0.03197361156344414,0.013535277917981148,-0.03881750628352165,-0.024529801681637764,0.04497988522052765,0.0643029659986496,-0.08307481557130814,-0.07216491550207138,0.055507827550172806,0.01345054991543293,-0.0007718001143075526,0.04336227849125862,0.04918649420142174,0.07306220382452011,-0.004881785251200199,0.059876129031181335,-0.02543768845498562,0.05420522391796112,-0.02990402840077877,-0.014682590961456299,-0.0015960517339408398,-0.034884482622146606,-0.04817621409893036,0.02487216144800186,0.007607039995491505,0.060037460178136826,0.023745983839035034,-0.04084620252251625,-0.05830243602395058,0.05998164787888527,0.05641407147049904,-0.026978325098752975,-0.012141093611717224,-0.06619586795568466,0.013281513005495071,0.020920390263199806,-0.02642160840332508,0.04269485920667648,0.03161037340760231,-0.07775787264108658,-0.02670438587665558,-0.0432744063436985,-0.054664697498083115,0.0027593052946031094,0.06207897514104843,-0.053302641957998276,-0.05436348170042038,-0.03106733411550522,-0.020359156653285027,0.03680749610066414,0.006532380357384682,-0.04036414623260498,-0.02247835323214531,-0.05579257756471634,0.00804551225155592,-0.07914465665817261,0.03690742328763008,0.06066608428955078,0.01136134471744299,-0.060727182775735855,0.018888210877776146,0.04588790982961655,0.03468472883105278,0.04125352203845978,-0.08096586167812347,0.0680677741765976,0.07568588852882385,0.06576822698116302,-0.03011195920407772,0.06457076966762543,0.06229551136493683,-0.0518052913248539,0.03869638592004776,0.06354907155036926,0.026135241612792015,-0.06886134296655655,0.08046489208936691,0.06655555218458176,0.018117712810635567,-0.008947798050940037,-0.009140068665146828,-0.06994019448757172,-0.028815681114792824,0.05486312508583069,0.08290799707174301,0.006338302977383137,-0.05622691661119461,-0.01180808525532484,0.03550263121724129,-0.0372718945145607,-0.04596855491399765,-0.007056637201458216,0.06579990684986115,0.01662062667310238,-0.0189730916172266,-0.042136840522289276,0.028173845261335373,-0.055383436381816864,-0.057966385036706924,0.0027058981359004974,-0.08050491660833359,-0.05406331643462181,0.07438652217388153,-0.05804336071014404,-0.0015285084955394268,0.021838167682290077,-0.05333684757351875,-0.06862863153219223,0.050000857561826706,0.04526989161968231,-0.06047602370381355,-0.06918305903673172,0.05942602455615997,0.01313220988959074,0.07736831903457642,-0.06357181072235107,-0.027326509356498718,-0.05548036843538284,-0.06941419094800949,0.036521896719932556,-0.024660443887114525,-0.07413776963949203,-0.03218427300453186,0.03678765520453453,-0.06164997071027756,0.016040083020925522,0.03510797396302223,0.02174711413681507,0.0031008876394480467,0.015860607847571373,0.08719775080680847,-0.08310313522815704,0.02740962617099285,-0.0027455268427729607,0.045921724289655685,-0.004221040289849043,0.06853018701076508,0.05779530480504036,0.0795230120420456,0.009318387135863304,0.026667185127735138,-0.06724491715431213,-0.058566827327013016,-0.07244037836790085,0.05287061631679535,-0.0465860515832901,0.018597600981593132,-0.06843197345733643,0.07845704257488251,-0.04932668060064316,0.07495008409023285,-0.005818547680974007,-0.06058807298541069,-0.06306425482034683,0.04233179986476898,-0.043306853622198105,0.038124922662973404,-0.009814596734941006,-0.012066979892551899,-0.01831226795911789,-0.055065054446458817,-0.003183377208188176,0.07898528128862381,-0.023035092279314995,-0.04245216026902199,0.07259398698806763,-0.08816899359226227,0.056200772523880005,0.014630489982664585,-0.04010454937815666,0.06871085613965988,-0.013305505737662315,0.019987257197499275,-0.03747796639800072,-0.05785376578569412,-0.08358640968799591,-0.037090741097927094,0.057489920407533646,-0.029254905879497528,-0.059510234743356705,0.07930323481559753,0.06670162081718445,-0.016771089285612106,0.054147977381944656,-0.02031019702553749,0.024134617298841476,-0.06831815093755722,0.045775316655635834,0.029650308191776276,0.037566252052783966,-0.04615912586450577,0.003297724761068821,0.03607509657740593,0.0826142355799675,0.0752909779548645,-0.03876219689846039,0.07676571607589722,-0.029724761843681335,-0.006852475460618734,0.07484756410121918,0.02679578959941864,-0.008947351016104221,0.05577760934829712,-0.06429582089185715,0.01658802479505539,0.07176647335290909,-0.006966019049286842,0.03415621444582939,-0.027362747117877007,-0.011408021673560143,-0.038403045386075974,0.016372984275221825,0.055702149868011475,0.048615530133247375,0.014791497029364109,0.029575368389487267,-0.02060546539723873,-0.009012855589389801,0.021266046911478043,0.06013448163866997,-0.04736662656068802,0.0036479104310274124,-0.0032446994446218014,0.027860473841428757,-0.04200751334428787,-0.06737137585878372,-0.03762471303343773,-0.029566584154963493,0.07602129131555557,-0.008682048879563808,0.000007005999577813782,-0.018322566524147987,-0.0829276591539383,0.024726813659071922,0.011506438255310059,0.03731533885002136,0.05970057100057602,-0.005142139736562967,0.02148633450269699,-0.055125411599874496,-0.04445212706923485,-0.08275434374809265,-0.05663713067770004,0.0341913178563118,0.012285858392715454,-0.017330918461084366,-0.03364161029458046,-0.07336948812007904,-0.08062536269426346,-0.028251321986317635,-0.003572870045900345,0.05478435009717941,-0.07657288759946823,-0.04811419919133186,-0.034847378730773926,0.020783286541700363,-0.07737459242343903,0.0034805219620466232,