{"runId":22,"createdAt":"2026-07-18T19:48:57.388Z","modelFamily":"mlp_v1","hiddenLayers":[128,64],"inputSize":300,"outputSize":59,"outputNumbers":[1,2,3,4,5,6,7,8,9,10,11,12,13,14,15,16,17,18,19,20,21,22,23,24,25,26,27,28,29,30,31,32,33,34,35,36,37,38,39,40,41,42,43,44,45,46,47,48,49,50,51,52,53,54,55,56,57,58,59],"weights":[{"name":"dense_Dense8032/kernel","shape":[300,128],"values":[0.07396620512008667,-0.012611927464604378,0.017835035920143127,-0.023413022980093956,-0.013533568009734154,0.09679432958364487,0.03694133460521698,-0.0998813658952713,0.03145601972937584,-0.034628257155418396,0.07311148941516876,0.08793959766626358,0.07436436414718628,-0.018287349492311478,0.09513872116804123,-0.1086822897195816,0.04117359593510628,0.03387795016169548,0.08542918413877487,0.07987693697214127,0.03185919299721718,-0.03030860237777233,-0.04652304947376251,-0.08770763128995895,0.07255647331476212,-0.030364133417606354,0.04505966976284981,-0.07707025855779648,-0.009199457243084908,-0.04336144030094147,0.025137344375252724,-0.022336315363645554,0.0031943954527378082,-0.0977199599146843,0.037589181214571,-0.06617952138185501,0.05990641564130783,0.0354505330324173,0.052406925708055496,0.050617240369319916,-0.03850054368376732,-0.062428977340459824,0.026884814724326134,-0.10151087492704391,-0.0939301997423172,-0.1250627338886261,-0.020320938900113106,-0.0874175876379013,-0.0010308197233825922,0.10746575146913528,0.11044619232416153,-0.012800701893866062,-0.06978219002485275,-0.10584325343370438,0.03609110787510872,-0.05124068632721901,-0.09281443804502487,-0.09253150224685669,-0.0008699008612893522,0.03382602334022522,-0.10261540114879608,0.07398594170808792,-0.030186057090759277,-0.03932253271341324,0.12078039348125458,0.030001245439052582,0.012561067938804626,-0.06276120245456696,-0.06500469893217087,-0.07621832937002182,0.016389712691307068,-0.027242273092269897,-0.0342198945581913,0.0025451609399169683,-0.09465005993843079,-0.050141651183366776,-0.023377742618322372,0.022938087582588196,-0.009607655927538872,0.08773566782474518,0.0007019600016064942,-0.06052868440747261,-0.000032302657928084955,-0.017819581553339958,-0.10059303790330887,0.10005328059196472,0.007420666981488466,-0.0960710272192955,-0.016416369006037712,-0.0446198433637619,-0.0742342546582222,-0.00110819679684937,0.01550214271992445,-0.06927032023668289,0.04016620293259621,0.0006866749608889222,0.08270037174224854,0.049408093094825745,0.02154543623328209,-0.11845993995666504,0.04348977282643318,-0.03786386176943779,-0.09234637022018433,0.08929900825023651,-0.0436091423034668,-0.17522357404232025,-0.051343780010938644,0.0027732006274163723,0.05866476148366928,-0.07562308013439178,0.04877452924847603,-0.07805506885051727,0.019121674820780754,-0.10064716637134552,-0.0988137498497963,-0.0002933907671831548,-0.00477273715659976,-0.03770852088928223,0.08916991949081421,-0.04703318327665329,0.06761451810598373,-0.06525452435016632,0.047874148935079575,-0.06756078451871872,-0.08207438141107559,-0.012864779680967331,-0.07710176706314087,-0.04192095622420311,-0.07658089697360992,-0.07859668880701065,0.07551658898591995,0.03478116914629936,-0.008324077352881432,0.01628483459353447,0.012525522150099277,0.1123327687382698,0.01110838819295168,-0.04309287667274475,0.0917511060833931,-0.11552850902080536,-0.04770945757627487,0.10839495807886124,0.014004489406943321,-0.10273866355419159,0.06211467087268829,-0.014569060876965523,-0.02113592065870762,0.017116939648985863,0.1084841713309288,0.014703447930514812,-0.05620866268873215,-0.06586124747991562,0.02412416785955429,0.012862607836723328,0.0591847263276577,-0.04689984396100044,-0.05888628587126732,0.03590570017695427,-0.06709595024585724,0.042793162167072296,-0.0339818000793457,-0.07263762503862381,-0.03052639774978161,0.007126753218472004,-0.03770200535655022,-0.023551100865006447,-0.08199508488178253,0.1051294282078743,-0.026473376899957657,0.1261848509311676,-0.029925893992185593,-0.06233477219939232,-0.02263585664331913,-0.07294995337724686,0.08384279161691666,-0.03618938848376274,-0.11901535838842392,-0.07140320539474487,0.09486255794763565,0.03287865221500397,0.04253767058253288,-0.07433786988258362,-0.09856303781270981,-0.14341990649700165,-0.05166435241699219,-0.06470444053411484,-0.12807315587997437,-0.007814365439116955,-0.09626864641904831,0.029080364853143692,0.07331262528896332,-0.04347400739789009,-0.05255533754825592,-0.07840180397033691,0.13479839265346527,0.06978993862867355,-0.13825452327728271,0.014467982575297356,-0.014252550899982452,0.010125963017344475,-0.020046116784214973,0.0004854231374338269,0.013622814789414406,0.03676704317331314,0.09748609364032745,0.1114579513669014,0.08234605938196182,-0.0009947315556928515,0.014727865345776081,0.0036566255148500204,-0.03317493200302124,0.04589492455124855,-0.01293239276856184,-0.03686230629682541,-0.017882924526929855,-0.11027262359857559,0.03723037987947464,0.06918802112340927,-0.05900488421320915,0.06473087519407272,-0.10559087991714478,-0.01699724793434143,0.06324174255132675,0.13742631673812866,0.11655639111995697,-0.014415073208510876,0.07887415587902069,-0.02032942697405815,-0.0765318050980568,-0.04170206934213638,0.12470389902591705,-0.045578885823488235,-0.15650634467601776,-0.02418404631316662,0.003735342063009739,0.03422369807958603,0.1015005111694336,-0.04640565440058708,-0.07096338272094727,-0.029325511306524277,-0.01668384298682213,0.05078000947833061,0.011041851714253426,-0.05297597497701645,0.0242924727499485,-0.044710297137498856,-0.04374600201845169,0.05098806694149971,0.015136230736970901,-0.06733442097902298,0.04073766991496086,-0.0076361363753676414,-0.023656165227293968,-0.0011322182836011052,0.06419040262699127,-0.08459991216659546,0.0017036949284374714,-0.0816573053598404,0.005664010997861624,-0.10708867013454437,-0.10586465150117874,0.06029326096177101,0.007631908170878887,0.006687782239168882,0.07503128051757812,0.08978769183158875,-0.048501115292310715,-0.009012816473841667,-0.02681404910981655,0.025078237056732178,-0.11640214174985886,0.05908999592065811,0.00583357410505414,-0.017483089119195938,-0.023181170225143433,-0.007137950975447893,0.03500215709209442,-0.03186732903122902,-0.0313229076564312,-0.09921199083328247,0.040981583297252655,-0.0098781269043684,-0.01351645402610302,0.002891684416681528,0.10566642135381699,0.013888910412788391,0.014724589884281158,0.009599304758012295,-0.05214274674654007,-0.00991838052868843,-0.03793288394808769,-0.026837466284632683,-0.03572674095630646,-0.03741396218538284,-0.011008843779563904,-0.09800742566585541,-0.05058599263429642,0.030247094109654427,0.059887614101171494,0.07836128771305084,0.007706135511398315,-0.07219163328409195,-0.11163195967674255,-0.014672535471618176,-0.06071789562702179,0.07532994449138641,-0.07122013717889786,-0.012539966963231564,0.0521644651889801,-0.07002321630716324,-0.0332985557615757,0.0032301591709256172,-0.08447863906621933,-0.05786128342151642,0.06132568046450615,-0.12881126999855042,0.002677717711776495,-0.008542082272469997,0.009439464658498764,0.045856550335884094,0.10249986499547958,0.020332984626293182,0.09453244507312775,-0.09319671988487244,-0.0793091282248497,-0.09656330943107605,0.05861987546086311,-0.016176778823137283,-0.05045736953616142,0.0009189777192659676,-0.04414478689432144,-0.029530921950936317,0.027274642139673233,-0.022540487349033356,-0.062876395881176,-0.023643212392926216,-0.024670608341693878,-0.02441713772714138,-0.033774856477975845,0.050871748477220535,0.018702473491430283,-0.00252853287383914,-0.10827978700399399,0.05341678485274315,0.09594319015741348,0.0702480897307396,0.038952309638261795,-0.06303085386753082,0.011198434047400951,-0.036918092519044876,-0.06575337797403336,0.03807591274380684,-0.11487089097499847,0.05570370703935623,0.025457246229052544,-0.05344192683696747,-0.1762295961380005,-0.09119797497987747,0.060091666877269745,0.036035384982824326,-0.09485962986946106,0.011606053449213505,0.012052961625158787,-0.11326509714126587,0.05990228429436684,-0.030525576323270798,0.04470665752887726,0.021546799689531326,-0.0003423902380745858,-0.07767224311828613,-0.021189559251070023,-0.08508723974227905,-0.0016820424934849143,-0.048266489058732986,-0.0993986576795578,-0.07176240533590317,-0.06592016667127609,-0.020136399194598198,0.03385784476995468,0.09514562785625458,-0.08661223202943802,-0.05692056566476822,0.12040812522172928,-0.048917535692453384,0.1274978071451187,-0.07450256496667862,0.026146696880459785,0.05524366348981857,-0.015948358923196793,-0.008944418281316757,-0.022423885762691498,0.10542847961187363,-0.08784489333629608,-0.07393546402454376,0.012008896097540855,0.07312172651290894,0.01776246912777424,-0.04770077019929886,0.04954595863819122,0.10367289185523987,0.04549307003617287,-0.05681827664375305,0.0011773350415751338,0.02057379111647606,-0.05290859192609787,0.01373162679374218,-0.046190809458494186,-0.04229660704731941,-0.014565483666956425,-0.10137374699115753,0.1060272827744484,0.039479032158851624,-0.06015627458691597,-0.04657959192991257,0.021352745592594147,0.13401350378990173,-0.013976396061480045,-0.025120003148913383,0.08941755443811417,0.0738392174243927,0.06565556675195694,0.05339370667934418,0.07375379651784897,-0.04853768274188042,0.04123805835843086,-0.022225113585591316,-0.1263919472694397,0.08126676827669144,0.0059289089404046535,0.02751914970576763,0.03692474961280823,-0.0024074045941233635,-0.012930757366120815,0.06893333792686462,0.07423822581768036,-0.048628732562065125,-0.00014772267604712397,0.017434976994991302,0.05160382390022278,0.019481442868709564,-0.029929056763648987,0.013308662921190262,-0.023812295868992805,-0.07088983803987503,-0.07900166511535645,-0.12398417294025421,0.01983601041138172,0.005756992846727371,-0.03262680396437645,-0.0017825872637331486,-0.003030179301276803,-0.0072797732427716255,-0.08563096821308136,0.0248336810618639,-0.10421449691057205,0.10052434355020523,0.06710884720087051,-0.03525377810001373,-0.04418138787150383,-0.02640892192721367,-0.018113737925887108,0.025867758318781853,0.0749165490269661,0.01697150431573391,-0.013091016560792923,0.046914853155612946,0.0735987052321434,0.04888351261615753,-0.041556671261787415,-0.08089129626750946,-0.06344951689243317,0.005247290246188641,0.019997628405690193,-0.13078883290290833,-0.006671376526355743,0.02393350563943386,0.010551875457167625,0.071573905646801,-0.03161441907286644,-0.06353408843278885,0.10339340567588806,0.02395576797425747,-0.11636849492788315,-0.005098751746118069,-0.0388210266828537,-0.0870794728398323,0.01467928010970354,-0.03339002653956413,0.014305186457931995,-0.03815227001905441,-0.002945898799225688,0.05141841620206833,0.025419775396585464,0.06369797140359879,0.03604024276137352,0.020503897219896317,0.01133058313280344,0.04850858449935913,-0.07150891423225403,0.05775558575987816,0.0077235884964466095,-0.12565331161022186,-0.026766644790768623,-0.07032599300146103,0.009646895341575146,-0.040294308215379715,0.10749448090791702,0.08485916256904602,-0.03341491147875786,-0.027452796697616577,0.04060133919119835,0.011914996430277824,0.04927975311875343,-0.10586075484752655,0.004053734242916107,-0.07398224622011185,-0.03768552839756012,0.05098336935043335,0.020686259493231773,-0.10563895106315613,-0.07918050140142441,0.017821816727519035,0.05930706858634949,-0.06154993921518326,-0.008465254679322243,-0.022939370945096016,0.05174895003437996,0.029925940558314323,-0.03014843724668026,0.02824346162378788,0.010827837511897087,0.07207420468330383,-0.05105283483862877,-0.06313405930995941,0.13742397725582123,0.06907626241445541,-0.007481507956981659,0.05790269002318382,0.008724619634449482,0.06881483644247055,0.06639693677425385,-0.01636035367846489,0.056158337742090225,0.07164575159549713,-0.07184863090515137,0.004116550553590059,0.1270846128463745,0.027994168922305107,0.06877777725458145,-0.0884435772895813,-0.057452492415905,-0.021706145256757736,0.07249390333890915,0.05422864481806755,-0.06334755569696426,-0.10703569650650024,-0.0026081327814608812,0.010441447608172894,-0.02280890755355358,0.02812023088335991,-0.04171831160783768,0.06045866385102272,-0.12439893931150436,0.03799573332071304,-0.014225725084543228,-0.037321753799915314,-0.05637069791555405,0.0429365411400795,-0.006064892280846834,0.1031956747174263,0.010050582699477673,-0.004894993267953396,-0.12774045765399933,-0.00034211581805720925,0.09420040994882584,0.15021225810050964,0.008875349536538124,0.029397182166576385,-0.05541916564106941,-0.09568411111831665,0.08050233125686646,-0.05540052801370621,-0.10015913844108582,0.08609144389629364,-0.05746478959918022,-0.005924892611801624,-0.05552038550376892,-0.07252198457717896,-0.10721812397241592,-0.06881517916917801,-0.0011529113398864865,-0.0023088930174708366,-0.08173779398202896,0.053560223430395126,0.024356301873922348,0.07249134033918381,0.00872567854821682,0.039079997688531876,0.008644498884677887,-0.10685614496469498,-0.11719009280204773,-0.08508528023958206,-0.09906477481126785,-0.004637515172362328,-0.09183995425701141,0.06743273138999939,0.07442719489336014,0.007179045584052801,0.04171532392501831,-0.03601176664233208,0.021928347647190094,-0.046818092465400696,0.057887133210897446,-0.020205816254019737,0.015496422536671162,0.007652789819985628,-0.08085431903600693,-0.07623779773712158,0.051623500883579254,-0.08949406445026398,0.06923049688339233,0.025121085345745087,-0.011094419285655022,-0.044697120785713196,-0.02954762615263462,-0.04684324190020561,0.021877024322748184,-0.019518975168466568,-0.12565085291862488,0.10893853008747101,-0.026916319504380226,-0.03555519878864288,-0.0018094301922246814,-0.06965697556734085,0.09263698756694794,0.013893241062760353,-0.09488556534051895,0.06178782135248184,-0.0006073738331906497,-0.08357158303260803,-0.025235353037714958,-0.053524356335401535,0.04756876081228256,0.12600445747375488,0.056382689625024796,0.05911504849791527,0.006426723208278418,0.012475879862904549,0.07553547620773315,-0.0017691825050860643,0.09444934874773026,0.009636161848902702,-0.04279056936502457,0.04479706659913063,-0.019941644743084908,-0.11307559907436371,0.12763135135173798,-0.0031779746059328318,0.041029319167137146,-0.056311529129743576,-0.015004060231149197,-0.09922855347394943,-0.019251560792326927,0.05565271154046059,0.07039769738912582,-0.05231500416994095,0.021851329132914543,0.03577801212668419,-0.07464621961116791,-0.037509191781282425,0.05426007881760597,-0.10615988075733185,-0.07307044416666031,0.026990998536348343,-0.1134701520204544,-0.009547298774123192,0.042872779071331024,-0.08099779486656189,0.014920923858880997,0.05321125686168671,0.005640935152769089,-0.048746634274721146,0.07595096528530121,-0.043011922389268875,-0.06737056374549866,-0.04258587211370468,-0.014048214070498943,-0.012469912879168987,0.006339602172374725,-0.05435614660382271,0.0577416867017746,0.03365049511194229,0.13013476133346558,-0.03865566477179527,0.11168749630451202,-0.028452103957533836,0.025175783783197403,0.02678607776761055,0.05351955071091652,0.11403607577085495,-0.0016308948397636414,-0.0395977608859539,-0.10486975312232971,-0.02289384789764881,-0.03529888764023781,0.002429070184007287,-0.001841421821154654,0.03641713038086891,-0.03227371349930763,0.016369786113500595,-0.10204735398292542,-0.004587540403008461,-0.05240883678197861,-0.11072658747434616,0.046436607837677,0.10695358365774155,-0.018366126343607903,0.028509531170129776,-0.08517750352621078,0.005527491215616465,0.012108419090509415,0.007635193411260843,0.02906366065144539,0.006697154138237238,-0.01159743033349514,0.0772879347205162,-0.016593843698501587,-0.040494758635759354,-0.0858534723520279,-0.013054930604994297,-0.03641574829816818,0.06252638250589371,-0.123113252222538,-0.03152100369334221,0.020325668156147003,-0.009007787331938744,0.09545353800058365,-0.009769391268491745,-0.02270122617483139,0.08251037448644638,-0.05835045501589775,-0.008783229626715183,0.016177374869585037,0.014077311381697655,-0.046430621296167374,0.0075539108365774155,-0.024864546954631805,-0.023048143833875656,0.0723445862531662,-0.043120890855789185,0.10003849118947983,0.04615209996700287,0.02170112542808056,0.058874886482954025,-0.07838071137666702,0.05980632081627846,0.03739972040057182,-0.036881592124700546,-0.032203853130340576,-0.04432258382439613,0.02176472917199135,-0.046985793858766556,0.05178503319621086,-0.0902993381023407,0.001360007910989225,-0.11418389528989792,0.00228897831402719,-0.01105294656008482,-0.10513462126255035,0.004289237782359123,-0.12870104610919952,-0.13363802433013916,0.0982835441827774,-0.12061101943254471,-0.011644505895674229,-0.04021421819925308,-0.058958254754543304,0.09476642310619354,0.08854589611291885,0.003278429852798581,-0.03193722665309906,0.11931043118238449,-0.13323339819908142,0.011724269948899746,0.04026763513684273,-0.007352667395025492,-0.02510703168809414,0.004177906084805727,0.08292043954133987,-0.007218252867460251,-0.03373534604907036,0.05600536987185478,-0.022282248362898827,-0.08383254706859589,-0.1533796787261963,0.07604867219924927,0.11729171872138977,0.04559694603085518,0.013538096100091934,0.046681784093379974,-0.08584532886743546,-0.1105506643652916,0.0014946912415325642,0.008477644063532352,-0.00028902734629809856,0.029810000211000443,-0.08223478496074677,0.039379674941301346,0.03290802240371704,0.08950845897197723,-0.14649517834186554,0.09318976104259491,-0.06268306821584702,0.03829123079776764,-0.02887008525431156,-0.017572840675711632,0.03143085911870003,-0.03767993301153183,-0.07262340188026428,0.08611264824867249,-0.0535171702504158,0.05877301096916199,0.031303126364946365,0.017157649621367455,-0.010280420072376728,0.027515294030308723,0.1210111454129219,-0.0680190846323967,-0.08979440480470657,0.06564120203256607,0.06975015997886658,0.010471356101334095,-0.08286973088979721,0.01354780700057745,-0.07595168799161911,-0.010570541955530643,0.010058201849460602,-0.03222530335187912,-0.02131747454404831,0.013398640789091587,-0.14619024097919464,-0.011547185480594635,-0.07796549797058105,-0.04985332116484642,0.02563854306936264,0.032002754509449005,-0.07835324108600616,0.05426570400595665,0.00014628033386543393,-0.13292549550533295,0.0877993181347847,-0.11524922400712967,0.12637987732887268,-0.027123091742396355,-0.05199853330850601,0.0062962910160422325,0.04715482518076897,0.01855299435555935,0.031179651618003845,-0.06775104999542236,0.11416075378656387,-0.059099357575178146,-0.11993950605392456,0.06803791970014572,0.10121709853410721,0.03841148316860199,-0.08600655943155289,0.020618319511413574,-0.16867612302303314,-0.041426368057727814,-0.028938613831996918,0.07286582142114639,-0.06278873980045319,0.049648724496364594,-0.09014502167701721,0.010304763913154602,-0.013545926660299301,0.0248128529638052,-0.0380047932267189,0.09069174528121948,0.07376790791749954,-0.07421623170375824,0.019686691462993622,0.024057922884821892,-0.02978023700416088,-0.023744503036141396,0.05745578929781914,-0.057719673961400986,-0.054620515555143356,-0.030836869031190872,-0.08248195052146912,-0.011318706907331944,-0.06898340582847595,0.03374773636460304,-0.009345876052975655,-0.057206351310014725,-0.1274542361497879,-0.12118349969387054,-0.02987944707274437,-0.04936884343624115,0.04747071489691734,0.048067159950733185,-0.01690034754574299,0.07820411026477814,-0.06093648076057434,0.0017484772251918912,-0.04647168144583702,0.059969089925289154,0.013103209435939789,0.032663628458976746,-0.06887288391590118,-0.04123125597834587,0.19926035404205322,-0.004875104408711195,-0.05604543164372444,-0.07323945313692093,-0.09914837032556534,0.047248780727386475,-0.02742590382695198,-0.04356888309121132,-0.005096276290714741,0.06811945885419846,-0.12482381612062454,-0.03378738462924957,0.1119307205080986,0.01931382715702057,-0.09175674617290497,-0.10384529829025269,0.07553208619356155,0.026067469269037247,-0.013030879199504852,0.04487048462033272,0.1166471391916275,-0.03995175659656525,-0.05135314539074898,0.009587672539055347,0.10795678943395615,0.19071462750434875,0.02440832369029522,0.010262608528137207,0.030197754502296448,0.023227395489811897,0.08972187340259552,-0.12686051428318024,-0.024574076756834984,0.002623786451295018,-0.01758287288248539,-0.005472795106470585,0.04601534828543663,-0.0418696254491806,-0.004716406110674143,0.108248770236969,-0.09007316082715988,-0.06878103315830231,-0.015056177973747253,-0.0634077787399292,-0.08111469447612762,0.10005401819944382,-0.004900461994111538,0.08543995767831802,-0.04335391893982887,0.0710609033703804,-0.0714038610458374,0.021725229918956757,-0.0722508653998375,0.08196936547756195,0.06118018180131912,-0.05137346684932709,-0.057029739022254944,-0.14280176162719727,-0.03682929277420044,-0.12232997268438339,-0.02626425214111805,-0.07612495124340057,0.025415871292352676,-0.0779879167675972,-0.00866727065294981,-0.03358985856175423,-0.006281975656747818,0.06412018090486526,-0.036375001072883606,0.035774823278188705,-0.013351698406040668,-0.12338865548372269,0.05789177492260933,-0.009615939110517502,0.0811191201210022,-0.058714523911476135,0.014661152847111225,-0.07237060368061066,-0.04433180019259453,0.01944797672331333,0.04020185023546219,-0.0390876904129982,-0.048403799533843994,-0.04225021228194237,-0.08815263211727142,0.10055564343929291,-0.13654762506484985,-0.004918091464787722,-0.021006302908062935,0.03722498193383217,0.008930851705372334,0.011180166155099869,0.09934405237436295,-0.014827157370746136,-0.04521343111991882,-0.008993484079837799,-0.007465457543730736,-0.09552861750125885,0.018063107505440712,0.0046594697050750256,-0.04880108684301376,0.07373053580522537,-0.03584159165620804,0.024085676297545433,-0.13931864500045776,-0.06873541325330734,-0.08949565142393112,-0.01774669997394085,0.002286410192027688,-0.08807025849819183,-0.0058313049376010895,-0.0718250572681427,-0.03338899463415146,0.07348345965147018,-0.03621133789420128,-0.037746530026197433,-0.07607486844062805,-0.07091117650270462,-0.0564841590821743,0.08168786764144897,0.10133694857358932,-0.0990210622549057,-0.05528435856103897,-0.017436984926462173,-0.022307178005576134,0.021641122177243233,-0.03189306706190109,0.02987033501267433,-0.06085854396224022,-0.012759046629071236,-0.015936003997921944,-0.15153324604034424,0.07425615191459656,0.07736898958683014,0.0781741514801979,-0.04936159402132034,-0.0908295214176178,-0.014860715717077255,0.02146688848733902,-0.08835519105195999,-0.05471700057387352,-0.019168755039572716,-0.04549252986907959,-0.08047092705965042,-0.029973553493618965,-0.01228523999452591,0.06076818332076073,0.007574325427412987,-0.01792042702436447,0.036262396723032,-0.10157647728919983,0.0016485797241330147,-0.007238262798637152,0.02090386673808098,-0.14720116555690765,0.043683651834726334,-0.06308482587337494,-0.02937115915119648,-0.04929149150848389,-0.01950180158019066,0.10902911424636841,0.06977258622646332,0.0501047819852829,0.020483892410993576,0.07262874394655228,-0.020821938291192055,0.008888962678611279,-0.03565361350774765,-0.022887613624334335,-0.10264046490192413,0.055282026529312134,0.12133713811635971,0.0658579096198082,-0.02358710765838623,-0.015150335617363453,0.03418096527457237,0.025870023295283318,-0.04153937101364136,-0.0778382420539856,0.00424192426726222,0.0790732204914093,-0.052135832607746124,0.011788829229772091,-0.019468659535050392,0.018080413341522217,0.010644285008311272,-0.07170380651950836,0.009034375660121441,-0.06725158542394638,0.004428011365234852,0.03644527494907379,-0.04529986158013344,0.0011506601003929973,0.02968318946659565,0.08719948679208755,-0.03222423419356346,-0.0415273979306221,0.10086323320865631,-0.06837261468172073,0.0006574359140358865,0.062182918190956116,-0.02167734131217003,0.11459542065858841,0.09749265015125275,0.0865791067481041,0.05252061411738396,-0.024349752813577652,0.02886103466153145,-0.0249229297041893,-0.13209420442581177,-0.058255523443222046,-0.044232744723558426,0.044558752328157425,-0.13354213535785675,0.08768507093191147,0.015795210376381874,-0.00802734587341547,0.060176197439432144,0.0007799636805430055,0.03850448876619339,-0.04419361427426338,0.0011734238360077143,-0.12911897897720337,0.047503501176834106,0.04662764444947243,-0.10493238270282745,0.06879808753728867,0.03696904331445694,0.013456166721880436,0.016404706984758377,-0.028071759268641472,0.02554708532989025,0.1272999346256256,-0.12200143933296204,-0.005630835425108671,-0.04126838967204094,-0.06769934296607971,0.03140582516789436,-0.07343564927577972,0.004666137509047985,-0.08858025819063187,-0.040747664868831635,0.10254000872373581,0.05246036499738693,0.13739816844463348,-0.058691009879112244,-0.01781177893280983,0.09844572842121124,-0.024765612557530403,0.04168349876999855,-0.028981216251850128,-0.05725695565342903,-0.12011246383190155,0.00015386473387479782,-0.11073901504278183,-0.048763908445835114,0.13900870084762573,-0.06846938282251358,0.05883294343948364,0.08331162482500076,-0.11376287043094635,-0.05225792154669762,-0.062152937054634094,0.0960811898112297,0.06734125316143036,0.02557447738945484,-0.06384697556495667,0.05638749524950981,0.06985774636268616,-0.047670528292655945,-0.06325669586658478,-0.05301393195986748,-0.07212067395448685,0.04116591066122055,0.006450447719544172,-0.02994069829583168,0.042919062077999115,-0.07937832921743393,0.03069480136036873,-0.019537340849637985,-0.08611539751291275,0.00005675756256096065,0.024998478591442108,0.07008537650108337,0.059166401624679565,-0.05660694092512131,0.09578730911016464,0.07086285203695297,-0.08278830349445343,-0.14246396720409393,0.06978999078273773,0.0052002547308802605,-0.11546042561531067,-0.12666718661785126,0.05248359963297844,0.07359877973794937,0.03385307267308235,0.031155655160546303,0.08576396852731705,-0.03389863669872284,0.03965022787451744,0.021919477730989456,0.035495199263095856,-0.044993698596954346,0.0026093735359609127,0.08346045017242432,0.11532225459814072,-0.062200870364904404,-0.02866867370903492,0.03503452613949776,0.12395276129245758,-0.05755053833127022,0.08923402428627014,-0.08561382442712784,0.049733471125364304,-0.06080915033817291,0.02684718556702137,-0.06127292662858963,-0.032938193529844284,0.00543152866885066,-0.065119169652462,0.08689717948436737,-0.03314906358718872,0.06430920213460922,0.04351023957133293,0.024319283664226532,0.05651037022471428,-0.03257133066654205,-0.006434399168938398,-0.025097444653511047,-0.00702699925750494,0.0704662874341011,-0.09888886660337448,-0.024283340200781822,0.013419117778539658,-0.04175944626331329,0.05962388962507248,0.03241764008998871,0.0500992089509964,0.06022638455033302,0.04251321405172348,0.085389643907547,-0.06683465838432312,0.09822739660739899,0.016522636637091637,0.008935499005019665,0.06786170601844788,-0.04995540902018547,-0.046258121728897095,-0.11090590059757233,0.12614238262176514,0.06830450892448425,-0.012849248014390469,0.026767557486891747,0.00939849577844143,0.12240894883871078,-0.05049130320549011,-0.022611886262893677,-0.02868751250207424,-0.11903472244739532,0.0993833988904953,-0.04710987210273743,0.02699597366154194,-0.01788586564362049,0.019748350605368614,0.059325240552425385,0.04418538883328438,-0.04328479617834091,-0.002833214122802019,-0.039706822484731674,-0.001967275980859995,-0.09468486905097961,-0.014762146398425102,-0.03663686662912369,-0.027157260105013847,-0.023735130205750465,0.0731523185968399,-0.029557470232248306,-0.03658841922879219,0.11304697394371033,0.07589060813188553,-0.030447373166680336,-0.043777257204055786,-0.08037122339010239,0.05022202432155609,-0.05619947239756584,0.010644079186022282,-0.08319997787475586,0.04485359415411949,-0.11989963799715042,-0.04859711229801178,0.0473746657371521,-0.0693783164024353,0.04510064423084259,0.07850170135498047,0.10420378297567368,0.0598481148481369,0.007933502085506916,-0.024222446605563164,-0.0315217599272728,0.09007901698350906,0.03032965213060379,0.050584666430950165,-0.033403657376766205,0.05685540661215782,0.007127393968403339,-0.07771622389554977,-0.043714091181755066,-0.01795598678290844,0.0795854926109314,-0.029084552079439163,-0.04326361045241356,0.1060289591550827,-0.08692066371440887,0.0742693543434143,-0.08175648003816605,-0.039621010422706604,0.01766563206911087,-0.07213553041219711,-0.02659960277378559,-0.11411534994840622,0.04794568940997124,-0.06763921678066254,-0.08857149630784988,0.07871020585298538,0.04925846308469772,0.0006396870594471693,-0.056836750358343124,-0.04058843478560448,-0.02818092703819275,-0.07167010009288788,-0.03107002004981041,-0.006270274985581636,0.06881803274154663,-0.032354678958654404,-0.08461233973503113,0.04385628551244736,0.05896403640508652,0.07185047119855881,0.09089421480894089,0.07643312215805054,-0.1059679239988327,0.06594368070363998,0.09204302728176117,0.11556325107812881,0.007805383764207363,0.06441649049520493,0.009224247187376022,-0.03580339625477791,-0.0011987900361418724,0.02137550339102745,-0.01806160993874073,-0.037698473781347275,0.04197816923260689,-0.043164320290088654,-0.06668686866760254,0.03427162021398544,0.094448521733284,0.04442501440644264,0.02339600957930088,-0.05985049158334732,-0.03727555274963379,-0.07665364444255829,-0.026136457920074463,0.07264161854982376,0.007526379078626633,0.04181342199444771,-0.0314921960234642,0.06359517574310303,0.03291552513837814,-0.0530620738863945,-0.0795295238494873,0.008429371751844883,0.004115715157240629,0.004668674431741238,0.016552135348320007,-0.017411237582564354,0.06127335503697395,-0.024981863796710968,-0.01081799529492855,-0.11538062244653702,-0.10099424421787262,0.03440552577376366,0.05220011621713638,-0.03468431904911995,0.030438577756285667,0.0852883905172348,-0.10643675923347473,0.04200531914830208,0.031919315457344055,-0.08946432173252106,-0.004557003732770681,0.013713810592889786,0.055742766708135605,-0.06155433878302574,0.0409344807267189,-0.05921003594994545,0.04209860786795616,-0.06363990902900696,-0.06147812679409981,0.06224788352847099,0.014198468998074532,0.13055945932865143,0.03660716861486435,-0.06255707144737244,0.05902048572897911,-0.08463368564844131,-0.03721719980239868,-0.05958472192287445,-0.017747236415743828,-0.008278918452560902,-0.04232116788625717,-0.0385686531662941,-0.035155411809682846,-0.050717052072286606,-0.0020431969314813614,-0.01759498566389084,-0.0244703721255064,0.01057181041687727,-0.06787630170583725,0.0032304255291819572,-0.08794140815734863,-0.014170590788125992,-0.0008982428116723895,-0.059524986892938614,-0.03469563648104668,-0.10516208410263062,0.017489111050963402,0.019622284919023514,0.03939736634492874,0.04254986345767975,-0.1267549991607666,-0.0915520191192627,0.11818303167819977,-0.019080283120274544,-0.05592856556177139,-0.09194496273994446,0.044566474854946136,0.021166527643799782,0.0850023403763771,-0.11766805499792099,0.014022638089954853,0.059755440801382065,-0.09257127344608307,-0.14232105016708374,0.017782824113965034,-0.014083774760365486,-0.044368136674165726,-0.06438753753900528,0.028071509674191475,-0.08210638910531998,-0.07547850906848907,0.033596113324165344,-0.08058305084705353,0.04300737380981445,0.014983749017119408,-0.027361415326595306,-0.04599866271018982,-0.023619692772626877,0.010464765131473541,0.0046496023423969746,-0.010942983441054821,0.054443858563899994,0.015693817287683487,0.021601997315883636,0.00893019512295723,-0.03508896008133888,-0.031433671712875366,-0.058095403015613556,0.05941196531057358,-0.10972464829683304,-0.05046791583299637,-0.06053205579519272,0.04946717247366905,-0.016066893935203552,-0.09906168282032013,-0.00819308403879404,-0.09436206519603729,0.005805848632007837,0.05888649821281433,-0.008678905665874481,-0.008426808752119541,0.02152734249830246,-0.046524353325366974,0.011124379001557827,0.057208411395549774,-0.030102256685495377,0.025826407596468925,0.03902847319841385,-0.01968185044825077,0.027459295466542244,0.07768704742193222,0.00663113035261631,-0.02786586992442608,-0.05116639658808708,0.04428521543741226,0.06135445460677147,-0.09083858132362366,-0.0664134994149208,0.08397720754146576,0.03367527201771736,-0.039900749921798706,0.08639514446258545,-0.006329343654215336,-0.06530515104532242,-0.02418411336839199,-0.010402591899037361,0.06127628684043884,0.02247009426355362,-0.13694651424884796,0.02610038034617901,0.05055432766675949,0.002252431819215417,0.004399770870804787,0.0015387417515739799,0.04792296141386032,-0.0019875739235430956,-0.023300128057599068,0.007697256747633219,-0.02696862630546093,0.01321918424218893,0.006331993266940117,-0.06888429820537567,-0.10111431777477264,-0.02527163363993168,-0.022473836317658424,-0.06818480789661407,-0.07802356034517288,0.08567085862159729,-0.06827820092439651,-0.0037511347327381372,-0.11068235337734222,-0.045451998710632324,0.054434310644865036,-0.01868169754743576,-0.036219969391822815,-0.00911671295762062,-0.07288429141044617,0.05495629832148552,-0.044186532497406006,0.007061042357236147,0.06356444954872131,-0.0326128751039505,-0.08071571588516235,-0.05394677072763443,-0.0000026633933885022998,-0.13596612215042114,0.016968360170722008,0.08437655866146088,-0.08455094695091248,-0.06837176531553268,-0.05198459327220917,-0.033313293009996414,0.03440224006772041,-0.01638382486999035,-0.003816107986494899,0.08343370258808136,0.10334295779466629,-0.05401298776268959,0.16285283863544464,-0.13511356711387634,0.056556571274995804,-0.011495727114379406,-0.026633789762854576,-0.07480795681476593,-0.0697658360004425,-0.08038470894098282,0.01719803363084793,-0.013753519393503666,-0.05633896216750145,-0.025868922472000122,0.037094347178936005,-0.0873623937368393,-0.08836711943149567,-0.041820064187049866,-0.05266961455345154,-0.012455590069293976,0.08413375169038773,-0.026038996875286102,-0.061222467571496964,-0.09005919098854065,0.025821832939982414,0.0003657533088698983,-0.022857563570141792,-0.06099601835012436,0.0614018440246582,-0.06150812655687332,0.12043313682079315,-0.007772654294967651,-0.03951407968997955,0.03702656924724579,-0.09729831665754318,-0.08712980896234512,0.014848568476736546,-0.022009212523698807,0.01287422887980938,-0.04813046008348465,-0.0449582077562809,-0.012338947504758835,0.0757104903459549,0.04526115208864212,0.030708570033311844,0.09410552680492401,0.05103490129113197,-0.12988564372062683,-0.11113327741622925,-0.05329224839806557,0.07065653055906296,0.04420649632811546,-0.08118072152137756,-0.00059014797443524,0.017858033999800682,-0.02718731388449669,0.030089324340224266,-0.07138241082429886,0.038272641599178314,-0.03034350834786892,-0.05037146434187889,-0.015527649782598019,0.11325367540121078,0.0033959706779569387,-0.03769851103425026,-0.002093042479828,0.12037936598062515,-0.15936322510242462,-0.06963837146759033,-0.07070208340883255,-0.011452673003077507,0.08487832546234131,0.12042444199323654,-0.00036407631705515087,-0.06696107983589172,-0.06159977614879608,0.07795926928520203,0.10496916621923447,0.016360070556402206,0.001708578085526824,0.03235998749732971,-0.03551414981484413,-0.03486527130007744,0.028433524072170258,0.009513648226857185,0.006513931788504124,-0.024376869201660156,-0.006286859046667814,-0.1340656727552414,-0.07496771216392517,-0.08964110910892487,-0.06268943101167679,-0.08618457615375519,-0.05545269697904587,-0.036651019006967545,0.0842704176902771,0.02265777625143528,0.061167988926172256,0.11581157147884369,-0.11325070261955261,0.13307373225688934,0.04385918378829956,-0.07957446575164795,0.03474763408303261,0.03150717169046402,-0.1002061516046524,-0.0557498075067997,-0.011182966642081738,0.08923404663801193,0.04781850427389145,-0.0021231535356491804,0.07764960080385208,-0.034818850457668304,-0.09188158065080643,-0.12892217934131622,-0.05833632871508598,-0.013803454115986824,0.07398158311843872,-0.01999950222671032,0.010026725940406322,0.08260311931371689,-0.014316904358565807,-0.0758519321680069,0.045077212154865265,-0.11664693802595139,0.09115904569625854,0.06576051563024521,0.12759771943092346,-0.059435825794935226,-0.019010253250598907,0.1320733278989792,-0.08595683425664902,0.0840955525636673,-0.055762894451618195,0.034541212022304535,0.03632166609168053,0.09037098288536072,0.023062054067850113,-0.07124583423137665,0.006810429506003857,-0.0628180056810379,-0.04340618476271629,0.0003871585940942168,-0.012388886883854866,-0.04138718917965889,0.0021478175185620785,-0.04948572814464569,0.0039163390174508095,0.005408311262726784,-0.040823448449373245,0.058624476194381714,-0.0193164125084877,-0.09596531093120575,0.045084208250045776,-0.03369196876883507,-0.11306186020374298,0.12601874768733978,0.07855658233165741,-0.08292455971240997,-0.010142846964299679,0.0036157798022031784,0.047327831387519836,0.10191148519515991,0.018909813836216927,-0.035503827035427094,-0.08152322471141815,0.04201227426528931,-0.06685353070497513,-0.039646610617637634,0.019627947360277176,-0.06918929517269135,0.10215464979410172,0.04927021265029907,0.0075134215876460075,-0.02419731765985489,-0.06981704384088516,0.015189717523753643,-0.006255012471228838,0.06719360500574112,-0.03271288424730301,-0.05137709155678749,0.03174854815006256,-0.000031240066164173186,0.06075802445411682,-0.12741920351982117,0.060743190348148346,0.07270843535661697,-0.04333284869790077,-0.08110761642456055,-0.10747618973255157,-0.046199116855859756,0.03327985107898712,0.011782926507294178,-0.012691893614828587,-0.05609656870365143,-0.028768645599484444,0.10916827619075775,-0.043914418667554855,0.03296413645148277,0.11581581830978394,-0.011164763942360878,0.032864492386579514,0.07610557973384857,-0.07305288314819336,-0.08813063055276871,-0.029020367190241814,-0.00927741639316082,0.013482639566063881,-0.04464862868189812,0.02332022227346897,0.007751386612653732,-0.05289894714951515,0.05171675235033035,-0.00722944550216198,0.047200243920087814,0.039934948086738586,-0.017221251502633095,-0.08972489833831787,0.08349920064210892,-0.02604535035789013,0.06316367536783218,0.018310049548745155,0.0005172450910322368,0.11453093588352203,-0.06326655298471451,0.04537284001708031,0.12298481911420822,0.00882110744714737,0.03045482002198696,-0.07529342174530029,-0.03486363962292671,-0.014679349958896637,0.12344319373369217,-0.03880593925714493,0.07941074669361115,-0.054680198431015015,-0.10957317799329758,0.09397751092910767,0.0649382546544075,-0.07663284987211227,-0.02642826735973358,-0.003931764513254166,0.0028882971964776516,0.027410704642534256,0.10397741943597794,0.0102645643055439,-0.08353175222873688,0.0005413472536019981,0.04718017578125,-0.12196026742458344,-0.00041251012589782476,-0.034954532980918884,-0.018322402611374855,-0.08693570643663406,0.000012871868420916144,-0.04999435320496559,-0.027638860046863556,-0.05900108069181442,-0.050267212092876434,-0.09624271094799042,-0.03742629289627075,-0.0015935908304527402,-0.035797957330942154,-0.06418177485466003,-0.0765979140996933,-0.0783914253115654,-0.01702459529042244,-0.017123186960816383,0.01620788872241974,-0.08041597157716751,-0.0038351065013557673,0.11328785866498947,-0.035917285829782486,-0.05864167958498001,0.015888435766100883,0.023271877318620682,0.0679318755865097,0.09720424562692642,0.02238701656460762,0.0531780831515789,0.016555631533265114,-0.12416530400514603,-0.037873901426792145,0.047609515488147736,0.001591550069861114,-0.07723972201347351,0.11162993311882019,-0.04695804789662361,0.10029837489128113,-0.04119515419006348,0.05629348009824753,-0.052971161901950836,0.002090105088427663,0.12048286944627762,-0.016084039583802223,-0.09662016481161118,0.03860073909163475,0.008611923083662987,0.04788385331630707,0.09977125376462936,0.007714305073022842,0.04661304131150246,-0.04942328855395317,0.055277008563280106,-0.013946522027254105,0.12442050874233246,-0.0023419151548296213,0.00446081068366766,0.030639514327049255,0.012593619525432587,-0.027897728607058525,0.043916452676057816,0.06945740431547165,0.007102025207132101,-0.01781725138425827,0.030707916244864464,-0.020897848531603813,0.04110131785273552,0.042153194546699524,0.03571445494890213,-0.0031482777558267117,-0.02424946427345276,-0.08284631371498108,0.06593777239322662,0.05102728679776192,-0.024507738649845123,0.03504214435815811,0.018651548773050308,-0.058772578835487366,0.022045064717531204,0.06086084991693497,-0.023663658648729324,-0.043171465396881104,0.05252068117260933,-0.05137263238430023,0.034534014761447906,-0.05577566474676132,-0.01172948069870472,-0.09344219416379929,-0.09045766294002533,-0.025628237053751945,-0.005577570293098688,0.08576755225658417,0.07333587110042572,-0.08169952780008316,0.017324775457382202,0.04440401867032051,-0.02629007399082184,-0.014622708782553673,-0.08248506486415863,-0.02985849231481552,-0.002770814346149564,-0.002617414342239499,-0.03702932968735695,0.10746941715478897,0.04715052247047424,0.07658027857542038,-0.0950276330113411,0.02024095691740513,-0.025543810799717903,0.045106180012226105,-0.011838301084935665,0.0037641653325408697,-0.00028998759808018804,-0.061313971877098083,-0.11443398892879486,0.018550937995314598,-0.06885797530412674,0.0021617370657622814,0.01541547104716301,-0.0642763003706932,-0.032259561121463776,-0.02825220860540867,-0.06999710947275162,-0.11939802765846252,0.03339632228016853,0.046788834035396576,0.014829559251666069,-0.09051564335823059,-0.04517817869782448,-0.030454153195023537,-0.0635627880692482,-0.009339425712823868,-0.04746424779295921,-0.10289324820041656,-0.07131903618574142,0.021953299641609192,-0.0546799898147583,-0.08683566004037857,-0.00079363799886778,-0.06476713716983795,0.006514096632599831,-0.028865940868854523,0.0046003032475709915,-0.08792687952518463,0.0509389266371727,0.09250801801681519,-0.050680290907621384,-0.03197367489337921,-0.00410887785255909,-0.007390660233795643,0.0372174046933651,-0.017596745863556862,-0.06418893486261368,0.06851720809936523,-0.030985072255134583,0.0551733635365963,-0.04809391498565674,-0.025869736447930336,-0.024145035073161125,-0.06302506476640701,0.010630639269948006,0.002915982622653246,0.010417326353490353,0.11332332342863083,-0.0025939056649804115,-0.08262158185243607,0.017428074032068253,0.10142464935779572,0.06315093487501144,0.019862670451402664,0.04344407096505165,0.1253240704536438,0.011167188175022602,0.04930583015084267,0.05047162249684334,-0.05519745871424675,-0.11237431317567825,0.06635291874408722,-0.06556562334299088,-0.002899451181292534,-0.048199139535427094,-0.06699910014867783,0.009164372459053993,-0.00972320418804884,0.010520406067371368,0.014652492478489876,0.0334899015724659,-0.09720407426357269,-0.01933438703417778,0.024231672286987305,0.026454804465174675,-0.09471222013235092,0.02956370636820793,-0.010905773378908634,0.04604579508304596,0.11842907220125198,-0.0020413605961948633,-0.06398241966962814,0.014443381689488888,-0.03539242595434189,0.10375770181417465,0.08242744207382202,0.04689452052116394,0.0054395245388150215,0.1313263326883316,-0.1388067752122879,-0.03680004924535751,-0.09173712134361267,0.016261495649814606,-0.08422212302684784,0.025087224319577217,0.010005836375057697,0.0370321050286293,-0.09594733268022537,0.04774697870016098,0.010555879212915897,-0.11279023438692093,-0.04251391440629959,0.025378163903951645,0.08846577256917953,-0.014192228205502033,-0.024912996217608452,0.045628417283296585,-0.07588548958301544,-0.022935615852475166,0.11715641617774963,-0.10742925107479095,-0.007779068313539028,0.04562730714678764,-0.04463118314743042,0.004484193865209818,0.042127180844545364,-0.1246541440486908,-0.013615760020911694,0.0011106979800388217,-0.028764311224222183,0.09164337813854218,0.10753580182790756,0.05074957758188248,-0.04302581772208214,0.017580021172761917,-0.05546654015779495,-0.02692192792892456,0.09120769798755646,0.06374863535165787,-0.04670623317360878,0.014083527959883213,-0.010247480124235153,0.007965733297169209,0.09513521939516068,0.11243370175361633,-0.010678716003894806,0.040105532854795456,-0.012049372307956219,-0.06595617532730103,0.025684090331196785,0.05988427624106407,-0.005832578055560589,0.0010902080684900284,-0.06131900101900101,-0.025653520599007607,0.08253277093172073,-0.031067946925759315,0.018866879865527153,-0.11519526690244675,0.06946517527103424,-0.05648482218384743,-0.011983304284512997,-0.028758887201547623,-0.01315899658948183,-0.008724505081772804,0.13605818152427673,0.06864381581544876,0.0603439137339592,-0.10022915154695511,0.02565482258796692,0.04768555983901024,-0.04138145595788956,-0.07109083980321884,-0.006210753228515387,0.036028195172548294,0.05780910700559616,0.01969008520245552,-0.020536769181489944,-0.06376580148935318,-0.09467373788356781,-0.07731298357248306,-0.025506986305117607,0.0493178553879261,-0.04608532786369324,-0.07871329039335251,0.01750057563185692,0.06904449313879013,-0.0870329737663269,-0.018949178978800774,-0.08727530390024185,-0.10104039311408997,0.04547252878546715,0.10902172327041626,-0.059681229293346405,0.10147593170404434,0.022147824987769127,0.019882885739207268,-0.12367785722017288,-0.0713946521282196,0.09866052865982056,0.08844643086194992,0.028594424948096275,0.025931959971785545,0.03472016006708145,-0.03758334740996361,-0.043343763798475266,-0.0051472382619977,-0.13131670653820038,-0.07821722328662872,0.05060262605547905,-0.014713035896420479,-0.014635431580245495,-0.14268791675567627,0.014853810891509056,0.017443137243390083,0.12182322889566422,-0.012460376136004925,-0.058585166931152344,-0.11508631706237793,-0.021431753411889076,-0.005488675553351641,-0.0036936854012310505,0.040407709777355194,-0.032916150987148285,-0.07730286568403244,0.03800597041845322,0.060623861849308014,-0.05135904997587204,0.01535486988723278,-0.023130739107728004,-0.009508511982858181,0.04325446859002113,0.11381515860557556,-0.07533735036849976,0.06548752635717392,-0.001964264316484332,0.02889292687177658,0.017571238800883293,-0.028920086100697517,0.06131388992071152,0.042669348418712616,0.04043881222605705,-0.08100086450576782,-0.08929846435785294,0.11730965226888657,-0.10090979933738708,-0.10086042433977127,0.07856033742427826,-0.046115633100271225,0.027965085580945015,-0.09910637140274048,0.056270916014909744,0.11462187767028809,-0.05176931992173195,0.022030016407370567,0.06228646636009216,-0.031376685947179794,-0.029524212703108788,0.07758290320634842,0.05324683338403702,-0.13540688157081604,-0.054834555834531784,0.05895945429801941,-0.09962161630392075,-0.06298241764307022,-0.03838232532143593,-0.00255547184497118,-0.013614388182759285,-0.013128029182553291,-0.04903683066368103,0.07492267340421677,0.10750169306993484,-0.04371018707752228,0.010122074745595455,-0.005738992244005203,-0.05126241594552994,-0.0623907595872879,0.10004403442144394,0.008698629215359688,0.06814554333686829,-0.07506483793258667,0.033161092549562454,-0.045577533543109894,-0.07274811714887619,-0.06473927199840546,-0.0458906814455986,0.028953000903129578,-0.05566270649433136,-0.13399410247802734,-0.025179341435432434,-0.027038274332880974,-0.008606945164501667,0.05487294867634773,0.046975381672382355,-0.05355248972773552,-0.029598861932754517,-0.10527210682630539,0.006137900520116091,-0.02204222045838833,-0.029274336993694305,-0.05607393756508827,0.07363658398389816,0.11648125946521759,-0.05188855901360512,0.014371106401085854,0.06893736869096756,-0.023724019527435303,0.027531832456588745,-0.06394924223423004,0.12156134098768234,0.031015917658805847,0.15732572972774506,0.0006855328101664782,0.09079360216856003,0.1219879537820816,0.019886888563632965,-0.07683531939983368,0.06352047622203827,0.0942339152097702,0.022186078131198883,0.08112820237874985,-0.008742361329495907,-0.0791551023721695,-0.02572338469326496,-0.01546674408018589,-0.047092240303754807,0.015542369335889816,-0.01381620578467846,-0.04165639355778694,0.11388648301362991,0.01926526241004467,-0.016606254503130913,0.04757186770439148,-0.1068602204322815,-0.09512567520141602,-0.03434333950281143,-0.0481393076479435,-0.05109192058444023,0.014500184915959835,0.005319569259881973,-0.0625738725066185,0.07872786372900009,0.08234339207410812,-0.04297133907675743,-0.08920607715845108,-0.08393432945013046,-0.11698610335588455,-0.024780942127108574,0.019293691962957382,-0.13671468198299408,0.04912923276424408,-0.06335488706827164,-0.09801042079925537,0.001624325173906982,0.07231976836919785,0.02115505188703537,-0.08005191385746002,-0.10851647704839706,0.04193360358476639,0.022674908861517906,0.14228598773479462,-0.0587012954056263,0.016133232042193413,0.0010116675402969122,0.09154263138771057,0.015304622240364552,0.03323616087436676,-0.0758221372961998,0.052008140832185745,0.012433825060725212,-0.031030233949422836,-0.09523148089647293,-0.10595058649778366,0.01726757548749447,0.0424058698117733,-0.03662964701652527,-0.04926161840558052,0.11977187544107437,-0.08423427492380142,-0.0018314648186787963,0.014884409494698048,0.10059942305088043,-0.0955643579363823,0.17176324129104614,0.09851996600627899,0.005908905994147062,-0.05768127366900444,-0.11600812524557114,-0.030873937532305717,-0.007268193643540144,-0.004491747356951237,-0.1432231068611145,-0.00028960019699297845,-0.06425543129444122,0.017327649518847466,-0.0013084992533549666,0.08770215511322021,0.018068138509988785,0.05341191217303276,0.1539125144481659,-0.032925765961408615,-0.009583333507180214,0.018168946728110313,-0.06010733172297478,0.19480681419372559,-0.038868244737386703,-0.005510732531547546,-0.07707799971103668,-0.04161025211215019,-0.07346228510141373,-0.11653713881969452,-0.06782309710979462,-0.10055240988731384,-0.06096167489886284,0.035628434270620346,0.0712985098361969,-0.13018885254859924,-0.017710823565721512,-0.09903557598590851,0.01590888760983944,-0.10525567829608917,-0.0021958439610898495,0.013682528398931026,0.0055258627980947495,-0.023944508284330368,-0.0606444776058197,0.011859881691634655,-0.000927199434954673,0.030085381120443344,0.038659658282995224,0.032748572528362274,0.051582105457782745,-0.037008654326200485,0.043442972004413605,-0.036205142736434937,0.07620569318532944,0.057804618030786514,0.08766564726829529,-0.17865882813930511,-0.039754778146743774,-0.11898373067378998,0.02825772576034069,0.052470289170742035,-0.03567998856306076,-0.07656725496053696,-0.057917267084121704,-0.12157637625932693,-0.06870340555906296,-0.06292393058538437,-0.00397421233355999,-0.04794245958328247,-0.01639726758003235,0.05966656655073166,-0.009364242665469646,-0.049698248505592346,-0.0044400813058018684,0.08406677097082138,0.037422023713588715,-0.040191613137722015,0.011732013896107674,0.044770825654268265,-0.03280172497034073,0.10547523945569992,0.10492344200611115,0.014342830516397953,0.05238356441259384,-0.004839742556214333,-0.029954928904771805,-0.0663372352719307,-0.05062395706772804,0.02294493466615677,-0.015658842399716377,0.10179219394922256,-0.01845557987689972,-0.006400049198418856,-0.040090251713991165,0.011466343887150288,0.017592838034033775,0.007695764768868685,-0.07351069152355194,0.04093318060040474,0.002253895392641425,-0.03390444070100784,-0.00449531152844429,-0.059071432799100876,-0.09149351716041565,0.06374610960483551,0.014741799794137478,-0.0411406047642231,0.07229732722043991,0.009875993244349957,-0.0035745904315263033,-0.050673726946115494,0.08979782462120056,0.09330744296312332,-0.02384297549724579,0.004206100944429636,0.06062057986855507,-0.0363377146422863,-0.004229038953781128,0.14938011765480042,-0.0381440743803978,-0.010610920377075672,-0.08068060129880905,-0.0012346989242359996,-0.010875273495912552,-0.12113229185342789,0.031470850110054016,0.007006510626524687,-0.11600612848997116,0.028103088960051537,-0.06582453846931458,0.03356635943055153,0.06198464706540108,0.056236039847135544,-0.0835988000035286,-0.07089532911777496,0.047696612775325775,-0.05032515898346901,0.02381754294037819,-0.015636827796697617,-0.12456879019737244,0.06939483433961868,-0.03383617848157883,0.020586296916007996,0.10152022540569305,0.0005655844579450786,0.05534430593252182,0.10591714084148407,-0.07202623039484024,-0.057173989713191986,0.08916667848825455,-0.02050688862800598,0.04140564799308777,0.006224656943231821,0.008310987614095211,0.06039587780833244,0.042511411011219025,0.04043573513627052,0.06748019903898239,-0.019542919471859932,-0.06721170991659164,0.040415726602077484,0.07200352847576141,-0.009855581447482109,0.028885118663311005,-0.005920807830989361,-0.03976086899638176,0.021356170997023582,-0.04092252254486084,0.06991448253393173,-0.0521528497338295,0.06680289655923843,0.05058707296848297,0.013414113782346249,0.10905502736568451,-0.12299668043851852,0.06314963847398758,0.01934114657342434,-0.08293724060058594,0.023509616032242775,-0.0521082729101181,-0.01561677549034357,-0.020550064742565155,-0.12207386642694473,-0.0409296490252018,-0.02029816247522831,0.04580037295818329,-0.04836788401007652,0.029959119856357574,0.008801953867077827,0.03819882497191429,0.007128431461751461,-0.04892055317759514,0.07207882404327393,0.04210543632507324,-0.020409148186445236,0.000825240567792207,-0.000807383272331208,0.012503189966082573,-0.04639488831162453,0.02781473472714424,-0.007664435543119907,0.025702277198433876,0.085072822868824,0.042398255318403244,-0.115349180996418,-0.01743648201227188,-0.032779451459646225,0.0674697607755661,0.023611892014741898,-0.0284227654337883,-0.07226993888616562,-0.03929281234741211,-0.07976914197206497,-0.018562817946076393,-0.05234771966934204,0.014637282118201256,0.015499792993068695,-0.07781980186700821,0.09701062738895416,0.0164567232131958,-0.0796351283788681,-0.0284398403018713,-0.02500077150762081,-0.04116782546043396,0.05492036044597626,0.01711803488433361,0.014778614044189453,0.07042855769395828,-0.0038308524526655674,-0.018612045794725418,-0.13409441709518433,0.004649844951927662,0.11776002496480942,-0.046823885291814804,0.02329198084771633,-0.006865599192678928,0.0031717715319246054,0.04611498862504959,-0.053881578147411346,0.030459018424153328,0.033038180321455,0.07416176795959473,-0.02638496458530426,-0.019572682678699493,-0.03350389376282692,-0.04930230230093002,0.08620073646306992,-0.008355562575161457,0.03331930190324783,0.027605023235082626,-0.040637578815221786,-0.09015614539384842,-0.12828467786312103,-0.05604098364710808,-0.012725754640996456,-0.04365793243050575,0.00044071272714063525,0.007810566108673811,-0.08603283762931824,0.02165067195892334,0.04365607723593712,-0.041424188762903214,0.009177475236356258,-0.07539519667625427,0.1143849641084671,0.06889998912811279,-0.08526013791561127,0.002205298515036702,0.06469032913446426,0.039366405457258224,0.039938170462846756,0.10467011481523514,-0.04003299027681351,0.025916239246726036,0.14629091322422028,-0.12367284297943115,-0.09251861274242401,-0.034451924264431,0.039459507912397385,-0.013291510753333569,0.0186202023178339,-0.05230697616934776,-0.02487974986433983,-0.018455954268574715,0.08293133229017258,-0.11522861570119858,-0.08256210386753082,0.04264497384428978,-0.08425974100828171,-0.0014342756476253271,0.0969805046916008,-0.07739777117967606,0.04786716774106026,-0.03386450558900833,-0.0022261287085711956,0.06893517076969147,-0.05532681196928024,-0.005567196290940046,-0.0874759778380394,-0.02284598909318447,-0.01843709871172905,0.12615834176540375,0.07393604516983032,0.06205267831683159,0.017566461116075516,-0.025990080088377,-0.07425490021705627,-0.11930064857006073,-0.05988035351037979,0.09089844673871994,0.08730270713567734,-0.04843434691429138,-0.06271161884069443,0.005394082050770521,-0.067081980407238,-0.103950634598732,-0.05838269367814064,0.013943929225206375,-0.0983804389834404,0.10795848816633224,0.03364938125014305,0.06355517357587814,-0.037582673132419586,0.033706165850162506,-0.10732240974903107,-0.07407170534133911,-0.04652512073516846,-0.0659157782793045,0.00032662463490851223,0.012975468300282955,-0.0032568888273090124,-0.03925216570496559,0.03661920130252838,-0.06984540075063705,0.08986587822437286,0.0027045859023928642,-0.1315494030714035,0.0035592103376984596,-0.0660056620836258,0.05498644337058067,0.06751680374145508,-0.003016686299815774,0.05666715279221535,0.03566441312432289,0.021606817841529846,-0.061403464525938034,-0.00017126777675002813,0.0344059094786644,0.09156646579504013,-0.08762022107839584,-0.13666361570358276,0.09063798189163208,-0.008367554284632206,-0.06355150789022446,0.06458538770675659,0.053679462522268295,0.022301815450191498,0.01923200860619545,0.009385844692587852,0.04691210016608238,-0.015236109495162964,0.0022958589252084494,-0.05095828324556351,0.06576894968748093,0.06785482168197632,-0.028577594086527824,-0.1371372938156128,0.04241328686475754,0.045193299651145935,0.05171047896146774,-0.021070439368486404,-0.042206939309835434,-0.0324583575129509,0.04434974119067192,-0.019464366137981415,-0.1264735609292984,0.002900411607697606,0.023916805163025856,-0.0842975527048111,0.1240963265299797,-0.09329787641763687,-0.0039408146403729916,-0.09538882225751877,-0.019550420343875885,0.12733280658721924,0.03585243225097656,-0.09617600589990616,0.016774991527199745,0.01881532557308674,0.09051290899515152,-0.07092517614364624,0.006530914921313524,-0.04336157813668251,-0.05175706744194031,-0.009010601788759232,-0.053169749677181244,-0.03631775453686714,-0.09563952684402466,0.0041850777342915535,0.018951263278722763,-0.09420117735862732,0.0727972686290741,-0.06393439322710037,0.0686584934592247,-0.02886166051030159,-0.030137842521071434,0.04181450977921486,-0.07048777490854263,0.03492046520113945,-0.0061720022931694984,-0.10033257305622101,-0.020456720143556595,0.006825403776019812,-0.04823160544037819,-0.047409869730472565,-0.06522312015295029,0.05925830453634262,-0.09879343956708908,-0.11482462286949158,0.025121062994003296,-0.04501660168170929,0.023784780874848366,-0.0747409239411354,0.032942064106464386,-0.12065970152616501,-0.08082974702119827,0.06890954077243805,0.03809982165694237,-0.05795586109161377,0.016793427988886833,-0.016039954498410225,0.02667337842285633,-0.0028094167355448008,0.03815719112753868,0.025185653939843178,-0.08938831835985184,-0.009472484700381756,-0.004805863369256258,-0.03871392458677292,-0.050179239362478256,0.07227878272533417,0.06279736757278442,0.041387371718883514,-0.10984513908624649,-0.04569618031382561,0.046770088374614716,0.03775402903556824,-0.05748695880174637,-0.06529487669467926,-0.021149540320038795,0.09561697393655777,0.019610313698649406,-0.0041638873517513275,-0.033029478043317795,0.01756320334970951,0.029926886782050133,-0.0442558191716671,-0.0830903872847557,0.1048031598329544,-0.060416433960199356,-0.009378612972795963,0.007858909666538239,0.022693609818816185,0.008113629184663296,-0.01749013550579548,-0.120512954890728,0.039171252399683,-0.05340523272752762,0.10405489802360535,-0.033496055752038956,-0.016360800713300705,-0.011888395063579082,-0.012325058691203594,-0.035878099501132965,0.0507659912109375,0.09600953757762909,0.10505591332912445,0.10045906156301498,-0.07335101813077927,0.04750676453113556,0.03834562748670578,-0.044308945536613464,0.07082455605268478,0.043650489300489426,0.08069012314081192,-0.02016180381178856,-0.04297398775815964,0.10697849839925766,0.004024904686957598,0.12300590425729752,-0.01842731423676014,-0.12727506458759308,-0.04165248945355415,0.040088798850774765,-0.008408505469560623,0.007836760021746159,0.006027741823345423,-0.02141747996211052,0.03578098118305206,-0.04437179118394852,-0.08879435062408447,-0.047567471861839294,-0.03385148197412491,0.06442557275295258,-0.006329549476504326,-0.009797673672437668,-0.0009088916121982038,-0.03167618066072464,-0.005935202818363905,0.019519055262207985,0.0297744981944561,0.050477541983127594,0.03367769345641136,-0.07289177179336548,0.08469203114509583,-0.010909145697951317,-0.009099031798541546,0.07476209104061127,0.12092243134975433,-0.054220374673604965,-0.023053143173456192,-0.07194188982248306,-0.10551724582910538,0.12172682583332062,0.05092450976371765,0.029550710693001747,-0.06264947354793549,-0.022488713264465332,-0.045223113149404526,-0.04974641650915146,-0.017972532659769058,0.030828509479761124,-0.06235559657216072,0.0431201234459877,0.0029178920667618513,-0.021136760711669922,-0.038108110427856445,-0.03828545659780502,0.06071094796061516,0.06043895706534386,-0.018824167549610138,0.08496531844139099,-0.036957383155822754,0.0038269979413598776,-0.07854806631803513,-0.02112683281302452,0.10266684740781784,0.0335615873336792,0.007389665115624666,0.012722566723823547,-0.1463521271944046,-0.03099774941802025,0.10087312012910843,-0.019790716469287872,-0.012979410588741302,0.05642049387097359,-0.0591304674744606,0.025689823552966118,-0.025786569342017174,-0.07749247550964355,-0.031410541385412216,0.0476691797375679,0.04206690564751625,-0.012941303662955761,0.00042392389150336385,-0.05893561616539955,0.06005258858203888,0.12770362198352814,0.06713496893644333,0.030489012598991394,-0.04875447601079941,0.011265505105257034,0.05774054676294327,0.11172657459974289,-0.003285624086856842,-0.03723067790269852,-0.07025603950023651,0.02824532240629196,-0.04945985600352287,0.029433052986860275,-0.07056505978107452,-0.002947654342278838,0.0077238744124770164,-0.0362333208322525,-0.06311871856451035,0.04138577729463577,-0.038518037647008896,0.04459914192557335,-0.08676812052726746,0.0614815317094326,0.020175080746412277,0.05728389322757721,-0.014562848955392838,0.014405110850930214,-0.05871642380952835,-0.024318566545844078,0.10096617043018341,0.01534926425665617,0.019834117963910103,-0.04446934908628464,-0.09706240892410278,-0.016661066561937332,-0.042510610073804855,0.0652327686548233,-0.03760118409991264,0.09159006923437119,0.05295427143573761,0.034653112292289734,-0.0804881826043129,-0.018201632425189018,-0.05580390989780426,-0.005047283135354519,0.02222587913274765,-0.09678588807582855,0.08054477721452713,0.03865321725606918,-0.060513827949762344,-0.11151351034641266,-0.0006878068670630455,0.034098584204912186,0.046574827283620834,0.06899454444646835,0.02958645299077034,0.03244486823678017,-0.020005321130156517,-0.10500944405794144,0.08107414841651917,0.12283876538276672,-0.09039913862943649,-0.11579790711402893,0.06749021261930466,-0.03796995431184769,0.013109398074448109,-0.007683325093239546,0.014771374873816967,0.01853346638381481,-0.04958564043045044,-0.0419757217168808,0.08045170456171036,-0.02877635322511196,0.02205555886030197,0.011548307724297047,0.07352745532989502,-0.0354338064789772,-0.03836510330438614,0.03675072267651558,-0.04845651611685753,-0.033816415816545486,0.06878102570772171,0.0017002617241814733,0.06406240910291672,0.01713741384446621,-0.027475863695144653,0.06006920337677002,0.011877931654453278,-0.011922883801162243,-0.07934091240167618,0.04705485701560974,-0.061916008591651917,-0.07517758756875992,-0.011540177278220654,-0.10737229883670807,0.03747521713376045,-0.02098209597170353,0.06342365592718124,-0.061952415853738785,0.09622766822576523,0.01799982599914074,0.049604739993810654,0.02995426580309868,-0.030038587749004364,0.0680406466126442,0.01540164090692997,0.09499512612819672,-0.056354403495788574,-0.02953508123755455,0.015372679568827152,-0.04389967396855354,-0.003686843439936638,0.026986408978700638,0.002281064400449395,-0.047015149146318436,0.04743824154138565,-0.09711214900016785,-0.1015762910246849,0.08100776374340057,0.08262506872415543,0.015050521120429039,0.021100744605064392,0.027401339262723923,-0.06766101717948914,-0.052123866975307465,-0.025213487446308136,-0.10716228187084198,-0.03565865755081177,-0.06557738035917282,0.06048168987035751,-0.061101097613573074,-0.056593380868434906,0.06193846836686134,-0.04689532890915871,-0.057084593921899796,-0.05985492467880249,-0.017590077593922615,0.08705247938632965,-0.0034785468596965075,-0.004105055704712868,-0.06697617471218109,-0.07286237180233002,0.08676965534687042,-0.11638342589139938,-0.02472071908414364,-0.029538268223404884,-0.03834955766797066,-0.037768665701150894,0.02050306461751461,0.10190435498952866,0.08439619094133377,0.06997895240783691,-0.03171570599079132,-0.11507175862789154,0.019278280436992645,0.023848138749599457,0.12081782519817352,0.05930721014738083,-0.04422991722822189,-0.020408524200320244,0.0492437444627285,0.007384269032627344,0.04802404344081879,0.004688829183578491,-0.016392551362514496,-0.056228380650281906,0.006953986827284098,-0.03530743718147278,0.08975865691900253,-0.08531361073255539,-0.00705779530107975,-0.019596388563513756,0.014079660177230835,-0.027563881129026413,-0.011790375225245953,-0.13355989754199982,-0.015413632616400719,0.11404510587453842,-0.10944277048110962,-0.006995454430580139,-0.024060549214482307,0.03940800204873085,-0.025924326851963997,-0.04198780655860901,0.00905621238052845,0.022030014544725418,-0.02827300690114498,-0.017030861228704453,-0.008952654898166656,0.09457571804523468,-0.05279922112822533,0.010514309629797935,0.02216937392950058,0.12417823076248169,-0.12703901529312134,0.020609403029084206,-0.1102311834692955,0.06086290255188942,-0.01168407965451479,-0.04261764883995056,-0.06751557439565659,0.126697838306427,-0.10293373465538025,-0.06089428812265396,-0.13384020328521729,0.03965233638882637,0.10344111919403076,0.09192486852407455,-0.11781845986843109,-0.07296758145093918,-0.03552048280835152,0.010423792526125908,0.013650295324623585,-0.07522846758365631,-0.0338464081287384,-0.016174769029021263,-0.03181178495287895,0.0015784436836838722,0.06851662695407867,-0.008226918056607246,0.06865086406469345,-0.01745556853711605,-0.05579447001218796,-0.03402741625905037,0.025775209069252014,-0.06867050379514694,0.012158920057117939,0.014350632205605507,-0.012710614129900932,0.04925505816936493,-0.06707973033189774,-0.002417571609839797,-0.06205621734261513,-0.07718982547521591,0.05200809985399246,-0.011228022165596485,0.11445441097021103,0.004349360242486,-0.08936984837055206,0.11216498911380768,0.13263389468193054,0.04307916387915611,0.05825895443558693,0.06678115576505661,-0.06103304401040077,0.0949065312743187,0.04968944564461708,0.1103765144944191,-0.010854603722691536,-0.042332496494054794,0.015759842470288277,-0.031672846525907516,0.026064865291118622,-0.13363833725452423,-0.0390164777636528,-0.04423468932509422,-0.04152876138687134,0.0986027866601944,0.06208455562591553,0.07479681074619293,-0.1924978792667389,0.09832482039928436,0.07447294890880585,-0.06013676896691322,-0.06745781749486923,0.1063823252916336,-0.05867062881588936,-0.023810654878616333,0.006558284163475037,0.06506968289613724,0.017789868637919426,-0.0898345559835434,-0.0330331064760685,-0.023877257481217384,-0.029123572632670403,-0.032080020755529404,-0.0560632050037384,0.0034613690804690123,-0.03448488190770149,0.005654548294842243,-0.0007733029779046774,-0.04275447130203247,-0.08137298375368118,0.036385245621204376,-0.0066754077561199665,-0.018538860604166985,-0.04689670726656914,0.11164820939302444,-0.04914775490760803,0.06699249893426895,0.06811125576496124,-0.057667527347803116,-0.017251726239919662,-0.12020604312419891,-0.10562168061733246,-0.11112789809703827,-0.04805196449160576,0.04450089484453201,-0.05865679308772087,0.09470813721418381,0.06030448153614998,-0.08779962360858917,-0.15164127945899963,0.07883280515670776,0.11770567297935486,0.0008010829333215952,-0.02224578708410263,-0.056981563568115234,0.12120784819126129,-0.04205936938524246,0.009514064528048038,-0.07958601415157318,-0.09636455029249191,0.09563243389129639,0.03358343616127968,0.143889918923378,0.03988118842244148,-0.0979500338435173,-0.019777745008468628,0.06977242231369019,-0.0517367348074913,-0.053374163806438446,-0.051021508872509,0.00019079301273450255,0.010175873525440693,0.05747359246015549,0.011359966360032558,0.01660395972430706,0.014406205154955387,0.015371732413768768,0.05799419805407524,0.029597122222185135,-0.12758226692676544,0.02844272367656231,0.05196748301386833,0.02376648411154747,-0.05058245360851288,-0.021458400413393974,-0.03755553066730499,0.05291870981454849,0.02160004898905754,0.005133430007845163,0.04182976111769676,-0.08240408450365067,-0.08696238696575165,0.005580004770308733,-0.04455714672803879,0.03937186300754547,0.023462237790226936,-0.05909669026732445,-0.020202936604619026,-0.11675424128770828,0.022251524031162262,-0.03141693025827408,0.08725561201572418,-0.07858389616012573,0.035208139568567276,0.04853041470050812,0.05429065227508545,-0.05810404196381569,0.034489139914512634,0.02668428234755993,-0.1216755360364914,-0.019820844754576683,0.10160364210605621,0.09262745827436447,-0.017901374027132988,0.07042896002531052,0.01732741855084896,0.10726659744977951,0.06500141322612762,-0.10492981225252151,-0.04226883873343468,-0.10316688567399979,0.05631889030337334,0.0964733436703682,0.1280774474143982,0.07014870643615723,0.051561079919338226,-0.0017786540556699038,0.10983046144247055,-0.018329421058297157,-0.008641173131763935,-0.14074061810970306,0.0751342698931694,0.07755397260189056,-0.01836801879107952,0.1789494752883911,-0.04389885812997818,-0.06935106217861176,0.06894076615571976,0.09457261860370636,0.024650342762470245,-0.09696110337972641,0.00857668835669756,0.025198547169566154,-0.03282992169260979,-0.07729167491197586,0.06538134813308716,-0.0015227406984195113,-0.051628950983285904,0.0008453092887066305,-0.029007289558649063,-0.08554127812385559,0.04709331691265106,0.11547154188156128,-0.014947960153222084,0.11227637529373169,0.002410829532891512,-0.013816557824611664,-0.017658300697803497,-0.051180168986320496,0.11671125143766403,-0.06012025848031044,-0.0222091693431139,-0.08762846142053604,0.012052591890096664,-0.02683509700000286,0.0449182502925396,0.07255630940198898,-0.04561786726117134,-0.07333555817604065,-0.09100250899791718,0.07971729338169098,0.011517071165144444,-0.03648040071129799,0.03746781125664711,0.027294177561998367,-0.13098444044589996,0.12840282917022705,0.07977229356765747,0.005685643758624792,0.019045405089855194,-0.08357404172420502,0.019547782838344574,0.02808222733438015,-0.12509869039058685,0.06093723699450493,-0.026339611038565636,-0.021495554596185684,-0.029897436499595642,-0.03573552891612053,0.09252066165208817,-0.061104707419872284,0.006578134372830391,-0.08616799861192703,-0.12114908546209335,0.008768918924033642,-0.044416334480047226,-0.010378791019320488,-0.04699137061834335,-0.04003886878490448,-0.02916298620402813,0.05747954174876213,0.04532802104949951,-0.031169869005680084,-0.04002702608704567,0.03179078549146652,-0.07087550312280655,0.048979826271533966,0.007848033681511879,0.0723336935043335,-0.014894693158566952,0.04256973788142204,-0.05066025257110596,0.019872136414051056,0.11443059891462326,0.09629660844802856,-0.009852656163275242,0.07675763219594955,0.13180853426456451,0.03663695976138115,0.10755771398544312,0.02614496648311615,-0.06351928412914276,0.11151591688394547,-0.06088137626647949,0.0663718655705452,0.002722678240388632,-0.07362228631973267,0.018387705087661743,0.020444568246603012,-0.05623045191168785,0.1057305559515953,0.08062293380498886,0.07278595864772797,0.06204270198941231,-0.0703221932053566,-0.07452450692653656,0.042657431215047836,-0.010332117788493633,0.0038201077841222286,-0.0740947276353836,0.030458446592092514,-0.02586355432868004,0.08792012929916382,-0.0413203164935112,-0.10216432809829712,-0.04535574093461037,0.029615961015224457,0.03098500333726406,-0.11957661062479019,0.03191138803958893,0.0007713588420301676,-0.09698119759559631,0.030150776728987694,-0.05083301663398743,0.09297437220811844,-0.022289859130978584,0.0012119743041694164,0.0004304993781261146,-0.0007080707582645118,0.03264659643173218,-0.07626942545175552,-0.007995783351361752,-0.012520115822553635,0.0330132432281971,0.018523238599300385,-0.036659855395555496,0.11084263026714325,0.10157431662082672,-0.008708431385457516,0.03512388467788696,0.00774364173412323,-0.05774121731519699,-0.03932143375277519,-0.09753570705652237,-0.07876501977443695,0.03863466531038284,0.014585032127797604,-0.006339652929455042,0.03257143869996071,0.04992201179265976,0.001642155461013317,0.020056884735822678,-0.09418578445911407,-0.07634256780147552,-0.03132966533303261,0.05614393204450607,0.0016310719074681401,-0.015933167189359665,0.014432023279368877,0.02418951317667961,0.04319361597299576,0.02597578801214695,0.07869509607553482,-0.0052815699018538,0.004606864880770445,-0.04958972707390785,-0.028589243069291115,0.036866817623376846,-0.0022014668211340904,0.002095029689371586,-0.008420618250966072,0.03513776883482933,0.024008436128497124,-0.024755023419857025,0.07956168055534363,-0.07197359204292297,-0.056915368884801865,0.04318583011627197,-0.016110457479953766,-0.09271984547376633,-0.030316563323140144,-0.07258174568414688,-0.02093110978603363,-0.07443461567163467,-0.032128117978572845,-0.01714360900223255,0.05626790225505829,0.008545736782252789,0.04276939481496811,0.033267661929130554,-0.11302974820137024,0.021096577867865562,0.01607373170554638,0.018773885443806648,-0.05512108653783798,-0.10259230434894562,0.04553394392132759,0.0348522812128067,0.041975922882556915,-0.005802677944302559,0.07259875535964966,0.0528690367937088,0.06304880976676941,-0.033316709101200104,-0.11920078098773956,0.08395908772945404,-0.1140618547797203,0.040152717381715775,-0.05931873247027397,0.11543413251638412,0.07839225977659225,0.12603408098220825,-0.08691851794719696,0.003424070542678237,0.1171579584479332,-0.040961235761642456,-0.021546073257923126,0.05956193432211876,-0.03183704987168312,-0.09719805419445038,0.07749912887811661,-0.056151967495679855,-0.0026519212406128645,-0.02898063324391842,0.018373824656009674,0.0845123678445816,-0.13714860379695892,0.04794289544224739,0.04292414337396622,0.001401575398631394,-0.1256224513053894,-0.021846527233719826,-0.06728661060333252,-0.01785947196185589,-0.017614426091313362,-0.0639011338353157,0.027135392650961876,0.06636751443147659,0.05778610706329346,-0.015241463668644428,-0.10262394696474075,-0.11573975533246994,-0.011856503784656525,-0.019699791446328163,-0.1187513917684555,0.09700563549995422,-0.10186847299337387,0.00014361095963977277,-0.0009341665427200496,0.04273328557610512,-0.008053090423345566,0.053178053349256516,0.009080939926207066,0.0016233116621151567,-0.08813083171844482,0.04125091806054115,-0.01718689315021038,-0.04637456685304642,-0.02905215695500374,0.01221667230129242,-0.058282118290662766,0.014951027929782867,0.060978908091783524,0.09813273698091507,0.028468865901231766,0.016946326941251755,-0.03658945858478546,0.10263251513242722,-0.007612351793795824,-0.0774671733379364,-0.016349192708730698,0.12376192957162857,-0.03972570225596428,-0.09505367279052734,-0.054544370621442795,-0.027126578614115715,0.009474118240177631,0.07941029220819473,0.09858714789152145,0.014659677632153034,-0.014612380415201187,-0.05293561518192291,-0.037658970803022385,-0.00965907983481884,0.05967330187559128,-0.0023612624499946833,0.000007662463758606464,-0.09532082080841064,-0.024502694606781006,0.08616521954536438,0.058174338191747665,-0.09698443859815598,-0.0511556901037693,0.05009220167994499,-0.11194059252738953,0.030531613156199455,0.02409406751394272,0.008073794655501842,0.059974510222673416,0.02412794902920723,-0.08939076215028763,0.04712629318237305,-0.024512656033039093,-0.0069042700342834,-0.14021754264831543,-0.08677851408720016,0.010566236451268196,-0.1093125268816948,-0.051593124866485596,0.055411916226148605,-0.08744678646326065,-0.014204788953065872,0.025526467710733414,0.0387660376727581,0.014575227163732052,-0.02679818496108055,-0.008883322589099407,-0.04415484517812729,0.0709667056798935,-0.1104051023721695,0.002033509546890855,-0.12515416741371155,0.028097685426473618,0.12907153367996216,-0.09277495741844177,0.052682772278785706,0.09968478232622147,0.028443152084946632,-0.0605369433760643,-0.02376781962811947,0.06043683737516403,-0.03450971096754074,-0.0686991736292839,0.07845322787761688,0.004667075350880623,-0.06170382350683212,0.02789412997663021,-0.037404946982860565,-0.005868694745004177,-0.06633954495191574,-0.0042592003010213375,0.03777669370174408,-0.08351337909698486,0.027409370988607407,-0.022529534995555878,-0.01540204044431448,0.028972389176487923,-0.0022384249605238438,-0.034877266734838486,-0.03666996955871582,0.08554062247276306,0.01021002046763897,0.0029020258225500584,-0.027724282816052437,-0.0152040496468544,0.035871054977178574,-0.05878476798534393,-0.10489469021558762,0.08221166580915451,-0.11541630327701569,-0.0037529191467911005,-0.040622927248477936,-0.032736197113990784,0.01659020036458969,-0.025174634531140327,-0.1116337925195694,0.04700848087668419,0.08297489583492279,-0.07061845809221268,0.019637657329440117,0.10547663271427155,0.004439449403434992,0.009675628505647182,-0.03785884752869606,0.00768550718203187,-0.008721130900084972,0.07651971280574799,-0.10233452171087265,0.03127843141555786,-0.033571261912584305,0.0005382171366363764,0.014236434362828732,-0.0013862032210454345,-0.023653564974665642,0.01822291500866413,-0.003664572723209858,-0.05227063223719597,0.10105663537979126,0.012777361087501049,0.035529304295778275,-0.08154094964265823,-0.06653156131505966,0.12456730008125305,0.0072908904403448105,-0.028861895203590393,-0.03548073768615723,-0.04523271322250366,-0.05589926242828369,-0.007530669681727886,-0.07876242697238922,-0.0647418349981308,0.028175609186291695,0.034989405423402786,-0.09886650741100311,-0.014648279175162315,0.046452924609184265,-0.049868203699588776,0.03877480700612068,-0.07685589790344238,0.06204439327120781,0.03809185326099396,-0.06763886660337448,0.04229642078280449,-0.0036515933461487293,0.07768850773572922,0.00439086090773344,-0.023644855245947838,-0.012486335821449757,-0.10560136288404465,-0.04962246119976044,-0.10904537886381149,-0.06852523237466812,0.04082482308149338,-0.019796352833509445,-0.12713810801506042,-0.009874989278614521,0.04115555062890053,0.04006609693169594,0.02154742181301117,-0.09818136692047119,0.01124226301908493,-0.03350193798542023,-0.01628543809056282,-0.015124295838177204,0.04013349488377571,0.07647699862718582,-0.06571724265813828,0.09165366739034653,-0.0010538750793784857,0.11112348735332489,-0.0060554188676178455,-0.08959869295358658,-0.002118506236001849,-0.021394506096839905,0.010819886811077595,0.036062344908714294,-0.0023778914473950863,-0.05702058970928192,-0.07317754626274109,-0.033141426742076874,-0.11398875713348389,-0.05037585273385048,0.015327305532991886,-0.0831887274980545,-0.0391949824988842,0.012873362749814987,-0.08090375363826752,0.018809324130415916,0.08408112823963165,-0.15006381273269653,0.019629281014204025,0.00546986423432827,-0.04565160349011421,-0.09751097112894058,0.012237274087965488,0.025250684469938278,-0.10355716198682785,-0.024424979463219643,-0.09351842850446701,-0.013874257914721966,-0.03217668831348419,-0.018620554357767105,-0.0475086085498333,-0.03340938314795494,0.013068466447293758,-0.09706614911556244,0.06143568456172943,-0.04649884253740311,-0.057814255356788635,-0.07627265900373459,-0.010763009078800678,-0.021275073289871216,0.060053884983062744,-0.021619362756609917,-0.0066610658541321754,0.10866829752922058,0.03298008441925049,-0.052855219691991806,-0.013203643262386322,0.02255219779908657,-0.0207828301936388,0.01090991497039795,-0.04824172705411911,0.011544072069227695,-0.05808652192354202,-0.012643636204302311,0.06091216206550598,-0.09635468572378159,0.03168787434697151,0.011582654900848866,-0.026039056479930878,-0.01139000803232193,-0.007402403745800257,0.0190743301063776,0.002115963026881218,0.0011289484100416303,0.05941305309534073,0.04316406324505806,-0.10315807163715363,-0.028317119926214218,0.11131679266691208,-0.006072122137993574,-0.04058987274765968,-0.03618455305695534,0.02798551507294178,-0.0007631576154381037,0.11132305860519409,0.024932099506258965,0.07024472951889038,-0.11386539041996002,0.01393839344382286,-0.07219025492668152,0.040856871753931046,0.04546649381518364,0.03374055027961731,-0.03451273962855339,0.09674572944641113,0.08667907863855362,-0.10257594287395477,-0.03464151918888092,0.05842385068535805,-0.07963662594556808,-0.019634215161204338,-0.01209534052759409,-0.12007757276296616,-0.07753045856952667,0.015309536829590797,-0.04638351872563362,-0.10426145792007446,-0.049755509942770004,0.027156086638569832,-0.011968088336288929,-0.0017098304815590382,-0.0019472133135423064,-0.01944313570857048,0.03455851227045059,0.03300073370337486,-0.11093129962682724,0.03303292393684387,-0.11178582906723022,0.020990388467907906,0.027797067537903786,0.018146883696317673,-0.09902632981538773,-0.0024172381963580847,0.020002329722046852,-0.0628562644124031,-0.03394823521375656,-0.041375987231731415,0.04173247143626213,-0.04033444821834564,0.08356782793998718,-0.041292544454336166,-0.07111462205648422,0.10166668891906738,-0.1384352445602417,-0.005580461118370295,0.027168244123458862,0.02169289067387581,-0.0905117616057396,-0.026795413345098495,0.014228577725589275,-0.07815395295619965,0.05195925757288933,0.03708323836326599,-0.032487526535987854,0.038634080439805984,0.02910975180566311,-0.07706990838050842,-0.11029576510190964,-0.07675666362047195,-0.06912347674369812,-0.1053805947303772,0.00294845481403172,0.06253658980131149,-0.009888614527881145,-0.07316066324710846,0.03981519863009453,0.09306813031435013,-0.03491153568029404,0.10789844393730164,-0.04795817285776138,0.03572278842329979,0.10358957946300507,0.06960772722959518,-0.018712269142270088,0.03947550058364868,-0.027127567678689957,0.015460164286196232,0.054198089987039566,0.03800909221172333,0.026096297428011894,-0.08493030816316605,-0.11044992506504059,-0.11894307285547256,-0.14869248867034912,0.005551351699978113,0.08359096199274063,-0.04585777595639229,-0.03710385411977768,-0.03933621570467949,0.020539524033665657,0.06353923678398132,-0.037076935172080994,0.011269363574683666,-0.04076482728123665,0.03668555989861488,0.17294737696647644,-0.09375516325235367,-0.05947283282876015,0.0030994375701993704,0.07931447774171829,0.07696257531642914,0.09679366648197174,-0.09391326457262039,-0.02955963835120201,0.058245573192834854,0.06464091688394547,0.051223814487457275,-0.021500494331121445,0.007269896566867828,-0.11337893456220627,-0.07952563464641571,-0.11001235991716385,0.09428639709949493,0.08322372287511826,0.021940430626273155,-0.06345738470554352,0.09240082651376724,-0.036414533853530884,-0.046996038407087326,-0.039445001631975174,0.006573043297976255,0.002402419922873378,0.06096852943301201,0.020995542407035828,-0.00923690851777792,0.056096211075782776,-0.06134086847305298,0.03241847828030586,0.049763232469558716,-0.07955480366945267,-0.08689098060131073,0.005245514214038849,-0.04996427521109581,-0.10715172439813614,0.02554880641400814,-0.0009421859867870808,0.05174517259001732,0.056012481451034546,0.010666808113455772,-0.11597940325737,-0.042752768844366074,-0.05865517631173134,0.05355045199394226,-0.031125826761126518,-0.12365490198135376,-0.023865247145295143,0.04011038318276405,-0.07399342209100723,0.11286531388759613,-0.08069965243339539,-0.09688660502433777,0.011466609314084053,0.07375805079936981,-0.00393677456304431,-0.06309922784566879,0.1054195687174797,0.06847308576107025,0.019920971244573593,-0.0017164584714919329,0.006856443360447884,-0.07942822575569153,0.07867221534252167,-0.07406080514192581,0.06158154830336571,0.07591939717531204,-0.016102781519293785,0.05296459048986435,-0.0020936056971549988,0.015521674416959286,-0.02011840231716633,-0.006426030304282904,0.008357951417565346,-0.07504942268133163,0.062476105988025665,0.0802425742149353,0.034752413630485535,0.027995385229587555,0.11210747808218002,-0.061729419976472855,0.052594590932130814,-0.008194760419428349,0.03311341255903244,-0.07939969748258591,-0.081992506980896,-0.15538185834884644,0.039274830371141434,-0.044761400669813156,0.0464046448469162,0.06533478945493698,-0.036536816507577896,-0.01844337210059166,-0.020799512043595314,-0.02940843626856804,0.11010181158781052,-0.08366449922323227,-0.16716347634792328,0.007923880591988564,-0.07498851418495178,0.0198776014149189,-0.06720588356256485,-0.007319225929677486,-0.09033013880252838,-0.08740226179361343,0.040288783609867096,-0.07400825619697571,0.0136921601369977,-0.020002039149403572,0.052796248346567154,0.03435865789651871,-0.03161304444074631,-0.0508439764380455,0.07098480314016342,0.08184046298265457,0.05690662935376167,-0.018740814179182053,-0.014851177111268044,0.06267445534467697,-0.06717826426029205,0.006842229049652815,0.05596711114048958,0.005382929462939501,-0.020302779972553253,-0.07336873561143875,0.028084300458431244,0.037220876663923264,0.028388455510139465,0.02428169548511505,-0.10275709629058838,-0.019115686416625977,0.07981402426958084,-0.0669405460357666,-0.06321355700492859,-0.04125061631202698,-0.022425854578614235,-0.027285786345601082,-0.08630330860614777,-0.004499716218560934,-0.02957015484571457,-0.012048956006765366,0.006040043197572231,0.0753154382109642,0.03778953105211258,-0.0166836716234684,-0.08402808755636215,0.072581447660923,0.05997398495674133,0.03308327496051788,-0.08570865541696548,-0.014098971150815487,0.0028521427884697914,0.12555761635303497,0.06648113578557968,0.05603654310107231,-0.03062383085489273,-0.034799281507730484,-0.001373562146909535,-0.037343744188547134,0.03976476937532425,0.08552933484315872,-0.043102946132421494,-0.08366235345602036,-0.021987363696098328,-0.009341750293970108,0.02515132911503315,-0.018269594758749008,-0.047602538019418716,0.011284415610134602,0.02056029438972473,-0.03953118249773979,-0.0916995033621788,-0.0422796905040741,0.010107387788593769,0.014146962203085423,-0.11663275957107544,0.008032429032027721,-0.07735134661197662,0.06765206158161163,-0.01970275305211544,-0.0148842204362154,0.101980060338974,-0.13536953926086426,0.013470650650560856,-0.07656127214431763,0.0444486029446125,-0.005360180512070656,0.10431762784719467,-0.07069254666566849,0.02188456989824772,-0.15800999104976654,-0.08838791400194168,0.015195831656455994,-0.08673224598169327,0.13688333332538605,0.027187852188944817,0.018791671842336655,-0.15218034386634827,-0.022361088544130325,0.01856829598546028,-0.060878925025463104,0.015967275947332382,-0.11230136454105377,-0.021715326234698296,-0.04108518362045288,0.12002865970134735,-0.0891023725271225,-0.08675689250230789,0.06321722269058228,-0.0026382829528301954,0.1115310862660408,0.05378938838839531,-0.06080957502126694,-0.10815358906984329,-0.026747794821858406,-0.08439108729362488,0.025531446561217308,-0.016636697575449944,-0.061892781406641006,-0.0327623076736927,-0.004028922412544489,-0.08666085451841354,0.03341503068804741,0.08092772215604782,0.053694337606430054,-0.11169444024562836,-0.051726505160331726,-0.06290261447429657,0.027455702424049377,-0.05026105418801308,-0.04118596017360687,0.11491614580154419,0.09620905667543411,-0.05465221032500267,0.0372781939804554,-0.00518024992197752,0.012401329353451729,-0.009107787162065506,0.04506349191069603,0.023240111768245697,0.0782700702548027,-0.0001480299688410014,0.07284128665924072,-0.014408877119421959,-0.07203783094882965,0.0003569828113541007,-0.15767376124858856,0.008483764715492725,-0.03147251531481743,0.03810504078865051,-0.015926726162433624,-0.00488664023578167,0.03818138316273689,0.06308907270431519,0.09484569728374481,-0.043400708585977554,-0.054894398897886276,0.004208729602396488,-0.11225367337465286,0.026801375672221184,0.029393726959824562,0.024268511682748795,0.029707573354244232,-0.015583776868879795,-0.11894960701465607,0.007881957106292248,-0.08889956772327423,0.08699000626802444,0.009663783945143223,-0.008695301599800587,-0.004112204071134329,-0.0009053380344994366,-0.06666231155395508,-0.050760719925165176,0.12067209184169769,0.07622580975294113,-0.0026124492287635803,0.04999326169490814,0.048975806683301926,-0.07419540733098984,-0.06787963956594467,0.047442156821489334,0.00015554981655441225,0.01286422461271286,-0.04594475030899048,0.023550420999526978,-0.1366197168827057,-0.08988845348358154,-0.008069830015301704,0.10162795335054398,0.028301844373345375,-0.03678783029317856,-0.1301337033510208,0.014848730526864529,0.07048545032739639,-0.038636911660432816,-0.07422733306884766,-0.04449353739619255,-0.04718635603785515,0.012695440091192722,0.11628802120685577,-0.01770198531448841,-0.09825056791305542,0.07494775950908661,0.03033033385872841,-0.05540546774864197,-0.037561558187007904,0.05418277159333229,0.07386419177055359,0.055818039923906326,0.11894028633832932,-0.0612819604575634,-0.08381853997707367,-0.010065979324281216,-0.06668467819690704,0.018883511424064636,-0.09314024448394775,0.057066917419433594,-0.027032505720853806,0.019818708300590515,0.019048137590289116,0.043414752930402756,0.0642114207148552,0.05779989808797836,0.10789597034454346,-0.11725316941738129,-0.0035368301905691624,-0.048508912324905396,0.0715382918715477,-0.05467838793992996,-0.04188496246933937,-0.04972922429442406,-0.11782528460025787,-0.04383929446339607,-0.11249136924743652,0.10232757776975632,0.04137668013572693,-0.032125797122716904,-0.06280193477869034,-0.05720868334174156,-0.02138357050716877,-0.009367983788251877,0.053202688694000244,0.023435955867171288,-0.009418236091732979,0.01887943223118782,0.03212843835353851,0.013223030604422092,-0.033919673413038254,-0.08142724633216858,-0.03204744681715965,0.029523000121116638,0.0330856554210186,-0.025309156626462936,-0.010830392129719257,0.03636534512042999,-0.026959668844938278,-0.1240222156047821,0.020317725837230682,-0.1175665408372879,0.04465099051594734,-0.024603618308901787,0.0077173965983092785,-0.06899792701005936,0.05343671515583992,-0.04580754414200783,-0.057861749082803726,-0.03806953504681587,0.0848226472735405,0.06644093245267868,0.1264755129814148,-0.1011069193482399,-0.054733458906412125,-0.010201908648014069,-0.10528638958930969,-0.05960141867399216,-0.11385655403137207,0.07558783888816833,-0.05155456066131592,0.03887501358985901,-0.020793121308088303,-0.041367873549461365,-0.01693900302052498,0.12625227868556976,0.07430384308099747,-0.04671839252114296,-0.03832830861210823,0.024016479030251503,-0.06420369446277618,-0.08932851999998093,0.022529933601617813,-0.030227571725845337,0.027722308412194252,-0.026336736977100372,-0.05170836299657822,-0.04865041375160217,0.03575272858142853,0.09379743039608002,-0.04415745660662651,0.14087946712970734,0.10776747018098831,-0.049523890018463135,-0.06899294257164001,-0.11815197020769119,-0.044204480946063995,-0.0671621635556221,0.10887368023395538,0.06264099478721619,-0.03343977779150009,0.027749156579375267,-0.06509372591972351,0.05026548355817795,0.08121143281459808,0.0854237899184227,0.044636666774749756,0.08017849922180176,-0.13583597540855408,0.05666068568825722,-0.042695626616477966,0.02699311263859272,-0.01042059063911438,-0.08184953033924103,-0.04184891656041145,-0.034484490752220154,0.0367443785071373,-0.04812461882829666,0.032336119562387466,0.04888741672039032,-0.0011035330826416612,-0.04272790253162384,-0.13074034452438354,-0.05492454394698143,0.12768380343914032,-0.004893799312412739,-0.0016040896298363805,0.0017097329255193472,0.051039423793554306,-0.07135231792926788,-0.06946613639593124,0.046923406422138214,-0.09026841819286346,0.010147783905267715,-0.002240701811388135,-0.02327844128012657,0.005994117818772793,-0.04771791025996208,-0.019711924716830254,0.017727144062519073,-0.01613440178334713,0.04192518815398216,-0.04125502333045006,-0.009033548645675182,0.04163435846567154,-0.08367114514112473,0.02747831493616104,-0.036220815032720566,0.007815532386302948,-0.0952623263001442,-0.010313142091035843,0.07829337567090988,-0.08470091968774796,-0.013473092578351498,-0.015248698182404041,-0.04425238445401192,-0.08039388805627823,0.0029504962731152773,-0.044600293040275574,-0.024088842794299126,-0.06588292866945267,0.017256632447242737,-0.058435872197151184,0.10453785955905914,0.017209742218255997,-0.030452996492385864,-0.10444699227809906,0.09324712306261063,-0.02468687854707241,-0.007619400974363089,0.02134455367922783,-0.024888576939702034,0.11331971734762192,-0.06818395853042603,-0.03236113116145134,-0.0825212374329567,0.041138261556625366,-0.038225993514060974,-0.04439162835478783,-0.10541138052940369,0.0008924115682020783,-0.08053399622440338,0.01692401058971882,-0.025651292875409126,0.0477382093667984,0.03875722363591194,-0.0032682502642273903,0.015336733311414719,0.04459446296095848,-0.06357035040855408,-0.006291754078119993,-0.06987719982862473,0.08128567039966583,0.03436174988746643,0.0553380511701107,-0.022754985839128494,0.07578849047422409,0.015359032899141312,-0.03207123652100563,0.07281804084777832,-0.025441689416766167,-0.05321118235588074,-0.07084234803915024,-0.013521523214876652,-0.02902710624039173,-0.0090551245957613,-0.028372960165143013,0.014480889774858952,-0.00949015561491251,-0.013601839542388916,-0.11914628744125366,-0.09989584237337112,0.02560286782681942,0.02079320326447487,-0.012536662630736828,-0.02286756969988346,0.04113426432013512,0.02230624109506607,0.05333573743700981,-0.01157511305063963,-0.13849663734436035,0.04709027707576752,0.03088751807808876,0.0020158300176262856,0.012633660808205605,-0.03599042445421219,0.0028159620705991983,0.015819771215319633,0.052981555461883545,-0.03722984343767166,0.004082851577550173,0.05148002877831459,0.0216787438839674,-0.06298181414604187,-0.02296632155776024,-0.007564078085124493,0.04490790143609047,-0.018283506855368614,0.027657587081193924,0.021368809044361115,-0.05632916837930679,0.11558379232883453,0.03887946158647537,0.02022407203912735,-0.13226407766342163,-0.05422258749604225,0.06680174916982651,0.03593314439058304,-0.015523708425462246,-0.06784597039222717,-0.128082737326622,0.03497331589460373,-0.05278961360454559,0.08850191533565521,-0.04832405969500542,-0.059689778834581375,0.003611238207668066,0.03406490758061409,0.1276807188987732,0.017212972044944763,0.07620979100465775,0.025457805022597313,0.019407203420996666,0.07274465262889862,0.0133279487490654,0.06585989147424698,0.04734935984015465,-0.047595299780368805,0.02198200114071369,-0.04999629408121109,-0.030530046671628952,0.10102405399084091,0.0290610920637846,0.036724407225847244,-0.03471070155501366,0.10070180892944336,0.05286508798599243,0.03626260533928871,-0.006787147372961044,-0.03862810879945755,0.06542177498340607,-0.018383730202913284,-0.022074047476053238,0.028616484254598618,0.1129099428653717,0.12290214002132416,-0.04093008488416672,0.041146405041217804,-0.060647089034318924,0.11875959485769272,0.02053811028599739,0.0047746384516358376,0.047616008669137955,-0.08592771738767624,0.0570061020553112,-0.12354803085327148,0.07153601944446564,0.016077784821391106,-0.03611646220088005,0.011232981458306313,-0.048097752034664154,0.02130970172584057,-0.030602816492319107,0.05208706110715866,-0.024910002946853638,-0.007942349649965763,-0.0407620444893837,0.0977737233042717,0.01139655988663435,-0.055692147463560104,-0.01959812641143799,0.11898268014192581,0.03521856665611267,0.11322197318077087,-0.057517968118190765,0.11364991217851639,-0.013340950943529606,-0.0978868380188942,-0.05531473457813263,0.017304817214608192,0.04842090606689453,0.08727411180734634,0.09749224781990051,-0.03037431091070175,0.012377232313156128,-0.11889085918664932,-0.03864875063300133,0.08558635413646698,0.054373569786548615,-0.005171490833163261,0.0602090060710907,-0.023347383365035057,-0.04593827202916145,0.010236968286335468,-0.012083763256669044,0.018650393933057785,0.03879223018884659,-0.04391022399067879,-0.011116040870547295,-0.11790789663791656,-0.06531685590744019,-0.07738107442855835,-0.0626717209815979,-0.10488651692867279,-0.06292222440242767,0.058855265378952026,0.025084128603339195,0.13640470802783966,-0.07282999902963638,-0.13538186252117157,-0.029936300590634346,-0.0940772220492363,-0.007688518147915602,-0.041461583226919174,0.09940500557422638,-0.051435694098472595,-0.012466941960155964,0.02711317129433155,-0.06662678718566895,-0.048547036945819855,0.050651565194129944,-0.030056076124310493,-0.11125732213258743,0.017251156270503998,-0.10715079307556152,-0.07967120409011841,0.12895096838474274,-0.06557036191225052,-0.020621271803975105,-0.06414785236120224,0.03443711996078491,-0.0034538295585662127,-0.046390634030103683,-0.04378398507833481,0.031347017735242844,0.03856512904167175,0.07576602697372437,-0.011035986244678497,0.040226418524980545,-0.033534370362758636,-0.07145221531391144,-0.06039547175168991,-0.09609010815620422,0.004785662982612848,0.014710846357047558,-0.032301388680934906,-0.0513012558221817,-0.09710696339607239,-0.01332571916282177,0.03474884852766991,-0.041183870285749435,0.06300640851259232,-0.07393154501914978,-0.08524849265813828,-0.05734431371092796,-0.040334686636924744,-0.007037789560854435,-0.055249545723199844,0.08452410250902176,-0.0749119445681572,-0.002555934013798833,-0.045789990574121475,-0.03343496471643448,0.046740297228097916,-0.0019083373481407762,-0.023330582305788994,-0.11441612988710403,0.08471182733774185,-0.05623135343194008,-0.005160423927009106,-0.022648654878139496,0.12205064296722412,0.051437340676784515,0.009912152774631977,-0.04170088469982147,-0.13303633034229279,-0.03331680968403816,0.04009111970663071,-0.005500297527760267,-0.1363983303308487,0.10010836273431778,0.04958544299006462,-0.011891990900039673,-0.08531901240348816,-0.02395354025065899,0.03664927929639816,0.10890992730855942,-0.11070524156093597,0.00484411371871829,-0.11008657515048981,0.09090372920036316,-0.024149799719452858,0.06973040103912354,0.046853914856910706,-0.026691166684031487,-0.03314589336514473,0.05405665561556816,0.06463554501533508,0.017080411314964294,0.047927286475896835,0.04546573758125305,-0.11378520727157593,0.06972729414701462,0.16183453798294067,0.03849281370639801,0.0765225887298584,-0.05715416744351387,-0.10618580877780914,0.03041413612663746,-0.05631875991821289,-0.04189600795507431,0.010936168022453785,-0.08323100209236145,0.005592346657067537,0.006529334466904402,0.022578945383429527,-0.06118622422218323,0.005363956559449434,-0.0637374073266983,0.02933080866932869,-0.094757080078125,-0.043233245611190796,0.11811807006597519,-0.029582638293504715,-0.03832975775003433,0.029496487230062485,-0.023031435906887054,-0.014821111224591732,-0.07357125729322433,-0.03476870432496071,0.04755420610308647,-0.020804673433303833,-0.052140749990940094,0.05721283331513405,0.035913512110710144,-0.09816969186067581,0.028983959928154945,-0.0015576467849314213,0.052815571427345276,-0.06416058540344238,0.00519530801102519,0.05355098098516464,0.12447242438793182,0.09820657968521118,-0.09849616140127182,-0.1393202394247055,-0.027675896883010864,0.013193785212934017,-0.07345650345087051,-0.0719204917550087,0.02811036817729473,-0.04189196974039078,-0.05553893744945526,-0.11068820208311081,-0.10715879499912262,0.024997688829898834,-0.024580873548984528,0.011945509351789951,0.04330700263381004,0.05314970761537552,0.028432045131921768,0.006718070711940527,0.02157031185925007,-0.06537916511297226,-0.13790422677993774,0.03476368635892868,0.05737271532416344,-0.02384013682603836,-0.04063528776168823,0.09647498279809952,-0.011998004280030727,0.04643503203988075,0.008626827038824558,-0.12247776240110397,-0.030466679483652115,-0.02154032327234745,-0.004011995624750853,-0.1769873946905136,0.10806025564670563,0.08102194219827652,0.026144376024603844,-0.02720329910516739,0.018557114526629448,0.03192181512713432,-0.10755828768014908,-0.03428851440548897,0.04610830917954445,0.1472003310918808,0.02420671284198761,-0.05574331805109978,0.10447929799556732,0.03384089469909668,-0.13480529189109802,-0.07137004286050797,0.06279433518648148,0.022241337224841118,-0.10880092531442642,0.013303357176482677,-0.005962668918073177,-0.054136667400598526,-0.05357666686177254,-0.024358998984098434,0.04421255365014076,0.01587824895977974,0.04145137965679169,0.027814503759145737,-0.03038090094923973,0.012227926403284073,-0.00452002277597785,-0.01740303263068199,0.04385070875287056,0.00420067785307765,0.06876835227012634,0.003769713221117854,0.08610263466835022,-0.010775015689432621,-0.018063217401504517,-0.1054520308971405,-0.08009760826826096,-0.07136563956737518,0.0712113082408905,0.014551101252436638,0.03692419454455376,0.014847266487777233,-0.13052982091903687,0.05667605623602867,-0.004692444112151861,0.07420633733272552,-0.013814850710332394,-0.01011055987328291,-0.05119945481419563,0.004181079100817442,-0.08145280927419662,-0.08431118726730347,-0.09468202292919159,-0.04271753132343292,-0.10993573814630508,-0.08456389605998993,0.06921550631523132,-0.021815767511725426,0.0004476370813790709,0.06218003109097481,-0.063343346118927,-0.01588444784283638,0.013721254654228687,-0.024055788293480873,-0.016975117847323418,