{"runId":14,"createdAt":"2026-07-16T19:49:54.527Z","modelFamily":"mlp_v1","hiddenLayers":[128,64],"inputSize":600,"outputSize":59,"outputNumbers":[1,2,3,4,5,6,7,8,9,10,11,12,13,14,15,16,17,18,19,20,21,22,23,24,25,26,27,28,29,30,31,32,33,34,35,36,37,38,39,40,41,42,43,44,45,46,47,48,49,50,51,52,53,54,55,56,57,58,59],"weights":[{"name":"dense_Dense1549/kernel","shape":[600,128],"values":[-0.0570591501891613,0.07679809629917145,0.003864856204017997,0.04325895011425018,-0.04021770507097244,0.015856793150305748,-0.032452601939439774,-0.015314689837396145,0.02185564674437046,0.016923164948821068,0.02074974961578846,-0.08313246071338654,0.04125053063035011,-0.05920185148715973,-0.04510488733649254,-0.04978165775537491,-0.028371872380375862,-0.012966460548341274,-0.06424924731254578,0.059179455041885376,0.047219257801771164,-0.03737550601363182,-0.04879368841648102,0.0027215818408876657,0.08448708057403564,0.017773069441318512,0.03072594664990902,-0.027148760855197906,-0.009481444023549557,-0.020803919062018394,0.008478512987494469,0.00405140919610858,-0.04573369026184082,0.04111568257212639,0.041272684931755066,-0.0625322014093399,-0.04208693653345108,0.024010708555579185,-0.04454980418086052,-0.025716792792081833,-0.061472658067941666,-0.006352439057081938,-0.007263020612299442,-0.05083299055695534,-0.058317165821790695,0.07456202059984207,-0.036158978939056396,-0.022520406171679497,-0.003078885842114687,-0.11107119917869568,0.06786248832941055,-0.03092350624501705,0.024820217862725258,0.052474383264780045,-0.08809246867895126,-0.008601034991443157,-0.0872039645910263,-0.016616541892290115,0.04007895663380623,0.03940633684396744,0.029863329604268074,-0.05582938715815544,-0.07516379654407501,-0.04722922295331955,-0.037601176649332047,-0.043624285608530045,-0.013767518103122711,-0.015413794666528702,-0.029641516506671906,-0.044728897511959076,0.0044734887778759,0.08793848007917404,-0.02022864855825901,-0.01250835508108139,0.020562095567584038,0.02349826879799366,-0.04071247950196266,0.06219599023461342,-0.0709441676735878,0.04522363096475601,-0.04857644438743591,-0.03469754755496979,0.03769975155591965,-0.0022003469057381153,0.017733370885252953,0.05642058700323105,0.006073715630918741,-0.04386276379227638,0.07621189951896667,0.08341242372989655,-0.01668320782482624,-0.051957935094833374,0.04320765659213066,-0.028650745749473572,-0.051800068467855453,-0.06282103806734085,-0.01910645328462124,0.05480120703577995,0.0729275494813919,0.005344555713236332,0.00879942998290062,-0.007475375197827816,-0.005213405936956406,-0.07113819569349289,0.07653135806322098,0.02634192816913128,0.04383964464068413,-0.008051021955907345,0.0384889654815197,0.030974656343460083,-0.02097494527697563,-0.07183961570262909,-0.05134524777531624,0.0046359035186469555,0.048402201384305954,-0.0018866838654503226,0.023536764085292816,0.005512169562280178,-0.0431249663233757,-0.0057272519916296005,0.03276345133781433,0.09493224322795868,-0.0067909229546785355,-0.037035100162029266,-0.042332857847213745,-0.053362760692834854,-0.009588579647243023,0.01759396307170391,-0.008405203931033611,0.04556974396109581,0.04687337577342987,-0.019868608564138412,0.0011046500876545906,-0.054353587329387665,-0.06358508765697479,-0.08302129805088043,0.0485333651304245,0.050773657858371735,-0.0722460150718689,-0.07469625771045685,0.0687173455953598,-0.019269105046987534,0.05681053176522255,-0.029565272852778435,-0.05810460448265076,-0.035365406423807144,0.005327216349542141,-0.060970522463321686,0.07151611894369125,0.006988415960222483,0.04415401443839073,-0.07000823318958282,0.04741494730114937,-0.057747989892959595,-0.007357025519013405,-0.012407906353473663,-0.0455017164349556,-0.04586436599493027,-0.030916551128029823,0.03010474145412445,-0.019672857597470284,0.027063297107815742,0.0647440254688263,-0.0026093737687915564,0.019509004428982735,-0.06608588993549347,0.04303314536809921,-0.06119474768638611,-0.0030564977787435055,-0.031259581446647644,0.012203916907310486,0.025357959792017937,0.03267557546496391,-0.08502224832773209,0.054585449397563934,-0.0397353433072567,-0.030830223113298416,0.015258938074111938,-0.08549270778894424,-0.07231473177671432,-0.03085685893893242,0.07481532543897629,-0.01946743205189705,-0.006631847470998764,-0.03345106542110443,-0.013239256106317043,0.06310460716485977,-0.05063900724053383,-0.044674646109342575,-0.004763212986290455,0.005884366109967232,0.016211222857236862,-0.04621652513742447,0.049430735409259796,-0.0356939360499382,-0.019596079364418983,-0.00659094238653779,0.0011597934644669294,-0.0976429134607315,-0.030033618211746216,0.013314916752278805,0.0373649038374424,0.04453154653310776,-0.0365750826895237,0.07123623043298721,-0.03153110295534134,-0.01603805273771286,-0.03716668114066124,0.013014128431677818,0.029776230454444885,0.06489985436201096,-0.0475788451731205,0.02189244143664837,0.0440436527132988,-0.06143968552350998,-0.005617785733193159,0.042457904666662216,-0.016299305483698845,-0.01252242922782898,-0.06043526530265808,0.07319527864456177,0.02126406691968441,0.0046693249605596066,0.04799174517393112,-0.04393099620938301,-0.001974230632185936,0.03784828260540962,-0.04470141604542732,-0.006714290007948875,0.018230177462100983,0.060993559658527374,-0.024078456684947014,0.06810660660266876,0.008274095132946968,-0.016904499381780624,0.018069740384817123,0.03273564949631691,-0.050240565091371536,-0.05568605288863182,-0.04474375396966934,-0.006855511572211981,0.021386563777923584,-0.04898916557431221,-0.06748084723949432,-0.03374222293496132,-0.016572535037994385,0.05102470889687538,-0.02877037227153778,-0.08749856799840927,0.0788133293390274,-0.025164593011140823,-0.0025892925914376974,-0.03263185918331146,-0.03131168335676193,0.003219079691916704,-0.022556865587830544,0.03962867707014084,-0.0870773047208786,0.023410724475979805,-0.06443799287080765,0.01967119611799717,-0.030632399022579193,0.06957967579364777,0.0037914863787591457,-0.008040360175073147,-0.006875571794807911,-0.05873924493789673,0.06695069372653961,-0.006538514979183674,0.03981565684080124,0.05629289150238037,0.006326708011329174,0.07828807830810547,0.0298071950674057,-0.02201744355261326,-0.00020552681235130876,-0.02696014568209648,0.009305698797106743,0.0022458641324192286,0.06172817200422287,0.01906374841928482,-0.05027608200907707,0.08167517185211182,0.04317338764667511,0.006142402999103069,0.0008990693604573607,0.012934760190546513,0.009202920831739902,0.013956880196928978,0.004274263512343168,0.010515537112951279,-0.009410548955202103,-0.08109939098358154,-0.06642378866672516,0.028258956968784332,0.009121164679527283,0.04264409467577934,0.027823057025671005,0.04137776419520378,-0.016974419355392456,-0.0013295504031702876,-0.02434409037232399,0.08265271782875061,0.033580899238586426,-0.0032375347800552845,-0.03853123262524605,0.040737926959991455,0.03790219873189926,-0.005039692390710115,0.014258725568652153,0.03261331096291542,0.040344543755054474,-0.010053051635622978,-0.0381317064166069,-0.021714258939027786,-0.043931394815444946,-0.002031868789345026,-0.04621942341327667,-0.03896830976009369,-0.07260822504758835,-0.004103821236640215,-0.09199577569961548,0.05709625035524368,-0.045051854103803635,0.043881289660930634,-0.008057872764766216,0.011269756592810154,-0.024123664945364,-0.004470942076295614,-0.010997218079864979,-0.03933383896946907,-0.05639590322971344,-0.025364385917782784,0.020259136334061623,0.0468381829559803,0.06226034834980965,0.060158055275678635,-0.026989055797457695,-0.08262414485216141,-0.0370224229991436,-0.016067026183009148,-0.037892453372478485,-0.0011444718111306429,-0.047185931354761124,-0.00013035490701440722,0.049271903932094574,0.03784892335534096,-0.06064077839255333,-0.04228256270289421,-0.03709619119763374,-0.06787130236625671,-0.007028000429272652,0.039803776890039444,-0.008715912699699402,-0.05943401902914047,-0.03488510847091675,0.033569082617759705,-0.058174606412649155,0.01977592334151268,0.0793527215719223,-0.060982272028923035,-0.016114290803670883,-0.009210976772010326,-0.002471177140250802,-0.03896011784672737,-0.011953635141253471,0.01930033415555954,0.0007844706415198743,0.02809087559580803,-0.018252642825245857,0.057634856551885605,-0.019953306764364243,-0.01806042529642582,0.006333146244287491,0.019840024411678314,0.07968289405107498,-0.012411699630320072,0.0052256197668612,0.004833630286157131,-0.006535952910780907,0.012538318522274494,-0.007984839379787445,0.020662788301706314,-0.04289378225803375,-0.011673778295516968,-0.04325677454471588,-0.055467601865530014,-0.020752353593707085,0.05531294643878937,-0.009135399013757706,-0.006769166328012943,-0.05981501564383507,-0.0026281371247023344,-0.021184278652071953,-0.06600135564804077,0.05619509890675545,-0.08072488009929657,-0.004473657812923193,0.010603364557027817,0.01161101646721363,-0.0591171458363533,0.03172105550765991,0.002086114836856723,-0.02856229990720749,0.0419742576777935,0.10411399602890015,0.0020785382948815823,-0.07110193371772766,-0.029197411611676216,-0.09372266381978989,0.12059972435235977,-0.019806627184152603,-0.03082318790256977,-0.035308439284563065,0.07293341308832169,0.013539979234337807,0.053262822329998016,-0.045735765248537064,-0.023908691480755806,-0.06179831176996231,-0.05859749764204025,-0.05317215994000435,-0.06924208253622055,-0.0636778324842453,-0.03761834651231766,0.016472481191158295,0.0649610161781311,-0.03646412864327431,-0.032604508101940155,-0.02262953296303749,0.042904939502477646,0.022819863632321358,-0.11393885314464569,-0.09674469381570816,0.03848225995898247,-0.05968419834971428,-0.028942126780748367,0.06148504093289375,0.03190683573484421,-0.019131571054458618,-0.08574623614549637,0.0027997419238090515,-0.023941436782479286,-0.06250141561031342,0.008329455740749836,-0.053811654448509216,0.02595602348446846,0.01297067478299141,-0.039644524455070496,-0.0485067144036293,0.05783741921186447,-0.05087754502892494,-0.008067850023508072,-0.017052609473466873,-0.07652360200881958,0.002207748359069228,-0.03370385617017746,-0.0191173255443573,-0.036712031811475754,-0.01291577611118555,-0.004139049910008907,-0.05932203680276871,0.0009524178458377719,-0.04045220464468002,0.058638796210289,0.0185804832726717,-0.04602301865816116,-0.08692607283592224,-0.0636320412158966,0.05650980770587921,-0.045426756143569946,-0.012486875988543034,0.03809371218085289,-0.051015302538871765,-0.03223323076963425,0.029576219618320465,0.048550430685281754,0.046895112842321396,-0.03978085145354271,-0.053796786814928055,-0.05986702814698219,0.07596255838871002,0.004845765884965658,-0.042090557515621185,-0.03492868319153786,0.04449668899178505,0.05646549165248871,-0.05205383524298668,0.017617544159293175,0.06231357902288437,-0.008284327574074268,0.007579244207590818,0.05038122460246086,-0.036623015999794006,-0.09028159081935883,0.09055441617965698,-0.03287839889526367,-0.01426978874951601,-0.07899659872055054,-0.0447726845741272,0.04324934259057045,0.02669576369225979,0.01658911444246769,-0.0025818892754614353,-0.0989694893360138,-0.030033506453037262,-0.066523976624012,-0.0959872454404831,-0.019525006413459778,-0.05775865539908409,-0.04463936388492584,-0.06426330655813217,0.05719026178121567,0.02347053401172161,-0.027860935777425766,-0.05018724873661995,0.00834828894585371,-0.10677506774663925,-0.06670687347650528,-0.007000921294093132,0.06932631134986877,0.03804299607872963,0.03134511783719063,0.012125246226787567,0.005017041694372892,0.02706664428114891,0.01577898859977722,-0.03832235932350159,-0.061298757791519165,-0.023814627900719643,0.03047577291727066,0.014823970384895802,-0.07330171763896942,-0.004969675559550524,-0.021634293720126152,0.07076383382081985,0.024413039907813072,0.08760172873735428,0.06258399039506912,0.09023967385292053,0.0007209700415842235,0.06739983707666397,0.07684175670146942,-0.030425747856497765,0.040479861199855804,0.02260051667690277,-0.046098146587610245,-0.006760231219232082,-0.06661684066057205,-0.0030085532926023006,0.0642457902431488,-0.0825408473610878,-0.046975262463092804,0.045238230377435684,0.08330880850553513,-0.004542882088571787,-0.018608562648296356,-0.018116872757673264,-0.0046168058179318905,-0.06997434049844742,0.0592634454369545,-0.00012451416114345193,-0.0736566111445427,-0.06328406929969788,0.01388674695044756,0.04175344109535217,0.07879212498664856,0.01125702727586031,-0.06613649427890778,-0.08381669223308563,0.05225076153874397,-0.05665034055709839,-0.07018498331308365,-0.033989306539297104,-0.013765770941972733,0.0046072108671069145,-0.03481624275445938,0.0008246878860518336,0.04115604609251022,0.00905065517872572,-0.01950313150882721,-0.008303036913275719,0.046489417552948,-0.02209034375846386,0.01691104657948017,-0.01729731447994709,0.04185749962925911,-0.028839556500315666,-0.09164693206548691,-0.01083473488688469,-0.0717511922121048,-0.06233154982328415,-0.02188165672123432,0.0022574185859411955,0.009479532949626446,-0.08973607420921326,-0.056909289211034775,0.004305601119995117,0.0714542493224144,-0.002349983900785446,-0.044253792613744736,-0.02992941252887249,-0.008409343659877777,0.021364113315939903,0.018945641815662384,-0.05552856996655464,-0.026456035673618317,-0.03942699730396271,-0.08552080392837524,0.04640679433941841,-0.009521029889583588,0.07828404754400253,0.014620493166148663,-0.043661050498485565,-0.03058280050754547,0.0659245178103447,0.06951922923326492,0.0702151283621788,0.02956872247159481,-0.01411358080804348,0.004884044174104929,0.002236881759017706,0.07518119364976883,-0.0030299476347863674,0.022905603051185608,-0.07050538808107376,-0.005599963944405317,0.030419033020734787,-0.07801023870706558,-0.005861979443579912,0.019691571593284607,-0.038527701050043106,-0.017741480842232704,0.004913793411105871,-0.05544888228178024,-0.07355433702468872,0.02542842924594879,-0.032518550753593445,0.00003984005161328241,-0.05059869587421417,-0.0024693480227142572,-0.0026130189653486013,0.022905763238668442,-0.045663487166166306,-0.013386079110205173,0.01679343543946743,-0.003919477574527264,-0.02152036875486374,0.0008950234623625875,0.012532991357147694,-0.026766380295157433,-0.0560416653752327,-0.005519912578165531,0.02848654054105282,0.030860362574458122,0.015382546000182629,0.05901048332452774,-0.03925744816660881,-0.03513399884104729,-0.02438325434923172,-0.011023296043276787,0.02955561876296997,-0.039220601320266724,-0.01980329304933548,-0.05720379576086998,-0.029743336141109467,-0.0740235298871994,0.00548397284001112,0.012169430032372475,-0.07560406625270844,0.006182441487908363,0.015692323446273804,-0.09918086230754852,0.0018708008574321866,0.009756148792803288,0.011798347346484661,-0.09819844365119934,0.03780648112297058,-0.03449571505188942,-0.08643578737974167,0.0283979382365942,0.03565703704953194,0.008617781102657318,-0.0676841214299202,0.02067517675459385,-0.002758142538368702,-0.028684010729193687,0.011656194925308228,-0.020859595388174057,-0.06705136597156525,-0.017969511449337006,-0.017387274652719498,0.019367963075637817,0.018908295780420303,0.0022623930126428604,-0.042171772569417953,-0.04862402379512787,0.00816729012876749,-0.027494793757796288,-0.028648309409618378,0.05590911582112312,-0.08081275224685669,-0.08680827170610428,0.011050866916775703,0.012038106098771095,-0.029412202537059784,-0.0761609598994255,-0.03048279508948326,-0.03385003283619881,-0.03179772570729256,0.01309239398688078,0.005042139440774918,0.04385436326265335,0.0028206193819642067,-0.07742424309253693,-0.09877936542034149,-0.036769501864910126,0.005315014626830816,0.03231737017631531,-0.07197228819131851,0.02727709338068962,0.021593892946839333,0.028539180755615234,-0.03707324340939522,0.06246766075491905,-0.008009991608560085,-0.014133078046143055,0.048027295619249344,0.053475964814424515,0.005405433010309935,0.0383278913795948,0.007818501442670822,-0.008176051080226898,-0.020071445032954216,0.014547244645655155,-0.04404822364449501,0.06043078750371933,0.05765397846698761,-0.038656506687402725,0.023154225200414658,0.03920389711856842,0.006641095969825983,0.024553878232836723,-0.025257065892219543,0.07392589747905731,0.02244364656507969,0.051215048879384995,0.036490898579359055,-0.07971618324518204,0.04973974823951721,0.02003672905266285,-0.032122548669576645,-0.011794508434832096,-0.05134901404380798,-0.004060492385178804,-0.018644489347934723,0.05816861242055893,0.0007659599650651217,-0.061951763927936554,-0.013300327584147453,0.010633702389895916,-0.09958871454000473,0.0756702870130539,-0.04067511111497879,-0.03150852769613266,-0.04473290219902992,-0.07799576967954636,-0.07474125921726227,-0.04804341867566109,-0.04087996855378151,0.007865410298109055,-0.015269127674400806,0.024216901510953903,-0.015754247084259987,-0.028000235557556152,-0.006764586549252272,-0.012417677789926529,-0.060522131621837616,0.06257843226194382,0.050748564302921295,0.035550087690353394,0.000799476052634418,0.043198395520448685,0.03310992941260338,-0.04714116081595421,-0.01051450613886118,-0.06739898025989532,-0.03490782529115677,0.04307787865400314,-0.030247418209910393,0.015190400183200836,-0.0387616790831089,-0.02543010748922825,0.08053562790155411,0.01609724573791027,0.08776035904884338,-0.02050529606640339,-0.04398943483829498,0.00241892971098423,0.00020033420878462493,0.04271426796913147,0.08554430305957794,-0.0002790209837257862,0.07864744961261749,0.08607721328735352,0.04762406647205353,0.06485205143690109,0.027858620509505272,0.013487095944583416,-0.026760123670101166,-0.005715197883546352,0.10409870743751526,-0.017572710290551186,0.011982131749391556,0.01735115237534046,0.025811387225985527,-0.00570170721039176,-0.07274065911769867,-0.007061950396746397,0.07664176821708679,-0.08886073529720306,0.08609911054372787,-0.008961185812950134,0.05699435621500015,0.03027900494635105,-0.020384009927511215,0.09191671758890152,-0.037835463881492615,0.01763775944709778,0.03808208554983139,-0.011770262382924557,0.012510882690548897,0.06704013794660568,0.08155831694602966,-0.09142125397920609,0.03997405618429184,-0.010145328007638454,-0.03607890382409096,-0.0926925465464592,0.026136083528399467,-0.0005919059622101486,-0.005241379141807556,-0.005576755851507187,0.04562000557780266,0.015473815612494946,-0.08222589641809464,-0.07132149487733841,0.01740100234746933,-0.07527939975261688,0.035240866243839264,0.0617908276617527,-0.08962266892194748,-0.09077629446983337,-0.0623597651720047,0.03705586493015289,0.03509942442178726,0.05656661465764046,0.05264470353722572,-0.002254099352285266,-0.026215214282274246,-0.012924340553581715,0.011392269283533096,0.014487765729427338,0.02703641913831234,0.011936433613300323,-0.029225299134850502,0.024063559249043465,-0.03133001551032066,-0.05501813814043999,0.08186094462871552,0.06769730895757675,-0.0085909990593791,-0.017112772911787033,-0.032125089317560196,0.006332726683467627,0.0019099964993074536,-0.03381809592247009,-0.001513314200565219,0.008053895086050034,-0.02515624277293682,0.00022306630853563547,-0.03877931833267212,-0.03508082404732704,-0.03875904902815819,-0.03961000591516495,0.04043364152312279,-0.07742621004581451,0.03489282354712486,0.06803103536367416,-0.014535203576087952,0.022866809740662575,-0.00406982796266675,0.08420180529356003,0.04904220253229141,0.03694804385304451,-0.05873553454875946,-0.11106763780117035,-0.06033419817686081,0.016599226742982864,-0.08684558421373367,0.005553726572543383,-0.006031106226146221,0.048383232206106186,0.03955627605319023,-0.020588237792253494,-0.04075147211551666,-0.022624367848038673,0.07775700837373734,-0.028088146820664406,-0.029536480084061623,0.015393581241369247,-0.05999216437339783,-0.02465810254216194,0.011853829026222229,-0.05712238699197769,-0.021856212988495827,0.026362942531704903,-0.0026328139938414097,-0.007228399161249399,-0.028859546408057213,-0.019140297546982765,-0.07335274666547775,-0.004993997514247894,-0.03039652295410633,-0.03372503072023392,0.0037917483132332563,-0.05482076480984688,-0.01733662746846676,-0.031747642904520035,-0.010646644048392773,-0.01407413650304079,0.03999076783657074,-0.009983222931623459,0.00826509390026331,0.04422055929899216,0.024814695119857788,0.05028846859931946,0.034353844821453094,0.014995032921433449,-0.051004331558942795,-0.014961987733840942,-0.00068422663025558,-0.08028773963451385,-0.0643095001578331,-0.009729147888720036,-0.07017078250646591,-0.07615990936756134,0.09379953145980835,0.056785982102155685,-0.06041795015335083,0.00334625830873847,0.03619198873639107,0.05419080704450607,-0.04642738774418831,0.01265860628336668,-0.003053264692425728,0.019781939685344696,0.04045785591006279,-0.0982082337141037,-0.06406749784946442,0.03270639851689339,-0.0092921806499362,-0.05154990777373314,-0.0024272222071886063,0.0014720376348122954,0.07050073146820068,-0.030621256679296494,-0.02299981750547886,0.025212770327925682,-0.011655881069600582,-0.03786289319396019,0.07111269980669022,0.005914636421948671,-0.09094630926847458,-0.0007054675370454788,0.002519028028473258,0.015729308128356934,-0.05911988765001297,0.024518655613064766,-0.02094578556716442,-0.06179333105683327,0.01836460456252098,0.02894005924463272,0.0015310455346480012,-0.005327064543962479,0.07185044139623642,0.04335973411798477,-0.02650812827050686,-0.07373304665088654,0.035857200622558594,0.00438887532800436,-0.003931853454560041,-0.0592116080224514,-0.040011171251535416,-0.09965433925390244,-0.023163456469774246,0.021840721368789673,0.04229796305298805,-0.042293861508369446,-0.11490832269191742,0.01030142791569233,-0.044802576303482056,-0.034257303923368454,-0.022115809842944145,0.09184874594211578,0.09092115610837936,-0.016794752329587936,-0.0015681195072829723,0.03604041785001755,-0.025147000327706337,-0.025963883846998215,0.03520878404378891,-0.07127387821674347,-0.011719564907252789,-0.05077681690454483,-0.06906186789274216,-0.06700903177261353,0.029011089354753494,0.002200756222009659,-0.016505351290106773,0.0448378324508667,-0.03593762591481209,0.04283639043569565,0.02202485501766205,0.020804326981306076,0.07169220596551895,0.030719652771949768,0.03989525884389877,-0.02758064679801464,-0.034107547253370285,-0.035133425146341324,-0.051476385444402695,-0.005590543616563082,-0.07065773755311966,-0.05165749788284302,0.021396879106760025,-0.08028064668178558,0.08596872538328171,0.025423269718885422,-0.06081680953502655,0.001019332674331963,0.04754631966352463,0.0661856085062027,0.05686096474528313,-0.0053886594250798225,0.03002331033349037,0.0690152570605278,-0.06484316289424896,-0.017338931560516357,-0.0457298718392849,-0.014361854642629623,-0.00953005813062191,0.009036718867719173,0.03700653091073036,-0.030618172138929367,0.038267262279987335,0.01752728596329689,-0.00017842331726569682,0.024539818987250328,-0.0995718315243721,-0.015309921465814114,0.0320701077580452,0.06792502850294113,-0.059087175875902176,-0.0034872067626565695,-0.021201547235250473,-0.041980255395174026,-0.0627666562795639,-0.031187769025564194,0.04954634979367256,0.028378687798976898,0.0037275173235684633,-0.028115665540099144,-0.02434982918202877,-0.055530235171318054,0.04332935810089111,0.04666875675320625,0.012428787536919117,0.05561922863125801,0.017846612259745598,-0.04960409179329872,0.08505015820264816,0.0009604587103240192,-0.040960706770420074,-0.016450081020593643,-0.058473002165555954,-0.06137823313474655,0.05268586054444313,0.0649309903383255,-0.06106114387512207,-0.07797055691480637,-0.007086964789777994,-0.019756440073251724,0.07759711891412735,-0.03809421882033348,0.06187458336353302,0.0648108571767807,-0.04257368668913841,0.06501656770706177,-0.055591315031051636,-0.03106398694217205,-0.030307816341519356,-0.03935063257813454,-0.010235380381345749,-0.01729528047144413,0.0837216004729271,-0.08406704664230347,-0.04086441919207573,-0.004847368691116571,0.05990781635046005,-0.022798575460910797,0.0033656880259513855,0.02789592556655407,0.012032624334096909,-0.027313580736517906,0.003058889415115118,0.05153333395719528,-0.04985356703400612,0.047430962324142456,-0.03581119701266289,0.0856030061841011,-0.07608373463153839,-0.005829112604260445,0.08731412142515182,-0.05142398923635483,0.08863801509141922,0.004916714504361153,-0.06426291167736053,-0.04316740483045578,0.014348002150654793,0.006834790110588074,0.030346324667334557,-0.025743193924427032,-0.010371390730142593,-0.023447029292583466,-0.05831148102879524,0.005363657139241695,0.003242837730795145,0.0007415973232127726,0.05475016310811043,0.038670074194669724,0.03789157047867775,-0.017063191160559654,-0.029413456097245216,0.08933836221694946,0.003843102604150772,-0.02211689203977585,-0.017338525503873825,-0.018377216532826424,-0.014459511265158653,0.029769551008939743,0.03856993094086647,-0.000913300784304738,-0.03336139768362045,0.0311023760586977,-0.004007935523986816,-0.06520598381757736,-0.012368705123662949,-0.020957257598638535,-0.04268183559179306,0.004083571489900351,-0.0024258610792458057,0.03935498371720314,-0.07950323075056076,-0.09198564291000366,-0.03110802359879017,0.0041072070598602295,-0.049062930047512054,-0.005048541817814112,-0.021616630256175995,-0.026138590648770332,-0.006859933026134968,-0.026095643639564514,-0.002211874583736062,-0.00749079929664731,0.04305139183998108,0.04275793954730034,-0.04745665192604065,-0.02863033302128315,-0.017154309898614883,0.06466898322105408,0.053685788065195084,0.06273817270994186,-0.021907176822423935,-0.004764322657138109,0.00013851972471456975,0.0803791806101799,-0.10761629045009613,-0.02540913224220276,-0.044637277722358704,0.024086305871605873,-0.043038688600063324,-0.04197418689727783,0.029084190726280212,0.05800066515803337,-0.02052783966064453,-0.010888397693634033,-0.04443115368485451,0.005958361551165581,0.006108076777309179,0.0018554661655798554,-0.006312220357358456,-0.017359143123030663,0.030904628336429596,-0.0895051509141922,0.05926971137523651,-0.00118271354585886,0.07909751683473587,-0.11192865669727325,-0.0323505625128746,-0.06188516318798065,-0.030901214107871056,-0.0070765577256679535,-0.04173458740115166,-0.05901186168193817,-0.0475490540266037,0.06647638231515884,0.10322708636522293,0.010084195993840694,0.00889273826032877,0.04114368185400963,0.027020178735256195,0.06867548823356628,0.010084250010550022,0.029567105695605278,-0.04329252243041992,0.016679897904396057,-0.020923664793372154,-0.0887552797794342,0.05475165694952011,0.01698271371424198,-0.0071510449051856995,0.052334532141685486,-0.013054355047643185,0.02004380337893963,-0.01076377835124731,0.05485231429338455,0.05853183567523956,-0.014681072905659676,-0.09839783608913422,-0.07183895260095596,-0.05593889206647873,0.018712922930717468,0.02926243096590042,0.009080086834728718,-0.08070440590381622,0.0738193467259407,-0.002360081998631358,-0.01269760075956583,0.0371055081486702,-0.09508320689201355,0.029403509572148323,-0.10462330281734467,0.0254482664167881,-0.08504578471183777,0.0767485573887825,0.03006630204617977,-0.051779042929410934,0.021428871899843216,0.03534669056534767,-0.0007718839915469289,-0.01320049911737442,-0.040753960609436035,-0.02223067171871662,0.035156939178705215,0.08143388479948044,0.07013468444347382,0.049945443868637085,0.054379791021347046,0.05275377258658409,-0.03859568014740944,0.0019598263315856457,0.04229427129030228,-0.01060547772794962,-0.05313585698604584,-0.03699949011206627,-0.001609012600965798,-0.0213969387114048,-0.05106980726122856,0.0012083695037290454,-0.018287716433405876,-0.05687825009226799,-0.004608317278325558,-0.00791218038648367,0.05407547950744629,-0.07622382789850235,-0.020646968856453896,0.056094542145729065,-0.00018547408399172127,0.012369779869914055,-0.0257974024862051,-0.015804333612322807,-0.006576795130968094,-0.008012582547962666,0.006556756794452667,0.006625516340136528,0.08466231822967529,0.03817163035273552,-0.0727163776755333,0.05089471489191055,0.013515765778720379,0.003840067656710744,-0.05503426492214203,-0.023089425638318062,0.028428394347429276,-0.055594686418771744,-0.09183141589164734,0.024421997368335724,-0.048148270696401596,0.04237088933587074,-0.06307391822338104,0.004826066084206104,-0.0005738391191698611,-0.022931236773729324,0.01683175377547741,-0.02155851572751999,-0.01898379437625408,-0.00887480191886425,0.025505896657705307,0.0014348882250487804,-0.020100897178053856,0.022262118756771088,-0.07293286919593811,0.00611951993778348,0.012787124142050743,-0.04976227134466171,-0.04568421468138695,-0.03452909365296364,0.03163234144449234,0.06357137113809586,0.021772414445877075,-0.05762660875916481,0.062498144805431366,-0.020195666700601578,0.0361899733543396,0.019210442900657654,0.03457184135913849,0.06134085729718208,-0.008375459350645542,0.03177688270807266,0.011195826344192028,-0.055072885006666183,-0.06778126955032349,-0.05805894732475281,-0.022874273359775543,-0.08409824222326279,-0.04979749768972397,0.059726327657699585,0.045859213918447495,-0.09215036779642105,-0.04695814475417137,0.02291853539645672,0.021084856241941452,0.036384787410497665,-0.0452866293489933,-0.0032355827279388905,0.030696017667651176,-0.021435635164380074,-0.05448904260993004,-0.049787797033786774,0.0706252008676529,-0.09696491062641144,0.006223129574209452,-0.03548331931233406,0.0029926865827292204,-0.03892043977975845,-0.01321001909673214,0.020226549357175827,-0.0002228742087027058,-0.08113071322441101,-0.07513365149497986,0.03782534599304199,0.019841745495796204,-0.011892369948327541,0.05182831361889839,0.02767590433359146,-0.024173295125365257,0.0033514690585434437,-0.00016277552640531212,0.004623029846698046,-0.04242787882685661,-0.02294229529798031,-0.03602481633424759,-0.10150240361690521,0.07840610295534134,0.011807817034423351,0.022557074204087257,-0.057890985161066055,-0.012500576674938202,-0.017104417085647583,-0.07713405042886734,-0.021960005164146423,0.063430055975914,0.05316463112831116,0.03251314535737038,0.015351004898548126,0.018333712592720985,-0.05010198801755905,-0.029007548466324806,0.019268829375505447,0.08377305418252945,-0.02095659263432026,-0.01215387787669897,-0.04539693146944046,0.04251772537827492,-0.013815748505294323,-0.022678855806589127,0.08330925554037094,-0.037384048104286194,-0.04586225748062134,0.05950517952442169,-0.0822950005531311,0.012673192657530308,-0.01168051641434431,0.017345217987895012,-0.037986598908901215,0.025461480021476746,0.01259906031191349,-0.01471734419465065,0.026108691468834877,-0.027059849351644516,0.024157289415597916,-0.029476946219801903,-0.044679898768663406,0.06007884070277214,-0.04389531537890434,0.08288530260324478,-0.07661286741495132,0.026920747011899948,0.015035353600978851,-0.0583149679005146,0.023292332887649536,0.026034299284219742,-0.06532370299100876,0.028461622074246407,0.01989450491964817,-0.02969324216246605,-0.08741607517004013,0.04871797561645508,-0.07282379269599915,0.001197373727336526,0.03478896990418434,-0.03250811621546745,-0.0023684098850935698,-0.07220085710287094,-0.04996241629123688,-0.04380888119339943,-0.06720813363790512,-0.06462857872247696,-0.027813857421278954,-0.0569770485162735,-0.022486086934804916,0.052138686180114746,-0.031391117721796036,0.0023163193836808205,-0.008417916484177113,0.07036054879426956,0.03327229619026184,-0.02592652663588524,0.04227478802204132,-0.05021585524082184,-0.04287707433104515,0.0414852574467659,0.046895649284124374,-0.017572855576872826,0.017404166981577873,0.06923553347587585,0.04607324302196503,0.031089935451745987,-0.040788404643535614,-0.03971366211771965,-0.00044911590521223843,-0.045781027525663376,0.016956491395831108,0.018099835142493248,0.03330788016319275,0.00071371701778844,-0.06665539741516113,0.02811606228351593,0.006941129453480244,-0.03160465136170387,-0.03356951102614403,0.0330357626080513,-0.054296139627695084,0.0059094601310789585,0.054202061146497726,-0.058161281049251556,-0.032677896320819855,0.005430187098681927,-0.058600906282663345,0.07124772667884827,-0.02416151762008667,-0.032580383121967316,-0.015755975618958473,-0.008131477981805801,0.019234316423535347,0.008658193983137608,0.011867977678775787,0.045150142163038254,-0.051430340856313705,-0.058817993849515915,-0.04590820521116257,0.06373916566371918,0.049204934388399124,0.06681299209594727,-0.026948435232043266,0.014037641696631908,-0.007179520092904568,-0.07105563580989838,0.014988146722316742,-0.0015011316863819957,-0.004038815386593342,-0.07221245765686035,0.053659822791814804,-0.02263929322361946,-0.0027010790072381496,0.06093379482626915,-0.03170907497406006,-0.08741352707147598,-0.04101760685443878,0.01911213994026184,-0.049232225865125656,0.06217579171061516,-0.05450284481048584,-0.030879026278853416,-0.029220523312687874,0.0007657785317860544,0.044270195066928864,0.02467512898147106,-0.025113793089985847,0.07110273838043213,-0.04435775801539421,-0.05128540098667145,0.022003209218382835,0.00839194841682911,-0.056841976940631866,-0.023614972829818726,0.031177228316664696,0.030086025595664978,-0.09760736674070358,0.08852921426296234,-0.07673485577106476,-0.03262018412351608,-0.06696677953004837,0.03330385684967041,-0.06589607149362564,0.06555771827697754,0.009196789935231209,0.09005358815193176,0.08179327100515366,-0.038668978959321976,0.06307198852300644,-0.08467016369104385,0.06183293089270592,0.022022871300578117,-0.06338570266962051,0.014460025355219841,0.0886877030134201,-0.0036610160022974014,0.03623221069574356,0.06285174190998077,0.025622980669140816,-0.0464206226170063,0.009399205446243286,0.05389402061700821,-0.05850460007786751,0.017888842150568962,0.02052217908203602,-0.09370376169681549,-0.05246167629957199,-0.028156708925962448,0.0386686697602272,0.0031794575043022633,-0.03393247723579407,0.020771833136677742,-0.026605794206261635,-0.02059130370616913,0.027237342670559883,-0.08464329689741135,0.1222621276974678,-0.016477834433317184,-0.028879530727863312,0.045441027730703354,-0.09614554047584534,-0.005060375668108463,0.02623049169778824,0.02762950398027897,0.00005613095345324837,0.023265210911631584,0.06320588290691376,0.044736143201589584,-0.003663415554910898,0.0040319315157830715,0.013042280450463295,0.0158394742757082,0.01632762886583805,-0.042878542095422745,-0.05966731160879135,-0.019110310822725296,0.0428764671087265,0.04388054087758064,-0.02847575582563877,-0.006243791896849871,0.02571311593055725,0.0212435070425272,-0.0023587027098983526,0.05519406870007515,0.018710481002926826,-0.07267758250236511,0.01977214403450489,0.0008183123427443206,-0.020294830203056335,-0.06968864798545837,0.004985922481864691,0.0020110486075282097,-0.04000330716371536,0.034640271216630936,-0.01898127608001232,0.06281104683876038,-0.006226072087883949,-0.022301509976387024,0.032201286405324936,-0.11067476868629456,-0.03580297902226448,-0.1229977011680603,-0.04469316452741623,-0.06741133332252502,-0.10011647641658783,0.06661205738782883,0.05155999958515167,-0.04181423410773277,-0.0243569016456604,0.032665543258190155,-0.011643038131296635,-0.0019141534576192498,0.02140980027616024,-0.05538705736398697,0.006928573362529278,0.01622668467462063,-0.01963948644697666,-0.07480596750974655,-0.007766327820718288,-0.04506579786539078,-0.05028464272618294,0.03033369407057762,-0.04040580987930298,-0.02206573635339737,0.03232767805457115,0.07100262492895126,0.030935635790228844,-0.049274932593107224,-0.07430960983037949,0.04421452805399895,0.011939621530473232,0.058471791446208954,0.057234857231378555,-0.019967729225754738,-0.07821604609489441,0.004819399211555719,-0.0397040918469429,-0.016341686248779297,-0.03522564470767975,-0.003238905454054475,0.0026720950845628977,0.06316277384757996,-0.051805224269628525,0.0644679069519043,0.01875246688723564,0.01224684901535511,0.005700266920030117,0.06883703172206879,-0.04763227328658104,-0.027944788336753845,0.015469621866941452,0.05657312273979187,-0.016345372423529625,0.03699236735701561,0.029582330957055092,-0.07289990037679672,-0.014357686042785645,0.002441437914967537,0.036036573350429535,-0.04149504005908966,-0.06606731563806534,0.05306613817811012,0.05961368978023529,-0.10976942628622055,0.04171650484204292,-0.06903177499771118,-0.009188671596348286,0.01977907121181488,-0.03660786524415016,0.031369712203741074,0.047138512134552,0.022966258227825165,-0.06599791347980499,0.004359446000307798,0.014003700576722622,0.03854472562670708,-0.07527667284011841,0.08178891986608505,-0.015853915363550186,0.013003045693039894,-0.01760888285934925,0.017485762014985085,-0.05632847547531128,-0.07052304595708847,-0.0034331309143453836,0.04942302405834198,-0.10433472692966461,-0.012386984191834927,0.04623763635754585,-0.05331449210643768,0.0017709577223286033,0.012562761083245277,0.02390460856258869,-0.0643308162689209,-0.023683063685894012,-0.014996128156781197,0.05390891060233116,-0.03316956385970116,0.04167800024151802,-0.050387974828481674,-0.04079420492053032,0.011227792128920555,-0.012686071917414665,-0.0236191563308239,0.013805171474814415,0.01979808323085308,0.014559730887413025,0.04106556996703148,-0.013945121318101883,-0.0654204785823822,0.0484887920320034,0.05025969073176384,-0.028400950133800507,-0.03484664857387543,-0.03856120631098747,0.030066758394241333,-0.042012203484773636,-0.04417211934924126,-0.05344455689191818,0.01460450142621994,-0.053885750472545624,-0.006430162116885185,-0.029591714963316917,-0.029468310996890068,-0.008113648742437363,-0.05582823604345322,-0.010620124638080597,-0.04523974284529686,0.04945888742804527,0.03885047882795334,0.01127771195024252,0.030102068558335304,-0.00669260835275054,-0.027494706213474274,0.03517100214958191,-0.013221433386206627,-0.04992995038628578,0.054722391068935394,-0.023730013519525528,0.02990790270268917,-0.014608344994485378,0.05605423077940941,-0.03727847710251808,-0.05258547514677048,0.002293962985277176,0.02261728048324585,-0.023270608857274055,0.00017029911396093667,-0.0514087975025177,0.037827178835868835,-0.00886543095111847,-0.04241401329636574,-0.08092484623193741,0.015247042290866375,-0.013833017088472843,0.0674813836812973,-0.02838016301393509,0.014291769824922085,-0.01872757077217102,-0.011986464262008667,0.03374720364809036,-0.04082132875919342,-0.06162731721997261,0.007980776950716972,0.030277280136942863,0.0072256713174283504,0.062061212956905365,-0.03237618878483772,0.033738892525434494,-0.027109531685709953,-0.06208236142992973,0.061665043234825134,-0.03462793305516243,0.01883126050233841,0.025198394432663918,-0.018192095682024956,-0.07262229919433594,0.04182292893528938,-0.09744416177272797,0.06078234687447548,-0.008243005722761154,0.026692720130085945,-0.05809162184596062,-0.03218579292297363,0.02213028445839882,0.08259411156177521,-0.00995454378426075,0.003249149536713958,0.02065902389585972,0.01870492659509182,0.05576509237289429,-0.0407625250518322,0.06511495262384415,0.08455268293619156,-0.033320892602205276,0.0013837066944688559,-0.02981249801814556,0.02288495935499668,-0.02329171448945999,0.012384063564240932,0.04156450182199478,-0.08733653277158737,0.04698462411761284,0.10207561403512955,0.016551269218325615,0.0014049704186618328,-0.0038012706208974123,0.07846574485301971,-0.05915340408682823,0.012483414262533188,0.024419475346803665,0.037247445434331894,-0.07104212045669556,-0.04634817689657211,-0.07311322540044785,-0.060209065675735474,0.07381424307823181,0.06023155897855759,0.0324755422770977,0.026323268190026283,-0.07432982325553894,-0.0716489776968956,-0.019881635904312134,-0.10802318155765533,0.027475250884890556,0.018033398315310478,-0.052780792117118835,0.07711116224527359,-0.04699085280299187,-0.07146759331226349,0.0019138865172863007,-0.004624489229172468,0.029401537030935287,-0.0246678926050663,-0.011509701609611511,0.018394753336906433,0.0759916752576828,-0.001032295636832714,-0.03343624249100685,-0.05087985470890999,-0.07502523809671402,0.046487633138895035,-0.027247341349720955,-0.033248577266931534,-0.08538240194320679,0.010519281029701233,-0.04447371885180473,0.008727998472750187,-0.012955996207892895,-0.035360220819711685,0.08106139302253723,0.00888852309435606,0.06431020051240921,-0.026985302567481995,-0.006048980168998241,-0.008228925988078117,-0.02559046633541584,-0.025300228968262672,-0.046549033373594284,-0.023633137345314026,0.041749414056539536,-0.049021944403648376,0.01973673701286316,-0.08067473024129868,-0.025136105716228485,0.005883455742150545,-0.028448276221752167,0.024168163537979126,0.049693938344717026,0.05457206070423126,0.09244771301746368,0.04349629208445549,-0.013105419464409351,-0.012936107814311981,-0.07945486158132553,0.07354490458965302,-0.06579666584730148,0.036051832139492035,0.061704497784376144,0.03936289623379707,-0.03052724525332451,0.017788879573345184,-0.07983779907226562,-0.029497483745217323,0.037085745483636856,-0.03756510466337204,-0.06151913106441498,0.045595359057188034,-0.0313044935464859,-0.04626596346497536,0.06618758291006088,0.032792579382658005,-0.037326205521821976,-0.03765348345041275,-0.02021263726055622,-0.029372431337833405,0.028367450460791588,-0.058857642114162445,0.03953303396701813,-0.03347249701619148,-0.10073492676019669,-0.007590229157358408,0.05509928613901138,-0.06221528351306915,-0.04727036505937576,-0.010833623819053173,0.0025852988474071026,-0.06034720689058304,0.07103735208511353,-0.06145007535815239,-0.11399992555379868,0.016968734562397003,-0.038474902510643005,-0.04539769887924194,0.06832768768072128,0.03374491259455681,-0.026587385684251785,-0.0624241828918457,-0.012585594318807125,-0.04571891576051712,0.04052504897117615,-0.08680873364210129,-0.07170402258634567,-0.005500351078808308,-0.09023133665323257,0.021816037595272064,-0.009472589008510113,-0.07100484520196915,0.02960514836013317,-0.03580751270055771,-0.050810135900974274,0.04993855580687523,0.021497389301657677,0.0178912952542305,-0.022945674136281013,0.05328839644789696,0.016418246552348137,0.07696035504341125,-0.017718123272061348,0.017898738384246826,0.013776549138128757,-0.026646865531802177,-0.03138124197721481,-0.024067580699920654,0.044091638177633286,-0.05683906003832817,-0.018415510654449463,0.0041908686980605125,-0.036153644323349,0.00031159273930825293,-0.06096521019935608,-0.016526399180293083,0.03713968023657799,0.0019499310292303562,0.040068142116069794,-0.0037369646597653627,-0.031736474484205246,0.04255872964859009,0.09499868750572205,0.03763728588819504,0.001487238798290491,-0.006851494312286377,0.05123404413461685,0.039262402802705765,0.04871799051761627,0.028340213000774384,-0.0010696491226553917,0.022849412634968758,0.00022066463134251535,0.03559833765029907,0.03525988385081291,-0.04622463509440422,0.05274747684597969,0.061594489961862564,0.054295144975185394,0.08858505636453629,-0.041317664086818695,0.021535983309149742,-0.08496309071779251,0.0831090658903122,0.06740850955247879,0.046433813869953156,0.01390759740024805,-0.013940282166004181,-0.024009058251976967,-0.011048706248402596,-0.028146062046289444,-0.06721431761980057,0.0006591326673515141,0.06877203285694122,0.0693255364894867,-0.07369174063205719,-0.028412386775016785,-0.00581125495955348,-0.08841035515069962,-0.009825448505580425,-0.07615860551595688,-0.09006327390670776,-0.04076123237609863,-0.050439417362213135,-0.023165686056017876,0.0038657733239233494,-0.026589084416627884,-0.03156109154224396,0.015913425013422966,-0.022314351052045822,0.03803450986742973,0.0026018735952675343,0.057167790830135345,-0.028205009177327156,0.013173562474548817,-0.05535166338086128,-0.007716184947639704,-0.006812223233282566,0.00363615108653903,-0.05255340784788132,-0.0035065088886767626,-0.05130927637219429,-0.06754133850336075,-0.022978292778134346,-0.07276161015033722,0.04165041819214821,-0.08881522715091705,-0.03771934658288956,-0.0338921919465065,-0.10748076438903809,-0.015322268009185791,0.004699375480413437,-0.013807232491672039,-0.06074340268969536,-0.062082018703222275,-0.05246281623840332,-0.030317522585392,0.013990920968353748,-0.003760553663596511,-0.07879039645195007,0.013870670460164547,0.04461406171321869,0.010788087733089924,-0.020168021321296692,-0.07204964756965637,-0.022107558324933052,-0.08356475085020065,0.0066581834107637405,0.002969958819448948,-0.02908502332866192,-0.086738720536232,-0.004243653733283281,0.04460351914167404,-0.012669868767261505,-0.02284315787255764,0.001753736287355423,0.017507418990135193,-0.045987021178007126,0.03744703158736229,-0.02656788006424904,-0.06841196119785309,-0.029824545606970787,-0.03933608904480934,0.06842902302742004,-0.025531770661473274,0.0018322014948353171,-0.02247466892004013,0.01694030687212944,0.06218580901622772,-0.04571601003408432,0.05732543021440506,0.06906401365995407,0.0515555776655674,-0.03130754455924034,0.0610475055873394,0.038282059133052826,0.0953357070684433,-0.05445588007569313,0.04341099411249161,-0.02750522457063198,-0.0160199161618948,-0.07619340717792511,-0.032470688223838806,-0.013623458333313465,-0.023053867742419243,-0.028720837086439133,0.004660044331103563,-0.021119942888617516,-0.01532803662121296,0.01730845496058464,-0.01396151352673769,0.02913706935942173,0.016077538952231407,0.01675434038043022,0.0005715982406400144,-0.015119707211852074,-0.008340359665453434,-0.05609681457281113,0.0011194095714017749,-0.0022573438473045826,-0.02471165731549263,-0.04085993766784668,-0.05495927110314369,0.009677963331341743,-0.06863994896411896,0.08365365862846375,-0.03269415348768234,-0.019605107605457306,0.07658687233924866,-0.01849111169576645,0.07168540358543396,0.03258177265524864,-0.01693117804825306,-0.004822085611522198,-0.054309453815221786,0.007109960075467825,0.017573518678545952,0.010923498310148716,-0.03540150821208954,0.0017025601118803024,0.0657050609588623,0.012008671648800373,0.015113775618374348,0.01378325279802084,-0.05845504626631737,0.013600814156234264,-0.011119876988232136,-0.0923641175031662,0.01763015240430832,-0.06811818480491638,-0.024330604821443558,-0.026490069925785065,-0.060726188123226166,0.04836813360452652,0.05165736749768257,0.07539878040552139,0.040087971836328506,0.03184270113706589,-0.05647407844662666,0.020764341577887535,-0.05823294818401337,-0.014826635830104351,-0.03499007597565651,-0.030745524913072586,-0.02573568746447563,-0.05393308773636818,-0.0003997202729806304,-0.0013755179243162274,0.012550278566777706,-0.07285132259130478,0.019158806651830673,-0.004712866619229317,-0.0018514146795496345,-0.010782621800899506,-0.059588976204395294,0.08486019819974899,-0.025599487125873566,-0.04256325215101242,-0.01166558638215065,0.06499293446540833,0.03748572617769241,0.007735986262559891,0.007626545615494251,-0.05406508967280388,-0.052763599902391434,-0.03053143434226513,0.05787893012166023,0.06127682328224182,0.030550263822078705,-0.014378766529262066,0.015017031691968441,0.0934377908706665,0.021517084911465645,-0.01782379485666752,-0.08463979512453079,0.07232595980167389,-0.03963041678071022,0.0015980351017788053,-0.10198924690485,0.01942436210811138,-0.02277013286948204,0.08563855290412903,0.007129122503101826,0.02907860465347767,0.05290314555168152,0.009441209957003593,0.0007353077526204288,0.018905840814113617,-0.013347011990845203,0.04007614031434059,0.020861798897385597,-0.008741638623178005,0.004026507027447224,0.03589186072349548,-0.026178590953350067,-0.030244657769799232,-0.09119009226560593,0.00847344659268856,-0.013393491506576538,-0.003778106067329645,0.05641654133796692,-0.09046768397092819,-0.03653213381767273,-0.011118053458631039,-0.05700339749455452,0.058314476162195206,0.06381543725728989,-0.008470972999930382,-0.029293274506926537,-0.027556002140045166,-0.05313010513782501,0.0016170225571841002,-0.057854779064655304,0.010556048713624477,-0.02884351648390293,-0.06585216522216797,0.005364269949495792,0.04017793387174606,0.019642895087599754,-0.037559621036052704,-0.03397282958030701,-0.07351452112197876,0.020380279049277306,-0.05055035650730133,0.024315403774380684,-0.02105025015771389,0.04504753276705742,0.047537222504615784,0.07687950134277344,-0.01597871258854866,-0.006589469965547323,-0.04831001162528992,-0.05487458035349846,-0.009018839336931705,-0.06709612160921097,0.002424284117296338,-0.062428511679172516,-0.02276597172021866,0.042901650071144104,-0.1040213331580162,-0.008467462845146656,-0.029679851606488228,-0.03158746287226677,0.07339848577976227,0.01821511797606945,0.016124054789543152,-0.03256997466087341,-0.0038260219153016806,-0.06050503998994827,-0.06370574980974197,-0.04422873631119728,0.07103955745697021,-0.007991149090230465,0.07940679788589478,0.016872525215148926,0.007513030897825956,-0.04639622941613197,-0.05261491611599922,0.054385337978601456,-0.07237652689218521,0.010034185834228992,0.032260116189718246,-0.03640010952949524,0.010280800983309746,0.03762495145201683,-0.06525035202503204,0.016530824825167656,-0.020908711478114128,0.026289692148566246,0.06689491122961044,0.03296605125069618,-0.04427706077694893,-0.051746293902397156,0.024215152487158775,0.04157794639468193,0.030281687155365944,0.07573622465133667,0.014563438482582569,0.04925334081053734,-0.02256232313811779,0.005843980237841606,0.04832034558057785,0.010734166949987411,-0.03986089304089546,-0.04464052990078926,-0.05905136093497276,-0.09371843189001083,-0.043322354555130005,-0.004301554523408413,0.0453258752822876,-0.008585842326283455,0.06018337607383728,-0.038609348237514496,0.03475998342037201,0.11049763113260269,0.061782319098711014,-0.034394700080156326,0.03274678811430931,-0.047500185668468475,0.02610872872173786,-0.02985619381070137,-0.003176393685862422,0.06953902542591095,0.014892801642417908,-0.03449946269392967,-0.01797713153064251,-0.007295029703527689,-0.08842402696609497,-0.03332868218421936,0.003616987494751811,0.001191557850688696,0.10642237216234207,-0.0033580076415091753,-0.0009589007240720093,-0.05557342246174812,0.06198697164654732,0.08256520330905914,-0.025757135823369026,-0.09335058927536011,0.05571893975138664,-0.07692775130271912,0.01839302107691765,-0.0254199355840683,-0.05294409021735191,0.020235195755958557,-0.06319552659988403,-0.0356970876455307,0.062219660729169846,0.01527402549982071,-0.06280001252889633,-0.022686902433633804,-0.07331394404172897,-0.017832031473517418,-0.01824473775923252,-0.026784120127558708,-0.042300883680582047,-0.06236825883388519,0.0404699444770813,0.03693399205803871,0.058400630950927734,-0.0007461075438186526,-0.014014285057783127,-0.02310199849307537,0.04866616427898407,-0.006672984920442104,0.01768657937645912,-0.02004704624414444,0.049585096538066864,0.05017140135169029,0.01235062163323164,0.023465735837817192,0.08661084622144699,-0.03919151425361633,-0.022408833727240562,0.024909013882279396,0.022837819531559944,0.029374847188591957,0.07129029929637909,0.027000432834029198,-0.06140078976750374,0.015687070786952972,-0.08062855899333954,0.04670089855790138,0.054058946669101715,-0.002934661926701665,-0.015515819191932678,0.005932147614657879,-0.04957487806677818,-0.0814172551035881,0.002276492537930608,0.045060280710458755,-0.06630665808916092,0.0928754210472107,0.03466362506151199,0.03203574940562248,0.013085871934890747,0.004675744101405144,-0.0052633145824074745,-0.02375488542020321,0.06909143179655075,-0.01015060767531395,0.047848138958215714,-0.02584345079958439,-0.018711047247052193,0.039782628417015076,-0.020058102905750275,0.0008214080589823425,-0.004258938133716583,0.058621663600206375,-0.028076305985450745,0.032693106681108475,-0.01070253923535347,-0.021431516855955124,-0.07963088154792786,-0.06099829450249672,-0.04749384522438049,-0.001815298805013299,-0.0013910889392718673,-0.023786835372447968,-0.06510259956121445,0.023258935660123825,-0.048447031527757645,0.059107545763254166,0.0823468267917633,-0.0005841539241373539,0.006903105415403843,-0.05551815405488014,-0.013027000240981579,-0.019383251667022705,0.0018734494224190712,-0.01214388757944107,0.02608579210937023,0.04480214789509773,-0.0587698332965374,0.04947372153401375,-0.04856182634830475,-0.002414082642644644,-0.05387761816382408,-0.02258426882326603,0.013928447850048542,-0.09558557718992233,-0.0973539724946022,-0.016522100195288658,0.01669505052268505,0.0228045042604208,-0.015555488876998425,0.018756726756691933,0.043568044900894165,0.000010836474757525139,-0.0271562859416008,0.050678450614213943,-0.07697802782058716,-0.003404261078685522,-0.08770616352558136,-0.07436362653970718,-0.022295160219073296,0.04312431439757347,-0.01585356332361698,-0.0847351923584938,0.007222242187708616,-0.06588121503591537,-0.012590277940034866,-0.03912152722477913,0.06006324663758278,0.04661029204726219,0.0058703674003481865,0.037353720515966415,0.035984959453344345,0.019890103489160538,0.036218564957380295,-0.018482016399502754,-0.03381827101111412,-0.05019829794764519,-0.031531162559986115,0.05004539713263512,0.05651028826832771,0.02066238410770893,-0.05029687285423279,-0.09815620630979538,-0.03535768762230873,-0.10281422734260559,-0.01627398654818535,-0.013922694139182568,-0.06577862799167633,-0.018581146374344826,0.03447695076465607,0.049016259610652924,0.00022203543630894274,0.031388767063617706,-0.08981408178806305,0.012065359391272068,0.056237004697322845,-0.05373116582632065,-0.01451161876320839,-0.07213251292705536,0.05040709301829338,0.05443345755338669,0.04869230091571808,-0.016865212470293045,-0.06098395213484764,0.020675575360655785,-0.020745623856782913,0.03925902023911476,0.00009315073111793026,0.013989930041134357,-0.0034684999845921993,-0.06438829749822617,0.005261947866529226,0.04535416513681412,0.024070940911769867,0.029950283467769623,-0.048083025962114334,0.0032105743885040283,0.014288397505879402,-0.07077807188034058,0.06187736243009567,0.0823771134018898,-0.0758320763707161,0.011432883329689503,-0.05517562851309776,-0.008295741863548756,-0.019204411655664444,-0.09311814606189728,-0.10251472145318985,-0.04150177538394928,-0.013385497033596039,0.052439503371715546,0.01220320351421833,-0.02561337873339653,0.0031048909295350313,-0.06954383850097656,-0.05523606762290001,0.06314290314912796,-0.020919647067785263,0.06792157888412476,-0.09147262573242188,-0.027938758954405785,0.04526897519826889,0.039040930569171906,-0.05200003460049629,-0.0295275691896677,0.061628684401512146,-0.013306327164173126,-0.03943298012018204,-0.0051947422325611115,-0.05068826675415039,-0.02208361029624939,0.08213237673044205,-0.058062441647052765,-0.04753676429390907,0.03206576034426689,0.031104277819395065,-0.04406074061989784,-0.01270425133407116,-0.006750657223165035,-0.07468295842409134,0.0012538627488538623,0.03295985609292984,-0.00982984434813261,-0.05483280122280121,-0.10132566094398499,-0.020711377263069153,-0.033654045313596725,0.02819211594760418,0.020978309214115143,-0.005660607013851404,0.02419392205774784,-0.014428258873522282,-0.07288238406181335,-0.03365037962794304,-0.012010764330625534,0.043029408901929855,-0.06312062591314316,0.05746239423751831,0.0028195667546242476,0.044694725424051285,0.0323786698281765,-0.041925184428691864,-0.033288076519966125,0.09216190874576569,-0.011888626031577587,-0.011058025993406773,0.0077012390829622746,0.03987357020378113,-0.06252232193946838,0.015264613553881645,-0.033157434314489365,-0.007053229957818985,-0.07011214643716812,-0.006435841787606478,-0.011194282211363316,-0.08087445050477982,0.032571375370025635,-0.0020312098786234856,0.004724122118204832,0.037327367812395096,0.05379617586731911,0.01590357907116413,-0.0337885320186615,-0.006047496106475592,-0.03999266028404236,0.036561477929353714,0.03348434716463089,0.022714918479323387,0.055785998702049255,-0.019563870504498482,-0.05340053513646126,-0.0610090047121048,-0.041226886212825775,-0.02077227272093296,-0.029159482568502426,0.0009340349351987243,0.003933967091143131,0.0444180890917778,-0.034826960414648056,0.037228137254714966,0.04435577988624573,0.06395995616912842,0.04160948470234871,-0.0010050608543679118,0.08757001161575317,-0.03092145547270775,0.018876338377594948,-0.029660899192094803,0.00640588765963912,-0.06479969620704651,0.010428301990032196,0.011775042861700058,0.061719637364149094,-0.05296678841114044,0.024341337382793427,0.0005382294184528291,-0.01064920611679554,-0.1036752462387085,-0.02504061907529831,0.02297929674386978,-0.08377556502819061,-0.006242949049919844,-0.014100704342126846,-0.06532146781682968,0.022629566490650177,-0.012319096364080906,0.021367846056818962,0.026362009346485138,0.029898762702941895,-0.016815008595585823,0.018975451588630676,-0.02717956341803074,-0.016741489991545677,-0.04137854650616646,-0.052138008177280426,-0.00810160581022501,0.029372066259384155,-0.10898828506469727,-0.06177448853850365,0.021398313343524933,0.05154934152960777,0.0590846911072731,0.09424597769975662,0.013063419610261917,0.0034568801056593657,-0.012198338285088539,0.07089018821716309,0.03237058222293854,0.0050628590397536755,0.025147972628474236,-0.04153760150074959,0.011705608107149601,-0.00008918422099668533,-0.06601104140281677,-0.005375938955694437,0.06827878206968307,0.009950648061931133,0.0038312291726469994,0.05781055614352226,0.07125803828239441,0.05487161874771118,0.08487430214881897,0.021346352994441986,-0.009543468244373798,-0.07491696625947952,0.08381824940443039,0.03666669502854347,0.06551128625869751,-0.0036392370238900185,0.0793565884232521,-0.06885946542024612,0.04468345269560814,0.03327425941824913,-0.019905656576156616,-0.025079626590013504,0.02872832491993904,0.07457625865936279,-0.019883153960108757,-0.024968573823571205,0.03406796604394913,0.09230127185583115,-0.017039287835359573,0.027859166264533997,0.026429517194628716,-0.051205117255449295,-0.03717867285013199,0.08101474493741989,0.027275826781988144,-0.026284651830792427,-0.0335221029818058,0.05857889726758003,0.019009213894605637,0.032395001500844955,0.057843875139951706,-0.02438226342201233,-0.018061550334095955,0.023575061932206154,-0.019908666610717773,-0.025633588433265686,-0.05167495459318161,-0.025550540536642075,-0.09187592566013336,-0.06931900233030319,-0.07085956633090973,0.005848519038408995,0.017273765057325363,0.032251644879579544,-0.017440786585211754,-0.0701204314827919,-0.06816738843917847,-0.05656639114022255,-0.009968063794076443,-0.04690779373049736,-0.08126384764909744,0.006025347858667374,0.05017554759979248,-0.06684891879558563,-0.019899288192391396,0.046883612871170044,-0.06683026254177094,-0.03749638795852661,-0.022430861368775368,0.046633053570985794,0.04789024591445923,0.029490217566490173,-0.049488481134176254,0.050084423273801804,-0.10810107737779617,-0.007607207167893648,0.0498640313744545,0.0964219942688942,0.008421199396252632,0.00142235669773072,-0.03633236512541771,-0.0008822211530059576,0.045446645468473434,-0.02514013461768627,-0.02383594401180744,-0.06766452640295029,0.014697271399199963,-0.027863454073667526,0.03240778297185898,-0.07995088398456573,-0.009294349700212479,-0.018909361213445663,-0.027547398582100868,0.008282716386020184,-0.07154501974582672,0.06302618235349655,-0.021744560450315475,-0.007072038017213345,0.01982300914824009,0.039656031876802444,0.010477514937520027,0.08695773035287857,-0.02700786665081978,0.06058894842863083,0.08384161442518234,0.025942500680685043,-0.0014564800076186657,-0.024647919461131096,0.077687568962574,0.007006093394011259,0.0020946827717125416,-0.021429356187582016,-0.022534765303134918,-0.05804567039012909,0.07105647027492523,-0.06050499528646469,-0.002068835776299238,0.06633475422859192,0.04024166241288185,-0.01987636648118496,-0.077824167907238,0.04045969247817993,0.005358878523111343,-0.03422825038433075,0.012901317328214645,0.03412878140807152,-0.06978116184473038,-0.05381513014435768,-0.008854002691805363,-0.019729577004909515,-0.10923535376787186,-0.03616403788328171,-0.06633353978395462,-0.027209114283323288,-0.003986314870417118,0.061502400785684586,0.007089426275342703,-0.1046314388513565,0.020778007805347443,-0.02503562532365322,0.011396856978535652,-0.05541475862264633,0.07966148108243942,-0.033782631158828735,-0.03707576170563698,-0.006341469008475542,0.04602155461907387,0.01244290266185999,0.0036817314103245735,0.037327490746974945,-0.04530859366059303,0.04917135089635849,0.036926526576280594,-0.08111894130706787,-0.08353253453969955,0.04628688097000122,-0.09690065681934357,-0.0288883987814188,-0.0016165119595825672,-0.04650058224797249,0.09734471142292023,-0.009044810198247433,0.03560386598110199,-0.01721343956887722,0.05439445376396179,0.00862794741988182,0.08507281541824341,-0.014618081972002983,-0.004473994020372629,-0.0013240805128589272,-0.014368698000907898,-0.0361337810754776,-0.03818250447511673,0.0149049898609519,-0.012426754459738731,-0.026301627978682518,-0.02781250886619091,-0.017001211643218994,0.007783489301800728,-0.04298290237784386,-0.0683906301856041,-0.021267270669341087,-0.08337970823049545,-0.004421562422066927,0.08382856100797653,-0.07969619333744049,-0.012170910835266113,-0.014264584518969059,-0.012688376940786839,-0.04842386022210121,-0.06949211657047272,0.03161243349313736,0.08182938396930695,-0.027420060709118843,-0.05398034676909447,-0.03639242798089981,0.0036785132251679897,0.07066132128238678,-0.013075994327664375,-0.008668116293847561,0.03228290379047394,-0.06954006105661392,-0.017682868987321854,-0.02025102637708187,0.020741598680615425,0.01802644319832325,-0.02740984596312046,0.03689377009868622,-0.02395346574485302,0.011309495195746422,0.08092723041772842,-0.08373842388391495,0.015247095376253128,-0.015879230573773384,-0.013139656744897366,0.001690345467068255,0.02268373779952526,0.022242341190576553,-0.046856168657541275,0.02187305875122547,-0.04810543358325958,0.015247576870024204,-0.05265108868479729,-0.02312570996582508,-0.0726676881313324,-0.0025911929551512003,-0.012801744975149632,-0.010594232007861137,-0.03648912161588669,-0.04250044375658035,-0.025269705802202225,-0.025405948981642723,-0.02099897898733616,0.07367651909589767,0.06432808935642242,-0.015300470404326916,0.027211342006921768,0.07184653729200363,0.015709644183516502,-0.019938083365559578,0.08457980304956436,-0.018287476152181625,-0.0012765888823196292,0.0019769654609262943,-0.05099787563085556,0.07562688738107681,0.012720409780740738,-0.06306495517492294,-0.009995915926992893,-0.04284670203924179,0.048469968140125275,-0.029074013233184814,0.054884448647499084,-0.025053471326828003,-0.018928272649645805,-0.0204657893627882,-0.005068345461040735,-0.052096545696258545,-0.03410390764474869,-0.04177477955818176,-0.02222980372607708,0.03658188134431839,-0.02792603336274624,-0.09273902326822281,0.021648019552230835,-0.004970346577465534,-0.006940457504242659,-0.0537596233189106,0.008800183422863483,0.006996987387537956,-0.05996033176779747,0.01874338835477829,-0.09403790533542633,0.0009119594469666481,-0.022107595577836037,0.005263549275696278,0.019678033888339996,-0.008091015741229057,-0.035170137882232666,0.021312255412340164,0.027687272056937218,-0.004222100600600243,-0.023885386064648628,0.01573125831782818,0.03991783782839775,0.05028984695672989,0.05942080169916153,-0.0014641683083027601,-0.0011877162614837289,-0.02724289894104004,-0.09129203855991364,0.05793381482362747,0.03303967043757439,0.06917975842952728,0.0336775965988636,0.0710742399096489,0.0503808818757534,0.007071082480251789,-0.06269775331020355,-0.07507071644067764,-0.057779885828495026,-0.05942888185381889,0.038212258368730545,0.09563825279474258,-0.02262726239860058,-0.008674419485032558,-0.06335926055908203,0.019380996003746986,0.0013724301243200898,0.014355805702507496,-0.006774021312594414,0.009939825162291527,-0.07142699509859085,0.03733738139271736,0.03591740503907204,-0.02839014306664467,-0.028870051726698875,0.0005371772567741573,-0.04327166825532913,0.08456315100193024,-0.0007809753296896815,0.06603839248418808,0.026401400566101074,-0.0730021744966507,0.0543147437274456,0.018293842673301697,0.025341873988509178,-0.020132796838879585,-0.0806298702955246,0.013898198492825031,-0.033726613968610764,-0.02156333066523075,-0.05324244499206543,0.016210630536079407,0.06962114572525024,0.00011584382446017116,-0.010397911071777344,0.0250477883964777,-0.0002744178636930883,0.0140993008390069,0.06341375410556793,-0.057091787457466125,-0.031136907637119293,-0.009579502046108246,0.03391345962882042,-0.0576113723218441,0.029462631791830063,0.07156209647655487,0.020262032747268677,0.028270632028579712,0.05444558337330818,-0.02314133569598198,0.0085750138387084,-0.019033029675483704,0.04398494213819504,0.006402093451470137,0.03130931407213211,0.08160275965929031,0.020988332107663155,-0.0763598382472992,-0.029503120109438896,0.04796133562922478,-0.014342781156301498,-0.0600590743124485,-0.06733919680118561,-0.02104242518544197,-0.058110252022743225,-0.006475458852946758,-0.05776052549481392,-0.028399761766195297,0.0779663696885109,0.04994054511189461,0.004350301809608936,-0.008888212032616138,0.040010515600442886,-0.051447704434394836,-0.021364890038967133,0.016083190217614174,-0.037287160754203796,-0.02054852992296219,0.0621473491191864,0.027908697724342346,-0.09882714599370956,-0.0034200178924947977,-0.010504676960408688,0.04986760765314102,0.004799522925168276,-0.0363711379468441,-0.010135864838957787,-0.05168352276086807,0.0016774042742326856,-0.06129838153719902,0.028870178386569023,0.026662416756153107,0.004364315420389175,-0.0443495512008667,-0.031783439218997955,0.0616915263235569,0.023653991520404816,-0.0929221361875534,0.01231690775603056,0.03404117748141289,-0.05718263238668442,-0.028711991384625435,-0.015622172504663467,-0.06739753484725952,0.12923957407474518,0.030211951583623886,0.052582770586013794,0.009527941234409809,0.02712853252887726,0.0249439999461174,0.055344607681035995,0.06016761064529419,0.07289706915616989,-0.051295746117830276,0.002204995136708021,-0.03722604364156723,0.01740248128771782,0.06197940558195114,-0.043848149478435516,-0.07282982766628265,0.017166009172797203,0.03932034224271774,0.04231562465429306,-0.03340744227170944,-0.03143135830760002,0.013295885175466537,-0.05594879016280174,0.06314616650342941,-0.051068488508462906,-0.029576128348708153,-0.040515076369047165,-0.022193187847733498,-0.019129913300275803,0.07705631852149963,-0.028973432257771492,-0.05062577500939369,0.031148092821240425,-0.02886994369328022,0.01076921820640564,-0.031010208651423454,0.08130116760730743,-0.05160621181130409,-0.02668520249426365,0.02043318562209606,0.029576312750577927,0.013539091683924198,-0.06441410630941391,0.04435398802161217,0.06288593262434006,-0.05850221961736679,0.05014359578490257,0.06475373357534409,-0.054165445268154144,0.005471305456012487,0.034014955163002014,0.014128381386399269,-0.07355932146310806,-0.0036536860279738903,-0.016993975266814232,-0.06351691484451294,-0.06239261478185654,0.05356021970510483,0.023471292108297348,-0.026135696098208427,-0.06848539412021637,0.05784614756703377,0.018204040825366974,-0.03029606305062771,-0.004033294972032309,0.07274715602397919,-0.0649387389421463,-0.09409097582101822,0.06706960499286652,-0.053532835096120834,0.048629987984895706,-0.013767360709607601,0.05830156058073044,-0.0187220498919487,0.04906053468585014,0.030170751735568047,-0.02284337393939495,0.043927259743213654,0.053906142711639404,-0.03463248163461685,-0.03459318354725838,0.09214866906404495,0.07010436803102493,-0.021881233900785446,0.03471693769097328,0.07899095118045807,0.00006667458364972845,0.011703389696776867,-0.020215459167957306,0.04602111876010895,-0.031520817428827286,0.00936719961464405,-0.05148009955883026,0.020840352401137352,0.07374197244644165,0.0753219798207283,0.04735299572348595,0.08929137140512466,-0.02990408055484295,-0.060118529945611954,-0.02239251136779785,0.05247633531689644,-0.034335438162088394,-0.021652167662978172,-0.09574290364980698,-0.0463145487010479,0.02200772799551487,0.038615476340055466,-0.004374648444354534,-0.0974741205573082,-0.05923963338136673,0.03207554295659065,-0.0837499126791954,0.06867189705371857,-0.0459190309047699,-0.10422221571207047,-0.015356795862317085,-0.041836295276880264,-0.0222929734736681,0.05549437180161476,-0.00431265402585268,0.047662071883678436,0.030499828979372978,-0.07733085006475449,-0.0012553436681628227,0.04629286006093025,-0.05577871575951576,0.019970837980508804,-0.011420289054512978,0.08190114051103592,0.01862868294119835,0.06958206743001938,0.02802104316651821,-0.020760325714945793,0.004962532315403223,-0.034541431814432144,0.033547352999448776,0.04682587832212448,-0.004150169901549816,0.023481283336877823,-0.015053139068186283,0.038037028163671494,0.05464789643883705,-0.06809159368276596,-0.033559054136276245,-0.05227774754166603,0.026352904736995697,-0.07935822010040283,0.04740672931075096,0.03613480553030968,0.03336111083626747,-0.048495952039957047,0.026807133108377457,0.02937019243836403,-0.01588943786919117,-0.029910558834671974,0.00700304564088583,0.026084350422024727,-0.006198524497449398,0.03467106074094772,0.03293170779943466,0.03665248304605484,-0.10108976811170578,-0.07799587398767471,0.026805240660905838,-0.03397194296121597,0.029482070356607437,0.016125274822115898,0.04140392690896988,-0.049413539469242096,0.04127883166074753,0.002691237023100257,0.021001622080802917,0.010551569052040577,0.025603901594877243,0.007706459611654282,-0.03555362671613693,0.0025571133010089397,0.04126517474651337,0.055907513946294785,-0.03923768550157547,-0.06101532280445099,-0.05562419071793556,0.02027275040745735,0.00927185919135809,-0.008433394134044647,-0.009547143243253231,-0.07070057094097137,0.04859435185790062,0.03566814959049225,0.04592818021774292,0.04215535148978233,0.06701654195785522,0.05342206731438637,-0.020470356568694115,0.034001611173152924,0.06517075002193451,0.00886770710349083,-0.028560804203152657,0.05691226199269295,-0.008269865065813065,-0.039459165185689926,-0.033387839794158936,-0.0035008422564715147,-0.017972448840737343,0.030155861750245094,0.07377999275922775,-0.09683608263731003,-0.052270110696554184,0.018771115690469742,0.012243907898664474,0.015840457752346992,-0.036208152770996094,-0.050363484770059586,-0.03547265753149986,0.012812850996851921,0.07301615923643112,-0.06984002888202667,0.026205288246273994,-0.07025521248579025,0.041132185608148575,-0.06159522756934166,0.04556698724627495,-0.06029779464006424,-0.06557441502809525,-0.07157860696315765,-0.08603394031524658,-0.010077610611915588,-0.07357478141784668,0.011475796811282635,-0.081345334649086,0.011134522035717964,0.007114225532859564,-0.008844522759318352,0.004929977934807539,-0.03983215242624283,-0.0762418583035469,-0.013488694094121456,-0.05374927818775177,0.02244369313120842,0.07477862387895584,0.008107428438961506,-0.006985074374824762,0.03618853539228439,0.046527814120054245,-0.0025130892172455788,-0.025642070919275284,-0.021902762353420258,0.027717847377061844,0.09164472669363022,-0.04126492887735367,0.002437359420582652,0.03469742089509964,0.005813645198941231,-0.08198752254247665,-0.03453784063458443,0.00205083261243999,-0.052004605531692505,-0.05256985127925873,-0.05620625615119934,-0.052170343697071075,-0.008359037339687347,-0.0077731129713356495,-0.04840704798698425,-0.06903044134378433,-0.05108339339494705,-0.025021404027938843,-0.03672024607658386,0.04069047421216965,-0.0017044702544808388,0.02004789188504219,0.049413613975048065,-0.023794475942850113,-0.05131012201309204,-0.008992931805551052,0.0897192731499672,0.061165209859609604,0.04361995309591293,0.02792370319366455,0.08332499116659164,-0.03252910450100899,-0.07068310678005219,0.01888134889304638,0.059999026358127594,0.05529678240418434,-0.05712873861193657,-0.005605814512819052,-0.05264703184366226,0.003536694450303912,0.03230804204940796,0.018766077235341072,0.021351126953959465,-0.02180691622197628,-0.008855538442730904,-0.019650673493742943,-0.00417916476726532,-0.04219804331660271,-0.055272795259952545,0.06856027245521545,-0.057142022997140884,0.0073631154373288155,0.00008606191840954125,-0.05334226042032242,0.07679960876703262,0.06077294796705246,0.023854805156588554,-0.021916206926107407,-0.005854844115674496,0.006698619574308395,0.03844588249921799,-0.03431640937924385,0.09388411045074463,-0.09208493679761887,0.01457836665213108,0.02722475677728653,0.012060917913913727,0.0033001264091581106,-0.015761099755764008,0.04003525897860527,0.027718648314476013,0.09116388857364655,-0.07388793677091599,-0.04374603182077408,0.07973611354827881,-0.1067972332239151,-0.03396992385387421,-0.0462581105530262,-0.08635935187339783,-0.014548271894454956,-0.021825110539793968,0.03416235372424126,-0.011048693209886551,0.03853917866945267,-0.0453447550535202,0.002924766391515732,-0.04722372069954872,-0.022683758288621902,0.03302786499261856,-0.03406389430165291,-0.007980456575751305,-0.005404097959399223,0.0073714666068553925,0.041223447769880295,-0.014651009812951088,0.0018580697942525148,-0.03701665252447128,-0.05368034914135933,0.0018277342896908522,-0.023088449612259865,-0.10802770406007767,-0.05984439700841904,-0.0677335113286972,0.03771015629172325,0.0572371669113636,0.06505002081394196,0.032415688037872314,-0.015115700662136078,-0.03827521577477455,-0.08338747918605804,-0.07711877673864365,0.036328889429569244,0.07042654603719711,0.08198194205760956,0.03910291939973831,-0.08075892925262451,-0.08583255857229233,-0.03048810362815857,-0.03512275218963623,-0.02590838260948658,-0.041592787951231,-0.0492829754948616,-0.011353151872754097,-0.09411369264125824,0.00034068498644046485,-0.002301241271197796,0.04958866909146309,-0.022747691720724106,-0.02240833081305027,0.028207916766405106,-0.02878631465137005,0.06635011732578278,0.029823776334524155,0.007248465903103352,-0.04940737038850784,-0.006937319412827492,0.04493027552962303,0.04781576246023178,0.04431399330496788,-0.08639037609100342,0.0022217195946723223,-0.07196377217769623,0.005323927383869886,0.003821230260655284,0.03841360658407211,0.017916319891810417,0.047647926956415176,0.039168551564216614,0.060855086892843246,0.06757079064846039,0.016731278970837593,0.008498156443238258,-0.02502095140516758,-0.051759812980890274,-0.03727465867996216,0.03681441396474838,-0.05220181494951248,0.020801864564418793,0.06508678942918777,-0.016985133290290833,0.019322501495480537,-0.006364255677908659,-0.006831254810094833,0.03171355277299881,0.006044753827154636,0.05075429379940033,-0.1054982915520668,-0.002413649344816804,-0.020214127376675606,-0.06307017058134079,-0.04727502912282944,0.02102019637823105,0.016995705664157867,-0.07473655045032501,-0.08991885185241699,-0.03034380078315735,0.03928076848387718,-0.019930962473154068,0.004890169948339462,-0.05502649024128914,0.05138147994875908,0.06361536681652069,0.06562606245279312,0.004433046095073223,-0.009173697791993618,-0.030762773007154465,-0.03169826790690422,0.007056012284010649,-0.10031139105558395,-0.06519810110330582,-0.05296636372804642,0.014182765036821365,0.030927831307053566,0.06827634572982788,0.02031177654862404,0.03478521481156349,0.03965664282441139,0.033283255994319916,-0.0729842558503151,0.004738726653158665,-0.061613235622644424,-0.015663504600524902,-0.011732551269233227,-0.00006882275192765519,0.03235212713479996,-0.01781584322452545,-0.06676732003688812,-0.02780565805733204,0.06858773529529572,0.054259613156318665,-0.05670149251818657,-0.06266770511865616,-0.08944600075483322,0.0097494600340724,0.04337144270539284,0.025762490928173065,-0.026201192289590836,0.037254348397254944,-0.05307801812887192,0.04293688014149666,0.0547952875494957,0.05708031356334686,0.05209308862686157,-0.05194021016359329,0.05946552753448486,-0.03307110443711281,-0.038946572691202164,0.007054599933326244,0.05028162896633148,-0.01822327822446823,-0.02219490334391594,0.04984726384282112,-0.023499485105276108,0.03644467890262604,0.036307442933321,0.011951224878430367,-0.03293402120471001,0.06780098378658295,0.047562360763549805,0.05187544226646423,-0.022443674504756927,0.00434474041685462,0.028167247772216797,-0.0027056087274104357,-0.03575176000595093,-0.0893370509147644,-0.008395668119192123,0.040320783853530884,-0.03406345844268799,-0.04449570178985596,0.027222974225878716,0.003080494236201048,-0.0038183429278433323,0.03004837967455387,0.017962846904993057,0.03528456762433052,0.0009187584510073066,-0.010172593407332897,-0.09645821154117584,0.02524963766336441,0.05153004825115204,-0.08971832692623138,-0.045192405581474304,-0.004116433672606945,0.015326160006225109,-0.07697645574808121,-0.0007561799138784409,-0.04720667377114296,0.018560370430350304,-0.06008773297071457,-0.04297454282641411,-0.05604385957121849,-0.03252578526735306,-0.05561869591474533,-0.023924507200717926,0.02418942004442215,-0.0037792425137013197,0.06924723088741302,0.02856566570699215,-0.0602899007499218,-0.029305556789040565,-0.005498386919498444,-0.07224271446466446,-0.10137536376714706,-0.04584397003054619,0.09623591601848602,0.05775679275393486,0.04388298839330673,0.006284306291490793,-0.02365662343800068,0.015165163204073906,0.02086031250655651,0.022957459092140198,-0.041087910532951355,0.06663302332162857,-0.029372725635766983,-0.023861410096287727,-0.03619531914591789,-0.040078260004520416,-0.04641633480787277,0.030237263068556786,-0.017749382182955742,-0.014436816796660423,-0.027129128575325012,-0.029814500361680984,0.06900916993618011,-0.04527551308274269,-0.0464995913207531,0.011353855021297932,0.0023097083903849125,0.0332183912396431,0.057176437228918076,-0.05266604572534561,0.05382237210869789,-0.037424296140670776,0.051428940147161484,0.003812448587268591,-0.05131983011960983,-0.09888512641191483,0.009650909341871738,-0.030828310176730156,0.0021961985621601343,-0.030908947810530663,-0.021667299792170525,0.07959852367639542,0.044213246554136276,-0.0939297303557396,0.0021307901479303837,0.015280632302165031,0.013943805359303951,-0.04845798760652542,0.014997709542512894,0.01279549952596426,0.03620750084519386,-0.015210343524813652,0.016091590747237206,0.06889958679676056,-0.00949481874704361,-0.06676673144102097,-0.014185155741870403,-0.03246496617794037,-0.04744351655244827,0.005047242622822523,0.02056197077035904,-0.0995035395026207,0.02629808709025383,-0.025342503562569618,-0.07602968066930771,-0.0028830382507294416,0.030118662863969803,-0.024529511108994484,-0.008250036276876926,0.04139791429042816,0.03149572014808655,0.030524427071213722,-0.01325161848217249,-0.032574787735939026,-0.04515301436185837,0.03680090606212616,-0.10323317348957062,-0.10290218144655228,-0.009400692768394947,0.024128533899784088,-0.06473007798194885,0.01786654442548752,-0.0714736059308052,-0.0803060382604599,0.017470259219408035,-0.08867131918668747,0.003391948528587818,-0.024660445749759674,-0.012140732258558273,0.004935193806886673,0.03107512556016445,-0.028499534353613853,-0.04221222922205925,0.0666511282324791,-0.05743259936571121,0.014026394113898277,0.08153367787599564,0.0474625825881958,0.0542154423892498,0.07208472490310669,-0.07813871651887894,-0.10060806572437286,0.09227263927459717,-0.044349074363708496,0.016314029693603516,0.00986024271696806,-0.04985177889466286,-0.062283698469400406,-0.04809357598423958,0.007302475161850452,0.032120853662490845,0.005512520670890808,-0.006986016407608986,-0.0745239183306694,-0.02297363430261612,-0.001667321310378611,-0.046314992010593414,0.017945416271686554,-0.014036196283996105,0.08796699345111847,0.01717532053589821,0.037175074219703674,-0.05928315222263336,-0.024207722395658493,-0.06261798739433289,-0.03943464159965515,-0.024444103240966797,-0.09215754270553589,-0.027005048468708992,-0.043446481227874756,0.05400215461850166,0.006199581548571587,0.07139354199171066,-0.006996966898441315,0.04879087954759598,0.04536988586187363,0.018864046782255173,-0.014290896244347095,0.035949524492025375,-0.030014552175998688,0.06605084985494614,-0.0021792997140437365,-0.027108363807201385,-0.03546801581978798,-0.007652404252439737,-0.012349965050816536,-0.043754976242780685,-0.06021016836166382,0.00272730621509254,0.07674961537122726,-0.03375330939888954,-0.015017419122159481,-0.01991080678999424,-0.013203229755163193,0.00797664001584053,-0.008248847909271717,0.0364939421415329,0.027415070682764053,-0.10201364010572433,0.0696520060300827,0.03883885592222214,0.07141586393117905,0.0026088820304721594,-0.015236260369420052,0.017357243224978447,-0.0019775640685111284,-0.07379724085330963,0.019392888993024826,-0.003046784782782197,-0.007128907833248377,0.014544261619448662,-0.003999487962573767,-0.10675980895757675,-0.03717022016644478,0.047153159976005554,0.047273341566324234,-0.040163248777389526,0.02514423243701458,-0.06684911996126175,-0.07816686481237411,0.04000942409038544,0.055164262652397156,0.014553655870258808,-0.04618307948112488,0.0511866919696331,-0.013715779408812523,-0.03815994784235954,0.02025580033659935,-0.011034012772142887,-0.0321824811398983,0.07965661585330963,-0.013955621048808098,-0.03556159511208534,-0.04819971323013306,-0.022456785663962364,-0.03445649892091751,0.018067415803670883,0.04678252711892128,0.047651782631874084,0.02845984324812889,-0.09127441793680191,-0.02703740820288658,-0.017089562490582466,-0.04605991020798683,0.0076797595247626305,-0.018569016829133034,-0.005456709302961826,0.013814442791044712,0.06803090870380402,-0.07890701293945312,0.03812399506568909,0.0013750838115811348,0.085319384932518,-0.007691825274378061,-0.07901503890752792,0.028734255582094193,0.03645512834191322,-0.08535601943731308,-0.05757206678390503,-0.006662851199507713,-0.04177336394786835,0.08061341941356659,0.037414662539958954,-0.045219339430332184,0.026420680806040764,-0.03998393192887306,-0.04890706017613411,0.05803428217768669,0.0006369909970089793,-0.010321355424821377,-0.06966352462768555,0.010846234858036041,0.004037318751215935,0.0497116781771183,-0.07616093754768372,0.02739318646490574,0.058266349136829376,-0.04835265129804611,-0.051122378557920456,0.021907003596425056,-0.059028442949056625,-0.033369388431310654,-0.038430921733379364,-0.0451834611594677,0.0031238459050655365,0.02864580787718296,-0.055998437106609344,0.03152341768145561,-0.036525458097457886,-0.007676090579479933,0.04337397590279579,0.05730351805686951,0.03163425251841545,-0.03346085548400879,0.012349405325949192,0.01546475663781166,0.015175393782556057,0.0503595732152462,-0.04013928398489952,0.012619241140782833,-0.04642521217465401,-0.010127648711204529,-0.008310660719871521,0.0030010882765054703,0.04463537409901619,0.009546221233904362,0.02910330519080162,-0.07865792512893677,-0.04610414803028107,-0.034557513892650604,-0.025477852672338486,-0.037783145904541016,-0.00035975425271317363,-0.031144969165325165,-0.06070052832365036,0.04126821830868721,-0.0460897795855999,0.0008008955628611147,0.04727394878864288,-0.0016122417291626334,-0.023721616715192795,-0.05298253148794174,-0.04202212765812874,-0.012270025908946991,-0.051857367157936096,0.06292049586772919,-0.07940732687711716,0.03587977960705757,0.05988573655486107,-0.03238200396299362,-0.08256825059652328,-0.01871577836573124,0.03496839478611946,-0.01775563880801201,-0.06129123270511627,0.07171618938446045,0.010781208984553814,0.041052550077438354,0.013796069659292698,-0.037847183644771576,-0.027062488719820976,-0.07871565967798233,0.054646577686071396,0.01836904138326645,-0.08077581971883774,0.022898422554135323,-0.008003209717571735,0.07879149168729782,-0.007467727642506361,0.03688407689332962,0.01400065142661333,-0.03339096158742905,-0.039840903133153915,-0.05121051147580147,0.09000592678785324,-0.09093141555786133,-0.01522546075284481,0.01654984802007675,0.026387926191091537,-0.01888939179480076,0.0025828129146248102,-0.017511630430817604,0.04054499417543411,0.06118030101060867,-0.04386059194803238,0.012467008084058762,0.022225411608815193,0.022075213491916656,0.008975405246019363,0.00041362899355590343,0.03412879258394241,0.0535491481423378,0.07056950777769089,-0.0009681431110948324,-0.0718512237071991,0.044609371572732925,-0.03815339878201485,-0.0625213086605072,-0.013032756745815277,-0.03802935406565666,0.009992392733693123,0.06501816213130951,-0.014142744243144989,0.011928778141736984,-0.10607914626598358,0.02751544862985611,-0.03725232928991318,-0.0669475570321083,-0.012455775402486324,0.013087096624076366,0.027800733223557472,-0.03872184827923775,-0.06735126674175262,-0.012326630763709545,0.023490838706493378,0.003709352808073163,-0.02171621099114418,0.08065919578075409,-0.04424722492694855,0.04670199751853943,0.02153216488659382,-0.005661201197654009,-0.0777045413851738,0.015509556978940964,0.00877755880355835,0.06651795655488968,0.068292036652565,-0.0006054986151866615,-0.0460633784532547,-0.005396807566285133,-0.024333825334906578,-0.04706370458006859,0.022181682288646698,0.025302181020379066,-0.0578928142786026,-0.08324460685253143,-0.10928170382976532,0.046636078506708145,-0.06177103519439697,-0.0040754759684205055,0.059150006622076035,0.036751143634319305,-0.07430385053157806,0.0043633198365569115,0.06548600643873215,0.016631662845611572,0.00020775754819624126,-0.011177708394825459,-0.015804383903741837,0.0003612808359321207,-0.0654555931687355,0.025882434099912643,0.0935121476650238,0.08367200195789337,-0.0026485959533602,-0.044810350984334946,-0.015259360894560814,-0.019146928563714027,-0.05538126453757286,-0.031136680394411087,-0.06275275349617004,0.03055901639163494,-0.03159771487116814,-0.007285868749022484,0.045804839581251144,-0.11025281250476837,-0.0028361540753394365,0.0033560353331267834,0.0073701743967831135,0.0942264124751091,-0.033326636999845505,-0.03594737499952316,0.029323343187570572,0.04543139040470123,-0.06156560778617859,-0.041591450572013855,-0.09218261390924454,-0.02432536520063877,0.007369499187916517,0.015039467252790928,0.0024731887970119715,0.00035782199120149016,-0.0519297756254673,-0.021654224023222923,-0.07295782119035721,0.0030265897512435913,-0.005939742084592581,-0.007882368750870228,-0.04080011323094368,-0.031111350283026695,0.017787428572773933,0.027069244533777237,-0.049803756177425385,0.030364101752638817,0.02645236626267433,0.04911556467413902,0.06411365419626236,-0.04057908430695534,0.005460378248244524,0.08277285844087601,0.03383767232298851,-0.0348009429872036,-0.008651687763631344,0.08499611169099808,-0.04603232815861702,0.010413643904030323,0.020471256226301193,-0.03686705231666565,0.00973946787416935,0.04442358389496803,-0.02341187559068203,-0.03803977742791176,0.03142669051885605,-0.0845198705792427,-0.03664856404066086,0.09703798592090607,0.04062371328473091,-0.0069459062069654465,0.08428580313920975,-0.09475944936275482,-0.02356826700270176,-0.027489110827445984,-0.059350959956645966,0.013913322240114212,-0.003583248471841216,-0.0464385561645031,0.002994036301970482,0.016597798094153404,0.04896349832415581,0.005852936301380396,0.006401273421943188,0.05453105643391609,0.0907549038529396,-0.009172375313937664,0.009579943493008614,-0.02378542535007,-0.019150692969560623,-0.01946374960243702,-0.08231769502162933,0.00705943675711751,-0.07086151093244553,0.1010546013712883,-0.007699006237089634,-0.013482452370226383,0.006768924184143543,-0.014561272226274014,0.0494525283575058,0.05559977889060974,-0.006125135812908411,-0.016351893544197083,-0.025487679988145828,-0.03249390423297882,0.08601809293031693,-0.05412529781460762,0.0359526053071022,-0.002810669131577015,-0.04160737991333008,-0.05616091564297676,0.041860874742269516,0.0650806650519371,0.0362883098423481,-0.06471769511699677,0.010725400410592556,-0.04023138806223869,0.016791142523288727,-0.0312972366809845,-0.036876123398542404,-0.045881498605012894,-0.02119448222219944,0.024320073425769806,0.02428142912685871,-0.008529940620064735,-0.07631519436836243,0.03442893922328949,-0.04063646122813225,0.06459322571754456,0.06192713603377342,-0.021915044635534286,0.07083729654550552,-0.008139805868268013,0.011939827352762222,0.03960602357983589,-0.03145160898566246,0.03983403742313385,-0.008726333267986774,0.024045147001743317,-0.07217652350664139,-0.07101796567440033,0.000323872925946489,-0.013188350945711136,-0.07778669893741608,-0.08229852467775345,-0.06823613494634628,0.06425048410892487,-0.016280248761177063,0.012459330260753632,-0.06384264677762985,-0.025947295129299164,-0.01851019077003002,-0.0319058895111084,0.055253636091947556,-0.015581595711410046,0.038319651037454605,0.005225065164268017,-0.030975058674812317,-0.026459023356437683,0.01029309444129467,-0.01032322272658348,-0.02604766935110092,0.012400280684232712,-0.008230436593294144,-0.02373325265944004,-0.025085093453526497,0.008993747644126415,-0.0443633608520031,0.031014902517199516,-0.05925004556775093,-0.03401733189821243,0.0262822974473238,-0.013051733374595642,-0.03551251068711281,0.05162957310676575,-0.02842067740857601,-0.03595400229096413,-0.06177503243088722,-0.03175656497478485,0.005454135127365589,-0.10041066259145737,0.032800834625959396,0.024006295949220657,-0.024655243381857872,0.040886979550123215,0.0696067214012146,-0.04639451205730438,-0.08467158675193787,0.008209559135138988,0.03253173828125,-0.015194500796496868,0.06445425003767014,0.02602972835302353,-0.03026547096669674,-0.027789592742919922,0.030875330790877342,-0.0003332647611387074,-0.003160123247653246,-0.01562493946403265,0.0036128913052380085,-0.004166442435234785,-0.09906072914600372,-0.08158748596906662,0.027397358790040016,0.029652614146471024,-0.02925562486052513,-0.04149961099028587,0.0567631833255291,-0.03571895509958267,0.032095614820718765,-0.014697796665132046,0.023181067779660225,0.031009938567876816,-0.017435617744922638,-0.028028802946209908,-0.019445614889264107,-0.009993189945816994,0.07479384541511536,0.04969256743788719,0.023247525095939636,-0.04031595587730408,-0.0708884745836258,0.04403656721115112,0.009274105541408062,-0.010958315804600716,0.039148058742284775,-0.026159266009926796,-0.010465806350111961,-0.0736318826675415,-0.060734186321496964,-0.008665629662573338,-0.04935229569673538,-0.0008764687809161842,0.07503663748502731,-0.058657437562942505,-0.06284027546644211,-0.05376806855201721,0.050871457904577255,0.030566778033971786,0.010189486667513847,-0.05993497744202614,-0.07097487896680832,0.027306832373142242,-0.01998063176870346,-0.011682122945785522,-0.029293088242411613,-0.07470197975635529,-0.0372672900557518,0.06269533187150955,-0.0020631758961826563,0.05505065247416496,-0.049267422407865524,-0.08734196424484253,-0.02486124448478222,-0.0011013410985469818,-0.0218422319740057,-0.09400592744350433,-0.09849339723587036,0.01672443188726902,0.04455571994185448,0.0355670191347599,0.0021064267493784428,0.014151772484183311,0.01968032866716385,0.011585072614252567,-0.024479761719703674,-0.10537654161453247,-0.08347955346107483,0.04148929566144943,-0.03895879536867142,-0.018640559166669846,0.04538723826408386,0.01999322511255741,-0.04409739002585411,0.022807832807302475,0.06973866373300552,0.04584968462586403,0.0033014011569321156,-0.04616924002766609,-0.04172748327255249,0.1026739701628685,-0.022538602352142334,0.06764543056488037,-0.07798023521900177,0.019351687282323837,0.028890226036310196,-0.04093660041689873,-0.014305387623608112,0.006702849175781012,0.07230318337678909,-0.0029089271556586027,-0.03563067689538002,0.04204987734556198,-0.0689566358923912,0.004910724703222513,0.004322937689721584,0.07790323346853256,-0.07480737566947937,-0.050424035638570786,0.054282866418361664,-0.016458982601761818,-0.07842016965150833,-0.014684437774121761,-0.0037762990687042475,-0.0010689565679058433,-0.03824889287352562,0.09058724343776703,0.014587911777198315,-0.04560285806655884,0.03387311100959778,-0.10469216108322144,-0.02778470143675804,0.05367380380630493,-0.08518270403146744,-0.0501968078315258,0.03413088247179985,-0.013509955257177353,0.020916715264320374,-0.0014584761811420321,-0.029554609209299088,-0.036664754152297974,0.027594415470957756,-0.07194976508617401,-0.016505705192685127,0.028589798137545586,-0.046845659613609314,-0.0074757798574864864,0.002751328283920884,-0.06587950885295868,-0.07118866592645645,-0.0009526897338218987,-0.028312236070632935,0.0574512705206871,-0.07901658117771149,0.044768620282411575,-0.012953998520970345,-0.008687330409884453,-0.06492140144109726,-0.011393046006560326,0.0636853352189064,0.058670490980148315,0.009430089965462685,0.015692560002207756,-0.03885822370648384,0.039913903921842575,-0.07679085433483124,-0.0598839595913887,-0.02953495644032955,0.00872813817113638,0.016904179006814957,-0.0509507842361927,0.09874137490987778,-0.04901345446705818,0.04400821030139923,0.06340056657791138,-0.046117719262838364,-0.07655166834592819,0.025504326447844505,0.02842450514435768,-0.04990239813923836,0.0721210464835167,0.027884073555469513,-0.017038781195878983,-0.050091832876205444,0.06338381767272949,-0.10117100924253464,0.06182944029569626,-0.0042611947283148766,0.023767981678247452,0.03254999965429306,-0.016707610338926315,0.008693292737007141,-0.08025551587343216,0.054350096732378006,0.03082001581788063,-0.023993173614144325,0.04182841256260872,0.025272928178310394,-0.053213562816381454,0.02656228095293045,0.01891489140689373,0.038215745240449905,-0.06857733428478241,0.08323301374912262,0.03149771690368652,-0.06687276810407639,0.05986988916993141,0.03838963806629181,-0.09755504876375198,0.006154268980026245,-0.03927559778094292,0.029361335560679436,-0.030993662774562836,-0.006160140037536621,-0.03307909891009331,-0.04826408997178078,-0.043087683618068695,-0.10272302478551865,0.08146894723176956,0.07411645352840424,-0.03732771798968315,-0.050429340451955795,0.0052002365700900555,-0.042677782475948334,-0.005493685137480497,-0.02654440328478813,0.04151172190904617,-0.07259909808635712,-0.027612924575805664,0.004419465083628893,-0.0238184817135334,-0.05795491486787796,0.03133280202746391,0.08006061613559723,0.023783287033438683,-0.023968050256371498,-0.0028378877323120832,-0.058946236968040466,0.06885479390621185,-0.08808394521474838,-0.007217740640044212,0.009374257177114487,-0.050125617533922195,-0.016155138611793518,-0.0016865809448063374,0.00814376212656498,-0.030166346579790115,-0.048836544156074524,0.027769828215241432,0.0028721236158162355,-0.03520049899816513,0.07313224673271179,0.010660117492079735,0.02217961847782135,-0.028503796085715294,0.009859129786491394,-0.03774638473987579,-0.0038355872966349125,0.02135627157986164,-0.05866122245788574,-0.013761910609900951,-0.044516660273075104,-0.0010085268877446651,0.0011058448581025004,-0.0019732071086764336,-0.0038862440269440413,-0.003141106106340885,-0.030567623674869537,-0.05936582386493683,0.07820980250835419,-0.059408966451883316,-0.06045546755194664,-0.0687267854809761,-0.021712295711040497,-0.01259214710444212,0.0009964078199118376,0.05050097033381462,-0.003033583052456379,-0.0432199090719223,-0.0018816692754626274,0.01750466227531433,-0.017720913514494896,-0.06527043133974075,-0.04916439205408096,0.029290735721588135,-0.030918927863240242,0.006663864478468895,-0.016818268224596977,-0.08549363166093826,-0.07035298645496368,0.0028993035666644573,0.012753432616591454,0.0083442572504282,-0.030433399602770805,0.04046903923153877,-0.08118380606174469,0.034297361969947815,-0.08512620627880096,-0.017001114785671234,-0.08799592405557632,0.026495950296521187,0.061040207743644714,0.0029687865171581507,0.03639286383986473,-0.0433490090072155,-0.05321163311600685,-0.03391271457076073,0.01140642911195755,-0.024784037843346596,0.06702578812837601,0.052339278161525726,-0.043435238301754,0.040157392621040344,0.044968415051698685,-0.021508043631911278,-0.04375174641609192,-0.054003216326236725,0.03526728227734566,-0.09355855733156204,0.023636432364583015,0.03318919241428375,-0.042096663266420364,0.07222670316696167,0.018971797078847885,-0.007389663252979517,-0.07350504398345947,-0.016731947660446167,-0.00033942380105145276,0.016669122502207756,0.03074744902551174,0.010425369255244732,-0.045926958322525024,-0.019624803215265274,0.020207460969686508,-0.06945435702800751,-0.030718300491571426,-0.027579350396990776,0.07294172793626785,-0.04663523659110069,0.07940593361854553,0.05472036078572273,0.09146188199520111,-0.11242803186178207,0.007525633089244366,0.036781612783670425,-0.04933483526110649,-0.09817061573266983,-0.046089984476566315,-0.05156311020255089,0.07434892654418945,-0.018330542370676994,0.047773972153663635,0.04861180856823921,-0.07149328291416168,0.018170662224292755,0.003697618842124939,0.08281563222408295,0.008172760717570782,0.016634076833724976,-0.03375519812107086,0.05896168574690819,0.0951361358165741,0.053266268223524094,0.01294640637934208,0.010532954707741737,0.048521168529987335,0.0027252533473074436,0.025054296478629112,-0.017960866913199425,0.010070815682411194,0.011618668213486671,-0.09581135213375092,0.02826600894331932,-0.03911218047142029,0.006414440926164389,-0.012204057537019253,0.02719011902809143,0.010786374099552631,-0.025615030899643898,-0.028912974521517754,0.055493611842393875,0.04417165741324425,-0.03696732595562935,-0.03217605501413345,-0.1067056730389595,0.06079058721661568,-0.02695969119668007,0.034000419080257416,0.024999188259243965,-0.007272000890225172,-0.02205677516758442,0.047626085579395294,0.03611234202980995,0.055348411202430725,0.002948559122160077,-0.07091566175222397,-0.021396277472376823,-0.025187479332089424,-0.02798343449831009,-0.08624592423439026,-0.03177845478057861,-0.050311122089624405,-0.03539774566888809,0.0056639439426362514,0.005730332341045141,-0.040219880640506744,-0.07738415151834488,0.028243588283658028,-0.022881649434566498,0.004811893682926893,-0.010873210616409779,0.09306611120700836,0.03541441261768341,-0.02511025406420231,0.02973341941833496,-0.016696663573384285,0.053786080330610275,-0.017108218744397163,-0.01892566867172718,0.008126771077513695,0.020568879321217537,-0.03369007259607315,-0.04916707053780556,0.08143872022628784,-0.047190193086862564,0.09481319785118103,0.028889762237668037,-0.046507030725479126,-0.04323248192667961,0.04869847372174263,0.08172735571861267,0.056432243436574936,-0.0657813623547554,-0.0180104598402977,-0.026935644447803497,-0.07865714281797409,-0.011860081925988197,0.029099276289343834,0.0077754738740623,-0.04560280591249466,-0.013175698928534985,-0.04724859073758125,-0.06220743805170059,-0.051929160952568054,0.04253575950860977,0.0349181666970253,0.03824542090296745,-0.04395241290330887,0.020262302830815315,-0.03349357843399048,-0.02873002178966999,-0.01829029619693756,-0.034511081874370575,-0.007264356594532728,0.031516656279563904,0.02587307244539261,0.0696251317858696,0.016312692314386368,0.04319245368242264,-0.10595713555812836,-0.060281552374362946,-0.021036937832832336,-0.08270588517189026,0.010574235580861568,0.025574209168553352,-0.05703740566968918,-0.00899391621351242,0.01009049266576767,0.03688661381602287,0.06149336323142052,0.005002101883292198,-0.03908976912498474,0.04799450933933258,0.06349796801805496,0.08285844326019287,0.008726120926439762,-0.022447481751441956,0.024702396243810654,0.0680016353726387,-0.03215412050485611,0.02288975566625595,-0.011720380745828152,0.031192950904369354,-0.08765903860330582,-0.018813835456967354,0.0029607494361698627,0.06958367675542831,-0.011878954246640205,0.0913822278380394,-0.04543855041265488,-0.0645042359828949,0.040922775864601135,0.010790880769491196,0.08236918598413467,0.06754419207572937,-0.04987300932407379,0.02822619117796421,0.003330707550048828,0.014455694705247879,0.003388440003618598,0.045787688344717026,0.060844600200653076,-0.005573197267949581,0.024240590631961823,0.03221037983894348,0.015050644055008888,-0.06287667900323868,0.011834779754281044,-0.048666246235370636,0.006983297877013683,-0.01712787337601185,0.05059823766350746,0.02319108322262764,0.07163158059120178,0.029486581683158875,0.0708000510931015,0.0743325799703598,0.02772451378405094,-0.06486126035451889,-0.04391021654009819,0.041990239173173904,-0.11474888771772385,-0.08576527237892151,-0.005805445834994316,-0.10010158270597458,0.02154655195772648,0.04831370711326599,0.03414057940244675,-0.002975709969177842,0.00486904289573431,0.010499350726604462,-0.038680221885442734,-0.06567796319723129,-0.05954384803771973,-0.07805722951889038,-0.033618904650211334,0.027829086408019066,0.06136295571923256,-0.05227397754788399,-0.05300739407539368,0.04878273978829384,-0.0717567503452301,-0.03115214966237545,0.07271503657102585,-0.05519304797053337,-0.01221231184899807,0.08958697319030762,-0.06321896612644196,-0.005661632400006056,0.024900168180465698,-0.06841006875038147,0.07459775358438492,-0.06889737397432327,-0.006621200125664473,0.020259851589798927,-0.03493126109242439,-0.012663639150559902,0.046797145158052444,-0.07087479531764984,-0.012287995778024197,0.08199694752693176,0.08396346867084503,0.024205606430768967,0.06187228485941887,0.038893405348062515,-0.03467120975255966,-0.07829444110393524,-0.040986206382513046,0.03805787116289139,-0.0035393498837947845,