{"runId":13,"createdAt":"2026-07-16T19:18:28.259Z","modelFamily":"mlp_v1","hiddenLayers":[128,64],"inputSize":120,"outputSize":59,"outputNumbers":[1,2,3,4,5,6,7,8,9,10,11,12,13,14,15,16,17,18,19,20,21,22,23,24,25,26,27,28,29,30,31,32,33,34,35,36,37,38,39,40,41,42,43,44,45,46,47,48,49,50,51,52,53,54,55,56,57,58,59],"weights":[{"name":"dense_Dense1318/kernel","shape":[120,128],"values":[-0.08873548358678818,-0.050332240760326385,-0.0029719204176217318,0.07033462077379227,-0.003438914194703102,-0.050491247326135635,-0.074062280356884,-0.1310899704694748,0.008163966238498688,0.08228950202465057,0.12765748798847198,0.021690277382731438,0.13006605207920074,0.015728086233139038,-0.09663048386573792,0.09549897164106369,-0.019430536776781082,-0.03631775081157684,-0.00582426693290472,-0.015102810226380825,-0.1425989270210266,0.07626239955425262,-0.07026021182537079,-0.017262183129787445,-0.037828873842954636,-0.020788634195923805,-0.08368675410747528,-0.09507502615451813,0.033864982426166534,0.0038348298985511065,0.05009106546640396,-0.13134686648845673,0.05792754143476486,-0.12997056543827057,-0.10461834818124771,-0.0017109489999711514,-0.10482051223516464,0.0029707751236855984,-0.11130570620298386,0.0013672547647729516,0.019483117386698723,0.06969171017408371,-0.055595070123672485,-0.013007774949073792,-0.07480301707983017,-0.04606824368238449,0.088440902531147,-0.0045767659321427345,0.027977291494607925,0.050633665174245834,-0.07333311438560486,-0.025407083332538605,0.17031097412109375,-0.03013390116393566,-0.061369359493255615,0.02565937675535679,-0.057139065116643906,-0.008237576112151146,0.061757370829582214,-0.10252021253108978,-0.04880327731370926,-0.03813086822628975,0.15932291746139526,-0.043150145560503006,-0.07800062000751495,-0.023072149604558945,-0.018779633566737175,-0.14325720071792603,0.09470895677804947,-0.033204544335603714,-0.17917540669441223,-0.058130450546741486,-0.09337831288576126,-0.01006992720067501,-0.04551825672388077,0.01581125520169735,0.04710678383708,0.033347614109516144,0.08541206270456314,0.0542810782790184,-0.07930228859186172,-0.08636005222797394,0.10055114328861237,-0.025104602798819542,0.11258823424577713,0.008248166181147099,0.13187262415885925,-0.0172361321747303,-0.07286860793828964,-0.0071562849916517735,-0.06858709454536438,0.016420666128396988,-0.14801913499832153,0.04404830187559128,0.048751454800367355,0.037246864289045334,0.07145091891288757,-0.06744109839200974,0.0751703679561615,0.14530418813228607,0.052493348717689514,-0.15091823041439056,0.020208900794386864,0.06283235549926758,-0.016743376851081848,-0.012244748882949352,0.009218615479767323,0.054382406175136566,-0.08257363736629486,-0.12558573484420776,0.06808582693338394,-0.05537544563412666,-0.1393572837114334,-0.18976101279258728,-0.046303004026412964,-0.06989885121583939,-0.03440973535180092,-0.07995401322841644,-0.021161768585443497,-0.04801821708679199,0.14120563864707947,-0.09827689081430435,-0.209161177277565,-0.14404553174972534,0.04064040631055832,0.04188935458660126,0.0773020088672638,0.03337714076042175,0.1200331375002861,0.08277291804552078,0.005979449488222599,0.024574704468250275,0.053332313895225525,-0.14315252006053925,-0.03318601846694946,0.026195881888270378,-0.18728040158748627,-0.10962522774934769,0.04732000455260277,0.07151766121387482,0.002097231801599264,-0.1052502766251564,-0.02635832317173481,0.04408855736255646,0.06727995723485947,-0.1015857607126236,0.07169822603464127,0.0580226294696331,0.030558574944734573,-0.18372026085853577,0.034437596797943115,-0.014993048273026943,-0.06647827476263046,0.06269001215696335,-0.1485842764377594,0.1117490753531456,-0.04896502196788788,0.03814521059393883,-0.21813735365867615,-0.014382804743945599,-0.06544969230890274,-0.010440666228532791,0.06355123221874237,0.0799015685915947,0.030050667002797127,-0.09988986700773239,-0.07993853837251663,0.011568613350391388,0.02601109817624092,0.10779102891683578,-0.07704131305217743,-0.021496975794434547,0.0656488686800003,0.047803208231925964,0.02939460799098015,0.04301351681351662,-0.07267921417951584,-0.023423604667186737,0.07335764169692993,-0.0035090791061520576,-0.0767960175871849,-0.017167072743177414,-0.16957667469978333,-0.07051323354244232,0.0612194649875164,-0.11211960017681122,0.04293621703982353,-0.0005100411945022643,0.006731963250786066,-0.06351163238286972,0.07945653796195984,0.014586452394723892,0.08483234792947769,0.047740522772073746,0.0602012574672699,-0.11065474897623062,0.0015510383527725935,0.007041501812636852,-0.061082348227500916,-0.09817536175251007,-0.07873353362083435,-0.035969845950603485,0.14229227602481842,-0.021618589758872986,0.0892634391784668,0.023332301527261734,0.08573633432388306,-0.04826034978032112,-0.09895267337560654,-0.019276326522231102,0.03623355180025101,0.021995604038238525,-0.12931616604328156,-0.12838521599769592,0.08122724294662476,-0.0007004738436080515,-0.0007682263967581093,0.0337204672396183,-0.041890569031238556,-0.008290385827422142,0.023464417085051537,-0.03613385558128357,-0.029310651123523712,-0.011284670792520046,0.09778477251529694,-0.06657921522855759,0.15331052243709564,0.006712079048156738,-0.07870659232139587,-0.08219003677368164,0.034251194447278976,-0.13389307260513306,-0.008482829667627811,-0.08895495533943176,-0.035296548157930374,0.07445258647203445,0.020755920559167862,-0.04523897171020508,-0.1573176383972168,0.07992811501026154,-0.05608953908085823,-0.031014543026685715,0.09480097889900208,0.04488985985517502,0.098105788230896,0.0821317583322525,-0.08537321537733078,0.006572420243173838,0.060559749603271484,0.05251438915729523,-0.16412992775440216,0.03710301220417023,0.035258226096630096,-0.12184826284646988,-0.015960967168211937,0.002668185392394662,-0.06704862415790558,0.06528354436159134,-0.09196728467941284,-0.013901684433221817,-0.10542131215333939,0.07197237014770508,0.07656821608543396,-0.148605614900589,0.07001873105764389,0.09193520247936249,0.03136974945664406,-0.003467446193099022,-0.008707868866622448,-0.030366618186235428,0.002032224088907242,0.0752454325556755,0.04740137234330177,0.09043851494789124,0.05121732875704765,0.048021912574768066,0.01941838301718235,-0.06790992617607117,-0.15415902435779572,-0.003451622324064374,-0.0030172246042639017,0.14903900027275085,0.08266662061214447,0.10654588043689728,-0.11951921880245209,0.10797807574272156,0.1062568798661232,-0.04055577516555786,-0.03959059342741966,-0.07877464592456818,0.06415050476789474,-0.10049781203269958,-0.05719621852040291,0.008980398997664452,-0.02482162043452263,-0.05176767706871033,-0.06645222008228302,-0.18625572323799133,-0.060379136353731155,-0.156206414103508,-0.09610378742218018,-0.12840592861175537,0.02152545191347599,0.10599575936794281,-0.040431566536426544,-0.14562855660915375,0.0599227212369442,-0.028105832636356354,-0.1613404005765915,-0.020844001322984695,-0.16750188171863556,-0.06387428939342499,0.014017666690051556,0.04029503092169762,-0.05445479601621628,0.09932638704776764,0.09528181701898575,0.1516827493906021,-0.13706539571285248,-0.0345131978392601,0.05543525516986847,0.014769491739571095,-0.06306466460227966,0.006730610970407724,0.12536397576332092,0.011832141317427158,-0.06463897973299026,-0.07013701647520065,0.04642239585518837,0.030277810990810394,0.1021634116768837,0.018671156838536263,-0.08312959969043732,-0.04629180580377579,-0.11060824245214462,-0.06325461715459824,0.029692884534597397,-0.07097876071929932,-0.05731785297393799,-0.10034289956092834,-0.10167418420314789,-0.15912164747714996,0.10788512974977493,0.007958603091537952,-0.02484889142215252,-0.06951671838760376,-0.03373563662171364,-0.010669538751244545,-0.003106546588242054,0.055758845061063766,0.04874875396490097,-0.065179243683815,0.02219926193356514,-0.16182395815849304,0.03454747796058655,-0.05388066917657852,-0.06216258183121681,0.060668304562568665,0.001964626368135214,-0.18758027255535126,0.14610686898231506,-0.03261374309659004,0.0015164179494604468,-0.07976603507995605,-0.030985381454229355,-0.07097207754850388,0.10221044719219208,0.03713860735297203,0.06878235936164856,0.08372007310390472,-0.11884736269712448,-0.0025185002014040947,0.1222430095076561,-0.022718116641044617,0.11691831052303314,0.05792684853076935,-0.048813801258802414,-0.07067897170782089,0.08946219831705093,0.06899160146713257,0.028298698365688324,0.14368443191051483,0.011424071155488491,0.054409950971603394,-0.10876411944627762,-0.016706082969903946,-0.08724769949913025,0.045682620257139206,-0.015005996450781822,0.041559215635061264,0.07513267546892166,-0.06665247678756714,-0.07052169740200043,0.00647108256816864,-0.05586206540465355,0.0362076610326767,-0.044577326625585556,-0.020781412720680237,0.018905024975538254,-0.1001310870051384,-0.14376994967460632,-0.1109248474240303,0.10257716476917267,0.002510771155357361,-0.08577322214841843,-0.07371711730957031,-0.00017370627028867602,0.04960741102695465,-0.01607060618698597,-0.029615547508001328,0.02296202816069126,-0.06518063694238663,-0.04552232474088669,0.014804278500378132,-0.07775898277759552,0.02121787704527378,0.03750895708799362,-0.10921606421470642,-0.07146652042865753,-0.05612726882100105,0.025457801297307014,0.008169909939169884,-0.11305776238441467,-0.08557280153036118,0.16248957812786102,-0.034659240394830704,-0.005969205871224403,0.031932853162288666,-0.05692422017455101,0.09494754672050476,0.1043168380856514,-0.05417338013648987,0.058903273195028305,-0.08505978435277939,0.0269317589700222,0.08397429436445236,-0.11534889042377472,0.004501072224229574,-0.03264479711651802,0.03755819424986839,-0.014981626532971859,0.05798590928316116,-0.1430509239435196,0.06619326025247574,-0.06729011982679367,-0.042430855333805084,-0.007977115921676159,0.023952223360538483,0.06373476982116699,-0.1535167247056961,-0.03170684725046158,-0.04370197653770447,0.1495000720024109,0.11875598132610321,-0.034524157643318176,0.07323866337537766,0.009535697288811207,-0.020028235390782356,0.1641121357679367,-0.030664268881082535,0.019812822341918945,-0.05094718560576439,-0.019731946289539337,-0.020563093945384026,-0.09973980486392975,-0.08542385697364807,-0.07448557019233704,-0.034082598984241486,-0.03423318639397621,0.06494765728712082,0.13256768882274628,-0.0032864422537386417,0.06511906534433365,0.02790341153740883,0.003227121662348509,0.1564405858516693,0.03496334329247475,0.14658500254154205,-0.1189386248588562,0.039400335401296616,0.16293823719024658,-0.08141504973173141,-0.06640437990427017,-0.013196343556046486,0.010962741449475288,-0.0404556468129158,-0.14784950017929077,-0.15503185987472534,0.1778484433889389,0.02467631921172142,-0.18024156987667084,0.04805488884449005,-0.1285768300294876,-0.02244480699300766,-0.00249077333137393,-0.022317219525575638,-0.09976425766944885,-0.09019037336111069,-0.0635470300912857,-0.08868864923715591,0.030825279653072357,0.021705737337470055,0.07341250032186508,0.016282953321933746,0.06658878177404404,-0.07368913292884827,0.006718112621456385,-0.037750568240880966,0.023701008409261703,0.09922167658805847,-0.12980902194976807,-0.007773098070174456,0.03415460139513016,0.0070054116658866405,0.06079192832112312,-0.09096262603998184,-0.07813186943531036,0.018463388085365295,-0.03141067549586296,0.0986446663737297,-0.14942629635334015,0.014952510595321655,0.0023917227517813444,0.0661555752158165,-0.018120121210813522,-0.0975278839468956,-0.04209115728735924,-0.04813025891780853,-0.16546539962291718,0.07588396966457367,-0.0012908268254250288,0.031291939318180084,0.11968595534563065,-0.06399800628423691,-0.045756179839372635,-0.03693253919482231,0.01247583981603384,0.02521553635597229,-0.0690963938832283,-0.01693512313067913,-0.035380035638809204,-0.1111961379647255,-0.059543970972299576,-0.05780472606420517,0.10588463395833969,-0.003393453313037753,-0.011024578474462032,0.06873553991317749,-0.1109810322523117,-0.062184277921915054,-0.04335445538163185,-0.02188979648053646,-0.07144710421562195,0.1254398673772812,-0.1280727982521057,0.06875164806842804,-0.11179067194461823,-0.13568612933158875,0.008827791549265385,0.03299470990896225,0.12670254707336426,-0.1407131850719452,0.030163919553160667,0.0842200219631195,-0.08597945421934128,-0.035541631281375885,0.06856122612953186,-0.037684883922338486,-0.09924335777759552,0.008665348403155804,0.08663603663444519,-0.00007950929284561425,0.014113071374595165,-0.04012790322303772,-0.15029777586460114,0.05242972448468208,-0.15584619343280792,-0.18297478556632996,-0.17369133234024048,0.005527057219296694,-0.032809577882289886,0.053950097411870956,-0.0902271494269371,0.06196194142103195,0.14781206846237183,0.03540603443980217,0.005461507476866245,-0.03158476576209068,0.03273499011993408,0.1111849993467331,-0.12706422805786133,-0.12544375658035278,-0.10728394985198975,-0.057741232216358185,-0.08797193318605423,0.14701299369335175,0.014122438617050648,0.008328615687787533,-0.165786013007164,-0.06179911270737648,-0.07799381017684937,-0.04591955989599228,0.0068331207148730755,-0.015887446701526642,-0.12072594463825226,0.10198679566383362,-0.0007013832801021636,0.013729403726756573,0.0948495864868164,-0.03892353177070618,-0.07535939663648605,0.0009632824803702533,-0.065980926156044,0.16284309327602386,0.034922484308481216,-0.04381866008043289,-0.11632385104894638,-0.02236388996243477,-0.0861227959394455,0.011072772555053234,-0.028262829408049583,0.09092874825000763,-0.045482486486434937,-0.012712495401501656,-0.02343405969440937,-0.010967695154249668,-0.09632626920938492,-0.011876718141138554,0.003443146822974086,-0.03323479741811752,-0.022004147991538048,-0.01631523296236992,-0.08574073016643524,-0.03425465524196625,-0.14281325042247772,-0.07352197170257568,0.08560358732938766,-0.0004947984125465155,0.10591614991426468,-0.15000340342521667,0.09954699128866196,-0.043101485818624496,0.07903546839952469,0.026988551020622253,-0.16851171851158142,-0.02306150272488594,0.04844965040683746,-0.009406563825905323,-0.07983354479074478,-0.08225369453430176,0.09281663596630096,-0.01580536551773548,-0.02421063371002674,-0.02641463838517666,0.037851732224226,-0.08304379135370255,0.06746966391801834,-0.02188938297331333,-0.029823975637555122,0.03673021122813225,-0.04821531102061272,0.10361498594284058,0.059306494891643524,-0.024530604481697083,-0.03672536090016365,-0.08646298199892044,-0.12001591175794601,-0.06570902466773987,-0.08888742327690125,0.11452770978212357,0.05803150311112404,-0.0726328119635582,0.02409883216023445,0.047706518322229385,-0.03191542997956276,-0.09860262274742126,-0.13776671886444092,0.010851924307644367,-0.025099977850914,-0.02236524596810341,0.047587037086486816,0.08668991923332214,-0.04634600505232811,0.003962599206715822,-0.052711255848407745,-0.03475193679332733,-0.08724276721477509,-0.020921610295772552,0.13722510635852814,0.10459776222705841,-0.06953812390565872,-0.07423576712608337,-0.002088339999318123,0.019921891391277313,-0.0008323783986270428,-0.032188087701797485,0.05680619925260544,0.07405654340982437,-0.05910026282072067,0.10564711689949036,0.004497080575674772,0.04474541172385216,0.05957338958978653,-0.015344933606684208,-0.012388416565954685,-0.11300788074731827,-0.11940019577741623,0.09173209965229034,-0.05180012062191963,-0.06110628321766853,-0.0453278087079525,-0.013370741158723831,0.07114049792289734,-0.027347169816493988,-0.08987291902303696,-0.010135817341506481,-0.13377195596694946,-0.065651074051857,-0.08041171729564667,-0.06889425218105316,-0.036091212183237076,0.12284944951534271,-0.15309295058250427,0.047558750957250595,-0.05435820668935776,-0.06790996342897415,-0.022134924307465553,-0.1370987594127655,-0.03270558640360832,0.027498386800289154,0.07608687877655029,-0.05100012943148613,0.03439295291900635,-0.02205631509423256,0.085310198366642,-0.0144785912707448,-0.10089656710624695,-0.10690739005804062,-0.0036680614575743675,-0.10964605212211609,-0.08075430244207382,0.028037210926413536,0.05276760831475258,0.09756828844547272,0.08775308728218079,-0.10066618025302887,-0.004138922784477472,-0.06996776163578033,-0.06667668372392654,-0.032648973166942596,0.021253008395433426,0.0871763601899147,0.053992100059986115,0.0972779169678688,-0.0011391106527298689,-0.048864539712667465,-0.05814433842897415,-0.11544331163167953,0.011036094278097153,0.06447149068117142,0.026720304042100906,-0.04594981670379639,-0.03899392858147621,-0.13589748740196228,-0.023704517632722855,-0.04461326077580452,-0.13087448477745056,0.09138081222772598,-0.007031172513961792,-0.03384948521852493,0.10875286906957626,0.02730259671807289,0.16496394574642181,0.05504333972930908,-0.15132734179496765,0.051846109330654144,-0.13783909380435944,-0.041296329349279404,0.019014738500118256,-0.15051372349262238,-0.06010865420103073,0.1109984815120697,-0.1766098439693451,0.13257569074630737,-0.04636356979608536,-0.07414831221103668,0.042767804116010666,0.008781206794083118,-0.04197400063276291,0.024030933156609535,-0.09100127965211868,0.007558985147625208,0.05989258363842964,-0.03645836189389229,0.04163194075226784,-0.08512862026691437,-0.015118108130991459,0.04096531495451927,-0.11374450474977493,-0.02787550538778305,-0.13264475762844086,-0.05227837711572647,-0.08246113359928131,0.044002559036016464,-0.030430445447564125,0.007085483055561781,-0.09958750009536743,-0.0511823445558548,0.06283910572528839,-0.18513670563697815,0.030400902032852173,-0.04677464812994003,0.11578936129808426,-0.04406866803765297,-0.10061981528997421,0.11317101120948792,-0.0699155181646347,-0.20993821322917938,0.09664350003004074,-0.01576022058725357,0.2149943709373474,-0.16080132126808167,-0.03266650065779686,-0.014124518260359764,0.12631063163280487,-0.043622955679893494,-0.06526471674442291,-0.009988714009523392,-0.036266520619392395,-0.030102597549557686,-0.014004594646394253,-0.0277881883084774,-0.11765902489423752,-0.016551334410905838,-0.07353910058736801,0.007185735274106264,0.05613192915916443,0.010435220785439014,-0.05389339476823807,-0.05120958760380745,-0.06744463741779327,0.0016834449488669634,0.04853520169854164,-0.0005738150794059038,-0.04238482937216759,-0.041761498898267746,-0.09331265836954117,0.0015970254316926003,-0.03083832934498787,0.10922528058290482,0.13353551924228668,-0.1802685260772705,-0.11822003126144409,-0.08535155653953552,0.0445118173956871,-0.05605676770210266,-0.04395933449268341,-0.010942621156573296,0.04392490163445473,-0.04241100698709488,0.005585798528045416,0.0499400869011879,0.04342097416520119,-0.047410935163497925,-0.025368181988596916,-0.08674696087837219,-0.01293802261352539,-0.003738400060683489,0.02496739849448204,-0.045818157494068146,0.04777875542640686,-0.07059864699840546,0.14840462803840637,-0.0032370751723647118,-0.038187649101018906,-0.10529051721096039,0.027450140565633774,0.01571442373096943,-0.04363801330327988,0.10972858965396881,0.04843232408165932,0.1255437135696411,0.02511214278638363,-0.00004837511733057909,0.012521367520093918,-0.09639012068510056,-0.10745012015104294,0.008994389325380325,-0.007568217348307371,0.004774825647473335,-0.13870175182819366,-0.1753510683774948,-0.06759265065193176,0.01903127133846283,0.016943367198109627,0.10163208097219467,0.07456708699464798,-0.014632081612944603,0.09148094803094864,-0.051983531564474106,-0.14004290103912354,0.06479387730360031,0.024954458698630333,0.10165329277515411,-0.12466912716627121,-0.11297011375427246,0.04351469874382019,-0.059983182698488235,-0.17817522585391998,0.05859029293060303,0.011930485256016254,0.0583585686981678,0.08118563145399094,-0.09266071766614914,-0.03835923969745636,-0.007699192967265844,-0.07729087024927139,-0.10264728963375092,0.027638044208288193,0.07545439153909683,0.08154400438070297,-0.08013734966516495,-0.04254256933927536,0.06730668991804123,-0.023201383650302887,-0.08246868848800659,-0.0006028937641531229,-0.043031442910432816,0.0185910202562809,0.02645960822701454,0.09413200616836548,-0.006364539731293917,-0.01737596094608307,0.10435812175273895,0.046543873846530914,0.04087534546852112,0.06384247541427612,0.0236725602298975,-0.09834010899066925,0.11893416941165924,-0.043332912027835846,0.00043751514749601483,0.14386305212974548,-0.007267924956977367,-0.04128459468483925,-0.04045518487691879,-0.052782297134399414,0.02866726741194725,-0.07742408663034439,-0.062407176941633224,-0.05183061957359314,-0.15781046450138092,-0.17265191674232483,-0.018487555906176567,-0.07945948839187622,-0.08236409723758698,0.14136603474617004,0.09100395441055298,-0.1373172253370285,-0.07296183705329895,-0.11120626330375671,-0.0509067066013813,-0.020678162574768066,0.07916772365570068,-0.025191664695739746,0.06381741166114807,-0.03703722357749939,-0.05744747072458267,-0.05267531797289848,0.02644115313887596,-0.09048767387866974,-0.17392563819885254,-0.11870039254426956,-0.043249811977148056,-0.021695181727409363,0.04751918837428093,0.03235182911157608,-0.12137937545776367,-0.1284497082233429,-0.08387833088636398,0.04723363742232323,-0.03711339086294174,-0.03882283344864845,0.08725956082344055,-0.07830214500427246,-0.057314369827508926,-0.07350330054759979,0.029935017228126526,0.10774414986371994,-0.051756471395492554,-0.11194492876529694,-0.010785955935716629,0.011888716369867325,0.11829204857349396,-0.048135071992874146,0.09904754161834717,-0.11810265481472015,-0.010956097394227982,0.0029691755771636963,-0.021083245053887367,-0.11530028283596039,-0.004445594269782305,-0.022286465391516685,0.07690177112817764,0.08753529191017151,-0.008761297911405563,-0.10083157569169998,0.1302362084388733,-0.09308487176895142,-0.10269343107938766,-0.009968056343495846,-0.06631164997816086,-0.09494222700595856,-0.03598139062523842,-0.09836101531982422,0.09909781068563461,-0.03001980669796467,0.13128559291362762,-0.1671770066022873,0.14668236672878265,0.14420625567436218,0.04322633147239685,-0.013370983302593231,0.03408771753311157,-0.0208730511367321,-0.17658011615276337,0.02484244294464588,-0.0855676680803299,0.06079941242933273,0.0025054598227143288,-0.0027336550410836935,0.06876430660486221,0.03449622914195061,0.006661828141659498,0.10102152079343796,-0.09040787816047668,0.04452883452177048,-0.0350642167031765,0.10528498142957687,0.013441487215459347,-0.14137455821037292,0.09655515104532242,0.03963208198547363,-0.11771604418754578,0.10718527436256409,0.006769384723156691,0.093533456325531,-0.14328831434249878,-0.11666858196258545,-0.1509173959493637,-0.1363464742898941,-0.05608014762401581,-0.07759366184473038,0.055887944996356964,-0.07147897779941559,-0.0812593325972557,0.16289477050304413,0.06468244642019272,-0.005930108949542046,-0.004200833849608898,-0.0645781084895134,0.01219951082020998,0.030420340597629547,0.16885077953338623,0.15810434520244598,-0.06932301074266434,-0.06031356379389763,0.06951594352722168,-0.006018288433551788,0.04884222149848938,0.12551939487457275,0.07042349129915237,-0.004187160637229681,-0.02580929920077324,-0.05101833865046501,0.0643959566950798,0.051366809755563736,0.033906787633895874,-0.014941802248358727,-0.1725725680589676,-0.019990164786577225,0.02865832857787609,0.07746769487857819,-0.08533378690481186,0.1095108836889267,0.012889837846159935,0.09588892757892609,0.06175174564123154,0.017636293545365334,-0.01846608705818653,0.10397431999444962,0.036430470645427704,0.03483100235462189,-0.11219374090433121,-0.0759575217962265,0.017835721373558044,0.027763858437538147,0.007342090364545584,-0.07423026859760284,0.05775388702750206,0.11674059927463531,-0.10158738493919373,0.09579166024923325,-0.06467220187187195,0.1662989854812622,0.028844565153121948,-0.045011576265096664,-0.07172531634569168,-0.013932421803474426,0.15292750298976898,-0.12279373407363892,-0.013150311075150967,-0.08580990880727768,-0.08739491552114487,-0.011085527949035168,-0.10652602463960648,0.07749081403017044,-0.0856817439198494,0.05465628206729889,0.057593315839767456,-0.05576855689287186,0.046748243272304535,-0.005360493436455727,-0.05715937167406082,-0.023028377443552017,0.042952146381139755,-0.10760115087032318,0.010898512788116932,-0.01507178507745266,0.042309410870075226,-0.17017309367656708,0.011681563220918179,-0.09580175578594208,-0.09166532754898071,0.05391928181052208,-0.0806678980588913,-0.046424154192209244,-0.036322034895420074,-0.07650988548994064,0.09615536779165268,0.11758621037006378,0.05678297206759453,-0.09599567204713821,-0.12371981889009476,-0.05229684337973595,-0.04321162775158882,-0.010810497216880322,-0.031458981335163116,-0.061172716319561005,0.022955002263188362,-0.16375577449798584,0.15940327942371368,-0.04139953479170799,-0.008466360159218311,-0.054788533598184586,-0.02777150645852089,0.020084764808416367,-0.08177037537097931,-0.09223491698503494,0.14395254850387573,0.028364824131131172,-0.09187790006399155,0.008014065213501453,-0.1459392011165619,-0.07888329029083252,-0.0010647609597072005,-0.16416727006435394,0.05507664009928703,-0.06594868004322052,0.09881517291069031,-0.018528729677200317,-0.06462652236223221,0.0780373364686966,-0.04994315281510353,-0.058111757040023804,-0.08699207752943039,0.00617453595623374,-0.07413612306118011,0.04326830804347992,-0.013998943381011486,-0.02914014272391796,-0.06149759888648987,0.07321339100599289,-0.026390044018626213,0.0740777999162674,0.00008767864346737042,-0.10492101311683655,0.036702074110507965,0.012163161300122738,0.001768251066096127,0.0729474276304245,0.11516324430704117,0.004087122622877359,0.0006903040921315551,-0.08020762354135513,0.13968001306056976,0.07260189205408096,-0.06048345938324928,-0.01665366441011429,0.059973619878292084,-0.002079307334497571,-0.06949494034051895,0.04900078475475311,-0.19125203788280487,0.14298482239246368,0.06450682133436203,-0.00014591285435017198,-0.15474995970726013,0.030226554721593857,-0.1579435020685196,-0.07775016874074936,0.04201643913984299,0.01958543248474598,-0.000026877925847657025,-0.008952891454100609,-0.054251763969659805,-0.06471753120422363,-0.027867726981639862,-0.008490169420838356,-0.006116586271673441,-0.19271408021450043,0.050241343677043915,-0.039603397250175476,0.009647791273891926,0.009461665526032448,-0.03573109582066536,-0.06471437960863113,0.1338631510734558,-0.014479606412351131,0.05529654771089554,-0.0014067760203033686,0.10002343356609344,0.018170185387134552,0.02106735296547413,-0.1270410120487213,0.04855561628937721,0.0826537236571312,0.09421335905790329,-0.1343521922826767,-0.08000702410936356,0.004357393831014633,0.0016741924919188023,-0.004500889219343662,-0.03157157078385353,-0.007999814115464687,0.04016294702887535,0.052053648978471756,-0.09867463260889053,0.04221139848232269,0.09986080974340439,0.013707319274544716,0.001101673929952085,0.045694008469581604,0.04201946035027504,0.06679722666740417,-0.06101015955209732,-0.13614585995674133,0.035084839910268784,0.005693892482668161,-0.029493803158402443,-0.11021080613136292,0.005741455592215061,0.03445040434598923,0.10123062878847122,0.11992306262254715,-0.10150044411420822,-0.0859895795583725,-0.021083662286400795,-0.12254869937896729,0.07277164608240128,0.03708538040518761,-0.10584525763988495,0.10596973448991776,0.06918974220752716,-0.06163964793086052,-0.07996714115142822,-0.01701083965599537,0.020259229466319084,-0.07850572466850281,0.01520473975688219,-0.020474644377827644,0.003681245492771268,-0.021019207313656807,0.050054922699928284,-0.07207252830266953,-0.003086872398853302,0.10058275610208511,0.0185035839676857,-0.1278572529554367,-0.12126153707504272,-0.06076774373650551,0.07223493605852127,0.005648272577673197,0.04918710142374039,0.0409209169447422,-0.03742963448166847,-0.14152264595031738,0.007288387510925531,0.007025876082479954,-0.02369999699294567,-0.05881279334425926,0.07952617108821869,-0.03323635831475258,-0.010979932732880116,0.01497421320527792,0.003153001656755805,0.06839843839406967,0.10075521469116211,0.09343868494033813,0.07081425935029984,-0.07472442090511322,-0.04786364734172821,0.03705727308988571,-0.07490255683660507,-0.0032777334563434124,0.0350816436111927,-0.03644377365708351,-0.11435022205114365,-0.10300620645284653,-0.0177263543009758,-0.07331175357103348,0.03662433847784996,-0.18579180538654327,0.05898253247141838,0.03956606611609459,-0.04434361681342125,0.05594908818602562,0.08598879724740982,-0.038734253495931625,-0.11606938391923904,0.14536094665527344,-0.02935258112847805,-0.15233787894248962,-0.09817573428153992,-0.0314205065369606,0.012868630699813366,0.07212575525045395,-0.0007627252489328384,0.0599638968706131,0.0499969907104969,0.12052804976701736,-0.042606621980667114,0.04722793772816658,-0.021490896120667458,-0.01884477771818638,-0.0364837571978569,0.005718790926039219,0.05355937406420708,-0.10869858413934708,-0.11132294684648514,-0.0044488622806966305,0.045867934823036194,-0.11290416866540909,0.067226342856884,0.16146279871463776,0.06437474489212036,-0.01262736227363348,-0.008232824504375458,0.016789425164461136,0.009482253342866898,-0.031296346336603165,0.01728678308427334,-0.03414993733167648,-0.10540062934160233,-0.11271505057811737,-0.12383221089839935,0.12799537181854248,0.0010617084335535765,-0.017956919968128204,0.022252414375543594,0.011544809676706791,-0.041783709079027176,-0.12433194369077682,0.1068916991353035,-0.03867209330201149,0.0314975343644619,-0.12873144447803497,-0.002244227798655629,0.018721122294664383,-0.109219029545784,-0.06953712552785873,-0.12778891623020172,-0.14318883419036865,0.031603600829839706,-0.18086503446102142,0.03910502418875694,-0.19233562052249908,-0.03400115296244621,-0.029480595141649246,0.006767973769456148,0.011263396590948105,-0.14745156466960907,0.02785336598753929,-0.11189858615398407,0.10700884461402893,-0.16138365864753723,0.01096505019813776,0.005209269002079964,0.022106483578681946,-0.020397644490003586,-0.06758283078670502,-0.09073229134082794,-0.10750127583742142,-0.04982677102088928,-0.17941667139530182,-0.16317343711853027,0.05082486942410469,-0.0557640939950943,0.07814247161149979,0.1436096727848053,-0.1794537454843521,0.06489477306604385,0.01086269598454237,0.028798909857869148,0.13075120747089386,-0.14638249576091766,0.0007226935704238713,0.007965771481394768,0.0717463493347168,-0.006020784378051758,-0.02512640506029129,0.040511056780815125,0.03890451416373253,0.0018764047417789698,-0.18004338443279266,-0.023220663890242577,0.0592951662838459,-0.03323555737733841,-0.003961823880672455,-0.006400411482900381,-0.040979497134685516,-0.09687148034572601,0.067270927131176,-0.013020855374634266,-0.07605759799480438,-0.09910282492637634,0.08546171337366104,0.02925233356654644,0.01192996371537447,0.09235269576311111,0.03298879787325859,-0.05934274569153786,-0.007153422571718693,-0.011866327375173569,0.1062907949090004,0.001088115037418902,-0.05618363246321678,0.04830234870314598,0.09408102184534073,-0.1460527628660202,-0.06494490057229996,-0.04409635439515114,0.08494605869054794,0.041549474000930786,-0.03830748796463013,-0.10900206118822098,-0.13858690857887268,-0.0416722372174263,0.06741026043891907,0.0324769988656044,0.09374797344207764,0.012514415197074413,-0.09525477886199951,0.09982208162546158,0.002255390863865614,-0.023173868656158447,0.044763803482055664,0.022252820432186127,0.028040055185556412,-0.04046172276139259,-0.08166586607694626,-0.08642715215682983,-0.09857235848903656,-0.06607422232627869,-0.021135279908776283,0.13498297333717346,-0.02828137017786503,0.02366258203983307,0.12463466823101044,-0.025002913549542427,-0.027670402079820633,0.1474379450082779,-0.12264645844697952,0.13668271899223328,-0.013892139308154583,0.026134883984923363,-0.12885190546512604,-0.07190564274787903,-0.01735473796725273,0.005968950688838959,-0.010233274661004543,-0.09671087563037872,-0.12361375987529755,0.040757760405540466,-0.029881451278924942,0.0009880923898890615,-0.08270250260829926,-0.04209590703248978,0.030705269426107407,0.02988576516509056,0.042349543422460556,0.02517171949148178,-0.05475129187107086,0.03274406120181084,0.11171412467956543,0.021882617846131325,-0.13115866482257843,-0.010748476721346378,0.03546758368611336,-0.09835883975028992,-0.006947744637727737,0.02178925648331642,0.09183717519044876,0.028740812093019485,0.032517675310373306,-0.07863273471593857,-0.0031484575010836124,0.04803331568837166,0.02016925998032093,-0.0038044704124331474,0.09309322386980057,-0.01365923136472702,-0.1277315765619278,-0.023760434240102768,0.1111421287059784,-0.0018296052003279328,0.01906774193048477,-0.04029238224029541,0.04070156440138817,0.036801423877477646,-0.048221077769994736,0.029733533039689064,-0.02034722827374935,-0.01819552667438984,0.0018971723038703203,0.04302709922194481,-0.055569838732481,-0.014111747965216637,0.15513114631175995,0.07570581883192062,-0.10670377314090729,-0.06807900965213776,-0.11297972500324249,-0.0027369395829737186,-0.015739580616354942,0.08206270635128021,-0.055783919990062714,-0.04511516913771629,0.057236503809690475,-0.04083653911948204,-0.13292554020881653,-0.06345631927251816,-0.08239375054836273,0.06382492929697037,0.14305230975151062,0.007149366661906242,-0.1760684996843338,-0.13297522068023682,0.028760133311152458,-0.18408875167369843,-0.037672605365514755,-0.04321545735001564,0.05461100488901138,0.0489339604973793,-0.09094144403934479,0.13486827909946442,-0.12272324413061142,-0.021227283403277397,0.042398665100336075,0.017009640112519264,0.1465514600276947,-0.07983836531639099,-0.12365351617336273,0.09456665813922882,0.08653827756643295,-0.04249865934252739,0.09669400751590729,-0.026410073041915894,0.021292762830853462,-0.13384416699409485,0.016797805204987526,0.05455811321735382,-0.007505712565034628,-0.005142154637724161,0.013168261386454105,0.004833939950913191,0.05023349076509476,0.0025699681136757135,-0.04817941039800644,0.052707601338624954,-0.02682531252503395,-0.040388960391283035,0.04765094071626663,-0.13228629529476166,-0.10638504475355148,-0.11433286964893341,-0.09223014116287231,-0.05314774811267853,0.05182681977748871,-0.027882210910320282,-0.020234009250998497,-0.044373176991939545,-0.0018869362538680434,0.018464956432580948,-0.02399851754307747,0.0490800179541111,-0.08225463330745697,0.11121539026498795,0.05695953592658043,-0.006887004245072603,-0.025400348007678986,-0.0028805106412619352,0.034142982214689255,0.1790548712015152,-0.04859527200460434,-0.02659256011247635,0.09375523775815964,0.08979757130146027,0.006035173777490854,-0.11575369536876678,0.034804195165634155,-0.15852676331996918,-0.015162838622927666,0.04973302781581879,-0.07077950239181519,-0.12194394320249557,-0.041039325296878815,0.1434815227985382,0.04722987487912178,0.05360005050897598,0.00015376861847471446,0.010213560424745083,-0.1539379060268402,-0.06200489029288292,0.13490541279315948,0.00970759429037571,0.07290246337652206,-0.057495538145303726,-0.07780607789754868,0.01698720082640648,-0.1016329973936081,-0.07714039087295532,0.013162651099264622,0.0906357690691948,-0.022395718842744827,0.061162639409303665,-0.11264001578092575,0.00048513972433283925,-0.06301707029342651,-0.16175176203250885,-0.018010901287198067,0.08958457410335541,-0.06091244891285896,-0.03624725341796875,0.1609622687101364,-0.0179000124335289,-0.04037583991885185,0.00605324562638998,-0.002281360561028123,-0.07250406593084335,-0.10481579601764679,-0.0835428312420845,0.13062092661857605,-0.13000866770744324,0.038258615881204605,-0.12406696379184723,-0.034499749541282654,0.01106678880751133,-0.04608789458870888,-0.01941373385488987,-0.06258626282215118,-0.14162002503871918,-0.0013051994610577822,0.09719745069742203,0.05806857347488403,0.05065176635980606,-0.014283357188105583,-0.021100753918290138,-0.15290270745754242,0.041532963514328,0.13183070719242096,0.02308799885213375,-0.032563481479883194,-0.06851311773061752,0.09217032045125961,-0.017301196232438087,-0.03242835775017738,0.017951782792806625,0.013578759506344795,0.03700448200106621,-0.1690169721841812,-0.07549628615379333,-0.0958189144730568,-0.03405986353754997,-0.010838206857442856,0.021478714421391487,-0.010777503252029419,0.08050522208213806,0.13409818708896637,0.11164780706167221,-0.04233025386929512,0.07009338587522507,-0.03011268377304077,-0.10915964096784592,-0.04471815004944801,-0.08341008424758911,0.01089981384575367,0.05009166896343231,0.05922839418053627,-0.005067154299467802,-0.13851024210453033,0.020693030208349228,0.03563369810581207,0.12002385407686234,-0.16880154609680176,-0.005976647604256868,-0.12259592115879059,-0.020390022546052933,0.04421015456318855,0.11336621642112732,-0.10327453166246414,0.02609701082110405,0.09131553024053574,-0.06554367393255234,-0.08544076234102249,0.09976190328598022,0.02440684288740158,-0.08701878786087036,0.0061393012292683125,-0.0427306704223156,-0.09381888061761856,-0.019899895414710045,0.04696646332740784,-0.0012221637880429626,-0.04375825822353363,-0.014173600822687149,0.058414071798324585,-0.1616867333650589,-0.07457955926656723,-0.04766891524195671,-0.11743436008691788,0.0458945706486702,-0.13206696510314941,-0.038491856306791306,0.03687865287065506,-0.05504500865936279,0.01994778774678707,0.15649303793907166,-0.033622074872255325,-0.004002324305474758,0.060071032494306564,-0.15234416723251343,0.007983056828379631,-0.028112025931477547,0.048049166798591614,-0.08203262835741043,-0.08653803169727325,-0.06219203770160675,0.033818118274211884,0.005700960755348206,-0.14104942977428436,0.10959642380475998,-0.09101539850234985,0.014369312673807144,0.15881742537021637,-0.004225892014801502,-0.05356591194868088,0.05356021597981453,-0.01522055920213461,-0.04560815170407295,0.01667088270187378,0.1032315194606781,-0.17137020826339722,0.04766714945435524,0.12394826859235764,0.09237871319055557,-0.04109149053692818,0.0770135447382927,0.16179977357387543,0.06353825330734253,-0.12495151162147522,0.011074451729655266,-0.12450306117534637,-0.18475261330604553,0.07974087446928024,-0.12402401119470596,0.00875814538449049,-0.18079903721809387,-0.01502027828246355,-0.04751340299844742,-0.050072211772203445,-0.026370279490947723,-0.09120487421751022,-0.009700721129775047,-0.03568664938211441,-0.15339308977127075,-0.1535342037677765,0.044512614607810974,-0.017071016132831573,0.1175374761223793,0.040437523275613785,0.06999924778938293,0.025097550824284554,-0.17248500883579254,-0.048603128641843796,0.03992653638124466,-0.05179551988840103,-0.06520545482635498,0.03897969797253609,0.05524757504463196,-0.08363793790340424,0.12077315151691437,0.09596428275108337,0.09519458562135696,0.10816149413585663,-0.01992679573595524,0.1390472948551178,0.027871252968907356,0.12761883437633514,-0.15611906349658966,-0.10416645556688309,0.13744914531707764,-0.09794903546571732,-0.05182061716914177,-0.08962606638669968,-0.13567470014095306,0.04930853843688965,-0.14841483533382416,-0.032422300428152084,0.06377734988927841,-0.002113630762323737,-0.06677156686782837,-0.12348630279302597,-0.012276156805455685,-0.02226361632347107,0.14664053916931152,0.0358591228723526,-0.04141811281442642,0.031860750168561935,-0.06622324883937836,0.11183841526508331,-0.16411522030830383,-0.06379570811986923,-0.05311764404177666,-0.17651179432868958,-0.03161533549427986,-0.00028494655271060765,-0.08776158094406128,0.007069319020956755,0.12834596633911133,-0.08741369098424911,0.03045520931482315,0.06117771565914154,-0.06910406798124313,-0.034670792520046234,-0.033330198377370834,0.0968078225851059,-0.0992867723107338,-0.00921250507235527,0.12960875034332275,-0.14128375053405762,0.013656562194228172,-0.12300185114145279,0.11684948951005936,0.0074248951859772205,0.029058312997221947,0.011716731823980808,-0.03779440000653267,-0.03715354949235916,-0.009450011886656284,-0.06006775423884392,-0.13793028891086578,0.049969762563705444,0.029488949105143547,0.08240878582000732,-0.13457344472408295,0.11736220121383667,-0.11958228796720505,0.11297030001878738,0.10078498721122742,0.03765803202986717,0.11533872038125992,0.047381848096847534,0.07144513726234436,-0.06869923323392868,-0.06961814314126968,-0.1540992259979248,-0.1730947643518448,-0.08049272000789642,0.13227057456970215,-0.06919150054454803,0.04588077589869499,-0.12492949515581131,-0.036867521703243256,0.08816156536340714,-0.055951591581106186,0.08718357980251312,-0.0857548788189888,-0.07209809124469757,-0.1036788746714592,-0.08844927698373795,0.04594076797366142,0.03196786344051361,-0.023722689598798752,-0.10685739666223526,-0.020678820088505745,-0.019326534122228622,-0.02494928613305092,0.11813570559024811,0.05444169044494629,0.04472757503390312,-0.13729459047317505,-0.046132806688547134,-0.10254216939210892,-0.10928232967853546,0.08456018567085266,0.1132059097290039,-0.102238729596138,0.058848243206739426,0.11037840694189072,0.001792688388377428,0.12005496025085449,-0.06068609282374382,-0.04312391206622124,-0.1535273790359497,0.04215504974126816,0.005643273238092661,-0.10947513580322266,0.077130526304245,-0.1716315597295761,-0.04654320701956749,-0.0908830463886261,-0.044215910136699677,-0.15394610166549683,0.040871456265449524,-0.11113204807043076,-0.05913709104061127,0.0541146919131279,0.007401882670819759,-0.07933536171913147,-0.04004835709929466,0.04214893653988838,0.023310000076889992,0.0641346201300621,-0.008429799228906631,-0.06752068549394608,-0.035322096198797226,-0.10679124295711517,0.04939898103475571,-0.09832464903593063,0.05642389506101608,-0.04584725946187973,-0.017144696786999702,-0.15957064926624298,0.03219057247042656,0.029092930257320404,0.013687328435480595,0.11526920646429062,-0.010333984158933163,-0.0602543018758297,0.08893599361181259,0.09743448346853256,-0.04794236645102501,0.11241540312767029,-0.10695821046829224,-0.14718365669250488,0.04819352924823761,-0.03376314789056778,0.07048122584819794,-0.039496857672929764,-0.01792284846305847,0.11885172873735428,-0.2206464558839798,0.01833558827638626,-0.044074926525354385,0.1511961966753006,0.09251285344362259,-0.0657549500465393,-0.008328086696565151,-0.025467174127697945,0.0009252002928406,0.0041804625652730465,-0.1054006814956665,-0.005090833641588688,-0.10398799180984497,-0.07652442157268524,-0.07769898325204849,-0.0826101005077362,0.1427573263645172,-0.06884928792715073,-0.029524223878979683,-0.0054639489389956,-0.0161907821893692,-0.08080479502677917,-0.03212626650929451,0.016185512766242027,0.12583622336387634,-0.09708692878484726,-0.011121246963739395,-0.014773880131542683,0.11814814060926437,0.09246861189603806,-0.06379440426826477,0.16275817155838013,-0.1563723087310791,-0.026301510632038116,-0.0172908753156662,0.15452051162719727,-0.11425432562828064,-0.09508758038282394,-0.11991022527217865,0.11725617945194244,-0.035736583173274994,-0.01832822896540165,0.049241386353969574,0.0520285964012146,-0.033054497092962265,-0.015996204689145088,-0.12447886168956757,-0.12594030797481537,-0.007962845265865326,0.057556234300136566,-0.02572118118405342,-0.011352880857884884,-0.141398623585701,-0.017978331074118614,0.06990837305784225,0.0572921484708786,-0.0172477588057518,0.056922025978565216,-0.06608758121728897,-0.15758678317070007,0.02100115641951561,-0.0023098806850612164,-0.01287874672561884,0.05504608154296875,-0.05290389806032181,-0.025928381830453873,0.08100965619087219,0.04139716178178787,-0.09075059741735458,-0.09485375136137009,-0.11297300457954407,-0.10401799529790878,0.14832285046577454,-0.024336399510502815,0.05347093567252159,-0.15180222690105438,-0.07545959949493408,-0.15642578899860382,-0.0013024210929870605,-0.08631017804145813,0.0789051502943039,0.07603131979703903,-0.11750992387533188,0.01115723792463541,-0.05885796621441841,-0.022805210202932358,0.08050255477428436,-0.04968423396348953,0.13297154009342194,-0.07310397922992706,0.07985718548297882,-0.006234399974346161,-0.13615958392620087,-0.019566765055060387,-0.07676335424184799,-0.04062682017683983,0.057920247316360474,0.04125293344259262,-0.01246749609708786,-0.07240334153175354,-0.0744427740573883,-0.05345192179083824,-0.07188955694437027,0.12973083555698395,-0.15284283459186554,-0.016107700765132904,0.020282085984945297,-0.020386699587106705,-0.06316793709993362,-0.06173867732286453,0.03750549629330635,0.09562847018241882,-0.0069079650565981865,-0.01169829536229372,0.0928577110171318,0.056660085916519165,0.03362894430756569,0.05000428110361099,-0.11208774149417877,0.07264615595340729,-0.11645875871181488,0.08755352348089218,-0.0954754650592804,-0.14226245880126953,0.027920233085751534,0.03498240187764168,-0.1800680309534073,0.08372339606285095,-0.23674266040325165,0.016108650714159012,-0.017259953543543816,0.09146015346050262,0.07840888947248459,0.0690450370311737,0.034941721707582474,-0.03333284333348274,-0.05185651034116745,0.03336140885949135,0.06928148120641708,-0.06493881344795227,-0.08646455407142639,0.12355490028858185,-0.012567342258989811,0.05406145006418228,-0.02394724451005459,-0.0668473020195961,-0.025605488568544388,0.029870323836803436,-0.06698499619960785,0.024195067584514618,0.13116449117660522,0.011686578392982483,0.07324034720659256,-0.017760485410690308,-0.005577198229730129,-0.05941411852836609,0.0802287757396698,-0.19347070157527924,0.11765590310096741,-0.01457279734313488,0.08379523456096649,-0.04511469230055809,-0.011826115660369396,-0.030629176646471024,0.04633475840091705,0.16881272196769714,0.03306727483868599,-0.05008940026164055,0.10648642480373383,-0.140956312417984,0.0045410883612930775,0.0362309031188488,0.11922287940979004,-0.07550424337387085,0.01775527559220791,-0.049164917320013046,-0.15422102808952332,0.08161847293376923,-0.1361527442932129,-0.06723551452159882,-0.04250728711485863,0.02299630083143711,0.053461529314517975,-0.03720220923423767,-0.16881072521209717,0.0022387669887393713,-0.00972480233758688,-0.0598609559237957,-0.06165449321269989,-0.07375915348529816,0.00042487282189540565,0.0865897461771965,-0.06409383565187454,0.008923902176320553,-0.10289997607469559,0.11534649133682251,-0.11997950822114944,0.01931082084774971,0.04610879346728325,0.031616173684597015,0.006484568119049072,0.1454499512910843,-0.08201804757118225,0.03455875441431999,0.05876457691192627,0.04101897031068802,-0.06345444172620773,0.09871308505535126,0.07445508986711502,-0.016040874645113945,-0.01315468642860651,0.0005927720339968801,-0.06430286169052124,0.03806972876191139,0.006442188750952482,-0.06180371716618538,-0.02973814681172371,0.02812594547867775,-0.0005450781900435686,0.08352527022361755,0.027523519471287727,-0.17217965424060822,-0.04910331964492798,0.1324961632490158,0.05066915228962898,0.03909136727452278,-0.03528576344251633,-0.06958964467048645,0.0362175814807415,-0.0028125732205808163,0.044166501611471176,-0.0729772299528122,-0.062225595116615295,0.02068387344479561,0.04735734313726425,-0.02096991427242756,0.13954584300518036,0.037347644567489624,-0.004122166894376278,0.010400142520666122,0.04345087334513664,-0.11199577152729034,-0.031125325709581375,-0.09169597923755646,-0.02351953648030758,-0.015996668487787247,-0.08058566600084305,0.09418083727359772,-0.003060396993532777,0.011254999786615372,-0.08557479828596115,-0.02702670358121395,0.0596289299428463,-0.012825695797801018,0.013488298282027245,-0.0005976581596769392,0.10077787190675735,-0.010691514238715172,-0.024489479139447212,-0.11413972824811935,-0.06421037763357162,-0.08946090936660767,-0.12206427752971649,0.0070794555358588696,-0.06883303076028824,0.010154026560485363,-0.04616839066147804,-0.1686187982559204,-0.07097605615854263,0.001940000569447875,0.11959381401538849,-0.03398551046848297,0.03005334734916687,-0.030165407806634903,0.05478096008300781,-0.184103861451149,-0.02386760152876377,-0.037168633192777634,-0.1646987646818161,-0.12953796982765198,0.048094987869262695,-0.0895598977804184,0.061536774039268494,0.10147987306118011,0.07972646504640579,0.16170500218868256,0.03870773687958717,0.024956652894616127,0.039247065782547,-0.07706842571496964,-0.008009573444724083,0.041203130036592484,-0.01973973587155342,0.030524466186761856,-0.005958329886198044,0.021254584193229675,0.07995811849832535,0.1423109918832779,-0.1065867692232132,0.09664024412631989,0.00034293450880795717,-0.05188866704702377,-0.053257156163454056,-0.004754209890961647,-0.11578217893838882,-0.09030605852603912,0.015215263701975346,0.071778304874897,-0.0639377012848854,0.12196830660104752,0.0437217578291893,0.005870535038411617,0.12137167900800705,-0.04140600934624672,0.09370575100183487,0.04052629694342613,-0.002261387649923563,-0.10083097964525223,0.0967751145362854,-0.09989245235919952,-0.08319216221570969,-0.03565108776092529,0.10020986944437027,0.06136748194694519,0.09048813581466675,-0.03197114169597626,0.020970748737454414,0.05057867243885994,-0.02033381722867489,-0.07740238308906555,0.01693691685795784,-0.1255144625902176,-0.0023931660689413548,0.034279964864254,-0.052919551730155945,-0.10951853543519974,-0.02906130440533161,0.08045786619186401,-0.05834304541349411,-0.05322810634970665,-0.020584072917699814,-0.08240950107574463,0.09433744847774506,-0.22594936192035675,-0.014764995314180851,0.0320831760764122,-0.026326194405555725,0.16428525745868683,-0.03626550734043121,0.00975668616592884,-0.08055245131254196,-0.07873476296663284,-0.11746838688850403,-0.1723507195711136,0.029229063540697098,-0.02146129496395588,-0.19737064838409424,-0.13579313457012177,0.09884048253297806,-0.010626176372170448,0.019483137875795364,0.025967344641685486,-0.21890929341316223,-0.03551097214221954,0.04153328016400337,-0.029881086200475693,0.02553543820977211,-0.0916229784488678,0.014085003174841404,-0.1441364288330078,0.013916756957769394,-0.02974781021475792,0.04069221019744873,0.0972292423248291,-0.04021374136209488,-0.00973578542470932,0.038259703665971756,0.07039501518011093,0.060821615159511566,-0.09246431291103363,-0.0365602932870388,0.004343242850154638,0.001991692464798689,0.008917148225009441,-0.009446827694773674,0.02123688906431198,0.013821627013385296,-0.06893676519393921,0.05865157023072243,0.026614798232913017,-0.0938422903418541,-0.0949568971991539,0.01085915882140398,-0.12029585242271423,-0.047441259026527405,-0.06984688341617584,-0.0656406357884407,0.07213412970304489,-0.027224600315093994,0.09638119488954544,0.012240758165717125,0.12071477621793747,-0.018557878211140633,-0.05617688596248627,0.05231621861457825,0.027981789782643318,-0.14201302826404572,-0.049691081047058105,-0.18639712035655975,0.03196074813604355,-0.019047528505325317,0.04505487158894539,-0.1484389305114746,-0.10057315975427628,0.03459182381629944,-0.15715105831623077,-0.023628398776054382,0.019709642976522446,-0.024835506454110146,0.06427204608917236,0.0912160649895668,0.09966248273849487,-0.03898156061768532,-0.0890905112028122,0.07026582956314087,0.11081979423761368,0.04213060066103935,-0.03209896385669708,-0.08571994304656982,0.04653806984424591,-0.15866902470588684,-0.05733627453446388,-0.06467266380786896,-0.07978988438844681,0.03210171312093735,0.009855871088802814,0.01535345520824194,-0.09587983042001724,-0.026068005710840225,0.10994623601436615,-0.028035081923007965,-0.048677895218133926,-0.16687537729740143,-0.011019786819815636,-0.05972640961408615,-0.052900247275829315,-0.10314272344112396,-0.15218277275562286,0.004996936302632093,-0.03260418027639389,-0.1407579630613327,0.02150827646255493,-0.12541942298412323,0.0023531855549663305,0.001178651349619031,0.055297426879405975,-0.1752091646194458,-0.14638204872608185,0.111162930727005,-0.03216381371021271,-0.05945016071200371,-0.06998025625944138,-0.10452558100223541,-0.06546735763549805,0.08559104800224304,-0.004304947797209024,0.02713138796389103,-0.08458473533391953,-0.016362925991415977,-0.08397391438484192,0.11391458660364151,0.10130713135004044,0.055460259318351746,0.0371723473072052,-0.09768160432577133,0.149492546916008,0.12457676231861115,0.07568337768316269,-0.06855539977550507,0.10362043976783752,0.03401124104857445,0.001734870602376759,0.08243466913700104,0.07324621826410294,0.020178038626909256,0.042519908398389816,-0.14019279181957245,0.04882947355508804,-0.046210356056690216,-0.16292279958724976,-0.0718466266989708,0.09855162352323532,0.03345303237438202,0.16153612732887268,-0.07714129984378815,-0.07010588049888611,0.04202290251851082,-0.14166182279586792,-0.16415710747241974,0.05444606766104698,-0.0957057848572731,-0.021658388897776604,0.059627361595630646,-0.17689092457294464,0.17410454154014587,0.07153987884521484,-0.08209584653377533,0.06879296153783798,0.1101907342672348,0.015275701880455017,0.08580929785966873,-0.07192282378673553,-0.0713198333978653,0.05714435502886772,0.0060129314661026,-0.03929927200078964,0.14629557728767395,-0.09597328305244446,-0.009333109483122826,-0.023067275062203407,-0.027952129021286964,-0.08258503675460815,0.09694135189056396,-0.15534444153308868,0.04389872029423714,-0.11425580829381943,-0.05053209513425827,0.023953737691044807,0.0178279597312212,0.07974985241889954,-0.024239515885710716,0.07268910855054855,-0.06867839395999908,0.08025957643985748,0.14775602519512177,0.003938758280128241,-0.097753144800663,-0.15421758592128754,0.058636367321014404,0.03287525475025177,0.06497348099946976,-0.09655849635601044,-0.06528938561677933,0.10399337112903595,0.07329609245061874,0.016509495675563812,0.14071577787399292,-0.07274096459150314,-0.12347471714019775,-0.11062170565128326,0.029595864936709404,-0.04858626425266266,0.029317189007997513,-0.06909012794494629,-0.11492137610912323,-0.09002146124839783,-0.10489021241664886,0.05119200795888901,0.00011594621901167557,0.007531122304499149,-0.07253119349479675,-0.02548183500766754,-0.08792789280414581,-0.15355317294597626,0.0600193627178669,-0.11412319540977478,0.09101172536611557,0.11703690141439438,0.014450198039412498,0.09102530777454376,-0.1212061196565628,0.16821113228797913,-0.1284262090921402,0.05167893320322037,-0.020915241912007332,0.0790952816605568,-0.05921831354498863,0.07809928059577942,0.0196651890873909,0.043745022267103195,-0.07255741208791733,0.005826039705425501,0.03849998116493225,0.046234458684921265,-0.048220034688711166,0.13515232503414154,-0.07596806436777115,0.03249860554933548,0.11651226133108139,-0.015469234436750412,-0.039414942264556885,0.08145572245121002,0.08949894458055496,0.1349528729915619,0.04239882156252861,0.016462178900837898,0.006070599425584078,-0.0321078822016716,0.03176383301615715,0.09252941608428955,-0.12425528466701508,-0.10347730666399002,-0.1391707956790924,0.038009580224752426,-0.05812304839491844,-0.07150935381650925,-0.05724441260099411,-0.06014595180749893,-0.11066003143787384,0.040928520262241364,-0.02066492848098278,-0.0021529681980609894,-0.02956756018102169,-0.046864431351423264,-0.08635697513818741,-0.0010342084569856524,0.009484611451625824,0.1006372794508934,-0.12396419793367386,0.0028882939368486404,0.06418924033641815,-0.060833901166915894,-0.1390332132577896,-0.045400336384773254,0.019731419160962105,-0.026329340413212776,-0.07559283077716827,-0.04328177496790886,-0.11500966548919678,-0.06169643625617027,0.03764035552740097,-0.012238775379955769,0.16353756189346313,0.03959186002612114,-0.01367174182087183,0.007320262957364321,-0.01432081963866949,-0.1366608887910843,-0.12740139663219452,-0.041494254022836685,-0.16681985557079315,0.07837601751089096,-0.09793537855148315,-0.02687312848865986,0.10023407638072968,0.026660235598683357,-0.02082184888422489,-0.06314117461442947,-0.028139695525169373,0.022563273087143898,-0.09057793021202087,-0.09800855070352554,0.013899738900363445,-0.04341336712241173,-0.13739880919456482,0.060806065797805786,-0.10401808470487595,-0.018289895728230476,0.10382583737373352,0.030697379261255264,-0.1314019113779068,-0.018544239923357964,0.07216355949640274,0.022476300597190857,-0.0794694647192955,-0.06552990525960922,0.024603942409157753,0.030586358159780502,0.05061614140868187,-0.06071882322430611,-0.066031314432621,0.07784510403871536,0.03311315178871155,0.015594095923006535,0.0758446753025055,0.009707281365990639,-0.013114630244672298,-0.06946798413991928,-0.04016070067882538,0.04818744957447052,0.053059808909893036,0.04333319887518883,0.053594499826431274,-0.015570355579257011,-0.013283144682645798,-0.13532470166683197,-0.030511707067489624,-0.12909123301506042,0.13741976022720337,0.003403504379093647,-0.051262129098176956,-0.12737539410591125,0.00289524020627141,-0.011604703962802887,-0.03096950612962246,0.06111849844455719,-0.08534269034862518,0.0073464554734528065,0.11284156888723373,-0.09528359770774841,0.007681694813072681,-0.07055704295635223,0.061843547970056534,0.09308573603630066,0.07926224172115326,-0.023906702175736427,-0.15535911917686462,-0.056401800364255905,-0.024869928136467934,-0.12423048913478851,-0.0830223560333252,-0.12608195841312408,-0.1943686157464981,-0.0076384530402719975,0.04047488793730736,0.020811423659324646,-0.023499639704823494,-0.1107938215136528,-0.06358944624662399,-0.0980222299695015,0.08981671184301376,0.051555417478084564,-0.04156501591205597,-0.17833557724952698,-0.16072297096252441,-0.07823554426431656,-0.05405762791633606,-0.02041976898908615,-0.018799537792801857,0.025095289573073387,-0.11290750652551651,-0.14444948732852936,-0.0019002978224307299,0.034412167966365814,-0.029819097369909286,-0.04106607288122177,-0.0961533635854721,-0.08421019464731216,0.0944015234708786,-0.09844889491796494,-0.011044052429497242,0.10552454739809036,0.0604061558842659,-0.040856942534446716,0.0830908864736557,-0.0041692242957651615,0.10326629132032394,0.02759850211441517,-0.11577993631362915,0.1388806253671646,-0.06735724210739136,-0.1322375386953354,-0.16543304920196533,0.10914678871631622,0.03609948977828026,-0.06415224820375443,-0.04940106347203255,0.03430533781647682,-0.11114973574876785,-0.08790653944015503,0.10548409074544907,-0.018719667568802834,0.0784129947423935,0.06453107297420502,-0.1320907324552536,0.12468374520540237,-0.047037288546562195,-0.1069488376379013,-0.13260206580162048,0.02489541657269001,-0.054849784821271896,-0.06346330791711807,0.09098604321479797,-0.11489070951938629,0.03353791683912277,-0.09219304472208023,0.023521410301327705,0.016253653913736343,0.1124640554189682,-0.0014455269556492567,-0.008128845132887363,-0.044484589248895645,-0.04772087186574936,0.023763330653309822,0.06863652169704437,0.10022809356451035,0.060806505382061005,-0.057927388697862625,0.026706106960773468,-0.10489058494567871,-0.040293045341968536,-0.0015622496139258146,0.0478970929980278,-0.11347617954015732,0.04508192837238312,0.053194161504507065,-0.01765846647322178,-0.05539930611848831,0.09220030903816223,-0.07523956894874573,0.13233652710914612,-0.028691966086626053,0.019777527078986168,0.023241311311721802,-0.09713160246610641,-0.08230182528495789,-0.08210007846355438,0.041245073080062866,-0.117268405854702,-0.0687982514500618,-0.029525689780712128,-0.1389351189136505,-0.13771842420101166,0.022308381274342537,-0.008958795107901096,-0.0482119582593441,-0.0267327968031168,0.015299182385206223,-0.12687987089157104,-0.17195965349674225,-0.04278098791837692,-0.011436115950345993,-0.06871423870325089,-0.03786131367087364,0.044115908443927765,0.05485396087169647,-0.12440106272697449,-0.004348729737102985,-0.12278522551059723,0.060180868953466415,0.045072924345731735,-0.05732845887541771,-0.012405667454004288,0.07873217016458511,-0.004313451237976551,-0.06938789039850235,-0.042276449501514435,0.0286945141851902,0.09874121844768524,0.0158121008425951,-0.021385623142123222,0.13736289739608765,-0.05250929296016693,0.01907975971698761,0.007031263317912817,0.05780467018485069,0.05459710583090782,0.027850180864334106,-0.10693880915641785,-0.05794025957584381,-0.016918715089559555,-0.017943361774086952,-0.030676566064357758,0.12896938621997833,-0.05792274326086044,0.09841792285442352,0.02230878919363022,0.11152201890945435,-0.08473385125398636,-0.14266452193260193,0.11396200209856033,-0.18613648414611816,-0.04563745856285095,0.05237400531768799,-0.015760673210024834,-0.03726654499769211,-0.03752608224749565,0.011792834848165512,0.06131467595696449,-0.017986709251999855,-0.13555383682250977,0.0977133959531784,0.14203914999961853,-0.03869350999593735,0.0895557850599289,-0.01148334052413702,-0.08524760603904724,-0.00718427449464798,-0.038467779755592346,-0.08261681348085403,0.11506809294223785,-0.009939700365066528,-0.05785055458545685,0.011549942195415497,-0.01861792616546154,0.0068909344263374805,0.0440138541162014,0.023258479312062263,0.0425700880587101,-0.13083775341510773,0.1310618370771408,-0.12574763596057892,-0.023840192705392838,0.06270381808280945,-0.160676047205925,-0.0001567710132803768,-0.12447110563516617,-0.09666946530342102,0.07444282621145248,0.044834353029727936,0.0565471313893795,-0.04022810980677605,-0.05105353146791458,-0.05226131156086922,-0.0560380294919014,0.052913833409547806,0.0026679476723074913,-0.12212153524160385,-0.09593857079744339,0.01702432706952095,0.09491729736328125,0.029786931350827217,-0.04568924754858017,-0.027170151472091675,-0.03955107182264328,-0.02101905271410942,-0.03796152397990227,-0.07741554826498032,-0.12848684191703796,-0.0055806562304496765,-0.0531550869345665,0.032132744789123535,-0.04916233941912651,-0.10116071999073029,-0.01742568053305149,0.08822887390851974,0.018162917345762253,-0.10963837057352066,-0.11032716184854507,-0.04400455951690674,0.13304650783538818,-0.08323101699352264,0.13395050168037415,0.03964758664369583,-0.06736059486865997,0.07941858470439911,-0.1560705304145813,-0.1830587089061737,-0.06190766766667366,-0.03208193555474281,0.07380308955907822,-0.09332843124866486,-0.06741281598806381,-0.08342113345861435,-0.1462690830230713,-0.09997417777776718,-0.05767687037587166,0.03118414431810379,-0.024113541468977928,0.010418735444545746,0.028597544878721237,0.0331292562186718,-0.04897213727235794,-0.11564331501722336,-0.05798037722706795,0.0941733866930008,0.06576045602560043,-0.1041300967335701,-0.009019896388053894,0.10649215430021286,-0.04255269467830658,-0.05002962052822113,-0.008702070452272892,-0.08044136315584183,-0.031501300632953644,-0.08658351749181747,0.11087937653064728,-0.06955642253160477,0.14590351283550262,-0.042128242552280426,-0.025562090799212456,-0.08145581185817719,-0.02191172167658806,0.1485847681760788,-0.016798950731754303,0.15291711688041687,-0.05944734811782837,-0.0852753296494484,-0.15418173372745514,0.02202530950307846,-0.06737241894006729,0.06499052047729492,0.0401819683611393,-0.11363044381141663,-0.14058415591716766,0.14799463748931885,0.07165943831205368,0.0521712489426136,0.03848463296890259,-0.04506900534033775,-0.08123871684074402,0.005564345512539148,0.0142453508451581,-0.17611798644065857,0.02213471755385399,0.07475379854440689,0.0029622348956763744,0.06016429886221886,0.09154852479696274,-0.05087694153189659,0.09454938769340515,0.15714266896247864,-0.006611562334001064,-0.06917710602283478,-0.04024063050746918,0.13281434774398804,-0.05898834392428398,-0.002691407920792699,0.06579175591468811,0.12434998154640198,-0.00401997659355402,-0.03520723059773445,-0.06540060043334961,0.03723912686109543,0.1105700135231018,-0.03497178480029106,-0.1677173525094986,0.027187619358301163,-0.043907035142183304,-0.0474168099462986,0.017226727679371834,0.031700387597084045,-0.14951258897781372,-0.11215411871671677,0.06035551801323891,0.0587279312312603,0.11824831366539001,-0.06333009153604507,-0.02217075228691101,0.033728670328855515,-0.007425106596201658,0.0009357301169075072,0.04948653280735016,-0.0526563785970211,0.08160734176635742,0.13944315910339355,0.08773612976074219,-0.008468009531497955,-0.08787427097558975,-0.07884280383586884,0.015157039277255535,0.019516367465257645,-0.08495531976222992,-0.026114266365766525,0.09253478795289993,-0.014035554602742195,-0.06229451671242714,0.12745171785354614,0.13407956063747406,0.0808982402086258,0.03845740109682083,0.017798515036702156,-0.09276854991912842,-0.07087534666061401,-0.11898196488618851,0.050476010888814926,0.010670820251107216,0.11415614187717438,-0.028354553505778313,0.06654427200555801,0.012772695161402225,0.0732235237956047,-0.05270063877105713,-0.05122816935181618,0.10165220499038696,0.12264751642942429,-0.10267377644777298,-0.13653957843780518,0.1273874044418335,0.03809778392314911,0.03554040193557739,-0.016919920220971107,-0.014599812217056751,0.04361652582883835,-0.16083203256130219,-0.06875555217266083,-0.005720061250030994,-0.1269727200269699,-0.023285891860723495,0.06217552348971367,0.08227841556072235,0.019287358969449997,0.034726839512586594,-0.11040488630533218,0.05651911720633507,0.16133135557174683,0.04372542351484299,-0.003905259072780609,-0.015472694300115108,0.06575866788625717,-0.027652332559227943,0.09736420959234238,0.10411204397678375,-0.001893688808195293,0.043157923966646194,0.027314627543091774,0.011675560846924782,-0.16982251405715942,0.13263779878616333,-0.06077941879630089,-0.20015424489974976,0.03759222477674484,-0.0423518642783165,0.01706784777343273,-0.04302658885717392,-0.28240764141082764,-0.007500873878598213,0.06222790479660034,0.10764629393815994,0.02346847392618656,0.003677407279610634,-0.15785618126392365,-0.04800572618842125,0.04179539531469345,0.08707443624734879,-0.06274479627609253,-0.14614103734493256,0.07003134489059448,-0.0782039612531662,-0.052180513739585876,0.15755274891853333,-0.0016148703871294856,-0.09804508090019226,0.016534501686692238,-0.035189393907785416,-0.12293396890163422,0.00460165785625577,0.006177295930683613,-0.0013087394181638956,-0.06670358031988144,-0.1154378205537796,-0.09450706839561462,-0.020034687593579292,0.07469528168439865,-0.20492328703403473,-0.13269904255867004,-0.016525011509656906,0.09504206478595734,-0.10808335244655609,0.06558264046907425,0.05092046782374382,-0.11254667490720749,0.03988100588321686,0.04869746416807175,-0.057850874960422516,-0.04093309864401817,-0.04736422374844551,-0.11143453419208527,-0.07677142322063446,-0.07426995038986206,0.046522993594408035,0.010487019084393978,0.05797265097498894,-0.01947621814906597,0.044170256704092026,-0.057875413447618484,-0.10586771368980408,0.1280980110168457,0.003230041591450572,0.11892487853765488,0.06401404738426208,-0.05700571462512016,-0.062145132571458817,0.003747246228158474,-0.06702251732349396,-0.10088826715946198,0.08585646748542786,0.15648332238197327,-0.04800140857696533,0.041608963161706924,0.036072444170713425,0.05606688931584358,-0.14920733869075775,0.04000170901417732,0.051648132503032684,0.15430748462677002,-0.0053093163296580315,-0.029068870469927788,-0.048632118850946426,-0.03477519750595093,-0.017306029796600342,0.006594024132937193,-0.16900844871997833,-0.028694013133645058,-0.047906313091516495,-0.0024675745517015457,-0.15640351176261902,-0.027958711609244347,-0.01145236473530531,-0.050226371735334396,-0.08424125611782074,0.009961779229342937,-0.02488323301076889,-0.10850583016872406,0.000988502404652536,0.010294051840901375,0.008947295136749744,0.03344437852501869,0.031098542734980583,-0.049438826739788055,-0.01132384967058897,-0.08389207720756531,0.034455861896276474,0.03600039705634117,-0.0580313615500927,-0.09362955391407013,0.009456451050937176,0.09894008189439774,-0.08016625791788101,-0.14116118848323822,0.03151324391365051,-0.0796552374958992,-0.019034871831536293,-0.13067659735679626,-0.014412004500627518,-0.16068005561828613,-0.05666214972734451,0.10432274639606476,-0.042437173426151276,-0.15858303010463715,-0.19428908824920654,0.04053997993469238,-0.12402543425559998,0.0455743633210659,-0.06701352447271347,-0.007320070173591375,-0.1490887701511383,0.10755820572376251,-0.018819209188222885,-0.1418233960866928,0.09630512446165085,-0.02592369168996811,-0.02356085367500782,0.052247948944568634,0.021702341735363007,-0.034849509596824646,-0.12888164818286896,-0.05619245022535324,-0.025544440373778343,-0.16981928050518036,0.02308381162583828,-0.016471724957227707,0.17712907493114471,0.006205349694937468,-0.02924175374209881,-0.002334432676434517,-0.13289394974708557,0.013947056606411934,0.06361103057861328,0.05893592908978462,0.004004810005426407,-0.008858798071742058,-0.172572061419487,-0.033797767013311386,-0.1649484485387802,-0.06634081155061722,0.12426012009382248,-0.008137132972478867,0.023785311728715897,-0.12089969217777252,0.10018967092037201,0.015526317991316319,0.11212816834449768,-0.05960260331630707,-0.08157417923212051,0.05686734616756439,0.09602382779121399,-0.05514315143227577,-0.06931380182504654,-0.10982220619916916,-0.026249665766954422,-0.09099694341421127,-0.04947005212306976,-0.1316220611333847,-0.06130649149417877,0.10772673785686493,-0.07573670893907547,-0.005944603122770786,0.08661092817783356,-0.050933387130498886,-0.023327236995100975,-0.05845125764608383,0.008863775990903378,-0.16836081445217133,0.05197520554065704,-0.002244257600978017,0.030273493379354477,0.0015983275370672345,0.0018926585325971246,-0.013623639941215515,0.048193737864494324,0.04347255825996399,0.046930763870477676,-0.02449001930654049,-0.05117708817124367,0.017003891989588737,0.06748398393392563,-0.07087063789367676,-0.18032827973365784,0.11976504325866699,-0.14245548844337463,-0.013969335705041885,-0.07917653769254684,-0.14576737582683563,0.002920003142207861,-0.08303564041852951,0.04374689236283302,-0.1300716996192932,0.06928078830242157,0.10000662505626678,-0.1712428480386734,0.08841770142316818,-0.02556784451007843,0.05889875814318657,-0.05935724452137947,-0.015881503000855446,-0.03894468769431114,-0.11577433347702026,-0.09230298548936844,-0.054233402013778687,-0.015994306653738022,-0.011530030518770218,0.060277070850133896,-0.03255930542945862,-0.13896819949150085,-0.02396334707736969,0.020624956116080284,-0.08485967665910721,0.15546107292175293,0.06465961039066315,0.032991718500852585,-0.04875992611050606,0.06611650437116623,0.11877544969320297,-0.17826789617538452,0.014333611354231834,-0.025027882307767868,0.1454874724149704,0.06029612571001053,0.05605354532599449,0.07164185494184494,-0.07886037230491638,0.0449770949780941,-0.018731271848082542,-0.14378681778907776,0.05931715667247772,0.009602895937860012,0.03293915465474129,-0.018020454794168472,-0.033328015357255936,0.038184866309165955,0.09760568290948868,-0.025845762342214584,-0.11928927898406982,-0.10606484115123749,0.0016160145169124007,0.04859057813882828,-0.09439188241958618,-0.0635642260313034,-0.09388292580842972,0.1015130877494812,0.03946615383028984,-0.09715144336223602,-0.14489588141441345,-0.03490098565816879,0.00913577526807785,-0.09949618577957153,-0.08185786753892899,0.13103854656219482,-0.07067149877548218,0.07069562375545502,-0.09841769933700562,0.11437881737947464,-0.019768893718719482,-0.034494224935770035,-0.025987818837165833,-0.09425060451030731,-0.04009486362338066,-0.06207616254687309,-0.11759020388126373,0.033121734857559204,0.08900608122348785,0.15075616538524628,-0.07886600494384766,-0.008025320246815681,0.04112948849797249,-0.07056387513875961,-0.02365174889564514,-0.03586417809128761,0.10820816457271576,0.08155053853988647,0.0032127101439982653,-0.004987844731658697,-0.15061526000499725,0.024505730718374252,0.07929950207471848,0.03736864775419235,-0.07492035627365112,0.0966225191950798,0.09959598630666733,-0.14073511958122253,-0.0022243582643568516,-0.11668302863836288,-0.0013307967456057668,-0.07572371512651443,0.14827275276184082,-0.05375547707080841,0.025968296453356743,-0.11867924779653549,-0.06660931557416916,-0.0033880770206451416,0.11752602458000183,-0.007003918755799532,-0.08340165764093399,-0.11933135241270065,-0.021317128092050552,0.022378060966730118,-0.08822932094335556,0.011852966621518135,0.0016013619024306536,0.10465047508478165,0.06001449376344681,-0.06053566187620163,-0.08576445281505585,0.022772880271077156,-0.1156778559088707,0.012997166253626347,-0.058637455105781555,0.07073543220758438,-0.06521663814783096,-0.018946679309010506,-0.07893001288175583,0.027102885767817497,-0.04776589572429657,-0.029511388391256332,0.00268518622033298,0.0496845468878746,0.037683043628931046,0.02140587568283081,-0.020135022699832916,-0.027257120236754417,0.11898815631866455,0.019776105880737305,-0.0845557153224945,-0.12244078516960144,-0.05880448967218399,0.16911226511001587,0.06660983711481094,0.020584750920534134,0.06756895780563354,-0.06579666584730148,0.00674914475530386,0.018086183816194534,-0.012751802802085876,-0.09888878464698792,0.1591009497642517,0.0807635560631752,0.051093921065330505,-0.0806872546672821,-0.15485602617263794,-0.015904417261481285,0.12574176490306854,-0.09666520357131958,-0.040558744221925735,0.07018835842609406,0.03678293526172638,-0.05637763440608978,0.020993009209632874,-0.026525769382715225,-0.0502546951174736,-0.09556501358747482,-0.0016767660854384303,-0.1279231458902359,-0.061390094459056854,0.14482006430625916,-0.030215570703148842,-0.06159237399697304,-0.0905972495675087,0.03124544769525528,-0.014556052163243294,-0.0999937579035759,-0.011630664579570293,0.11634889990091324,0.041107844561338425,0.10905345529317856,-0.07294388115406036,-0.05156451091170311,-0.0550498440861702,0.005391481798142195,-0.10567524284124374,-0.04657140001654625,-0.02852119319140911,-0.03957149758934975,-0.04926038905978203,-0.021423326805233955,0.12748275697231293,0.120856873691082,-0.03940451145172119,0.06827020645141602,0.09547700732946396,-0.10510896146297455,-0.021979186683893204,-0.00041782556218095124,-0.07371333241462708,-0.0302022285759449,0.09140971302986145,0.003705039154738188,-0.16373981535434723,-0.0759367123246193,-0.05987343192100525,0.0824332982301712,0.07562410831451416,0.13110126554965973,-0.06547822803258896,0.15815110504627228,0.08065003901720047,-0.008166294544935226,0.03853689506649971,-0.014352557249367237,0.054106712341308594,-0.005594843998551369,-0.020543592050671577,-0.1089048758149147,0.0247278343886137,-0.15523666143417358,0.019690746441483498,0.04885271564126015,-0.06315804272890091,-0.026920808479189873,-0.02940341643989086,-0.1328430026769638,-0.023409776389598846,0.03753327950835228,-0.01815870963037014,-0.13915954530239105,-0.08607450127601624,-0.06680857390165329,0.01764097809791565,-0.10264710336923599,0.14876404404640198,0.006999561563134193,0.10950717329978943,0.012941217049956322,0.0477396585047245,-0.13708066940307617,0.09438054263591766,-0.12423532456159592,0.04856371507048607,0.16717109084129333,-0.059872936457395554,0.15046986937522888,0.037357479333877563,0.03885621577501297,0.08087735623121262,0.02983338199555874,-0.03194419667124748,-0.09504909813404083,-0.030242282897233963,0.02064116857945919,0.03965429216623306,-0.1472250074148178,-0.026977820321917534,0.0765608549118042,-0.08433129638433456,-0.07817205041646957,-0.05026530474424362,0.04767054691910744,-0.06694604456424713,-0.04163873940706253,0.0912758931517601,-0.005716254469007254,-0.13968998193740845,0.023352181538939476,0.1197558045387268,0.11815601587295532,-0.07609917223453522,-0.1139964610338211,-0.1601354032754898,0.00037664055707864463,0.0241639893501997,-0.15554983913898468,-0.05273999273777008,0.07168202847242355,0.04097844660282135,-0.02912340871989727,0.09240282326936722,0.1321691870689392,-0.10428739339113235,0.1078914999961853,0.08159321546554565,0.11683519184589386,-0.020092369988560677,0.17006373405456543,-0.0050571677275002,-0.14895446598529816,0.02109561301767826,0.04751415550708771,0.05414866283535957,-0.14807438850402832,-0.09859117865562439,-0.11119455844163895,-0.07314100116491318,-0.11053764820098877,-0.05591803416609764,-0.09954725950956345,-0.16100001335144043,-0.10264850407838821,0.026404518634080887,-0.0015549897216260433,0.04308953508734703,-0.11634676903486252,0.030064420774579048,0.06109466403722763,-0.09178557991981506,0.10082584619522095,0.07852455973625183,-0.08102933317422867,-0.05123572796583176,0.05898134410381317,0.028714695945382118,0.049928825348615646,0.08804076164960861,-0.14060992002487183,-0.1488330066204071,-0.03068077564239502,-0.15489111840724945,0.04467187821865082,0.11634080857038498,0.06278066337108612,0.1009163036942482,-0.008057521656155586,0.07208409905433655,-0.08980529010295868,-0.034798312932252884,-0.03576023876667023,-0.047387391328811646,-0.04741057753562927,0.036247801035642624,0.112827368080616,0.06054329872131348,-0.010581563226878643,0.09407719224691391,-0.005149617791175842,0.06454218924045563,-0.07111657410860062,0.08074508607387543,-0.19477763772010803,-0.029012242332100868,0.05762210115790367,0.011785471811890602,0.05390065535902977,0.016746997833251953,-0.0002316768077434972,0.07769085466861725,-0.04936555400490761,0.11606651544570923,0.0005048745661042631,-0.04727070778608322,0.0009785748552531004,-0.00876180175691843,0.08639786392450333,-0.047468505799770355,-0.15499353408813477,0.12371449917554855,-0.057095661759376526,0.10237392038106918,0.0717507153749466,0.01981263794004917,0.030860645696520805,-0.04072004184126854,-0.1287231296300888,-0.05319381132721901,-0.08732996135950089,0.12206323444843292,0.13628140091896057,0.06691112369298935,-0.12771031260490417,-0.08486386388540268,-0.06658637523651123,-0.03941681236028671,-0.0793805867433548,0.010919283144176006,-0.061027221381664276,-0.020319508388638496,0.03531650826334953,0.0678541362285614,0.008735963143408298,-0.17086321115493774,-0.17191044986248016,-0.0031806868501007557,-0.18611396849155426,0.13214856386184692,-0.12304981052875519,-0.029676876962184906,0.02041761763393879,-0.09673425555229187,-0.004764688666909933,-0.07612074166536331,0.07593020796775818,0.08395862579345703,-0.14451977610588074,-0.09069262444972992,0.13558174669742584,-0.0004881671629846096,-0.04886016622185707,-0.016532061621546745,-0.04406488314270973,0.012082083150744438,0.1088980883359909,-0.07797804474830627,-0.032232481986284256,0.07542542368173599,0.12316076457500458,-0.0922277495265007,-0.0601639561355114,0.02540811151266098,-0.0731024444103241,-0.08985549956560135,-0.06374669820070267,-0.09185364842414856,-0.011102857068181038,-0.1471918374300003,-0.05721841752529144,0.15387539565563202,0.032555464655160904,-0.08153137564659119,-0.027106616646051407,-0.14959502220153809,0.003250365611165762,-0.10352916270494461,0.10022176802158356,0.0688784196972847,-0.09728031605482101,0.017112288624048233,-0.06250271946191788,-0.05626383051276207,-0.035191357135772705,0.057786643505096436,0.041851986199617386,-0.00490226037800312,-0.031110307201743126,-0.009039151482284069,0.03896385803818703,0.05672032758593559,0.05344453454017639,-0.011460994370281696,-0.0101574482396245,0.09488440304994583,0.05302264541387558,0.07609761506319046,-0.08691641688346863,0.12710855901241302,-0.12250177562236786,-0.11572813987731934,0.08233346790075302,-0.036564141511917114,0.13301964104175568,-0.045883648097515106,-0.04262949153780937,-0.05971826612949371,0.05135732889175415,-0.10625983029603958,0.026226269081234932,0.10045253485441208,0.017545918002724648,0.004123327787965536,-0.10910014808177948,0.01497163437306881,-0.13415729999542236,-0.026160286739468575,0.14638984203338623,-0.07035673409700394,-0.012088133953511715,0.05596429109573364,-0.005332478787750006,-0.0750732570886612,-0.07779943197965622,-0.00617606844753027,-0.09406162053346634,-0.06019088625907898,-0.0293266698718071,0.06403014063835144,-0.06843682378530502,0.0939231663942337,-0.16505250334739685,0.0531669557094574,-0.04513326659798622,0.007173763122409582,0.026428477838635445,0.11302033066749573,-0.0019430414540693164,0.11592012643814087,-0.07288172096014023,-0.036142539232969284,0.12034225463867188,0.07673288136720657,0.09445145726203918,-0.10656838119029999,-0.037114404141902924,-0.026008905842900276,0.12611597776412964,-0.07785920798778534,-0.05372294783592224,-0.07670116424560547,-0.028686653822660446,-0.10656953603029251,0.047869618982076645,0.08674965053796768,-0.08235350996255875,0.045037612318992615,0.0702538937330246,-0.06165630370378494,-0.17958126962184906,-0.1160636618733406,0.00670859357342124,-0.04839865863323212,-0.019857339560985565,-0.01707836426794529,0.05470989644527435,0.0742422416806221,-0.05341873690485954,0.1271786391735077,0.13729964196681976,-0.002518336521461606,-0.051316432654857635,-0.04787757992744446,0.048247937113046646,-0.015983521938323975,-0.08066501468420029,-0.14470452070236206,0.05138968676328659,-0.024488540366292,-0.040526024997234344,-0.05812711641192436,0.12436635792255402,0.09822244942188263,0.003538251854479313,0.09347052127122879,0.062456246465444565,0.005383861251175404,0.14474372565746307,-0.10867364704608917,0.0442003458738327,-0.13084933161735535,0.08697725087404251,-0.07573109865188599,-0.06420007348060608,0.012853583320975304,-0.12332022935152054,-0.12135277688503265,-0.14725874364376068,-0.005544455721974373,0.04979514703154564,0.07258767634630203,0.0939864069223404,-0.03897165507078171,0.021023456007242203,-0.10901806503534317,-0.011648938059806824,-0.2008647620677948,0.07605110853910446,-0.006695189047604799,-0.0049346196465194225,-0.07936697453260422,-0.12310274690389633,-0.04750820994377136,0.020061351358890533,0.06450393050909042,0.07122430205345154,-0.1622007191181183,-0.011696855537593365,0.12325254082679749,0.02109287865459919,-0.02079235203564167,-0.18915319442749023,-0.07850969582796097,0.08519071340560913,-0.06670504063367844,0.05139859765768051,0.1455748975276947,-0.02898055501282215,-0.0829797014594078,-0.0933355838060379,-0.08582630753517151,0.06815022230148315,-0.08452405035495758,-0.11694036424160004,-0.08190933614969254,-0.07384474575519562,0.05292311683297157,0.05746452510356903,-0.017730124294757843,-0.10188319534063339,0.09730333089828491,0.0297571811825037,-0.10208036750555038,-0.09565435349941254,0.07995571196079254,0.16837121546268463,0.12369497120380402,-0.13780954480171204,0.016317332163453102,-0.04575638473033905,0.11878961324691772,-0.1369149535894394,-0.08551748096942902,-0.13639119267463684,-0.08022962510585785,0.031076692044734955,-0.07697143405675888,0.09366133064031601,-0.119536392390728,-0.03344876691699028,-0.09204686433076859,-0.005499353166669607,-0.058278508484363556,0.011889754794538021,-0.10228043049573898,-0.05810422822833061,-0.1569250077009201,-0.10412053018808365,-0.00858728215098381,-0.10345853120088577,0.023002780973911285,-0.07392547279596329,0.02286233752965927,-0.13150593638420105,0.05173909664154053,0.13696856796741486,-0.07380551844835281,-0.11127697676420212,-0.1135186031460762,0.0491027906537056,0.11383138597011566,-0.09091846644878387,-0.083759605884552,-0.06580311805009842,-0.014865743927657604,0.00694778747856617,-0.011452851817011833,-0.09571971744298935,0.13797543942928314,-0.007005383726209402,-0.051239948719739914,-0.06618375331163406,-0.04321757331490517,-0.06956815719604492,0.12276802211999893,-0.022260256111621857,-0.07787095010280609,-0.018451698124408722,-0.06595750153064728,0.00034150778083130717,-0.05807683244347572,0.06028478965163231,-0.0009658250492066145,-0.013948636129498482,0.03945465385913849,-0.09307193011045456,0.037343986332416534,-0.1682589203119278,0.03479935973882675,0.010853852145373821,-0.05055375397205353,-0.028615392744541168,-0.02457079477608204,0.11946479231119156,-0.1234506219625473,0.04897011071443558,-0.0576312318444252,0.03055126965045929,-0.2640836536884308,-0.1265510618686676,0.1323162019252777,-0.0870487242937088,-0.09790787845849991,0.04879195988178253,-0.06568875908851624,0.04929092153906822,-0.06342943012714386,-0.07194088399410248,0.03424849733710289,0.04511304572224617,-0.0014132997021079063,-0.09660445153713226,-0.2400113195180893,-0.09909896552562714,0.07409359514713287,-0.13499882817268372,0.1108044758439064,-0.022027000784873962,-0.08384960144758224,-0.013317007571458817,-0.1184479147195816,0.06852380186319351,0.05314617231488228,0.12833376228809357,-0.010232478380203247,-0.08964172750711441,-0.10064864903688431,0.12789833545684814,0.052152980118989944,-0.13790491223335266,0.07782500237226486,-0.03308001905679703,-0.09485461562871933,0.1432824730873108,-0.06942889094352722,0.06623708456754684,-0.055650126188993454,-0.1815216988325119,0.13376329839229584,-0.15177907049655914,-0.2009856104850769,0.042996421456336975,-0.07901257276535034,0.04889032244682312,0.0411737859249115,-0.09638068825006485,-0.14478033781051636,0.1558181792497635,0.03712507337331772,-0.03443421423435211,-0.0895271822810173,-0.1391756683588028,-0.05949586257338524,-0.010238009504973888,-0.026916274800896645,0.1276484578847885,-0.12209225445985794,-0.028394849970936775,-0.029436059296131134,0.04248510301113129,-0.0011263146298006177,-0.12051254510879517,-0.10878966003656387,-0.15995875000953674,0.10435085743665695,-0.04168734699487686,0.06057785078883171,-0.035355404019355774,-0.024500440806150436,-0.015086047351360321,0.039978235960006714,0.048064038157463074,-0.016905536875128746,-0.07140225917100906,-0.039863985031843185,0.006915450561791658,-0.029238196089863777,-0.04183879494667053,-0.10500422865152359,-0.15493713319301605,-0.042722441256046295,-0.05595710873603821,-0.06491111218929291,-0.09827802330255508,0.080928273499012,0.025993667542934418,-0.07132795453071594,0.043199408799409866,0.009333539754152298,-0.0915510430932045,0.0571414977312088,-0.03311965614557266,0.07272463291883469,0.023308515548706055,-0.054895687848329544,0.1315055638551712,0.08887942880392075,0.1523892879486084,0.06324531137943268,-0.06762219965457916,-0.0049317325465381145,-0.14973729848861694,-0.17720220983028412,-0.10171452164649963,-0.10117246210575104,0.08207055181264877,-0.21445529162883759,-0.007669920567423105,-0.016944756731390953,0.055858466774225235,-0.09005621820688248,-0.10578925162553787,0.0033132692333310843,-0.004639015067368746,-0.050741855055093765,0.015700938180088997,0.06166971102356911,0.07262182235717773,-0.16883441805839539,0.1013306975364685,0.0763351172208786,-0.1245853453874588,0.08686978369951248,-0.06258048117160797,-0.0891573503613472,0.02467481791973114,0.09472206234931946,-0.0022122568916529417,-0.06612392514944077,-0.14712268114089966,-0.04720643535256386,0.06584768742322922,0.06170901283621788,0.030980143696069717,0.0237932987511158,-0.16280494630336761,0.18425753712654114,0.05856270343065262,0.13766781985759735,0.017978645861148834,0.010398898273706436,0.034210480749607086,-0.09112247079610825,-0.02036457322537899,0.044023580849170685,-0.13684013485908508,-0.09278982877731323,-0.11094694584608078,-0.09436334669589996,-0.08098661154508591,-0.08203836530447006,-0.04815926030278206,-0.058534178882837296,-0.10529083758592606,0.08837714046239853,0.07708422094583511,0.07756642997264862,0.0365268811583519,0.04014237970113754,-0.044165246188640594,0.15156827867031097,-0.05149339511990547,0.17364288866519928,-0.04478700831532478,-0.1100856214761734,-0.056388795375823975,-0.10823894292116165,0.0798913985490799,0.08625873923301697,-0.11646860837936401,-0.06628773361444473,-0.10900246351957321,-0.09783397614955902,-0.06403675675392151,0.07913389801979065,0.1847693771123886,0.04122471436858177,-0.03299492970108986,0.09193749725818634,-0.015719039365649223,0.09083030372858047,0.06104486435651779,0.11912728101015091,-0.000830798817332834,-0.0403929129242897,-0.019839370623230934,-0.21990753710269928,-0.17123053967952728,0.024342788383364677,-0.06221695616841316,0.035559117794036865,-0.033455509692430496,0.13833685219287872,-0.07852137088775635,-0.10385574400424957,0.16594792902469635,0.04558134078979492,0.011226674541831017,0.002683739410713315,-0.10608144849538803,-0.004579830449074507,-0.14532607793807983,-0.04945819824934006,0.08335575461387634,-0.004374093841761351,0.16932427883148193,-0.060504935681819916,0.06148168444633484,-0.02901409938931465,0.05165399610996246,-0.08539261668920517,0.0021410505287349224,-0.0433594286441803,-0.10249724984169006,-0.08254900574684143,-0.05865364894270897,0.032088201493024826,-0.07802870869636536,0.04132925346493721,0.08220941573381424,-0.017993129789829254,0.07796883583068848,0.06724454462528229,0.025383342057466507,-0.08903637528419495,0.036838605999946594,-0.0627736896276474,-0.01194967981427908,-0.0994901955127716,-0.1697155237197876,0.09894595295190811,0.13956522941589355,0.00393885700032115,-0.10244948416948318,-0.09767188131809235,0.07564680278301239,0.0068590156733989716,-0.14034824073314667,0.040828637778759,-0.16947579383850098,-0.033804915845394135,0.028719499707221985,-0.02373056672513485,0.029414663091301918,-0.13735270500183105,-0.06439891457557678,-0.10965265333652496,0.08130234479904175,-0.0963621735572815,-0.11845254898071289,-0.039974395185709,-0.06334999948740005,-0.09262609481811523,0.08192354440689087,-0.007854721508920193,0.1228712946176529,0.028717707842588425,0.11892177164554596,-0.05658261477947235,-0.16377641260623932,-0.03859889879822731,-0.010664539411664009,0.12836101651191711,-0.06711916625499725,-0.03676534816622734,0.06747543811798096,-0.07647772878408432,0.06680295616388321,-0.03819911926984787,0.019287049770355225,-0.04789470136165619,-0.13514061272144318,-0.1438734382390976,0.09913648664951324,-0.04394904524087906,0.025973841547966003,-0.10524206608533859,-0.1554095298051834,-0.10437249392271042,0.015748245641589165,0.06615494936704636,0.012092324905097485,0.03324836120009422,-0.055798690766096115,-0.0991782397031784,0.03968376666307449,0.10297507047653198,-0.056805968284606934,0.09693718701601028,0.16279137134552002,0.0069830273278057575,0.16335228085517883,0.027165720239281654,-0.08132971078157425,0.01840941421687603,0.018603039905428886,-0.001580218318849802,0.03465232998132706,-0.0363909937441349,0.046473290771245956,0.0027045910246670246,0.0832844153046608,-0.07814408093690872,0.0014985749730840325,-0.036514293402433395,0.03209945186972618,-0.14562438428401947,-0.053290121257305145,-0.0371481254696846,0.08839912712574005,0.02055721916258335,0.057594235986471176,-0.013356687501072884,0.053024157881736755,-0.013161609880626202,-0.03962824493646622,0.038296788930892944,-0.10232548415660858,0.0010109555441886187,0.04000959172844887,-0.12976086139678955,0.04093455150723457,0.11859732866287231,0.008512151427567005,0.0734611451625824,0.03457559645175934,-0.1521223485469818,-0.013084507547318935,0.0942784994840622,-0.12704749405384064,-0.04515134170651436,0.04414387792348862,-0.13542726635932922,-0.020371465012431145,-0.07867832481861115,-0.08724077045917511,-0.06010494753718376,-0.11723986268043518,-0.010034391656517982,-0.129333034157753,-0.09183251112699509,0.07840701192617416,-0.0768086314201355,0.04064811021089554,0.08981598913669586,-0.1374129354953766,0.022123387083411217,0.03849998116493225,-0.03659458085894585,-0.06691285222768784,0.09243524819612503,-0.04236019030213356,-0.028606731444597244,0.12362246960401535,-0.10707051306962967,0.05843034014105797,0.07083072513341904,0.08841986954212189,-0.13869379460811615,-0.020933842286467552,0.07015110552310944,0.014048924669623375,-0.09387541562318802,-0.06692712008953094,0.0837811678647995,-0.07604259997606277,-0.013173467479646206,-0.06961286067962646,-0.11554965376853943,-0.06866155564785004,0.01300392672419548,0.011667237617075443,0.02148863673210144,0.0014518598327413201,-0.07904960215091705,-0.07582030445337296,0.08077405393123627,-0.037404827773571014,0.009466186165809631,0.04970305785536766,-0.15442711114883423,-0.059238363057374954,-0.06100282445549965,-0.043212879449129105,0.1596333235502243,0.06487095355987549,-0.01834164932370186,0.16595284640789032,-0.0974355936050415,0.021427908912301064,-0.14324851334095,-0.03656979650259018,-0.17521066963672638,-0.09853140264749527,0.16879847645759583,0.07633142173290253,0.13171790540218353,-0.09843564033508301,-0.19141054153442383,0.16645710170269012,-0.14883343875408173,-0.09623540937900543,-0.0521860234439373,0.08609229326248169,-0.03301108255982399,-0.12704043090343475,0.11035527288913727,-0.014718745835125446,0.02608047053217888,-0.02738185226917267,0.12370926141738892,-0.060829296708106995,0.070250004529953,0.15523406863212585,-0.07862994074821472,-0.04393382743000984,-0.011213668622076511,-0.07345391064882278,-0.019540894776582718,-0.0018648181576281786,-0.00962312426418066,-0.11165028065443039,-0.03295933082699776,0.09516038000583649,0.01184699684381485,-0.04627319425344467,0.06755013763904572,0.04976658895611763,0.04177837073802948,-0.06219682842493057,0.02333352155983448,0.012641777284443378,-0.10270828753709793,-0.09516175091266632,-0.1283126026391983,-0.12494989484548569,-0.1737399697303772,0.04424487054347992,-0.04796500504016876,-0.011845550499856472,0.05508137121796608,-0.0628243014216423,0.0523950420320034,-0.047878749668598175,0.02427859418094158,-0.032205428928136826,-0.005190790630877018,0.11203743517398834,-0.07175634801387787,-0.08485696464776993,-0.13190597295761108,0.0035245686303824186,-0.011782439425587654,0.002035922836512327,-0.04348073527216911,0.03649922087788582,0.12282606959342957,-0.0019068910041823983,0.08830138295888901,-0.045644842088222504,0.09907642751932144,0.02936626225709915,-0.007439415901899338,-0.002736835740506649,0.05625559017062187,-0.043482132256031036,-0.09741542488336563,-0.026818063110113144,-0.02521844580769539,-0.07029296457767487,-0.01553654856979847,-0.013800110667943954,0.10625201463699341,0.05942108854651451,-0.10069888085126877,0.02022751048207283,-0.07181501388549805,-0.07002078741788864,0.01927497610449791,0.11282584816217422,-0.15609657764434814,-0.1017855852842331,-0.11535845696926117,-0.05459268391132355,0.0004377272562123835,0.09610451757907867,-0.04497791826725006,-0.07316669821739197,0.05400141701102257,0.03050236962735653,-0.07210040092468262,-0.019953954964876175,-0.0650164857506752,0.04286273568868637,0.008560942485928535,-0.0267897117882967,-0.07440153509378433,-0.0771772563457489,0.04554048180580139,0.14604716002941132,0.031766701489686966,-0.10480698943138123,0.0681380182504654,-0.1332675665616989,-0.1847648322582245,-0.019805073738098145,0.04625825583934784,0.09269367158412933,-0.0005777908372692764,-0.09411606192588806,0.011086131446063519,-0.19286470115184784,0.02961365319788456,-0.0389028936624527,0.03037075884640217,0.0126644317060709,0.0726608857512474,0.017026826739311218,-0.04471880942583084,-0.1350747048854828,-0.12876257300376892,0.016086438670754433,0.12942959368228912,0.0839749127626419,0.00924751628190279,-0.03467570245265961,-0.12363945692777634,0.10966580361127853,0.10645435750484467,-0.07379394769668579,-0.10121165961027145,-0.051369402557611465,-0.08329527825117111,-0.11670134961605072,-0.057880550622940063,-0.1520894467830658,-0.09188422560691833,0.1560485064983368,0.09861649572849274,0.08726871758699417,-0.1531296968460083,-0.014171932823956013,0.03366394713521004,0.08400864154100418,0.13852015137672424,0.07540495693683624,0.1424330472946167,-0.06467998772859573,0.004137755837291479,-0.0549238920211792,0.04705019295215607,0.06181211397051811,0.053144074976444244,0.11945873498916626,-0.08651646971702576,-0.009878979995846748,-0.0735982283949852,0.05184101313352585,-0.09543519467115402,0.05254816263914108,-0.006054793018847704,0.019743766635656357,0.06365205347537994,-0.05548371002078056,-0.02294444665312767,0.033642545342445374,0.004355734679847956,0.029044557362794876,-0.056891173124313354,0.14271804690361023,-0.08470573276281357,-0.0805467739701271,-0.09048663079738617,0.09349070489406586,-0.02170322835445404,0.0703502669930458,-0.0054216207936406136,0.053439363837242126,0.0801553875207901,-0.06492557376623154,-0.06798721849918365,-0.09078296273946762,-0.011056540533900261,-0.044942308217287064,-0.024295873939990997,-0.0037623506505042315,-0.00409129960462451,-0.03989169001579285,0.06768516451120377,0.07272082567214966,0.10637445002794266,0.1059660017490387,-0.13027389347553253,-0.14573632180690765,0.036714307963848114,0.07617644965648651,-0.07543371617794037,-0.1284184455871582,-0.07541415095329285,-0.0033991150557994843,0.02977542206645012,-0.05792519077658653,-0.004218426998704672,0.12593114376068115,-0.05729912593960762,0.058849677443504333,-0.018886886537075043,-0.09269772469997406,-0.007671191822737455,-0.015563524328172207,-0.06333503127098083,0.017584752291440964,-0.07139447331428528,0.028321465477347374,-0.08382328599691391,-0.10930879414081573,-0.006459660362452269,0.003730015130713582,-0.1212511882185936,0.049521587789058685,-0.16042357683181763,0.007632962428033352,0.04560443013906479,0.024884404614567757,-0.018849272280931473,0.01749408431351185,-0.05061153322458267,-0.11376361548900604,0.05417519435286522,0.005775545723736286,0.11432869732379913,0.04725372791290283,-0.022271960973739624,0.005235877353698015,0.07055308669805527,0.13721555471420288,-0.1342705488204956,0.03587017580866814,-0.006985237821936607,-0.15602914988994598,-0.004553794860839844,-0.15083053708076477,-0.01389850489795208,-0.1322207748889923,-0.04689949378371239,0.03235573321580887,0.11463400721549988,0.09430424124002457,0.1301405131816864,-0.11788886040449142,0.04080353304743767,-0.004716613329946995,0.08209630101919174,-0.010029268451035023,-0.03278934583067894,-0.03119249828159809,0.13057568669319153,0.03191259503364563,-0.07653042674064636,-0.14914119243621826,0.0675286278128624,0.037436798214912415,-0.03384404256939888,0.0034970298875123262,0.011130550876259804,-0.10092795640230179,-0.13305026292800903,-0.0015677090268582106,-0.012477285228669643,-0.04983045905828476,0.09943609684705734,0.07576590031385422,-0.03965085744857788,0.007554776035249233,0.13783830404281616,-0.15918493270874023,-0.03527306392788887,-0.10286440700292587,-0.01218816451728344,0.08869756013154984,-0.00981239415705204,-0.06473756581544876,-0.023697437718510628,-0.04163070023059845,0.06685496121644974,0.029451660811901093,0.07729785889387131,-0.0036670099943876266,0.09902429580688477,0.04244813695549965,-0.026165055111050606,-0.034331947565078735,-0.05693984776735306,-0.012566623277962208,-0.008355829864740372,-0.16461141407489777,-0.17763981223106384,-0.11917909979820251,0.03454553335905075,-0.1375425159931183,0.035186562687158585,0.07712836563587189,-0.09309505671262741,-0.08923886716365814,-0.05881066620349884,0.07174942642450333,0.04984637722373009,0.06059689074754715,-0.017649691551923752,-0.13058675825595856,-0.06234811991453171,0.05698101595044136,0.002429805463179946,0.09488783031702042,0.10005410760641098,-0.17600661516189575,0.08448545634746552,-0.0007799130980856717,0.03856813907623291,0.13014216721057892,0.10588262230157852,-0.004103682469576597,0.028102273121476173,0.026932843029499054,0.16524723172187805,-0.023939646780490875,-0.07500874996185303,0.1280185729265213,0.023644184693694115,-0.04826991260051727,0.0713694766163826,0.01660216972231865,-0.2028304785490036,0.10304788500070572,-0.02284841053187847,-0.02709146775305271,-0.1643032282590866,0.03816411644220352,-0.10618981719017029,0.011617803014814854,-0.142999529838562,-0.005846075713634491,0.10920027643442154,-0.08101582527160645,0.04687162861227989,0.06446434557437897,-0.06031211465597153,-0.11883331090211868,0.10461385548114777,-0.08503507822751999,0.008448385633528233,0.04060094803571701,0.04720126464962959,-0.07164261490106583,-0.02236974984407425,0.10209321975708008,0.12934333086013794,0.019312381744384766,-0.02670198678970337,-0.07463844865560532,-0.01937330886721611,-0.041172780096530914,0.01567354053258896,0.05252847075462341,0.008610967546701431,-0.16604188084602356,-0.22282077372074127,-0.0631636381149292,0.10310386121273041,-0.08555305004119873,-0.01120777614414692,0.017594439908862114,-0.10766438394784927,0.056446511298418045,0.11645418405532837,-0.017125660553574562,-0.029695836827158928,0.03621060028672218,0.043425146490335464,-0.11224880814552307,-0.1773616373538971,-0.10944584757089615,-0.00154968595597893,-0.13391825556755066,0.0698247179389,-0.08869832009077072,0.046266768127679825,-0.049030136317014694,0.023069841787219048,0.14309999346733093,-0.10487612336874008,0.03702280670404434,-0.09453020244836807,0.02961193397641182,-0.039693526923656464,-0.03679606318473816,-0.17225679755210876,-0.13341589272022247,0.0798320546746254,0.022265737876296043,-0.1478058099746704,-0.12513668835163116,-0.018289931118488312,-0.17703180015087128,0.03208455070853233,-0.10410843789577484,0.02048671245574951,-0.022751016542315483,0.03098427876830101,-0.0255826897919178,0.12993118166923523,-0.016983801499009132,0.04900270700454712,-0.1262635588645935,0.02864282764494419,0.01529670786112547,-0.007315048482269049,-0.12563304603099823,-0.05622929707169533,0.0004739962751045823,-0.04241655394434929,-0.11075083911418915,0.020160160958766937,-0.06548824906349182,-0.18065166473388672,-0.15653742849826813,-0.01674632541835308,0.025751883164048195,-0.12256480008363724,-0.09226522594690323,0.14424222707748413,0.09159877151250839,-0.05901108309626579,0.13537515699863434,-0.059862881898880005,0.14346858859062195,0.02999047189950943,0.124898262321949,0.11660672724246979,-0.04920061677694321,0.12782061100006104,0.10473936051130295,0.028488164767622948,0.03387627378106117,0.07311955094337463,0.029620444402098656,-0.009766540490090847,-0.10991103202104568,-0.05460105463862419,-0.061844468116760254,