{"runId":41,"createdAt":"2026-07-19T15:38:45.611Z","modelFamily":"mlp_v2","hiddenLayers":[32],"inputSize":590,"outputSize":59,"outputNumbers":[1,2,3,4,5,6,7,8,9,10,11,12,13,14,15,16,17,18,19,20,21,22,23,24,25,26,27,28,29,30,31,32,33,34,35,36,37,38,39,40,41,42,43,44,45,46,47,48,49,50,51,52,53,54,55,56,57,58,59],"weights":[{"name":"dense_Dense9441/kernel","shape":[590,32],"values":[0.06035637855529785,0.044256240129470825,0.0770428478717804,-0.08013866096735,-0.007324818521738052,0.053370192646980286,-0.10976029932498932,0.030545078217983246,0.06294529139995575,-0.042123932391405106,0.020185507833957672,-0.0035866773687303066,-0.017635172232985497,0.021167321130633354,0.05706353485584259,-0.010124634951353073,-0.0679064616560936,0.03068246878683567,0.025327403098344803,0.04611368849873543,-0.0031140572391450405,-0.09198316186666489,-0.0162054430693388,0.03336097300052643,-0.017454497516155243,0.03202246129512787,0.04580673947930336,0.0827847346663475,0.08088449388742447,0.02673303708434105,0.01881634071469307,-0.06460269540548325,0.035194575786590576,-0.02407178282737732,0.10836009681224823,0.028077270835638046,0.025824978947639465,-0.08911722898483276,0.014768167398869991,-0.016076521947979927,0.1263193041086197,0.04179659113287926,0.07993306964635849,-0.033257823437452316,0.08652898669242859,0.06603968143463135,-0.013121632859110832,0.09722431749105453,0.02256917767226696,-0.06752846390008926,0.09827276319265366,-0.03459634259343147,0.10607513785362244,-0.05136027932167053,-0.0025514073204249144,-0.07736926525831223,-0.058268945664167404,0.029536308720707893,0.0604931078851223,0.09526243805885315,0.06084592267870903,0.08614960312843323,-0.014091748744249344,0.01569809392094612,-0.06681901961565018,-0.06770528852939606,0.06036261469125748,0.060625508427619934,-0.058323200792074203,0.05611802637577057,0.019174927845597267,0.032282352447509766,-0.08838098496198654,0.011839195154607296,-0.03674431890249252,-0.12829697132110596,-0.007636425085365772,0.06468765437602997,-0.047433480620384216,0.07584365457296371,0.049112431704998016,-0.07447218149900436,-0.02170492336153984,0.06403748691082001,-0.01280990894883871,0.016127487644553185,-0.066704161465168,0.06801053136587143,-0.014714080840349197,-0.0749443992972374,-0.015342173166573048,-0.08521980792284012,-0.005600399803370237,-0.025489991530776024,0.08580281585454941,-0.035235751420259476,-0.03048069216310978,0.07346920669078827,-0.03073801100254059,0.04516734555363655,-0.06615505367517471,-0.008255585096776485,0.02280806005001068,-0.10170317441225052,-0.03601774573326111,0.01342081930488348,0.0416250117123127,-0.07674674689769745,-0.055438779294490814,-0.010254740715026855,-0.08889507502317429,0.06747837364673615,0.011007227003574371,-0.08843503147363663,0.08172108232975006,-0.07724989205598831,0.02507689967751503,-0.00664597749710083,-0.016291989013552666,0.004005311522632837,-0.04360441491007805,0.023842046037316322,0.11904948949813843,-0.07591962069272995,0.04488929361104965,-0.08024615794420242,-0.03863929584622383,-0.02204253524541855,-0.10592382401227951,0.07908062636852264,0.02998628467321396,-0.012650256976485252,-0.018766485154628754,-0.1308659017086029,0.08474893122911453,0.031701669096946716,-0.03170524537563324,0.062402091920375824,0.0830061212182045,0.10246824473142624,0.018012233078479767,0.032248929142951965,0.08212003856897354,0.06244368478655815,-0.01900940202176571,0.03445424512028694,-0.02072814665734768,-0.03859906271100044,-0.0502004399895668,0.03293430060148239,0.03255081921815872,0.04180985689163208,0.015165531076490879,0.058277979493141174,0.07359350472688675,-0.030190322548151016,0.10506591200828552,-0.035090409219264984,-0.0049748169258236885,0.003579704789444804,0.12219857424497604,-0.0070760673843324184,-0.10099384188652039,0.04646354541182518,0.09160156548023224,0.01702207885682583,-0.00044313311809673905,0.00016033579595386982,-0.07136676460504532,0.07686152309179306,0.08900086581707001,-0.0420534648001194,-0.008636574260890484,-0.03656742721796036,0.0519920252263546,0.008948841132223606,-0.08251580595970154,-0.028954027220606804,-0.07902437448501587,0.005133445840328932,-0.06874527037143707,-0.015404950827360153,-0.10646017640829086,0.03876008093357086,-0.0322621650993824,0.08100087195634842,-0.12042459845542908,-0.1049410030245781,0.007261107675731182,-0.08893153071403503,0.0734127014875412,-0.06547275185585022,0.10039183497428894,0.015838688239455223,-0.0039101047441363335,0.10790521651506424,-0.07397375255823135,0.058895330876111984,-0.022427218034863472,-0.07893718034029007,-0.08546644449234009,-0.009574241004884243,-0.020014751702547073,0.08338730782270432,0.043520238250494,0.03984951972961426,0.024063296616077423,0.10032273083925247,0.010402892716228962,-0.0380990132689476,-0.07475368678569794,0.032175082713365555,-0.0025142275262624025,0.0494183674454689,-0.03252030536532402,0.007268466521054506,0.07448308169841766,0.05100002512335777,-0.06660623848438263,-0.07334039360284805,0.029241038486361504,0.10796258598566055,0.03100752830505371,-0.0012766963336616755,-0.08555976301431656,0.09781435132026672,-0.02969885617494583,0.03910407796502113,0.05697241425514221,0.0772756040096283,-0.041210342198610306,-0.04462657496333122,0.009244823828339577,0.06759718805551529,-0.055642835795879364,0.10843755304813385,0.09108305722475052,-0.035693392157554626,-0.04124431312084198,0.003064176067709923,-0.024861043319106102,-0.008483693934977055,0.07883792370557785,0.027839617803692818,-0.05947862192988396,0.049597159028053284,-0.040231455117464066,0.05397529527544975,0.079279325902462,0.042659904807806015,0.08648613095283508,0.021959444507956505,0.03403931111097336,0.01955311745405197,0.02027343027293682,0.05243777856230736,0.06023063138127327,0.0814642608165741,-0.07291721552610397,0.06831876933574677,0.05754311755299568,0.0076475683599710464,0.042038094252347946,0.0832085981965065,0.07527612894773483,-0.04655412957072258,-0.06411930173635483,-0.004088688641786575,0.05955817922949791,-0.05935753509402275,-0.079988494515419,0.07208438962697983,-0.01909325085580349,0.0240390133112669,-0.008190940134227276,-0.09021186828613281,0.10618452727794647,-0.10357661545276642,0.08120036125183105,-0.0490940622985363,-0.08189992606639862,-0.045571938157081604,0.030436119064688683,-0.04408126324415207,0.022655487060546875,-0.03982998803257942,-0.009667516686022282,-0.05282214283943176,0.020594213157892227,0.05787244066596031,0.1144995465874672,0.05304310470819473,0.021465767174959183,0.08860962837934494,-0.008368418551981449,-0.02568049542605877,-0.09292974323034286,-0.039001282304525375,0.025859108194708824,-0.002312379889190197,0.10604479908943176,-0.04477185383439064,-0.05917763337492943,0.037502221763134,0.07967742532491684,0.09588352590799332,0.042375870048999786,0.04032638296484947,0.03240817412734032,0.012056102976202965,0.05548946559429169,-0.0006020306027494371,-0.0134991854429245,0.052106522023677826,-0.01089657936245203,-0.045889753848314285,-0.05581580102443695,-0.03732879459857941,0.02485024183988571,-0.02766033634543419,-0.0005463613197207451,0.02726714313030243,-0.07147820293903351,-0.040115442126989365,-0.037397999316453934,-0.059021834284067154,0.025542650371789932,0.008306643925607204,-0.06365310400724411,0.045922599732875824,-0.02510943077504635,0.04432491585612297,-0.07746785134077072,0.04374177008867264,-0.05952969565987587,-0.05431156978011131,0.004463490564376116,-0.014128686860203743,-0.055324357002973557,-0.039733920246362686,0.06608349084854126,-0.03473638370633125,-0.0913240984082222,-0.07197500765323639,0.06341070681810379,-0.05120687186717987,-0.0032813434954732656,0.09056498855352402,0.05914224684238434,-0.026036208495497704,0.012064551934599876,-0.06421612948179245,-0.011482106521725655,-0.03769269213080406,-0.007774177007377148,0.004830727819353342,-0.0419769287109375,-0.07979152351617813,-0.022902995347976685,-0.045026637613773346,-0.05299428105354309,0.09565751254558563,-0.019068894907832146,0.06982031464576721,0.053054142743349075,-0.08086849004030228,-0.020538313314318657,0.06571892648935318,0.039202868938446045,0.015884799882769585,0.009751351550221443,0.08043123781681061,0.09426595270633698,-0.013601244427263737,0.020234398543834686,0.040474407374858856,-0.06665216386318207,-0.0253885667771101,0.028823209926486015,-0.07474018633365631,-0.057831183075904846,0.08454815298318863,-0.04421202838420868,-0.03926707059144974,0.03456643596291542,-0.07359495759010315,0.10662969946861267,-0.07252395153045654,-0.0753595232963562,0.07178822159767151,-0.08638730645179749,0.043348170816898346,0.03254443034529686,0.035032425075769424,0.024608183652162552,-0.00963612925261259,0.0596073679625988,0.10665526241064072,0.050797007977962494,-0.07011855393648148,0.05819939076900482,0.005412816070020199,-0.02741364762187004,-0.0022741223219782114,0.058083370327949524,-0.06192917004227638,-0.09541080892086029,-0.0289765652269125,0.060615479946136475,0.01049957424402237,-0.09415417164564133,-0.049879562109708786,0.050042714923620224,0.01740390807390213,0.07307524979114532,0.019663909450173378,0.058217789977788925,0.10797444730997086,0.01737690344452858,-0.06800132989883423,0.08040814846754074,0.09984172135591507,-0.08119259774684906,-0.08167701214551926,-0.03530562296509743,0.009746808558702469,-0.07030962407588959,0.038169290870428085,-0.012449568137526512,-0.0035614666994661093,-0.00689524132758379,0.11159494519233704,-0.030481290072202682,-0.024809814989566803,0.08685951679944992,-0.041739821434020996,0.11065693199634552,0.05673428252339363,0.004975899122655392,0.08145491033792496,0.053813472390174866,-0.04079587012529373,0.09230681508779526,0.12559868395328522,-0.024149823933839798,0.0017786079552024603,0.07911281287670135,-0.05900900810956955,-0.05510234832763672,0.015371582470834255,0.050255484879016876,-0.07938478142023087,-0.08453827351331711,0.03248526528477669,-0.08076067268848419,-0.024488262832164764,0.04602174088358879,0.06709965318441391,-0.0023598645348101854,0.039244938641786575,-0.06461285799741745,0.022505907341837883,0.060791146010160446,0.02331293746829033,0.04122849926352501,-0.03346963971853256,0.11064594238996506,-0.04328916594386101,0.10085355490446091,0.016416268423199654,0.022147685289382935,0.05989209562540054,-0.024820931255817413,-0.009918306954205036,0.0931459367275238,0.08855793625116348,-0.004576527047902346,0.07202019542455673,0.10187268257141113,0.0030068526975810528,0.04325767606496811,-0.011514801532030106,0.06766483932733536,0.06757598370313644,-0.03795064240694046,-0.054818399250507355,0.0558958500623703,0.08336972445249557,-0.06961552053689957,0.07942050695419312,-0.07804248481988907,0.024181419983506203,-0.014903560280799866,-0.05085047706961632,0.060791946947574615,0.0058380295522511005,-0.04171731323003769,0.07332119345664978,-0.016634192317724228,-0.0675714910030365,-0.063325896859169,-0.0813322365283966,0.11130903661251068,0.055700674653053284,-0.022232305258512497,0.06627287715673447,0.025047900155186653,0.045574650168418884,-0.011051476933062077,-0.09438979625701904,0.07373087108135223,0.011846257373690605,0.06623052805662155,0.10624780505895615,-0.09878893941640854,0.05420173704624176,0.009745937772095203,-0.04618830978870392,-0.04805900901556015,0.0236196331679821,0.09998560696840286,0.06134025380015373,0.10680089890956879,-0.006037455052137375,0.1123628243803978,-0.0032453674357384443,-0.03196107596158981,0.06339475512504578,-0.10056348145008087,0.0350925475358963,-0.10808457434177399,0.005936751142144203,0.040635354816913605,-0.005731529556214809,-0.008536091074347496,0.022891677916049957,0.022379539906978607,-0.0688958615064621,0.08706960082054138,0.08038495481014252,-0.040509290993213654,-0.06656686216592789,0.03566956892609596,-0.00884921196848154,0.060747914016246796,0.007584028411656618,-0.04101842641830444,-0.0473521463572979,-0.002215402899309993,0.0034052615519613028,0.011904253624379635,0.02238682471215725,-0.06472302228212357,0.0497039258480072,-0.03912515938282013,0.048150211572647095,0.015958208590745926,-0.10010790824890137,-0.07619833946228027,0.020507322624325752,0.09817782789468765,-0.09027770906686783,-0.011763984337449074,-0.05578390508890152,-0.030650237575173378,-0.09019412845373154,-0.1178351566195488,-0.02197635918855667,0.019098633900284767,0.08677683025598526,0.0660388395190239,-0.01613500528037548,-0.03535851463675499,0.017826616764068604,0.12287744879722595,0.08344166725873947,-0.07104682922363281,-0.0002832673490047455,0.07766912877559662,0.06866852194070816,-0.05643747001886368,0.0350615531206131,0.01987338997423649,-0.041395992040634155,-0.0034817373380064964,-0.044391486793756485,0.13322217762470245,0.12441559135913849,-0.009441187605261803,-0.0137363625690341,-0.08003074675798416,0.12876743078231812,-0.03995063900947571,-0.042947329580783844,-0.051147930324077606,-0.06620722264051437,0.0759853795170784,-0.06332501024007797,-0.03174871206283569,0.045989029109478,-0.03169646114110947,-0.11947561055421829,0.09948092699050903,0.020224301144480705,0.03310824930667877,0.0035333887208253145,-0.06485315412282944,0.0765429139137268,0.055904969573020935,-0.02389044128358364,0.012711545452475548,-0.032888587564229965,0.02167932689189911,-0.0802377313375473,0.047500576823949814,0.08159397542476654,-0.0905030220746994,-0.08346229791641235,0.01194734312593937,0.11001265794038773,-0.036786798387765884,0.0670858770608902,0.042139578610658646,0.10177090764045715,0.017680518329143524,-0.02336888574063778,0.03880078345537186,0.0631379634141922,0.003310092957690358,0.009544512256979942,-0.073499895632267,-0.008490821346640587,0.003905500518158078,-0.033329710364341736,-0.04245464876294136,-0.013143608346581459,0.001434497651644051,0.043478310108184814,-0.04889588803052902,0.09447932243347168,0.029083475470542908,0.04188954457640648,-0.027370518073439598,-0.02678743749856949,0.057420287281274796,-0.005038262344896793,0.0010994916083291173,0.039474934339523315,-0.033181436359882355,0.028912972658872604,-0.021801965311169624,-0.06084839999675751,-0.037374213337898254,0.07824626564979553,0.012374737299978733,0.04911075904965401,0.03958713635802269,-0.0392938032746315,0.016120072454214096,-0.06690056622028351,0.02521732822060585,-0.06056447699666023,-0.0314539335668087,-0.08657848089933395,0.06508121639490128,-0.12105336785316467,-0.006039882078766823,0.05077006667852402,0.012491084635257721,-0.044236913323402405,0.002642605220898986,0.042589690536260605,0.03986205905675888,0.09335224330425262,0.04458688199520111,-0.098248191177845,0.02158491127192974,0.015261825174093246,-0.03309217095375061,-0.09738974273204803,0.06763684004545212,0.009172890335321426,0.06976328045129776,-0.07339265197515488,-0.07725591212511063,0.07771839201450348,0.046450261026620865,0.03944021463394165,0.04626423865556717,0.05543752759695053,0.05695291981101036,0.09383818507194519,-0.015751885250210762,-0.10120643675327301,0.0394468754529953,0.027460502460598946,0.0864919126033783,0.0823482945561409,0.03389247506856918,0.033373527228832245,-0.060115277767181396,-0.06183074042201042,-0.008266753517091274,-0.05748843401670456,-0.04208055138587952,-0.0687045231461525,0.07455204427242279,0.07836693525314331,-0.07009950280189514,0.08305885642766953,0.07770288735628128,-0.04974845051765442,0.04136267676949501,-0.059511832892894745,0.028201548382639885,0.08931416273117065,-0.03293676674365997,-0.04677043482661247,0.044586002826690674,0.06614287197589874,0.0950344130396843,0.0016966137336567044,0.008051597513258457,-0.024013731628656387,0.07378106564283371,0.014447684399783611,-0.0922759622335434,0.019354546442627907,0.056796297430992126,0.03533753752708435,0.00027558955480344594,0.03857758268713951,-0.031238118186593056,-0.012144655920565128,-0.05654824525117874,0.07013942301273346,0.013601592741906643,0.019972991198301315,0.08245072513818741,-0.023206796497106552,-0.049954403191804886,-0.09105774760246277,0.05729863792657852,-0.08037003874778748,-0.0023658177815377712,-0.02496550790965557,-0.048469994217157364,0.016897307708859444,0.02347501367330551,-0.02631756290793419,0.04329478368163109,-0.049111347645521164,-0.048023857176303864,-0.1187419593334198,-0.0031624953262507915,0.08320310711860657,-0.06024778261780739,-0.06998256593942642,0.028432516381144524,0.04160439968109131,-0.03135174512863159,-0.11089478433132172,0.047553304582834244,-0.03740168735384941,0.041838712990283966,-0.10273566097021103,0.008028186857700348,0.015092584304511547,-0.010445642285048962,0.10414251685142517,0.07466483861207962,-0.05668889731168747,0.07204212993383408,0.13553151488304138,-0.047990214079618454,0.0487801618874073,0.05058595538139343,0.030286232009530067,-0.05103127658367157,0.048003584146499634,0.009994369000196457,0.007893861271440983,-0.004937760066241026,-0.01177638117223978,-0.07419822365045547,-0.07670783251523972,0.07989144325256348,0.00799483060836792,-0.019720271229743958,0.06985510885715485,0.011712750419974327,-0.029978839680552483,-0.004458743147552013,-0.04038133844733238,0.1155075952410698,0.11516295373439789,0.003994050435721874,0.052493054419755936,0.06813908368349075,0.026402655988931656,0.02317001111805439,0.05065449699759483,-0.09598410874605179,0.06614989042282104,0.051902174949645996,0.06416910886764526,-0.02432725764811039,0.08388131111860275,-0.027177348732948303,0.07901214063167572,-0.042636096477508545,0.026238437741994858,0.09370499104261398,0.10706424713134766,-0.09897340089082718,0.06627240031957626,0.004166625440120697,0.0521145798265934,0.033626191318035126,-0.07239428907632828,-0.0621214434504509,-0.11001239717006683,-0.007070154882967472,0.0729709044098854,-0.06534705311059952,-0.08131808042526245,-0.06357697397470474,-0.0308353453874588,0.09390506893396378,0.045420724898576736,0.03261218219995499,-0.08746903389692307,0.06043340638279915,-0.06721781194210052,0.024967217817902565,0.0034077540040016174,0.01852083019912243,-0.05730024352669716,0.006261768750846386,0.02097088098526001,0.06059747561812401,0.04143553972244263,0.020156947895884514,-0.004148613661527634,0.019100237637758255,0.1007830873131752,-0.051097191870212555,-0.03182107210159302,0.1238437220454216,-0.008205578662455082,0.04616427794098854,-0.029304929077625275,0.04704296216368675,-0.01803358644247055,0.07259286940097809,-0.06367052346467972,-0.08050911128520966,0.057538148015737534,-0.028711514547467232,0.030477341264486313,-0.05889660120010376,0.0367802195250988,0.05411803349852562,0.06522000581026077,0.051729097962379456,0.10591083765029907,0.033623259514570236,-0.02905087172985077,0.04478662461042404,0.09938835352659225,0.013982606120407581,-0.02981811948120594,-0.05169297009706497,0.025800686329603195,0.03883761167526245,0.05172840133309364,0.014768349006772041,-0.05543484538793564,-0.02220573090016842,0.07403944432735443,0.03950389847159386,0.09587506949901581,0.078292116522789,-0.0024710397701710463,0.10051272809505463,-0.04178810492157936,-0.07900651544332504,0.0647449642419815,0.09907126426696777,0.03903037682175636,-0.07777280360460281,0.061531879007816315,0.11229009926319122,-0.02202782966196537,0.01086478866636753,0.035974569618701935,0.05694799870252609,0.07263519614934921,-0.037948619574308395,0.1538180559873581,0.03205873444676399,0.0770084336400032,-0.01953939162194729,0.0943082943558693,0.012742707505822182,0.036172591149806976,0.02950993739068508,0.05750393494963646,0.049156177788972855,-0.016176842153072357,-0.04432441666722298,0.10330019146203995,-0.07133502513170242,0.11136650294065475,0.04105864465236664,0.01517134066671133,-0.06620539724826813,0.11734771728515625,-0.05515880510210991,0.09589830040931702,0.016145650297403336,-0.07875385135412216,0.06561129540205002,-0.0813855454325676,-0.040130022913217545,0.0032019000500440598,0.09268582612276077,-0.0018947552889585495,-0.009748070500791073,-0.019270438700914383,-0.09726391732692719,-0.030823644250631332,-0.04489459469914436,0.047187287360429764,0.02102726697921753,-0.03200194984674454,-0.07711027562618256,0.054774411022663116,0.011674108915030956,0.0686660185456276,-0.0031546533573418856,0.08886010944843292,0.01836942322552204,0.0764131247997284,0.09604696184396744,-0.006914729252457619,0.005279675591737032,0.04956599324941635,-0.027176372706890106,0.01012338139116764,0.0534374825656414,0.036843441426754,0.0510530099272728,0.012981091625988483,-0.08713284879922867,-0.0026859452482312918,-0.0112513592466712,-0.02069609984755516,0.09447437524795532,0.039986200630664825,-0.07216031104326248,0.12470659613609314,0.030599772930145264,0.002106939908117056,0.07721614092588425,-0.0019228215096518397,-0.07511532306671143,-0.013917099684476852,-0.014519290067255497,-0.09250150620937347,-0.05954388156533241,0.07955210655927658,0.10634806752204895,-0.03684801235795021,-0.0571371465921402,0.09421178698539734,0.009414573200047016,-0.029388507828116417,-0.04018092527985573,0.05564690753817558,0.020445095375180244,-0.07349444180727005,-0.0990670695900917,0.08586110919713974,0.017725706100463867,-0.04964496195316315,-0.06285370886325836,0.03889777138829231,0.017708079889416695,0.08371645957231522,0.015562322922050953,-0.028203114867210388,0.08420106768608093,0.11869379132986069,-0.04462408274412155,-0.05987084284424782,0.04879038408398628,0.02077457495033741,-0.061308059841394424,-0.12332930415868759,0.0005546471220441163,-0.003503585932776332,-0.04738986864686012,-0.01181913074105978,0.04423084855079651,-0.06221634894609451,-0.01949913240969181,-0.024958724156022072,-0.05926118791103363,-0.009964690543711185,0.06485221534967422,0.046178609132766724,0.036542464047670364,0.016303742304444313,0.11879727244377136,-0.023826604709029198,-0.0830981656908989,-0.03128468245267868,0.03414569050073624,-0.10022155940532684,0.012576324865221977,0.038797806948423386,0.06621120870113373,0.06829073280096054,-0.0317692793905735,-0.05737495422363281,-0.12400327622890472,0.04531523957848549,0.06432003527879715,-0.02373514696955681,-0.0671786516904831,-0.07107885181903839,0.024421490728855133,0.021093429997563362,-0.04596385359764099,0.02637852355837822,0.006103456020355225,0.00449358718469739,0.06249134615063667,0.05030417814850807,-0.03210596367716789,0.046069156378507614,-0.07802478969097137,0.025164317339658737,0.061139095574617386,-0.08970890194177628,0.09220214933156967,-0.07492717355489731,-0.10871856659650803,-0.04760696366429329,-0.06425796449184418,0.07131221890449524,0.10290122777223587,0.010689759626984596,0.039905935525894165,-0.06870779395103455,-0.01625809632241726,-0.018057141453027725,0.0636497214436531,0.08750886470079422,-0.0991918295621872,-0.05396315082907677,-0.09779158979654312,0.0178646482527256,0.02090349979698658,-0.016511883586645126,-0.06891427934169769,0.11091124266386032,-0.009341961704194546,-0.030836306512355804,0.07885285466909409,0.013186516240239143,0.0547499880194664,-0.0038613411597907543,-0.05315544456243515,-0.05389013886451721,-0.046339161694049835,-0.09022042900323868,0.10698916018009186,-0.02479642815887928,-0.02077755704522133,0.030847270041704178,-0.054025426506996155,-0.11630307883024216,0.04217846691608429,0.0002004476118599996,0.07562939077615738,-0.0207068994641304,0.0027607744559645653,-0.04058043286204338,-0.042765062302351,0.06312025338411331,-0.09098370373249054,-0.06768496334552765,-0.08094056695699692,-0.04134226217865944,-0.06904364377260208,0.029925860464572906,0.02815476804971695,-0.02345111593604088,-0.02935054711997509,-0.04009930044412613,-0.08793080598115921,0.09214751422405243,0.08950144797563553,-0.045530933886766434,0.003788231173530221,0.032437343150377274,0.06310830265283585,0.07233946770429611,-0.03176310658454895,-0.015948554500937462,0.0059217847883701324,0.09951647371053696,0.0999993160367012,0.07217452675104141,-0.0795414000749588,0.04728543013334274,-0.016137879341840744,0.03619331121444702,-0.07227683067321777,0.0932997465133667,-0.06444874405860901,-0.04639945924282074,-0.07907954603433609,-0.0717272013425827,0.005298396106809378,0.06521154940128326,-0.028454873710870743,-0.0411117747426033,0.05132210627198219,0.059347353875637054,0.07648265361785889,0.00453744363039732,-0.020808419212698936,-0.04695850983262062,0.03731542453169823,-0.13388217985630035,-0.05399741232395172,-0.07491080462932587,0.1079421266913414,-0.021378232166171074,-0.06561973690986633,-0.009804748930037022,0.11149913817644119,-0.046258073300123215,-0.019762177020311356,-0.007826797664165497,0.14110738039016724,-0.10957090556621552,-0.06259101629257202,-0.1013094037771225,-0.0463365837931633,0.07916382700204849,-0.07212620228528976,0.009102488867938519,0.01647774875164032,0.0010462597711011767,-0.055816467851400375,0.0724201574921608,-0.07258021831512451,-0.11617109179496765,0.06839494407176971,0.0986233800649643,0.056672632694244385,0.1155022382736206,-0.07827837765216827,0.02929995022714138,0.06806465983390808,0.07004789263010025,0.05817471072077751,0.024439124390482903,-0.04491478577256203,0.09172394871711731,0.03235878795385361,-0.09325837343931198,0.05897144973278046,0.06692927330732346,0.02305022068321705,-0.04183431714773178,0.03627012297511101,-0.05212794989347458,-0.015922028571367264,0.014176557771861553,-0.07732612639665604,-0.0295892134308815,0.11952115595340729,0.022474797442555428,-0.07667583972215652,-0.08066269755363464,-0.09454040229320526,-0.06916285306215286,0.06354127824306488,-0.045680951327085495,-0.06344052404165268,-0.010686974041163921,0.11227381974458694,0.0013231002958491445,-0.07465816289186478,-0.022358760237693787,-0.0071599106304347515,-0.056538090109825134,-0.08671080321073532,0.025738395750522614,0.0945097953081131,0.04573941230773926,-0.01826433837413788,0.08464067429304123,-0.020257722586393356,0.06241719052195549,0.09166675806045532,0.06669686734676361,0.112984299659729,0.061227068305015564,0.05686119571328163,0.10628620535135269,-0.05843810737133026,0.09896333515644073,0.020658528432250023,-0.10407049208879471,0.04385926201939583,0.08149334788322449,-0.01712212711572647,-0.016668830066919327,0.05320916324853897,-0.017060067504644394,0.10346261411905289,-0.019550560042262077,0.06450728327035904,0.00832380075007677,-0.08709859848022461,0.06895852088928223,-0.021833719685673714,0.0758112296462059,0.07725313305854797,0.028496233746409416,-0.05447009950876236,-0.013294999487698078,0.026981784030795097,-0.08256584405899048,0.026191471144557,-0.006898710038512945,-0.04995720461010933,-0.09648710489273071,0.06658586859703064,0.03987136483192444,0.014416116289794445,-0.12276310473680496,0.06228477507829666,0.10340859740972519,0.06873472034931183,-0.0529426671564579,0.08197738230228424,0.05129074677824974,-0.0081603042781353,-0.02428855188190937,-0.03545958548784256,-0.062431443482637405,0.09221870452165604,0.07220374792814255,0.051552239805459976,0.030702581629157066,0.008594783022999763,-0.08418391644954681,0.05286937952041626,-0.061577390879392624,-0.014840548858046532,-0.04456871747970581,-0.04630372300744057,0.08327998220920563,-0.06368625909090042,-0.02793058566749096,0.05113190412521362,-0.06231039762496948,-0.022053366526961327,0.030090268701314926,-0.0536111444234848,0.03196163848042488,0.02253876067698002,-0.012134479358792305,0.07067510485649109,-0.054497383534908295,-0.09150971472263336,0.06917154043912888,-0.0832543671131134,0.008430193178355694,-0.04294392094016075,-0.05963714048266411,-0.06704944372177124,-0.056606121361255646,-0.015311828814446926,0.05111607909202576,0.042196597903966904,-0.05402149632573128,-0.03518829867243767,-0.044410333037376404,0.07102707028388977,0.010452542454004288,-0.030445488169789314,-0.02119181491434574,0.11139166355133057,-0.049172308295965195,0.07925161719322205,0.03700295835733414,0.09066805243492126,-0.10980863124132156,0.009054169990122318,0.025498079136013985,0.0328458771109581,0.0776943638920784,0.049573324620723724,0.061019979417324066,-0.06353011727333069,0.0700356587767601,0.058476660400629044,-0.10865524411201477,-0.06616704910993576,0.0696311965584755,0.017434142529964447,0.08604427427053452,-0.06920560449361801,-0.08221518248319626,0.0517406165599823,0.08817175030708313,0.1117364838719368,0.05780841037631035,-0.07147710770368576,0.027513450011610985,-0.02853602170944214,-0.01711174286901951,0.03721727430820465,0.03356694430112839,0.10218100249767303,0.11308153718709946,-0.034516312181949615,0.023078059777617455,0.022863827645778656,-0.006285230163484812,0.041358351707458496,0.05310439690947533,-0.011371925473213196,-0.022282546386122704,-0.04170621186494827,-0.01747109182178974,0.04004063457250595,0.06497396528720856,-0.0341186448931694,-0.020964745432138443,0.09434293210506439,0.015537282451987267,-0.0769442692399025,0.09721343964338303,0.007426168769598007,0.11302286386489868,0.10400427132844925,-0.018547149375081062,0.09229134768247604,-0.01553206518292427,-0.04192494973540306,0.09770780801773071,0.08503883332014084,-0.00022433759295381606,-0.014248674735426903,0.035206008702516556,0.06466496735811234,-0.03383084759116173,-0.007028220221400261,-0.042299963533878326,-0.06291968375444412,-0.10970479249954224,-0.00868856068700552,-0.02686220034956932,0.06086805462837219,-0.00788278877735138,0.11331410706043243,-0.03715956211090088,0.01270105130970478,-0.0735248476266861,-0.05341101437807083,-0.07330086082220078,0.0841471254825592,0.006711623165756464,0.02047804556787014,-0.08008236438035965,-0.06076004356145859,-0.031198760494589806,-0.0316348560154438,-0.01635504513978958,0.014427950605750084,-0.044319991022348404,0.004544063471257687,0.026335252448916435,0.0016932537546381354,-0.041383180767297745,-0.047298088669776917,0.1259465515613556,0.08811728656291962,0.008037609979510307,-0.02226364240050316,-0.0768883153796196,0.13673867285251617,0.003343976801261306,0.005179294850677252,-0.04095369949936867,0.015132224187254906,0.07988885790109634,0.13759812712669373,0.023764247074723244,0.03817807510495186,0.028288541361689568,0.026848135516047478,-0.08997264504432678,0.025673646479845047,-0.010055210441350937,0.016502171754837036,0.029646778479218483,0.06370775401592255,-0.077049121260643,0.08774039149284363,0.01193918939679861,0.04506250098347664,-0.02161654271185398,0.058780550956726074,0.03851722180843353,-0.06394261866807938,-0.09832371771335602,-0.06501264870166779,-0.051430556923151016,0.018576476722955704,0.025432994589209557,-0.12237146496772766,-0.07049622386693954,-0.07420440018177032,-0.0364343635737896,0.029166022315621376,0.09787488728761673,-0.01927664317190647,0.0013881525956094265,0.1152811124920845,0.04058607667684555,0.1301104575395584,0.05424429476261139,0.020713966339826584,-0.07726789265871048,-0.07624755799770355,0.0524318628013134,-0.04755926877260208,-0.07073036581277847,-0.06970369070768356,-0.050283633172512054,-0.012654446065425873,0.07044972479343414,-0.05177028477191925,0.07662288844585419,0.06862197816371918,0.04733197018504143,0.06506827473640442,-0.01684674806892872,-0.08917831629514694,0.09361854940652847,-0.02810288593173027,-0.08016993850469589,-0.054928574711084366,-0.008059793151915073,-0.1070963442325592,0.05820120871067047,0.032336052507162094,0.08018218725919724,0.07732882350683212,-0.09785543382167816,0.0689288005232811,-0.03497351333498955,-0.022098638117313385,0.036551423370838165,-0.03381373733282089,0.07661845535039902,0.07223109900951385,0.052320677787065506,0.0026746620424091816,-0.0018230369314551353,0.10126262158155441,0.014011121354997158,-0.021187109872698784,-0.045875873416662216,0.037039145827293396,-0.007518164813518524,-0.09700823575258255,0.10106276720762253,-0.007983488962054253,-0.07305221259593964,-0.07432680577039719,0.026499483734369278,-0.03414439409971237,-0.026602264493703842,-0.062381841242313385,0.016801675781607628,-0.11424308270215988,0.03695928305387497,0.08666448295116425,-0.03328613564372063,0.09369494020938873,-0.03876775503158569,-0.0213021133095026,-0.048989295959472656,-0.00405748700723052,0.11084475368261337,0.07758601009845734,-0.01985326036810875,0.06872525811195374,0.06144576519727707,-0.08605075627565384,-0.01377333514392376,-0.08054962009191513,0.008203028701245785,0.08121147751808167,0.0261861402541399,-0.03296556696295738,0.025526417419314384,-0.06491749733686447,0.007939016446471214,0.02696337178349495,0.0315682552754879,-0.08067191392183304,0.026126286014914513,-0.028989335522055626,0.07337349653244019,-0.08352725207805634,-0.08106576651334763,-0.014207837171852589,0.05524586886167526,-0.03791686147451401,-0.10189428180456161,-0.04680127277970314,0.025474274531006813,-0.004638920538127422,0.0189782977104187,0.08123122900724411,-0.002764530014246702,-0.03198245167732239,-0.051611628383398056,0.04138554632663727,-0.08424200117588043,0.027212368324398994,-0.059831053018569946,0.1239764615893364,-0.10199127346277237,0.06432489305734634,0.0712299570441246,0.049884140491485596,0.07715450972318649,0.015379820019006729,0.08386508375406265,-0.0673987939953804,-0.040188420563936234,-0.09831441938877106,0.0801205113530159,0.08948937058448792,0.03124905191361904,-0.08590736240148544,-0.012889042496681213,-0.04621346294879913,-0.0361115001142025,-0.12244012206792831,0.08722783625125885,-0.02862672507762909,0.0793270617723465,-0.003686188720166683,0.033908672630786896,-0.0537215955555439,0.0678400918841362,0.0017708118539303541,-0.11938084661960602,0.07238088548183441,0.03745749220252037,-0.0647909864783287,0.029741525650024414,-0.05945931747555733,0.0626157596707344,0.03262843191623688,0.04307861253619194,0.021548578515648842,0.020830681547522545,-0.06604047864675522,0.10156223177909851,-0.0661592036485672,-0.005551384296268225,0.029137153178453445,-0.04102710634469986,-0.06047723814845085,-0.04667394608259201,0.05630152300000191,0.0021451436914503574,-0.03359011933207512,0.016091717407107353,-0.0776061862707138,0.03441625088453293,-0.01957918144762516,0.09646176546812057,0.052820272743701935,0.039676181972026825,-0.046069204807281494,0.025368481874465942,0.006418142933398485,0.12580305337905884,-0.08270765095949173,-0.031275346875190735,-0.014619989320635796,0.11317410320043564,-0.0034387814812362194,-0.00619671493768692,-0.002756915520876646,0.04826255142688751,-0.023746274411678314,-0.03073241375386715,0.005147529300302267,0.08715400099754333,-0.08946650475263596,0.07642664760351181,0.04811291769146919,0.04498067498207092,0.08282240480184555,-0.00027086061891168356,0.01143366377800703,-0.000749963684938848,-0.03743957728147507,0.053763434290885925,0.0033743022941052914,-0.01655755750834942,-0.04533180966973305,-0.059977103024721146,0.0026313690468668938,0.07697799801826477,0.012353697791695595,0.05227839946746826,0.06667285412549973,0.03713306039571762,-0.04587641358375549,-0.07423266023397446,-0.0712582916021347,0.07714268565177917,0.052561528980731964,0.04216746240854263,0.08801793307065964,0.10621720552444458,-0.0790371373295784,-0.03189428150653839,-0.10284353792667389,-0.004367280751466751,0.0423097088932991,0.02591026946902275,0.06070869788527489,-0.07123395800590515,0.10196562111377716,-0.022636767476797104,-0.015415271744132042,-0.04607095941901207,-0.017792711034417152,0.01379163283854723,0.05641774460673332,-0.03484642878174782,-0.005733231548219919,-0.05779773369431496,-0.005251242313534021,0.03339973837137222,-0.007296143099665642,-0.02948339469730854,-0.011052168905735016,0.04470973461866379,-0.0564107708632946,0.02981904149055481,0.023179102689027786,-0.01960250362753868,-0.044334013015031815,0.06083289533853531,-0.016436075791716576,0.11281248927116394,-0.0762752965092659,0.05183553323149681,-0.024380316957831383,0.035833973437547684,-0.04293065890669823,-0.08521421998739243,0.06387154012918472,0.09058690071105957,-0.05276988819241524,-0.08600395172834396,0.01836308278143406,0.042841508984565735,-0.0007528049754910171,-0.02421756274998188,0.08757622539997101,0.058383237570524216,0.0685463398694992,0.081101194024086,-0.04205608740448952,-0.06617183983325958,0.012885426171123981,0.01374463178217411,0.073154017329216,0.04861810803413391,-0.08348143100738525,0.03338417038321495,-0.03014453500509262,-0.06376680731773376,0.013807717710733414,-0.035365521907806396,-0.022646531462669373,0.09784521162509918,0.11016467958688736,-0.01317579671740532,-0.04757198691368103,0.09114935249090195,-0.03583027422428131,-0.014226535335183144,0.06328549236059189,0.01773703470826149,-0.022466765716671944,0.03920575603842735,0.01923457533121109,-0.05602690204977989,0.02098809741437435,-0.013125941157341003,0.07151167839765549,0.04834979772567749,0.042737141251564026,-0.08779361099004745,-0.018472690135240555,-0.03720046207308769,0.01577705517411232,0.0351901613175869,-0.05089815333485603,0.07432681322097778,0.0224224254488945,0.027253583073616028,0.06442525237798691,0.06384257972240448,-0.10078307241201401,0.03906729817390442,0.12573041021823883,0.09196524322032928,0.02569526433944702,0.07228121906518936,0.01575361005961895,0.0063114468939602375,-0.005943037569522858,-0.04638487845659256,0.05414142459630966,0.10016345232725143,-0.039162978529930115,-0.00291170715354383,0.06573661416769028,-0.04725460708141327,0.11238154023885727,0.021896937862038612,0.038531381636857986,-0.007861286401748657,0.06336318701505661,-0.020010901615023613,0.011642903089523315,0.0759081318974495,-0.021045256406068802,-0.0021073343232274055,-0.07515091449022293,0.07321243733167648,-0.015268155373632908,0.008973507210612297,-0.007304223254323006,-0.009513719007372856,-0.06390761584043503,0.011425596661865711,0.09631939232349396,0.10065849870443344,0.029199590906500816,0.06712082028388977,-0.031497519463300705,0.0009906620252877474,0.046437665820121765,-0.03237028047442436,-0.03216417133808136,-0.09687675535678864,0.060125041753053665,-0.05523526296019554,-0.006234008818864822,0.09355909377336502,0.08723480999469757,-0.012439207173883915,-0.07127854973077774,0.05616093799471855,0.10132937878370285,0.04703047126531601,0.12387824058532715,-0.10314764827489853,0.06668299436569214,0.02322511188685894,0.07724759727716446,-0.05086677521467209,0.06538619101047516,-0.02135719358921051,-0.06262492388486862,0.05100908875465393,0.05806780979037285,0.07952786237001419,-0.020529691129922867,0.10313545912504196,0.04663490504026413,0.004426521249115467,-0.01860116980969906,0.05825583636760712,-0.0055023985914886,0.011849585920572281,0.06103992462158203,-0.053442779928445816,0.09606145322322845,0.030693041160702705,-0.03608298301696777,0.055595770478248596,-0.10552710294723511,-0.04845494031906128,0.10920002311468124,-0.012932845391333103,0.022126229479908943,-0.027202323079109192,-0.01061172317713499,0.042498502880334854,0.053139492869377136,0.07544727623462677,0.060738351196050644,-0.05784183740615845,-0.04227275028824806,-0.1091829165816307,0.08375680446624756,-0.005015931557863951,-0.05089282989501953,-0.08147024363279343,-0.0019559625070542097,0.06594783812761307,-0.03661273792386055,0.030307216569781303,-0.029716596007347107,0.0017276385333389044,-0.01929246261715889,0.08406784385442734,-0.09789124131202698,0.033205796033144,-0.01271031890064478,0.06443597376346588,0.03271380811929703,0.08676651865243912,0.025671347975730896,0.023693721741437912,-0.08918781578540802,-0.009717592969536781,0.016532691195607185,0.020991887897253036,0.01624925807118416,0.07758700102567673,-0.010173698887228966,0.08516739308834076,-0.10084306448698044,-0.022480137646198273,-0.04165561497211456,-0.031508658081293106,0.06143655627965927,0.06116599589586258,-0.022504625841975212,0.09164349734783173,-0.054352711886167526,0.03990583121776581,-0.08286422491073608,0.03359723836183548,-0.07382283359766006,0.09255298227071762,0.06342092901468277,-0.045396775007247925,0.08914535492658615,0.1273234635591507,0.03607131540775299,-0.08350177109241486,0.01669228821992874,0.05797808617353439,-0.07814306020736694,0.00447189062833786,0.0024156479630619287,0.11186397075653076,-0.07196948677301407,0.022582320496439934,-0.03969794511795044,0.07458413392305374,0.020517421886324883,-0.015222216956317425,-0.05052880570292473,-0.06496952474117279,0.03198770806193352,-0.06981821358203888,0.049224141985177994,-0.023333534598350525,0.059404462575912476,-0.034382712095975876,0.02313004806637764,-0.07992405444383621,-0.03993239253759384,0.027691612020134926,-0.023607734590768814,0.06770800054073334,0.09394476562738419,-0.0707467719912529,-0.12220075726509094,0.12354552000761032,0.07981226593255997,0.022995466366410255,-0.06418931484222412,-0.0482405386865139,0.025526706129312515,0.0027178674936294556,-0.015404683537781239,-0.08444410562515259,0.027745336294174194,0.058025576174259186,-0.022154003381729126,-0.043323736637830734,0.09624819457530975,-0.0014699085149914026,0.032743364572525024,0.08151435852050781,0.04706935957074165,-0.05339523032307625,0.04478633776307106,0.06967774778604507,0.04821482300758362,-0.06885828822851181,-0.03943978250026703,0.020741472020745277,-0.06435584276914597,0.1107502356171608,-0.08473620563745499,0.08906581252813339,-0.03088589571416378,0.011877051554620266,0.061327897012233734,0.008866123855113983,0.07261491566896439,0.027611371129751205,0.11394648253917694,0.0028434821870177984,-0.06991484016180038,-0.08091136068105698,0.06612327694892883,0.03948459029197693,-0.059784941375255585,0.038711246103048325,0.10372655838727951,0.041709769517183304,0.010488719679415226,0.014552054926753044,-0.009625475853681564,-0.006623349618166685,-0.008138817735016346,-0.05437806621193886,-0.051436182111501694,0.06323803961277008,0.016465390101075172,-0.06031502038240433,0.05212868005037308,0.051729489117860794,-0.012249632738530636,-0.03532341867685318,-0.02943742275238037,-0.03543850779533386,0.024362720549106598,-0.09786340594291687,0.06263013929128647,-0.10461223870515823,0.09667091071605682,-0.06324780732393265,0.0055355532094836235,-0.034308481961488724,-0.03894226253032684,-0.03320496529340744,-0.026742875576019287,-0.059154339134693146,-0.012185242027044296,0.00045944337034597993,-0.0011948560131713748,-0.06096014752984047,-0.015157756395637989,0.07047072798013687,-0.11895684897899628,0.06291846185922623,-0.08835723996162415,-0.028528360649943352,-0.1281929463148117,0.030558209866285324,-0.11232270300388336,0.06732799112796783,-0.004707861226052046,-0.07773187011480331,0.10818307101726532,-0.029431071132421494,0.06103203445672989,-0.004760136362165213,0.035041872411966324,0.007862269878387451,-0.10473373532295227,0.05570141598582268,0.020771270617842674,0.04818294942378998,0.07972658425569534,0.00581405172124505,-0.09334055334329605,-0.025922464206814766,0.0967465490102768,-0.04160599410533905,0.07921083271503448,-0.11334115266799927,0.015290357172489166,0.04547037184238434,0.06423061341047287,-0.05563865229487419,0.05925135686993599,-0.051041264086961746,-0.06500362604856491,-0.03088029846549034,0.027977660298347473,0.0025951291900128126,-0.04362509027123451,-0.09827905893325806,-0.003849639790132642,0.046774521470069885,-0.04069953039288521,-0.0015522968024015427,0.06219783425331116,-0.01766754314303398,-0.09325647354125977,-0.1307729333639145,-0.06164836511015892,-0.0002847290597856045,0.09647183120250702,0.05197715386748314,-0.09431041777133942,0.0016628006706014276,-0.008697573095560074,0.06297361850738525,-0.0022216085344552994,0.10616626590490341,0.02545991726219654,0.009895161725580692,0.014168532565236092,-0.09452705085277557,-0.009359843097627163,0.03650691732764244,-0.06444455683231354,-0.019766932353377342,0.002563751069828868,0.043565619736909866,0.04691086709499359,0.06236394867300987,-0.011954212561249733,-0.10316361486911774,-0.029082605615258217,0.06172274798154831,0.07580742985010147,-0.045567743480205536,0.028789902105927467,0.052959948778152466,-0.08532954007387161,0.015596258454024792,0.036856647580862045,0.09524690359830856,0.03646482899785042,0.07993210107088089,-0.04091939330101013,-0.09169306606054306,0.02500871755182743,-0.13719956576824188,0.04552160203456879,-0.06960917264223099,0.07647049427032471,-0.09581895172595978,-0.05056001991033554,0.024115199223160744,0.08866830170154572,0.09094063937664032,0.06371046602725983,-0.01629849337041378,0.0690288096666336,-0.02274654619395733,0.08189044892787933,-0.060819268226623535,0.06358948349952698,-0.042725611478090286,-0.015580203384160995,0.002729009371250868,-0.051031097769737244,0.07390162348747253,-0.08461174368858337,0.06443408876657486,-0.09105132520198822,0.1213424950838089,0.09649114310741425,0.05770798772573471,0.006572768557816744,0.07403143495321274,-0.08904740959405899,0.1021922156214714,0.10556566715240479,-0.08112604916095734,-0.01989646628499031,-0.09787993878126144,0.0546426884829998,0.03201694414019585,-0.023300575092434883,0.02852725051343441,-0.06057092174887657,0.056526508182287216,-0.03490721806883812,0.049816351383924484,-0.025790968909859657,0.008180651813745499,-0.011289536021649837,0.05892547592520714,0.0013679383555427194,-0.04536464437842369,0.04855728521943092,0.12029062211513519,0.06339172273874283,0.0907403752207756,-0.0441548191010952,-0.03697149455547333,-0.010237625800073147,0.0031993871089071035,0.03919454291462898,0.05418631434440613,0.05374675244092941,0.020304715260863304,-0.07569116353988647,0.04313134402036667,0.05543620511889458,0.05148804560303688,0.06043040007352829,-0.031215321272611618,0.04743783548474312,-0.003146936884149909,0.05472872033715248,-0.05381812900304794,-0.029759233817458153,0.1255466789007187,0.11405126750469208,-0.11284296959638596,-0.08999397605657578,0.03342438116669655,0.019736340269446373,0.00038415889139287174,-0.08851832896471024,0.03423396497964859,0.03249163180589676,0.05308666080236435,-0.019776100292801857,0.09005230665206909,-0.036111798137426376,0.009685343131422997,0.05057905241847038,-0.0982823446393013,0.06328219175338745,0.0513153150677681,0.059893231838941574,-0.010641545057296753,0.033857353031635284,-0.0075118266977369785,-0.06656841933727264,0.0004670432535931468,0.13733729720115662,0.02916133403778076,-0.025276627391576767,0.06721307337284088,-0.01855974644422531,-0.00241078226827085,0.09621671587228775,0.04284694045782089,-0.09119466692209244,-0.058272555470466614,0.029029466211795807,0.027436792850494385,-0.012464970350265503,0.018343495205044746,0.08644641935825348,0.048387158662080765,-0.09519660472869873,-0.10778763145208359,0.049172110855579376,0.0333394892513752,-0.05792923644185066,-0.06340677291154861,0.00015049138164613396,-0.023948879912495613,-0.07459426671266556,-0.0960707813501358,0.1256219446659088,0.055745929479599,0.01921037584543228,0.02121667005121708,0.03728637844324112,0.021272793412208557,-0.014249595813453197,0.010141273029148579,-0.005091006867587566,-0.05135037750005722,-0.007502167019993067,-0.08576195687055588,-0.019066723063588142,0.03950053080916405,0.06186193972826004,0.008401208557188511,-0.07362006604671478,-0.0024058339186012745,-0.0014929627068340778,-0.0010331497760489583,-0.08890189975500107,-0.06919190287590027,-0.025435974821448326,-0.04936220124363899,0.10198754817247391,0.08139614760875702,-0.030313901603221893,-0.08881277590990067,-0.04730462655425072,-0.04036959633231163,-0.027665914967656136,-0.012249568477272987,0.05149802193045616,-0.050137635320425034,0.04448186606168747,0.08955977112054825,-0.07587770372629166,-0.09241925179958344,-0.041699398308992386,-0.05686023086309433,-0.014330447651445866,0.05526161193847656,-0.02670566365122795,0.09295736253261566,0.0815868005156517,0.058540135622024536,-0.009871798567473888,-0.013343356549739838,0.04214983806014061,-0.06981241703033447,-0.0345844142138958,0.08005785942077637,-0.07793789356946945,-0.05566338822245598,-0.008637947030365467,-0.05341636762022972,0.07464119046926498,0.08027394115924835,0.09030049294233322,0.10395537316799164,0.02840418741106987,0.09384487569332123,-0.026887698099017143,0.03967685624957085,-0.06868226826190948,-0.06330297142267227,-0.0183182954788208,-0.07334920018911362,0.053401049226522446,0.03923617675900459,0.04394884780049324,-0.01990867406129837,-0.018357425928115845,-0.07413146644830704,-0.06577997654676437,-0.08658752590417862,0.07896454632282257,-0.03455048426985741,-0.0432673878967762,0.08323182910680771,-0.09917648136615753,-0.10358844697475433,0.0009212159784510732,-0.04826672002673149,0.0005897515220567584,0.03579806163907051,-0.08135803043842316,-0.020155146718025208,0.048888202756643295,0.010645020753145218,0.08058281987905502,0.14367139339447021,-0.04355179890990257,-0.05822484567761421,-0.09910187125205994,-0.0004899270716123283,-0.03739658370614052,-0.08441630750894547,-0.10447685420513153,-0.0042778667993843555,0.020223964005708694,-0.00751710869371891,0.08060543239116669,0.11269639432430267,-0.04672453925013542,0.018301593139767647,0.048630766570568085,0.04447503387928009,-0.02555513195693493,0.011187569238245487,0.10198958963155746,-0.040424540638923645,0.054476577788591385,-0.05581500381231308,0.05613259971141815,-0.026240220293402672,-0.05389504134654999,-0.06777410954236984,0.03428089991211891,0.12368699163198471,0.12908373773097992,0.03268067538738251,-0.09744836390018463,0.04372156783938408,0.05198051035404205,-0.03139146417379379,-0.02661595493555069,-0.0148484380915761,0.04394785687327385,0.055318720638751984,0.05652821809053421,-0.058313801884651184,-0.061483949422836304,0.09661500155925751,0.09490257501602173,-0.07245311886072159,-0.03724933788180351,0.10654470324516296,0.06460730731487274,-0.07768223434686661,-0.062430329620838165,0.07060078531503677,0.01094869151711464,0.04454590752720833,0.05005328729748726,-0.009759606793522835,0.09684771299362183,0.004391501657664776,-0.10191686451435089,-0.02804076485335827,0.06773287057876587,0.07654889672994614,0.0588923878967762,-0.0000013216194929555058,-0.043609485030174255,0.01030301209539175,0.07026234269142151,-0.1093706488609314,-0.04550930857658386,-0.04952998459339142,-0.03172222152352333,0.043267108500003815,0.022562533617019653,0.09239117056131363,-0.07239104807376862,0.04801386594772339,-0.008008169941604137,0.0642513558268547,0.11170349270105362,-0.06467396765947342,0.10796473920345306,0.07845478504896164,0.04681940749287605,0.009672022424638271,0.06880725920200348,-0.13350491225719452,0.08192441612482071,-0.09200015664100647,0.10901309549808502,0.025051893666386604,0.006046517752110958,-0.02427290752530098,0.019867965951561928,0.0023863092064857483,0.0067205484956502914,-0.11612647026777267,-0.024373071268200874,-0.02426796965301037,-0.09667263925075531,0.03653864562511444,-0.054205335676670074,0.08927746117115021,0.07773622870445251,0.016798973083496094,0.049885235726833344,0.05279043689370155,-0.06282179802656174,-0.012750481255352497,-0.05371937155723572,-0.06912238895893097,0.0901288315653801,-0.04044947400689125,-0.020797912031412125,0.048327259719371796,-0.014621400274336338,0.021672798320651054,-0.018370451405644417,-0.040393903851509094,0.09095581620931625,-0.0420774482190609,-0.005931776016950607,-0.03238385170698166,0.035622142255306244,0.009636320173740387,0.05866507068276405,0.08723485469818115,0.0748775526881218,0.0037471626419574022,0.03402062505483627,0.029024941846728325,0.04773365333676338,-0.013917645439505577,0.06578565388917923,0.04607848823070526,0.060222409665584564,-0.08717673271894455,0.014664278365671635,-0.06825455278158188,0.08526812493801117,0.010203501209616661,-0.018679507076740265,0.05425461381673813,-0.0965069904923439,0.04969918727874756,-0.02791691944003105,0.1175416111946106,0.06617140024900436,-0.05862057954072952,0.0890430435538292,0.019212614744901657,-0.08838091045618057,-0.012401269748806953,0.041277095675468445,0.004712752532213926,-0.08863320201635361,0.04851188883185387,-0.02267526276409626,0.01888466253876686,-0.02908577024936676,-0.02422090619802475,0.006041430868208408,0.034673016518354416,-0.039727143943309784,-0.027292389422655106,-0.02428143471479416,-0.06748345494270325,-0.0003883147146552801,0.09441481530666351,-0.055118050426244736,-0.05380455031991005,-0.08192383497953415,-0.014320340007543564,-0.01324472390115261,0.05983604118227959,0.048391520977020264,-0.029986919835209846,-0.03229319304227829,-0.04669798165559769,0.12109534442424774,0.09313195943832397,0.06809256225824356,0.004267475567758083,0.019342711195349693,-0.08149471133947372,0.012181279249489307,-0.07160546630620956,-0.07091172784566879,-0.11813268065452576,-0.03360574692487717,0.07610440999269485,0.03190537914633751,-0.015427489764988422,-0.0712801143527031,0.028494276106357574,-0.04779050126671791,0.06125855818390846,0.06589066237211227,-0.0913785770535469,0.06429186463356018,-0.08631367981433868,-0.06318505853414536,0.05188683420419693,0.0363905094563961,0.06412486732006073,0.009620550088584423,-0.060177747160196304,-0.01592525653541088,0.022626223042607307,-0.011949742212891579,0.006001980975270271,0.054437845945358276,0.057517874985933304,-0.025973809882998466,0.024289723485708237,-0.028424615040421486,-0.02683716081082821,0.01441572979092598,0.016222510486841202,-0.024241134524345398,-0.011972636915743351,0.0861782431602478,0.03640351817011833,0.09549127519130707,-0.06857172399759293,0.0022009501699358225,-0.10943102091550827,0.048121675848960876,-0.027465125545859337,-0.03455064445734024,0.02245565876364708,0.0691443607211113,0.03756090998649597,0.10926713049411774,-0.07202374935150146,-0.07683335244655609,-0.018389109522104263,-0.04733723774552345,0.024092232808470726,0.010255182161927223,-0.07409534603357315,0.08943300694227219,0.07644473016262054,0.12821409106254578,0.09253238141536713,-0.05750563368201256,0.008403787389397621,0.011258861050009727,0.008619348518550396,-0.09033028781414032,-0.08827035874128342,-0.1066209077835083,0.015895375981926918,0.15040220320224762,0.07909524440765381,0.0574834980070591,-0.030456382781267166,0.06429138779640198,-0.05511646717786789,-0.11694740504026413,-0.016691897064447403,0.09601391851902008,0.045780181884765625,-0.07964488118886948,0.051968108862638474,-0.06821512430906296,-0.06347453594207764,0.08315470069646835,-0.0518905334174633,-0.04114801064133644,-0.05238153785467148,-0.003149457508698106,0.09670628607273102,-0.01786099188029766,0.0971631184220314,0.01998201757669449,0.05872150510549545,0.07442741096019745,-0.08591483533382416,-0.06807079911231995,0.013816743157804012,0.0814250260591507,-0.04257291927933693,-0.06517499685287476,0.051291514188051224,0.031126290559768677,0.012341036461293697,0.05452597141265869,-0.01168442890048027,-0.10990440100431442,-0.039018288254737854,-0.04108976572751999,0.010407569818198681,0.06514709442853928,0.03811296448111534,-0.019960926845669746,-0.03568165749311447,-0.03457321226596832,0.09038400650024414,-0.03912806510925293,0.09506002068519592,-0.05691768601536751,0.025755545124411583,-0.06157935410737991,0.03031463921070099,-0.0049901665188372135,0.046766024082899094,0.014165676198899746,0.09465205669403076,0.000090235065727029,-0.07205989211797714,0.09729696065187454,0.002623109146952629,-0.024248385801911354,0.016786223277449608,0.0307247806340456,0.04411165043711662,0.037650465965270996,0.028101826086640358,-0.07179166376590729,-0.06657706201076508,0.043835729360580444,0.08739197999238968,-0.019484225660562515,0.0033025508746504784,0.02384284883737564,0.03559020161628723,0.04467209056019783,-0.011086552403867245,-0.01308487355709076,-0.014674642123281956,0.017049793154001236,0.0011373941088095307,0.10418794304132462,-0.026358915492892265,0.006030682008713484,0.02099289372563362,-0.0163644477725029,0.10080938786268234,0.09427016973495483,-0.0970318466424942,-0.08754860609769821,0.0656166672706604,0.019035372883081436,-0.02677093632519245,-0.08228164166212082,0.05839860811829567,-0.084812693297863,0.08876995742321014,-0.005050599575042725,-0.006861453410238028,-0.004856616724282503,0.11882200092077255,-0.02101808600127697,0.09325601905584335,0.052163757383823395,-0.05767050385475159,0.06723318248987198,-0.005620559211820364,0.08357934653759003,-0.018151892349123955,0.027377519756555557,-0.037888579070568085,-0.08248826861381531,0.027130475267767906,0.10541440546512604,-0.00886215828359127,-0.057444993406534195,-0.07408381998538971,0.0974016860127449,0.0417473129928112,0.06983674317598343,-0.016007527709007263,-0.0026090603787451982,-0.03258824720978737,0.05292554572224617,-0.1007460430264473,-0.038845404982566833,-0.09720751643180847,-0.06937088072299957,0.08641040325164795,0.06403209269046783,0.07289685308933258,-0.006257157772779465,0.10731418430805206,-0.012203405611217022,-0.07036925107240677,0.06244217976927757,0.08415599912405014,0.032764967530965805,0.006999456323683262,-0.008502740412950516,0.04458451643586159,-0.031090691685676575,0.04236766695976257,-0.00845519732683897,-0.039018940180540085,-0.000696077011525631,0.043413106352090836,0.07892588526010513,0.034832607954740524,-0.02290966920554638,0.049090877175331116,0.05087065324187279,-0.05302185192704201,-0.049553032964468,-0.07551803439855576,0.02243030071258545,0.11545760929584503,0.11619678884744644,0.05508585274219513,-0.02640971727669239,0.046733610332012177,0.006162674631923437,-0.06454931199550629,0.03438520058989525,0.02880159206688404,-0.002062048763036728,0.032546497881412506,0.027798747643828392,-0.03404770791530609,-0.04432104527950287,-0.0450579896569252,0.006706648971885443,-0.014062341302633286,-0.004502702504396439,-0.07597152888774872,0.04786645248532295,0.059932809323072433,0.04011469706892967,0.014789837412536144,0.11392930150032043,-0.008493932895362377,-0.06573763489723206,0.023669296875596046,0.007067927159368992,0.030074939131736755,-0.06543692201375961,-0.04716455563902855,0.00045086152385920286,-0.034955065697431564,-0.09183049201965332,-0.08101368695497513,0.0799800381064415,-0.045912645757198334,-0.010683274827897549,0.09066140651702881,-0.055652014911174774,0.06189955398440361,-0.05175803601741791,-0.02873919904232025,0.008078155107796192,-0.013465010561048985,-0.08860837668180466,0.04126808047294617,0.027042219415307045,0.03741162642836571,0.091880664229393,0.062407318502664566,-0.07396240532398224,0.010139546357095242,-0.0001397411251673475,-0.09526199847459793,0.07675804942846298,-0.03866475075483322,0.04549383372068405,-0.018705783411860466,0.0464627668261528,-0.013309404253959656,0.02810363844037056,0.09266546368598938,-0.013158922083675861,0.041451822966337204,0.09519349038600922,0.014312639832496643,-0.008251829072833061,0.04915664345026016,-0.016560716554522514,0.054964568465948105,-0.03217524290084839,0.11293824762105942,-0.06545501202344894,0.016673477366566658,-0.012350013479590416,-0.09962279349565506,-0.04787251725792885,-0.03675681725144386,-0.040390532463788986,0.003897090209648013,0.06036024168133736,0.015413087792694569,-0.06615044921636581,0.02704840898513794,0.06817758828401566,-0.09188282489776611,0.010766846127808094,-0.09538319706916809,0.09731671959161758,0.11676719039678574,-0.008109843358397484,0.10007725656032562,0.03388432785868645,-0.11420174688100815,0.04302878677845001,-0.004586185794323683,-0.1100214272737503,-0.0864582508802414,-0.09365753084421158,0.05290544033050537,0.06750547885894775,0.11009974032640457,-0.08674592524766922,0.013461973518133163,0.06308639049530029,0.023844102397561073,0.0022085944656282663,0.042320068925619125,0.12134998291730881,-0.03476981073617935,-0.0726199522614479,-0.017589885741472244,0.041221458464860916,-0.001656439621001482,-0.07495178282260895,-0.03677160292863846,0.06951053440570831,-0.023115675896406174,0.12432779371738434,-0.0006215348839759827,0.059523943811655045,0.10616668313741684,0.08455023169517517,0.015368247404694557,0.022705329582095146,-0.023219088092446327,0.06730316579341888,-0.11023954302072525,-0.09527243673801422,0.004024168476462364,-0.008122345432639122,0.06468459218740463,0.061425577849149704,0.022875724360346794,-0.0831412523984909,0.010387993417680264,-0.0021136743016541004,0.019006362184882164,-0.11727114766836166,0.024698510766029358,-0.04394496604800224,-0.017652960494160652,-0.00598218385130167,0.03193400427699089,-0.1053130254149437,0.04160459712147713,-0.12414343655109406,-0.04836851358413696,0.008798052556812763,-0.10434567928314209,0.09674191474914551,0.07028962671756744,-0.026812750846147537,-0.04420991986989975,0.07845746725797653,-0.061166658997535706,0.019110742956399918,-0.0008616429986432195,-0.07876632362604141,-0.06305442005395889,-0.0051895431242883205,-0.0028328290209174156,0.033570900559425354,-0.01986873522400856,-0.022044172510504723,0.1464751958847046,-0.00002416277857264504,0.02597111091017723,0.005917160771787167,0.01858397014439106,0.07900582998991013,0.07999501377344131,-0.07461860030889511,-0.03694064915180206,0.050284262746572495,-0.07958852499723434,0.03562648221850395,0.08885590732097626,-0.10051895678043365,0.057179469615221024,0.06498251855373383,-0.033975206315517426,-0.007899531163275242,0.042976438999176025,0.14122076332569122,0.08529116958379745,-0.02280743420124054,-0.029325027018785477,-0.11854913085699081,-0.003637489629909396,-0.04858504608273506,0.05831969529390335,-0.08431971818208694,-0.06836622208356857,0.010356159880757332,0.06778839975595474,-0.047560226172208786,0.09827952086925507,0.023046810179948807,0.03724042698740959,0.05144595354795456,0.08304348587989807,-0.013573180884122849,0.05603110045194626,-0.0009639321360737085,0.05353431776165962,-0.04278368130326271,0.05627930536866188,-0.004626456648111343,0.10492294281721115,-0.03564668074250221,0.021762093529105186,0.0619511678814888,-0.040963318198919296,0.015120461583137512,-0.05011376738548279,0.06527183949947357,0.04844276234507561,-0.05324297025799751,0.027292661368846893,0.024170411750674248,0.010482661426067352,-0.08887193351984024,0.05280716344714165,0.025302119553089142,0.08324626088142395,-0.04993851110339165,0.001716266619041562,0.051751889288425446,-0.02476346492767334,-0.04086707904934883,-0.0163724385201931,0.051688339561223984,0.1265806406736374,-0.018606185913085938,0.03911013528704643,0.020093144848942757,-0.08285636454820633,0.02878187969326973,-0.0020588103216141462,0.05765032768249512,0.12526750564575195,-0.04100135713815689,-0.05964009463787079,0.08008325845003128,-0.06433255970478058,-0.01195135060697794,-0.04249897226691246,0.024013100191950798,-0.06534223258495331,0.014102917164564133,-0.0014786396641284227,-0.06886405497789383,0.07373739778995514,0.048147596418857574,-0.08700769394636154,0.10228988528251648,0.020625179633498192,0.05579812452197075,-0.0733739510178566,0.06112722307443619,0.013124601915478706,0.07052865624427795,-0.07217049598693848,0.06460465490818024,-0.012410620227456093,0.05672585591673851,0.04207581281661987,-0.06297816336154938,-0.027664877474308014,0.008116954937577248,0.04040280357003212,0.03455578535795212,-0.05381627380847931,-0.07688529789447784,-0.02621137723326683,0.12087064236402512,-0.09849043190479279,0.06886328756809235,-0.06460344791412354,0.06536407023668289,0.059750452637672424,-0.001404011738486588,-0.027696741744875908,0.05857357755303383,-0.024676505476236343,0.05283186584711075,-0.03328419849276543,-0.05419513210654259,0.05059083178639412,-0.032499343156814575,0.03816107288002968,0.0769176334142685,0.056197989732027054,0.1215004250407219,0.11578013747930527,-0.03264492750167847,0.10678722709417343,0.07961709797382355,0.09517870098352432,0.03189608454704285,-0.03122771345078945,-0.03749525919556618,-0.06203771010041237,-0.07260707020759583,-0.06628694385290146,-0.06469409167766571,-0.03401121497154236,-0.044096413999795914,0.0504363588988781,0.03496965765953064,-0.030107874423265457,0.026736440137028694,-0.07727896422147751,-0.018994668498635292,0.03708512336015701,-0.0473337322473526,0.10623088479042053,0.10759618878364563,-0.05795382708311081,0.07443560659885406,-0.026560088619589806,0.08613044768571854,-0.039123084396123886,-0.03425508737564087,-0.04658827930688858,0.08941491693258286,0.13539551198482513,0.036922529339790344,0.09780213981866837,-0.04603014513850212,-0.030019110068678856,-0.05703907832503319,0.04316597431898117,0.06925258040428162,0.08015913516283035,0.06942784041166306,-0.02459396794438362,0.00878265779465437,-0.04441901668906212,0.07757876068353653,-0.0912451520562172,-0.06048533692955971,-0.08446165174245834,0.005567174404859543,-0.023492271080613136,-0.025441471487283707,0.01639644242823124,0.09778247028589249,-0.047523099929094315,0.035083528608083725,-0.09130758047103882,-0.014038019813597202,-0.07234613597393036,-0.03863363713026047,-0.02467089146375656,0.05049753934144974,0.0020038075745105743,0.01773940771818161,0.08354248851537704,-0.02787613868713379,-0.013008253648877144,0.015887266024947166,0.1073441281914711,-0.08434872329235077,-0.00041499195504002273,0.021149011328816414,0.019193921238183975,0.026871206238865852,-0.028808750212192535,-0.05863584950566292,0.00779263349249959,-0.019240519031882286,-0.07534585148096085,-0.043445926159620285,-0.04099218174815178,0.1056756004691124,0.07517848908901215,-0.04522368311882019,-0.05159623548388481,0.010551556013524532,-0.028492728248238564,0.05790894851088524,-0.03154553472995758,0.06077588349580765,-0.021614227443933487,-0.05999317020177841,0.047657180577516556,0.0630555972456932,-0.058557022362947464,0.05393390730023384,-0.0012763432459905744,-0.10631954669952393,0.055905651301145554,-0.018164828419685364,-0.09006758034229279,0.03567492961883545,-0.010742735117673874,-0.08387984335422516,-0.061860281974077225,0.07361572980880737,-0.07736412435770035,-0.09084481745958328,-0.0683019682765007,0.021720005199313164,-0.09612978249788284,0.006755951792001724,-0.027702730149030685,0.07554306834936142,0.024266216903924942,-0.002805843483656645,0.07342860847711563,0.045296091586351395,-0.06275763362646103,0.0651499480009079,-0.028799602761864662,0.03840435668826103,0.015586761757731438,0.007621902972459793,-0.08438558131456375,-0.024173058569431305,0.05158066004514694,-0.007922372780740261,-0.01061408780515194,-0.05126950889825821,0.0004445068188942969,-0.047094088047742844,0.08076463639736176,0.040844377130270004,0.06682328134775162,-0.016976814717054367,0.049369197338819504,0.10955329239368439,0.0020497473888099194,0.05204134061932564,-0.02297273464500904,-0.031092334538698196,0.07374328374862671,-0.020018020644783974,-0.11245892196893692,-0.000117450428660959,-0.029985027387738228,-0.02647813968360424,-0.059380847960710526,0.01743272878229618,0.07852771133184433,-0.04601747915148735,0.029409198090434074,-0.062471892684698105,-0.030785957351326942,0.02366378717124462,-0.001677674357779324,-0.08189698308706284,-0.06085505709052086,0.09160838276147842,0.06592912971973419,-0.09855473041534424,0.04888252168893814,-0.062410879880189896,0.07496260851621628,0.09127061069011688,-0.07416265457868576,0.059882886707782745,0.06824483722448349,0.06359249353408813,0.09040205925703049,0.08630058169364929,0.11530839651823044,0.07340626418590546,0.02996019273996353,0.04649629443883896,-0.09139963239431381,-0.08250115811824799,0.06327606737613678,0.0006979251629672945,-0.03554530069231987,0.03843418508768082,0.07763748615980148,0.007621344178915024,0.058673836290836334,-0.02150285430252552,-0.05369538441300392,0.05465983226895332,0.07169226557016373,-0.051067911088466644,-0.02757469192147255,0.07793936878442764,0.10186750441789627,-0.0928264856338501,-0.04652164876461029,-0.07677622884511948,-0.03807796165347099,0.061745643615722656,0.05767785385251045,0.05148587003350258,0.021038729697465897,-0.073057621717453,0.008931657299399376,-0.001972507918253541,-0.05838785693049431,0.08466986566781998,0.03781374543905258,0.06715922057628632,0.053269922733306885,0.011888078413903713,0.07148288935422897,0.01350426860153675,0.033140264451503754,0.12867023050785065,-0.06994298100471497,-0.07009679079055786,-0.10562633723020554,0.036900538951158524,0.012343821115791798,-0.03440183773636818,-0.012212919071316719,0.07853925973176956,-0.06633972376585007,0.020329220220446587,0.09038794040679932,-0.06495124101638794,0.00016649370081722736,0.026199674233794212,0.00011474313942017034,0.021048419177532196,0.03398898243904114,-0.05319003760814667,0.020452437922358513,0.05880110338330269,0.12975643575191498,0.11815416812896729,0.01682366617023945,-0.06325747072696686,0.07127173244953156,-0.005280679557472467,-0.04179161787033081,0.03948298841714859,-0.052375677973032,-0.050141479820013046,-0.05193561688065529,0.0993838831782341,0.016896190121769905,-0.014231639914214611,-0.0014121049316599965,0.05233747139573097,-0.021838663145899773,-0.12810862064361572,0.025038987398147583,-0.05983222275972366,0.0515514612197876,0.09188582748174667,0.0962478443980217,-0.06894451379776001,0.06692953407764435,-0.07873133569955826,-0.057338010519742966,0.026069482788443565,-0.04806724190711975,0.02280873991549015,-0.07485496252775192,-0.01741885207593441,-0.027234619483351707,-0.04188668355345726,-0.012310830876231194,0.05847848951816559,-0.0987733006477356,-0.04396336153149605,-0.02146041765809059,0.006586037110537291,-0.041519857943058014,-0.05994429811835289,0.07510121166706085,0.033204175531864166,0.05725204199552536,-0.006752377841621637,-0.052147116512060165,0.02873283065855503,-0.013333750888705254,0.11482187360525131,0.0061834417283535,-0.05810422822833061,0.015218247659504414,0.06981111317873001,-0.06623311340808868,0.03130519762635231,0.05299239978194237,-0.032956916838884354,-0.0027393754571676254,-0.0938611775636673,-0.06754351407289505,0.06760101020336151,0.05983533337712288,0.08709556609392166,0.05995814874768257,0.030542759224772453,0.07953941822052002,0.033717554062604904,0.0951739028096199,0.059757497161626816,-0.07620386779308319,0.08363299071788788,0.04108796268701553,0.017536494880914688,-0.021947890520095825,0.0699235275387764,0.043218135833740234,0.02393961139023304,0.040399715304374695,-0.02066338248550892,-0.010403123684227467,0.02270440384745598,0.06263560056686401,0.10822413116693497,0.0018159050960093737,-0.0361761599779129,-0.11074212938547134,-0.016829749569296837,0.08117572963237762,0.010396278463304043,0.022062601521611214,-0.06678706407546997,-0.030352236703038216,0.018230553716421127,-0.08244434744119644,0.047627486288547516,0.05199090391397476,0.04526987671852112,0.03672736883163452,-0.0013935600873082876,-0.04991677403450012,0.06491521000862122,-0.02207936719059944,-0.03723190352320671,-0.1221175342798233,-0.016002710908651352,-0.046343084424734116,0.06231650337576866,0.053517840802669525,-0.03996207192540169,-0.04761892557144165,-0.11713691055774689,0.04845503717660904,-0.010287521407008171,-0.014992764219641685,0.06987561285495758,0.0868852287530899,-0.07913940399885178,-0.010244064033031464,0.029233433306217194,0.005656377412378788,-0.10759224742650986,-0.06258364021778107,-0.014253714121878147,0.09511484950780869,-0.06534603983163834,0.03496093675494194,0.06791555881500244,-0.049420636147260666,-0.014906804077327251,-0.09088467061519623,0.10967370122671127,-0.001197408651933074,0.03502199426293373,-0.030857019126415253,0.11484230309724808,-0.037885308265686035,0.061483174562454224,-0.004506241995841265,0.01841798424720764,0.07561523467302322,-0.030575506389141083,-0.015353835187852383,-0.06543807685375214,0.032928481698036194,-0.021286485716700554,-0.060648005455732346,0.0007782618049532175,0.0519828274846077,0.053091149777173996,-0.007788318209350109,-0.028388462960720062,-0.001607271027751267,-0.05635480582714081,0.014233709312975407,0.019636232405900955,-0.011853157542645931,0.0764596089720726,-0.02359399013221264,0.015445761382579803,0.1319332718849182,-0.07942506670951843,-0.08490953594446182,-0.06487659364938736,0.07289115339517593,-0.0356176383793354,0.03325494006276131,0.03667924925684929,0.05019710585474968,0.051297690719366074,-0.05731268227100372,0.034264180809259415,0.01734248548746109,-0.05333692952990532,0.041876424103975296,-0.054390568286180496,-0.01418338157236576,0.0633726641535759,-0.0838097557425499,-0.0865301638841629,0.005162984132766724,0.06484223902225494,0.04319967329502106,0.05341099575161934,0.0823795273900032,0.08447637408971786,0.00434798002243042,0.12116143852472305,0.040496502071619034,-0.056657254695892334,0.012673008255660534,-0.06726761162281036,0.049836233258247375,0.012284714728593826,-0.007693298626691103,-0.0034055192954838276,0.11341095715761185,0.003547385800629854,-0.06537526100873947,-0.01989017426967621,-0.0468938872218132,-0.10319166630506516,-0.03216686472296715,0.07975076884031296,-0.04999171942472458,0.0821310505270958,-0.058188289403915405,0.07017876207828522,-0.07031451910734177,-0.030894773080945015,-0.0926162600517273,0.009110679849982262,-0.00783100351691246,0.07262728363275528,-0.10268168151378632,0.044627267867326736,-0.060485586524009705,-0.06438397616147995,0.08225873857736588,-0.05654407665133476,0.008733314462006092,0.10496782511472702,-0.007241840474307537,0.04789850488305092,-0.08820032328367233,-0.14394024014472961,-0.052944082766771317,-0.11885813623666763,0.007846100255846977,0.0031862123869359493,0.09321572631597519,-0.02192055806517601,-0.06097346171736717,0.1051950603723526,0.08321641385555267,-0.05788812041282654,0.03607383370399475,-0.07634682208299637,-0.03543167561292648,-0.03603564202785492,-0.08267811685800552,-0.07453449070453644,0.051508497446775436,-0.045412201434373856,-0.06641562283039093,0.037593815475702286,0.028037521988153458,-0.08051296323537827,-0.02913559041917324,-0.05028294399380684,0.08187738806009293,0.07806134968996048,0.07247705012559891,-0.044149741530418396,0.012559262104332447,-0.013587345369160175,-0.029259037226438522,0.11058084666728973,0.01868908666074276,-0.1219082921743393,-0.020145943388342857,0.09490073472261429,-0.07624782621860504,-0.03778732195496559,-0.04234347864985466,-0.08450710773468018,-0.033413469791412354,0.08721008896827698,-0.05831848457455635,0.06490670889616013,0.07713226974010468,0.02925269305706024,-0.07537240535020828,0.13368384540081024,-0.09193815290927887,-0.01491265557706356,0.03400205075740814,-0.013251402415335178,-0.0642203688621521,-0.0023610673379153013,0.04417042434215546,-0.09071901440620422,0.001210871385410428,0.004623054526746273,0.10078579187393188,0.033751051872968674,0.021589048206806183,0.049597062170505524,0.07501053810119629,0.005334153305739164,-0.09742815792560577,0.03285999596118927,-0.052076760679483414,0.03521344065666199,0.04183296114206314,-0.024274161085486412,0.01967359520494938,-0.017394796013832092,-0.01485526654869318,0.09829764068126678,0.10045935213565826,0.00613697525113821,-0.11647922545671463,0.0613405741751194,0.08863748610019684,-0.027674976736307144,0.025519393384456635,-0.10842303931713104,0.044515274465084076,0.12081165611743927,0.10265747457742691,-0.0576934888958931,0.03517294302582741,0.084693543612957,-0.06594298034906387,0.061753422021865845,0.08998466283082962,0.040221430361270905,-0.07772655785083771,-0.008005955256521702,-0.08009687066078186,-0.020066890865564346,-0.03510110452771187,0.06920420378446579,-0.007592228706926107,-0.012023848481476307,0.015394922345876694,0.06729340553283691,-0.0236116424202919,0.0071207149885594845,-0.019863607361912727,0.08283435553312302,-0.0073070586659014225,0.07488536089658737,-0.0827191099524498,0.029269671067595482,0.011897836811840534,0.014635100960731506,0.02776608057320118,0.049875516444444656,0.030900364741683006,0.004888519179075956,0.030475206673145294,-0.06762183457612991,0.09803026914596558,-0.024666786193847656,-0.09571194648742676,0.05882766842842102,-0.04928820580244064,-0.04391292482614517,0.04666545242071152,0.04365316033363342,-0.0352700911462307,-0.007083385717123747,-0.0855460986495018,0.004257043823599815,-0.03707893192768097,0.007160129491239786,-0.009021379984915257,-0.07199514657258987,-0.07097577303647995,0.10069213807582855,0.06327341496944427,0.06935025006532669,-0.00610958319157362,0.00813752505928278,0.020859641954302788,-0.019076285883784294,0.027963439002633095,-0.09838170558214188,-0.08781245350837708,-0.01454371027648449,0.05335120111703873,0.009365301579236984,0.07689718902111053,0.041380301117897034,0.10927242040634155,0.07728400826454163,-0.00019695991068147123,0.10142748057842255,0.047917939722537994,0.03672844171524048,0.008531519211828709,-0.04754228889942169,0.042831409722566605,-0.10886752605438232,-0.011300629936158657,0.015578975901007652,-0.06154438853263855,0.09080744534730911,0.10560766607522964,0.055609479546546936,-0.0951380655169487,0.07101812213659286,-0.015526617877185345,-0.048425495624542236,0.051029983907938004,0.09555698186159134,-0.08420870453119278,0.05680370330810547,-0.11341234296560287,-0.048819273710250854,-0.019111016765236855,-0.025669829919934273,0.02606147713959217,-0.058185454457998276,0.11540917307138443,0.04505464807152748,-0.08074841648340225,-0.066960908472538,0.018241895362734795,0.021386142820119858,-0.013672302477061749,0.005580809433013201,-0.048234179615974426,0.12656164169311523,-0.06334246695041656,0.08284037560224533,-0.03208130598068237,0.03343821316957474,-0.014499514363706112,-0.015021144412457943,-0.006171828135848045,0.10355163365602493,0.06967508047819138,-0.0028503595385700464,0.0775706022977829,0.08839236199855804,0.06666115671396255,-0.09025069326162338,0.10838861018419266,0.022965457290410995,0.07702477276325226,0.0982736125588417,-0.016897084191441536,0.009342227131128311,-0.03855585679411888,-0.043743085116147995,-0.011198433116078377,-0.061534132808446884,0.060630157589912415,-0.03995538130402565,-0.03639766201376915,0.05784762278199196,0.07102807611227036,-0.07532423734664917,-0.02296455390751362,-0.12643572688102722,-0.11244986951351166,0.08151634782552719,-0.08202192932367325,0.09758304059505463,-0.03353256732225418,0.07190810143947601,-0.04925767332315445,-0.0359945148229599,-0.03205316513776779,0.008066968061029911,-0.018935831263661385,0.06578683108091354,0.10648727416992188,-0.10433054715394974,0.03613591939210892,0.018847469240427017,-0.02366589941084385,-0.013051181100308895,0.018248744308948517,-0.036291901022195816,-0.07954201102256775,0.05064031854271889,-0.03752294182777405,-0.02218424156308174,-0.015914691612124443,-0.019395601004362106,0.08113273233175278,0.054892320185899734,0.12124388664960861,0.09686718136072159,0.036673419177532196,-0.04875065013766289,0.11828390508890152,0.022112254053354263,0.02540920488536358,-0.08869848400354385,0.06571072340011597,0.029722999781370163,-0.020825795829296112,0.05145756155252457,0.03595181927084923,-0.013917063362896442,0.01891370117664337,0.0029745055362582207,0.025549592450261116,-0.08228899538516998,-0.03751140087842941,0.04610096290707588,-0.059317611157894135,-0.05198443681001663,0.013228003866970539,-0.01449295412749052,-0.002120579592883587,0.0721079632639885,-0.06700093299150467,0.04881035163998604,-0.028753865510225296,0.03145100176334381,-0.06515184789896011,-0.07598637789487839,0.1205240860581398,0.03859424218535423,0.10814473032951355,0.004367508925497532,0.002420559525489807,0.01704840548336506,0.0482148677110672,-0.00481500243768096,0.05087089538574219,-0.03226189315319061,0.013545295223593712,0.025599654763936996,0.08097853511571884,0.04305240511894226,-0.054495494812726974,0.042393554002046585,-0.08846302330493927,0.07954984158277512,0.04837552085518837,-0.09929537773132324,0.051706280559301376,-0.0834154561161995,0.084235779941082,0.1223185732960701,-0.06259161978960037,0.08456410467624664,0.06251265853643417,0.024468891322612762,0.025903699919581413,0.062228135764598846,-0.04729214683175087,-0.09240399301052094,-0.024518446996808052,0.08837436884641647,0.10382171720266342,-0.030687537044286728,-0.03817623481154442,0.004853027407079935,0.04834012687206268,-0.023445963859558105,-0.0002724801888689399,-0.053648851811885834,-0.012885174714028835,-0.041523128747940063,0.03715673089027405,0.0803522914648056,0.05085168406367302,-0.08516407012939453,-0.11556844413280487,0.0771598145365715,0.09212931245565414,0.05370257794857025,-0.011218664236366749,0.05651961266994476,0.013852094300091267,-0.011083872988820076,-0.05318404734134674,-0.028396839275956154,0.01976274698972702,0.02657374180853367,0.05526813119649887,0.022614778950810432,-0.11249002814292908,-0.05486266687512398,-0.08759669214487076,0.06404782831668854,0.04642815887928009,0.07090059667825699,-0.11864057183265686,-0.08702687174081802,0.08856312930583954,0.07581193745136261,0.04317522794008255,0.024295059964060783,0.04001995548605919,0.039015524089336395,-0.020741209387779236,-0.08720730245113373,0.05668335407972336,0.024761734530329704,0.05526451766490936,-0.04208489507436752,0.0053987991996109486,0.0706901028752327,-0.012949331663548946,0.05045358091592789,0.028034137561917305,-0.040646396577358246,0.018425166606903076,0.07271702587604523,0.09786413609981537,0.055203620344400406,-0.04399726167321205,0.04826563596725464,-0.02176329679787159,-0.07698505371809006,0.10926394164562225,0.10717149823904037,-0.06489939242601395,-0.045778095722198486,0.03381417691707611,-0.0141884321346879,0.02951752580702305,-0.05611226707696915,0.08453492820262909,0.025556186214089394,-0.10087758302688599,0.06810455769300461,0.04421436786651611,-0.018820367753505707,0.006405706983059645,0.006020546890795231,0.021521124988794327,0.0829019546508789,0.06338606029748917,-0.08326470106840134,-0.06284830719232559,-0.015343790873885155,-0.004987883847206831,0.03514467552304268,-0.023826448246836662,0.027827847748994827,0.04298338666558266,0.01676076464354992,-0.04666028544306755,-0.024036096408963203,0.03721621260046959,0.028131963685154915,-0.008468915708363056,0.019580645486712456,-0.10981568694114685,0.0640396922826767,-0.061878886073827744,0.10614680498838425,-0.00848269835114479,0.04474746063351631,0.03146686777472496,0.04467237740755081,-0.05726848542690277,-0.02633020468056202,0.004315041471272707,0.025630762800574303,0.10962788015604019,0.02742687240242958,-0.06999688595533371,-0.041915781795978546,-0.01784098893404007,-0.06575888395309448,0.09614059329032898,0.003943814430385828,0.10831267386674881,0.02807595022022724,0.005031931679695845,0.04923218861222267,-0.014314345084130764,0.05584217235445976,-0.05283486470580101,0.01931273378431797,-0.02310008741915226,0.01959400251507759,0.08809520304203033,0.052010055631399155,0.011694886721670628,-0.04206416383385658,0.00012895246618427336,0.017587922513484955,0.044728510081768036,-0.06010957434773445,0.018266800791025162,-0.06952840834856033,0.027785485610365868,-0.00035241866135038435,-0.11724402755498886,-0.05423232540488243,0.0047136093489825726,0.0981198102235794,0.059425774961709976,0.08456435054540634,-0.08151894062757492,0.04535119980573654,-0.0854145959019661,0.03618796914815903,-0.062435805797576904,-0.014058596454560757,-0.06808269768953323,0.04588600620627403,0.05512223392724991,0.10945141315460205,0.07212237268686295,0.0576087050139904,-0.023197567090392113,-0.06639859825372696,-0.06351244449615479,0.07154162228107452,0.012866013683378696,0.05625515058636665,0.07427876442670822,0.023388387635350227,0.016781626269221306,0.005364811979234219,-0.0897362157702446,0.03483548015356064,0.008741825819015503,0.027182338759303093,-0.0055159940384328365,0.01695980504155159,-0.060898374766111374,-0.046947672963142395,0.01887446641921997,-0.030319668352603912,0.01890493556857109,0.03439759090542793,-0.05333361029624939,0.062494248151779175,-0.010101745836436749,-0.08143860101699829,-0.059604112058877945,-0.04078752174973488,-0.05189509689807892,0.01297201681882143,0.10834354162216187,0.052895594388246536,-0.023074250668287277,0.010167046450078487,0.07514792680740356,-0.04189537838101387,0.061873648315668106,0.04777780920267105,0.04636864736676216,-0.024181099608540535,-0.08319475501775742,0.015092352405190468,0.01660785637795925,0.005933752283453941,-0.06107540428638458,0.08470137417316437,0.09594069421291351,0.006050315219908953,0.09924393147230148,0.014992224052548409,0.08995016664266586,-0.023248989135026932,0.07067948579788208,-0.026386478915810585,-0.009699608199298382,-0.06935436278581619,0.07018847018480301,-0.01754736714065075,0.06684485822916031,0.1233169287443161,-0.05277304723858833,-0.09858222305774689,0.05880799517035484,0.031073056161403656,-0.08203946799039841,-0.04885699599981308,0.10097285360097885,0.12692150473594666,0.09195379167795181,-0.0027512877713888884,-0.031110288575291634,-0.09103341400623322,0.07457700371742249,-0.017281461507081985,-0.12639014422893524,0.060796692967414856,-0.028478330001235008,-0.016551371663808823,-0.00418894411996007,-0.030399462208151817,0.019550232216715813,-0.009524108842015266,-0.0031562766525894403,0.05037142336368561,-0.050982069224119186,-0.0300702266395092,-0.04507877677679062,-0.0011803918750956655,0.08403076231479645,-0.02931368164718151,0.06066592037677765,0.024384018033742905,0.09648192673921585,0.07567670941352844,-0.07473841309547424,0.07894327491521835,-0.07150004059076309,0.08742156624794006,0.048215072602033615,-0.06101943552494049,-0.01968688704073429,0.08724048733711243,-0.005587270483374596,-0.06531236320734024,0.07323203980922699,-0.030123068019747734,-0.028708167374134064,0.0433560311794281,-0.0470605231821537,0.08424319326877594,0.08701620995998383,-0.06093383952975273,-0.05418343469500542,-0.014584050513803959,0.05421596020460129,0.007617712486535311,-0.025780631229281425,0.040604978799819946,-0.020184550434350967,0.03879527375102043,-0.030417578294873238,-0.08972936123609543,0.01867450773715973,0.03603405877947807,-0.016314025968313217,0.04790686443448067,0.063583143055439,0.0055588469840586185,-0.02300879918038845,0.12403614073991776,0.07243494689464569,-0.018637726083397865,0.08167020976543427,0.055285342037677765,0.045927196741104126,-0.049498166888952255,-0.0440504364669323,-0.022125767543911934,0.07280111312866211,0.025653475895524025,-0.047794096171855927,0.02746894583106041,0.039360616356134415,0.02633003331720829,0.0796859934926033,-0.02633095346391201,0.03788398578763008,-0.03752390667796135,0.07176683843135834,0.024711256846785545,-0.06610070168972015,-0.062374912202358246,0.035124558955430984,0.05037609115242958,0.08614130318164825,0.09641920030117035,0.12825043499469757,0.005573135334998369,-0.08040453493595123,-0.09768117964267731,-0.0917113646864891,-0.06531079858541489,-0.070132315158844,0.008857029490172863,-0.09821194410324097,-0.045148953795433044,-0.054184041917324066,0.04471828415989876,-0.03726813197135925,0.08656509965658188,-0.019823726266622543,0.07468508183956146,-0.027529731392860413,-0.0022467311937361956,0.03630009666085243,-0.013450228609144688,-0.02616904117166996,0.11042924970388412,0.0202181413769722,-0.02970287948846817,0.07376178354024887,0.046139057725667953,-0.07771432399749756,-0.1116606742143631,0.0038322878535836935,0.06826254725456238,0.04828419163823128,-0.02029038965702057,-0.06543809175491333,0.03850043565034866,-0.06912866979837418,0.07926401495933533,0.10221273452043533,-0.03554332256317139,-0.07507243007421494,0.1306375414133072,-0.02852172963321209,0.032227516174316406,0.0674704760313034,0.05321063473820686,-0.04917251318693161,0.08927716314792633,-0.023993760347366333,0.09572139382362366,-0.0956917330622673,0.0842859148979187,0.0613521933555603,0.01623816043138504,0.01064364518970251,0.06847422569990158,0.00797375850379467,-0.020227907225489616,0.0921260267496109,0.06403875350952148,0.11131124198436737,-0.09881521761417389,0.07560790330171585,0.08373963832855225,0.08425868302583694,-0.06849545240402222,0.018762925639748573,0.040820203721523285,-0.028900958597660065,0.017888978123664856,-0.02125929854810238,-0.05606336146593094,0.07661951333284378,0.1183779239654541,0.05825859308242798,0.04118767008185387,-0.09706016629934311,0.06488634645938873,0.019090626388788223,0.10495050251483917,-0.07784969359636307,-0.0183001309633255,0.013538772240281105,0.06778250634670258,0.050676606595516205,0.06602867692708969,0.05137883126735687,0.06685344129800797,0.05377499759197235,0.029762592166662216,0.03193570673465729,0.05428145453333855,0.03258046880364418,-0.05837029218673706,0.018183739855885506,-0.00021704379469156265,0.04564569145441055,-0.02284434624016285,0.022129518911242485,0.09146679192781448,0.1185239627957344,-0.043125592172145844,-0.02043507806956768,0.035427648574113846,0.05506351590156555,-0.011091324500739574,-0.07087676972150803,-0.05196649953722954,0.010235371999442577,-0.08293493092060089,0.024222146719694138,-0.04575736075639725,-0.045483823865652084,0.0188837181776762,0.07719233632087708,0.024944595992565155,0.028884481638669968,0.1471405178308487,-0.046789463609457016,-0.0024611810222268105,-0.09672904759645462,0.03026987612247467,-0.10302512347698212,-0.04765700176358223,-0.003704059636220336,0.1550339311361313,-0.038801323622465134,0.05743008852005005,0.009154103696346283,-0.02503856085240841,-0.11403029412031174,0.065301313996315,-0.016691187396645546,-0.030481992289423943,-0.0962974801659584,0.02764875814318657,0.045769087970256805,-0.02503838762640953,0.08803841471672058,-0.09775745123624802,0.045925553888082504,0.022550269961357117,-0.004231917206197977,0.05841784179210663,-0.1114562377333641,-0.0711742490530014,-0.08191437274217606,0.12469438463449478,-0.07367026805877686,0.08440877497196198,0.11567360907793045,-0.11571674048900604,0.034389931708574295,-0.049568772315979004,-0.07023169100284576,0.01598028466105461,-0.05056580528616905,0.05122669041156769,0.014690892770886421,0.06183948740363121,-0.016836397349834442,-0.004777037538588047,-0.004118446260690689,0.08395504951477051,0.026478493586182594,-0.053912751376628876,0.15994048118591309,-0.0044447206892073154,-0.05240240320563316,-0.007945554330945015,-0.110240139067173,-0.038582246750593185,-0.06246611848473549,-0.05046641826629639,0.017614319920539856,-0.07814681529998779,-0.015571733005344868,0.0020737838931381702,0.027493052184581757,0.10648594051599503,0.0351690948009491,-0.0552387535572052,-0.031930092722177505,0.025919033214449883,-0.053809456527233124,0.06640513241291046,0.08125647157430649,-0.07155822217464447,-0.011813248507678509,-0.030737318098545074,0.045117203146219254,-0.06407026946544647,-0.04011911526322365,0.08895432949066162,0.12119776755571365,-0.023632008582353592,0.06006699427962303,-0.022845493629574776,-0.06894207745790482,0.08887617290019989,0.1177220568060875,0.018639808520674706,0.018170932307839394,-0.004447065759450197,-0.10743061453104019,0.10531730949878693,0.021358100697398186,-0.05549035221338272,0.05754312872886658,0.005204570479691029,0.04871860891580582,0.029504742473363876,-0.09194259345531464,0.07934166491031647,0.04895518347620964,0.024678511545062065,-0.03434085100889206,-0.08645487576723099,0.03673693910241127,0.02457810752093792,0.019741393625736237,-0.017700782045722008,-0.08038834482431412,0.06231572851538658,0.047397639602422714,0.08115329593420029,0.09017587453126907,0.0239428523927927,-0.07278387248516083,0.09667415171861649,-0.021693851798772812,0.08781365305185318,0.004562894813716412,0.022508438676595688,-0.014231505803763866,0.12562978267669678,0.06952279806137085,0.07383577525615692,-0.01767675392329693,0.10771723091602325,-0.03709865361452103,0.049561839550733566,0.0210837684571743,0.02644011750817299,-0.11498641967773438,0.044814012944698334,0.12314208596944809,0.02390296757221222,0.06642992794513702,-0.08322687447071075,0.082382932305336,-0.054553546011447906,0.08410576730966568,0.04096018895506859,0.013317896053195,0.06565440446138382,-0.05212364345788956,0.06448144465684891,-0.03287345543503761,0.029805723577737808,-0.002506886376067996,-0.07807409018278122,-0.10029479116201401,-0.009381101466715336,0.08210571110248566,0.014505542814731598,-0.11229865998029709,0.05624106526374817,0.06178535893559456,-0.12474626302719116,0.04001535102725029,0.008903122507035732,-0.07440316677093506,-0.059853728860616684,-0.04083675146102905,-0.034741587936878204,0.1084645539522171,-0.047724708914756775,0.066703662276268,-0.03393428027629852,0.11727053672075272,-0.01651432178914547,-0.07759624719619751,0.006737098563462496,-0.08757998049259186,0.07766144722700119,0.07007680833339691,0.02682219073176384,0.07711214572191238,-0.06957199424505234,-0.005396964494138956,-0.0677955374121666,-0.004141426179558039,-0.06505820155143738,0.0847303718328476,-0.030048901215195656,0.042989183217287064,0.06944369524717331,0.06392484158277512,-0.02002335526049137,0.03893842548131943,0.03446650877594948,0.08476720750331879,0.029073363170027733,-0.07920260727405548,0.08697432279586792,-0.0011261302279308438,0.05518462881445885,-0.0420089066028595,-0.004111307207494974,-0.04560701921582222,-0.07601640373468399,-0.07490619271993637,-0.04837062954902649,-0.00741932075470686,0.013501042500138283,-0.02973838336765766,-0.03232719376683235,0.07978308200836182,0.08773490786552429,-0.03946731984615326,0.004506940953433514,-0.0491379052400589,0.024774987250566483,-0.09387360513210297,-0.11441073566675186,-0.029120715335011482,-0.00481952540576458,0.04863029345870018,-0.012810656800866127,0.027506541460752487,0.01788676716387272,0.09928115457296371,0.011236253194510937,0.09643446654081345,-0.06198345497250557,-0.03700055927038193,0.06787567585706711,-0.009967849589884281,0.0875931978225708,-0.03396891802549362,-0.06520165503025055,-0.013459602370858192,0.06954633444547653,-0.08759934455156326,0.01944131590425968,-0.05260688066482544,-0.025459114462137222,-0.013418594375252724,-0.06561192870140076,0.08175703138113022,0.08567125350236893,-0.01161888986825943,-0.04768979921936989,0.03363463655114174,0.020117633044719696,0.11870885640382767,0.05587293207645416,-0.07533055543899536,0.0766737312078476,-0.035082560032606125,0.016379384323954582,-0.051415205001831055,0.001895446446724236,-0.009627562947571278,-0.05682257190346718,-0.04539977386593819,-0.06682785600423813,-0.017999377101659775,0.004747406113892794,-0.063972607254982,0.016378866508603096,-0.052130576223134995,-0.002622739179059863,-0.052524566650390625,-0.10848404467105865,-0.10066000372171402,0.07765349745750427,0.012691614218056202,0.022529875859618187,-0.025080224499106407,-0.019640440121293068,0.034701619297266006,0.013596968725323677,0.0376986563205719,-0.02984997071325779,-0.014511985704302788,0.06155039370059967,-0.030800234526395798,0.03202122449874878,-0.07732682675123215,-0.026844928041100502,-0.07275202125310898,0.06685695797204971,-0.07133883237838745,0.03490126505494118,0.017361201345920563,-0.0139852249994874,0.030878225341439247,0.009813996031880379,0.08165555447340012,0.009899131953716278,-0.0158619973808527,0.04143516719341278,-0.01029216032475233,0.09828386455774307,-0.006560393609106541,-0.10678737610578537,-0.04103172942996025,-0.06217966228723526,0.06705684959888458,-0.101031094789505,0.054772134870290756,-0.013574233278632164,-0.013757568784058094,0.0013222366105765104,-0.07365800440311432,-0.02565506100654602,0.04365518316626549,0.03685291111469269,0.07100725173950195,0.054321303963661194,0.07478278875350952,0.02076870948076248,0.0079722935333848,0.0069657908752560616,-0.10197468101978302,-0.09242727607488632,0.07731983065605164,-0.07132257521152496,-0.04493226483464241,-0.03968532383441925,-0.05028610676527023,-0.04088674113154411,-0.0757579579949379,0.007442099042236805,-0.060219187289476395,0.018352504819631577,0.016175132244825363,-0.02852695807814598,0.0015744201373308897,0.04431503266096115,0.08899154514074326,-0.07982208579778671,-0.08679167926311493,0.06836780905723572,0.02017069049179554,0.024768777191638947,0.0694439485669136,0.07635855674743652,0.13897401094436646,-0.0014783093938603997,0.10709568858146667,-0.01275768131017685,0.049579910933971405,-0.05629471316933632,0.018428759649395943,0.011874927207827568,-0.05435486510396004,-0.06742364168167114,0.03062451258301735,0.0057104420848190784,0.04797729104757309,0.043616894632577896,-0.000992138055153191,-0.04820816218852997,0.0721370056271553,0.062066562473773956,-0.03181738033890724,-0.037077080458402634,-0.0768599584698677,0.010199367068707943,0.02003699168562889,-0.045910485088825226,0.0721597895026207,0.07613817602396011,-0.11030201613903046,-0.019808907061815262,-0.06874904036521912,-0.05246899649500847,0.04273398593068123,0.11187681555747986,-0.03574487194418907,-0.07067746669054031,-0.04522381350398064,-0.005235095042735338,0.042418379336595535,-0.019930779933929443,-0.043931376188993454,0.005780420731753111,-0.06824273616075516,0.004275111015886068,-0.0792575255036354,0.032723065465688705,0.07010999321937561,-0.007831968367099762,-0.07007509469985962,0.047719310969114304,0.049259401857852936,0.03418707847595215,0.050711099058389664,-0.059523724019527435,0.11639378219842911,0.08551471680402756,0.06821642816066742,-0.016671666875481606,0.08655364066362381,0.08302372694015503,-0.05298769846558571,0.07616596668958664,0.06791909784078598,0.01498800702393055,-0.11542493849992752,0.07904613763093948,0.14061495661735535,0.027501896023750305,-0.037408892065286636,0.014242524281144142,-0.0538855604827404,0.031361259520053864,0.08676525950431824,0.06326558440923691,0.009285450913012028,-0.0692015215754509,-0.004689429886639118,0.039526861160993576,-0.03573687747120857,-0.04685261473059654,-0.0018283973913639784,0.07718852907419205,0.013608312234282494,0.01501845195889473,-0.060113292187452316,0.06205842271447182,-0.04568112641572952,-0.09184157103300095,0.00838844571262598,-0.09177099168300629,-0.06887603551149368,0.11885520070791245,-0.07710889726877213,0.032611746340990067,0.02058444917201996,-0.05690523982048035,-0.07876445353031158,0.031700991094112396,0.05637221038341522,-0.06464146077632904,-0.028925903141498566,0.0480380579829216,-0.011414852924644947,0.07079186290502548,-0.07653293013572693,-0.024512143805623055,-0.057505711913108826,-0.1006142795085907,0.03784629702568054,-0.04483839496970177,-0.07817992568016052,0.007633265573531389,0.08543938398361206,-0.02805297076702118,0.005612061824649572,0.03619351238012314,0.02095581591129303,-0.016694122925400734,0.0015915445983409882,0.08977945148944855,-0.12733416259288788,0.025207236409187317,0.04395607113838196,0.04123261570930481,-0.030748745426535606,0.06362591683864594,0.06643232703208923,0.0606236569583416,-0.008343654684722424,0.06230058893561363,-0.0405171737074852,-0.050921447575092316,-0.028280755504965782,0.026194771751761436,-0.0455237552523613,0.02049541287124157,-0.06487753242254257,0.12198406457901001,-0.0375971645116806,0.06530709564685822,-0.030522022396326065,-0.060014255344867706,-0.06729209423065186,0.06395147740840912,-0.03611978888511658,0.07354244589805603,0.031908921897411346,-0.025350121781229973,-0.000755910063162446,-0.01685260608792305,0.017521079629659653,0.10396711528301239,-0.037572018802165985,-0.040991537272930145,0.10398195683956146,-0.08699473738670349,0.10105477273464203,0.041153546422719955,-0.05271244794130325,0.034872185438871384,0.018913738429546356,0.0881010964512825,-0.018853632733225822,-0.08259184658527374,-0.06960738450288773,-0.010249119251966476,0.04652871564030647,-0.04241849109530449,-0.05750332772731781,0.10994049161672592,0.0700240507721901,-0.031676284968853,0.062311772257089615,0.028531767427921295,0.03505443036556244,-0.040986765176057816,0.043128710240125656,0.06576971709728241,0.032604679465293884,-0.031023886054754257,0.009948166087269783,0.08974999189376831,0.09223630279302597,0.1259888857603073,-0.043137017637491226,0.0977165475487709,-0.022738710045814514,0.015914052724838257,0.06095478683710098,0.04226911813020706,-0.029117204248905182,0.10211025923490524,-0.07216038554906845,0.029729707166552544,0.13601566851139069,-0.015871113166213036,0.04047597199678421,-0.048799630254507065,0.017007123678922653,-0.03610566258430481,0.07914189249277115,0.08661370724439621,0.08187990635633469,-0.0007248425972647965,0.0398273766040802,-0.002778304275125265,-0.021586153656244278,0.047406155616045,0.04542108625173569,-0.0273607075214386,-0.009371292777359486,0.029586004093289375,0.03949743136763573,-0.00479770777747035,-0.03917930647730827,-0.04552241414785385,-0.016053900122642517,0.07614598423242569,-0.013911599293351173,-0.03174305334687233,-0.0175110325217247,-0.1383020132780075,0.01600203663110733,0.01910579949617386,0.049912527203559875,0.10756312310695648,0.01012884546071291,0.019362671300768852,-0.06450170278549194,-0.0415225550532341,-0.08979819715023041,-0.05842680111527443,0.08937771618366241,0.04249460622668266,-0.04197843000292778,-0.029971590265631676,-0.050081104040145874,-0.04051703214645386,-0.025454657152295113,0.01009473204612732,0.09221033751964569,-0.06580811738967896,-0.04126954451203346,-0.014939561486244202,0.001572326640598476,-0.07099483162164688,0.0091401357203722,-0.037766605615615845,-0.08565203100442886,-0.1166599690914154,-0.07293036580085754,-0.08616563677787781,-0.0202777162194252,-0.1007084771990776,-0.018781231716275215,0.02162959612905979,0.09819584339857101,0.09256120771169662,-0.06404189765453339,-0.002874211175367236,0.05642138794064522,0.0756063386797905,0.10204222053289413,0.013356087729334831,-0.0527152493596077,-0.000863228808157146,-0.055082689970731735,0.05653699114918709,0.034063734114170074,0.06628848612308502,-0.0013106471160426736,0.10912378132343292,