{"runId":49,"createdAt":"2026-07-19T18:35:25.133Z","modelFamily":"mlp_v2","hiddenLayers":[32],"inputSize":590,"outputSize":59,"outputNumbers":[1,2,3,4,5,6,7,8,9,10,11,12,13,14,15,16,17,18,19,20,21,22,23,24,25,26,27,28,29,30,31,32,33,34,35,36,37,38,39,40,41,42,43,44,45,46,47,48,49,50,51,52,53,54,55,56,57,58,59],"weights":[{"name":"dense_Dense9593/kernel","shape":[590,32],"values":[0.03868536278605461,0.004017167259007692,0.06469058245420456,-0.06907475739717484,0.003145570633932948,0.08236843347549438,-0.09793392568826675,0.03131788596510887,0.05658375844359398,-0.04112495109438896,-0.020610621199011803,-0.03879880905151367,-0.04529844596982002,-0.024721018970012665,0.06156115233898163,-0.07707802206277847,-0.04954829066991806,0.05844259634613991,0.01778046227991581,0.02028162218630314,-0.025453584268689156,-0.0877617746591568,-0.012092096731066704,0.022749196738004684,-0.011363508179783821,0.04017381742596626,0.02586415968835354,0.07405343651771545,0.07922211289405823,0.044050417840480804,-0.023782875388860703,-0.06955055892467499,0.04962591081857681,-0.04145640879869461,0.0905601903796196,0.035211071372032166,0.04384252056479454,-0.07235220819711685,0.01060513872653246,-0.026621894910931587,0.10300807654857635,0.042566850781440735,0.07348381727933884,-0.05590064823627472,0.06251560896635056,0.07247014343738556,-0.004385756328701973,0.041986409574747086,0.05932540073990822,-0.04541437327861786,0.08055636286735535,-0.05926954746246338,0.06633368879556656,-0.053181082010269165,0.0021375720389187336,-0.06588265299797058,-0.025060633197426796,0.007040768396109343,0.07384835183620453,0.07907424867153168,0.05144056677818298,0.09254267811775208,-0.04130326583981514,0.007132596801966429,-0.08688661456108093,-0.08934380859136581,0.04930920898914337,0.06164412572979927,-0.0587477944791317,0.037124209105968475,0.011938034556806087,0.036950960755348206,-0.0709613561630249,0.00441238097846508,-0.01759665459394455,-0.102876216173172,-0.05192377045750618,0.027765588834881783,-0.02353573776781559,0.06178556755185127,0.07090053707361221,-0.0795377865433693,-0.024955958127975464,0.07419545203447342,-0.0556681789457798,0.026757923886179924,-0.07717105746269226,0.0149992061778903,-0.02364887297153473,-0.07408998906612396,0.002711404347792268,-0.08081981539726257,-0.02398379147052765,-0.03958665952086449,0.04788355901837349,-0.028747277334332466,-0.08070174604654312,0.05100373551249504,0.01060679741203785,0.07222302258014679,-0.04755839332938194,-0.007325632497668266,0.014287535101175308,-0.07989011704921722,-0.05577706918120384,0.01774231158196926,0.03362921625375748,-0.057015612721443176,-0.06661057472229004,-0.03836902976036072,-0.07380534708499908,0.032446328550577164,0.014698472805321217,-0.0760679543018341,0.07153917849063873,-0.09948544204235077,-0.024581704288721085,-0.029727058485150337,-0.02358700893819332,0.013942789286375046,-0.05764482542872429,0.03330089896917343,0.074586421251297,-0.09096655249595642,0.05370328575372696,-0.06849357485771179,-0.05259164050221443,-0.04416678473353386,-0.10367412865161896,0.042910218238830566,0.0493740551173687,-0.031090157106518745,-0.01743208058178425,-0.09515833109617233,0.07495791465044022,0.014006732031702995,-0.03753868117928505,0.038281138986349106,0.06975439935922623,0.08597787469625473,-0.02643311209976673,0.041816968470811844,0.08063223958015442,0.04265584796667099,-0.0435573011636734,0.026472974568605423,-0.035524893552064896,0.013523388653993607,-0.05951901525259018,-0.01508996170014143,0.04878855124115944,0.04591444134712219,0.040648192167282104,0.04996728152036667,0.04440654441714287,-0.027872612699866295,0.07411214709281921,-0.024364767596125603,-0.04420357942581177,0.026949159801006317,0.08221280574798584,-0.039940204471349716,-0.07441692054271698,0.05639355257153511,0.08761516213417053,0.020392531529068947,0.032124705612659454,0.011302117258310318,-0.07005582004785538,0.08554133772850037,0.07339196652173996,-0.03305484354496002,-0.016363617032766342,-0.0463605560362339,0.057195667177438736,-0.03888528048992157,-0.07501578330993652,-0.032864730805158615,-0.08485399931669235,-0.012427981942892075,-0.092783622443676,-0.03886788338422775,-0.10047597438097,0.022249042987823486,-0.06401357799768448,0.07320472598075867,-0.09504450112581253,-0.08731374889612198,-0.03504490852355957,-0.07367626577615738,0.02271667681634426,-0.07611005008220673,0.08414554595947266,0.030940407887101173,-0.03089253604412079,0.08801733702421188,-0.08813399076461792,0.003819500096142292,-0.013940946198999882,-0.06295820325613022,-0.07455790787935257,0.008615965954959393,-0.016070473939180374,0.09080452471971512,0.027940353378653526,-0.007540322840213776,0.026172325015068054,0.07918651401996613,-0.011392299085855484,-0.05246549844741821,-0.062240373343229294,0.013504545204341412,-0.007657424546778202,0.06478838622570038,-0.03834293782711029,-0.028982320800423622,0.06884706020355225,0.04278796911239624,-0.08244165033102036,-0.059791721403598785,-0.003465621266514063,0.0973239466547966,-0.0245183277875185,0.017533712089061737,-0.09077385812997818,0.07027039676904678,-0.04237578436732292,0.04480333253741264,0.05213708430528641,0.07551886141300201,-0.06638379395008087,-0.03542230650782585,0.0007855670992285013,0.05979415774345398,-0.043830256909132004,0.08401131629943848,0.07824134081602097,-0.04518364742398262,-0.04046112298965454,0.00879526138305664,-0.030960790812969208,-0.007418493740260601,0.057688094675540924,0.0068163261748850346,-0.08495113253593445,0.057825684547424316,-0.04718101769685745,0.03832520544528961,0.07346312701702118,0.0288150105625391,0.0858062207698822,0.025298062711954117,-0.011958600953221321,0.009843355976045132,0.012343511916697025,0.06529797613620758,0.023490719497203827,0.03695877268910408,-0.08092641830444336,0.06569527834653854,0.07710762321949005,0.004847829230129719,0.03136812523007393,0.08303504437208176,0.034066494554281235,-0.05681877210736275,-0.061198558658361435,-0.04065632075071335,0.0619405098259449,-0.07973385602235794,-0.06987791508436203,0.06104359030723572,-0.03253358229994774,0.0011877384968101978,-0.008565003052353859,-0.05353151634335518,0.08147619664669037,-0.0994710698723793,0.08407368510961533,-0.03948691859841347,-0.07727488875389099,-0.03393680602312088,-0.023025456815958023,-0.03361470624804497,0.010387456975877285,-0.021779220551252365,-0.03230958804488182,-0.06230395287275314,-0.01475987397134304,0.05034312978386879,0.07249723374843597,0.06552569568157196,0.03851816803216934,0.07197945564985275,-0.026223182678222656,-0.055250462144613266,-0.07435069978237152,-0.025549108162522316,0.03276698663830757,-0.05615859851241112,0.0877399668097496,-0.08551721274852753,-0.09075560420751572,0.008511838503181934,0.07843237370252609,0.09416709840297699,0.022594815120100975,0.029578611254692078,-0.002938954858109355,0.008386827073991299,0.04424392059445381,0.0381024144589901,0.020419631153345108,0.04174642637372017,-0.032844122499227524,-0.05813295766711235,-0.09196241945028305,-0.009339440613985062,0.02160451002418995,-0.03409983217716217,-0.022895878180861473,0.016207460314035416,-0.093869149684906,-0.018846629187464714,-0.029855703935027122,-0.07002918422222137,0.009604380466043949,-0.0016333262901753187,-0.047064997255802155,0.04157307744026184,-0.0316130556166172,0.08055025339126587,-0.08855940401554108,0.008555596694350243,-0.06849014759063721,-0.06534074991941452,0.013637619093060493,-0.004846731200814247,-0.06378144770860672,-0.08301588147878647,0.03295118361711502,-0.01960412599146366,-0.08003880083560944,-0.08139105141162872,0.04374178871512413,-0.030303897336125374,-0.05743088200688362,0.09113552421331406,0.028666222468018532,-0.029397975653409958,-0.03652365878224373,-0.07131151854991913,-0.037635188549757004,-0.07047737389802933,-0.004790878389030695,-0.008758126758038998,-0.061981216073036194,-0.06711716204881668,-0.025592386722564697,-0.034891437739133835,-0.06568620353937149,0.08923620730638504,-0.03431568667292595,0.05761737376451492,0.02447313442826271,-0.06603218615055084,0.005456413142383099,0.007884274236857891,0.04695341736078262,-0.007992541417479515,0.038317833095788956,0.05888401344418526,0.09842746704816818,-0.016138656064867973,0.013245667330920696,0.03558271378278732,-0.09215191006660461,-0.01865820772945881,-0.00493260333314538,-0.08001754432916641,-0.08778006583452225,0.08524499088525772,-0.05099548026919365,-0.02593255788087845,-0.0012653782032430172,-0.10507882386445999,0.07486208528280258,-0.075355663895607,-0.08517175912857056,0.07209300249814987,-0.08150217682123184,0.06369087845087051,0.04844549670815468,0.02792598493397236,0.014542065560817719,-0.07707905769348145,0.039789170026779175,0.08952303975820541,0.0530213788151741,-0.07367134839296341,0.07803592085838318,-0.015085439197719097,-0.006078341975808144,-0.019739249721169472,0.006469184532761574,-0.06475216150283813,-0.09438306838274002,-0.03954138234257698,0.0464579276740551,0.015447416342794895,-0.07887731492519379,-0.05695241689682007,0.031530991196632385,0.010786530561745167,0.03837300091981888,0.0137433847412467,0.05002999305725098,0.09103752672672272,-0.012873604893684387,-0.08688025176525116,0.07490841299295425,0.08902819454669952,-0.08877430856227875,-0.10343547910451889,-0.018833674490451813,0.027102379128336906,-0.06933736056089401,0.009429807774722576,-0.064261294901371,-0.030681025236845016,-0.024092530831694603,0.07984095811843872,-0.027168938890099525,-0.008487241342663765,0.07568102329969406,-0.028207382187247276,0.09268303215503693,0.06752684712409973,0.012748101726174355,0.06536129862070084,0.026354411616921425,-0.0443902388215065,0.06292203068733215,0.10010939836502075,-0.036702994257211685,0.008054899051785469,0.058793049305677414,-0.07398497313261032,-0.06715364754199982,0.016572704538702965,0.04016752541065216,-0.06627457588911057,-0.09660302847623825,0.0411173440515995,-0.08628223836421967,-0.034228719770908356,0.03501827269792557,0.05035250261425972,-0.014416972175240517,0.015795722603797913,-0.08807562291622162,0.02687353640794754,0.04141886532306671,-0.005183629225939512,0.04190228506922722,-0.01731160096824169,0.09944817423820496,-0.07056451588869095,0.06966093927621841,-0.003596351947635412,0.0012632000725716352,0.03340548649430275,-0.02632540836930275,-0.019101353362202644,0.06963478773832321,0.05256852135062218,-0.021377412602305412,0.07816220074892044,0.05547517538070679,-0.04165704920887947,0.029972035437822342,-0.03694867715239525,0.043024398386478424,0.06541762501001358,-0.05693545192480087,-0.058772504329681396,0.049155618995428085,0.0799492821097374,-0.07687236368656158,0.08687896281480789,-0.07394962012767792,0.018397150561213493,-0.06497739255428314,-0.08911945670843124,0.06244560331106186,-0.02160135842859745,-0.027441058307886124,0.060266874730587006,-0.05486379563808441,-0.09986822307109833,-0.07891663163900375,-0.08083632588386536,0.09376111626625061,0.054538384079933167,-0.022016553208231926,0.08001343160867691,0.006464439444243908,0.06505654007196426,-0.06354383379220963,-0.08952832967042923,0.06021657958626747,0.018387071788311005,0.0668925866484642,0.08625760674476624,-0.09153778851032257,0.05341482535004616,0.01279945857822895,-0.043510954827070236,-0.027892744168639183,0.02155127003788948,0.06783699989318848,0.051760125905275345,0.08625079691410065,-0.04504352807998657,0.07845748215913773,0.00969584472477436,-0.04507951810956001,0.053154055029153824,-0.10103747248649597,0.053006090223789215,-0.08096306771039963,-0.024973083287477493,0.02832343615591526,-0.0024500417057424784,0.008965960703790188,0.030707860365509987,0.02185293287038803,-0.061830002814531326,0.051549281924963,0.08151720464229584,-0.07079984247684479,-0.053045473992824554,0.035545747727155685,-0.0015321507817134261,0.037601035088300705,-0.027994319796562195,0.005330554209649563,-0.045444127172231674,-0.015262172557413578,-0.02509923465549946,0.04754732921719551,0.01672336459159851,-0.0912160724401474,0.052655793726444244,-0.0568116158246994,0.017660576850175858,0.021806901320815086,-0.07071870565414429,-0.0708979144692421,-0.013769334182143211,0.07267223298549652,-0.080595962703228,-0.013372838497161865,-0.042988602072000504,-0.07083927094936371,-0.05919934809207916,-0.10365692526102066,-0.016676565632224083,-0.004400396719574928,0.05413011834025383,0.024884426966309547,-0.009279048070311546,-0.05526451766490936,0.033418577164411545,0.05565185844898224,0.06721586734056473,-0.09035321325063705,-0.016324041411280632,0.06389479339122772,0.07085735350847244,-0.04504749923944473,0.04384573549032211,0.017707575112581253,-0.06875939667224884,0.0027233948931097984,-0.03301762044429779,0.09028863161802292,0.07867302745580673,-0.05084006115794182,-0.010460332967340946,-0.07133661210536957,0.08127535134553909,-0.04363881051540375,-0.03527335450053215,-0.05441156402230263,-0.054085277020931244,0.06056598573923111,-0.09120127558708191,-0.053638920187950134,0.041947875171899796,-0.003949648234993219,-0.1045643761754036,0.07265838235616684,0.007443062961101532,0.0028846447821706533,0.002536417217925191,-0.07232222706079483,0.04078522324562073,0.02673402428627014,-0.06976388394832611,-0.0418773889541626,-0.03757573291659355,0.013964666984975338,-0.08172104507684708,0.047349728643894196,0.0753454938530922,-0.06214887648820877,-0.06317716091871262,-0.01940019801259041,0.08078823238611221,-0.07534027844667435,0.041888438165187836,0.04600343853235245,0.07329997420310974,0.02518520876765251,-0.04818827286362648,0.015577424317598343,0.06295841187238693,0.00011971411004196852,0.029567930847406387,-0.08207374066114426,-0.05141308158636093,-0.006950734183192253,-0.03461847081780434,-0.04898255690932274,0.009062506258487701,-0.045279648154973984,0.051920026540756226,-0.033891964703798294,0.0830639973282814,-0.004207659047096968,0.0011247721267864108,-0.03551044315099716,-0.028682665899395943,0.06750578433275223,0.013214610517024994,-0.0018970125820487738,0.06827476620674133,-0.05850375071167946,0.04020896181464195,-0.06203145906329155,-0.06590964645147324,-0.0727791115641594,0.03766225278377533,0.028089817613363266,0.027354346588253975,0.02873837947845459,-0.044133614748716354,0.030094916000962257,-0.0757669135928154,-0.011568170972168446,-0.040383242070674896,-0.01520939078181982,-0.08489573746919632,0.053698427975177765,-0.09266531467437744,-0.061149630695581436,0.04473402723670006,-0.008824467658996582,-0.0461311936378479,-0.026993747800588608,0.00013021513586863875,0.005154566839337349,0.05466728284955025,0.042176179587841034,-0.07103897631168365,0.01123855821788311,0.004632255993783474,-0.06100985035300255,-0.09431430697441101,0.07147298753261566,0.01474203635007143,0.08629270642995834,-0.09124286472797394,-0.09328261017799377,0.038748640567064285,0.03422119468450546,0.05361908674240112,0.042917147278785706,0.061054859310388565,0.03302778676152229,0.07666588574647903,-0.04680603742599487,-0.08901067078113556,0.0585467554628849,0.030515246093273163,0.06813155859708786,0.08179108053445816,0.028933297842741013,0.03547940030694008,-0.08081523329019547,-0.04897003620862961,-0.01547103188931942,-0.02805626578629017,-0.06658901274204254,-0.08858019858598709,0.025455355644226074,0.07419390231370926,-0.07447822391986847,0.05321391299366951,0.0706503838300705,-0.0656779408454895,0.04516912251710892,-0.07088396698236465,0.018872655928134918,0.0746886283159256,-0.04743741825222969,-0.08819921314716339,0.036441490054130554,0.023632369935512543,0.08995512127876282,0.014569875784218311,0.008188894018530846,-0.013134093023836613,0.039396826177835464,0.02092304266989231,-0.08772469311952591,0.017187684774398804,0.04391367360949516,0.04421928897500038,-0.009109345264732838,0.014262769371271133,-0.07415065169334412,-0.02933221124112606,-0.08473005145788193,0.024953577667474747,0.005320702213793993,-0.009186821058392525,0.014831301756203175,-0.03856370598077774,-0.03078274056315422,-0.08083873242139816,0.05213475972414017,-0.0826299786567688,-0.04003797098994255,-0.013158326968550682,-0.08188853412866592,0.028390053659677505,0.018676836043596268,-0.05631723627448082,0.023129265755414963,-0.07740899175405502,-0.03483099117875099,-0.09775861352682114,0.006247088313102722,0.04426004737615585,-0.08354788273572922,-0.05640244856476784,0.03340082988142967,0.036795150488615036,-0.06819169223308563,-0.09080754965543747,0.053040411323308945,-0.016900157555937767,0.013874394819140434,-0.09466899186372757,0.04914834350347519,-0.019657166674733162,0.006926576141268015,0.07397014647722244,0.0547531433403492,-0.041539814323186874,0.07941936701536179,0.09163227677345276,-0.06794200092554092,0.06738629937171936,0.029459523037075996,0.04197930172085762,-0.03177366778254509,-0.00736294686794281,-0.027709415182471275,-0.02381463348865509,-0.009543783031404018,-0.04813327267765999,-0.08352107554674149,-0.09192801266908646,0.07834453135728836,0.0012399376137182117,-0.056213874369859695,0.028952578082680702,-0.003918543923646212,-0.05480017513036728,-0.00007930343417683616,-0.0503133125603199,0.08687465637922287,0.07690194994211197,-0.023701898753643036,0.04408887401223183,0.03993604704737663,-0.006769086699932814,0.012438192963600159,0.04406513273715973,-0.08207882195711136,0.06579147279262543,0.042319413274526596,0.06387273222208023,-0.01396968960762024,0.0758824273943901,-0.015111303888261318,0.09822983294725418,-0.021361976861953735,-0.0013759679859504104,0.07104368507862091,0.09255632013082504,-0.09960681200027466,0.036430004984140396,0.0134400250390172,0.030026590451598167,0.030704593285918236,-0.09868767857551575,-0.08398903906345367,-0.0896422266960144,0.006657824385911226,0.06790981441736221,-0.08005950599908829,-0.057777196168899536,-0.09214843809604645,-0.014205069281160831,0.06366689503192902,0.0611349456012249,0.009072721004486084,-0.08302316814661026,0.022184720262885094,-0.06742481142282486,0.015762874856591225,0.011186783201992512,0.0035827544052153826,-0.054314859211444855,-0.02388427034020424,-0.00426294794306159,0.014483804814517498,0.04157553240656853,0.006207818631082773,-0.018649859353899956,-0.008656087331473827,0.053855881094932556,-0.04897764325141907,-0.08480942994356155,0.09828803688287735,0.0137161985039711,0.0433676540851593,-0.07004105299711227,0.023744655773043633,-0.04236776381731033,0.053056180477142334,-0.08976101875305176,-0.06347203999757767,0.06174998730421066,-0.06792444735765457,0.03235094994306564,-0.059191152453422546,0.041510019451379776,0.056755948811769485,0.038525599986314774,0.014572097919881344,0.0771423950791359,0.03853416070342064,-0.022672094404697418,0.06333709508180618,0.06963715702295303,-0.005572570022195578,-0.04961380735039711,-0.08317578583955765,0.02478039264678955,0.007544696796685457,0.07529846578836441,-0.009798040613532066,-0.03165265917778015,-0.015168341808021069,0.02976277843117714,0.06755880266427994,0.08744695782661438,0.06012177839875221,-0.03864319249987602,0.07023770362138748,-0.07713392376899719,-0.08968325704336166,0.029473913833498955,0.07161488384008408,0.007213627453893423,-0.0836876928806305,0.03719457611441612,0.06308421492576599,-0.016270169988274574,0.0014327301178127527,0.023814687505364418,0.02555886097252369,0.05254518985748291,-0.05888257175683975,0.10596708953380585,0.046639714390039444,0.07119868695735931,-0.016056152060627937,0.08201020956039429,0.037334877997636795,0.015212377533316612,-0.007819916121661663,0.033765193074941635,0.07258473336696625,-0.041954800486564636,-0.0459684282541275,0.0786188393831253,-0.08210544288158417,0.0891028493642807,0.05912710726261139,0.005036966409534216,-0.06596538424491882,0.09563956409692764,-0.060115307569503784,0.09216974675655365,-0.002077430486679077,-0.09163860231637955,0.06407693028450012,-0.07945356518030167,-0.08735828101634979,-0.0222331490367651,0.09164054691791534,-0.007120220921933651,-0.03703635185956955,-0.05994344502687454,-0.09156415611505508,-0.010813032276928425,-0.0340743288397789,0.05814381316304207,0.03970593959093094,-0.020792316645383835,-0.061184100806713104,0.058226488530635834,-0.021928897127509117,0.04808808118104935,-0.010383456014096737,0.07775788754224777,0.0027379414532333612,0.07452169060707092,0.08849585056304932,-0.03800573572516441,-0.01848503015935421,0.06545302271842957,-0.06040918827056885,0.013059712946414948,0.07005387544631958,0.0274430550634861,0.06655173748731613,0.009128795005381107,-0.09270820021629333,-0.025471054017543793,-0.01618197374045849,-0.013403650373220444,0.04983309283852577,0.04633793607354164,-0.09742968529462814,0.07462724298238754,0.023473981767892838,0.006403726525604725,0.08077101409435272,0.009806410409510136,-0.09757723659276962,-0.040118612349033356,-0.041767995804548264,-0.09575807303190231,-0.06574918329715729,0.07191546261310577,0.08274611085653305,-0.06891118735074997,-0.05066699907183647,0.09338436275720596,-0.010750782676041126,-0.05426999554038048,-0.06338072568178177,0.016801660880446434,0.02755820006132126,-0.0738171637058258,-0.0918746292591095,0.09171333909034729,0.03050873428583145,-0.04008369520306587,-0.08510687947273254,0.052649833261966705,0.004294176585972309,0.07861164212226868,0.05023527145385742,-0.05881170555949211,0.062093980610370636,0.07739295065402985,-0.07087885588407516,-0.041479285806417465,0.05653750151395798,0.01964699476957321,-0.037422679364681244,-0.10249334573745728,-0.004179047886282206,0.008972667157649994,-0.035189878195524216,-0.014229029417037964,0.030813144519925117,-0.10014058649539948,-0.043383754789829254,-0.0677613839507103,-0.056647952646017075,0.013947986997663975,0.049759309738874435,-0.00856418814510107,-0.009113023988902569,0.00776362931355834,0.09797856211662292,-0.023092353716492653,-0.09249994903802872,-0.023836350068449974,0.05433408543467522,-0.07571685314178467,-0.008676683530211449,0.05097243934869766,0.03844371438026428,0.06968095153570175,-0.08749175816774368,-0.07914341986179352,-0.09672695398330688,0.072713702917099,0.03093820810317993,-0.03221951052546501,-0.08099765330553055,-0.08051010221242905,0.01900840923190117,0.04107215628027916,-0.05030960217118263,0.024251233786344528,0.025361329317092896,-0.010967161506414413,0.06153804436326027,0.03510246425867081,-0.0093384375795722,0.0802692249417305,-0.09227973967790604,-0.00038781575858592987,0.06427210569381714,-0.054678041487932205,0.0855659693479538,-0.09376053512096405,-0.09168314188718796,-0.05111466348171234,-0.06562469154596329,0.07273042947053909,0.05403469130396843,0.010098867118358612,0.006022681947797537,-0.08467331528663635,-0.043257080018520355,-0.052655208855867386,0.05764811486005783,0.08871660381555557,-0.08790477365255356,-0.039186690002679825,-0.09421355277299881,0.03595200553536415,0.01726989634335041,0.016626276075839996,-0.0568738617002964,0.08561529219150543,-0.046759527176618576,-0.02970370464026928,0.08013762533664703,-0.025437310338020325,0.05851325765252113,-0.0102358628064394,-0.0460553914308548,-0.08538094162940979,-0.05656546726822853,-0.08255424350500107,0.08827154338359833,-0.036150187253952026,-0.045138150453567505,0.012447893619537354,-0.07061368972063065,-0.10271549969911575,-0.007515034172683954,-0.008116182871162891,0.04723982512950897,-0.020724942907691002,-0.0262038204818964,-0.06762269139289856,-0.035246431827545166,0.07952654361724854,-0.09010342508554459,-0.062349531799554825,-0.04691377282142639,-0.0224637221544981,-0.09132910519838333,0.03911978006362915,-0.016467679291963577,-0.043909333646297455,-0.07219917327165604,-0.07283444702625275,-0.09254556149244308,0.0745338425040245,0.06844843924045563,-0.06320519000291824,-0.021741371601819992,0.008852980099618435,0.055794041603803635,0.06042958050966263,-0.032676707953214645,-0.021767960861325264,-0.023535629734396935,0.08486659079790115,0.09079325199127197,0.05623506009578705,-0.08277158439159393,0.04601331800222397,-0.06272304803133011,0.022567104548215866,-0.07003895193338394,0.09317514300346375,-0.06091752275824547,-0.04851270467042923,-0.08011498302221298,-0.06695426255464554,0.015341833233833313,0.05951184779405594,-0.050355423241853714,-0.03934489190578461,0.03769533708691597,0.05175771936774254,0.036904532462358475,-0.041044410318136215,-0.010657761245965958,-0.09187042713165283,-0.003808234818279743,-0.10361436754465103,-0.022744832560420036,-0.09091193974018097,0.06610282510519028,-0.050145819783210754,-0.07168969511985779,-0.04174492508172989,0.09202677011489868,-0.06657441705465317,-0.07065969705581665,-0.028602002188563347,0.09262872487306595,-0.09481805562973022,-0.09442184865474701,-0.0990709438920021,-0.05378815159201622,0.067281074821949,-0.05586327984929085,-0.02214914932847023,0.01357863750308752,-0.000746689853258431,-0.07149579375982285,0.057899925857782364,-0.06591781228780746,-0.09532937407493591,0.0773785337805748,0.08731245994567871,0.0328480489552021,0.09220105409622192,-0.08627341687679291,0.03633531555533409,0.06366949528455734,0.05862564221024513,0.0444132536649704,0.024261003360152245,-0.05885729566216469,0.06772759556770325,0.0407581590116024,-0.1025179922580719,0.042883653193712234,0.07698491960763931,0.05306775122880936,-0.039173565804958344,-0.0022381378803402185,-0.03823745623230934,-0.0643111988902092,-0.004341778811067343,-0.08591598272323608,-0.07324516028165817,0.0989266112446785,0.04010827839374542,-0.07783494144678116,-0.07446642220020294,-0.10277971625328064,-0.0815650150179863,0.05012477561831474,-0.06475160270929337,-0.07901090383529663,-0.04076246917247772,0.06801465153694153,0.00086734548676759,-0.07460880279541016,-0.023602550849318504,0.0000685410195728764,-0.05946251377463341,-0.09631764888763428,0.010272047482430935,0.07843957841396332,0.039807531982660294,-0.02424551174044609,0.08639327436685562,0.01644803211092949,0.06366197764873505,0.06489496678113937,0.06896935403347015,0.09476733952760696,0.06919988989830017,0.05343347787857056,0.0634048655629158,-0.0954640731215477,0.06416790932416916,0.030842328444123268,-0.08825647085905075,0.06210765242576599,0.06250175088644028,-0.020775189623236656,-0.0027348727453500032,0.055761560797691345,0.002132113790139556,0.08118504285812378,-0.020645925775170326,0.051170311868190765,-0.031741783022880554,-0.07504083216190338,0.04082227498292923,-0.035087950527668,0.08993081003427505,0.08571042865514755,0.0006599116022698581,-0.08042198419570923,-0.004921886138617992,0.022747643291950226,-0.0933387279510498,0.01693052612245083,-0.00288793770596385,-0.06380485743284225,-0.08769209682941437,0.06602504104375839,0.05739446356892586,-0.029332909733057022,-0.10030834376811981,0.0024702614173293114,0.0872318372130394,0.044543638825416565,-0.04271141067147255,0.09365853667259216,0.041660409420728683,0.002329574665054679,-0.04369748756289482,-0.05061831325292587,-0.07582706958055496,0.0750817358493805,0.03993202745914459,0.054822105914354324,-0.004582038149237633,0.0017528044991195202,-0.06954166293144226,0.059867266565561295,-0.07119393348693848,-0.05984405428171158,-0.06789962202310562,-0.05502849072217941,0.07946136593818665,-0.04013632982969284,-0.028474438935518265,0.04320936277508736,-0.06906699389219284,-0.02996114082634449,0.039215415716171265,-0.04777948558330536,0.042487550526857376,-0.04774242639541626,0.003798250574618578,0.05078274384140968,-0.09404231607913971,-0.09801684319972992,0.0629190057516098,-0.06710013002157211,0.005990386009216309,-0.07507345825433731,-0.05870562046766281,-0.0736410915851593,-0.03225719928741455,-0.03461151942610741,0.00612383708357811,0.023157473653554916,-0.07608609646558762,-0.024975862354040146,-0.06555679440498352,0.069178007543087,-0.026308633387088776,-0.03827261924743652,-0.05118104815483093,0.07058870047330856,-0.01350394356995821,0.060743238776922226,0.036614879965782166,0.06439902633428574,-0.10469719767570496,0.02164621464908123,-0.000362959603080526,0.018866796046495438,0.0963737890124321,0.006731029599905014,0.053706612437963486,-0.036093901842832565,0.05000291392207146,0.05901003256440163,-0.09690205752849579,-0.05541391298174858,0.0665496364235878,0.011295321397483349,0.07420032471418381,-0.031327880918979645,-0.05876263603568077,0.07559340447187424,0.06554445624351501,0.0809824988245964,0.05255488306283951,-0.07129376381635666,0.04460432007908821,-0.04724428802728653,-0.05481353774666786,-0.003183254273608327,0.03379613161087036,0.0920398160815239,0.08943438529968262,-0.036130089312791824,0.004181836731731892,-0.013129171915352345,-0.01995728723704815,0.05475425347685814,0.05279281362891197,-0.016819344833493233,-0.009215351194143295,-0.0850474089384079,-0.024385852739214897,0.04727230966091156,0.04925552010536194,-0.0323411263525486,-0.02489837259054184,0.08361350744962692,0.0245883259922266,-0.04155011102557182,0.08733877539634705,0.013256615959107876,0.0975712239742279,0.09382959455251694,0.006049558985978365,0.06220697984099388,-0.029578251764178276,-0.03467927873134613,0.08670344948768616,0.07899601012468338,-0.025256220251321793,-0.020609917119145393,0.019970113411545753,0.04505732282996178,-0.057250991463661194,-0.01609017699956894,-0.05718614161014557,-0.08670169115066528,-0.10161026567220688,-0.008491585962474346,-0.05691204592585564,0.013815157115459442,-0.029842892661690712,0.0889107957482338,-0.06254878640174866,-0.007577875163406134,-0.09730599075555801,-0.07376322150230408,-0.05907571315765381,0.08267940580844879,0.004627997521311045,0.03389781340956688,-0.07663942128419876,-0.09285759925842285,-0.021491630002856255,-0.08106500655412674,-0.03886475786566734,0.024192092940211296,-0.07488738000392914,0.011060310527682304,0.02554560825228691,-0.01420222781598568,-0.02364373579621315,-0.04384123533964157,0.09494800865650177,0.05727846175432205,0.015338919125497341,-0.02290705218911171,-0.0897047147154808,0.10386805236339569,0.02194909378886223,0.013300709426403046,-0.023425381630659103,-0.028335539624094963,0.0867341086268425,0.09429507702589035,0.018420463427901268,0.019042586907744408,-0.0026554297655820847,0.011507786810398102,-0.07445406168699265,0.045768123120069504,-0.02790478803217411,-0.0021072288509458303,0.043805111199617386,0.0388948954641819,-0.043583523482084274,0.08690696209669113,-0.03912834823131561,0.03720764443278313,-0.038614120334386826,0.03131290152668953,0.05136823654174805,-0.04558824002742767,-0.059922296553850174,-0.066571906208992,-0.07292667031288147,-0.0023432166781276464,0.0314265638589859,-0.09951107949018478,-0.07359644025564194,-0.07571049779653549,-0.025541046634316444,0.041082240641117096,0.07696503400802612,-0.07086241245269775,0.013532496988773346,0.08328063040971756,0.05739539489150047,0.07012780755758286,0.017138594761490822,0.01080789603292942,-0.07083036005496979,-0.0643998384475708,0.0749422237277031,-0.06077209860086441,-0.04255006089806557,-0.07485178858041763,-0.049960337579250336,-0.005707100033760071,0.041611406952142715,-0.07844894379377365,0.047112297266721725,0.08481254428625107,0.03208198398351669,0.04054111987352371,-0.04347475245594978,-0.09468889981508255,0.0543702058494091,-0.0407101996243,-0.06537491828203201,-0.06366539746522903,0.02427411451935768,-0.08566558361053467,0.06727699935436249,-0.009622596204280853,0.05822250619530678,0.06707828491926193,-0.07814877480268478,0.05798922851681709,-0.06105867400765419,-0.0471423901617527,0.002056382829323411,-0.022378606721758842,0.06201905012130737,0.05173918604850769,0.010873008519411087,-0.009739221073687077,-0.016810612753033638,0.09070057421922684,0.01230075303465128,-0.025266258046030998,-0.076143778860569,0.026864834129810333,-0.02026922069489956,-0.08647961914539337,0.08372308313846588,-0.0038084941916167736,-0.06678197532892227,-0.07184414565563202,0.005754661280661821,-0.08365893363952637,-0.02199154533445835,-0.07625782489776611,0.006323948502540588,-0.0969717800617218,0.03930946812033653,0.08903483301401138,-0.06642173230648041,0.06827058643102646,-0.05058429390192032,-0.05236194655299187,-0.07241575419902802,-0.04944663122296333,0.0685221254825592,0.08581890165805817,-0.017041604965925217,0.07059352099895477,0.06971190124750137,-0.07757338136434555,0.0034132611472159624,-0.07720791548490524,0.02134070359170437,0.07043866813182831,0.01284188311547041,-0.0587569922208786,-0.021422097459435463,-0.050217531621456146,0.018403654918074608,0.005103646777570248,0.024095026776194572,-0.09068610519170761,0.0028902688063681126,-0.06034160405397415,0.06825356930494308,-0.0840715542435646,-0.08636628091335297,-0.02042798139154911,0.06874307990074158,-0.04804740101099014,-0.08346907794475555,-0.07156156748533249,0.05394617095589638,-0.06322287768125534,0.021470200270414352,0.054281022399663925,-0.03669748082756996,-0.07471700757741928,-0.07210155576467514,0.03416617587208748,-0.09238099306821823,0.014924820512533188,-0.05537397786974907,0.08849100768566132,-0.0811665803194046,0.05117802694439888,0.05446614697575569,0.0380992516875267,0.054665707051754,0.013948549516499043,0.06196898967027664,-0.08609268814325333,-0.049084682017564774,-0.09870804846286774,0.07372524589300156,0.07822790741920471,-0.0036713811568915844,-0.08197614550590515,-0.015426223166286945,-0.05229143053293228,-0.04326159879565239,-0.09950379282236099,0.06888195872306824,-0.06056475266814232,0.08980415016412735,-0.010325818322598934,0.012217732146382332,-0.09402042627334595,0.03990023955702782,-0.013690991327166557,-0.10135897994041443,0.0730915367603302,0.021651048213243484,-0.05844013765454292,0.012469002045691013,-0.0756259560585022,0.05734194815158844,0.0443197600543499,-0.02659095823764801,0.002281859517097473,0.0059229349717497826,-0.07283022999763489,0.06516190618276596,-0.08557965606451035,-0.02824227884411812,0.03749910369515419,-0.03923621401190758,-0.07041068375110626,-0.033631373196840286,0.06304078549146652,0.010979745537042618,-0.006899417843669653,-0.014383841305971146,-0.08473876863718033,0.041990626603364944,-0.0829218327999115,0.07842525839805603,0.0706036388874054,0.06511055678129196,-0.03147006034851074,-0.0015183110954239964,0.016337139531970024,0.08164448291063309,-0.06906969845294952,-0.02818262204527855,-0.044544026255607605,0.07724634557962418,-0.04354189708828926,-0.010531015694141388,-0.018300967290997505,0.0594496950507164,-0.040015820413827896,-0.0672917515039444,0.00543541694059968,0.06365407258272171,-0.059467390179634094,0.08125519752502441,0.038043707609176636,0.035161521285772324,0.0668535977602005,-0.014683512039482594,0.004706835374236107,0.028116242960095406,-0.04207150265574455,0.03815368935465813,-0.020650068297982216,-0.02777944877743721,-0.04540114477276802,-0.07141994684934616,-0.010052855126559734,0.06227341666817665,-0.0012944454792886972,0.03316471725702286,0.0817771703004837,0.05094701051712036,-0.03814120218157768,-0.06791405379772186,-0.08343254029750824,0.0781608372926712,0.05045847222208977,0.05391834303736687,0.08994977921247482,0.09137339890003204,-0.10963985323905945,-0.07834569364786148,-0.09613429009914398,-0.03265123814344406,0.05583275109529495,0.015406716614961624,0.05183929577469826,-0.07448583096265793,0.07651019096374512,-0.027427779510617256,-0.01085718348622322,-0.02019209787249565,-0.03724369406700134,0.02791742980480194,0.03830752149224281,-0.07363758981227875,-0.04603005573153496,-0.05485063046216965,-0.04708905518054962,0.036247264593839645,-0.009082803502678871,-0.06367366015911102,0.0069912392646074295,0.028559645637869835,-0.04114498570561409,0.022708430886268616,0.02405618689954281,-0.006573230493813753,-0.04754475876688957,0.0498141348361969,-0.02792041189968586,0.09145181626081467,-0.09809955209493637,0.003173579229041934,-0.030636504292488098,0.008162030018866062,-0.03574515879154205,-0.06972508132457733,0.08064579963684082,0.07620157301425934,-0.06195943430066109,-0.08978977054357529,0.0332007072865963,0.05757054686546326,0.029941510409116745,-0.02828151360154152,0.06967656314373016,0.07739835232496262,0.06374876946210861,0.062208931893110275,-0.013431061990559101,-0.0919228345155716,0.026474202051758766,-0.024338187649846077,0.04190478101372719,0.05503363162279129,-0.08539332449436188,0.03835415095090866,-0.06903976947069168,-0.07101847976446152,0.03474986180663109,-0.047125931829214096,-0.0580424964427948,0.06510849297046661,0.06800571829080582,-0.04140252619981766,-0.06102442741394043,0.07826796174049377,-0.04327113553881645,-0.022994164377450943,0.0456206314265728,0.002537307795137167,-0.05786249041557312,0.060351163148880005,0.031170928850769997,-0.046673182398080826,0.045051004737615585,-0.03714833781123161,0.03921717777848244,0.06947219371795654,0.0538354367017746,-0.06906708329916,-0.06235896795988083,-0.02789991907775402,0.011282876133918762,0.0030930745415389538,-0.04074009880423546,0.07258868217468262,0.02519049681723118,0.027308734133839607,0.03528374433517456,0.08079026639461517,-0.09729085862636566,0.0670347660779953,0.09182175993919373,0.0716676265001297,-0.0005460029351525009,0.06793346256017685,0.013069412671029568,0.017244044691324234,0.024211252108216286,-0.03319898992776871,0.06338406354188919,0.06545385718345642,-0.060566581785678864,0.008257255889475346,0.03831684589385986,-0.06510896980762482,0.08991736173629761,0.010513574816286564,0.060188207775354385,0.004357829689979553,0.038398243486881256,-0.015814438462257385,-0.005355938337743282,0.05536279454827309,-0.056016985327005386,-0.027403080835938454,-0.03823159635066986,0.05135348439216614,-0.008395698852837086,-0.014763515442609787,-0.004443724639713764,0.01527814194560051,-0.040891263633966446,0.01684640720486641,0.08082648366689682,0.07881154119968414,0.0034437652211636305,0.08531700074672699,-0.04363332316279411,-0.04317526891827583,0.062046200037002563,-0.04589305445551872,0.010144511237740517,-0.0948835164308548,0.021700246259570122,-0.07096777111291885,-0.0013137963833287358,0.08510962873697281,0.08163406699895859,-0.009621263481676579,-0.08151022344827652,0.06778667867183685,0.06637938320636749,0.0452750138938427,0.09429030120372772,-0.09116555005311966,0.05953565612435341,0.009298318065702915,0.0412873774766922,-0.06392055004835129,0.06787589937448502,-0.008226200006902218,-0.07649920135736465,0.045157600194215775,0.07103826105594635,0.08581303805112839,-0.02214636094868183,0.09397851675748825,0.018121840432286263,-0.044641830027103424,-0.008727720007300377,0.021742569282650948,-0.028255991637706757,-0.0026392186991870403,0.05668599531054497,-0.09315701574087143,0.08517541736364365,0.014865384437143803,-0.015314565040171146,0.04527770355343819,-0.0881931334733963,-0.06703872233629227,0.06481875479221344,-0.010977494530379772,-0.007890669628977776,-0.028190717101097107,-0.016200613230466843,0.04636883735656738,0.0661349669098854,0.056500401347875595,0.037481293082237244,-0.09035614877939224,-0.03986867144703865,-0.0943680927157402,0.06388475000858307,-0.01990366540849209,-0.03665383160114288,-0.07623399794101715,-0.03760389983654022,0.06438377499580383,-0.07984592020511627,0.011885261163115501,-0.018916236236691475,-0.020399831235408783,-0.007844146341085434,0.0949704572558403,-0.09622247517108917,0.017351306974887848,-0.022735433652997017,0.04042171314358711,0.03199455514550209,0.07822701334953308,0.01754755526781082,0.027821961790323257,-0.07555568218231201,-0.01273196842521429,-0.0012414224911481142,0.02788921445608139,0.03253999352455139,0.0756039097905159,-0.018609991297125816,0.05084502696990967,-0.08055263757705688,-0.01762162148952484,-0.022854244336485863,-0.02452182210981846,0.08453632891178131,0.08012350648641586,-0.03189738094806671,0.06446092575788498,-0.07835894823074341,0.032266661524772644,-0.09012077748775482,-0.011013101786375046,-0.06870856136083603,0.08194950968027115,0.043902479112148285,-0.022440187633037567,0.07135188579559326,0.0758960098028183,0.018987208604812622,-0.07757924497127533,0.020816020667552948,0.059743255376815796,-0.08666176348924637,-0.003461273154243827,-0.005260556470602751,0.0859859511256218,-0.10080602020025253,0.042942509055137634,-0.08914510905742645,0.055131394416093826,-0.020850587636232376,-0.04203146696090698,-0.06509915739297867,-0.0668087974190712,0.0261643435806036,-0.043132662773132324,0.050543639808893204,-0.05985094606876373,0.04695424437522888,-0.06973685324192047,0.01757262833416462,-0.09371588379144669,-0.05928904563188553,0.0006836032262071967,-0.02174462005496025,0.033183369785547256,0.09521484375,-0.09069673717021942,-0.0876401960849762,0.09478266537189484,0.07902313023805618,0.012710006907582283,-0.0640057921409607,-0.06242012605071068,0.05336359515786171,-0.014141980558633804,-0.030903391540050507,-0.06571824103593826,0.030109623447060585,0.04757383465766907,-0.0381028950214386,-0.07915657758712769,0.05264228954911232,-0.015024842694401741,0.026441670954227448,0.0880325511097908,0.049778636544942856,-0.06850102543830872,0.0726296678185463,0.08553144335746765,0.016232624650001526,-0.06190795078873634,-0.05547848343849182,0.016619017347693443,-0.07798177748918533,0.08207904547452927,-0.07680109143257141,0.045585308223962784,-0.03692113980650902,0.008753105998039246,0.048368800431489944,0.02532229572534561,0.0796944871544838,0.008928269147872925,0.08753939718008041,0.0017912968760356307,-0.07988842576742172,-0.07672839611768723,0.041603896766901016,0.005885416641831398,-0.08134852349758148,0.04888268560171127,0.08767373114824295,0.01898394525051117,-0.004505205899477005,-0.004829941317439079,-0.04286349192261696,0.008531169034540653,-0.0017300851177424192,-0.05551014095544815,-0.039998654276132584,0.04606638476252556,-0.014459150843322277,-0.05197729542851448,0.04951279237866402,0.058378562331199646,0.0007961186347529292,-0.07003665715456009,-0.03263919800519943,-0.03064066730439663,0.04167017713189125,-0.08483554422855377,0.01978228986263275,-0.09788332134485245,0.08706343919038773,-0.07309839129447937,0.010052145458757877,-0.05333811789751053,-0.07559356093406677,-0.039189912378787994,-0.08141119033098221,-0.05453860014677048,-0.04313727468252182,-0.032540127635002136,-0.058289121836423874,-0.08610368520021439,0.0017056757351383567,0.0665070191025734,-0.08716574311256409,0.0693322941660881,-0.07955227792263031,-0.041408803313970566,-0.0958438366651535,0.021434180438518524,-0.10300052911043167,0.06378412246704102,-0.042752813547849655,-0.08770491927862167,0.057610854506492615,-0.055409979075193405,0.06479552388191223,-0.06806182116270065,0.010056467726826668,-0.005907152779400349,-0.09462932497262955,0.03857121616601944,-0.020869992673397064,0.022322461009025574,0.08102510124444962,0.015000625513494015,-0.06883905827999115,-0.018048211932182312,0.047728393226861954,-0.05498073622584343,0.05368713662028313,-0.08653050661087036,-0.028382858261466026,0.020658385008573532,0.03486623987555504,-0.05402038246393204,0.06690579652786255,-0.07281249016523361,-0.06007036566734314,-0.05519367381930351,0.048598870635032654,0.02083839848637581,-0.04885231330990791,-0.07727006822824478,0.009588347747921944,0.007851503789424896,-0.07288619130849838,-0.019264807924628258,0.0452105738222599,-0.0306220892816782,-0.07669021189212799,-0.0990339145064354,-0.08478467166423798,-0.017761418595910072,0.07210269570350647,0.03600257262587547,-0.07989053428173065,0.023442905396223068,-0.03648265078663826,0.03523541986942291,-0.015639599412679672,0.08705571293830872,-0.01650570146739483,0.0008539279224351048,0.0191219262778759,-0.08187273144721985,0.001446769223548472,-0.0025473579298704863,-0.05527552217245102,-0.033853717148303986,0.012954569421708584,0.06262905150651932,0.026531552895903587,0.07211188226938248,-0.030199861153960228,-0.0929785743355751,-0.032034359872341156,0.04205656796693802,0.08925031125545502,-0.056937117129564285,0.022539379075169563,0.030647240579128265,-0.09535708278417587,-0.012752994894981384,0.026065856218338013,0.06702859699726105,0.025832420215010643,0.05852321907877922,-0.062095578759908676,-0.0741661787033081,0.0008565615862607956,-0.10583532601594925,0.020480399951338768,-0.08129086345434189,0.029578184708952904,-0.08835016936063766,-0.050387945026159286,0.0326404795050621,0.0704011619091034,0.05353642255067825,0.061875998973846436,-0.022594492882490158,0.07052981853485107,-0.014335460029542446,0.05295570194721222,-0.06015600264072418,0.05730665102601051,-0.03550466522574425,-0.017427900806069374,-0.0031204018741846085,-0.10109227895736694,0.07779176533222198,-0.07231754064559937,0.07720495015382767,-0.07959649711847305,0.09200205653905869,0.0898125171661377,0.026265114545822144,0.01582968421280384,0.08185360580682755,-0.09211570769548416,0.06486539542675018,0.08135226368904114,-0.08402448892593384,-0.06404445320367813,-0.08438294380903244,0.035634323954582214,0.057248927652835846,-0.05480717495083809,0.05153132975101471,-0.09099345654249191,0.02504740096628666,-0.05890631675720215,0.05585066229104996,-0.035469308495521545,0.013310731388628483,-0.027399251237511635,0.08271539211273193,-0.04287649691104889,-0.04118376225233078,0.03487071022391319,0.09661701321601868,0.0826716497540474,0.0541953444480896,-0.03239424526691437,-0.08416436612606049,0.006032860837876797,-0.00523022934794426,0.01581007055938244,0.0692036896944046,0.04388635605573654,-0.016428455710411072,-0.0577232800424099,0.04061649739742279,0.04978415369987488,0.03851702809333801,0.053518738597631454,-0.02478998340666294,0.0480225533246994,-0.009740056470036507,0.03394775092601776,-0.07539001852273941,-0.052049119025468826,0.09422250092029572,0.08976557105779648,-0.10327637940645218,-0.0881555899977684,0.0411180816590786,0.02058670111000538,0.011760519817471504,-0.07036947458982468,0.029514318332076073,0.021201876923441887,0.021971359848976135,-0.021039634943008423,0.08819791674613953,-0.02511465549468994,-0.023678043857216835,0.05940200015902519,-0.08789582550525665,0.08072339743375778,0.05677242949604988,0.047814082354307175,0.005444382783025503,0.03748886287212372,0.017864275723695755,-0.07947073876857758,-0.010047739371657372,0.09166904538869858,0.025749709457159042,-0.070128433406353,0.09025582671165466,-0.0423876978456974,0.019018592312932014,0.08509407192468643,0.009491312317550182,-0.09427913278341293,-0.06847572326660156,0.02617529034614563,0.03989998996257782,-0.009966305457055569,-0.005015165079385042,0.07402665913105011,0.04379379749298096,-0.08871611952781677,-0.08368273079395294,0.025597913190722466,-0.010023915208876133,-0.06469056010246277,-0.0722019225358963,-0.032549530267715454,-0.014912741258740425,-0.07785675674676895,-0.09879592061042786,0.09449702501296997,0.04152189940214157,0.009358255192637444,-0.0038143994752317667,0.020294442772865295,0.01813172735273838,0.0007605880964547396,0.021120170131325722,-0.04201151803135872,-0.05107129365205765,-0.04712574556469917,-0.09567741304636002,-0.017992932349443436,0.005659712478518486,0.0762840285897255,-0.02297605760395527,-0.07658056169748306,-0.0020356078166514635,-0.003447087248787284,-0.020259620621800423,-0.09310716390609741,-0.07126075774431229,-0.0514872744679451,-0.06989219039678574,0.07068026065826416,0.05551128461956978,-0.023628579452633858,-0.10186568647623062,-0.07455353438854218,-0.02978350780904293,-0.028862059116363525,0.0070640011690557,0.04035458713769913,-0.04675638675689697,0.04034429416060448,0.0776711106300354,-0.07343848049640656,-0.08641883730888367,-0.042381204664707184,-0.05648259446024895,-0.05074713006615639,0.06685861945152283,-0.053136713802814484,0.06210349500179291,0.06389211863279343,0.016851864755153656,-0.053727686405181885,0.021079344674944878,0.03917965292930603,-0.05305370315909386,-0.0667402446269989,0.08826571702957153,-0.06441305577754974,-0.0645245611667633,-0.014891969040036201,-0.08416297286748886,0.06941437721252441,0.035788532346487045,0.0929209440946579,0.08459717780351639,0.038664501160383224,0.05913730710744858,-0.035481203347444534,0.0028308515902608633,-0.08598625659942627,-0.029967913404107094,-0.0016130805015563965,-0.05448320508003235,0.05673694983124733,0.060072965919971466,0.014432319439947605,-0.028274275362491608,-0.015270781703293324,-0.07470828294754028,-0.057868339121341705,-0.09113474935293198,0.034458573907613754,-0.03948108106851578,-0.04197584465146065,0.08810648322105408,-0.09127520769834518,-0.09986819326877594,-0.047421302646398544,-0.04934343695640564,0.005498020444065332,0.022692903876304626,-0.05578968673944473,-0.03769230470061302,0.03518734499812126,0.005045888014137745,0.06234646961092949,0.0984305888414383,-0.037889156490564346,-0.0406375490128994,-0.08768156170845032,-0.0015757650835439563,-0.06950561702251434,-0.06440296024084091,-0.07846938073635101,-0.04401925578713417,0.0554262138903141,0.007858742959797382,0.07940639555454254,0.09694574773311615,-0.08743368089199066,0.025322776287794113,0.023152804002165794,0.05692058801651001,-0.04732801765203476,-0.01670289970934391,0.0942489355802536,-0.04525470733642578,0.07498324662446976,-0.07266060262918472,0.046473532915115356,-0.04020145907998085,-0.06843093037605286,-0.07035529613494873,0.010922158136963844,0.07749542593955994,0.07247073203325272,0.03921207785606384,-0.09440910816192627,0.0460752435028553,0.027063194662332535,-0.04973355680704117,-0.015068921260535717,-0.03357318788766861,-0.0031727603636682034,0.06992321461439133,0.060622405260801315,-0.05901419743895531,-0.04209493473172188,0.08583178371191025,0.08524817228317261,-0.07722014933824539,-0.08026991039514542,0.08761090040206909,0.04053134471178055,-0.045434627681970596,-0.07051839679479599,0.05394940450787544,-0.038160815834999084,0.05686410889029503,0.0373380221426487,-0.013560832478106022,0.0708058625459671,0.029062844812870026,-0.08051975071430206,-0.022404350340366364,0.04613285884261131,0.08343186974525452,0.017034387215971947,-0.042008448392152786,-0.023296328261494637,-0.05124761164188385,0.08432434499263763,-0.09044960886240005,-0.059875525534152985,-0.04483605921268463,-0.06947663426399231,0.045747678726911545,0.049334388226270676,0.08600076287984848,-0.07081181555986404,0.04434431716799736,-0.031703513115644455,0.08585257828235626,0.09208817780017853,-0.05994544178247452,0.09033811092376709,0.07386356592178345,0.06932631134986877,0.01660201884806156,0.07845409214496613,-0.10469409823417664,0.09002846479415894,-0.09358470886945724,0.09226834028959274,0.031031902879476547,-0.004640617873519659,-0.03276604041457176,-0.007824347354471684,-0.010846385732293129,-0.02597394771873951,-0.09805937856435776,-0.027452699840068817,-0.020451512187719345,-0.09235196560621262,0.021298078820109367,-0.05246769264340401,0.06222310662269592,0.05216072127223015,0.002559230662882328,0.05274853855371475,0.04789529740810394,-0.0882062315940857,0.0018885323079302907,-0.05715126916766167,-0.06494510918855667,0.07280296832323074,-0.03267490491271019,-0.049632105976343155,0.058022063225507736,-0.06577030569314957,-0.013310282491147518,-0.01064989622682333,-0.03591656684875488,0.09171352535486221,-0.06918907165527344,-0.033751919865608215,-0.06994520872831345,0.04195992276072502,0.026529932394623756,0.01897924579679966,0.06436698138713837,0.04601060971617699,-0.010487329214811325,0.041323885321617126,0.0005116998800076544,0.04176240786910057,-0.047536853700876236,0.03757757321000099,0.02546677552163601,0.015230391174554825,-0.06610042601823807,0.012304208241403103,-0.03278861194849014,0.0853758454322815,-0.0029112359043210745,-0.05069372430443764,0.040162838995456696,-0.08565165847539902,0.06177439168095589,-0.08097894489765167,0.08868196606636047,0.02453877218067646,-0.08644387125968933,0.09719254821538925,0.030083198100328445,-0.06645240634679794,-0.05971916392445564,0.055565327405929565,0.012794781476259232,-0.05809555947780609,0.06029292568564415,-0.04861421138048172,0.015434172935783863,-0.06281369924545288,-0.08398232609033585,-0.00561329023912549,0.006683080457150936,-0.04103664681315422,-0.008436073549091816,-0.010685284622013569,-0.06774528324604034,-0.047038573771715164,0.06835996359586716,-0.03453338146209717,-0.08419368416070938,-0.08307351917028427,-0.036495935171842575,-0.02390451170504093,0.04635614529252052,0.0058000111021101475,-0.03368842229247093,-0.07512004673480988,-0.050232887268066406,0.08298630267381668,0.055433593690395355,0.07530668377876282,0.03216546028852463,0.030830930918455124,-0.06320199370384216,0.01011522114276886,-0.0863240510225296,-0.04499945044517517,-0.09313035756349564,-0.057142529636621475,0.0731915533542633,0.028208624571561813,-0.03297139331698418,-0.06735587120056152,0.024941179901361465,-0.07004618644714355,0.0747380256652832,0.047538649290800095,-0.09425348043441772,0.06807710230350494,-0.052410922944545746,-0.059623103588819504,0.08072666823863983,-0.007961389608681202,0.07102223485708237,0.00959337130188942,-0.06258545070886612,-0.05661746859550476,0.027627481147646904,-0.04090874269604683,0.020645488053560257,0.04353003203868866,0.04123909771442413,-0.03740796446800232,0.03486895561218262,-0.03207026422023773,-0.0352228581905365,-0.008543344214558601,0.035562384873628616,-0.04530707374215126,-0.0020432283636182547,0.09284884482622147,0.0046226466074585915,0.08171791583299637,-0.08845599740743637,0.014301847666501999,-0.10059370845556259,0.02432980388402939,-0.04730537161231041,-0.0457722470164299,-0.0005947842728346586,0.04467977583408356,0.024890216067433357,0.09156520664691925,-0.06729510426521301,-0.04398735240101814,-0.030605677515268326,-0.08748055249452591,0.025778822600841522,0.030575504526495934,-0.07241763919591904,0.05616378039121628,0.03788703680038452,0.08708888292312622,0.06965052336454391,-0.0468021035194397,-0.020103033632040024,0.02187708392739296,0.029559819027781487,-0.07415234297513962,-0.09715084731578827,-0.08690149337053299,0.01910097897052765,0.10234144330024719,0.060404837131500244,0.024967772886157036,-0.034238506108522415,0.0772484540939331,-0.06528971344232559,-0.09410431236028671,-0.0019749102648347616,0.09201428294181824,0.041544217616319656,-0.10386627912521362,0.06612037122249603,-0.06681882590055466,-0.069151371717453,0.06838564574718475,-0.06905735284090042,-0.06870629638433456,-0.064244844019413,-0.03940608352422714,0.0911872461438179,-0.053523462265729904,0.07705049216747284,0.007035218644887209,0.049893297255039215,0.08582263439893723,-0.0800514966249466,-0.07022399455308914,-0.019544754177331924,0.060223810374736786,-0.036438871175050735,-0.09180872142314911,0.07840698957443237,0.014107061550021172,0.01157317403703928,0.004987278021872044,-0.044889841228723526,-0.1031324714422226,-0.040121834725141525,-0.02007383666932583,0.00850007589906454,0.07028798013925552,-0.0027087980415672064,-0.052862927317619324,-0.03515034541487694,-0.030138975009322166,0.04908054694533348,-0.07560864090919495,0.06865563988685608,-0.036489371210336685,0.0417361855506897,-0.07510049641132355,0.0488637313246727,-0.05326324328780174,0.04089556261897087,-0.00893285684287548,0.09292424470186234,-0.0077482606284320354,-0.07793349772691727,0.08881017565727234,-0.007957476191222668,-0.023526310920715332,0.02375892922282219,0.03749419376254082,0.06946735829114914,0.046917639672756195,0.033411260694265366,-0.08742658793926239,-0.061129920184612274,0.056023500859737396,0.0883360505104065,-0.03483990579843521,0.010706746019423008,0.0009002097649499774,0.04714232310652733,0.03331906348466873,-0.025733228772878647,-0.010179375298321247,-0.04146749526262283,0.0417085699737072,-0.0006306450231932104,0.08816487342119217,-0.05361194163560867,-0.04285520687699318,0.031685639172792435,-0.05296427011489868,0.07564334571361542,0.07511575520038605,-0.08786281198263168,-0.07809115946292877,0.07548005878925323,0.02749989740550518,-0.042784832417964935,-0.08460167050361633,0.05515751242637634,-0.04578898102045059,0.09593101590871811,-0.0012865259777754545,-0.014850523322820663,-0.007215317338705063,0.06729825586080551,-0.008661138825118542,0.07272898405790329,0.05626605078577995,-0.05431262403726578,0.09012775123119354,-0.03058519959449768,0.06315679103136063,-0.017810676246881485,0.004736115224659443,-0.0057013374753296375,-0.07562955468893051,0.03888370096683502,0.0949200764298439,0.004635632503777742,-0.08308527618646622,-0.0619620718061924,0.054084356874227524,0.04638010263442993,0.04293626546859741,-0.022252721711993217,-0.034899551421403885,-0.06363257020711899,0.05564899742603302,-0.08960392326116562,-0.07426494359970093,-0.08622750639915466,-0.06714501976966858,0.0832306519150734,0.04340296983718872,0.04919678345322609,-0.027156228199601173,0.09043578803539276,0.00492722075432539,-0.09514227509498596,0.07093480229377747,0.0858573243021965,0.022045448422431946,-0.015031038783490658,-0.05015847831964493,0.07028060406446457,-0.05188954249024391,0.05403003469109535,-0.004835891537368298,-0.04691839963197708,-0.00016600795788690448,0.058247651904821396,0.061391159892082214,0.027805225923657417,-0.03332711383700371,0.01993175968527794,0.04124290123581886,-0.09556715935468674,-0.08301809430122375,-0.08798931539058685,0.023288896307349205,0.09169778972864151,0.09479742497205734,0.05360785499215126,-0.019804075360298157,0.0608491487801075,-0.06583563983440399,-0.09105700999498367,-0.0030404359567910433,0.06715945154428482,-0.007724385242909193,-0.023675041273236275,0.015324588865041733,-0.04017140716314316,-0.0647502914071083,-0.020338403061032295,-0.012748632580041885,-0.03053470142185688,-0.01182736549526453,-0.09233512729406357,0.05733887106180191,0.05311423912644386,0.0410219207406044,0.024485662579536438,0.07335947453975677,-0.004980590660125017,-0.0814969465136528,0.012437400408089161,-0.01661807857453823,0.006940422113984823,-0.06857933849096298,-0.032358285039663315,-0.003311058273538947,-0.06038730964064598,-0.06684117019176483,-0.08905287086963654,0.07991313189268112,-0.03557176515460014,-0.009470912627875805,0.08311967551708221,-0.05300141125917435,0.06733828037977219,-0.0585242323577404,-0.08509882539510727,0.00651249336078763,0.0041808090172708035,-0.07125262916088104,0.028348175808787346,0.00560335349291563,0.01000657957047224,0.06822077184915543,0.07689419388771057,-0.09150003641843796,0.0030674764420837164,-0.01345248706638813,-0.08865861594676971,0.03413983806967735,-0.03747706487774849,0.009479114785790443,-0.03881649300456047,0.04164779558777809,-0.04615982994437218,0.014195148833096027,0.06550481170415878,-0.007869766093790531,0.009909002110362053,0.0806569829583168,-0.013304992578923702,-0.008382303640246391,0.05293915793299675,-0.022990820929408073,0.032867465168237686,-0.047798845916986465,0.0893528014421463,-0.07415948808193207,0.0023685081396251917,-0.03741815313696861,-0.0911998525261879,-0.0874655544757843,-0.08883890509605408,-0.0882914587855339,-0.009407471865415573,0.04845496639609337,0.014906301163136959,-0.0716094896197319,0.040997400879859924,0.048514921218156815,-0.10099095851182938,-0.01268964447081089,-0.09903302788734436,0.0709429681301117,0.07784292101860046,-0.03903341293334961,0.08679281175136566,0.008969223126769066,-0.1027742549777031,0.050996605306863785,0.007877611555159092,-0.10044318437576294,-0.09569179266691208,-0.09572939574718475,0.06855704635381699,0.03862495347857475,0.0935220867395401,-0.05159534513950348,-0.012041588313877583,0.059787485748529434,-0.00400477135553956,-0.0021099443547427654,0.06068916991353035,0.09200198948383331,-0.06811662018299103,-0.09635640680789948,-0.027204299345612526,0.052081868052482605,0.0033913799561560154,-0.09763773530721664,-0.031162645667791367,0.06516046822071075,-0.060087528079748154,0.089889757335186,0.013695766218006611,0.04318734630942345,0.08390641957521439,0.05820624902844429,-0.02906710095703602,0.009233158081769943,-0.0167170949280262,0.07043223828077316,-0.09200695157051086,-0.06206495314836502,-0.010455496609210968,-0.019456852227449417,0.07583408802747726,0.06964805722236633,0.01618630811572075,-0.09091026335954666,-0.0518091656267643,-0.015594962053000927,-0.011159935034811497,-0.09876580536365509,0.050628338009119034,-0.019391702488064766,-0.013556558638811111,-0.023238936439156532,0.05664948374032974,-0.08993785828351974,0.04492118954658508,-0.10652723908424377,-0.08394508063793182,-0.01187124289572239,-0.08571741729974747,0.07860256731510162,0.06728965789079666,-0.026666954159736633,-0.07376167923212051,0.0627671554684639,-0.08813069760799408,0.014625973999500275,-0.0020916175562888384,-0.06750170886516571,-0.09257885813713074,0.013571696355938911,0.009756728075444698,0.05030975863337517,-0.021776285022497177,-0.03457026183605194,0.09791219234466553,0.00310513679869473,0.01933671534061432,0.013457234017550945,0.02307353913784027,0.06903939694166183,0.08339354395866394,-0.0478464812040329,-0.06785881519317627,0.03209459409117699,-0.07047227025032043,0.0382777638733387,0.0899232029914856,-0.07322622090578079,0.06983136385679245,0.04629940167069435,-0.019849460572004318,-0.06289446353912354,0.047982290387153625,0.10074026137590408,0.06458296626806259,-0.05133763328194618,-0.038405146449804306,-0.09752605110406876,-0.013420543633401394,-0.045209914445877075,0.017295293509960175,-0.07077882438898087,-0.07863976806402206,0.032399553805589676,0.06186004355549812,-0.06222188472747803,0.09082916378974915,-0.00791318342089653,-0.011256485246121883,0.046153418719768524,0.06496202200651169,-0.0030057551339268684,0.06389593333005905,0.008938475511968136,0.019632311537861824,-0.04229093715548515,0.05282760411500931,0.009558289311826229,0.08069393038749695,-0.005027709063142538,0.019753238186240196,0.03005281649529934,-0.02741718292236328,-0.025752803310751915,-0.04470309242606163,0.04602191597223282,0.04636858403682709,-0.03274998068809509,0.03808092698454857,0.050811901688575745,0.026489783078432083,-0.08464498817920685,0.03731813281774521,0.034668684005737305,0.055207718163728714,-0.062616728246212,-0.01995830610394478,0.08214161545038223,-0.05226811766624451,-0.07577633857727051,-0.022385306656360626,0.05368708446621895,0.08068768680095673,-0.036908552050590515,0.04564511030912399,0.021536804735660553,-0.09886281192302704,0.024418655782938004,-0.03318551927804947,0.05567681044340134,0.09158457815647125,-0.07093246281147003,-0.04876331239938736,0.0882660448551178,-0.07075287401676178,-0.05377544090151787,-0.03500005230307579,-0.018094085156917572,-0.07645562291145325,0.07565811276435852,-0.036967936903238297,-0.06882530450820923,0.04929936304688454,0.06623747944831848,-0.0926215872168541,0.07370468229055405,0.03134125843644142,0.0345153845846653,-0.07600326836109161,0.07822385430335999,-0.0070316120982170105,0.06943582743406296,-0.09616094827651978,0.0691143199801445,-0.015441721305251122,0.0593513548374176,0.013888885267078876,-0.06334616243839264,-0.07183718681335449,-0.023865768685936928,0.03657029941678047,0.044984325766563416,-0.05595007166266441,-0.06694375723600388,-0.006406631786376238,0.09012823551893234,-0.09066971391439438,0.06396418809890747,-0.0618499293923378,0.08225992321968079,0.0818055272102356,-0.06580478698015213,-0.056886062026023865,0.03585658222436905,-0.0205251295119524,0.06391578167676926,-0.030715348199009895,-0.04557064175605774,0.055594269186258316,-0.04485282674431801,0.05788300186395645,0.03813020884990692,0.011692723259329796,0.08751735836267471,0.10493610799312592,-0.035493403673172,0.08444829285144806,0.09239253401756287,0.08411362022161484,0.028306180611252785,-0.04797254875302315,-0.07225007563829422,-0.03960674628615379,-0.07939741015434265,-0.09305389970541,-0.08419886976480484,-0.06148036941885948,-0.03263924643397331,0.06846531480550766,0.0280865877866745,-0.011783163994550705,-0.02013292722404003,-0.07209650427103043,-0.05391586944460869,0.00584467314183712,-0.028687894344329834,0.08155227452516556,0.09203643351793289,-0.05001126974821091,0.064494788646698,-0.0659632533788681,0.06117617338895798,-0.05424376577138901,-0.017221739515662193,-0.057399362325668335,0.0834529846906662,0.09169737994670868,0.05005723983049393,0.05430121719837189,-0.08881855010986328,-0.010309960693120956,-0.08975010365247726,0.027143161743879318,0.02425369806587696,0.09409808367490768,0.07645931839942932,0.002718928037211299,-0.01937037520110607,-0.05639765411615372,0.051075998693704605,-0.07727785408496857,-0.09830736368894577,-0.07333836704492569,0.001955694053322077,-0.04387408867478371,-0.08465195447206497,-0.018429478630423546,0.08540897071361542,-0.03537508845329285,0.03198951110243797,-0.07737600058317184,-0.013277951627969742,-0.06551410257816315,-0.028883308172225952,-0.018219199031591415,0.02434302307665348,-0.030083056539297104,0.0046271393075585365,0.06981443613767624,-0.035760942846536636,-0.05022250488400459,0.020442679524421692,0.08237993717193604,-0.09419550001621246,-0.018890680745244026,0.0030397488735616207,0.0007471577846445143,0.03567495197057724,-0.042664412409067154,-0.07406674325466156,-0.00026136700762435794,-0.046720221638679504,-0.06815745681524277,-0.08304639160633087,-0.04626019299030304,0.07321225851774216,0.07870414853096008,-0.0840730145573616,-0.09543223679065704,-0.022615304216742516,-0.02927548438310623,0.041941311210393906,-0.023478548973798752,0.0546194352209568,-0.02429058589041233,-0.06132826581597328,0.06681445240974426,0.05742810666561127,-0.07684094458818436,0.04801277443766594,-0.03959733992815018,-0.09168259054422379,0.03195888549089432,-0.026433223858475685,-0.09497644752264023,0.017389528453350067,-0.0053909472189843655,-0.08794238418340683,-0.08671703934669495,0.05084870010614395,-0.058723025023937225,-0.06073350831866264,-0.04979037865996361,0.0007717101252637804,-0.09700699150562286,-0.04678276181221008,-0.0178470890969038,0.04567244276404381,0.014386850409209728,-0.02634746953845024,0.05982083082199097,-0.007689082995057106,-0.03888756409287453,0.08379878848791122,-0.024047762155532837,0.015252813696861267,0.015205292962491512,0.002051699673756957,-0.08496247231960297,-0.03542827069759369,0.013941273093223572,-0.05238364636898041,-0.06291984766721725,-0.04572824016213417,-0.010856513865292072,-0.03700028732419014,0.07126125693321228,0.036023203283548355,0.014235520735383034,-0.04374231398105621,0.029701488092541695,0.07763325423002243,0.0040676891803741455,0.037799812853336334,-0.04511769488453865,-0.0496695302426815,0.07215423882007599,-0.033578529953956604,-0.08912312239408493,-0.04828634485602379,-0.008253744803369045,-0.04057079926133156,-0.09075213223695755,0.020565208047628403,0.07903248816728592,-0.06678128242492676,0.043354932218790054,-0.07891038805246353,-0.02743026614189148,0.013050305657088757,0.007959254086017609,-0.05577196925878525,-0.09163928776979446,0.05933491140604019,0.06777308136224747,-0.09114553034305573,0.05757081136107445,-0.06480227410793304,0.0808737725019455,0.07565479725599289,-0.07370080053806305,0.06998298317193985,0.07317838072776794,0.060256537050008774,0.07300789654254913,0.08402083814144135,0.09964922070503235,0.08436214178800583,0.030310388654470444,0.01678416132926941,-0.06824444979429245,-0.09344859421253204,0.06569880992174149,-0.0003985505027230829,-0.01886492408812046,0.02077583037316799,0.0623590387403965,0.026676205918192863,0.054236993193626404,-0.06070706993341446,-0.051220882683992386,0.028624210506677628,0.08352084457874298,-0.02831442840397358,-0.07363421469926834,0.037825655192136765,0.0746554359793663,-0.09530502557754517,-0.057993315160274506,-0.07490892708301544,-0.06588229537010193,0.062173593789339066,0.035123616456985474,0.03571828082203865,0.02305661514401436,-0.06661981344223022,0.016907362267374992,0.006936855614185333,-0.05839195102453232,0.05492592230439186,0.017710233107209206,0.028882643207907677,0.051014747470617294,0.017305545508861542,0.03294595330953598,0.00013852314441464841,-0.013987191952764988,0.09767267853021622,-0.06701087206602097,-0.04810139164328575,-0.07500657439231873,0.042900342494249344,0.0064808824099600315,-0.05759350582957268,-0.005246387328952551,0.050330180674791336,-0.09115152060985565,-0.03439346328377724,0.05529886484146118,-0.056327156722545624,0.008592059835791588,0.05155685171484947,-0.012141888029873371,0.027959037572145462,0.004657254088670015,-0.06914063543081284,0.03524097427725792,0.053040336817502975,0.09623444825410843,0.08953443169593811,0.03008595108985901,-0.10485736280679703,0.07409819215536118,-0.04308047145605087,-0.024456055834889412,0.00015296429046429694,-0.05069892108440399,-0.07498946040868759,-0.09776489436626434,0.08669232577085495,0.050875674933195114,-0.014817653223872185,0.02739737182855606,0.052339501678943634,-0.011153165251016617,-0.0813869759440422,0.044263679534196854,-0.07711005955934525,0.04256632924079895,0.06011328846216202,0.07501878589391708,-0.06348668783903122,0.06306087970733643,-0.08042441308498383,-0.04677118360996246,0.04234803467988968,-0.06960652768611908,-0.019746962934732437,-0.08983790129423141,-0.011524388566613197,-0.025521472096443176,-0.06025046855211258,-0.02352566458284855,0.016597038134932518,-0.0902838259935379,-0.057204198092222214,0.006583557464182377,-0.03882452845573425,-0.06414515525102615,-0.08738391846418381,0.04593420401215553,0.025775674730539322,0.03688710927963257,-0.018621182069182396,-0.07859387993812561,0.04489459842443466,0.016606099903583527,0.08628740906715393,0.0052888537757098675,-0.07290585339069366,-0.007176486309617758,0.06482257694005966,-0.08226184546947479,0.03887626901268959,0.04993889108300209,-0.06249852478504181,0.008787538856267929,-0.060182105749845505,-0.06217126175761223,0.0653759017586708,0.0665283128619194,0.07868819683790207,0.07016050070524216,0.03466995060443878,0.06393595039844513,0.016228094696998596,0.07022672891616821,0.055829089134931564,-0.0875803604722023,0.07244464010000229,-0.0046939123421907425,-0.0082563990727067,-0.07423549890518188,0.07208622246980667,0.028605815023183823,0.03151138499379158,0.023338986560702324,-0.014663372188806534,-0.01244231965392828,0.029151754453778267,0.06737899035215378,0.06893178820610046,-0.04158686846494675,-0.07796117663383484,-0.07819867134094238,-0.026811974123120308,0.018885325640439987,-0.0019673644565045834,0.05146273970603943,-0.07549448311328888,0.008125071413815022,-0.011838683858513832,-0.07829570025205612,0.06797344982624054,0.05223690718412399,0.05830177664756775,0.03927624970674515,0.027752647176384926,-0.06524520367383957,0.06565998494625092,-0.005731107667088509,-0.05322781950235367,-0.1022273525595665,-0.050386302173137665,-0.10024896264076233,0.08609623461961746,0.06742184609174728,-0.02233225293457508,-0.04456968605518341,-0.09223806858062744,0.054121408611536026,0.002200702205300331,-0.0069548748433589935,0.05001964420080185,0.07638946175575256,-0.09329560399055481,-0.029252424836158752,0.020912693813443184,-0.0516962930560112,-0.0900593027472496,-0.07926907390356064,-0.017376985400915146,0.060654908418655396,-0.08540856838226318,-0.013556858524680138,0.07218402624130249,-0.06515734642744064,-0.03948396444320679,-0.08608323335647583,0.09029616415500641,-0.010430417023599148,-0.0001304803299717605,-0.013785814866423607,0.06832273304462433,-0.03182552009820938,0.05001726746559143,-0.019878996536135674,0.021991774439811707,0.08464012295007706,-0.039904456585645676,-0.03525751829147339,-0.08048777282238007,0.02900797128677368,-0.0357501320540905,-0.058399397879838943,0.034500837326049805,0.050932612270116806,0.033384330570697784,-0.056168295443058014,-0.019131863489747047,-0.010637888684868813,-0.044386353343725204,0.018860002979636192,0.0025364812463521957,-0.045164402574300766,0.07478758692741394,-0.03715667873620987,0.034571826457977295,0.1018894612789154,-0.08252643793821335,-0.06616949290037155,-0.04860268905758858,0.07411986589431763,-0.08593423664569855,0.03561422601342201,0.033532992005348206,0.020741360262036324,0.04818086326122284,-0.09273028373718262,-0.004591897130012512,0.02766193449497223,-0.06703299283981323,0.04386601224541664,-0.06361519545316696,-0.006094661075621843,0.030420372262597084,-0.09720288962125778,-0.08675261586904526,-0.046473030000925064,0.02487749420106411,-0.0053902482613921165,0.03324969485402107,0.07931453734636307,0.06033288687467575,-0.006682992447167635,0.09458938241004944,0.03979647532105446,-0.08925130218267441,0.016583479940891266,-0.068278469145298,0.06100481003522873,0.006349817384034395,-0.009341065771877766,-0.029919929802417755,0.09501444548368454,-0.019945649430155754,-0.0666353702545166,-0.021840140223503113,-0.03950413689017296,-0.09580443799495697,-0.07659418880939484,0.06786222755908966,-0.0474199578166008,0.07081084698438644,-0.06586235016584396,0.05470852926373482,-0.08247952908277512,-0.04668886587023735,-0.08082989603281021,-0.011629261076450348,-0.022959673777222633,0.03813262656331062,-0.08837062120437622,0.02930687926709652,-0.07140723615884781,-0.07896550744771957,0.07050313800573349,-0.04621122032403946,0.004538476932793856,0.06205713003873825,0.008739439770579338,0.024118587374687195,-0.09601696580648422,-0.10576292872428894,-0.04033834487199783,-0.09153523296117783,-0.009546318091452122,-0.004999835044145584,0.09823780506849289,-0.058968234807252884,-0.05486840009689331,0.07869808375835419,0.02983524464070797,-0.030878985300660133,0.031300462782382965,-0.0767802745103836,-0.01897958479821682,0.000030096533009782434,-0.09046956896781921,-0.046820688992738724,0.05794741213321686,-0.05641596391797066,-0.07798058539628983,0.03520601615309715,-0.010265118442475796,-0.08584509789943695,-0.08541572839021683,-0.04725542664527893,0.07239817082881927,0.0642857626080513,0.06456874310970306,-0.08585809916257858,0.03188161551952362,-0.017400195822119713,-0.023884540423750877,0.08857852220535278,0.024570655077695847,-0.09875967353582382,-0.019359281286597252,0.06457790732383728,-0.06600037962198257,-0.030096545815467834,-0.046344757080078125,-0.07660984247922897,-0.08922354876995087,0.035255566239356995,-0.0478125736117363,0.08716055750846863,0.045254677534103394,0.04549581930041313,-0.06238255277276039,0.05855294317007065,-0.08673518151044846,-0.01724882796406746,0.042301569133996964,-0.03517089784145355,-0.07438726723194122,0.016837473958730698,0.0005504584405571222,-0.08665323257446289,-0.009931832551956177,-0.03362107276916504,0.05920709669589996,-0.009753895923495293,0.021242782473564148,0.02479383535683155,0.07826321572065353,-0.00925991777330637,-0.09482105076313019,0.03881257772445679,-0.06722080707550049,0.04457125440239906,0.05879621580243111,-0.06777936220169067,0.024807626381516457,-0.03996739163994789,-0.04490235820412636,0.07644756883382797,0.09102892875671387,-0.01022183708846569,-0.10108718276023865,0.061573419719934464,0.09172414243221283,-0.023908087983727455,0.02565581165254116,-0.09041242301464081,0.03431229293346405,0.09200680255889893,0.06631734222173691,-0.07415415346622467,0.028721552342176437,0.07252563536167145,-0.04273280128836632,0.08169478178024292,0.07658950239419937,0.001812925562262535,-0.09239283949136734,-0.02422931417822838,-0.07287749648094177,-0.03139594942331314,-0.03416094556450844,0.04127001017332077,0.005276487674564123,-0.027772461995482445,0.01746085286140442,0.07625212520360947,-0.04900863394141197,-0.003786927554756403,-0.06242753192782402,0.04850912466645241,-0.0148545540869236,0.07910909503698349,-0.08514931052923203,0.00744691351428628,-0.01063414104282856,-0.005552935414016247,0.02963472530245781,0.0435362309217453,0.04330001026391983,0.010595638304948807,0.00012248623534105718,-0.07842588424682617,0.06055927649140358,-0.006697934120893478,-0.0983932763338089,0.017623133957386017,-0.06867826730012894,-0.06252944469451904,0.053643207997083664,0.03162653371691704,-0.043179433792829514,-0.02797030285000801,-0.0813019648194313,-0.031647033989429474,-0.022949039936065674,-0.010655509307980537,0.006100826431065798,-0.07451315224170685,-0.07597865909337997,0.07999788224697113,0.08651118725538254,0.08073588460683823,-0.005474584177136421,0.002545510185882449,0.030574511736631393,-0.022067267447710037,0.03217412903904915,-0.09466017782688141,-0.08357265591621399,-0.022968560457229614,0.03660637140274048,-0.022035814821720123,0.03933840990066528,0.05959880352020264,0.08677943050861359,0.04995589703321457,-0.013907407410442829,0.08276637643575668,0.06831809133291245,0.020934877917170525,0.006042827852070332,-0.061509016901254654,0.02483140490949154,-0.09763213992118835,-0.05485162511467934,0.003115084022283554,-0.06630813330411911,0.08481314778327942,0.08596242219209671,0.03445407375693321,-0.06842625141143799,0.03796732425689697,-0.02024957723915577,-0.06313908845186234,0.04930704087018967,0.08331447094678879,-0.06709901988506317,0.02248600870370865,-0.0985725075006485,-0.06844176352024078,-0.013222386129200459,-0.019681140780448914,-0.01593470387160778,-0.08493530005216599,0.09427647292613983,0.05937233194708824,-0.09222687035799026,-0.05307379737496376,0.010358448140323162,0.044701989740133286,-0.03375859558582306,-0.011178521439433098,-0.07666626572608948,0.10114601254463196,-0.07131356745958328,0.05580895021557808,-0.036211222410202026,0.06371263414621353,-0.024103175848722458,-0.03669991344213486,-0.017006296664476395,0.09425955265760422,0.05678742006421089,-0.05304775387048721,0.03957003727555275,0.06530281901359558,0.0807732567191124,-0.08296328037977219,0.08518718183040619,0.03837595880031586,0.08322799950838089,0.08748366683721542,-0.018898606300354004,0.0018753092736005783,-0.027559634298086166,-0.08292572945356369,-0.03602300584316254,-0.07112989574670792,0.04771915823221207,-0.03884006664156914,-0.0333411730825901,0.05593273043632507,0.06869813799858093,-0.09533222019672394,-0.03660061955451965,-0.0992908626794815,-0.08750954270362854,0.06404436379671097,-0.04711631312966347,0.05964803323149681,-0.04846417158842087,0.040008850395679474,-0.06134555861353874,-0.07651811093091965,-0.03274431824684143,0.02945462055504322,-0.03551863506436348,0.07959752529859543,0.10005421936511993,-0.0952208861708641,0.020888062193989754,0.002733016386628151,-0.005774218589067459,-0.025875398889183998,0.03247706592082977,-0.05827181041240692,-0.09313436597585678,0.05724445730447769,-0.05441505089402199,-0.03727424889802933,-0.020956967025995255,-0.0267325509339571,0.08879599720239639,0.08121365308761597,0.07379237562417984,0.0651693195104599,0.0234662052243948,-0.0671335831284523,0.0782981589436531,-0.014236720278859138,0.03208016976714134,-0.10060321539640427,0.028117185458540916,0.0112144248560071,-0.032323479652404785,0.014536560513079166,0.03390178829431534,-0.021069303154945374,-0.015127125196158886,0.003660215763375163,-0.012793689966201782,-0.06570149213075638,-0.060252148658037186,0.05586101487278938,-0.043957192450761795,-0.04548326134681702,-0.007889950647950172,-0.03338494896888733,-0.034876320511102676,0.04851287975907326,-0.1060594990849495,0.057529278099536896,-0.06429853290319443,0.04669681563973427,-0.05030490458011627,-0.09304796904325485,0.08169016242027283,-0.00764376251026988,0.08776295930147171,0.008520192466676235,-0.011350944638252258,0.04085765779018402,0.018608491867780685,-0.021829290315508842,0.05540839955210686,-0.07091489434242249,0.033783648163080215,-0.012992081232368946,0.06930872797966003,0.02553623728454113,-0.09155553579330444,0.04603085294365883,-0.08765536546707153,0.08193333446979523,0.04382315278053284,-0.08266596496105194,0.06467092037200928,-0.09176980704069138,0.07881151884794235,0.08387365937232971,-0.08225580304861069,0.04489780589938164,0.038614530116319656,0.0065604946576058865,0.009466063231229782,0.08601903915405273,-0.04999265447258949,-0.06736530363559723,-0.045241039246320724,0.077301025390625,0.07095763832330704,-0.011212082579731941,-0.014825151301920414,-0.020042026415467262,0.04556988924741745,-0.03308549523353577,-0.02817547880113125,-0.09504084289073944,-0.024514924734830856,-0.09770911186933517,0.02700764313340187,0.0645395964384079,0.03468061611056328,-0.08146346360445023,-0.09226376563310623,0.09135154634714127,0.08356340229511261,0.06276026368141174,0.009332241490483284,0.020370742306113243,0.0045576854608953,-0.04001704975962639,-0.09430531412363052,-0.050936684012413025,0.0009532785043120384,0.018834365531802177,0.05519123375415802,0.008814376778900623,-0.07766198366880417,-0.06884483993053436,-0.09092553704977036,0.05046778544783592,0.026327291503548622,0.07444862276315689,-0.08905737847089767,-0.0730496197938919,0.08983015269041061,0.05594872683286667,0.017135247588157654,-0.02248336561024189,0.06983784586191177,-0.003710650373250246,-0.04173826798796654,-0.07349281758069992,0.053517863154411316,0.06264911592006683,0.06546135991811752,-0.03226746246218681,0.004266141913831234,0.07764250785112381,-0.03389222174882889,0.03402162343263626,0.019606929272413254,-0.04496666043996811,0.019893452525138855,0.041494645178318024,0.07244415581226349,0.05702070891857147,-0.07065892964601517,0.04557736590504646,-0.027451228350400925,-0.07997150719165802,0.09961704164743423,0.09357696771621704,-0.07251300662755966,-0.02985873818397522,0.03611379861831665,0.010902870446443558,0.03482599928975105,-0.07433298230171204,0.0791199803352356,0.0007280496065504849,-0.09075828641653061,-0.00171790667809546,0.02893010526895523,-0.02907719649374485,-0.0407489612698555,0.022066866979002953,0.02523786760866642,0.08271442353725433,0.0780145525932312,-0.0947050228714943,-0.06919408589601517,-0.02843211218714714,0.0037694249767810106,0.03613373264670372,-0.0366235189139843,-0.019319133833050728,0.011211028322577477,0.022287530824542046,-0.038364313542842865,-0.023730777204036713,0.015610633417963982,0.0051191262900829315,-0.023261819034814835,0.004727957770228386,-0.09643994271755219,0.027708349749445915,-0.0964004397392273,0.07606897503137589,0.0026571382768452168,0.07333657145500183,0.0433645062148571,0.011395453475415707,-0.03942876681685448,-0.059717945754528046,-0.026090256869792938,0.02971121296286583,0.059256527572870255,0.03512897714972496,-0.0447818823158741,-0.030238326638936996,-0.019921761006116867,-0.08530442416667938,0.08634771406650543,-0.028038151562213898,0.0942457914352417,0.0010925456881523132,-0.027058111503720284,0.017092090100049973,-0.03753470256924629,0.05009761452674866,-0.08590420335531235,0.020409315824508667,-0.01926761120557785,0.015519601292908192,0.05540867894887924,0.015506413765251637,0.01734248921275139,-0.03635506331920624,0.0019648761954158545,0.03553846850991249,0.058301057666540146,-0.07828507572412491,0.04921354725956917,-0.08544360101222992,0.004966118838638067,-0.03315451741218567,-0.0947132259607315,-0.08028288185596466,-0.015528411604464054,0.07929676026105881,0.042955007404088974,0.09507881104946136,-0.06151729077100754,0.045760296285152435,-0.09954120218753815,0.04560632258653641,-0.061431389302015305,-0.06797794252634048,-0.07328613847494125,0.041794415563344955,0.04956435784697533,0.09758221358060837,0.04018864408135414,0.03439194709062576,-0.002691476373001933,-0.04902919754385948,-0.05004718527197838,0.04280582442879677,0.0059407055377960205,0.04475393518805504,0.07078474760055542,-0.008084489963948727,0.008217980153858662,0.022623104974627495,-0.084954172372818,-0.011353224515914917,0.018345477059483528,0.006450972054153681,-0.034533027559518814,0.03899781033396721,-0.0942605659365654,-0.06126871332526207,0.025138719007372856,-0.01212411466985941,-0.007431018631905317,0.05463487282395363,-0.0660896971821785,0.06204647943377495,-0.010737457312643528,-0.09165211021900177,-0.06488670408725739,-0.05202692002058029,-0.07311277836561203,0.007727030664682388,0.0585348904132843,0.03423713892698288,-0.0037664840929210186,0.019247092306613922,0.05451804772019386,-0.06218468397855759,0.04219255596399307,0.037694066762924194,0.019321488216519356,0.02460668794810772,-0.08199746906757355,-0.012006957083940506,-0.018815575167536736,0.004072914831340313,-0.057464633136987686,0.07186195999383926,0.05857756733894348,0.006712404545396566,0.07587134093046188,-0.04090572148561478,0.0682256743311882,-0.048681121319532394,0.08484531193971634,-0.04225040599703789,-0.020006464794278145,-0.07084248214960098,0.07967821508646011,-0.008745062164962292,0.02870156057178974,0.08850400149822235,-0.08972068130970001,-0.09024159610271454,0.05782293155789375,0.034037843346595764,-0.059009309858083725,-0.03179335221648216,0.07030582427978516,0.10646921396255493,0.07466228306293488,-0.009343141689896584,-0.05186369642615318,-0.0633513405919075,0.0687088891863823,-0.04441932216286659,-0.09393947571516037,0.060932058840990067,-0.022072387859225273,-0.025424709543585777,-0.0012075433041900396,-0.057007089257240295,-0.02601531147956848,-0.01222110167145729,-0.02007867768406868,0.055813297629356384,-0.06639596074819565,-0.030201667919754982,-0.030890118330717087,-0.016597921028733253,0.0750037133693695,-0.06197300925850868,0.05755903944373131,0.018679752945899963,0.06330568343400955,0.08611014485359192,-0.06680719554424286,0.07379095256328583,-0.05183956027030945,0.09073629975318909,0.04447871819138527,-0.07659789174795151,-0.0321960523724556,0.08321841061115265,0.0007541842642240226,-0.0664415955543518,0.08025608956813812,-0.03536941483616829,-0.029031209647655487,0.071254201233387,-0.03586449474096298,0.05171060562133789,0.05852704867720604,-0.06401301920413971,-0.06543977558612823,-0.003936268854886293,0.036957789212465286,0.0031382031738758087,-0.05648976191878319,0.04052670672535896,-0.018856864422559738,0.01206132397055626,-0.020978940650820732,-0.07350461930036545,0.0025435450952500105,0.006008700467646122,-0.03575780242681503,0.04622197151184082,0.07606086879968643,-0.015620129182934761,0.013483179733157158,0.0826834887266159,0.03931526467204094,-0.039610009640455246,0.07812464982271194,0.02017500437796116,0.03069310635328293,-0.04473533481359482,-0.03931432589888573,-0.027625782415270805,0.06650824099779129,-0.00541490875184536,-0.0605960488319397,-0.01980559155344963,0.0485558919608593,0.017322881147265434,0.05546756088733673,-0.05014047771692276,0.0404433012008667,-0.03676776587963104,0.08376549184322357,0.03106268309056759,-0.056202664971351624,-0.07272448390722275,0.040346626192331314,0.061017364263534546,0.059816017746925354,0.08433544635772705,0.09593281149864197,0.014699545688927174,-0.07812431454658508,-0.09311986714601517,-0.07464949786663055,-0.06118946522474289,-0.046055395156145096,0.000407255080062896,-0.09460075199604034,-0.033945076167583466,-0.06937815248966217,-0.001159794395789504,-0.04490603134036064,0.08078936487436295,-0.01884317770600319,0.02880009077489376,-0.012575548142194748,-0.04812857136130333,0.017222244292497635,-0.05534646287560463,-0.08057605475187302,0.09440255910158157,0.02344154193997383,-0.039615750312805176,0.08707818388938904,0.06625189632177353,-0.04799610376358032,-0.10338865965604782,-0.007563585881143808,0.03286879137158394,0.03616451844573021,-0.07656976580619812,-0.03969183564186096,0.043467890471220016,-0.09259885549545288,0.07017064094543457,0.06776370108127594,-0.021345969289541245,-0.07520369440317154,0.09832990169525146,-0.019583692774176598,0.03423403948545456,0.044778209179639816,0.025180920958518982,-0.03899836167693138,0.08175399899482727,-0.029682131484150887,0.04932669177651405,-0.09501263499259949,0.06420920044183731,0.054483041167259216,-0.014945817179977894,-0.030389010906219482,0.0784074068069458,0.034138813614845276,-0.039396997541189194,0.08676430583000183,0.07101266086101532,0.0901835635304451,-0.07027184963226318,0.0666877031326294,0.07962594926357269,0.06894228607416153,-0.09434479475021362,-0.028363144025206566,0.058076806366443634,-0.06459295004606247,-0.0009242184460163116,-0.051722243428230286,-0.06392946094274521,0.030052058398723602,0.08580604940652847,0.02942017838358879,0.056101635098457336,-0.07340472936630249,0.08334436267614365,0.037993792444467545,0.07715506851673126,-0.08290773630142212,-0.03243614360690117,0.03874972462654114,0.012644107453525066,0.03668210282921791,0.031683485954999924,0.02864152379333973,0.03948222100734711,0.07636654376983643,0.02477111853659153,0.07190196216106415,0.0644288882613182,0.014322915114462376,-0.07963122427463531,0.03912850841879845,-0.0397646464407444,0.0070102401077747345,-0.04433681070804596,0.06526808440685272,0.09126098453998566,0.06655344367027283,-0.030145304277539253,-0.03346455097198486,0.015247439965605736,0.05744519457221031,-0.04643586277961731,-0.07399008423089981,-0.056667763739824295,0.03296608850359917,-0.0722275823354721,0.027682434767484665,-0.058586981147527695,-0.06423360854387283,-0.012110463343560696,0.07511270046234131,-0.014661776833236217,0.040311433374881744,0.10242903977632523,-0.0896686539053917,0.017712535336613655,-0.09546003490686417,0.04908483847975731,-0.09321130067110062,-0.07080934196710587,-0.011925471015274525,0.10295119136571884,-0.018674828112125397,0.04927387461066246,-0.003874655347317457,-0.046940021216869354,-0.09202414005994797,0.07613292336463928,-0.032258737832307816,-0.012345626950263977,-0.09669091552495956,0.01620894856750965,0.02011856436729431,-0.019960390403866768,0.07542210817337036,-0.09488539397716522,0.015348349697887897,0.03178004175424576,-0.034031063318252563,0.03745351359248161,-0.09185916930437088,-0.09753721952438354,-0.06999680399894714,0.07837527245283127,-0.06943634897470474,0.05635800212621689,0.07899956405162811,-0.097455233335495,0.04771917685866356,-0.04221535101532936,-0.07172901928424835,-0.013049919158220291,-0.04723387956619263,0.03915344923734665,0.03282871097326279,0.046576518565416336,-0.05090764909982681,-0.003908816259354353,-0.04652289301156998,0.07777386903762817,0.036411020904779434,-0.027172992005944252,0.1062643826007843,-0.02834572084248066,-0.08464439958333969,-0.028153400868177414,-0.09204351902008057,-0.023698391392827034,-0.044047094881534576,-0.05853630229830742,0.011417906731367111,-0.0763474702835083,0.004116815980523825,-0.0054465471766889095,0.04579073563218117,0.0792202427983284,0.01979149878025055,-0.070166677236557,-0.06545187532901764,-0.011461212299764156,-0.05772789567708969,0.06334760040044785,0.07575031369924545,-0.08493628352880478,-0.004312978591769934,-0.06665011495351791,0.05476667732000351,-0.07951033860445023,-0.08390522003173828,0.06270532310009003,0.07999207824468613,-0.018730903044342995,0.06801801919937134,-0.027710894122719765,-0.05656886845827103,0.09295650571584702,0.06991096585988998,0.011208302341401577,0.048025231808423996,-0.009321089833974838,-0.08608140051364899,0.06467880308628082,0.008855021558701992,-0.07844878733158112,0.0704653412103653,-0.031088119372725487,0.050255902111530304,0.03556189686059952,-0.07889562100172043,0.05502705276012421,0.028210490942001343,-0.0316992811858654,-0.012179718352854252,-0.08632805943489075,0.0476653091609478,0.026690298691391945,0.0165825504809618,-0.017769625410437584,-0.06355330348014832,0.08861178159713745,0.05364050343632698,0.0796792209148407,0.02841261774301529,0.03217557072639465,-0.08359891176223755,0.06917712092399597,-0.03126275911927223,0.06746821105480194,-0.02054065465927124,0.0039163208566606045,-0.04733671993017197,0.09481579065322876,0.06854785233736038,0.05310170724987984,-0.014056486077606678,0.07008136063814163,-0.02354365773499012,0.031002186238765717,0.008273879997432232,0.0004217664245516062,-0.09112818539142609,0.0401926189661026,0.09533264487981796,0.02011953480541706,0.0698339194059372,-0.07119593024253845,0.08935170620679855,-0.07657449692487717,0.09176254272460938,0.03101528063416481,0.011813459917902946,0.07406654208898544,-0.06958411633968353,0.06475623697042465,-0.06525429338216782,0.03704486042261124,0.004208373837172985,-0.06677737832069397,-0.08931190520524979,-0.01035424042493105,0.06823199987411499,-0.014421500265598297,-0.09908365458250046,0.04984939098358154,0.06718451529741287,-0.09016884118318558,0.04819246381521225,0.026056351140141487,-0.07319294661283493,-0.07466590404510498,-0.029140962287783623,-0.011017940938472748,0.08865848183631897,-0.08038517087697983,0.031586870551109314,-0.060222283005714417,0.09009088575839996,-0.020917696878314018,-0.09468245506286621,-0.0007711412035860121,-0.07611777633428574,0.06582874804735184,0.06642521917819977,-0.012572464533150196,0.0017387090483680367,-0.06601709127426147,0.027370989322662354,-0.09099836647510529,-0.05766337737441063,-0.06892722100019455,0.09053947031497955,-0.018065016716718674,0.08162873238325119,0.04854810982942581,0.041827816516160965,-0.017820056527853012,0.08406700193881989,0.05811787769198418,0.0652083083987236,0.011331213638186455,-0.08327875286340714,0.08384114503860474,0.022852959111332893,-0.003572856541723013,-0.021271131932735443,-0.04748513177037239,-0.04476874694228172,-0.07842520624399185,-0.0685720443725586,-0.03175680339336395,-0.026873961091041565,0.003734345780685544,-0.007818635553121567,-0.022517094388604164,0.06335458159446716,0.07222062349319458,-0.06653071939945221,-0.026221832260489464,-0.08165538311004639,0.032595351338386536,-0.07431114464998245,-0.09216247498989105,-0.049524303525686264,-0.03824944049119949,0.03560575842857361,-0.055266812443733215,0.01857461966574192,0.01116128358989954,0.08791054785251617,0.009973560459911823,0.07376252859830856,-0.08188816905021667,-0.005245462991297245,0.04423059523105621,-0.021436747163534164,0.047135576605796814,-0.06937951594591141,-0.08908750116825104,-0.007282308768481016,0.0673728808760643,-0.06911418586969376,-0.0018989451928064227,-0.0390702523291111,-0.043304212391376495,-0.02852099947631359,-0.07558978348970413,0.07807980477809906,0.05009551718831062,0.008625630289316177,-0.07349332422018051,0.004638900514692068,0.03221624717116356,0.0663362443447113,0.07293044775724411,-0.050897203385829926,0.05773574858903885,-0.07471521943807602,-0.0044773537665605545,-0.07926872372627258,-0.01594770886003971,0.012095600366592407,-0.04627150297164917,-0.01902584545314312,-0.05882919207215309,-0.002350074239075184,-0.03859328851103783,-0.05888399854302406,0.027216598391532898,-0.024665467441082,-0.03534819558262825,-0.09040655195713043,-0.09953901916742325,-0.07322303205728531,0.07137399166822433,0.024451076984405518,0.010991884395480156,-0.0515403114259243,-0.014374127611517906,0.036723699420690536,0.007493023760616779,0.02837870456278324,-0.03778580576181412,-0.03140310198068619,0.06669331341981888,-0.0671916976571083,0.038857921957969666,-0.0841895192861557,-0.012772360816597939,-0.0902576744556427,0.047503869980573654,-0.05096599832177162,0.03870725259184837,-0.019790666177868843,-0.03264313191175461,0.03145860880613327,0.039172910153865814,0.07629995048046112,-0.02570265531539917,-0.003619344672188163,0.0275482926517725,-0.031154554337263107,0.08896525204181671,-0.03264692425727844,-0.08343049138784409,-0.06108631566166878,-0.07488993555307388,0.08536684513092041,-0.09380903840065002,0.06856129318475723,-0.015782633796334267,-0.009692372754216194,0.015022752806544304,-0.09393387287855148,-0.05350988358259201,0.020057696849107742,0.04549306258559227,0.04231156036257744,0.068174347281456,0.05308086797595024,0.04839720577001572,0.012254642322659492,-0.0006353110657073557,-0.09573282301425934,-0.0977787896990776,0.05827094987034798,-0.0826517790555954,-0.07056047022342682,-0.03733101114630699,-0.05415426939725876,-0.046217869967222214,-0.0683048889040947,-0.047494713217020035,-0.061902035027742386,-0.026985161006450653,0.0179080069065094,-0.04345376044511795,-0.017798908054828644,0.054860759526491165,0.08390121161937714,-0.09409404546022415,-0.09795129299163818,0.06209804117679596,0.020804157480597496,0.009046575985848904,0.04868973419070244,0.05647330731153488,0.08765808492898941,-0.019458966329693794,0.07626884430646896,-0.02122538350522518,0.06319316476583481,-0.040735866874456406,-0.008618726395070553,-0.005185974296182394,-0.05183809623122215,-0.059963081032037735,0.026429416611790657,0.0034517499152570963,0.06989330798387527,0.027679629623889923,-0.042116064578294754,-0.07209619134664536,0.07122737169265747,0.0674465000629425,-0.03554043546319008,-0.023293059319257736,-0.07736597210168839,0.014715529046952724,0.02439422719180584,-0.03196260705590248,0.05527473986148834,0.038092225790023804,-0.09761323034763336,-0.03230021893978119,-0.053445152938365936,-0.06422055512666702,0.009077959693968296,0.06988589465618134,-0.059219978749752045,-0.07264573127031326,-0.03291389346122742,-0.021609166637063026,0.033235177397727966,-0.00020028796279802918,-0.0480952188372612,-0.010940360836684704,-0.06688570231199265,0.010049398988485336,-0.0869814082980156,0.041133347898721695,0.07075942307710648,0.007513870019465685,-0.06967678666114807,0.022738030180335045,0.04187513887882233,0.030282028019428253,0.0444205142557621,-0.1002701073884964,0.08350318670272827,0.0874493196606636,0.07316329330205917,-0.03379133716225624,0.0759076327085495,0.07289698719978333,-0.06484370678663254,0.051076557487249374,0.06957105547189713,0.020120184868574142,-0.09330146014690399,0.09414122253656387,0.0849982351064682,0.018542835488915443,-0.014884858392179012,-0.009209408424794674,-0.07397125661373138,-0.015280451625585556,0.06452497094869614,0.08666954189538956,0.010890939272940159,-0.07300950586795807,-0.015003595501184464,0.03691545128822327,-0.04403739795088768,-0.06892922520637512,-0.0034686028957366943,0.06649667024612427,0.014808679930865765,-0.017659159377217293,-0.05355410650372505,0.03573005646467209,-0.06799168139696121,-0.08053677529096603,0.003943216055631638,-0.0969858467578888,-0.061922237277030945,0.0839182585477829,-0.07510113716125488,0.003283383557572961,0.02643558941781521,-0.05829879641532898,-0.08572112023830414,0.04929341375827789,0.044502947479486465,-0.07169618457555771,-0.07391685247421265,0.06651052087545395,0.011429067701101303,0.07965180277824402,-0.0812818706035614,-0.03908701241016388,-0.056415025144815445,-0.09248484671115875,0.03980815410614014,-0.03473588451743126,-0.08306840062141418,-0.02939748950302601,0.050379060208797455,-0.07788223773241043,0.023257048800587654,0.030099883675575256,0.02026948891580105,-0.007936878129839897,0.00936002004891634,0.09299170225858688,-0.10991078615188599,0.03136477991938591,0.005078313872218132,0.03955034166574478,-0.01146537996828556,0.08012080937623978,0.07361431419849396,0.08079344779253006,0.007589724846184254,0.02903229370713234,-0.08241452276706696,-0.06738380342721939,-0.08193027973175049,0.048062462359666824,-0.051814328879117966,0.02604248933494091,-0.08283239603042603,0.09508270770311356,-0.05707747861742973,0.08213488757610321,-0.017593255266547203,-0.0775420218706131,-0.07131427526473999,0.04358895495533943,-0.05911543220281601,0.05382762476801872,0.002399116288870573,-0.024371488019824028,-0.02320713736116886,-0.04603809490799904,0.0035347589291632175,0.09539102762937546,-0.030199259519577026,-0.041206978261470795,0.08958449959754944,-0.0960644856095314,0.07626935839653015,0.02330043353140354,-0.0512608177959919,0.0664026066660881,-0.014241810888051987,0.0299722570925951,-0.05319537594914436,-0.07968025654554367,-0.0926484689116478,-0.038791850209236145,0.059766579419374466,-0.04082527756690979,-0.07661370187997818,0.08970435708761215,0.07012450695037842,-0.02729693241417408,0.06446315348148346,-0.01702190190553665,0.02465813048183918,-0.07868675887584686,0.05449676886200905,0.03837192803621292,0.04749042168259621,-0.06421797722578049,0.0020757673773914576,0.04562605544924736,0.09396000951528549,0.09813880175352097,-0.049384888261556625,0.08896175771951675,-0.02841293253004551,-0.005411691498011351,0.07587076723575592,0.02327449806034565,-0.012925945222377777,0.0693950355052948,-0.07915574312210083,0.01356236170977354,0.09054556488990784,-0.01627613604068756,0.03611372038722038,-0.037066202610731125,-0.004968142136931419,-0.03576518967747688,0.03825763240456581,0.06915882974863052,0.06599872559309006,0.012120408937335014,0.029526254162192345,-0.02628869004547596,-0.010598817840218544,0.03259719908237457,0.060691140592098236,-0.05740679055452347,0.012927932664752007,-0.0013873520074412227,0.03006373532116413,-0.04046996310353279,-0.07322973012924194,-0.053042322397232056,-0.03223170340061188,0.08189074695110321,-0.017207466065883636,-0.012812845408916473,-0.027601581066846848,-0.10251446813344955,0.02873714454472065,0.01281591597944498,0.04098600521683693,0.07476687431335449,-0.013331938534975052,0.015869636088609695,-0.0635940283536911,-0.04910195618867874,-0.09216167032718658,-0.06403708457946777,0.04592191427946091,0.0069017549976706505,-0.024910135194659233,-0.03599701076745987,-0.07971354573965073,-0.0930057018995285,-0.029311129823327065,-0.007162775378674269,0.07670211046934128,-0.08929875493049622,-0.05873112753033638,-0.04027936980128288,0.01923223026096821,-0.08436611294746399,0.007296796888113022,0.010144545696675777,-0.08189038187265396,-0.09749120473861694,-0.09252827614545822,-0.09333925694227219,0.0016958100022748113,-0.08496397733688354,-0.018410813063383102,-0.009406711906194687,0.10079510509967804,0.07461100816726685,-0.03505546599626541,0.012409860268235207,0.013626627624034882,0.07356912642717361,0.08169809728860855,0.009798075072467327,-0.08140916377305984,-0.023723194375634193,-0.04766231030225754,0.07204645872116089,