{"runId":62,"createdAt":"2026-07-19T19:06:52.354Z","modelFamily":"mlp_v2","hiddenLayers":[32],"inputSize":590,"outputSize":59,"outputNumbers":[1,2,3,4,5,6,7,8,9,10,11,12,13,14,15,16,17,18,19,20,21,22,23,24,25,26,27,28,29,30,31,32,33,34,35,36,37,38,39,40,41,42,43,44,45,46,47,48,49,50,51,52,53,54,55,56,57,58,59],"weights":[{"name":"dense_Dense9762/kernel","shape":[590,32],"values":[-0.03478659316897392,-0.12697428464889526,-0.05056214705109596,0.059621527791023254,-0.08546419441699982,0.041012004017829895,0.04197065159678459,-0.08743472397327423,-0.009993478655815125,0.04938830807805061,-0.06915529817342758,0.0026836523320525885,0.021691611036658287,-0.0031132083386182785,-0.00562341557815671,-0.07129634916782379,-0.07610379904508591,-0.014359517022967339,-0.01635693944990635,0.029508696869015694,0.03616989403963089,0.07751449942588806,0.10181339085102081,0.0993182361125946,-0.021986769512295723,-0.001265259343199432,-0.008248366415500641,-0.05017722770571709,0.06768708676099777,0.01745469868183136,-0.07769615948200226,-0.05607389286160469,-0.10863561183214188,0.09169371426105499,0.05488456413149834,-0.07621243596076965,-0.004907920025289059,0.008503023535013199,0.027730820700526237,0.10143541544675827,-0.03700621798634529,-0.059530217200517654,-0.030086955055594444,-0.012806144542992115,0.0998280793428421,-0.07222899049520493,0.06547174602746964,-0.004736078437417746,0.07977157831192017,0.07726552337408066,0.0747571736574173,-0.003944498486816883,0.01173015870153904,0.011493219062685966,-0.043484076857566833,-0.000698616961017251,0.10228823870420456,-0.06912993639707565,0.048069678246974945,0.09699495136737823,0.054479580372571945,-0.11367642879486084,0.03282769396901131,-0.0573357529938221,0.06856115907430649,-0.0004408166860230267,0.08255637437105179,-0.09206303209066391,0.059871871024370193,0.06476972252130508,0.07325264066457748,-0.0711856409907341,-0.08647073805332184,-0.06188519299030304,0.042332980781793594,0.016960514709353447,0.08729970455169678,0.08511900156736374,-0.07360817492008209,-0.101404570043087,-0.0031153715681284666,-0.0066639031283557415,-0.008248267695307732,-0.016176890581846237,-0.007731197401881218,-0.022417951375246048,-0.0290639977902174,-0.03247813135385513,0.02991979941725731,-0.05621956288814545,0.07107950747013092,-0.034553661942481995,-0.08256382495164871,0.12218571454286575,-0.04960181936621666,-0.05427270382642746,0.03225285932421684,0.10255851596593857,-0.034312352538108826,-0.0376637727022171,0.0023213231470435858,0.015947768464684486,-0.05169199779629707,-0.024355122819542885,0.07468043267726898,-0.10270153731107712,-0.019386732950806618,-0.07624217867851257,0.07563230395317078,-0.0508553683757782,0.10599799454212189,0.09290122985839844,0.037542302161455154,-0.03551725298166275,0.04477247968316078,0.013887488283216953,0.033649545162916183,-0.06823825091123581,0.03153355419635773,-0.009288246743381023,-0.0027585106436163187,0.04545587673783302,-0.09436158835887909,0.026065079495310783,0.032766520977020264,-0.006127743981778622,-0.042481523007154465,-0.030691297724843025,-0.033228036016225815,0.07132763415575027,-0.005838957615196705,-0.05687110126018524,-0.0020458102226257324,0.05898403376340866,0.008770562708377838,0.06241548806428909,-0.0769784227013588,-0.04844839498400688,0.049256473779678345,0.041597235947847366,0.020784514024853706,-0.07729406654834747,-0.1012270450592041,-0.00008284720388473943,-0.023398522287607193,0.003563584992662072,0.028369002044200897,0.08251576125621796,-0.06311729550361633,-0.08711875230073929,-0.011793626472353935,-0.0667402595281601,0.012094755657017231,-0.01726735197007656,-0.09957000613212585,0.06993930041790009,0.06324581056833267,0.008292599581182003,-0.019222766160964966,-0.005423053167760372,0.0840037390589714,0.10894900560379028,0.005555144976824522,-0.06304547935724258,-0.09489107131958008,0.0387142039835453,0.045839786529541016,0.06369943916797638,0.010276095010340214,-0.08360359817743301,-0.02510388009250164,-0.04338795691728592,-0.02981242910027504,0.030941788107156754,0.12953191995620728,0.09909746050834656,0.06117555499076843,-0.037477489560842514,0.100486621260643,0.0453982837498188,-0.09873682260513306,-0.11038786917924881,-0.06708928942680359,0.013299617916345596,0.0806407481431961,0.0025226117577403784,-0.014089452102780342,0.057583753019571304,-0.022061770781874657,0.00544859329238534,0.09908317774534225,0.03306054696440697,-0.006427890155464411,0.014471380971372128,0.1319810450077057,-0.07445104420185089,0.02486523613333702,-0.10647032409906387,-0.018285799771547318,-0.08940213173627853,-0.09640085697174072,0.0022094424348324537,-0.007671006955206394,0.03671323135495186,0.11074944585561752,-0.09933492541313171,0.04768617823719978,0.004875402431935072,-0.037936292588710785,-0.02627229504287243,0.08011481165885925,0.03232398256659508,0.023620430380105972,0.030849896371364594,-0.03305035084486008,-0.0700955018401146,-0.08008210361003876,-0.0720067247748375,-0.04683222621679306,0.023023713380098343,-0.013634986244142056,0.07532425969839096,-0.06867296248674393,0.0653516873717308,-0.10072460770606995,0.09709493070840836,-0.0798027291893959,-0.019133612513542175,0.1034560352563858,0.05020998418331146,-0.06424085050821304,-0.05819544196128845,-0.05213276296854019,0.04240360110998154,0.07845684140920639,-0.061146799474954605,0.12016597390174866,-0.01980803720653057,-0.07271642982959747,0.01379711739718914,-0.006414311937987804,-0.018339097499847412,0.10987676680088043,-0.02170477993786335,-0.00014084347640164196,0.08180563896894455,0.12346819788217545,-0.049686580896377563,0.026451630517840385,-0.005584248341619968,0.06395736336708069,0.038052998483181,-0.04416666924953461,0.04686705768108368,-0.032757580280303955,-0.031711459159851074,-0.09220114350318909,-0.06097424402832985,0.1039883941411972,-0.11887376010417938,0.10385414958000183,0.06996092945337296,-0.031438134610652924,-0.004342946223914623,0.08746962249279022,0.05068935826420784,0.07054741680622101,0.11754240840673447,-0.05435210093855858,0.02757423371076584,-0.1099652573466301,0.0273507758975029,0.07857690751552582,-0.012981315143406391,0.1102757602930069,0.0690220296382904,0.048068445175886154,0.030855268239974976,-0.008707907050848007,0.08104495704174042,-0.06311289221048355,-0.07554864883422852,-0.07178588956594467,0.07044436037540436,0.0690956637263298,0.0044695413671433926,-0.0612109936773777,-0.029780978336930275,0.009785868227481842,0.03417295590043068,0.005537954159080982,-0.06699346750974655,-0.08967366814613342,-0.09003425389528275,0.053082842379808426,0.004948584828525782,0.08027920126914978,-0.007956592366099358,0.026065643876791,0.04516094550490379,-0.03343125805258751,0.0612478069961071,-0.010489932261407375,-0.07098474353551865,0.0031591865699738264,0.05144313722848892,-0.0008827756973914802,-0.10332734137773514,-0.031960297375917435,-0.02654174342751503,-0.015252972021698952,-0.006168992258608341,-0.029227642342448235,0.008009325712919235,-0.08279235661029816,0.07462362200021744,0.06446949392557144,-0.09006259590387344,-0.09028472751379013,-0.040186017751693726,-0.04380257427692413,0.06729325652122498,-0.03493329882621765,0.06357434391975403,0.0071119884960353374,-0.01026074681431055,0.10738055408000946,-0.06242814287543297,0.016024641692638397,0.018507853150367737,-0.03067132644355297,0.040016740560531616,0.09952837228775024,0.04038494825363159,-0.072970449924469,-0.01740475371479988,0.08524897694587708,-0.03048795275390148,0.03621325269341469,-0.05779140070080757,-0.019149042665958405,-0.09005559235811234,0.0069768717512488365,-0.007482925895601511,0.05079427361488342,0.022972777485847473,-0.0654790922999382,0.014105921611189842,0.09477247297763824,0.08508679270744324,-0.03290465474128723,0.05042358487844467,-0.022692503407597542,0.05113553628325462,-0.011011676862835884,0.06188112497329712,0.10467235743999481,-0.0663752630352974,-0.008639555424451828,0.05515998974442482,0.06931298971176147,-0.048582933843135834,-0.02749224379658699,-0.0633334293961525,0.002771106781437993,0.08352238684892654,-0.040853824466466904,-0.044097185134887695,0.11306823790073395,-0.07530135661363602,0.09443522989749908,0.007271154783666134,-0.0405096672475338,-0.04706965759396553,-0.009265713393688202,0.09635189175605774,0.06110600382089615,0.00744079751893878,-0.08017724752426147,0.041442204266786575,0.0815952941775322,0.0416526235640049,-0.028471501544117928,-0.005352349951863289,0.07224401831626892,0.024356411769986153,-0.07661223411560059,-0.052565909922122955,-0.0011701120529323816,-0.09471163898706436,0.057288944721221924,0.03530573844909668,0.07437220215797424,0.08294375240802765,0.0689663514494896,-0.07737062871456146,0.053784873336553574,-0.04233396053314209,-0.09636528044939041,-0.04863915592432022,-0.0013075433671474457,0.0741616040468216,0.06561844050884247,0.020901525393128395,0.02221633307635784,0.05585414916276932,0.03032415546476841,0.03499528765678406,0.049476657062768936,0.03842078521847725,-0.0018279899377375841,-0.082069031894207,0.0274587944149971,0.025254342705011368,-0.09209520369768143,-0.06956736743450165,-0.05491652712225914,-0.01242376584559679,-0.058612290769815445,-0.05219481140375137,0.021541843190789223,-0.04016507789492607,0.028767650946974754,-0.030764857307076454,-0.009412365034222603,0.0635284036397934,0.03171493858098984,0.09821780025959015,-0.05323999375104904,-0.0592823401093483,-0.03737548366189003,0.04628360643982887,-0.06881668418645859,0.07643475383520126,0.017458925023674965,0.060804709792137146,-0.10962142795324326,0.061982955783605576,0.07510743290185928,-0.029684459790587425,0.08431752771139145,0.0700555294752121,-0.0920381173491478,-0.020335601642727852,0.02487003803253174,-0.044641368091106415,0.07470868527889252,0.07960188388824463,-0.002436127047985792,0.011358733288943768,0.07655556499958038,-0.06792402267456055,-0.002873307792469859,-0.027078891173005104,0.08784972876310349,0.09182905405759811,0.03887302055954933,-0.1073497012257576,0.021144699305295944,-0.06981146335601807,-0.04715323820710182,-0.08931948244571686,-0.016832837834954262,0.03602425381541252,0.004157808143645525,0.07980769872665405,-0.035900652408599854,0.0012125171488150954,-0.0820000022649765,-0.07958892732858658,0.08849013596773148,0.09345300495624542,0.06456004083156586,0.026886383071541786,0.01900782249867916,-0.040131837129592896,0.08094090968370438,-0.06155668944120407,0.06987852603197098,0.04372267797589302,-0.006494633387774229,-0.034344252198934555,0.07957244664430618,0.015781143680214882,-0.05906711891293526,0.11614403128623962,-0.0041153449565172195,0.059960346668958664,0.051668930798769,-0.062262363731861115,0.02821020409464836,0.035849738866090775,0.00834344606846571,-0.07402601838111877,-0.005107988137751818,-0.034470751881599426,0.02712593413889408,0.047159045934677124,0.046439964324235916,-0.07873810082674026,0.03765946626663208,-0.08119769394397736,-0.0706368088722229,0.023899080231785774,0.08844718337059021,0.01841767318546772,-0.018313830718398094,-0.049463849514722824,-0.038609568029642105,0.05925234034657478,-0.009564709849655628,-0.017755167558789253,0.06580835580825806,0.05309977009892464,-0.06780371814966202,0.047147952020168304,0.029749779030680656,0.004629571922123432,0.08897116035223007,-0.03457823023200035,0.013115346431732178,0.024831321090459824,-0.034406084567308426,0.0139828035607934,-0.04002194479107857,-0.06456153094768524,0.006153615657240152,0.04576480761170387,0.07583710551261902,0.0014183474704623222,0.12410122156143188,-0.044902220368385315,0.06695590913295746,-0.0052132089622318745,0.07448003441095352,-0.005519085563719273,0.01080305501818657,-0.010026580654084682,-0.018215643242001534,-0.02326127141714096,-0.09164351224899292,0.0939229354262352,0.05519425496459007,0.11064693331718445,-0.050150368362665176,0.0018750781891867518,0.09548382461071014,-0.09068026393651962,-0.08357734233140945,-0.09203320741653442,-0.010244058445096016,-0.05515095219016075,0.051801618188619614,-0.054610516875982285,-0.0011092012282460928,0.04729922488331795,0.05221662297844887,0.016494236886501312,0.028904421254992485,0.04174159839749336,0.1218278557062149,0.027115589007735252,0.07398597151041031,0.08078479021787643,-0.08046695590019226,0.031446944922208786,-0.05286874994635582,0.10150143504142761,0.06870453804731369,-0.03963075578212738,0.04500431939959526,-0.1020682156085968,0.03297354280948639,0.07714273780584335,0.04516109451651573,-0.03211493790149689,-0.008819341659545898,-0.01733117364346981,0.007410895545035601,0.04830964282155037,-0.03847929462790489,-0.045906633138656616,-0.005274659022688866,-0.02901778556406498,-0.06432324647903442,0.03233487531542778,-0.09323427081108093,-0.05206935852766037,0.03789418190717697,-0.07848401367664337,-0.02495836280286312,-0.04869416728615761,0.08029387891292572,-0.0722019150853157,0.04317862167954445,0.1390865296125412,-0.02177514135837555,-0.08606578409671783,-0.07923586666584015,-0.03559416905045509,0.09155014157295227,0.001445580623112619,0.011615840718150139,0.0011862758547067642,-0.04853401333093643,0.0645609200000763,0.07247085124254227,0.016112525016069412,-0.026051588356494904,-0.0034999968484044075,-0.00927479937672615,0.03653716295957565,-0.031476907432079315,-0.09825653582811356,0.11021701991558075,-0.0594237744808197,-0.05701358616352081,0.01643887721002102,-0.019312141463160515,-0.037843406200408936,0.04455047845840454,-0.11238314211368561,0.03890267759561539,-0.08025888353586197,0.1099710762500763,0.07847334444522858,0.03681733459234238,0.07097835838794708,-0.07959667593240738,-0.07420001924037933,-0.06953365355730057,0.07971983402967453,-0.04225626587867737,0.08427179604768753,0.04144104942679405,0.08207523077726364,-0.0022291005589067936,-0.07818603515625,0.0453922413289547,0.05057954788208008,-0.08408128470182419,-0.02447175793349743,0.08410976082086563,0.10755190253257751,0.08324121683835983,-0.04993022233247757,0.028100648894906044,-0.021054212003946304,0.03117508441209793,0.03928019851446152,-0.10129684209823608,-0.03397449478507042,-0.020132536068558693,0.03911305218935013,0.0094453739002347,-0.016382217407226562,-0.030710136517882347,0.10069365799427032,0.050055451691150665,-0.01976810023188591,0.046312782913446426,0.023876095190644264,0.06595507264137268,0.07035955786705017,0.04028760641813278,0.031011372804641724,-0.09659416228532791,-0.03922788426280022,0.00950341671705246,-0.03813285008072853,0.027919357642531395,-0.028368283063173294,0.01087217777967453,0.013878780417144299,-0.026705557480454445,-0.02482403628528118,0.05553162470459938,0.04857085645198822,-0.002468281425535679,-0.05026187747716904,-0.09108926355838776,0.04256799444556236,0.035636622458696365,-0.027489684522151947,0.12105242908000946,0.06026355177164078,-0.07454808056354523,-0.01614423096179962,0.06802544742822647,0.0923907533288002,0.013394970446825027,0.02089099772274494,-0.06518149375915527,0.04211103171110153,0.10150672495365143,0.04724867641925812,-0.05904638022184372,0.030571075156331062,-0.07888505607843399,-0.1031392365694046,-0.026537377387285233,-0.07241117209196091,0.01766560785472393,0.011541012674570084,0.08628886193037033,0.031811248511075974,-0.09089384973049164,-0.08876495808362961,-0.041037317365407944,0.00494613079354167,-0.04461731016635895,-0.030797157436609268,-0.06974105536937714,-0.08620313555002213,0.06775494664907455,0.05662551894783974,0.02584877423942089,-0.09884683787822723,0.03514096885919571,-0.011558732017874718,0.04470355436205864,0.09016796946525574,0.07138176262378693,-0.00875879731029272,-0.03777753561735153,-0.04539687559008598,0.0971808061003685,0.04715932905673981,-0.028313014656305313,0.06972472369670868,0.05432065576314926,0.019664324820041656,0.002273841295391321,0.06719470769166946,-0.06109348312020302,-0.08772458881139755,-0.0814872458577156,-0.039686113595962524,-0.07750048488378525,0.0032465215772390366,0.01387716643512249,-0.000286065973341465,0.08686696738004684,0.07953982800245285,0.005134741310030222,0.04224034398794174,-0.035704996436834335,0.036147426813840866,-0.005149561446160078,-0.008350160904228687,0.09920474141836166,0.10075070708990097,-0.07896435260772705,0.08257845044136047,0.0650724545121193,0.03678072616457939,0.04726813733577728,-0.06724152714014053,0.10404269397258759,-0.048905324190855026,0.01456228457391262,-0.12695100903511047,-0.0856376439332962,0.04758118465542793,-0.05432606860995293,0.08832217752933502,-0.016679946333169937,0.09818538278341293,0.019751377403736115,0.05553917586803436,-0.05626898631453514,0.056717075407505035,-0.06365453451871872,0.06938162446022034,0.0202637929469347,0.046793337911367416,-0.01807493157684803,0.0454774908721447,0.07577056437730789,0.005872197449207306,0.007343045435845852,0.012547105550765991,0.018009448423981667,0.04241323471069336,-0.026952547952532768,-0.07518798112869263,-0.0009855310199782252,0.0029499568045139313,-0.014242016710340977,0.045216817408800125,-0.05943737551569939,-0.016808221116662025,-0.06918170303106308,-0.08605857193470001,0.003367153462022543,-0.02408663183450699,0.08102554827928543,-0.02792675606906414,0.04820786416530609,0.05681350454688072,-0.09809491038322449,-0.004236850421875715,-0.04590630903840065,0.05335308983922005,0.11873205006122589,-0.08723608404397964,0.06846155226230621,0.02893274649977684,-0.06348268687725067,-0.04356951639056206,-0.002497901674360037,0.06507034599781036,-0.0036748077254742384,-0.08756646513938904,0.006979908794164658,0.001557402778416872,-0.059615373611450195,0.06362567096948624,0.043290168046951294,-0.06608808785676956,0.053718775510787964,-0.054094407707452774,0.0075516607612371445,-0.03766587749123573,0.052289996296167374,0.028875235468149185,0.0059619746170938015,-0.0594605877995491,-0.014898204244673252,0.015851544216275215,0.08273407816886902,-0.03485468402504921,0.057181909680366516,0.022392913699150085,0.009369969367980957,-0.06701945513486862,-0.07606092840433121,-0.08171111345291138,0.0831887349486351,-0.06815122812986374,-0.05372430011630058,-0.09823557734489441,0.033634740859270096,-0.05895639955997467,0.07613378763198853,-0.06805959343910217,-0.03149627894163132,0.06849373131990433,-0.05348900333046913,-0.051279790699481964,0.048040807247161865,0.05388674885034561,0.05597126856446266,0.06429855525493622,0.010493910871446133,0.015638116747140884,0.10076843947172165,-0.009438292123377323,0.0284176804125309,-0.053252749145030975,-0.008773617446422577,-0.01345409918576479,-0.0051871854811906815,-0.003234989009797573,0.0341840423643589,-0.0996098667383194,-0.01444120891392231,-0.01102979015558958,0.0330592505633831,-0.04342713952064514,0.14004828035831451,-0.01895671710371971,0.005874448921531439,-0.0526893176138401,0.08357852697372437,0.09834744036197662,0.08823765069246292,-0.005084739066660404,-0.05429251864552498,0.03234175220131874,0.055491797626018524,0.05896489694714546,0.02734311856329441,-0.055034760385751724,-0.00014095155347604305,-0.11108265072107315,0.005074399523437023,0.05594776198267937,-0.011113226413726807,-0.0196782648563385,0.05181429535150528,0.05053599178791046,0.05547381564974785,-0.018409429118037224,0.05960986763238907,-0.09431860595941544,0.03913506120443344,0.057946477085351944,0.05262022465467453,-0.010622574016451836,-0.11031923443078995,-0.019303197041153908,0.019941847771406174,-0.09221172332763672,0.052651092410087585,0.05436323955655098,0.0850779265165329,0.03811025246977806,0.04686366394162178,-0.06072409823536873,0.006276667583733797,0.045340683311223984,0.07262440770864487,0.08329825103282928,0.02291278727352619,0.06256907433271408,0.01006571389734745,-0.01944372057914734,0.09743595123291016,0.06936601549386978,-0.02766476385295391,-0.007601078134030104,-0.04827325418591499,0.06549075245857239,-0.009183423593640327,-0.06015697866678238,0.034035321325063705,-0.014936954714357853,-0.073760025203228,-0.053359504789114,0.045643046498298645,-0.07446721941232681,0.037531089037656784,0.03787362948060036,-0.07533733546733856,0.055483728647232056,0.021450133994221687,-0.02986787259578705,0.06491715461015701,0.0015384777216240764,0.057466551661491394,-0.012006066739559174,0.01047575008124113,0.004136988893151283,0.08650052547454834,0.02149220183491707,-0.060803741216659546,-0.04075736552476883,-0.01862850785255432,0.06798021495342255,-0.06392274051904678,-0.03277530521154404,0.036554381251335144,0.06816470623016357,0.08085290342569351,0.014644931070506573,-0.10782874375581741,0.004294542595744133,-0.10630014538764954,-0.014014923013746738,-0.09169448167085648,0.054624415934085846,-0.07553181797266006,-0.061067741364240646,0.06450946629047394,0.07277774810791016,0.017773352563381195,0.029244087636470795,0.09334046393632889,-0.028424562886357307,0.07778138667345047,0.023019297048449516,-0.059864092618227005,0.05071524903178215,-0.019347015768289566,0.05038408935070038,0.10471390187740326,0.07179168611764908,0.016915874555706978,-0.037808019667863846,0.0343858040869236,0.027014674618840218,0.05963847041130066,0.0066800424829125404,0.044448915868997574,0.005069821607321501,-0.06700187176465988,-0.06870058923959732,0.04106251522898674,-0.05559401214122772,0.023101329803466797,0.10145774483680725,0.017553171142935753,0.06134866923093796,-0.05928986892104149,-0.026178037747740746,-0.0864763855934143,-0.04962874576449394,0.09348677098751068,0.04205641895532608,0.050245389342308044,0.041932519525289536,-0.019050149247050285,0.009895938448607922,0.044841162860393524,0.03562772274017334,0.027457619085907936,0.006963733583688736,-0.06279896199703217,-0.010124812833964825,-0.028191862627863884,0.027073197066783905,-0.04775237292051315,-0.05009647086262703,0.05493686720728874,0.03971463814377785,0.11080290377140045,-0.04680747911334038,-0.07842735946178436,-0.08576768636703491,0.10120491683483124,0.10160663723945618,-0.06744885444641113,-0.013732627965509892,-0.024252500385046005,-0.0560920313000679,0.04515765979886055,0.04643232375383377,0.0256167221814394,-0.008684649132192135,-0.037421174347400665,-0.0023864416871219873,0.017578667029738426,-0.09523849934339523,0.015844130888581276,0.07899495959281921,-0.04081510007381439,-0.07617366313934326,-0.09808740019798279,0.045693542808294296,0.06432896107435226,-0.04488394409418106,-0.056052643805742264,-0.02728085033595562,0.029868828132748604,-0.11033109575510025,-0.005065036937594414,-0.012143600732088089,0.06895462423563004,0.006750921718776226,-0.07498359680175781,0.054421644657850266,0.030737251043319702,-0.05133236572146416,0.007613237947225571,0.04038392752408981,0.0782887414097786,-0.04094284772872925,0.06115841865539551,0.034022506326436996,0.0232646893709898,-0.04011428356170654,-0.06456510722637177,-0.0038237436674535275,-0.07117131352424622,-0.026790350675582886,0.03120128996670246,-0.07605905085802078,0.05396205559372902,0.08721397817134857,0.06751515716314316,-0.05271183326840401,0.057150159031152725,-0.00039288183324970305,0.02818826213479042,-0.06941556930541992,0.010268080048263073,-0.04353160783648491,0.03271710127592087,0.11973045766353607,-0.04846824333071709,-0.03414350003004074,0.014740114100277424,-0.041179582476615906,0.018771329894661903,-0.015004853717982769,-0.07727620005607605,-0.04257339984178543,0.05731458589434624,-0.07514303922653198,0.06073625385761261,-0.08187106996774673,0.01949285715818405,0.07407723367214203,0.10699393600225449,-0.050512757152318954,-0.04165518656373024,-0.038865961134433746,0.015342284925282001,-0.018768666312098503,0.0648299977183342,-0.01246547419577837,-0.09556970745325089,-0.04819033294916153,0.09244325011968613,0.07238001376390457,0.02971387840807438,0.09748342633247375,-0.0015820686239749193,-0.014293394051492214,-0.03497214987874031,0.00003276186544098891,-0.06016179546713829,-0.00983836967498064,-0.07386718690395355,0.05560796707868576,0.045970480889081955,-0.07286768406629562,-0.013690781779587269,-0.05870600789785385,0.06823998689651489,0.06515929102897644,-0.0034702999982982874,0.02195795252919197,-0.07559218257665634,-0.03931121155619621,-0.07677009701728821,0.08830396831035614,-0.005197969265282154,-0.053469520062208176,-0.041251588612794876,-0.022016268223524094,0.001229112851433456,-0.07752401381731033,0.05587296932935715,-0.11772816628217697,0.03939655423164368,0.0853324681520462,0.023217186331748962,0.06069076806306839,-0.084626704454422,0.019290732219815254,-0.039199113845825195,0.0498666949570179,-0.009977752342820168,0.05934634059667587,0.02458101138472557,0.0481262281537056,-0.0858573466539383,-0.08018634468317032,0.037008754909038544,-0.016401244327425957,0.011106297373771667,0.008478534407913685,-0.06410923600196838,-0.024701053276658058,0.05427446588873863,-0.06321020424365997,0.11115438491106033,-0.05042443424463272,0.012923012487590313,-0.02035767026245594,0.08868536353111267,-0.0016554277390241623,-0.010648124851286411,-0.023006534203886986,0.019042136147618294,0.03280000388622284,-0.014183824881911278,0.12052354216575623,0.09405907988548279,0.06380285322666168,-0.05442871153354645,0.045564793050289154,0.09633684158325195,-0.07579696178436279,-0.034591685980558395,0.02272460050880909,-0.015486438758671284,-0.034414950758218765,-0.05043857917189598,-0.032512810081243515,-0.051441047340631485,-0.037633590400218964,-0.024708405137062073,-0.05618433654308319,0.088148333132267,0.0046580201014876366,0.018845029175281525,-0.02505018375813961,0.06756502389907837,-0.06942605972290039,0.023447303101420403,-0.033678553998470306,0.01550955232232809,-0.03435257077217102,-0.01856089197099209,-0.07304959744215012,-0.06742413341999054,0.09582739323377609,-0.018514778465032578,-0.004247922915965319,0.11602321267127991,0.10022985190153122,-0.04142563045024872,-0.05137508735060692,0.042416755110025406,-0.07009349763393402,-0.031950633972883224,-0.05270204693078995,0.07745634764432907,-0.019247105345129967,-0.03805910795927048,0.07976942509412766,0.10282818973064423,0.02299298346042633,-0.0049890740774571896,0.09251236915588379,0.04569666087627411,0.056118495762348175,0.042060911655426025,0.05043211951851845,-0.06799651682376862,-0.02458604797720909,-0.0683370977640152,0.055135998874902725,-0.0026015264447778463,-0.0014599472051486373,0.07285645604133606,0.0642610564827919,-0.10127104818820953,-0.023794924840331078,0.060426220297813416,-0.02350030653178692,0.007214630488306284,0.12352879345417023,0.00370842800475657,0.05088299140334129,-0.0032483802642673254,-0.011043069884181023,0.039025794714689255,-0.04860388860106468,0.05456286668777466,0.032856475561857224,0.013487947173416615,-0.04823971167206764,-0.07096277922391891,0.10039893537759781,0.09119173139333725,0.07816523313522339,-0.01634574495255947,0.009696121327579021,-0.10194182395935059,0.07428659498691559,0.08759889751672745,0.07255801558494568,-0.06275153905153275,0.04503536969423294,-0.07066384702920914,-0.05285187438130379,-0.02502368949353695,0.03755246847867966,0.02977997250854969,-0.0792858824133873,0.012039892375469208,-0.02360662817955017,0.05439097806811333,0.06775887310504913,-0.06895081698894501,0.05846616253256798,0.09617625176906586,-0.018289465457201004,0.019304296001791954,-0.04654952138662338,-0.102947898209095,0.019069066271185875,0.049166239798069,-0.012728209607303143,0.043189194053411484,0.0029912511818110943,-0.07233504205942154,0.00828061904758215,-0.10283293575048447,0.06444302946329117,-0.044204533100128174,-0.02736792340874672,0.09540656208992004,-0.08387529850006104,-0.00904907938092947,0.08642876893281937,-0.07239637523889542,0.0936565026640892,0.010318538174033165,-0.06521062552928925,-0.019005928188562393,0.008937965147197247,0.025902340188622475,-0.010790773667395115,0.036439213901758194,0.002142181620001793,-0.03188277408480644,0.0635666474699974,-0.06354360282421112,-0.046537768095731735,0.03916512802243233,-0.07612507045269012,0.023762734606862068,0.09883817285299301,-0.04604918137192726,-0.06378671526908875,-0.04314461350440979,-0.010525516234338284,-0.05811011418700218,-0.05252532660961151,-0.07766105234622955,-0.03302236646413803,0.06335530430078506,0.03607482463121414,0.11298615485429764,0.061300527304410934,-0.07661693543195724,-0.021727675572037697,0.10090567171573639,-0.0723753273487091,-0.010549255646765232,0.09786952286958694,-0.055743273347616196,0.047043927013874054,-0.027108551934361458,0.01384840626269579,-0.049612708389759064,0.029965702444314957,-0.07571742683649063,-0.012437241151928902,0.028686223551630974,0.07291742414236069,0.04884474724531174,0.025509066879749298,-0.06826836615800858,0.03584851697087288,0.05865488946437836,0.0036592816468328238,0.04045034199953079,0.06438220292329788,0.06966005265712738,0.0743785873055458,-0.054477766156196594,0.010492886416614056,-0.014277525246143341,0.05976202338933945,-0.013263020664453506,0.08380454033613205,-0.08453249931335449,0.08201736211776733,-0.04483611136674881,0.00003559923425200395,-0.026317048817873,0.0816071555018425,-0.05386340245604515,-0.037091974169015884,0.08987990021705627,0.08760794997215271,0.08884095400571823,0.029691336676478386,-0.032367952167987823,-0.09476127475500107,-0.017264652997255325,-0.0027912950608879328,0.0443587601184845,-0.06630296260118484,0.09677886217832565,-0.051639050245285034,0.07467139512300491,-0.10523500293493271,0.0016128316055983305,0.10841003060340881,-0.09979326277971268,-0.031870465725660324,-0.04104488343000412,-0.02886633202433586,-0.030207252129912376,0.03896450996398926,-0.029578927904367447,0.034183114767074585,0.017505720257759094,-0.061918728053569794,0.05938204005360603,-0.020776115357875824,0.07052146643400192,-0.0344262532889843,-0.02894904650747776,0.038396310061216354,-0.016153568401932716,0.00272923381999135,0.024265514686703682,0.007159864064306021,0.06197812035679817,-0.03424156457185745,0.022319255396723747,-0.08456385135650635,-0.009821740910410881,-0.06541551649570465,0.0705018937587738,0.042095158249139786,0.04327511414885521,0.014378463849425316,0.12313378602266312,0.05807317793369293,-0.03908881917595863,-0.005403498187661171,0.03741246461868286,0.07297959178686142,0.10917280614376068,-0.014211446046829224,0.019029466435313225,0.06946618109941483,-0.06291664391756058,-0.04685951769351959,0.05271020159125328,-0.040785375982522964,0.04130559414625168,0.04284432530403137,0.01684277318418026,-0.0120842345058918,0.00028233477496542037,-0.05906757339835167,0.08720823377370834,0.015385353937745094,-0.022557256743311882,-0.08228856325149536,0.0925927460193634,0.05398712679743767,0.02338963747024536,0.006604388821870089,-0.03560454398393631,0.061584554612636566,-0.05900208652019501,-0.006111543625593185,0.038493506610393524,-0.03545847907662392,0.02206660620868206,-0.04647468775510788,-0.11191468685865402,0.02712589129805565,-0.09573250263929367,0.055013321340084076,-0.07513860613107681,0.08611980080604553,-0.012511876411736012,0.0806453675031662,0.004168324172496796,0.03122282586991787,0.038070596754550934,0.021813426166772842,0.03683513402938843,-0.013001799583435059,0.009617259725928307,0.09606974571943283,0.02302158623933792,-0.018240228295326233,0.043185628950595856,0.04145338386297226,0.049713026732206345,0.005609673447906971,0.0015207724645733833,-0.046157967299222946,-0.06955571472644806,0.05689453333616257,-0.0673862025141716,0.10632118582725525,0.030692782253026962,0.09786201268434525,0.08057942241430283,0.0093161566182971,-0.0644533783197403,0.05557091906666756,0.07162513583898544,-0.08111277967691422,-0.020477309823036194,-0.035938333719968796,0.0650322362780571,-0.09095503389835358,0.002382804173976183,-0.07749733328819275,-0.004688420332968235,0.06350219249725342,0.025137294083833694,-0.0591043196618557,-0.04612698778510094,0.09190782159566879,0.09682779759168625,0.08519192785024643,0.032097894698381424,0.020519794896245003,0.05072925612330437,-0.007781442254781723,0.04869040846824646,-0.04081689566373825,0.07015356421470642,0.0034957800526171923,-0.0026110270991921425,-0.03278055787086487,0.026690388098359108,0.037270501255989075,0.0616978220641613,-0.02817690744996071,0.07427778095006943,0.02395816333591938,-0.06627783179283142,0.029381591826677322,0.0595560260117054,-0.05852529779076576,-0.06679543107748032,-0.004273919854313135,-0.03341855853796005,0.09541171044111252,-0.024987928569316864,0.06500877439975739,-0.04558482766151428,0.03380576893687248,0.1205044761300087,-0.006235913839191198,0.08273446559906006,0.10628136247396469,-0.021497759968042374,-0.027192894369363785,0.000059865633375011384,0.03293900191783905,0.015038267709314823,0.016242356970906258,0.035345885902643204,0.052637021988630295,-0.026328034698963165,-0.05305032432079315,-0.056841325014829636,-0.06090698763728142,0.030633453279733658,-0.022318804636597633,-0.048165932297706604,0.011478361673653126,0.09591281414031982,-0.10167401283979416,-0.045044973492622375,-0.062080007046461105,0.03604960814118385,0.01049892883747816,-0.0610496923327446,0.07524918764829636,-0.0475764125585556,0.046611081808805466,0.06664515286684036,-0.001950587728060782,-0.04198078066110611,0.11344064027070999,-0.046563901007175446,0.09350326657295227,0.09271419048309326,-0.08861654251813889,-0.07398783415555954,-0.09064054489135742,0.1057826429605484,0.05152213200926781,-0.07053390145301819,0.011298165656626225,-0.029132569208741188,-0.07332722097635269,-0.024137170985341072,-0.017624039202928543,0.05515213683247566,-0.029714563861489296,0.05244191735982895,-0.016138065606355667,0.0025131553411483765,0.01826366037130356,0.11160609126091003,0.043220192193984985,0.0843324065208435,-0.07730967551469803,-0.06324898451566696,-0.0003484603948891163,0.018350033089518547,0.03713492304086685,-0.06728264689445496,-0.0356941744685173,-0.020587610080838203,0.03188017010688782,-0.01904921606183052,0.008578221313655376,-0.04040246084332466,-0.040166787803173065,-0.057353973388671875,0.09415984898805618,0.002420596079900861,0.01391587220132351,0.022814102470874786,-0.07894066721200943,-0.04142879694700241,0.04090036079287529,0.03906882926821709,0.08696088194847107,-0.12217529863119125,0.0041743493638932705,-0.03401615470647812,-0.05292145535349846,0.0008391489973291755,-0.11893197149038315,-0.011573268100619316,-0.056644462049007416,0.01729290373623371,0.03764677047729492,0.02402038685977459,0.034489817917346954,0.006001025438308716,-0.039754703640937805,-0.039208848029375076,0.010158314369618893,-0.05059167742729187,0.07410795986652374,0.03212606534361839,-0.01571284793317318,-0.06582961976528168,0.05351625382900238,0.009344695135951042,-0.059379905462265015,0.018524322658777237,0.06440747529268265,-0.09447986632585526,-0.09241556376218796,-0.012401103042066097,0.02802938222885132,0.03356621786952019,0.046184834092855453,-0.05021611228585243,0.06813322007656097,-0.07239381223917007,0.05873440206050873,-0.08746479451656342,-0.12546126544475555,0.009782002307474613,-0.08229151368141174,0.07049086689949036,-0.0008597286650910974,-0.03573549911379814,0.07474929839372635,0.04536416009068489,-0.011489828117191792,-0.052553940564394,-0.057765763252973557,0.04931921884417534,0.12679801881313324,-0.05682941898703575,0.07604864984750748,-0.09224861860275269,-0.029278693720698357,-0.08673897385597229,0.05908409133553505,0.09367819130420685,-0.04435084015130997,-0.04047109931707382,0.017155366018414497,-0.04401540383696556,-0.016582034528255463,0.04832467436790466,-0.001750220893882215,0.03128490597009659,-0.011250237934291363,0.0032020406797528267,0.06948105245828629,0.043148223310709,0.033773165196180344,-0.03951407968997955,0.07192929834127426,0.013271589763462543,0.12468329817056656,0.006085953675210476,-0.06356942653656006,0.05957864597439766,-0.012528873980045319,0.03592410683631897,0.008422138169407845,0.06882301717996597,0.016997573897242546,-0.008475545793771744,0.11779060959815979,-0.012534045614302158,-0.030852289870381355,0.060068514198064804,0.05129987746477127,-0.024017421528697014,0.011825880035758018,0.0343489833176136,-0.04189604893326759,0.036986131221055984,0.04613923653960228,-0.06328616291284561,-0.05813472345471382,0.03838401287794113,0.06731105595827103,-0.08140183985233307,-0.006413369905203581,0.10916107147932053,0.05280841886997223,0.0960373803973198,0.004463066812604666,-0.02000516653060913,0.04305416718125343,-0.04035632312297821,0.052902624011039734,-0.008841229602694511,-0.04849774017930031,-0.025148462504148483,-0.056864507496356964,-0.049274198710918427,0.0004517777997534722,0.00511089526116848,0.06487066298723221,-0.06255001574754715,-0.0062371729873120785,0.09475946426391602,-0.09637939929962158,0.050733692944049835,0.04088659957051277,0.03984544053673744,-0.03719235211610794,0.09529773145914078,0.015055547468364239,-0.02923511527478695,-0.0018209550762549043,-0.10824298113584518,0.012738320045173168,0.05859841778874397,0.028624115511775017,0.1230439618229866,-0.07695845514535904,0.0029653676319867373,-0.05149367079138756,0.10284361988306046,0.11543890088796616,0.05530944839119911,-0.00012424537271726876,-0.06062472611665726,-0.08365556597709656,0.013506434857845306,0.0856049656867981,-0.023952051997184753,-0.06937126815319061,0.09683161973953247,0.04347485676407814,-0.028522014617919922,-0.05999051406979561,-0.029005669057369232,0.08695074170827866,-0.020184624940156937,-0.10463980585336685,0.08679390698671341,-0.04385542869567871,0.06191588565707207,-0.05629817396402359,0.03594973683357239,-0.030311167240142822,0.01729028858244419,-0.0038238975685089827,-0.04559168592095375,0.043588101863861084,-0.07512936741113663,-0.0068994383327662945,-0.05406426638364792,-0.013358299620449543,0.0066938805393874645,0.103409044444561,-0.02370782569050789,0.02690412662923336,0.042522232979536057,-0.011446709744632244,-0.030783522874116898,-0.02486998960375786,0.0620562881231308,-0.004524650983512402,0.07260625809431076,0.1199365183711052,0.003081640927121043,0.0597737655043602,0.09881668537855148,0.03178123012185097,0.019995737820863724,0.02500651404261589,0.048786554485559464,-0.11112870275974274,0.02793555147945881,0.018542053177952766,-0.09661946445703506,0.07348629087209702,0.0370173454284668,-0.003345433622598648,-0.0650893896818161,-0.02495281957089901,-0.0602157786488533,0.04142136871814728,-0.015363535843789577,0.0160794910043478,0.0550338476896286,-0.06460358947515488,0.09010066092014313,-0.06587345898151398,0.10462217777967453,-0.07256338745355606,-0.059750284999608994,0.04857005178928375,-0.013726762495934963,-0.028305165469646454,0.0642019659280777,-0.03493982180953026,-0.00198058458045125,-0.01613963395357132,0.0653362050652504,0.04669956862926483,0.04098358750343323,-0.0234234556555748,-0.05827168747782707,0.048683762550354004,0.08778010308742523,-0.020110124722123146,0.022579705342650414,0.050898436456918716,-0.015576675534248352,0.017297683283686638,-0.06266973167657852,0.034838054329156876,-0.03156787157058716,0.09094297140836716,-0.006176632829010487,0.0372043177485466,0.09385143220424652,0.015444436110556126,0.043322429060935974,0.0034414022229611874,-0.01764044724404812,-0.05583156272768974,-0.10607019066810608,0.03604638949036598,0.05992553010582924,0.04342922568321228,-0.054278414696455,0.04726400226354599,-0.05959431454539299,-0.0010578448418527842,0.06112786382436752,0.009921764954924583,0.019791902974247932,0.038213666528463364,0.022677596658468246,0.05937055125832558,-0.050323307514190674,0.03545635938644409,-0.04254583641886711,0.06915190070867538,0.02654452435672283,-0.07447116822004318,-0.0820346474647522,-0.001907113939523697,0.044728174805641174,0.06922058761119843,0.0241650752723217,-0.048118457198143005,-0.014584779739379883,-0.002012329176068306,-0.03711305558681488,-0.05486395210027695,-0.007548140827566385,0.08240412175655365,0.05819769203662872,0.030836915597319603,0.0894201323390007,-0.06507772207260132,0.08109601587057114,-0.05916563794016838,-0.07606632262468338,-0.07843108475208282,0.01045051496475935,-0.03438268601894379,-0.013591457158327103,-0.06036697328090668,-0.013336061500012875,0.08073437213897705,-0.0862421989440918,-0.0983772799372673,0.06612592190504074,0.07185827195644379,-0.04462205991148949,0.08848472684621811,0.010557844303548336,-0.058559712022542953,0.04622218757867813,-0.0028137704357504845,0.020405789837241173,-0.04568486660718918,0.024583477526903152,0.09439221769571304,0.06606090813875198,-0.06029229983687401,-0.002583275316283107,-0.11307816207408905,-0.0015475609106943011,0.12431800365447998,0.07027576863765717,0.10566049814224243,0.11599968373775482,-0.10397998988628387,-0.06598863750696182,0.015279464423656464,-0.0034576228354126215,0.0725412666797638,0.041437551379203796,-0.0700632631778717,-0.09183582663536072,0.031124623492360115,-0.007360109593719244,0.05760790407657623,0.02896205335855484,0.015234459191560745,-0.011909021064639091,-0.03854328393936157,0.036906879395246506,-0.04460099712014198,0.04584411159157753,-0.052212752401828766,0.10971502959728241,-0.08274199813604355,-0.023588620126247406,0.07126310467720032,0.040274862200021744,0.07792623341083527,0.03829291835427284,0.06361638754606247,-0.09103593975305557,0.041017256677150726,-0.056551627814769745,0.01684408262372017,0.08918330818414688,0.05668177083134651,0.0229756198823452,0.07757240533828735,0.07674399018287659,0.05824742838740349,-0.0039009470492601395,0.05977938324213028,-0.010165496729314327,-0.08979185670614243,0.06285663694143295,0.025440094992518425,0.05777101591229439,-0.04267027601599693,-0.01817966066300869,-0.05444328486919403,0.004575319122523069,0.048630841076374054,-0.07427828758955002,0.059671688824892044,0.06149986758828163,0.000044654276280198246,0.0003538929158821702,0.06724061816930771,-0.10771755129098892,-0.030431455001235008,0.07326187938451767,-0.08562479168176651,-0.056907933205366135,0.042115360498428345,0.03284868970513344,0.10102099925279617,-0.024170782417058945,0.12434322386980057,-0.05172428861260414,0.06869027763605118,0.08410657942295074,0.07273892313241959,-0.06255113333463669,-0.046148382127285004,0.07590572535991669,-0.07104077935218811,0.11109043657779694,-0.08302576094865799,0.0835861787199974,-0.012838831171393394,-0.07164140790700912,0.00491253100335598,-0.0595671646296978,-0.052524857223033905,0.028365200385451317,-0.05491238832473755,-0.014704788103699684,0.0330672487616539,0.03205006569623947,0.06802757829427719,-0.0025462182238698006,0.04166135564446449,-0.0467926487326622,-0.016343846917152405,-0.09166239947080612,0.020928766578435898,-0.005375444423407316,0.039252541959285736,-0.06558025628328323,-0.057629626244306564,0.09198801964521408,0.04160723462700844,0.11869949847459793,0.006287967786192894,-0.04775691032409668,-0.05590883269906044,0.08626497536897659,-0.08342882990837097,0.07974434643983841,-0.04449903964996338,0.01118619553744793,0.10094933956861496,0.03310906141996384,-0.03184431046247482,0.0013771759113296866,-0.04131598398089409,0.05060024559497833,-0.03409988433122635,0.010767086409032345,0.08474734425544739,-0.02901962772011757,0.032215867191553116,-0.04531988874077797,-0.05141233652830124,-0.03971228748559952,0.08727048337459564,-0.05130878835916519,0.03550907224416733,-0.01780039817094803,-0.08381903916597366,-0.0050960383377969265,0.034736569970846176,-0.09033781290054321,-0.07534036040306091,-0.0011681814212352037,0.013131214305758476,0.01152800302952528,0.08232182264328003,0.006592809688299894,0.1017550379037857,0.04005793109536171,-0.0327083095908165,-0.0853697657585144,0.031212225556373596,0.0406363420188427,0.013671278953552246,-0.004850929602980614,-0.07060988992452621,0.025560911744832993,0.04492619261145592,-0.004649325739592314,-0.07725031673908234,0.02192172408103943,-0.02133568562567234,-0.016657188534736633,-0.09217390418052673,0.0865139290690422,-0.033034175634384155,-0.0959063470363617,-0.05864356458187103,0.05430664122104645,0.08886976540088654,0.018517902120947838,-0.06985137611627579,-0.0512084923684597,-0.007625644560903311,0.08560973405838013,0.05286058038473129,0.09127814322710037,0.06861484795808792,0.007040166296064854,0.07115203887224197,0.06926804780960083,0.0415651872754097,0.01969096250832081,0.009409397840499878,-0.06506343930959702,0.09913761168718338,-0.011691461317241192,0.09422971308231354,0.12547969818115234,0.027049928903579712,-0.053062837570905685,0.05336786061525345,-0.07910948246717453,-0.08999098092317581,0.05167073383927345,0.05161724239587784,-0.019277820363640785,0.028365004807710648,-0.053839061409235,0.09183838963508606,-0.013485272414982319,-0.03416471555829048,0.07250721752643585,-0.0683697909116745,-0.09354107826948166,-0.008933971635997295,0.05376160889863968,-0.0016788216307759285,-0.01678002066910267,0.005129584111273289,-0.08146347105503082,0.022212207317352295,0.058929622173309326,0.028183601796627045,-0.016095710918307304,-0.019005360081791878,0.02846069075167179,0.041053298860788345,-0.01589038223028183,-0.031736474484205246,0.09361352026462555,0.00285890931263566,0.005934316199272871,0.016448158770799637,-0.074581079185009,0.06444098800420761,-0.021632585674524307,0.008570907637476921,0.02777843177318573,0.021665863692760468,0.04228232055902481,-0.07243990898132324,-0.041044894605875015,0.11570103466510773,-0.00654761865735054,-0.039216458797454834,-0.011217158287763596,0.07378512620925903,0.04349498450756073,0.09981672465801239,0.0338142029941082,0.04830080643296242,-0.027746504172682762,0.086274154484272,-0.03003634326159954,-0.004565476439893246,-0.03434661403298378,-0.011990291066467762,0.02315017208456993,-0.04311775416135788,0.07591867446899414,-0.06159767135977745,0.011397212743759155,0.008453885093331337,-0.04204540327191353,0.020352022722363472,-0.048275239765644073,0.03370705619454384,-0.010540308430790901,-0.03247993811964989,0.11205954849720001,-0.10490310192108154,-0.0030160804744809866,0.08172441273927689,0.006560071837157011,0.10726562887430191,0.020775333046913147,-0.09234479069709778,-0.048681214451789856,0.05625052750110626,-0.06840286403894424,0.04567146673798561,-0.04199468716979027,-0.08501394838094711,-0.0885559692978859,-0.05901362746953964,-0.051759958267211914,-0.03494545444846153,-0.010460909456014633,-0.049309782683849335,-0.0755336657166481,0.07036615163087845,0.07287643849849701,0.04262041673064232,-0.024189230054616928,-0.0842350572347641,0.07522136718034744,0.03040377050638199,0.024586278945207596,-0.011290602385997772,-0.03825763612985611,0.1085718423128128,-0.028947925195097923,0.035446979105472565,0.019713779911398888,0.09515932202339172,-0.00644018454477191,0.09141036123037338,0.0838908925652504,0.11994323879480362,0.04620497673749924,0.1126810684800148,0.03190584108233452,-0.06355606764554977,-0.045924339443445206,0.013422183692455292,-0.08820996433496475,0.013142731040716171,-0.024509824812412262,-0.058142248541116714,0.05967256426811218,-0.0148705979809165,0.05920984596014023,0.07870521396398544,-0.01713540591299534,0.02018939144909382,0.09741851687431335,0.034493159502744675,0.014538220129907131,-0.06940022855997086,0.09284759312868118,0.0020530561450868845,0.05552187189459801,0.09105828404426575,0.11931218206882477,0.033847928047180176,0.06773679703474045,0.01484802458435297,0.10723104327917099,0.011205079965293407,-0.06008070334792137,0.007366141304373741,-0.05987703800201416,0.06496205180883408,0.015200624242424965,-0.0004166080616414547,-0.0410061813890934,-0.03975760191679001,-0.09754258394241333,0.041040483862161636,0.09596406668424606,-0.1295139491558075,0.09383955597877502,0.050601229071617126,0.0793076753616333,-0.0324527844786644,-0.024006342515349388,-0.07429881393909454,-0.00021408009342849255,-0.07666891813278198,-0.011027350090444088,-0.04565086588263512,0.055608294904232025,-0.04714510589838028,-0.015196559950709343,-0.06555844098329544,0.04982290416955948,0.039008598774671555,-0.09234197437763214,0.04812203347682953,0.04288741573691368,-0.02029004506766796,-0.005576946306973696,-0.021214958280324936,-0.07583179324865341,0.06810744106769562,0.08809342980384827,-0.09659252315759659,-0.023732604458928108,-0.02494274638593197,-0.0458696186542511,-0.00500237662345171,-0.11416253447532654,0.0834285318851471,0.07521972805261612,0.08614872395992279,0.036895185708999634,0.03753560036420822,-0.019552044570446014,0.02520878054201603,0.03238285332918167,0.023686470463871956,-0.017314210534095764,-0.09261934459209442,-0.04064568132162094,-0.023572776466608047,0.07098129391670227,-0.1001209020614624,0.10590989142656326,0.04018741101026535,-0.058268822729587555,-0.007706652395427227,0.0631478875875473,-0.04175857454538345,0.07213795930147171,-0.0036464810837060213,0.03742849454283714,-0.07777329534292221,-0.0275762677192688,-0.015832409262657166,-0.08370965719223022,0.05876787006855011,-0.043144457042217255,-0.08393526822328568,0.01737249828875065,-0.00799141451716423,-0.03118770569562912,-0.004926109220832586,-0.027076005935668945,0.01455765776336193,-0.00862191990017891,0.09132508188486099,0.06476683169603348,-0.13066083192825317,0.0039801038801670074,-0.018243320286273956,0.0027666729874908924,-0.06592883914709091,0.10866695642471313,-0.10906299203634262,-0.050129909068346024,0.08543422073125839,-0.09975544363260269,0.037990521639585495,0.12189149856567383,-0.018598278984427452,-0.009911445900797844,0.01247727032750845,0.018598079681396484,-0.11807074397802353,0.008009937591850758,0.04423334822058678,-0.04554814100265503,-0.02747645042836666,0.022906647995114326,0.038604870438575745,-0.0328156016767025,0.010763528756797314,0.06367748230695724,0.07532809674739838,-0.09868668019771576,0.13565421104431152,-0.07714679837226868,-0.05376224219799042,-0.054099906235933304,0.035965412855148315,0.0005664040800184011,0.01554273720830679,0.0006283419788815081,0.05245756357908249,0.07750984281301498,-0.058513492345809937,0.038426365703344345,0.021270770579576492,-0.03464904800057411,0.0744379535317421,0.06981000304222107,0.028088266029953957,-0.03608229383826256,0.007817955687642097,0.032106105238199234,-0.052114441990852356,-0.003004660364240408,-0.08252643793821335,0.07362458109855652,-0.0751216933131218,-0.09443415701389313,-0.026864806190133095,0.036154523491859436,-0.050324466079473495,0.020778488367795944,-0.006995494477450848,0.018859848380088806,0.10091768205165863,0.08908380568027496,0.09954944998025894,0.09288482367992401,0.05889090523123741,-0.02033211849629879,-0.08599625527858734,0.013282476924359798,0.09797506034374237,0.0745982900261879,0.014402219094336033,0.09908697754144669,-0.025497227907180786,0.021315859630703926,-0.021660784259438515,-0.050541605800390244,0.08374781906604767,0.023214632645249367,0.0036133311223238707,-0.08830902725458145,0.009339737705886364,-0.00669396435841918,0.01702539436519146,-0.07955173403024673,0.037945475429296494,-0.04054892063140869,0.09605047851800919,-0.07514319568872452,0.025305941700935364,-0.043654829263687134,-0.03167501091957092,-0.08780445158481598,0.033435627818107605,0.025573275983333588,0.053891271352767944,0.07092314958572388,0.08363822847604752,0.09431549161672592,0.005865984130650759,-0.060590289533138275,-0.049582477658987045,-0.04553520306944847,0.09643523395061493,0.08569103479385376,0.044871848076581955,0.008174240589141846,0.08048029243946075,0.012177416123449802,0.04403451085090637,-0.03079982101917267,0.0723368301987648,-0.0010546270059421659,-0.01329834759235382,0.02805325947701931,-0.07523519545793533,-0.07353052496910095,-0.011275339871644974,0.058715350925922394,0.04901675507426262,-0.03439738228917122,-0.004304880276322365,0.005632943473756313,-0.029650650918483734,-0.008005514740943909,-0.06579016894102097,-0.03156983107328415,0.09420278668403625,-0.0583977997303009,0.06798897683620453,0.026752294972538948,-0.017933495342731476,-0.061486076563596725,-0.03585151582956314,-0.03566377982497215,-0.09270663559436798,-0.017555730417370796,0.02307450771331787,-0.07789082825183868,-0.049776624888181686,0.043896500021219254,0.08889511227607727,-0.08251230418682098,-0.033430151641368866,-0.001307716709561646,-0.0357794426381588,0.033404216170310974,0.11424306780099869,0.06724222004413605,0.07192950695753098,-0.06573416292667389,0.07188558578491211,0.05009254813194275,0.10208746790885925,-0.03352290391921997,0.07469537109136581,-0.11320678144693375,0.06023290380835533,-0.05228002741932869,0.026664000004529953,0.0037067837547510862,0.09290309995412827,-0.023112155497074127,0.06401687860488892,-0.06528958678245544,0.053490955382585526,0.06839580833911896,0.07060012966394424,-0.04515751451253891,0.0005549976485781372,0.0020135194063186646,0.019224101677536964,0.01692957431077957,0.008915812708437443,0.04145808145403862,-0.09545449912548065,-0.10112442821264267,0.004312106408178806,-0.022604405879974365,0.08903005719184875,0.10600334405899048,-0.021712353453040123,-0.09187415987253189,0.06877315044403076,0.05918179452419281,-0.08335675299167633,-0.07144147902727127,-0.10225480794906616,-0.07665364444255829,-0.07728283107280731,-0.053401775658130646,0.06613128632307053,0.022424088791012764,-0.05528301000595093,0.0778450220823288,-0.07052983343601227,-0.022264860570430756,-0.09500597417354584,0.008049195632338524,-0.013040694408118725,0.09797884523868561,0.08285430818796158,0.058699894696474075,0.006717825774103403,0.023642439395189285,-0.03992146626114845,0.07522229105234146,-0.07955941557884216,-0.019037779420614243,-0.037585239857435226,0.05966116487979889,0.038431182503700256,0.059887196868658066,0.0691724419593811,0.04824062064290047,0.07661619037389755,-0.05909702181816101,0.013588436879217625,-0.07753775268793106,0.08318052440881729,-0.041038185358047485,-0.02017230913043022,-0.0578380785882473,0.0029886311385780573,0.059027839452028275,0.09646092355251312,0.09754935652017593,-0.004923235159367323,-0.037131037563085556,-0.02481040358543396,-0.005681975279003382,0.026758724823594093,-0.017241869121789932,0.040161918848752975,0.018266737461090088,0.02846456877887249,-0.020213350653648376,-0.0036754505708813667,0.018316378816962242,0.09843295067548752,-0.02436319924890995,-0.01338552962988615,0.04096689820289612,-0.10050119459629059,-0.02690424583852291,-0.028010763227939606,0.021052323281764984,0.09409097582101822,-0.06827056407928467,-0.10108643770217896,-0.06426344066858292,0.09115315973758698,-0.013708848506212234,-0.05946366488933563,0.07607235759496689,-0.08527036756277084,-0.05391785502433777,-0.031710103154182434,-0.008229595609009266,0.04059407860040665,0.09130299091339111,0.054766587913036346,0.03739551827311516,0.05525048077106476,-0.005247211549431086,-0.04631814360618591,0.018686501309275627,-0.06441029161214828,0.06484472006559372,-0.02828638069331646,-0.04333493113517761,-0.006046251859515905,-0.054979100823402405,0.05209294334053993,0.07806280255317688,-0.03551974520087242,-0.03808733820915222,0.0067489598877727985,0.09562240540981293,0.025417901575565338,-0.003434895072132349,0.04160059615969658,-0.006661608349531889,-0.08826855570077896,0.03488345816731453,-0.007259073201566935,0.0769750103354454,0.008286604657769203,0.0032712712418287992,-0.06575458496809006,-0.008648891001939774,-0.04623664915561676,0.10512013733386993,0.063406802713871,0.07633098214864731,0.10569318383932114,0.08603708446025848,-0.016350287944078445,-0.0697835311293602,0.0034331849310547113,0.06880640983581543,0.051358554512262344,0.07561181485652924,0.04361093044281006,-0.04257321357727051,0.003021499142050743,-0.04371492192149162,-0.028814489021897316,0.12418749183416367,-0.06505715847015381,-0.03518643602728844,0.002795703476294875,0.08821655809879303,-0.0745609849691391,0.021960875019431114,0.08048684895038605,-0.07905449718236923,-0.057593878358602524,0.01449939887970686,0.006794019602239132,0.04876631125807762,-0.0617213174700737,-0.011050071567296982,-0.03257797285914421,-0.09475620836019516,0.013256012462079525,0.055393021553754807,0.0756767988204956,0.09476236999034882,0.10792345553636551,0.09441415965557098,0.004049518145620823,0.03211437165737152,0.12376660108566284,0.09901650249958038,0.046354543417692184,-0.022499922662973404,0.035916365683078766,-0.08566348999738693,0.06240632012486458,-0.05145919695496559,0.06106291338801384,-0.002934403484687209,-0.08052632212638855,0.08910933136940002,0.08601205050945282,0.08738236129283905,0.07935680449008942,-0.005338452756404877,-0.03421797230839729,0.07580891996622086,0.07015366852283478,-0.08156809210777283,0.04253225028514862,0.0004907330730929971,-0.006948256399482489,0.0663791224360466,-0.11000993847846985,-0.04195645824074745,0.0033426806330680847,-0.012055888772010803,-0.058873679488897324,-0.0976051315665245,0.027500305324792862,0.07227778434753418,-0.05107973888516426,0.006459059193730354,0.09712573140859604,0.020166365429759026,0.027369149029254913,0.021664071828126907,0.13644155859947205,0.057342831045389175,-0.04412025213241577,-0.08228658139705658,-0.0355655662715435,0.09391168504953384,-0.023460522294044495,0.054815106093883514,0.0699906274676323,-0.025160575285553932,0.1425677090883255,0.02476872131228447,0.08115924149751663,0.06911715120077133,0.00242122495546937,-0.06636226922273636,0.04231854900717735,-0.009082788601517677,-0.09397254139184952,-0.033153291791677475,0.0660194680094719,-0.04082782194018364,-0.07193819433450699,0.05432521179318428,0.008363189175724983,-0.07532908022403717,-0.08815798908472061,-0.046736378222703934,-0.04360761120915413,-0.06264574080705643,0.07739614695310593,0.06317690014839172,0.025118019431829453,-0.022107494994997978,0.09912137687206268,-0.04679831117391586,-0.06028410792350769,0.10692980140447617,-0.023790286853909492,0.0654473602771759,0.07334517687559128,-0.08101804554462433,-0.08470163494348526,0.031328730285167694,-0.0474817268550396,-0.015772465616464615,-0.0965319499373436,0.013445154763758183,-0.0321073979139328,0.09690466523170471,-0.011284844018518925,0.12420393526554108,0.08277278393507004,0.04286019876599312,-0.07811110466718674,0.03748701512813568,0.09210354834794998,0.01948828250169754,-0.03130609914660454,-0.06642381101846695,-0.003789167618378997,-0.06307177990674973,0.03823138773441315,0.003860878525301814,-0.008612606674432755,-0.09479081630706787,0.005915361922234297,-0.10198667645454407,0.04415110871195793,0.020926116034388542,-0.03604089468717575,0.12553656101226807,0.007106897421181202,-0.0638381689786911,-0.01946711726486683,-0.06676007807254791,-0.01994599588215351,-0.010479975491762161,0.0950305163860321,0.1026647537946701,0.0777372419834137,-0.021729901432991028,0.09037724882364273,0.01510686706751585,-0.010728077962994576,-0.07996629178524017,0.05163232609629631,0.05025339126586914,-0.08239895850419998,0.035803478211164474,-0.004279396031051874,0.002939818659797311,-0.05173847824335098,-0.004129833076149225,-0.000962174846790731,-0.018212558701634407,-0.07260192185640335,0.09034019708633423,-0.0886155515909195,0.0451597198843956,0.11698073893785477,-0.030368734151124954,0.048314232379198074,0.06549111753702164,0.07176472246646881,-0.0680675059556961,0.0787750631570816,-0.05681178718805313,0.07561296224594116,-0.054745059460401535,-0.005254186224192381,0.00918134581297636,-0.11438091099262238,-0.009004851803183556,-0.053065575659275055,-0.07557570934295654,0.06513970345258713,0.09403886646032333,0.08953792601823807,-0.06296958774328232,0.03981659561395645,0.08510397374629974,-0.04165217652916908,-0.054074112325906754,-0.01287811528891325,-0.07900850474834442,-0.025444142520427704,-0.014862801879644394,-0.06002013757824898,0.09496863186359406,-0.006403779145330191,0.08076665550470352,0.08576185256242752,0.046162474900484085,0.0006639736238867044,-0.019928036257624626,-0.062014784663915634,0.07589221000671387,0.07535374164581299,-0.07929334044456482,-0.042536381632089615,0.10427408665418625,-0.10114353150129318,0.09998225420713425,-0.0028936571907252073,0.0011535293888300657,0.0760035514831543,0.05337972566485405,0.16203750669956207,0.05189348757266998,0.05522383749485016,-0.10676246881484985,-0.01899479329586029,0.0025785767938941717,-0.009708359837532043,-0.06499698013067245,0.0710519328713417,-0.07698310911655426,-0.057889875024557114,0.045969609171152115,0.05689927190542221,0.05957578122615814,-0.031922753900289536,0.04539455845952034,0.06514415889978409,0.004283175338059664,0.10004427284002304,-0.06360002607107162,-0.01959623210132122,0.02851625345647335,-0.04276708513498306,0.09341134876012802,0.061933886259794235,0.024769866839051247,0.10970208793878555,0.09682831168174744,-0.040681879967451096,0.055513884872198105,-0.0807877629995346,-0.038001980632543564,-0.006870676763355732,-0.03109554946422577,-0.0032906117849051952,0.0009619688498787582,-0.016474954783916473,-0.04995608329772949,-0.015111745335161686,0.01904076151549816,-0.008051649667322636,-0.04686015471816063,0.052341096103191376,0.11168944835662842,0.010644324123859406,0.05283265933394432,0.03968676179647446,0.0417371466755867,0.010568463243544102,0.006307627540081739,0.0468202568590641,-0.05383935943245888,-0.008026436902582645,0.1142236739397049,-0.06220301240682602,-0.06411270052194595,0.042651232331991196,-0.04791942238807678,-0.06278438866138458,0.007066546939313412,-0.06486615538597107,0.06409288942813873,0.09299085289239883,-0.07880756258964539,0.04748963192105293,0.14640843868255615,0.06887371093034744,-0.024988288059830666,-0.017748890444636345,-0.013350092805922031,0.00014087466115597636,-0.05861325189471245,0.04950759559869766,-0.07239465415477753,-0.06353896111249924,0.06673530489206314,-0.02780693769454956,-0.08521822839975357,-0.08286508172750473,-0.07369338721036911,-0.012647181749343872,-0.04162408038973808,-0.06116858497262001,-0.034138232469558716,0.02925834432244301,0.05427823215723038,0.05745347961783409,-0.05852687358856201,-0.0576205775141716,0.07688970863819122,0.07929761707782745,0.014237890020012856,0.0799216479063034,0.042574767023324966,-0.07949035614728928,0.049952611327171326,-0.0648006871342659,-0.024062026292085648,-0.07004453986883163,-0.06057554483413696,0.012538958340883255,-0.050326816737651825,0.06490141153335571,-0.010942624881863594,-0.04437104985117912,-0.03546922281384468,-0.09426025301218033,-0.01903454400599003,-0.06995144486427307,0.060399748384952545,-0.04995528608560562,0.061718616634607315,-0.06744633615016937,0.08036670088768005,-0.00652829697355628,0.06602973490953445,0.0010318838758394122,0.02412438578903675,0.04224756732583046,0.047608714550733566,-0.09454464912414551,-0.03136926516890526,0.02158203534781933,0.0050287991762161255,0.02137543074786663,0.009107077494263649,0.05350864678621292,-0.0685071051120758,0.07581949234008789,0.0009892305824905634,-0.005858359858393669,0.0005224576452746987,0.05209314450621605,-0.06025158613920212,0.0712035521864891,0.1282525658607483,0.0008298051543533802,-0.05900917574763298,-0.018603090196847916,-0.016200266778469086,-0.025787344202399254,0.027643729001283646,0.07199003547430038,-0.0914188101887703,-0.029015781357884407,-0.010360607877373695,-0.062324490398168564,0.03444288298487663,0.04579455032944679,-0.005959982052445412,0.01318893488496542,0.07411957532167435,-0.010302329435944557,-0.020934294909238815,0.08572287857532501,0.0834454670548439,0.014436422847211361,0.08170683681964874,0.04642901569604874,0.0029068649746477604,0.008912503719329834,0.06661434471607208,-0.021162819117307663,-0.06668275594711304,0.04912833496928215,0.011928508058190346,0.06331852823495865,0.017614372074604034,0.04291132837533951,0.035273004323244095,0.05410122498869896,0.07893427461385727,-0.09250321239233017,-0.05593794211745262,-0.061040639877319336,0.0017684588674455881,0.0958447977900505,-0.013997084461152554,0.002629254711791873,-0.07136230915784836,-0.0716286450624466,-0.06824412941932678,-0.01716173253953457,-0.0384121797978878,0.05489550158381462,-0.0021130747627466917,0.05456087365746498,-0.05098763480782509,-0.10283295810222626,0.044754259288311005,0.0073100496083498,-0.06065405160188675,-0.09931165724992752,0.017435062676668167,0.04091872274875641,0.09856849908828735,0.0419192872941494,-0.02325894497334957,-0.042234599590301514,0.010938550345599651,-0.03246239200234413,-0.05863291025161743,-0.0007392976549454033,-0.031159674748778343,-0.03257419541478157,0.0957503616809845,-0.11104626208543777,-0.08831218630075455,-0.0637933686375618,0.08928673714399338,-0.015906991437077522,0.09831850975751877,0.10662437975406647,0.0035003407392650843,-0.01883324608206749,0.10983637720346451,-0.0054262615740299225,-0.031170211732387543,-0.04143986105918884,0.04854610934853554,-0.050162333995103836,0.09608382731676102,0.00810872670263052,0.044741228222846985,0.07271989434957504,-0.012967834249138832,0.04974417760968208,-0.00693704467266798,-0.06461454927921295,0.06691265106201172,0.034382566809654236,-0.02828027866780758,-0.03464813530445099,-0.0196450836956501,-0.1000475287437439,0.023072106763720512,-0.016255436465144157,-0.01769169233739376,0.07376851886510849,-0.0854894295334816,0.018018949776887894,0.048867810517549515,-0.0824885293841362,0.11819233745336533,-0.04075910151004791,0.020456627011299133,0.08052341639995575,-0.023021161556243896,0.06466081738471985,-0.0364120751619339,0.04494645074009895,0.068666011095047,-0.007544227875769138,0.07871542870998383,0.01133771426975727,-0.01261315867304802,-0.02598225697875023,-0.011226479895412922,-0.034234315156936646,-0.02993560954928398,0.05372932180762291,-0.06605296581983566,-0.028897766023874283,0.0615994818508625,0.07444558292627335,0.05305096134543419,-0.05016365274786949,-0.05369465425610542,0.03429929539561272,0.03273635730147362,0.02147437259554863,-0.04142169654369354,0.0689140036702156,-0.019110828638076782,0.044640716165304184,0.029956668615341187,0.04605471342802048,0.008779531344771385,-0.026020323857665062,0.055793438106775284,-0.04740368202328682,-0.03802259638905525,0.04841736704111099,0.08415136486291885,0.06646405905485153,0.05681547522544861,-0.06732885539531708,-0.07031864672899246,0.016226543113589287,0.08007118105888367,0.011717206798493862,-0.06323332339525223,0.11852437257766724,0.01030554249882698,0.06878374516963959,0.024683240801095963,-0.05467332527041435,0.060248855501413345,0.06587368994951248,0.08946800976991653,0.04641276225447655,-0.07441651076078415,0.07339243590831757,0.01587270013988018,-0.06040214002132416,-0.07362309098243713,0.1097041442990303,-0.0755692794919014,-0.07554037868976593,-0.03133957460522652,-0.08824034035205841,0.05231069028377533,0.08312247693538666,0.1307479590177536,0.07565560936927795,0.026729339733719826,-0.010672629810869694,0.0227569118142128,0.02076713927090168,0.07370618730783463,0.06220654025673866,0.09152732044458389,-0.0956505835056305,0.006919591221958399,-0.007543299812823534,0.04068584367632866,0.055484216660261154,-0.034014295786619186,-0.054026637226343155,0.08911984413862228,0.007226647809147835,-0.02076314203441143,-0.0723240077495575,0.041455525904893875,-0.002346551977097988,0.03266693279147148,-0.1060272753238678,-0.03301741182804108,-0.013907715678215027,0.007082678377628326,-0.07936941832304001,-0.10642008483409882,0.10749232769012451,-0.03242550417780876,0.007918761111795902,-0.10938321053981781,0.0179604422301054,-0.010473298840224743,0.06735801696777344,-0.10436953604221344,0.04714473709464073,-0.040921393781900406,0.0019554244354367256,0.07814612984657288,0.05595864728093147,-0.07672566175460815,-0.09257131814956665,0.072243332862854,0.028245143592357635,-0.0258539617061615,-0.015476284548640251,-0.035552091896533966,0.03369943052530289,-0.05209015682339668,-0.02018069289624691,-0.0003587111132219434,-0.010856368578970432,-0.01541923824697733,-0.05079832673072815,-0.07864553481340408,0.03618822991847992,-0.06518887728452682,0.13206468522548676,-0.03313985466957092,-0.029365481808781624,-0.01881740242242813,0.02168889157474041,0.040312979370355606,-0.003435134422034025,0.021964583545923233,-0.02626575343310833,0.006957956124097109,0.08650973439216614,-0.04818965122103691,-0.020475149154663086,0.07164832204580307,0.10906919836997986,-0.02120312862098217,-0.009978004731237888,0.1003134548664093,-0.0575186163187027,0.097951240837574,-0.04705222323536873,0.066019207239151,0.047520752996206284,0.07699599862098694,-0.015796400606632233,0.08744582533836365,0.07675281167030334,-0.010783013887703419,0.09656795114278793,-0.1156911551952362,-0.0792781189084053,-0.03448667377233505,-0.03228401392698288,-0.0004209275357425213,-0.0251336507499218,-0.024016890674829483,0.02584071457386017,0.07256097346544266,-0.08263100683689117,0.0489719919860363,-0.05276235193014145,0.010707068257033825,0.06785820424556732,0.017063293606042862,0.0819072276353836,0.0844278410077095,0.010032705962657928,-0.06036597490310669,-0.05521786957979202,0.08448972553014755,0.05393237993121147,0.0199641864746809,-0.0586327388882637,0.010652069002389908,-0.0019836747087538242,0.06468480080366135,-0.11387435346841812,-0.031616464257240295,-0.030302921310067177,0.019247226417064667,-0.05533326417207718,0.02296743355691433,0.08439445495605469,-0.13238772749900818,-0.05028224736452103,-0.018664361909031868,0.09472694247961044,-0.03852153196930885,0.08543697744607925,0.06518715620040894,0.07077178359031677,0.06468707323074341,-0.06571286916732788,-0.07539879530668259,-0.04463034123182297,0.008552119135856628,0.05827835202217102,-0.05002637207508087,-0.1069568395614624,-0.019687796011567116,0.0063940719701349735,0.042308371514081955,0.05845058709383011,0.027288373559713364,-0.01937253214418888,0.02877609059214592,-0.05520319566130638,0.004453555680811405,-0.05521196126937866,-0.00980698224157095,0.10312142968177795,0.10020245611667633,0.08264129608869553,0.014557039365172386,-0.029877720400691032,0.09275632351636887,0.06707964092493057,-0.006302007474005222,0.05629399046301842,0.02056269720196724,-0.09426905959844589,-0.07006116211414337,0.06457245349884033,0.12541140615940094,0.06508471816778183,0.0340258814394474,0.08012858033180237,0.05723169445991516,-0.0029138533864170313,0.00148210977204144,0.039754368364810944,0.07640913128852844,0.08449224382638931,0.04839562624692917,-0.029580023139715195,0.04932110756635666,0.0070949275977909565,0.09543117135763168,-0.08442879468202591,-0.06168754771351814,-0.06730799376964569,0.020538637414574623,0.0024454770609736443,-0.013274756260216236,0.025108424946665764,0.08125203847885132,0.03487393260002136,-0.01971977762877941,-0.044638704508543015,-0.06802015751600266,-0.02845700830221176,-0.04499809071421623,0.048547714948654175,-0.04854346066713333,0.0061549777165055275,-0.009376997128129005,0.037180136889219284,0.042369548231363297,0.06722835451364517,0.05759824439883232,-0.008222878910601139,0.004981026519089937,-0.08727744221687317,0.0324631966650486,0.012502472847700119,0.11601406335830688,0.019850537180900574,-0.02703057788312435,-0.008796586655080318,-0.004646883346140385,0.08590532094240189,-0.012312172912061214,0.0070630209520459175,-0.040837377309799194,0.05272597447037697,-0.05081307515501976,-0.09988665580749512,-0.03695390373468399,-0.03063637763261795,-0.11847251653671265,0.042918749153614044,0.04303188621997833,0.027486205101013184,0.06290479749441147,0.02017233893275261,-0.036649733781814575,0.012873885221779346,0.009485991671681404,0.0776524469256401,-0.013346799649298191,-0.0685092955827713,-0.04755615070462227,-0.08538572490215302,0.07025568187236786,-0.050019167363643646,0.10515082627534866,-0.06908527761697769,0.012588117271661758,-0.06258800625801086,0.10480914264917374,-0.05515191704034805,-0.020800769329071045,0.09140047430992126,0.013128554448485374,0.08760929107666016,0.008572286926209927,0.03184884786605835,-0.04880158603191376,0.03132849559187889,0.03565487638115883,0.04965519905090332,-0.05555944889783859,0.0004774300323333591,-0.06952439248561859,-0.07952537387609482,0.04631577432155609,0.028077783063054085,0.056027524173259735,0.05833495780825615,0.025346525013446808,-0.09552808851003647,0.06620439141988754,-0.07801372557878494,-0.06572617590427399,0.008894920349121094,0.04278503730893135,0.004506620578467846,-0.012895770370960236,-0.07137266546487808,-0.01576392538845539,0.12040048837661743,0.04125044122338295,0.07149755209684372,-0.02735760807991028,-0.027984619140625,0.08756079524755478,-0.03883444517850876,0.03734026476740837,-0.04014579579234123,0.03439028933644295,0.04747067764401436,0.06297429651021957,0.05898429453372955,0.05234289914369583,-0.08364184945821762,0.027357136830687523,0.029815025627613068,0.08489663898944855,-0.0714336410164833,-0.05843709036707878,0.01151589397341013,-0.029455197975039482,0.031429655849933624,-0.04729556664824486,-0.09823980927467346,0.11126452684402466,0.02554190717637539,-0.06771708279848099,-0.042554937303066254,-0.02727091684937477,0.025373321026563644,0.02428749017417431,0.11953849345445633,0.062129270285367966,-0.001908216974698007,0.07146156579256058,0.021374523639678955,0.05218066647648811,0.053533945232629776,0.08272785693407059,-0.0036909859627485275,-0.07261426746845245,-0.051171183586120605,0.08411256223917007,0.0675334557890892,-0.1197480782866478,0.06080322340130806,-0.0675986260175705,0.016181213781237602,-0.05488397553563118,0.06072197109460831,0.0048036896623671055,0.07215803116559982,0.07119297981262207,-0.008534043096005917,0.032842569053173065,0.07506042718887329,0.028808247298002243,0.00521389115601778,0.10792411118745804,0.07376597076654434,0.07773631066083908,0.07375399023294449,0.06351231783628464,-0.07139629870653152,0.11161293089389801,0.07820193469524384,0.045519255101680756,-0.06075766310095787,-0.0615905299782753,-0.08121192455291748,0.007941678166389465,0.04729272425174713,-0.09386350214481354,-0.029719451442360878,-0.01717834174633026,0.02078409679234028,-0.062180571258068085,0.04615941643714905,-0.10690850019454956,0.06924925744533539,0.07678043842315674,-0.07714230567216873,0.0935719683766365,-0.001676832907833159,0.057111434638500214,-0.019387461245059967,0.030128473415970802,-0.003213395131751895,-0.027645885944366455,-0.08204399049282074,0.038933031260967255,0.09320279955863953,0.04472817853093147,0.019434379413723946,0.11233018338680267,-0.07493122667074203,0.12253932654857635,0.00663970410823822,0.07814828306436539,-0.04713613912463188,-0.018210062757134438,0.02798946388065815,0.02737586572766304,0.07737604528665543,-0.01402854174375534,-0.034877169877290726,-0.07246176898479462,0.06150771677494049,-0.05375843122601509,-0.05254953354597092,-0.06902915984392166,-0.0307728610932827,0.056541118770837784,0.025656161829829216,-0.029919223859906197,-0.013793589547276497,0.06833908706903458,-0.05875224992632866,-0.04719442129135132,0.005761675536632538,0.0423637293279171,0.055768564343452454,0.03894825279712677,0.03533364087343216,-0.06896918267011642,0.08294688910245895,-0.04693971946835518,0.02565118484199047,0.042978495359420776,0.10568541288375854,-0.04929006099700928,0.08087816834449768,-0.08321750909090042,0.01830906607210636,0.04477505758404732,-0.025961076840758324,0.012044969946146011,-0.06679896265268326,-0.10524822026491165,0.03624764457345009,-0.03823717683553696,-0.042088884860277176,-0.08801071345806122,0.09768877178430557,-0.07464870065450668,-0.11037890613079071,-0.03466169536113739,0.05707179754972458,-0.03519056737422943,0.012373060919344425,-0.0038301984313875437,-0.02838674746453762,-0.03222527727484703,-0.06894777715206146,0.08558851480484009,0.06405562907457352,-0.03506596013903618,-0.02220960147678852,0.06552496552467346,0.03340883180499077,0.0397045724093914,0.09228827804327011,0.03020244650542736,-0.0944286584854126,0.0023102671839296818,0.08480870723724365,-0.07227319478988647,-0.06738056242465973,-0.09535243362188339,-0.002407139865681529,0.08635027706623077,-0.02615826390683651,0.009102871641516685,-0.008129676803946495,-0.0744989737868309,-0.0569860078394413,0.09636436402797699,-0.05098782107234001,0.04571766033768654,0.07807031273841858,0.08965247124433517,0.05334959179162979,-0.05929543823003769,-0.05252499505877495,-0.05028234422206879,0.09947987645864487,0.0945490375161171,-0.10152757167816162,-0.08381649851799011,0.09733772277832031,0.04415693134069443,0.003258449025452137,0.007060201372951269,0.028403816744685173,0.011283811181783676,0.014036815613508224,-0.041733503341674805,-0.06430070102214813,0.05781414732336998,0.04932417720556259,-0.06150556355714798,0.025580106303095818,0.02249111980199814,0.06060974672436714,-0.09368856996297836,-0.011183398775756359,-0.06085420399904251,-0.03602030873298645,-0.023816140368580818,0.015090321190655231,-0.07325708121061325,-0.07077660411596298,-0.019744889810681343,-0.05610561743378639,0.07227504253387451,0.04887089133262634,0.039766497910022736,0.0012887067859992385,0.09958773106336594,0.004646004643291235,0.0765550509095192,0.060487017035484314,-0.04632527008652687,0.10715553164482117,-0.0388253778219223,0.021605921909213066,-0.017070641741156578,0.019954998046159744,0.09729627519845963,0.009641965851187706,0.012340927496552467,0.05553239583969116,-0.011133977212011814,-0.021588902920484543,-0.04989307373762131,0.007045351434499025,0.030320007354021072,-0.04617210850119591,0.037622254341840744,0.05150305852293968,-0.06411071866750717,0.07363815605640411,-0.056394852697849274,0.09044481813907623,0.08820752799510956,-0.02069736458361149,0.06148712709546089,-0.0201883502304554,-0.10618466138839722,0.01842406578361988,-0.03527649864554405,-0.06526144593954086,0.017354145646095276,0.07550720125436783,0.09674041718244553,0.030032699927687645,0.09118823707103729,0.06392984837293625,0.014714640565216541,-0.09567651152610779,-0.06877034157514572,0.04396473988890648,0.04771634563803673,0.01322008017450571,0.02957095019519329,0.0712764784693718,-0.0493217371404171,0.06762814521789551,0.06872602552175522,0.09852100908756256,-0.06594627350568771,-0.03022422268986702,0.09477139264345169,0.020868927240371704,-0.02591966651380062,-0.04538298770785332,0.08174622803926468,0.024772685021162033,0.05353260412812233,-0.04927786439657211,0.08596264570951462,0.016979647800326347,0.01716000586748123,0.026533089578151703,-0.10461093485355377,0.024995384737849236,0.008670903742313385,-0.06500070542097092,-0.0502435564994812,0.01983613893389702,0.07441988587379456,-0.05068270489573479,-0.013494668528437614,-0.014623514376580715,0.07435398548841476,0.014743488281965256,0.045985493808984756,-0.051842644810676575,0.06968068331480026,0.014652805402874947,-0.03361508995294571,0.07909037917852402,0.014725621789693832,0.0060609434731304646,-0.10697013884782791,-0.11162392795085907,0.06590079516172409,0.07736939191818237,0.03356868773698807,-0.03939029946923256,-0.027852922677993774,-0.02120360918343067,0.0077219498343765736,0.08026949316263199,0.03980758413672447,-0.09843981266021729,0.03512737154960632,-0.004306265152990818,-0.00962052308022976,0.013177073560655117,-0.017432954162359238,0.09134973585605621,-0.08002255111932755,0.013382994569838047,-0.04837796464562416,0.10983775556087494,0.08942200243473053,0.06264860183000565,-0.081844262778759,-0.10143492370843887,-0.04619843140244484,-0.0383748896420002,0.08252949267625809,0.022078987210989,-0.0816975012421608,-0.010171797126531601,0.09261271357536316,-0.10210709273815155,-0.07962694764137268,0.11770157516002655,0.11320096999406815,-0.03359248861670494,-0.020823774859309196,-0.105666883289814,-0.03526388481259346,-0.044988002628088,-0.049350034445524216,-0.050484780222177505,0.10147732496261597,0.07499903440475464,0.011767726391553879,-0.07292333990335464,0.04688132926821709,0.07743953168392181,0.07076111435890198,0.09185639023780823,0.03780261054635048,-0.12105704098939896,0.04024805501103401,0.05491764098405838,0.01798933558166027,0.028907323256134987,-0.10464722663164139,0.08675370365381241,-0.006414372008293867,0.04170975834131241,0.04437980800867081,-0.0659530758857727,0.11349891871213913,0.034058719873428345,-0.014517692849040031,-0.034831952303647995,-0.0178975872695446,0.07296973466873169,-0.060290418565273285,0.09835277497768402,0.051114775240421295,0.004332620184868574,0.09535468369722366,0.043789420276880264,0.0008820813382044435,0.10972710698843002,-0.04125965014100075,-0.016251983121037483,-0.02266203984618187,-0.0024305095430463552,-0.08711448311805725,-0.08668310195207596,0.06573968380689621,0.07846185564994812,0.04303618147969246,0.0742916688323021,-0.02432509884238243,-0.038403306156396866,-0.009766124188899994,-0.08838677406311035,-0.08997257053852081,-0.04741109907627106,0.055599480867385864,0.08893273025751114,0.004407562781125307,0.0836477130651474,-0.09175622463226318,-0.09671919792890549,0.053122371435165405,-0.029983902350068092,-0.009223251603543758,-0.08861444890499115,0.04309263080358505,-0.03248917683959007,-0.06645186245441437,0.03317038342356682,-0.09215546399354935,0.11087381094694138,0.09546593576669693,0.06887584179639816,0.07011958956718445,0.12974144518375397,-0.04156027361750603,-0.0670529454946518,0.10161470621824265,0.03530155122280121,0.0523536279797554,-0.04856494069099426,-0.09759841114282608,0.06226813793182373,0.08940057456493378,0.007640994619578123,0.06345099955797195,0.07070372253656387,-0.03801094740629196,0.018416540697216988,0.10369943082332611,0.033334147185087204,0.04837935417890549,0.026018697768449783,0.016053926199674606,-0.0864032581448555,0.06730616092681885,-0.006061640568077564,0.05492958799004555,0.04756711795926094,0.08050889521837234,-0.08342280238866806,-0.023355728015303612,-0.01802949421107769,-0.04363439232110977,0.09069279581308365,-0.062267325818538666,0.09753141552209854,-0.015552667900919914,0.07827720791101456,-0.03449813276529312,-0.05757088214159012,-0.050368014723062515,0.0032654411625117064,0.039360418915748596,-0.046746738255023956,-0.021471308544278145,-0.005438170395791531,0.058606479316949844,0.08186814188957214,0.05569005757570267,0.023782609030604362,0.13361743092536926,0.0295152198523283,-0.043754152953624725,-0.11380297690629959,0.01369588915258646,0.02988002635538578,-0.03226272389292717,0.02371728979051113,-0.08344441652297974,-0.08040114492177963,-0.05281906947493553,0.020754637196660042,0.0744650736451149,0.12415700405836105,0.026328960433602333,0.018034694716334343,0.027811352163553238,-0.06105422228574753,-0.03987128287553787,-0.04451647400856018,-0.06969898194074631,0.02674069069325924,0.03286522626876831,0.03626434877514839,-0.006926246918737888,-0.05648040026426315,-0.028003202751278877,-0.06409191340208054,0.07023684680461884,0.06858412176370621,0.13774080574512482,-0.039080165326595306,-0.023804081603884697,-0.03336932882666588,0.03284904360771179,-0.0923617035150528,0.043492794036865234,-0.06643283367156982,0.04319336637854576,-0.08563219010829926,0.0009144399082288146,-0.007412150502204895,0.08075208961963654,0.0746932178735733,-0.09410969167947769,-0.07356368005275726,-0.013112845830619335,0.000648771645501256,0.02445543371140957,0.09968447685241699,0.06826601922512054,-0.09830982983112335,0.09120039641857147,-0.037713512778282166,-0.0010212374618276954,0.07084932923316956,-0.02847057767212391,0.028812112286686897,-0.09778190404176712,0.053775060921907425,0.07274158298969269,0.1217646524310112,0.06684469431638718,-0.023111604154109955,-0.03870939835906029,0.0760551169514656,-0.0069994754157960415,-0.005127443466335535,-0.03533368930220604,-0.032577838748693466,0.08710295706987381,0.07766389101743698,0.11565976589918137,-0.05843246728181839,0.035957418382167816,0.001986925257369876,-0.05493875592947006,-0.02885887585580349,0.008463036268949509,-0.06868001073598862,-0.05266035720705986,0.11805588752031326,0.05151788145303726,0.004239801783114672,-0.008987423032522202,-0.035624075680971146,-0.07702258974313736,-0.0942973718047142,-0.033147722482681274,-0.03621526435017586,0.08752188831567764,-0.08847375214099884,-0.019909905269742012,-0.042348168790340424,-0.009533842094242573,0.05412226542830467,0.1245843693614006,-0.008132650516927242,-0.07252274453639984,-0.06255053728818893,0.1069682389497757,0.02264772728085518,0.007762807887047529,0.0373370423913002,-0.0395716056227684,0.04083991050720215,0.028174545615911484,0.08241601288318634,-0.07187055796384811,-0.08700745552778244,0.07904686778783798,0.012491609901189804,0.11149287223815918,-0.005687052384018898,-0.10270488262176514,0.07783059030771255,-0.06554719805717468,-0.04374255985021591,-0.005885097663849592,-0.03538821265101433,-0.011499039828777313,0.06849035620689392,0.11143265664577484,-0.07562952488660812,0.08130022138357162,0.054416775703430176,0.06477990001440048,0.05774884298443794,-0.04416703060269356,-0.03536897152662277,-0.04185234382748604,0.048316895961761475,0.015739429742097855,0.07636819779872894,-0.08028588443994522,-0.09327243268489838,0.0862119197845459,0.06552185863256454,0.04077586904168129,-0.03147410973906517,-0.028857925906777382,0.013570073060691357,-0.007561064325273037,0.016418373212218285,0.08743017166852951,0.09920322149991989,0.04940689355134964,-0.04665311053395271,-0.025266723707318306,-0.02719184011220932,0.06952907145023346,-0.10402645170688629,-0.1013607606291771,0.04895011708140373,-0.06466252356767654,0.03749114274978638,-0.061593033373355865,0.08424357324838638,0.007303628139197826,0.08325698971748352,-0.06118093803524971,-0.017290709540247917,0.0675116702914238,-0.07280443608760834,0.013618228025734425,0.05141185224056244,-0.0023306445218622684,0.08754432201385498,0.05811897665262222,-0.08283405005931854,0.02432735450565815,0.05436324328184128,0.098142609000206,0.0054996320977807045,-0.041090015321969986,0.10338662564754486,0.13345307111740112,0.09297162294387817,-0.05261573940515518,-0.06742002069950104,0.1062617152929306,-0.079177126288414,0.07811160385608673,0.05996835231781006,-0.10280361026525497,-0.0655151903629303,-0.0060252416878938675,0.07127176970243454,-0.0620284229516983,0.01771164871752262,0.05740055441856384,0.015574152581393719,0.046425722539424896,0.02871515043079853,0.046584323048591614,0.022184107452630997,0.0891307145357132,-0.006515715271234512,-0.017993668094277382,0.07443606108427048,0.039965588599443436,-0.058059580624103546,0.05277081951498985,-0.05558043718338013,-0.05835876241326332,0.013320202007889748,-0.04646213725209236,-0.050611067563295364,0.10127560794353485,0.009795455262064934,0.06010060012340546,-0.024517059326171875,0.04068490117788315,0.033030375838279724,0.08689834922552109,0.062108173966407776,-0.009311310015618801,-0.059683091938495636,0.03477146476507187,-0.004443326499313116,-0.007304410915821791,-0.05031302571296692,0.035114578902721405,0.05282491818070412,0.10107778012752533,0.05689067021012306,0.04334089532494545,0.08433609455823898,-0.05233486369252205,-0.046416476368904114,-0.09961269795894623,-0.0217732023447752,0.08131442219018936,-0.08099693059921265,0.005113559775054455,0.06847675889730453,-0.06391226500272751,0.0607505664229393,0.004317914135754108,-0.04114925116300583,0.12296892702579498,0.08442599326372147,0.0037066033110022545,0.05160527303814888,0.04354194551706314,0.0406830832362175,-0.02511746995151043,0.10878709703683853,-0.04351428896188736,0.05025693029165268,-0.05728806182742119,-0.09591131657361984,0.10104910284280777,-0.05640563741326332,0.02690732665359974,-0.07032722979784012,-0.07309815287590027,-0.006372381467372179,0.07887209206819534,0.07123784720897675,0.020995300263166428,0.015177336521446705,-0.0807521864771843,-0.0009121402981691062,-0.034437377005815506,-0.00954104121774435,-0.02827504090964794,0.03374704718589783,0.013205263763666153,0.08940831571817398,-0.04273609071969986,0.004070613067597151,0.12743842601776123,-0.05155561864376068,-0.030722791329026222,-0.03738588094711304,0.01893194392323494,0.07174616307020187,-0.1350647509098053,-0.008024780079722404,0.032835401594638824,-0.008361201733350754,-0.06000721454620361,0.0956362932920456,-0.051872771233320236,0.047579627484083176,-0.0496169775724411,0.03141212835907936,0.005359429866075516,-0.03589982911944389,-0.06158711016178131,-0.0027717910706996918,-0.05445989593863487,-0.007674724794924259,-0.0029370265547186136,-0.04500936344265938,0.0677703395485878,0.024539930745959282,-0.06573235243558884,-0.005548417568206787,-0.03948766365647316,0.1102757453918457,0.0778595432639122,-0.07937277853488922,-0.0013371699023991823,0.10625063627958298,0.05847936123609543,0.021728256717324257,0.04845172539353371,-0.006759421434253454,-0.0658763200044632,-0.04239701107144356,-0.021785104647278786,0.04715462774038315,0.01198335736989975,0.018768513575196266,0.004000441636890173,0.07354661077260971,0.05228765681385994,0.07758959382772446,0.01430587749928236,0.07142884284257889,-0.002667567227035761,0.06798605620861053,0.0698302835226059,0.07706690579652786,0.04904555901885033,0.044325921684503555,-0.007470480632036924,0.04688849300146103,0.004350095055997372,-0.00598313519731164,0.05146690458059311,0.0006899244035594165,-0.044531095772981644,0.03551594540476799,0.09874770790338516,0.08805279433727264,0.02721203863620758,0.029941445216536522,0.09683095663785934,-0.04878152534365654,-0.021505936980247498,0.034780681133270264,-0.012449594214558601,0.014455215074121952,-0.00840362161397934,0.07125098258256912,0.044395241886377335,0.054827623069286346,0.028106264770030975,-0.043597105890512466,0.03320017829537392,-0.0777602270245552,-0.06711573153734207,-0.07057761400938034,0.09229757636785507,0.040592800825834274,-0.02120480127632618,-0.06896243989467621,-0.03008045069873333,-0.012924466282129288,-0.008473197929561138,-0.09168988466262817,0.01472645066678524,-0.028452793136239052,0.005318241659551859,-0.0019444244680926204,0.08706893771886826,0.08620661497116089,-0.04469427838921547,-0.01579337567090988,0.0345623642206192,-0.0412779226899147,-0.03234946355223656,0.009237495250999928,-0.018007513135671616,0.06421618908643723,-0.09292472153902054,-0.010116257704794407,0.04272361099720001,-0.10520409047603607,-0.016207057982683182,0.09588485211133957,0.06560724973678589,0.057272449135780334,0.016271281987428665,0.08660302311182022,0.0002605297486297786,0.016890162602066994,0.0585373230278492,0.04670180752873421,0.08271481096744537,0.08116327226161957,-0.018425121903419495,0.10486410558223724,0.06646334379911423,0.058549463748931885,-0.0667586550116539,0.11106140911579132,0.008952641859650612,-0.022093916311860085,0.03443717584013939,-0.03226972743868828,-0.06648869812488556,0.032131318002939224,0.08979202061891556,-0.04284917563199997,-0.05104184150695801,-0.09533310681581497,0.004552468191832304,-0.025821145623922348,0.02518472820520401,-0.0011876201024278998,-0.047352418303489685,-0.04304855316877365,-0.028283316642045975,0.023632559925317764,-0.04135080799460411,-0.01282796636223793,0.0004982740501873195,-0.024494608864188194,-0.03085692599415779,-0.03204432874917984,0.020706215873360634,0.006707731634378433,0.015937266871333122,0.00964386761188507,-0.006329867523163557,-0.00834212638437748,-0.05351947993040085,0.13275784254074097,-0.017941651865839958,0.01192640420049429,0.04955190420150757,0.09431091696023941,-0.024511713534593582,-0.033112891018390656,0.06024518236517906,0.03784993663430214,-0.09031888842582703,0.09433013200759888,0.0033756436314433813,0.048441413789987564,0.09224815666675568,-0.0364597886800766,-0.06658568978309631,-0.058375634253025055,0.06614163517951965,0.09097994863986969,-0.0390438437461853,-0.08728530257940292,0.12075626850128174,-0.08489716798067093,0.06632988899946213,-0.005039541982114315,-0.06568832695484161,-0.040669381618499756,-0.0008915085345506668,-0.007822911255061626,-0.019467733800411224,-0.0008550643688067794,0.08417798578739166,0.08815973997116089,0.038617029786109924,-0.010215485468506813,-0.0409824401140213,0.09917760640382767,0.05364073067903519,0.014056793414056301,0.09965036064386368,-0.08407314866781235,-0.012722657062113285,0.05226656794548035,-0.06424863636493683,-0.05938669294118881,0.05517720431089401,-0.0060964967124164104,-0.07914413511753082,0.1243458017706871,-0.08150214701890945,0.0460733026266098,0.07898509502410889,0.09505900740623474,0.060549214482307434,0.049060091376304626,0.019504912197589874,-0.02252676524221897,-0.04048055782914162,-0.015836171805858612,0.029822781682014465,0.043292086571455,-0.087836854159832,-0.0038673921953886747,0.01699376106262207,-0.03476643189787865,0.015163342468440533,-0.008819196373224258,-0.06650569289922714,0.030515871942043304,0.030879611149430275,0.05228181928396225,0.011760322377085686,0.013908112421631813,-0.0033064873423427343,0.05982693284749985,0.12085176259279251,0.026390034705400467,-0.052073027938604355,0.029811231419444084,-0.07149921357631683,-0.03364160284399986,-0.07458104193210602,-0.08078914880752563,0.05027209222316742,-0.058854106813669205,0.029703745618462563,-0.05737483501434326,-0.030284328386187553,-0.025115882977843285,-0.07818422466516495,-0.06182476133108139,-0.03867683932185173,-0.015818050131201744,-0.07537886500358582,0.06811941415071487,0.08787316828966141,-0.05511288344860077,0.07711533457040787,0.06917359679937363,-0.04542839527130127,0.08990024775266647,0.13206778466701508,0.07029561698436737,-0.013924629427492619,0.023719152435660362,0.02113823965191841,0.04148339480161667,0.04083402454853058,-0.010210605338215828,-0.0659165233373642,0.050745267421007156,0.0666726753115654,-0.10281813889741898,0.06672588735818863,-0.07416451722383499,-0.04965999349951744,-0.0714508444070816,0.021324852481484413,-0.03934748098254204,-0.0021000164560973644,-0.040209151804447174,0.08011677861213684,0.013965963385999203,0.1273387223482132,0.1310023069381714,0.07792962342500687,-0.015828445553779602,0.06534376740455627,-0.07667609304189682,0.09973721951246262,0.061992887407541275,-0.09771762043237686,0.007223262917250395,-0.05013047158718109,0.006864232011139393,-0.06402101367712021,0.05554140731692314,0.0620465911924839,0.1013525053858757,0.08563511073589325,0.002344827400520444,-0.04515125975012779,0.055996350944042206,-0.06139148399233818,-0.002501604612916708,0.040278270840644836,-0.017188560217618942,0.08485034108161926,-0.041599273681640625,0.10855661332607269,0.09068772941827774,0.11857755482196808,0.0793251171708107,-0.07575587183237076,-0.009113218635320663,0.10359952598810196,0.07154141366481781,-0.01944221369922161,0.045937590301036835,0.08189188688993454,-0.001757254940457642,-0.04883895069360733,0.10574396699666977,-0.04955289140343666,0.0049036112613976,-0.012632046826183796,0.07438250631093979,-0.03534087911248207,0.09397764503955841,-0.02825881913304329,-0.06682567298412323,-0.04526786506175995,0.008598034270107746,-0.048827338963747025,0.012679814361035824,0.047976333647966385,0.04055778309702873,0.0685885027050972,0.07181446254253387,0.06067322567105293,-0.0013316191034391522,-0.055676959455013275,0.09076119214296341,0.014508944004774094,-0.018809529021382332,0.023960310965776443,-0.00875795353204012,-0.035167016088962555,0.04555957391858101,0.013531273230910301,0.019313592463731766,0.07407008856534958,0.04466966539621353,0.03184309974312782,-0.01810801401734352,-0.049908291548490524,0.03617669641971588,0.06623613089323044,0.0025256662629544735,-0.08008146286010742,0.03789334371685982,-0.11432880163192749,0.08121368288993835,-0.022442039102315903,0.03776030242443085,0.030711617320775986,-0.0711849182844162,-0.0628640204668045,0.010531964711844921,0.06389078497886658,0.09535223245620728,0.09055596590042114,0.0016844561323523521,-0.02449781447649002,-0.052847087383270264,-0.06043344363570213,0.04664928466081619,0.05180096626281738,-0.03701437637209892,-0.02793341688811779,0.01446943636983633,-0.08968247473239899,-0.08976837992668152,-0.012062211520969868,0.07625111192464828,0.008747018873691559,0.013349094428122044,0.013867267407476902,-0.026636021211743355,0.034978289157152176,0.03927738592028618,-0.07716105878353119,0.014200628735125065,0.07121048867702484,-0.07971906661987305,-0.03922578692436218,0.046382833272218704,-0.09010684490203857,0.05135262757539749,0.0379318930208683,-0.045129794627428055,-0.05996629595756531,0.0002145860344171524,0.04017622768878937,0.05278082937002182,-0.06193934381008148,0.038021642714738846,-0.06251207739114761,-0.039575476199388504,-0.008915313519537449,-0.013040044344961643,0.04359396919608116,0.07220786064863205,-0.06010511517524719,0.11377786099910736,-0.019709110260009766,0.06294114887714386,0.05489922687411308,0.04668297991156578,0.029887987300753593,0.023160036653280258,-0.06321299076080322,0.06425654888153076,-0.07110119611024857,0.07518141716718674,-0.10101083666086197,-0.0910019502043724,0.05262504145503044,0.034213099628686905,-0.01284523494541645,-0.05467843636870384,0.056845489889383316,0.06489118933677673,-0.07182259857654572,-0.08591882884502411,0.052668776363134384,0.00863554049283266,0.08535667508840561,-0.00528826704248786,-0.07032205164432526,0.07734878361225128,0.07253637164831161,-0.03992987796664238,0.11990530043840408,0.06791218370199203,0.07731005549430847,0.032462429255247116,0.10310128331184387,-0.060842204838991165,0.05465850606560707,0.04509628191590309,0.0713779628276825,-0.047434236854314804,0.03634190186858177,0.047289155423641205,0.06523822993040085,-0.10219541192054749,0.07020336389541626,-0.06825785338878632,-0.043797459453344345,0.06379382312297821,-0.1124502420425415,-0.042284004390239716,-0.05684380605816841,-0.017206495627760887,-0.10497096925973892,-0.024879682809114456,0.059661976993083954,0.012174045667052269,0.06848093122243881,0.036567363888025284,-0.05019386112689972,0.01186860166490078,0.012541716918349266,-0.024624235928058624,0.029536044225096703,-0.022485487163066864,0.014694219455122948,0.06886819005012512,0.04078990966081619,0.10867433995008469,-0.058630939573049545,-0.005393613129854202,-0.06006573885679245,0.08352451026439667,0.003195713274180889,0.07379677891731262,0.11407385766506195,0.09300408512353897,0.03958015888929367,-0.03650389984250069,0.02990124374628067,-0.0783645287156105,0.04194250702857971,-0.06798557192087173,-0.017297036945819855,-0.004015991929918528,0.04710061848163605,-0.09172561019659042,-0.020668592303991318,0.004102922044694424,0.11955574154853821,-0.06947409361600876,0.01844649203121662,-0.018945520743727684,0.04478507861495018,-0.07328388839960098,0.03224143013358116,0.043178293853998184,0.018149472773075104,0.00011667205399135128,0.0863347202539444,0.0082210348919034,-0.013575879856944084,0.06116292253136635,0.0557614304125309,0.015904873609542847,-0.02831977792084217,0.08859080076217651,-0.049650683999061584,-0.07723257690668106,0.027965489774942398,-0.09670495241880417,-0.05975159630179405,0.11347947269678116,0.05824152007699013,0.02055346965789795,-0.06014100834727287,0.09290572255849838,-0.09350689500570297,-0.0340183824300766,-0.09528166800737381,-0.09695667773485184,-0.045912619680166245,0.08047552406787872,-0.02013373374938965,0.025058383122086525,-0.05642678961157799,0.0664779394865036,0.0656730905175209,-0.010284967720508575,-0.05414767935872078,0.03985099866986275,0.04996000602841377,-0.023688415065407753,0.09969665855169296,0.03871539607644081,-0.0906389132142067,0.08484157174825668,0.026997167617082596,-0.00765444478020072,-0.005607634782791138,0.014803486876189709,0.02970341220498085,-0.07840097695589066,0.00912159401923418,0.01050645299255848,0.046961329877376556,-0.05133165419101715,0.05625816807150841,0.07071517407894135,-0.03457038104534149,0.07258329540491104,-0.041817959398031235,-0.07845215499401093,0.010190174914896488,-0.039044108241796494,-0.06309044361114502,-0.08185145258903503,-0.06093842536211014,-0.010231509804725647,0.03030303120613098,-0.03006172552704811,-0.04442821815609932,0.060476839542388916,-0.0330190435051918,-0.03588436171412468,0.060585230588912964,0.009541260078549385,0.07911109179258347,-0.06495505571365356,0.044805336743593216,-0.08391503989696503,0.05875607952475548,-0.0763823390007019,0.0723150372505188,0.06050590053200722,0.08864590525627136,-0.062124770134687424,-0.08316085487604141,-0.05922381207346916,-0.02605343610048294,-0.02470126375555992,-0.04767947643995285,-0.1193273663520813,0.03591291978955269,-0.056757062673568726,-0.04024815931916237,-0.08410374075174332,0.09460203349590302,-0.06550031900405884,0.00002749357372522354,0.012126248329877853,-0.04782462865114212,0.0022133977618068457,-0.0799127072095871,0.06336001306772232,-0.03873884305357933,-0.006689227186143398,0.06428927183151245,0.021435262635350227,-0.05232149735093117,-0.06898631900548935,-0.05209929123520851,0.0011885070707648993,0.1276869922876358,0.09924416244029999,0.03983992338180542,-0.057108186185359955,0.020569682121276855,-0.014307089149951935,0.004241191782057285,-0.050597235560417175,-0.10990750044584274,0.0029780541080981493,-0.035942986607551575,-0.06058014929294586,0.10323048382997513,0.02097387984395027,0.07150126248598099,0.0744573324918747,0.06299931555986404,0.019819892942905426,0.018579859286546707,0.08182059973478317,-0.07186076045036316,-0.0704156681895256,0.01327862124890089,0.04120928421616554,0.007057497277855873,0.1099788248538971,0.05454608052968979,0.0271266158670187,-0.05733071640133858,-0.06017257273197174,0.06060222536325455,0.08378561586141586,0.022045107558369637,-0.054954644292593,0.053944181650877,-0.07906579226255417,