{"runId":23,"createdAt":"2026-07-18T20:09:49.399Z","modelFamily":"mlp_v1","hiddenLayers":[128,64],"inputSize":300,"outputSize":59,"outputNumbers":[1,2,3,4,5,6,7,8,9,10,11,12,13,14,15,16,17,18,19,20,21,22,23,24,25,26,27,28,29,30,31,32,33,34,35,36,37,38,39,40,41,42,43,44,45,46,47,48,49,50,51,52,53,54,55,56,57,58,59],"weights":[{"name":"dense_Dense8134/kernel","shape":[300,128],"values":[-0.00006368257163558155,-0.030662870034575462,0.018868673592805862,0.11471264809370041,0.04989834502339363,-0.12123779952526093,-0.09695374220609665,0.0371309332549572,0.0007771141245029867,-0.04289892315864563,0.04236463084816933,0.04728471860289574,-0.07208606600761414,0.0768442377448082,0.10644565522670746,-0.0627896785736084,-0.0001455984456697479,-0.039435796439647675,0.06468123942613602,0.019873403012752533,-0.12582649290561676,0.05898407846689224,-0.11190354079008102,-0.060821764171123505,-0.0725259929895401,-0.033649783581495285,0.001114526530727744,-0.012327795848250389,-0.05795201659202576,-0.058499328792095184,0.02714557759463787,-0.11520002782344818,0.12152239680290222,0.035023562610149384,-0.10930342227220535,-0.06554918736219406,-0.07513607293367386,-0.020344702526926994,-0.054425109177827835,-0.07348576933145523,0.0014027199940755963,-0.08288276940584183,0.0006390971830114722,0.010698608122766018,-0.054589878767728806,0.03918763995170593,-0.01303853839635849,0.05335946008563042,-0.0418781042098999,-0.04918941855430603,0.07001933455467224,-0.09367276728153229,-0.030568746849894524,0.1327894628047943,0.005144570022821426,-0.03597173094749451,-0.03531978651881218,0.003885019803419709,-0.016410687938332558,0.02091970108449459,-0.05534003674983978,0.0868416577577591,-0.06470566987991333,0.08420978486537933,-0.004766194149851799,-0.01535708736628294,0.03531475365161896,-0.16903133690357208,-0.08088097721338272,-0.14252278208732605,-0.012506942264735699,-0.07968125492334366,0.03195567801594734,0.0628696084022522,0.038116808980703354,0.003485055873170495,-0.11929028481245041,0.0708669051527977,-0.015607868321239948,-0.06820880621671677,-0.031235378235578537,-0.005334275308996439,-0.04200064390897751,-0.0599859394133091,-0.02947116270661354,0.027645070105791092,-0.06830340623855591,-0.07831321656703949,-0.06390195339918137,-0.03624182567000389,-0.11704763770103455,-0.06950946152210236,-0.04658592492341995,-0.07756944745779037,0.046537529677152634,0.012141226790845394,-0.0786530077457428,0.0821661427617073,0.018931077793240547,-0.030720392242074013,-0.10281141847372055,0.13543641567230225,-0.05862587317824364,-0.09297782927751541,0.023518431931734085,0.14809684455394745,-0.08870330452919006,-0.02096765674650669,-0.09715703874826431,0.08003560453653336,0.018786456435918808,0.06796472519636154,0.025751017034053802,-0.0009331682231277227,0.03137749806046486,-0.03301747143268585,0.03193862736225128,0.0003235800832044333,0.08689051866531372,-0.05187719315290451,-0.14552366733551025,-0.06184159964323044,-0.05114802345633507,-0.01766686514019966,0.05299052596092224,-0.007158494554460049,-0.08603426814079285,-0.009691359475255013,-0.09042249619960785,-0.05040692910552025,0.04313570633530617,0.07360750436782837,-0.10634665936231613,-0.04397079348564148,0.07090728729963303,0.01762060448527336,0.042774274945259094,-0.005937042646110058,-0.017812108621001244,-0.032413288950920105,0.043175823986530304,0.01778634451329708,-0.0005770630086772144,-0.05293260142207146,0.007782108150422573,-0.0459662489593029,0.022334735840559006,0.059453438967466354,0.03087237849831581,0.04115888848900795,0.0307477880269289,-0.025365909561514854,0.05231187120079994,0.061716724187135696,-0.05577804148197174,-0.13237214088439941,0.05636421963572502,-0.0764131173491478,-0.06972526758909225,-0.0010062734363600612,-0.11430457979440689,0.061495017260313034,-0.00038633064832538366,0.00046204423415474594,0.047837913036346436,0.012465310283005238,-0.09905577450990677,0.02033180184662342,0.024854760617017746,0.052763473242521286,0.07801022380590439,0.04353383556008339,-0.010552472434937954,-0.02001660130918026,-0.0487910695374012,0.057509396225214005,-0.022891413420438766,0.00806781928986311,0.08992690593004227,-0.14387379586696625,-0.11794881522655487,-0.06608079373836517,-0.05947275459766388,0.11167930066585541,-0.02197009138762951,-0.022211851552128792,-0.01274396013468504,0.019047776237130165,-0.032786305993795395,-0.13287609815597534,-0.020704757422208786,0.08825068175792694,0.04446391016244888,0.12939919531345367,-0.10194960981607437,-0.07507998496294022,0.07105088979005814,-0.002018790226429701,-0.08970394730567932,-0.05130017176270485,0.05481266602873802,0.0371345654129982,0.020830130204558372,0.09774076193571091,-0.04110294580459595,0.10157044231891632,-0.0025462808553129435,0.07182038575410843,0.03463843837380409,0.10508490353822708,0.028614453971385956,-0.07262443006038666,-0.002690470078960061,-0.08004169911146164,-0.05057393014431,0.009564145468175411,-0.009174020029604435,-0.08390161395072937,-0.07305112481117249,-0.038577910512685776,0.019565533846616745,0.029231829568743706,0.0008238092996180058,-0.11954880505800247,-0.058392006903886795,0.011520938947796822,0.019527113065123558,-0.10911186784505844,-0.01476967427879572,-0.043082695454359055,-0.11724571883678436,-0.046412572264671326,0.0706554651260376,0.11101683229207993,-0.08508747816085815,0.06192230433225632,-0.08826515078544617,0.003519622841849923,-0.11163220554590225,0.027526387944817543,-0.02358907274901867,0.0017100028926506639,-0.04244491457939148,-0.020846867933869362,-0.03927609324455261,0.034637514501810074,0.019953645765781403,0.05021391808986664,-0.019758138805627823,-0.06271030753850937,-0.029497778043150902,-0.1201014295220375,-0.12973470985889435,0.09704405069351196,-0.027161987498402596,-0.0059819212183356285,0.04713759198784828,0.027418632060289383,-0.10130614787340164,0.04721032828092575,-0.15408220887184143,0.0026759470347315073,0.06610067188739777,-0.008220587857067585,0.0025825409684330225,-0.0695454552769661,-0.07214351743459702,0.06161630153656006,0.06919629126787186,0.04230537265539169,-0.02283862791955471,0.0264517143368721,0.0783875435590744,-0.02291601151227951,0.00047467771219089627,0.018224896863102913,0.07334155589342117,-0.06263213604688644,-0.13454431295394897,-0.0996120423078537,-0.0676628053188324,0.01622227020561695,-0.012752371840178967,0.038495272397994995,-0.06594139337539673,0.026740169152617455,-0.04283387213945389,0.07529539614915848,-0.006858297158032656,-0.06928007304668427,-0.016751904040575027,-0.04939959943294525,-0.07807842642068863,0.0893533006310463,0.010554283857345581,0.022851748391985893,0.0032201234716922045,0.03026335872709751,-0.02078498899936676,0.035965144634246826,-0.092417873442173,0.06613451987504959,-0.021703096106648445,-0.06793933361768723,-0.014595363289117813,0.059304945170879364,0.0019472441636025906,0.02628294564783573,0.029993562027812004,-0.038056641817092896,0.04614894837141037,-0.033231016248464584,-0.012136384844779968,-0.02501687780022621,0.010254796594381332,-0.10743682831525803,-0.011357932351529598,0.041894543915987015,-0.09414374828338623,-0.02884693443775177,-0.012810107320547104,0.047425951808691025,-0.10525038838386536,-0.07788198441267014,-0.09824252128601074,-0.03241594508290291,-0.007762199267745018,-0.014687798917293549,0.022465037181973457,0.004957482684403658,0.05837538465857506,-0.06454040855169296,-0.047609832137823105,0.04358166456222534,0.050919171422719955,-0.08086123317480087,-0.02956007793545723,-0.025795988738536835,0.0075823403894901276,-0.03184090927243233,0.01921173371374607,0.000797622837126255,0.04690862074494362,0.029580125585198402,0.10524799674749374,-0.1162402555346489,-0.026199569925665855,-0.05929829925298691,-0.1055925041437149,-0.04056408628821373,-0.07068212330341339,0.015736248344182968,0.04535530507564545,-0.07465546578168869,0.0644175112247467,0.015921883285045624,-0.009513165801763535,-0.0497526153922081,-0.08442578464746475,0.014823639765381813,0.019467022269964218,-0.03596436604857445,-0.09082023054361343,0.016540061682462692,-0.054229337722063065,-0.06198522448539734,0.060255151242017746,0.11543366312980652,0.03658679872751236,-0.03225721791386604,-0.13481713831424713,-0.010635582730174065,-0.09712216258049011,-0.031242255121469498,-0.06822214275598526,-0.10413499921560287,0.08475017547607422,0.048401352018117905,0.017800137400627136,-0.047600556164979935,-0.0060293180868029594,-0.0048866658471524715,-0.008237319998443127,0.016110528260469437,0.022210029885172844,0.015945617109537125,-0.015722891315817833,0.023577531799674034,0.013076409697532654,0.053278446197509766,0.15172454714775085,-0.079922616481781,0.0038358746096491814,0.029408849775791168,0.020304309204220772,0.07038956135511398,0.03953323885798454,0.003937217872589827,0.09810734540224075,-0.014193597249686718,-0.005697384476661682,0.0203444492071867,0.11341647803783417,-0.08264173567295074,-0.14271587133407593,-0.009987953118979931,-0.049361515790224075,-0.043678849935531616,0.0025230415631085634,0.0711711123585701,-0.011320352554321289,0.06524395942687988,-0.029682310298085213,-0.032562050968408585,0.11475086212158203,0.007533147465437651,-0.0031624003313481808,-0.05710398778319359,-0.10671214014291763,-0.014986272901296616,-0.06969952583312988,-0.060122206807136536,-0.026022283360362053,-0.09087859839200974,-0.09028560668230057,-0.01712319627404213,-0.05610423907637596,0.0670352354645729,0.018144067376852036,-0.1336667537689209,-0.0030065348837524652,0.13358467817306519,-0.032612524926662445,0.03859420865774155,-0.02179845981299877,-0.06917290389537811,0.04591980576515198,-0.12849602103233337,-0.010127837769687176,-0.015149657614529133,0.06339613348245621,0.013591498136520386,0.06567759066820145,-0.04956888407468796,0.11037828028202057,-0.06592395156621933,-0.020279163494706154,-0.0023225913755595684,-0.05988377332687378,0.05309658870100975,-0.047331392765045166,0.09114107489585876,-0.061447665095329285,0.050000324845314026,-0.013240944594144821,0.03663833439350128,0.04602262005209923,-0.04640340059995651,-0.07461769133806229,-0.047770820558071136,0.0063452585600316525,-0.05996685475111008,0.061963655054569244,-0.0055050719529390335,0.03957022726535797,-0.04907485470175743,-0.11223084479570389,0.011513592675328255,-0.08524758368730545,-0.051419246941804886,-0.10061922669410706,-0.016282903030514717,-0.09653177857398987,-0.03203894570469856,0.056328773498535156,0.062052153050899506,-0.06563283503055573,-0.09813793003559113,0.028200749307870865,-0.09280691295862198,-0.04682914912700653,-0.1345493048429489,-0.02649880386888981,-0.08791991323232651,-0.06753388047218323,-0.04034534469246864,-0.027875661849975586,0.0657421201467514,-0.011849750764667988,-0.09763021022081375,-0.059993352741003036,0.03839458152651787,0.09294892102479935,-0.09228810667991638,-0.03435242548584938,0.0647711232304573,0.00250690127722919,-0.047111451625823975,-0.06807062774896622,0.05140836536884308,-0.10758981108665466,-0.05764590948820114,-0.09344272315502167,0.050889551639556885,0.10072903335094452,-0.015255499631166458,-0.08095629513263702,0.05715686082839966,-0.03609662875533104,-0.04897480085492134,0.03657805174589157,-0.0573437362909317,-0.06963250786066055,0.10454675555229187,-0.06741993874311447,-0.05449524149298668,-0.06340339779853821,-0.0358322449028492,0.014029989950358868,-0.11519509553909302,-0.009079053066670895,-0.032055459916591644,-0.007502601481974125,0.017459966242313385,0.08450139313936234,-0.026729384437203407,-0.012470289133489132,-0.07244948297739029,-0.016196804121136665,0.0933489054441452,0.10136744379997253,-0.02304285205900669,-0.017581623047590256,-0.02736470103263855,-0.022834191098809242,-0.012657387182116508,0.07830213010311127,-0.017553385347127914,-0.022739075124263763,-0.024430720135569572,0.0689503476023674,-0.015817617997527122,-0.03652867302298546,0.10963050276041031,-0.003465689718723297,-0.052415311336517334,0.06791291385889053,-0.03631431609392166,-0.04900335147976875,-0.029141778126358986,-0.019826367497444153,0.003937404602766037,-0.0023155175149440765,-0.03092753142118454,-0.026022814214229584,0.034236468374729156,-0.029250888153910637,0.019247040152549744,0.05854864791035652,0.0523822158575058,-0.0993993878364563,-0.06496686488389969,-0.05669247731566429,-0.10799814015626907,-0.04391505569219589,0.014907716773450375,-0.0430450402200222,-0.06014745682477951,-0.06880637258291245,0.05313429236412048,-0.08488782495260239,0.07445084303617477,-0.07932905852794647,-0.08009199053049088,-0.018200865015387535,-0.046656664460897446,0.013134670443832874,0.012851093895733356,0.06042459234595299,-0.006839676294475794,-0.036110080778598785,0.08289994299411774,-0.003635779954493046,-0.11700271815061569,0.019823456183075905,-0.02538446895778179,0.0612281896173954,0.0430007167160511,-0.007764413487166166,-0.022701676934957504,0.020624300464987755,-0.008022100664675236,-0.03733047470450401,-0.033614132553339005,0.008869011886417866,0.01630306988954544,-0.01591509021818638,-0.08938910812139511,-0.015791000798344612,0.043932367116212845,0.15968386828899384,0.04520980268716812,0.10271473228931427,-0.035754576325416565,0.023117173463106155,0.02490222081542015,0.10310922563076019,0.008884082548320293,-0.021229617297649384,-0.06888823211193085,-0.009348518215119839,0.0656592845916748,0.019494468346238136,0.09148430079221725,-0.018685853108763695,-0.11077119410037994,0.0291514303535223,0.056394655257463455,-0.07301843911409378,0.062445640563964844,0.04051469638943672,-0.0010792459361255169,0.06668218225240707,-0.09965268522500992,0.03442045673727989,0.03368444740772247,0.10546242445707321,-0.06537426263093948,0.10911177098751068,-0.0331672728061676,0.11636776477098465,0.052613649517297745,-0.033386413007974625,-0.007829650305211544,-0.05772106721997261,0.010200947523117065,-0.026562340557575226,0.08177376538515091,-0.0019001381006091833,-0.035140715539455414,0.00017780532652977854,-0.07367698103189468,-0.031113535165786743,0.10914172977209091,-0.03481433913111687,0.08854102343320847,0.02789110504090786,-0.017909392714500427,0.036111701279878616,-0.07730694860219955,0.021580832079052925,-0.05411529168486595,-0.04479547590017319,-0.02798827737569809,0.0026262018363922834,0.003868213389068842,-0.014225388877093792,0.06906304508447647,-0.04785589128732681,0.002022142056375742,-0.004170512314885855,0.10715082287788391,-0.058547891676425934,0.08480845391750336,0.052204057574272156,0.07219834625720978,0.0585421547293663,-0.030428018420934677,0.04274837672710419,-0.015757089480757713,0.05406579375267029,-0.06642009317874908,0.031686700880527496,0.04270039498806,0.048495735973119736,0.11998149752616882,-0.13654564321041107,-0.05710015818476677,-0.14109037816524506,0.067530058324337,0.08340692520141602,-0.040318235754966736,-0.0897572785615921,0.025043128058314323,-0.030033571645617485,0.11215466260910034,0.04251085966825485,0.04114263132214546,0.025497250258922577,-0.007635521236807108,0.03852406144142151,0.015695909038186073,-0.0390559658408165,0.07818125933408737,0.003402688540518284,-0.06639622896909714,0.004103970248252153,-0.020574288442730904,0.054818153381347656,-0.03389554098248482,-0.011858321726322174,-0.0015027854824438691,-0.04069823399186134,0.014389160089194775,0.006789000704884529,-0.09541428089141846,-0.09268549084663391,-0.06542609632015228,0.0007815773133188486,0.0813421905040741,0.004850570112466812,-0.018539847806096077,0.06534635275602341,-0.028798813000321388,-0.00014359552005771548,-0.07356718927621841,0.09618250280618668,0.014800366014242172,-0.1123354434967041,-0.06473783403635025,0.06224825978279114,0.0011446779826655984,-0.036168936640024185,0.021286526694893837,-0.011686594225466251,0.02162160538136959,0.06687487661838531,-0.1226859837770462,-0.03742782771587372,0.031809449195861816,0.006403628271073103,0.06661193817853928,0.046475622802972794,-0.005869858432561159,0.019038140773773193,-0.026659248396754265,-0.05554589629173279,0.09322647005319595,0.049702852964401245,-0.08548641204833984,0.013074534945189953,0.0715959444642067,0.05775747448205948,-0.019317850470542908,0.11917335540056229,0.015296105295419693,-0.05774882435798645,0.12191281467676163,0.04205448925495148,0.022711025550961494,-0.07761505991220474,-0.016874104738235474,-0.0062132528983056545,0.048937369138002396,0.08732883632183075,0.00913224183022976,0.03108491189777851,0.013455883599817753,0.03327444940805435,-0.11493780463933945,0.05704246833920479,-0.08942888677120209,-0.09064747393131256,-0.041322946548461914,-0.055718839168548584,0.08797964453697205,0.040281616151332855,0.06552910059690475,0.0068831429816782475,-0.011334254406392574,-0.03078223019838333,0.0007415293366648257,-0.03391985967755318,-0.01948721706867218,0.12198974192142487,-0.03857351839542389,-0.07079571485519409,-0.05164103955030441,-0.060088861733675,0.05905167758464813,-0.04081450402736664,-0.043289341032505035,0.04433446004986763,0.15851131081581116,-0.028329527005553246,-0.07864677160978317,0.021016336977481842,-0.05377054959535599,-0.05145682394504547,0.06115012615919113,-0.03444703295826912,0.07866683602333069,0.10494983941316605,0.024748526513576508,-0.01789369061589241,-0.019041789695620537,-0.035463038831949234,0.09118200093507767,-0.11859185993671417,0.016895482316613197,0.05959007889032364,-0.03016786463558674,0.07112162560224533,0.11479929089546204,0.09326459467411041,-0.12912429869174957,-0.12007472664117813,0.0294383205473423,-0.014345312491059303,0.09716474264860153,-0.023130416870117188,-0.12168033421039581,0.103029265999794,-0.01956806890666485,0.18847724795341492,-0.007309642620384693,-0.009718107059597969,-0.011099724099040031,-0.024621115997433662,-0.006761795375496149,-0.016473107039928436,0.13435959815979004,-0.03996729105710983,-0.004376695025712252,0.002632684074342251,0.00044241323485039175,0.022992201149463654,-0.04011872783303261,0.1204436644911766,-0.09014842659235,0.06226621940732002,0.0658763200044632,0.07826567441225052,0.10174629837274551,0.07939136028289795,0.09874545782804489,-0.09006504714488983,0.0008779956842772663,-0.09508690237998962,0.017603520303964615,-0.0831189826130867,0.052213236689567566,0.050919752568006516,-0.03659610450267792,-0.12946075201034546,-0.016216251999139786,-0.05217558890581131,-0.07019241899251938,-0.08919845521450043,-0.011967914178967476,-0.02006828784942627,0.050369612872600555,-0.011329097673296928,0.032889362424612045,-0.035533905029296875,-0.04806821793317795,-0.08699508011341095,-0.07013597339391708,-0.06408391147851944,-0.051331907510757446,-0.0411062054336071,-0.020012574270367622,-0.23192842304706573,-0.08803560584783554,0.05011193826794624,-0.03974560275673866,-0.09778410196304321,-0.11644940823316574,0.051535025238990784,-0.11527163535356522,-0.09251102060079575,-0.01527902577072382,0.032807350158691406,-0.0910017117857933,-0.1405743956565857,-0.0020445077680051327,-0.06226804852485657,0.10958465933799744,0.09968030452728271,-0.003771010786294937,-0.04464013874530792,-0.12837393581867218,0.08290913701057434,0.10374225676059723,-0.0024041703436523676,-0.06786507368087769,-0.0413353256881237,0.011451901867985725,-0.0014520594850182533,0.017307788133621216,-0.14061397314071655,0.036765895783901215,0.07409878075122833,-0.17334888875484467,0.042705439031124115,-0.021925458684563637,0.06450636684894562,-0.025873646140098572,-0.010731571353971958,0.10810529440641403,-0.10933148860931396,0.05439569056034088,-0.06166303902864456,-0.005187493283301592,-0.020006213337183,0.07362911105155945,-0.03960510715842247,-0.002313415752723813,0.014618690125644207,0.006653113290667534,-0.002827748190611601,-0.02166673168540001,-0.09571650624275208,-0.08871962130069733,0.014443881809711456,-0.04172470048069954,-0.003789343871176243,-0.03472866490483284,-0.07150102406740189,0.028365187346935272,0.005972354207187891,0.03458075597882271,0.06414207071065903,0.004721052013337612,-0.02345597930252552,0.027753910049796104,-0.1263827383518219,0.033604178577661514,-0.007027050480246544,0.05037173256278038,-0.07733739912509918,-0.04707859456539154,0.05451085790991783,0.005085484124720097,0.07276708632707596,0.06127198785543442,0.042976848781108856,-0.10618302971124649,0.028688693419098854,-0.11306492239236832,-0.06259866058826447,0.011846338398754597,0.0158512145280838,0.017439454793930054,-0.006866576615720987,-0.04078024998307228,0.03152141347527504,-0.04653869941830635,0.11047618091106415,0.04514877498149872,0.013770808465778828,0.004335897974669933,-0.08345397561788559,0.006129758898168802,0.04742341488599777,-0.036362674087285995,0.04683730751276016,0.05643459036946297,-0.0093825813382864,0.07501055300235748,0.11515169590711594,-0.11712157726287842,0.008509636856615543,0.11600092053413391,-0.04465772211551666,0.0035419927444308996,0.08919168263673782,-0.04121686518192291,0.01135723665356636,-0.07724034786224365,-0.029642952606081963,0.023949751630425453,-0.10619483888149261,-0.02049913816154003,-0.038801297545433044,-0.04178648814558983,0.053513430058956146,-0.021150128915905952,-0.029196131974458694,-0.04840708523988724,0.0038548633456230164,-0.031016288325190544,0.040575966238975525,-0.0032739408779889345,0.050957128405570984,-0.13098405301570892,-0.08684559166431427,-0.09751319885253906,-0.00503176636993885,0.0006873675738461316,-0.11679983884096146,0.0029349555261433125,-0.10294131189584732,0.05721921846270561,-0.0184854157269001,0.02016117051243782,0.02388177067041397,0.06695863604545593,0.07273922860622406,-0.03533434495329857,0.03428621590137482,-0.0600895956158638,-0.053665436804294586,-0.0423235222697258,-0.12352225929498672,-0.08864636719226837,0.03153902664780617,0.043622296303510666,-0.012289777398109436,0.031629230827093124,-0.10138099640607834,-0.07257349044084549,0.0050332071259617805,-0.12216641008853912,-0.044224198907613754,-0.034948959946632385,0.042231231927871704,-0.04254990816116333,-0.0450136736035347,0.07223577052354813,0.018442338332533836,0.06423436850309372,0.06733909249305725,0.09894193708896637,0.02980484813451767,-0.051142480224370956,-0.016809819266200066,0.0829736515879631,-0.09103454649448395,-0.10054180771112442,0.006140007637441158,0.006057082209736109,-0.02181766927242279,0.05591366067528725,-0.0110305892303586,-0.023545200005173683,-0.11092547327280045,0.04850850626826286,-0.04892655834555626,0.14990656077861786,-0.06669427454471588,-0.1422831416130066,-0.07455254346132278,-0.13231031596660614,0.011925684288144112,-0.15774214267730713,-0.10065007209777832,-0.024466728791594505,-0.029491761699318886,0.07743791490793228,0.0754835307598114,-0.022092653438448906,-0.0809587836265564,-0.005556184332817793,0.007065445184707642,0.11263921856880188,-0.06599172204732895,0.11924522370100021,-0.09620403498411179,-0.013163572177290916,0.03999677672982216,-0.009744991548359394,0.11930020153522491,-0.0296150054782629,0.11302240937948227,-0.02846711315214634,-0.01800329051911831,0.06586688756942749,-0.09083718806505203,0.06501492112874985,0.1259741485118866,-0.07160010933876038,-0.05611160770058632,0.0038434690795838833,-0.024141347035765648,-0.031294021755456924,-0.0506957545876503,0.03084391914308071,-0.0753619521856308,0.08118093013763428,0.06308010220527649,-0.05971305072307587,-0.0764889195561409,-0.05656738579273224,0.053362034261226654,0.03373047336935997,0.010242518968880177,-0.012080186046659946,-0.05645221099257469,0.03760845214128494,-0.04268107935786247,0.10471789538860321,-0.06006206199526787,-0.015710914507508278,0.021138174459338188,0.08268860727548599,0.005040070973336697,-0.030248071998357773,0.0011720292968675494,-0.003594739595428109,-0.03492202237248421,-0.030042802914977074,-0.03332294896245003,0.007517847698181868,0.017821507528424263,0.03738454356789589,0.08714515715837479,0.004078229423612356,-0.09917040914297104,0.07203894108533859,-0.014484419487416744,-0.01957082934677601,-0.03156254440546036,-0.06045118719339371,-0.016895676031708717,0.04687890037894249,-0.024516215547919273,-0.0574096255004406,-0.07678128778934479,0.08444695174694061,-0.07024703174829483,-0.008799036964774132,-0.016921091824769974,-0.01699220947921276,-0.037623681128025055,0.04049026221036911,0.0011561238206923008,-0.04617324098944664,-0.05235316604375839,0.024595022201538086,-0.023869842290878296,-0.07809365540742874,0.0670565515756607,0.031085560098290443,-0.004798043053597212,-0.1218813806772232,-0.02677902951836586,-0.08091595768928528,0.05440891161561012,0.09777822345495224,0.08942332863807678,-0.06679139286279678,-0.05975013226270676,0.11575131863355637,-0.050562307238578796,-0.09554658085107803,0.041368503123521805,-0.06537259370088577,-0.028731342405080795,0.04675918444991112,-0.018419642001390457,-0.03766865283250809,0.0007360256277024746,0.02622620388865471,-0.03546950966119766,0.016728846356272697,-0.07142598181962967,-0.11705298721790314,0.08083358407020569,-0.025900952517986298,-0.08964861929416656,-0.03151633217930794,-0.03480076044797897,-0.009087266400456429,-0.0629265233874321,0.05809587240219116,0.004030195996165276,0.05116742104291916,0.055649880319833755,-0.027241792529821396,-0.0333402119576931,0.014970908872783184,-0.034196823835372925,0.03479158505797386,-0.007316663395613432,0.013185074552893639,0.03680506721138954,0.030220752581954002,0.05863741412758827,0.015691256150603294,-0.0016266698949038982,-0.08720853924751282,0.036299388855695724,0.05659516528248787,-0.005435957107692957,-0.07971159368753433,0.009069331921637058,0.016717148944735527,-0.07469439506530762,-0.09812529385089874,-0.026888109743595123,-0.037737250328063965,0.010515473783016205,0.046742137521505356,0.09397706389427185,-0.12277369946241379,0.0891936719417572,0.06265264749526978,-0.008383305743336678,0.05550029128789902,0.019574187695980072,-0.0360632985830307,0.0772860199213028,-0.03835340589284897,-0.03260890394449234,0.07716374099254608,0.00885849166661501,-0.02472275123000145,0.02293061465024948,-0.04857775568962097,0.11544371396303177,0.03794721141457558,0.03747345134615898,0.041350580751895905,-0.0880255401134491,0.027529411017894745,-0.014295289292931557,0.10920389741659164,0.012091318145394325,-0.042565327137708664,-0.05387783423066139,0.0240838211029768,-0.01706358976662159,0.11265303939580917,-0.06183324009180069,-0.03516377881169319,0.009104317985475063,-0.021154360845685005,0.028517289087176323,-0.04881410673260689,-0.02272810973227024,-0.03927462175488472,0.002898991806432605,-0.006497674155980349,0.10402604192495346,0.010130591690540314,-0.018376871943473816,-0.011937063187360764,-0.08510331809520721,0.019652539864182472,-0.08188167959451675,0.016049394384026527,-0.08805923908948898,-0.06098609417676926,-0.06303458660840988,-0.03514638915657997,-0.08015505969524384,-0.012817594222724438,-0.06604992598295212,0.026644183322787285,-0.04316405579447746,0.0017742736963555217,-0.040881767868995667,-0.06798027455806732,-0.055499766021966934,-0.07552731037139893,-0.0061644576489925385,0.01899172179400921,-0.11187898367643356,-0.046894606202840805,0.008211462758481503,0.06561928242444992,-0.04516800120472908,-0.06495595723390579,-0.016915278509259224,0.09693579375743866,-0.026032473891973495,-0.01715805009007454,0.11077221482992172,-0.026668166741728783,-0.050593290477991104,-0.0376390777528286,0.09084954112768173,-0.09277288615703583,-0.08902209997177124,-0.06127840280532837,-0.013791602104902267,0.0011810739524662495,0.06967481970787048,-0.07702953368425369,-0.11529258638620377,0.046077828854322433,-0.09909098595380783,-0.09219251573085785,-0.015833348035812378,-0.011674146167933941,-0.02650923654437065,0.029054980725049973,0.06670550256967545,-0.11044655740261078,-0.14424192905426025,-0.09338726848363876,-0.03350812569260597,0.00015843217261135578,0.027692928910255432,0.07905355095863342,-0.008541295304894447,-0.015720894560217857,-0.038699544966220856,-0.03984483703970909,0.05272408202290535,0.01736183650791645,-0.02079329639673233,0.01283174753189087,0.056961774826049805,0.04257604479789734,0.012079641222953796,-0.011218598112463951,-0.011766633950173855,-0.13411355018615723,-0.03260800242424011,-0.0572289377450943,0.08381247520446777,-0.03530110418796539,0.07883583009243011,-0.027574876323342323,-0.0027173866983503103,-0.0339774414896965,0.055712342262268066,0.03140924125909805,-0.1418212205171585,0.12597529590129852,-0.03949758782982826,0.04465973377227783,0.08514933288097382,0.1324300616979599,0.07686340063810349,0.07925895601511002,0.01559995673596859,0.041636545211076736,0.037545811384916306,-0.019355986267328262,-0.10646013170480728,0.06600578129291534,0.00970553234219551,0.08091466128826141,0.054103851318359375,0.014482787810266018,0.028209572657942772,-0.005863094236701727,-0.08556371927261353,-0.0010032742284238338,-0.00948858167976141,-0.04630342125892639,-0.015439102426171303,0.04132068529725075,-0.14184683561325073,-0.07836233824491501,0.04287427291274071,-0.031212612986564636,-0.060826972126960754,0.024894360452890396,0.007656670641154051,0.08860529214143753,-0.06019856780767441,0.020284462720155716,-0.10628572851419449,0.03877691924571991,-0.052647363394498825,-0.10271921753883362,-0.039782896637916565,-0.039392221719026566,0.11823390424251556,-0.009768584743142128,0.010585167445242405,-0.07084119319915771,0.03654485568404198,-0.07430072873830795,0.03221837431192398,-0.008450285531580448,-0.057483941316604614,0.0031498039606958628,0.012954484671354294,0.0021573135163635015,-0.033169981092214584,-0.09950833767652512,-0.08767107129096985,-0.01218837033957243,-0.01107811275869608,0.04861479997634888,0.05682980269193649,-0.033351652324199677,0.03760853409767151,0.04370889440178871,0.04270511120557785,0.10243601351976395,0.040895260870456696,0.017245950177311897,0.11839232593774796,-0.02941061742603779,-0.1209896057844162,-0.006332384888082743,-0.11893290281295776,0.013672559522092342,-0.051014479249715805,-0.012698083184659481,-0.021542862057685852,0.015185742639005184,-0.042182084172964096,0.06220981851220131,0.029207680374383926,0.1126699298620224,0.08448691666126251,0.04462699592113495,0.05903616547584534,-0.010322971269488335,-0.04568762704730034,0.047232359647750854,0.04337475448846817,0.0006542238406836987,-0.0643511414527893,-0.03706685081124306,0.08710874617099762,0.018066952005028725,-0.03987531363964081,-0.11252237856388092,-0.06920460611581802,-0.06662468612194061,-0.1268707662820816,-0.09983036667108536,-0.024361977353692055,-0.0714176595211029,0.1138419434428215,0.0018540065502747893,0.01133771799504757,-0.05220147222280502,-0.025330768898129463,0.08835047483444214,-0.000162557334988378,-0.07815361022949219,0.09020061790943146,-0.0851588025689125,0.037016406655311584,0.00730530172586441,-0.12023863941431046,0.11520358175039291,-0.06264087557792664,-0.002598381834104657,-0.017146727070212364,0.12700797617435455,-0.0031723403371870518,0.03535935655236244,-0.045443300157785416,0.036616019904613495,0.004456730093806982,0.043058451265096664,0.009900348260998726,-0.012551503255963326,0.02395576611161232,-0.014658358879387379,-0.06964421272277832,-0.11687152832746506,-0.03744107857346535,-0.029684828594326973,-0.0420139841735363,0.12425035983324051,-0.038298968225717545,-0.13837625086307526,-0.018951714038848877,-0.08185324817895889,-0.03597468510270119,-0.05607404559850693,0.019648609682917595,0.060548797249794006,-0.13142071664333344,-0.07665092498064041,-0.039720479398965836,-0.05007471516728401,0.09130179136991501,-0.0024081601295620203,-0.08823256939649582,0.12789997458457947,0.03289545327425003,-0.0019548998679965734,0.014387231320142746,0.017101574689149857,-0.09172080457210541,0.08331547677516937,0.11200284957885742,-0.06968103349208832,0.08333372324705124,-0.00038233146187849343,-0.06562056392431259,0.017458787187933922,0.07707958668470383,0.06884066760540009,0.08269349485635757,0.004675653297454119,0.0034346943721175194,-0.11977597326040268,0.051523078233003616,-0.02317974902689457,-0.10127563774585724,-0.02517642453312874,-0.003524472238495946,-0.012487790547311306,0.05006711184978485,-0.06675466895103455,0.01666513830423355,-0.050787582993507385,0.07397960871458054,-0.05265125259757042,0.0326802022755146,0.0870065838098526,0.003627030411735177,-0.008208302780985832,-0.062216904014348984,-0.05932256206870079,0.08497750014066696,-0.08699385821819305,0.021629352122545242,-0.05894473195075989,-0.01578226126730442,0.017682336270809174,0.043138980865478516,0.08838609606027603,0.07412277162075043,0.052691660821437836,0.03470449149608612,0.04789973422884941,0.07323523610830307,0.10634641349315643,-0.02171907387673855,-0.09305387735366821,-0.02048654854297638,0.08938003331422806,0.05201052501797676,0.011993876658380032,0.022973431274294853,0.08354723453521729,0.06485868990421295,-0.05257941037416458,0.012704823166131973,-0.06916984170675278,0.1090395450592041,-0.06882499903440475,-0.06754937767982483,-0.08657170832157135,0.03528757765889168,0.11309517174959183,-0.0641949474811554,-0.06854309141635895,0.13513439893722534,-0.05513731390237808,-0.02092798426747322,-0.08029510080814362,-0.014717665500938892,-0.019198324531316757,0.033004019409418106,-0.1397477686405182,-0.015285037457942963,-0.027099741622805595,-0.0345989428460598,-0.0343765951693058,-0.1181425005197525,-0.013906285166740417,0.01956539787352085,-0.0752621442079544,-0.003967405762523413,-0.0228105541318655,0.0005954059888608754,0.02068120613694191,0.05852760747075081,0.01519133523106575,-0.06993205845355988,-0.03421562910079956,0.057265475392341614,-0.002778350841253996,0.024473993107676506,-0.09077385812997818,-0.06881367415189743,-0.1190178170800209,-0.044539328664541245,-0.04083697125315666,-0.14096134901046753,-0.12155842781066895,0.006890733260661364,0.025607826188206673,-0.04260639101266861,-0.016083786264061928,0.045824382454156876,-0.022219102829694748,-0.025163987651467323,-0.06603366136550903,-0.005899530369788408,0.04566992074251175,-0.03607828542590141,-0.03831297531723976,0.08941018581390381,0.1292646825313568,0.07341158390045166,-0.11868761479854584,-0.02943793684244156,-0.009934144094586372,0.0917549729347229,0.030206818133592606,0.12322282791137695,-0.07338916510343552,-0.06692597270011902,-0.03612588346004486,0.0618363693356514,0.05027006193995476,0.03534147888422012,0.10639425367116928,-0.05813710018992424,0.07254192233085632,0.009171425364911556,-0.145782470703125,0.03196115046739578,0.028761819005012512,-0.04352277144789696,0.034506313502788544,-0.1355815976858139,0.0539889931678772,-0.082018181681633,-0.011726017110049725,0.05613139271736145,0.007043812889605761,0.06258271634578705,0.00630938308313489,-0.03374513238668442,-0.07781494408845901,-0.021669792011380196,-0.017611930146813393,-0.036332495510578156,-0.089211605489254,-0.08887691050767899,0.015008661895990372,0.013738603331148624,-0.06012532114982605,-0.041376322507858276,0.046247243881225586,0.0008041395922191441,-0.007894071750342846,0.06845889240503311,-0.06046709418296814,-0.0012255428591743112,-0.05936788022518158,-0.016368260607123375,-0.10766319930553436,-0.04174982011318207,-0.05673370882868767,-0.10982346534729004,0.03367547690868378,-0.14489760994911194,0.004472001455724239,-0.05220205709338188,-0.09970498085021973,0.061633478850126266,0.008568048477172852,-0.008639444597065449,-0.1010473296046257,0.0784161239862442,0.009934921748936176,-0.018053244799375534,-0.09508270025253296,0.029911646619439125,-0.05956066772341728,-0.06863660365343094,-0.09079359471797943,-0.03271368518471718,0.06830064207315445,0.016472099348902702,-0.013794204220175743,0.12017744779586792,0.030474169179797173,0.04015694931149483,0.07783611118793488,-0.017083341255784035,-0.0017796014435589314,-0.05224098637700081,-0.04539838060736656,0.05992129445075989,-0.06279446929693222,-0.06824941188097,-0.004542704671621323,-0.0318274199962616,-0.11060548573732376,-0.06544363498687744,0.014079874381422997,-0.07665754854679108,-0.03552365303039551,-0.06193769350647926,-0.04372526705265045,-0.01102550607174635,-0.06211600452661514,-0.03027345798909664,0.0024362739641219378,0.05316372588276863,0.0073910970240831375,0.003103933297097683,0.04565342515707016,-0.03288004919886589,-0.02034451998770237,0.026125468313694,0.04771353676915169,-0.053171709179878235,0.005955785512924194,0.07051657885313034,-0.04501185193657875,0.07892046123743057,-0.10245785117149353,-0.11614338308572769,-0.016245925799012184,-0.0362868569791317,0.0028504959773272276,0.009060360491275787,-0.025241928175091743,0.07263802736997604,-0.07752949744462967,0.021764667704701424,-0.05259649083018303,0.011865127831697464,-0.09431954473257065,-0.13728296756744385,0.06844595074653625,0.04151919111609459,0.07331553101539612,0.04185360670089722,-0.010341804474592209,0.12356337904930115,-0.024530140683054924,-0.06260651350021362,0.08170875161886215,-0.0012077760184183717,-0.1168474555015564,-0.04746333137154579,0.0981215089559555,0.03844543546438217,-0.03964921087026596,0.027233514934778214,0.04952310025691986,-0.05109357461333275,-0.003222774714231491,0.044772714376449585,-0.08552778512239456,-0.02548978291451931,0.03575712442398071,-0.09907244890928268,0.051177315413951874,-0.021406153216958046,0.11660761386156082,0.031192965805530548,0.02890157327055931,0.0131659135222435,-0.10958521068096161,-0.05305067077279091,-0.012234068475663662,-0.04566545411944389,0.10763392597436905,0.02406391128897667,0.06967975944280624,-0.01232593972235918,0.003225503023713827,0.0024702437222003937,0.11978652328252792,0.008272312581539154,0.10255947709083557,-0.09756731986999512,-0.08287601172924042,-0.10162539780139923,-0.05485992133617401,-0.045104265213012695,-0.033971671015024185,0.008731325156986713,0.11593598127365112,-0.07021581381559372,-0.004357004072517157,-0.0046297889202833176,-0.030943933874368668,-0.002901541069149971,0.016254419460892677,-0.08495593816041946,0.01774604059755802,0.07192955166101456,0.0906139686703682,-0.05634111166000366,-0.03795837238430977,0.010759309865534306,0.058787453919649124,0.06117601692676544,-0.036792054772377014,-0.06239699944853783,0.03326508030295372,-0.031218696385622025,-0.00431229081004858,0.06554114818572998,0.00012175878509879112,0.00892546121031046,0.08447404205799103,0.06537365913391113,0.10091524571180344,-0.05223625525832176,-0.0031839488074183464,-0.01668628305196762,0.08441901952028275,0.015014820732176304,-0.03751109912991524,0.0704505518078804,-0.06852711737155914,-0.035528331995010376,-0.06575467437505722,-0.010589529760181904,-0.14492176473140717,-0.05216757208108902,-0.020709579810500145,0.01003023236989975,-0.14791297912597656,-0.10528261214494705,0.00021142352488823235,-0.015156048350036144,0.014533058740198612,-0.06472587585449219,-0.05680603161454201,0.022479519248008728,0.03645440191030502,-0.012983829714357853,-0.031163159757852554,0.08860386162996292,-0.010868815705180168,-0.055100396275520325,-0.009245420806109905,-0.13412831723690033,0.045999158173799515,-0.03454585000872612,-0.05763205513358116,0.006541292183101177,-0.027304112911224365,0.09405115991830826,-0.020565487444400787,0.015343347564339638,-0.02046656422317028,-0.1008291244506836,0.011481532827019691,-0.03296930342912674,0.03876597806811333,0.08500862866640091,0.016490310430526733,-0.08884302526712418,-0.049395881593227386,-0.09659510850906372,0.10497641563415527,0.04386032372713089,0.07618138939142227,0.07634987682104111,0.11959236860275269,-0.09399691969156265,0.07266361266374588,0.007779419422149658,0.02890012599527836,0.080535389482975,-0.07868290692567825,0.03913037106394768,-0.021808139979839325,0.05110224336385727,0.07528822869062424,0.08024169504642487,-0.026470789685845375,0.10137856751680374,0.05498664453625679,-0.11600924283266068,-0.04651131108403206,0.016833053901791573,-0.01627284102141857,-0.025750447064638138,0.017752759158611298,0.08925331383943558,0.03674402832984924,0.04920770227909088,-0.0541541688144207,-0.0884641706943512,0.11800267547369003,-0.025468258187174797,0.014402943663299084,-0.022855982184410095,0.1046048253774643,0.06945746392011642,0.000573814264498651,0.031923647969961166,-0.0073866331949830055,0.06946101784706116,0.02362922579050064,-0.10646308958530426,-0.042781803756952286,0.09330006688833237,0.03108341619372368,0.027858704328536987,-0.11854436248540878,-0.06873153150081635,-0.1117977425456047,-0.03533507511019707,-0.013725586235523224,0.004611513577401638,0.031014228239655495,-0.029516350477933884,-0.10984398424625397,-0.12210910022258759,0.0298145841807127,0.015642199665308,0.05486975610256195,0.09258382022380829,-0.08085947483778,-0.016593847423791885,0.052223701030015945,0.007119255606085062,0.029145071282982826,0.04459905996918678,-0.049403075128793716,-0.013641864992678165,-0.07924798876047134,0.01783873327076435,-0.01130555011332035,0.059637539088726044,-0.10278359055519104,0.025766195729374886,-0.029025236144661903,0.08333063125610352,0.1780279576778412,0.010842359624803066,0.00012509142106864601,-0.011822190135717392,-0.022879842668771744,0.10952315479516983,-0.0072119575925171375,-0.04456040635704994,-0.12041160464286804,0.03550810366868973,-0.009432882070541382,-0.021439583972096443,-0.01338969636708498,-0.0711418017745018,0.018966883420944214,0.07255596667528152,-0.041998010128736496,0.028433330357074738,-0.07252640277147293,-0.057599011808633804,0.011401201598346233,0.10696718841791153,-0.08629954606294632,0.03374769538640976,0.009645056910812855,-0.0769563838839531,0.0365600623190403,-0.017269665375351906,0.11650949716567993,0.08146961778402328,-0.061971522867679596,-0.1307315081357956,-0.015629412606358528,0.04105958715081215,0.08235245198011398,-0.02589407004415989,-0.007814466021955013,-0.0035819346085190773,-0.09063388407230377,-0.04181494563817978,-0.01690755784511566,-0.05534667521715164,-0.06389384716749191,-0.02955908142030239,-0.02111951820552349,0.09164346009492874,-0.05817020311951637,-0.09199762344360352,0.027851639315485954,-0.1253460794687271,0.09124291688203812,0.13450223207473755,-0.09432856738567352,-0.0795680359005928,-0.08572518825531006,-0.06328307092189789,-0.0030750439036637545,-0.10616122931241989,-0.0810922384262085,-0.01899782568216324,0.006219492759555578,-0.00893072783946991,0.014997448772192001,-0.01680520735681057,-0.03670187294483185,-0.09102344512939453,0.023792289197444916,-0.06352223455905914,0.05668200924992561,0.014059833250939846,0.009917447343468666,-0.030011584982275963,0.005846061278134584,0.057406261563301086,0.05750032141804695,-0.0656527504324913,-0.06789281219244003,-0.09442348033189774,-0.0031616606283932924,0.0709507167339325,-0.03844109922647476,-0.06666229665279388,-0.007682564202696085,0.10356228053569794,0.003522502025589347,0.08258554339408875,-0.016217194497585297,-0.10802198946475983,0.004230423830449581,0.04004345461726189,0.046438463032245636,-0.020673876628279686,-0.08776699006557465,-0.030031798407435417,0.07106348872184753,-0.0602915957570076,-0.0915888100862503,-0.0035494626499712467,-0.07798660546541214,0.01149705983698368,-0.09522886574268341,-0.08593075722455978,0.050876494497060776,0.08938959985971451,-0.07469207048416138,-0.018365418538451195,0.07942061126232147,0.008842549286782742,0.02711794339120388,0.010960926301777363,-0.038464855402708054,-0.012947486713528633,-0.07960580289363861,-0.0146815599873662,-0.044883061200380325,0.016337795183062553,0.07878785580396652,-0.058236587792634964,0.014617559500038624,0.042031701654195786,0.09421954303979874,-0.04085731878876686,-0.0011641879100352526,0.00620921840891242,0.017984554171562195,0.01404308620840311,-0.05439334735274315,0.09644682705402374,0.09295806288719177,0.02889283187687397,0.06592223793268204,0.05974102392792702,-0.00759190833196044,-0.002425162121653557,-0.019717251881957054,0.014951319433748722,-0.0038362103514373302,0.015872273594141006,-0.08452341705560684,-0.01454117614775896,-0.01477807853370905,0.058317821472883224,-0.07483816146850586,-0.018665559589862823,-0.03526564687490463,-0.020543530583381653,-0.05942382663488388,0.020309876650571823,-0.017154354602098465,-0.10329777747392654,-0.0704846903681755,0.03793222829699516,0.07625582814216614,-0.019006121903657913,-0.01121657807379961,-0.1301138997077942,-0.04381468892097473,0.012951933778822422,0.07638219743967056,-0.04950125142931938,-0.004530306439846754,0.027711031958460808,0.10578370094299316,0.032292332500219345,0.06623299419879913,0.12810185551643372,0.08139435201883316,0.10062971711158752,-0.07729440182447433,-0.040221892297267914,0.10557390004396439,-0.015022778883576393,0.07679691910743713,0.024648210033774376,0.035760316997766495,-0.05423085764050484,0.015834176912903786,0.03944461792707443,-0.05412263050675392,0.04881111532449722,-0.05501531437039375,0.024629617109894753,-0.03778905048966408,0.12786509096622467,-0.02410980314016342,-0.01583210937678814,-0.04205607622861862,-0.06050316244363785,-0.04508550465106964,0.042785875499248505,-0.028428874909877777,-0.02384072169661522,-0.13002975285053253,-0.13984107971191406,-0.11065645515918732,-0.09070710092782974,0.04095720872282982,-0.0203253161162138,-0.0009008976630866528,0.08738401532173157,0.09038466960191727,-0.1260715276002884,0.02027520351111889,0.09868638962507248,0.029421569779515266,-0.12537257373332977,-0.06162600964307785,0.043180711567401886,-0.07500497251749039,0.0819062814116478,-0.05383984372019768,-0.06061471626162529,0.0029900071676820517,0.032614827156066895,0.020011110231280327,-0.017293768003582954,-0.04580526798963547,0.03332160413265228,0.12257058173418045,-0.04916056618094444,-0.0052632917650043964,0.013136005029082298,0.030046693980693817,0.03765043988823891,-0.06232524290680885,-0.007607541978359222,-0.06020095571875572,0.027013486251235008,0.027189334854483604,0.01949356310069561,-0.06687500327825546,0.05894532799720764,0.07626806944608688,-0.10543525964021683,-0.07955010235309601,-0.058884378522634506,-0.03622192516922951,0.02520560286939144,-0.02190268784761429,0.10322445631027222,-0.0075166611932218075,-0.0006478716968558729,-0.05313398316502571,-0.12436438351869583,0.030809422954916954,-0.07638189941644669,-0.028662526980042458,-0.009778723120689392,-0.019921164959669113,-0.026188788935542107,0.00041601384873501956,0.07489723712205887,-0.0179087333381176,-0.09578105807304382,-0.04671353101730347,0.00394543819129467,0.054866377264261246,0.04030837118625641,-0.010418199934065342,-0.02963530831038952,0.05872369930148125,0.018047917634248734,0.07971442490816116,-0.05130866542458534,-0.11832591146230698,-0.003568823914974928,0.000823396141640842,-0.057711564004421234,0.10132022202014923,-0.029400862753391266,-0.05191836506128311,-0.10283125191926956,0.056506577879190445,-0.040238555520772934,0.006422095000743866,0.06753438711166382,0.05143892019987106,-0.007950479164719582,0.021302251145243645,0.09727048128843307,-0.07525813579559326,0.05667390674352646,-0.07336752861738205,0.10482029616832733,0.03249788284301758,-0.04273301735520363,-0.08140762895345688,0.0800018310546875,-0.03543940559029579,-0.05856270343065262,0.07950010895729065,-0.1447666585445404,0.025544602423906326,-0.0012438863050192595,0.03566012904047966,0.05497707799077034,-0.01399935968220234,-0.018909858539700508,0.0636368915438652,0.06736307591199875,-0.005386857315897942,0.0460243783891201,-0.048946794122457504,-0.08456354588270187,-0.029936835169792175,0.09156863391399384,-0.03191812336444855,0.09520179033279419,0.08085784316062927,0.05820721760392189,-0.052081674337387085,-0.06946378946304321,0.02952052839100361,0.03868145868182182,-0.004354717209935188,-0.017146553844213486,-0.07277938723564148,-0.009519211947917938,-0.03256813809275627,0.042981620877981186,0.008093192242085934,0.05340925604104996,-0.10593866556882858,-0.019109755754470825,-0.016187725588679314,-0.06453751027584076,0.0007498383056372404,-0.09116492420434952,0.037187203764915466,0.0016273859655484557,0.0009870586218312383,-0.09467877447605133,-0.03084775246679783,-0.11547931283712387,-0.029250534251332283,0.07096098363399506,-0.10620670020580292,0.005964812356978655,-0.10401744395494461,0.00873055960983038,0.07713140547275543,0.0611962229013443,0.1181604340672493,-0.0868537575006485,0.05261183902621269,-0.01700665056705475,0.10209401696920395,-0.035223960876464844,0.13493317365646362,0.028628604486584663,-0.09995626658201218,-0.09944579005241394,-0.14512032270431519,0.05086629092693329,0.004342969506978989,-0.08386334776878357,-0.09710073471069336,-0.10234957188367844,0.06302115321159363,-0.06790252774953842,0.04854036495089531,0.014210843481123447,0.004636270925402641,0.07894537597894669,0.0020677836146205664,-0.0321633443236351,0.035056840628385544,0.012594755738973618,0.023561054840683937,-0.053595107048749924,0.056251369416713715,-0.025289393961429596,-0.05399134010076523,0.011880569159984589,-0.008919445797801018,0.014348209835588932,-0.004656768403947353,0.02930312603712082,-0.06204334646463394,0.059642259031534195,-0.02555779181420803,0.013907241635024548,0.001466939807869494,0.09568608552217484,-0.010427681729197502,-0.06769205629825592,0.02670709788799286,0.11951477080583572,-0.08914558589458466,-0.06714875251054764,-0.048834823071956635,-0.07273295521736145,0.01050344854593277,0.13527290523052216,-0.08912746608257294,0.018742769956588745,0.028721250593662262,-0.008744360879063606,-0.14217723906040192,-0.04665141925215721,-0.010749366134405136,-0.0025778189301490784,-0.11436595022678375,0.0015735621564090252,-0.037315357476472855,-0.01335129328072071,0.03893958404660225,-0.19742271304130554,0.005927417892962694,0.07639195024967194,0.03348713740706444,-0.14161771535873413,-0.1368039846420288,0.007106210570782423,-0.10102082043886185,-0.07202459871768951,0.08794142305850983,0.02875625528395176,-0.018557533621788025,-0.037278175354003906,-0.03138227388262749,0.018780361860990524,-0.005687311757355928,-0.1006079837679863,-0.04256725311279297,0.004461271688342094,-0.06958524882793427,-0.02302401326596737,0.09728720039129257,-0.004275404382497072,-0.0430757962167263,-0.040212925523519516,-0.005356950219720602,-0.0034797985572367907,-0.017847925424575806,-0.010271779261529446,-0.00725193927064538,-0.04710366576910019,-0.06115812808275223,-0.09572862833738327,0.04905224218964577,0.025709209963679314,-0.030379364266991615,-0.09177173674106598,-0.008227057754993439,-0.10277647525072098,-0.04041868448257446,-0.03413522616028786,-0.1345175951719284,0.015283701941370964,-0.13604485988616943,-0.008860375732183456,-0.0007083687232807279,-0.09545695036649704,-0.01769552193582058,0.04923538491129875,0.030751364305615425,-0.04267679527401924,0.06970450282096863,-0.06742329895496368,-0.05887838080525398,-0.0221746526658535,0.08306416124105453,0.03594774752855301,-0.06762974709272385,0.04513141140341759,-0.06605766713619232,0.06012193113565445,0.10501961410045624,0.05817880108952522,-0.016076339408755302,0.04835830628871918,0.0041463240049779415,0.11280162632465363,0.001581078046001494,-0.05866461992263794,0.23331739008426666,-0.05745962634682655,0.0059554800391197205,0.09180334210395813,0.08294481039047241,-0.05521174892783165,0.055031660944223404,0.0034073744900524616,-0.0341046079993248,-0.014269608072936535,0.09161312133073807,-0.021955175325274467,0.017870310693979263,0.006740435026586056,-0.09059127420186996,0.06374295055866241,0.07428531348705292,-0.03971679136157036,-0.06854968518018723,0.02494232915341854,0.014780737459659576,0.018339315429329872,0.10668972134590149,0.01695292629301548,-0.09233912825584412,-0.05194791778922081,0.01807883381843567,0.10811761766672134,-0.017935123294591904,-0.10065077245235443,-0.06419883668422699,0.07949749380350113,-0.09193269163370132,0.04482690617442131,-0.011495162732899189,-0.03531700745224953,0.3072543144226074,-0.026394663378596306,0.14570367336273193,0.11341317743062973,-0.04326949268579483,0.0698843002319336,0.09074395895004272,-0.015637973323464394,0.013522368855774403,0.023373764008283615,0.03836360573768616,0.11970412731170654,0.002671831753104925,-0.01515384390950203,0.05340767279267311,0.0741920992732048,0.10423595458269119,-0.003025603946298361,0.024176130071282387,0.0069271777756512165,-0.09451429545879364,0.011660151183605194,-0.07935668528079987,-0.026015041396021843,0.05459395796060562,-0.058152634650468826,0.09599728882312775,-0.0017267533112317324,-0.1465775966644287,0.031745173037052155,0.026380078867077827,-0.13196280598640442,0.06222665682435036,0.06853151321411133,-0.10638325661420822,0.04428763687610626,-0.016763659194111824,0.006068084388971329,-0.05292974412441254,-0.0601373054087162,0.04140232875943184,-0.10458679497241974,-0.05003958195447922,-0.046526916325092316,0.006846867501735687,0.051059868186712265,0.044961899518966675,-0.10243019461631775,-0.08709102869033813,-0.06077491492033005,-0.04372606426477432,-0.10261350125074387,0.08618512004613876,-0.071038156747818,-0.011085202917456627,-0.035428427159786224,0.015592379495501518,0.0007059857016429305,0.0073886411264538765,0.027293872088193893,0.06339868158102036,-0.05857231840491295,-0.007920443080365658,-0.05424109101295471,0.029452592134475708,-0.03436993435025215,-0.012373261153697968,-0.004628058057278395,0.08700136095285416,0.05754045769572258,-0.12967385351657867,-0.05110856890678406,-0.13713312149047852,0.11848150193691254,0.011204774491488934,0.05022402107715607,0.0723474845290184,-0.003080151043832302,0.10758290439844131,-0.0013337815180420876,0.07325629889965057,-0.06338554620742798,-0.034400854259729385,-0.017459824681282043,-0.03437770530581474,-0.08353748172521591,-0.02843710221350193,-0.07000360637903214,0.0694638043642044,0.0362628772854805,0.09868030250072479,-0.010711150243878365,-0.0382390096783638,-0.0008372440352104604,0.07020210474729538,0.0662437155842781,-0.05099925026297569,0.02678329311311245,0.05315639078617096,-0.12029781937599182,-0.08797553926706314,0.018593790009617805,-0.09242651611566544,0.0472332201898098,-0.07091644406318665,0.005746934562921524,-0.10328518599271774,0.009458998218178749,0.035921018570661545,0.03579162433743477,-0.005342614836990833,-0.06376581639051437,0.03157421573996544,-0.05037388950586319,0.030470652505755424,-0.08627061545848846,-0.009975437074899673,-0.04655829071998596,-0.0781543180346489,0.022285977378487587,-0.07908407598733902,-0.05478329956531525,-0.13205856084823608,-0.05828515812754631,-0.024962177500128746,-0.02964877337217331,-0.013252775184810162,0.04263213649392128,-0.03241445869207382,-0.026900354772806168,-0.00886625424027443,0.010993263684213161,0.057160064578056335,0.10961193591356277,0.009853322058916092,-0.0007188665913417935,-0.039063114672899246,-0.0732111856341362,-0.013132004998624325,-0.07606850564479828,-0.028490087017416954,-0.11120333522558212,-0.030843501910567284,0.062070682644844055,-0.056414611637592316,0.02232258766889572,-0.05916915088891983,0.041127365082502365,0.05573773756623268,0.0061273761093616486,0.016247181221842766,0.056120824068784714,-0.04549393802881241,-0.08020061254501343,-0.08256588131189346,-0.07195307314395905,0.05373120680451393,0.05639791116118431,-0.030608756467700005,0.02861393801867962,-0.023700496181845665,0.00005909576793783344,0.010868063196539879,0.001872860360890627,-0.01822630688548088,0.04595208540558815,-0.006295571569353342,-0.04348297789692879,0.07101832330226898,-0.06062868610024452,-0.06726539880037308,-0.0352291613817215,0.09025800973176956,0.06522125005722046,0.05507781729102135,0.013363574631512165,-0.016609426587820053,0.00836532935500145,-0.002301679691299796,-0.11337583512067795,-0.06930672377347946,-0.020830009132623672,0.12223827093839645,0.036319389939308167,0.016410591080784798,0.08804430067539215,0.03410698473453522,0.019872035831212997,-0.13558030128479004,-0.016046030446887016,0.06441646814346313,-0.06076286733150482,0.058640819042921066,-0.06713510304689407,-0.10513722151517868,-0.028673263266682625,0.05119239166378975,-0.020856577903032303,0.05652949959039688,0.06333857029676437,0.0443989634513855,-0.036724433302879333,0.021384596824645996,0.09477298706769943,-0.0050098951905965805,-0.07770992815494537,0.04081299901008606,0.06379391252994537,-0.08316778391599655,-0.007962916977703571,-0.09084756672382355,0.023305905982851982,-0.027792610228061676,0.027330761775374413,-0.007969366386532784,-0.029348187148571014,-0.10163955390453339,-0.010416625067591667,0.045687608420848846,0.10441247373819351,0.040102045983076096,0.008887391537427902,0.014271626248955727,0.05008227005600929,-0.09529281407594681,0.05184736102819443,-0.13170522451400757,-0.08165818452835083,-0.03221220523118973,0.007174476981163025,-0.08337148278951645,-0.017369970679283142,-0.0173906572163105,0.013025845400989056,-0.047272805124521255,-0.141265407204628,-0.08113978058099747,-0.11057259887456894,-0.04287515953183174,-0.006981547921895981,-0.10274497419595718,-0.0018951023230329156,-0.030101433396339417,-0.049426477402448654,-0.08448635786771774,0.08352171629667282,0.005396353546530008,-0.00269871368072927,0.00800603348761797,0.08982262760400772,-0.07136771827936172,0.026430269703269005,0.025665633380413055,0.07328324019908905,-0.1161450520157814,0.018960775807499886,-0.010107068344950676,-0.03413322567939758,0.011515912599861622,0.05458753556013107,-0.035764459520578384,0.07709997147321701,-0.026713216677308083,-0.0490226112306118,0.07714960724115372,-0.014073066413402557,0.025219546630978584,-0.05807016044855118,0.04100087285041809,-0.03179596737027168,0.10131847858428955,0.0008581971633248031,0.005404291208833456,0.028572233393788338,-0.05493684858083725,0.1138196811079979,-0.007955887354910374,-0.013079817406833172,-0.09695189446210861,0.03109177015721798,0.09475601464509964,-0.0756702646613121,-0.04266167804598808,0.030202211812138557,0.07638698071241379,0.023947928100824356,0.028582582250237465,-0.027396133169531822,0.06826609373092651,-0.02727842703461647,-0.17164120078086853,-0.05620720237493515,0.08416774123907089,0.006189297419041395,-0.021720582619309425,-0.048227544873952866,-0.002750941552221775,0.017991483211517334,-0.013675551861524582,0.024233413860201836,-0.09275475889444351,-0.01742340810596943,-0.11324731260538101,-0.08161541819572449,-0.01344369724392891,-0.05152084305882454,0.008686154149472713,-0.013304988853633404,0.11952043324708939,0.033049337565898895,0.0027442777063697577,-0.00419945502653718,-0.12431593239307404,-0.048276182264089584,-0.10334882140159607,0.020200172439217567,-0.08852887898683548,-0.0881340280175209,0.09111789613962173,0.07076051831245422,-0.03275683894753456,0.0238745529204607,0.054515913128852844,0.11401351541280746,0.0067328158766031265,-0.020360875874757767,-0.05829845741391182,-0.05226542055606842,-0.09161447733640671,0.0995878279209137,0.03964556008577347,0.014494267292320728,-0.04982658848166466,-0.03448081016540527,0.046907369047403336,0.058945510536432266,-0.14304135739803314,0.03864572197198868,-0.10787710547447205,-0.02655177377164364,0.08061186224222183,-0.007264899089932442,0.0029858117923140526,-0.005306916311383247,0.00853750016540289,-0.0403924286365509,-0.011339819058775902,-0.033183492720127106,-0.028566189110279083,0.04495019465684891,-0.06823565810918808,-0.08828325569629669,-0.05721253156661987,0.04872605577111244,-0.11565738916397095,0.07565774023532867,-0.05971729755401611,0.06755489110946655,0.09132330864667892,0.0160759799182415,0.06435084342956543,-0.10336935520172119,0.06233489140868187,-0.061867572367191315,0.08291077613830566,-0.06373705714941025,-0.04066773131489754,0.009988130070269108,-0.11001373827457428,-0.1214967593550682,0.008931511081755161,0.0031181336380541325,-0.06213638186454773,-0.12929047644138336,0.07098960876464844,-0.0190807543694973,-0.010966870933771133,0.084360271692276,-0.03355235606431961,0.009114128537476063,-0.06426890194416046,0.015395750291645527,-0.018223609775304794,-0.035411953926086426,-0.02910901978611946,-0.01545278076082468,-0.04592352360486984,0.06350643932819366,-0.07533532381057739,-0.11378105729818344,-0.07906222343444824,-0.09238794445991516,-0.03113737516105175,0.09719173610210419,0.04603325575590134,-0.09881415218114853,0.05651094391942024,0.058730822056531906,-0.02862577699124813,0.006051857024431229,-0.03243257477879524,-0.008057610131800175,0.013927887193858624,-0.058802977204322815,0.02034115605056286,-0.10285266488790512,-0.05487991124391556,-0.012051524594426155,-0.02845284715294838,-0.031168008223176003,0.04163992777466774,-0.10153171420097351,0.033524952828884125,0.012697523459792137,0.08186579495668411,0.007504328619688749,-0.0036596227437257767,-0.034902993589639664,-0.031832508742809296,0.04289598390460014,-0.0028295028023421764,-0.13311968743801117,-0.08721569925546646,0.02286262810230255,0.014195866882801056,0.03126859664916992,-0.012263314798474312,-0.012357672676444054,0.0663602352142334,-0.023979857563972473,-0.07157132029533386,-0.0221700482070446,-0.06821153312921524,-0.003695480525493622,-0.12866966426372528,-0.0007366160280071199,-0.008551575243473053,-0.020919054746627808,0.020385781303048134,0.0251152403652668,0.07496902346611023,0.0632835254073143,0.023281458765268326,-0.09887785464525223,0.02818150632083416,-0.10024859756231308,-0.08840127289295197,0.12449133396148682,-0.007605129387229681,0.03337382152676582,0.011365760117769241,-0.008791550062596798,0.019066553562879562,0.07131320238113403,-0.12559457123279572,-0.06329384446144104,-0.11516015976667404,0.046710483729839325,-0.0976635217666626,0.05578844994306564,0.03240038827061653,0.07174535095691681,-0.03887404873967171,-0.007829755544662476,-0.08675947785377502,0.04483889043331146,0.00889238528907299,-0.021114399656653404,0.06057343631982803,0.0058502135798335075,-0.11876998096704483,-0.013454284518957138,-0.02777182310819626,-0.040430694818496704,0.003340704832226038,0.06597631424665451,-0.007258297875523567,-0.019589755684137344,-0.028407178819179535,0.06477586179971695,0.12343655526638031,-0.009569920599460602,0.09061358869075775,0.03262092173099518,-0.08159258216619492,0.0771293193101883,-0.01030620839446783,-0.1186143159866333,0.004189716186374426,0.0005712256534025073,-0.09782703965902328,0.002736541908234358,0.043564438819885254,0.0004287477640900761,-0.10887458920478821,0.03869374096393585,-0.030652670189738274,-0.09587489813566208,0.008509933948516846,-0.005609169136732817,0.018735839053988457,-0.00516100786626339,0.009655749425292015,0.03293989226222038,0.10397163778543472,0.007738377898931503,-0.08956320583820343,-0.031484395265579224,-0.12722741067409515,0.00208461657166481,-0.12622122466564178,-0.1187717616558075,-0.08289717882871628,0.023652609437704086,0.023525087162852287,-0.13268236815929413,0.06112443655729294,-0.11186253279447556,0.09709017723798752,-0.047817032784223557,-0.0800870805978775,-0.014772368595004082,0.09202053397893906,0.03450929373502731,0.009617249481379986,0.032043252140283585,0.07437533140182495,0.011026626452803612,-0.08027654886245728,0.062294088304042816,-0.05141373723745346,-0.012978521175682545,-0.011986528523266315,0.11699125915765762,0.06689733266830444,-0.01683107577264309,-0.113123320043087,0.03112325258553028,0.07154977321624756,0.0826178714632988,-0.015065990388393402,-0.010999721474945545,0.01936361938714981,-0.003851365065202117,-0.07520692050457001,-0.017859075218439102,-0.05697781965136528,0.028123212978243828,-0.04906359314918518,-0.07906465977430344,0.05632878094911575,-0.09758151322603226,-0.06656069308519363,-0.05598746985197067,-0.0033475160598754883,-0.04455443099141121,-0.06728952378034592,-0.06892548501491547,-0.03002333454787731,0.09831397980451584,-0.018203143030405045,0.02935340255498886,-0.07071830332279205,0.05313589423894882,-0.010060016065835953,-0.06942220032215118,-0.07566333562135696,-0.06134806200861931,-0.0707225576043129,-0.03968839719891548,-0.12656471133232117,-0.00326709751971066,-0.016814155504107475,-0.04784708097577095,-0.0644446387887001,0.04782668501138687,0.0749192088842392,-0.03267897292971611,-0.01228354312479496,0.07542630285024643,-0.015058344230055809,0.0765736997127533,-0.09396392107009888,0.08004070818424225,0.0655875951051712,-0.06480499356985092,0.05607181042432785,0.10651001334190369,0.009356937371194363,0.0369151309132576,-0.07694268971681595,0.0076482947915792465,0.07780759781599045,-0.02322717383503914,-0.0020416462793946266,-0.060579851269721985,0.0805310532450676,0.02559426799416542,-0.021416708827018738,-0.009105962701141834,0.002615842269733548,0.028477422893047333,-0.08118696510791779,0.11117594689130783,0.030815256759524345,-0.016678864136338234,0.09929593652486801,-0.05419764667749405,-0.013268562033772469,-0.028377356007695198,-0.08005746454000473,0.025991905480623245,-0.07332772761583328,-0.12119121849536896,0.07010840624570847,0.060526978224515915,-0.03907569497823715,-0.0003734648344106972,0.01723642088472843,0.04299275577068329,-0.003980252891778946,0.02869388833642006,-0.011772897094488144,0.0836515724658966,-0.004099888727068901,-0.017770137637853622,-0.025301024317741394,-0.02583528682589531,-0.03854146599769592,0.013727911747992039,0.011639818549156189,0.08433788269758224,-0.04851570725440979,-0.007404542062431574,-0.026858823373913765,-0.08566928654909134,-0.08519986271858215,0.07562889158725739,-0.07253026962280273,0.029599444940686226,0.057160403579473495,0.08369075506925583,-0.09337493777275085,-0.04015599563717842,-0.0724981352686882,0.015835966914892197,-0.10167048126459122,0.017169468104839325,0.012498673982918262,0.009599489159882069,-0.041940681636333466,-0.07302168011665344,0.012353543192148209,0.0024496777914464474,0.06887935847043991,0.09514985978603363,-0.04531440883874893,0.06952686607837677,0.04975194111466408,0.04432683810591698,0.053138360381126404,-0.08284991979598999,-0.016407184302806854,-0.13465572893619537,0.1953294575214386,-0.018293194472789764,-0.059884022921323776,-0.00788077525794506,-0.11803139001131058,-0.007476550992578268,0.04223007708787918,-0.07152268290519714,0.023913487792015076,0.06570867449045181,0.019335919991135597,0.03991552069783211,0.01203213818371296,0.06962309777736664,-0.054987624287605286,-0.05155668407678604,-0.041134342551231384,0.07684223353862762,-0.046088121831417084,-0.11667484790086746,0.022160638123750687,-0.05010441318154335,-0.08300867676734924,-0.06303276866674423,-0.10745403915643692,-0.03883940353989601,-0.10512936115264893,0.05873237922787666,0.04850449413061142,0.06947462260723114,-0.03926055133342743,0.03134875372052193,0.0008522591087967157,0.0781291276216507,-0.04123063385486603,-0.0875777080655098,-0.1191234290599823,0.04707303270697594,-0.11363711208105087,-0.14913560450077057,-0.09737547487020493,-0.09615671634674072,-0.16296379268169403,-0.05540688708424568,-0.05040529742836952,-0.04559885337948799,-0.12287338078022003,0.06827403604984283,0.013955069705843925,-0.12532849609851837,0.012367681600153446,0.05109076946973801,-0.12225015461444855,-0.10068469494581223,0.07145741581916809,-0.16951291263103485,-0.0662446841597557,-0.12161841988563538,0.0041878498159348965,0.1020868569612503,0.019114768132567406,0.04637011140584946,0.0512862354516983,-0.03934749588370323,-0.06610813736915588,-0.09635889530181885,0.0465979166328907,-0.0862024575471878,0.2594231069087982,0.08107708394527435,-0.11116401851177216,0.052242543548345566,0.08816588670015335,0.00023298419546335936,0.004807722754776478,0.05035269632935524,-0.12409374862909317,-0.0952305942773819,-0.03429945185780525,-0.02150580659508705,0.036970172077417374,0.07230139523744583,-0.03455742821097374,-0.0084020234644413,-0.0017144165467470884,0.032383471727371216,-0.002797665074467659,-0.008111542090773582,-0.06058690696954727,-0.022343330085277557,-0.001244326587766409,-0.061352986842393875,-0.009073859080672264,0.06426961719989777,-0.06624366343021393,0.08955758810043335,0.031968023627996445,-0.05155612528324127,0.06077177822589874,-0.03136380761861801,0.11069981008768082,-0.029438773170113564,0.08839522302150726,-0.054564084857702255,0.24874210357666016,0.07710269838571548,-0.030163759365677834,0.009523915126919746,0.0612683929502964,-0.020836064592003822,-0.03412601724267006,-0.05072678253054619,0.09634654968976974,0.02264256775379181,0.019344955682754517,0.03417963162064552,0.026517245918512344,-0.03601579740643501,0.12288375198841095,0.10168102383613586,-0.08530648797750473,0.018457096070051193,0.05207467079162598,-0.043143920600414276,-0.020702147856354713,-0.09642664343118668,-0.016884567216038704,0.04542060196399689,-0.04761993885040283,0.07344843447208405,-0.031393710523843765,0.11293011903762817,-0.047289710491895676,-0.02836865931749344,0.02038312517106533,-0.12658719718456268,-0.010124871507287025,-0.01038016751408577,0.09310385584831238,-0.04154914990067482,0.0003434123354963958,0.06679043918848038,0.005360342096537352,0.025442102923989296,-0.06073063611984253,-0.03097694180905819,-0.09999623894691467,-0.003943049348890781,-0.07492802292108536,0.07464847713708878,0.020264336839318275,0.035611532628536224,0.013081503100693226,0.050027862191200256,-0.004975354298949242,-0.06581709533929825,-0.0479079894721508,-0.11831946671009064,0.09332975000143051,0.05922803282737732,-0.0017292618285864592,0.06563007086515427,0.001067322213202715,-0.05047808587551117,0.10437841713428497,-0.07283861935138702,-0.03957176208496094,-0.09951350092887878,-0.031143436208367348,0.061909038573503494,-0.12206664681434631,-0.013750672340393066,-0.032556165009737015,-0.06611912697553635,0.18200725317001343,-0.04318370297551155,-0.03785679489374161,-0.14649179577827454,0.0179443322122097,-0.05873667076230049,-0.06380721181631088,-0.04285462945699692,-0.013516051694750786,0.04138457775115967,0.038364965468645096,0.012404329143464565,0.029387736693024635,-0.005734535399824381,-0.02622351050376892,-0.052253033965826035,0.06897703558206558,-0.028170427307486534,-0.048837486654520035,-0.03959351032972336,0.027915392071008682,-0.055943723767995834,0.011516958475112915,0.03807888552546501,-0.08481428027153015,-0.11321035027503967,-0.021100375801324844,0.03925001621246338,-0.013033274561166763,-0.0005489711184054613,-0.04695042222738266,-0.0016191996401175857,-0.022970721125602722,-0.02606809139251709,-0.015888750553131104,0.02258680760860443,0.009207786992192268,0.0530683733522892,-0.022669587284326553,0.014159180223941803,-0.00772353820502758,-0.05102646350860596,0.007421785965561867,-0.0258658304810524,0.02644966170191765,0.020553190261125565,-0.0373847596347332,-0.01234840415418148,0.07461057603359222,0.01933102495968342,-0.04932389035820961,0.07153052091598511,-0.0014825109392404556,-0.045700524002313614,-0.13309936225414276,0.025963589549064636,-0.06748449802398682,0.015475453808903694,0.12232509255409241,0.04467660188674927,-0.002811650512740016,-0.08247855305671692,0.0012008121702820063,0.0736120343208313,0.14399631321430206,-0.11084297299385071,-0.054073773324489594,0.09520162642002106,-0.03817379102110863,-0.05742575228214264,-0.03133130818605423,-0.0889510065317154,-0.01019249390810728,0.0005093705840408802,0.028991039842367172,-0.007216688711196184,-0.050657007843256,-0.02490450255572796,0.019245970994234085,0.029804063960909843,0.08614649623632431,0.00016642340051475912,0.05223768204450607,0.010741030797362328,0.022111274302005768,0.08490414172410965,-0.10778418928384781,-0.054064806550741196,-0.03600217029452324,-0.07479839026927948,-0.10716090351343155,0.0026395355816930532,-0.06035409867763519,0.07271477580070496,-0.12064079195261002,-0.05808688700199127,-0.06441882997751236,0.04691582918167114,0.05342644080519676,0.01829712651669979,0.03303144499659538,0.023561911657452583,-0.03140294924378395,0.03304187208414078,-0.009772070683538914,-0.053384412080049515,-0.01235925778746605,0.05278027430176735,-0.13188260793685913,0.0463741309940815,-0.060292668640613556,-0.12737980484962463,0.05763876065611839,-0.017913740128278732,0.045935455709695816,-0.056679170578718185,0.08255020529031754,0.029551053419709206,0.09937489777803421,-0.04034673795104027,0.05358615145087242,-0.10743145644664764,0.021174445748329163,-0.0439315065741539,-0.020298676565289497,0.07797262072563171,0.08291994780302048,-0.013210033997893333,0.030585482716560364,-0.04380853474140167,-0.016307612881064415,-0.020535210147500038,0.007933909073472023,-0.025514626875519753,-0.07593536376953125,0.12411748617887497,-0.05561212822794914,0.04560936242341995,0.0004764278419315815,0.026549793779850006,-0.12311366200447083,-0.0476268045604229,0.11581014096736908,-0.14442001283168793,-0.0036679422482848167,-0.08315235376358032,-0.04731876403093338,-0.007349901366978884,-0.1449768841266632,-0.03549205884337425,0.10450021922588348,-0.08552169054746628,0.0016304391901940107,-0.04000575840473175,0.03293755277991295,0.062092918902635574,-0.02665930613875389,-0.03139599785208702,0.022199543192982674,-0.062269750982522964,-0.1074628084897995,-0.06253091245889664,0.059969667345285416,0.017943859100341797,-0.03194786235690117,0.042853884398937225,0.024183189496397972,0.09220223873853683,-0.005934032145887613,-0.09280876070261002,0.03495858609676361,-0.07152149081230164,0.02381509728729725,0.10989313572645187,-0.12228286266326904,0.08497345447540283,0.0184599868953228,-0.12303633242845535,-0.0733807161450386,0.11012863367795944,-0.01715976744890213,-0.019235750660300255,0.06862737238407135,0.00043980017653666437,0.03695973753929138,0.05143282189965248,0.05941281467676163,-0.02357333153486252,0.04484826698899269,0.00929858349263668,-0.015390285290777683,0.0027565343771129847,-0.006984116043895483,-0.08815203607082367,-0.03394542261958122,-0.038400016725063324,0.0010272458894178271,-0.0844511091709137,0.06751199811697006,0.09817356616258621,-0.015661533921957016,0.03452752158045769,-0.09962361305952072,0.06795377284288406,-0.011913742870092392,-0.01350014004856348,0.086850106716156,0.13631463050842285,0.11909594386816025,-0.023317739367485046,-0.03255210071802139,0.012904577888548374,-0.014441207982599735,0.11608833074569702,-0.04226510226726532,0.034138988703489304,-0.03930318355560303,0.036030516028404236,0.050418999046087265,-0.04486960917711258,0.05214900150895119,-0.061447616666555405,0.00027780100936070085,-0.06291459500789642,-0.03314686939120293,0.003398144617676735,-0.02492092363536358,-0.04576661437749863,0.0007521496154367924,0.029259584844112396,0.020352797582745552,-0.036030057817697525,-0.0638113021850586,-0.05504458770155907,-0.036852359771728516,0.07687139511108398,-0.07088009268045425,0.11009150743484497,0.03832276165485382,0.06944885104894638,-0.011241656728088856,0.038963235914707184,0.031034577637910843,0.015798673033714294,-0.06167009845376015,-0.11712820082902908,0.06495308130979538,0.08308424055576324,-0.11074606329202652,0.009009569883346558,-0.03342786431312561,-0.04588230699300766,-0.08109898865222931,0.06329967081546783,-0.023425644263625145,-0.10178660601377487,-0.09345094114542007,0.03382158651947975,0.014692319557070732,-0.0049271127209067345,0.0729232057929039,0.04910651594400406,0.04091779515147209,0.05039976164698601,-0.05864262208342552,-0.03213559836149216,0.044451162219047546,-0.06319728493690491,-0.02599242515861988,-0.08331770449876785,0.026176761835813522,-0.07081137597560883,0.04042881727218628,-0.04420887306332588,0.008006475865840912,0.02791372686624527,-0.012951431795954704,-0.13017965853214264,-0.06591875106096268,-0.04380735009908676,0.0415564626455307,0.08718769997358322,-0.0767102986574173,-0.09131050854921341,0.06645640730857849,0.023692235350608826,0.005803402978926897,-0.05174308642745018,-0.0021706081461161375,0.09061013162136078,0.07706091552972794,-0.007696032524108887,0.08361376821994781,0.12237319350242615,0.03994738683104515,-0.009296497330069542,-0.03183860704302788,-0.017392870038747787,0.11617027968168259,-0.07767955958843231,-0.029720822349190712,-0.03293938189744949,-0.014707804657518864,0.005472294054925442,-0.020204022526741028,0.06027807295322418,0.030953381210565567,0.07764242589473724,0.00765998987480998,0.04022374749183655,0.13209818303585052,-0.058234818279743195,0.08501138538122177,0.0919356644153595,-0.07279913127422333,-0.0598275251686573,-0.03540360927581787,0.09848295897245407,0.12057790160179138,-0.04388061538338661,0.07074878364801407,-0.07095885276794434,-0.028098875656723976,0.08966843038797379,0.10964617878198624,-0.03525346517562866,-0.02495148405432701,0.10708394646644592,-0.00584700983017683,0.011753582395613194,0.06260901689529419,0.004844117909669876,0.05207766965031624,-0.0632392168045044,-0.023191852495074272,0.07177792489528656,-0.049588896334171295,-0.04852850362658501,-0.016803106293082237,-0.06994173675775528,0.13543835282325745,-0.11200504750013351,-0.09694410860538483,-0.030834512785077095,0.058003079146146774,0.03770275413990021,-0.015184924937784672,0.05595904216170311,-0.018546948209404945,0.04577888548374176,0.043659619987010956,-0.06520788371562958,-0.023412834852933884,-0.04968169704079628,-0.059617675840854645,0.014387237839400768,-0.006143586244434118,-0.0528886541724205,-0.03572491928935051,-0.009581201709806919,-0.01976061798632145,-0.047906942665576935,0.06840439885854721,-0.05409020185470581,-0.02396649867296219,0.01781735196709633,-0.008666770532727242,0.04924079030752182,0.08919014036655426,-0.05064152181148529,0.05398043617606163,-0.03321492299437523,-0.01989711821079254,0.056405454874038696,-0.09425714612007141,-0.043606068938970566,0.05561305209994316,0.06956741213798523,0.09446372091770172,-0.018947210162878036,-0.018326150253415108,-0.08552469313144684,0.0767420306801796,0.021076537668704987,0.03958779200911522,-0.022562097758054733,0.026659343391656876,-0.06401418149471283,0.010862894356250763,-0.011007685214281082,-0.10299482196569443,-0.002727084793150425,0.04569481313228607,-0.025545015931129456,0.06272280961275101,0.029362820088863373,0.052274320274591446,-0.07960386574268341,0.07756438106298447,0.03686775639653206,0.03366114944219589,-0.05821849778294563,-0.10419353097677231,0.0036335387267172337,-0.07418494671583176,-0.07254058867692947,0.03535749763250351,-0.10006218403577805,0.018375715240836143,-0.07306178659200668,-0.013222374022006989,0.041905082762241364,0.058463986963033676,0.011010583490133286,0.03697348013520241,-0.009739347733557224,0.04874362051486969,-0.029714664444327354,-0.02015857957303524,-0.07113688439130783,0.030087435618042946,0.011494672857224941,0.10877718776464462,-0.006920679938048124,0.06252208352088928,0.06451424211263657,-0.02036025933921337,0.028353547677397728,0.026270145550370216,0.04425222799181938,-0.11631990224123001,0.06951003521680832,-0.09778842329978943,0.10860873013734818,0.07799948006868362,0.00808042474091053,-0.010933536104857922,0.014098023064434528,0.04407494515180588,-0.11161720007658005,-0.05332620441913605,-0.05153675004839897,0.0316130667924881,0.0050727250054478645,0.014023489318788052,0.1111767590045929,0.05733664706349373,-0.004890971817076206,-0.09054750949144363,0.04391443729400635,-0.03099524974822998,0.1357862949371338,0.05246931314468384,-0.09887836873531342,0.05013613775372505,0.05918336287140846,0.0516623817384243,0.034388285130262375,-0.05389115586876869,-0.03546937555074692,0.12002204358577728,-0.04688125476241112,0.0913391038775444,-0.027009984478354454,0.00123899569734931,0.11079725623130798,-0.0662287101149559,-0.024824239313602448,-0.12885905802249908,0.03188353776931763,0.10774289816617966,-0.10993850976228714,-0.00832347385585308,-0.06990376114845276,-0.03229750692844391,0.013233388774096966,-0.05480577051639557,-0.03927714005112648,-0.05079537257552147,-0.10957765579223633,0.022552605718374252,0.1255006343126297,0.08818171918392181,0.10546676814556122,0.01969733089208603,-0.028690392151474953,0.058742254972457886,-0.03288515657186508,-0.028332268819212914,-0.05722043290734291,0.006409601308405399,0.005795324686914682,-0.06431065499782562,-0.05564025416970253,-0.013586048036813736,-0.06455624103546143,-0.03928808495402336,-0.04783047363162041,-0.00755728455260396,-0.08137989044189453,0.0773693397641182,0.05216937139630318,0.052989788353443146,-0.039377253502607346,0.030962031334638596,0.025526344776153564,-0.02169097028672695,-0.002704017097130418,-0.09713781625032425,-0.028498608618974686,-0.05293766036629677,-0.01877705194056034,-0.011402609758079052,-0.017814524471759796,0.07568064332008362,-0.01569426618516445,-0.02482333965599537,0.020945392549037933,-0.018886199221014977,-0.0015426346799358726,0.08586424589157104,0.08352480083703995,-0.10653543472290039,-0.014018098823726177,-0.016954980790615082,-0.007659423630684614,-0.004272780381143093,-0.1265537142753601,-0.0485113188624382,-0.0319485105574131,0.08954112231731415,-0.10705005377531052,-0.006395217031240463,0.013435187749564648,-0.055876582860946655,0.015262187458574772,0.07587256282567978,-0.13531582057476044,-0.0641242042183876,-0.05589704588055611,-0.029646310955286026,-0.06341375410556793,0.095833420753479,0.008197605609893799,-0.08118202537298203,-0.10798101127147675,-0.043085403740406036,0.0004465263627935201,-0.003429124830290675,0.08417538553476334,0.07070949673652649,0.08203893154859543,-0.03458469361066818,0.013484194874763489,-0.019538845866918564,-0.12815620005130768,-0.12038831412792206,-0.01797551102936268,-0.053978901356458664,0.014903903938829899,-0.00674020079895854,-0.12723159790039062,-0.09934189170598984,-0.09475816786289215,-0.0017788070254027843,-0.021200086921453476,0.006206092424690723,0.04623832181096077,-0.04150976613163948,0.026639999821782112,0.01952579990029335,0.09270408004522324,-0.0176999531686306,-0.012058265507221222,-0.08718077838420868,0.0032928865402936935,0.07011674344539642,0.09412773698568344,-0.023434463888406754,-0.09278319031000137,-0.01852443441748619,-0.049856800585985184,0.02904920093715191,-0.0951431542634964,-0.056590985506772995,-0.045474350452423096,0.06292566657066345,-0.004755618050694466,0.06926089525222778,-0.006320422515273094,-0.09712094068527222,-0.01371588185429573,0.06255139410495758,-0.01441121008247137,0.07622899115085602,0.06406054645776749,-0.027417847886681557,0.04837257042527199,-0.030307458713650703,-0.07400485128164291,-0.030097587034106255,0.02123010717332363,-0.05330885574221611,0.10056118667125702,0.008079751394689083,0.06165527179837227,0.07479606568813324,-0.1031070277094841,-0.04225699603557587,0.03649972006678581,-0.07300837337970734,-0.06094704195857048,-0.028813796117901802,-0.049127236008644104,0.056533169001340866,0.045342423021793365,-0.02243081107735634,-0.14217042922973633,0.11791910231113434,-0.0298687182366848,0.07697046548128128,0.06778135895729065,0.01603522151708603,-0.08665107190608978,0.03771059960126877,-0.09679937362670898,0.014297988265752792,0.02664048783481121,0.050203148275613785,0.05933934450149536,-0.011651636101305485,0.01735849119722843,0.06685887277126312,-0.02011094056069851,0.11424372345209122,-0.05728377029299736,0.07699218392372131,0.02156265266239643,-0.1263265460729599,0.0614832267165184,-0.0832991749048233,-0.09290159493684769,-0.054499272257089615,0.05925951525568962,-0.06793241947889328,0.029432756826281548,0.06139592081308365,-0.05233039706945419,-0.01398126408457756,-0.10959388315677643,-0.03570841997861862,-0.04921456053853035,-0.068597212433815,-0.0027719635982066393,-0.03432384878396988,-0.057955555617809296,-0.09759486466646194,0.11444434523582458,-0.028460554778575897,0.0040261875838041306,0.056953445076942444,-0.13648617267608643,0.0008408146095462143,-0.015416164882481098,-0.10729723423719406,0.07880222797393799,0.02804500050842762,0.0008127999608404934,-0.020732974633574486,-0.04084530845284462,-0.10509711503982544,-0.017619892954826355,0.06615559756755829,-0.04538174718618393,-0.024932516738772392,-0.04448484629392624,0.03736719861626625,0.11324334144592285,-0.12009494751691818,0.08982950448989868,-0.02216586098074913,0.0001774549309629947,0.08287211507558823,0.10775665193796158,-0.04274152219295502,0.04062683880329132,-0.048627763986587524,0.03760087862610817,0.03949952870607376,-0.1044074073433876,0.07253474742174149,-0.04282410442829132,-0.03433360159397125,-0.04992111027240753,0.029867755249142647,-0.08001070469617844,-0.07036415487527847,0.04148819297552109,0.14205479621887207,-0.041789498180150986,0.04227360710501671,-0.04286796599626541,0.07100074738264084,0.03063567727804184,0.031166644766926765,0.07820729911327362,0.03896821290254593,-0.08980916440486908,0.1295745074748993,-0.05892084538936615,-0.026647474616765976,-0.03703872486948967,0.00507096853107214,-0.004789254628121853,0.026931628584861755,-0.05951516702771187,0.0284714475274086,0.005519909784197807,0.06811589747667313,0.09429313242435455,-0.012831948697566986,0.01372670941054821,-0.007541600149124861,0.07721643894910812,-0.09402911365032196,0.06300610303878784,0.09920185059309006,0.014832145534455776,0.0148388696834445,0.007977742701768875,0.02082206681370735,0.06727524846792221,-0.14141719043254852,-0.06597530841827393,-0.10191924124956131,-0.017361721023917198,-0.11083943396806717,0.08778934180736542,-0.08692929893732071,0.06426387280225754,-0.022410674020648003,-0.03631424158811569,0.09160537272691727,-0.04187443479895592,-0.13011187314987183,-0.07212930917739868,-0.014233594760298729,0.11624540388584137,0.02067447640001774,0.03480379655957222,-0.09860503673553467,-0.11299579590559006,0.018585292622447014,0.06580264866352081,0.01995633915066719,0.04522230103611946,-0.10657285898923874,-0.033284664154052734,0.09841133654117584,0.04562217369675636,0.04899540916085243,0.03864986076951027,-0.054736074060201645,0.10101059824228287,0.011298961006104946,-0.010095912963151932,-0.01685776747763157,0.05566943436861038,-0.052957456558942795,-0.12333697825670242,0.03848464787006378,0.05205000564455986,0.12003576010465622,-0.05056210234761238,0.024218719452619553,-0.014236156828701496,-0.08713897317647934,-0.02310548909008503,0.007459442596882582,0.05570035055279732,0.08169461786746979,0.01654629036784172,-0.0983365997672081,0.12304934114217758,0.007930898107588291,-0.044508032500743866,0.029979713261127472,-0.13631445169448853,-0.041394781321287155,0.12678034603595734,-0.004509624559432268,-0.0857715755701065,-0.05730839818716049,-0.05651867762207985,-0.022065529599785805,-0.06959451735019684,-0.06241224706172943,-0.016590794548392296,0.03666609525680542,-0.05497896298766136,0.057201262563467026,-0.06535712629556656,0.0888882577419281,-0.020554762333631516,0.01368702296167612,0.1030968502163887,-0.03255065158009529,-0.11193680018186569,0.07158994674682617,0.06408213824033737,0.07652658969163895,-0.027758929878473282,-0.01102352887392044,0.012157074175775051,0.06880141794681549,-0.011765840463340282,-0.07860586047172546,0.005672628525644541,0.026107586920261383,-0.06638772785663605,0.11486691981554031,0.0023529743775725365,-0.0867471769452095,-0.03997216001152992,-0.04688439145684242,-0.014113777317106724,-0.05568119138479233,0.04267832636833191,-0.0012620559427887201,0.009208222851157188,-0.08528636395931244,0.09327945858240128,0.12670674920082092,-0.0563666969537735,0.11935146898031235,-0.01745416410267353,0.006483736447989941,0.02450103871524334,0.07513287663459778,0.011510446667671204,0.03714769706130028,-0.13244006037712097,-0.06188690662384033,0.016570618376135826,-0.006995812989771366,-0.00934320967644453,0.08515039086341858,0.06990186125040054,0.09887474775314331,0.12654274702072144,0.017869435250759125,-0.04214496165513992,-0.04934525117278099,0.08558707684278488,0.1428011953830719,0.06962578743696213,-0.0355214923620224,0.05263557657599449,-0.014333418570458889,0.01256918627768755,-0.05896811559796333,-0.012149910442531109,0.0559043288230896,-0.007316738832741976,0.04119427129626274,-0.05698692798614502,0.12388163059949875,-0.1292525976896286,-0.10600750148296356,0.005325618200004101,-0.014739160425961018,0.006250701379030943,0.06045142561197281,-0.0467122346162796,-0.05575285479426384,0.061187248677015305,-0.04830322042107582,-0.054279960691928864,-0.12205234169960022,0.04432482272386551,-0.12668684124946594,-0.07172868400812149,0.11247140914201736,0.051851823925971985,0.018660863861441612,-0.009998436085879803,0.002760346746072173,0.10896021127700806,-0.02697473205626011,0.0031921647023409605,-0.042339153587818146,0.07311059534549713,0.03748318925499916,-0.08089970052242279,-0.08197181671857834,-0.021065691486001015,-0.05540677532553673,0.053868044167757034,-0.0032058674842119217,0.04720861837267876,-0.016944484785199165,-0.006013022270053625,-0.0010490847053006291,-0.122528575360775,0.057119306176900864,0.008847503922879696,-0.011831702664494514,0.12592722475528717,0.014017320238053799,0.042561594396829605,-0.07155177742242813,0.02413385920226574,-0.0834435448050499,0.07497538626194,0.009926917031407356,-0.10059508681297302,-0.011745261028409004,0.01801491715013981,-0.004651073832064867,0.0010513593442738056,-0.027158133685588837,-0.09512229263782501,-0.06967715919017792,-0.006215778179466724,0.03229311853647232,0.03413483873009682,0.03641807660460472,0.018334293738007545,-0.017482684925198555,-0.1412234604358673,0.03472123667597771,0.00025184114929288626,-0.02670253999531269,-0.027942873537540436,-0.16926492750644684,0.0650542750954628,0.005534288939088583,0.05847444385290146,0.10941894352436066,-0.055570874363183975,-0.06167110428214073,-0.06376621127128601,0.008703020401299,0.06593214720487595,0.026301544159650803,0.005840946454554796,-0.03906778246164322,0.0771360918879509,-0.03964809328317642,-0.09823960810899734,0.1299663484096527,-0.12767663598060608,-0.0916510745882988,-0.012225179001688957,0.01538389828056097,-0.015862498432397842,-0.0301912110298872,-0.01696523278951645,0.0739043653011322,0.015197660773992538,-0.07920140027999878,-0.05064697563648224,-0.07436658442020416,0.026390790939331055,-0.11588367819786072,-0.028985120356082916,0.10183949768543243,-0.06931563466787338,0.06606101989746094,-0.055344171822071075,0.04881272837519646,0.03656473383307457,-0.08823321014642715,-0.005834071431308985,0.002188904443755746,-0.0431656688451767,-0.0181513000279665,0.060401201248168945,0.0262910109013319,0.019754689186811447,-0.0625072568655014,-0.019965490326285362,0.014033667743206024,-0.07591359317302704,-0.00692779803648591,-0.0709948018193245,0.0020714709535241127,0.016673626378178596,-0.001065987627953291,0.01165259350091219,-0.007181950844824314,-0.09601781517267227,-0.08180961012840271,-0.0838284119963646,0.09670751541852951,-0.11109846085309982,0.0014439905062317848,-0.020847108215093613,0.04127044975757599,-0.01626451499760151,0.025704825296998024,0.02661300078034401,-0.06275767087936401,0.029981514438986778,-0.06367678195238113,-0.07538635283708572,-0.034191425889730453,0.11828693002462387,0.040642764419317245,-0.012801804579794407,0.006263777147978544,-0.0018673278391361237,-0.08216555416584015,-0.018536563962697983,0.015864593908190727,-0.035218674689531326,0.07542084157466888,-0.008311336860060692,0.006408223882317543,0.05197281762957573,-0.003707854077219963,0.01869611069560051,-0.013757988810539246,0.07851354032754898,-0.020588181912899017,-0.09407396614551544,-0.015337245538830757,0.03982504829764366,-0.002421256387606263,-0.03793291747570038,-0.1316462606191635,-0.12057634443044662,-0.12903183698654175,0.06194816902279854,0.004972437396645546,-0.03444782271981239,-0.06557697057723999,0.09800560027360916,-0.02986748516559601,0.08985067158937454,-0.09472139924764633,-0.0012060173321515322,-0.047652289271354675,-0.09084971249103546,-0.00975662562996149,0.07681609690189362,0.03190082311630249,0.019876334816217422,-0.029637182131409645,-0.015150582417845726,-0.09614768624305725,0.05628803372383118,-0.08251972496509552,0.06943372637033463,-0.03308076411485672,0.00001691167381068226,0.07701753079891205,-0.0740818902850151,0.009834916330873966,-0.07240406423807144,-0.13207842409610748,-0.01734142377972603,-0.1162564679980278,0.10755225270986557,-0.04130210354924202,-0.04569056257605553,-0.004287382587790489,-0.014315984211862087,-0.07090231776237488,0.014030125923454762,0.057405125349760056,-0.0649757832288742,-0.04354662820696831,-0.018957655876874924,-0.020017292350530624,0.047514963895082474,0.015384377911686897,0.0034224658738821745,0.07215630263090134,0.06307010352611542,0.0791010782122612,-0.024879494681954384,0.051716580986976624,0.0984668880701065,-0.1232689917087555,-0.04360765963792801,-0.0248121190816164,-0.03042331337928772,-0.033968113362789154,-0.07420758903026581,-0.014936086721718311,0.021390780806541443,-0.09048943221569061,-0.06889355927705765,-0.043422915041446686,0.055007364600896835,0.04001163691282272,-0.017167581245303154,0.05428246036171913,-0.06283695995807648,-0.0009436815744265914,0.11974602192640305,-0.012064669281244278,-0.03203709051012993,-0.07812995463609695,0.005493342410773039,-0.07719669491052628,-0.10561545193195343,-0.04400477558374405,-0.015054580755531788,-0.08882616460323334,0.038725346326828,0.10789693146944046,-0.0013868396636098623,-0.05308658629655838,-0.00004024767258670181,0.027258018031716347,0.08615152537822723,-0.058086149394512177,-0.08586064726114273,-0.03013506904244423,0.003848340595141053,0.011013993062078953,0.04117554426193237,0.015981072559952736,-0.056991565972566605,0.07741954177618027,-0.023122910410165787,-0.020146092399954796,0.08980841189622879,-0.025747423991560936,0.09952104836702347,0.07239939272403717,-0.045383185148239136,-0.04713256284594536,0.022410346195101738,0.09696447104215622,-0.08344204723834991,-0.036453016102313995,0.009999355301260948,0.03318095952272415,-0.027922146022319794,-0.016569489613175392,0.08606158196926117,0.01640765368938446,0.04493723809719086,0.03204161301255226,-0.06484515964984894,0.04119656980037689,0.11125495284795761,-0.05438512936234474,0.07578162103891373,-0.017584972083568573,0.0821833610534668,-0.024109166115522385,-0.0479508712887764,-0.021050453186035156,0.05184025317430496,-0.027446605265140533,-0.04508182778954506,-0.04680388793349266,-0.08104164153337479,0.045603491365909576,0.09362375736236572,0.05817513167858124,0.13481688499450684,0.0636562779545784,-0.03737994655966759,-0.06305065751075745,-0.0000170451748999767,0.020122261717915535,0.037720028311014175,0.01004407275468111,0.015262404456734657,0.06743600964546204,-0.06932031363248825,0.015424789860844612,0.0225277841091156,-0.0015419661067426205,-0.020827272906899452,-0.000976791139692068,-0.10509301722049713,-0.14735601842403412,-0.13018788397312164,0.07990619540214539,0.06716287136077881,0.015151042491197586,0.09178350865840912,0.07480917125940323,-0.0011207046918570995,0.10718642920255661,0.035907864570617676,-0.04482477903366089,-0.0015950370579957962,0.009956207126379013,0.009322400204837322,-0.01732168160378933,0.02985692210495472,-0.03076552040874958,-0.027607999742031097,-0.13586106896400452,0.001475250581279397,0.023668481037020683,-0.12957102060317993,-0.03609086573123932,0.05158211663365364,-0.06752841174602509,0.014532380737364292,-0.0771787241101265,0.022794263437390327,-0.04334120824933052,0.02007446624338627,-0.037934109568595886,0.042683519423007965,-0.023545414209365845,-0.05563143268227577,-0.01276662852615118,0.09997392445802689,0.01066525373607874,-0.0872330293059349,0.01934380643069744,0.07849746942520142,0.1335349977016449,-0.12724269926548004,0.10304714739322662,-0.08976089954376221,0.0017493561608716846,0.10191610455513,-0.044932037591934204,-0.031352393329143524,-0.04360885173082352,-0.015591049566864967,0.02262972667813301,-0.04593751206994057,0.028812455013394356,0.04595554247498512,0.030286185443401337,0.07425914704799652,-0.009278877638280392,-0.017566228285431862,0.06776735186576843,-0.12231750041246414,-0.07837814837694168,-0.06207415461540222,-0.03367320075631142,-0.02615649253129959,0.017496325075626373,0.054086700081825256,0.05820257216691971,0.07569532841444016,-0.0666918158531189,0.013132982887327671,0.05802823230624199,-0.07168283313512802,-0.08890350908041,0.05275513976812363,-0.030144525691866875,-0.1040213406085968,-0.01656145416200161,-0.005152930039912462,0.0032857402693480253,0.011014317162334919,-0.041083771735429764,-0.013694148510694504,-0.11137266457080841,-0.03927148878574371,-0.004245833959430456,0.052243854850530624,0.057056911289691925,-0.029507584869861603,0.11348575353622437,-0.04514852538704872,-0.12436612695455551,0.008907463401556015,0.08827491104602814,-0.003709948156028986,0.05348403379321098,-0.02739866077899933,0.0956144705414772,-0.05998282879590988,0.025715570896863937,-0.06592258810997009,-0.048984695225954056,-0.09166877716779709,-0.12565664947032928,-0.0434398278594017,-0.03972315043210983,-0.048452045768499374,-0.03531784191727638,0.05479944124817848,-0.02877521887421608,0.014440643601119518,0.022202981635928154,0.08094549924135208,0.044805727899074554,0.009683058597147465,-0.06292183697223663,0.00795912928879261,0.06072593107819557,-0.06690318882465363,-0.029454004019498825,-0.051753878593444824,-0.023616157472133636,-0.05194612964987755,0.009328952059149742,-0.06612704694271088,0.09227322041988373,-0.08105102181434631,-0.06269189715385437,-0.08971597999334335,0.07071911543607712,-0.11742366850376129,0.041576284915208817,0.04640546813607216,-0.07551629096269608,-0.010591837577521801,0.033206380903720856,0.004172323737293482,-0.004104770254343748,0.07748395204544067,-0.04565691947937012,-0.08420352637767792,0.04448885843157768,-0.02782292477786541,-0.08450517058372498,0.03222835063934326,0.029392385855317116,-0.048226840794086456,0.022214405238628387,-0.05071399733424187,-0.02745278924703598,0.025977784767746925,0.01275811716914177,-0.007314801216125488,-0.06293217092752457,0.03986474499106407,-0.05724984034895897,0.029447853565216064,-0.06578520685434341,-0.06422553211450577,-0.006874685175716877,-0.031934089958667755,-0.11146026104688644,0.0730866938829422,-0.07810992747545242,0.13132645189762115,0.09125492721796036,-0.013690323568880558,0.05414685979485512,0.02060038410127163,0.11918827891349792,-0.04149588197469711,-0.04310675337910652,0.02889399230480194,-0.02258843369781971,-0.07420621067285538,-0.15126708149909973,0.010350026190280914,-0.1256786435842514,0.07727156579494476,0.02049625851213932,0.09983145445585251,-0.01906031183898449,-0.13680176436901093,0.05318049341440201,0.006501264404505491,-0.046935468912124634,-0.08970505744218826,-0.10578344017267227,-0.058666955679655075,0.00011972783249802887,0.03767607733607292,-0.03503112494945526,0.02888638898730278,-0.03419020026922226,-0.05699016526341438,-0.11606147140264511,0.0038756101857870817,-0.13513611257076263,0.014996611513197422,-0.014046726748347282,-0.09466633945703506,-0.06387341767549515,-0.10855772346258163,-0.0039047589525580406,0.06197736784815788,-0.014910601079463959,-0.07158565521240234,0.03233477100729942,0.05108848214149475,0.021044665947556496,-0.0727534070611,-0.031909141689538956,-0.020247463136911392,-0.06767474114894867,-0.05056155100464821,-0.06390034407377243,-0.058191485702991486,0.004758778028190136,-0.08744505047798157,-0.018795255571603775,-0.1535106599330902,0.04765992611646652,0.017774326726794243,0.02623395435512066,0.06059806048870087,0.09245684742927551,-0.02411593124270439,0.026695875450968742,0.12392836064100266,0.04293769598007202,-0.04090617969632149,-0.0706828162074089,-0.013426197692751884,0.036146972328424454,-0.09017104655504227,0.0662214532494545,0.025525305420160294,-0.02790563926100731,-0.02031923644244671,-0.013806715607643127,-0.08041715621948242,-0.057422131299972534,-0.035149745643138885,0.02444307692348957,-0.09273616224527359,-0.041961170732975006,-0.12870192527770996,0.035934027284383774,-0.09333324432373047,0.14960877597332,-0.07059428095817566,0.056685883551836014,0.06364922970533371,-0.06815600395202637,0.038948796689510345,-0.11565054208040237,0.053944181650877,-0.03552694991230965,-0.04159928485751152,0.022369083017110825,-0.059914931654930115,0.12419554591178894,-0.11410626769065857,-0.02656724490225315,-0.06121111661195755,0.08061181008815765,-0.005300260614603758,0.059497732669115067,-0.021173793822526932,0.07434023916721344,-0.012765834107995033,0.00176550995092839,-0.0575869157910347,0.002761732554063201,-0.10947361588478088,0.02121264860033989,0.06012365221977234,0.09383577853441238,-0.061867814511060715,-0.034890636801719666,-0.03499551862478256,-0.041536394506692886,0.09350819140672684,-0.07754263281822205,0.03378952667117119,0.1676410585641861,-0.06508529931306839,0.1063876748085022,0.02839396521449089,-0.042287323623895645,0.09908334165811539,-0.0523504763841629,0.046320151537656784,0.06434030830860138,0.059792980551719666,0.06649472564458847,-0.02103401906788349,0.06865040212869644,0.005235153250396252,0.06879505515098572,0.019123055040836334,-0.005480705760419369,0.0019648822490125895,0.0009968040976673365,-0.019074127078056335,0.04157382622361183,0.010480156168341637,-0.04008112847805023,-0.11224714666604996,0.06893520057201385,-0.05206542834639549,0.09284785389900208,0.011719181202352047,-0.023177439346909523,0.008676767349243164,-0.03443488851189613,0.06152508035302162,-0.08532153069972992,-0.08128625154495239,-0.03907357156276703,0.09393730014562607,0.08736886084079742,